#############################################################################
## Copyright (c) 1996, Carnegie Mellon University, Cambridge University,
## Ronald Rosenfeld and Philip Clarkson
#############################################################################
=============================================================================
===============  This file was produced by the CMU-Cambridge  ===============
===============     Statistical Language Modeling Toolkit     ===============
=============================================================================
This is a 3-gram language model, based on a vocabulary of 6942 words,
  which begins "1", "12", "14"...
This is an OPEN-vocabulary model (type 1)
  (OOVs were mapped to UNK, which is treated as any other vocabulary word)
Absolute discounting was applied.
1-gram discounting constant : 0.649728
2-gram discounting constant : 0.823919
3-gram discounting constant : 0.928324
This file is in the ARPA-standard format introduced by Doug Paul.

p(wd3|wd1,wd2)= if(trigram exists)           p_3(wd1,wd2,wd3)
                else if(bigram w1,w2 exists) bo_wt_2(w1,w2)*p(wd3|wd2)
                else                         p(wd3|w2)

p(wd2|wd1)= if(bigram exists) p_2(wd1,wd2)
            else              bo_wt_1(wd1)*p_1(wd2)

All probs and back-off weights (bo_wt) are given in log10 form.

Data formats:

Beginning of data mark: \data\
ngram 1=nr            # number of 1-grams
ngram 2=nr            # number of 2-grams
ngram 3=nr            # number of 3-grams

\1-grams:
p_1     wd_1 bo_wt_1
\2-grams:
p_2     wd_1 wd_2 bo_wt_2
\3-grams:
p_3     wd_1 wd_2 wd_3 

end of data mark: \end\

\data\
ngram 1=6943
ngram 2=25494
ngram 3=35247

\1-grams:
-4.9821 <UNK>	0.0000
-4.3961 1	-0.0621
-4.9821 12	-0.0824
-4.0014 14	-0.3851
-4.9821 145	-0.0639
-4.9821 15	-0.0822
-4.9821 1826	-0.0774
-4.9821 187	-0.0834
-4.3961 1878	-0.0745
-4.9821 188	-0.0726
-4.9821 1886	-0.0748
-4.0014 1889	-0.0674
-4.9821 1er	-0.0841
-4.9821 1º	-0.0775
-4.3961 2	-0.0779
-4.9821 20	-0.0822
-4.9821 2e	-0.0840
-4.9821 2º	-0.0754
-4.0014 3	-0.0555
-4.3961 31	-0.3851
-4.9821 37th	-0.0841
-4.9821 3e	-0.0808
-4.3961 4	-0.0833
-4.9821 5	-0.0841
-4.9821 59	-0.0838
-3.8880 6	-0.0799
-4.9821 7	-0.0841
-4.1554 8	-0.0840
-4.3961 80	-0.0708
-4.1554 81	-0.0780
-4.9821 86	-0.0773
-4.9821 9	-0.0841
-4.9821 90	-0.0841
-2.9906 _	-0.1064
-4.9821 _0	-0.0808
-4.9821 _albert	-0.0841
-4.3961 _alma	-0.3851
-4.9821 _amour	-0.0791
-4.9821 _black_	-0.0841
-4.9821 _buvons	-0.0726
-4.9821 _by	-0.0841
-4.9821 _c	-0.0802
-4.9821 _chemist	-0.0841
-4.9821 _chemist_	-0.0801
-4.1554 _comfortable_	-0.5611
-4.9821 _conscius	-0.0841
-4.9821 _deuils	-0.0841
-4.9821 _do	-0.0841
-4.9821 _donna	-0.0841
-4.9821 _défense	-0.0841
-4.9821 _english	-0.0841
-4.9821 _espoir	-0.0639
-4.9821 _et	-0.0826
-4.9821 _exclusively	-0.0841
-4.9821 _fluctuat	-0.0841
-4.9821 _good	-0.0841
-4.9821 _hold	-0.0841
-4.9821 _if	-0.0841
-4.9821 _l	-0.0841
-4.3961 _la	-0.0838
-4.9821 _mai	-0.0841
-4.9821 _mistress_	-0.0840
-4.9821 _my	-0.0841
-4.9821 _of	-0.0841
-4.9821 _on	-0.0813
-4.9821 _open	-0.0841
-4.9821 _or	-0.0836
-4.9821 _ou	-0.0727
-4.9821 _parfume	-0.0726
-4.9821 _quantum	-0.0841
-4.9821 _raram	-0.0841
-4.9821 _struggles	-0.0841
-4.9821 _surgeon	-0.0841
-4.9821 _that	-0.0841
-4.3961 _the	-0.0841
-4.9821 _truc	-0.0841
-4.9821 _we	-0.0841
-4.9821 _y	-0.0841
-4.9821 _yes	-0.0841
-2.3160 a	-0.2413
-4.9821 abandon	-0.0639
-4.9821 abandonnait	-0.0817
-4.9821 abandonnent	-0.0838
-4.9821 abandonner	-0.0754
-4.9821 abattaient	-0.0841
-4.9821 abattirent	-0.0821
-4.9821 abattit	-0.0841
-4.9821 abattoirs	-0.0639
-4.9821 abattu	-0.0826
-4.3961 abbé	-0.3737
-3.5557 abord	-0.1134
-4.9821 abraham	-0.0841
-4.9821 abri	-0.0841
-4.9821 abriteraient	-0.0773
-4.9821 abrutir	-0.0726
-4.9821 abrègent	-0.0754
-4.9821 abrégea	-0.0773
-4.1554 absence	-0.0563
-4.9821 absenter	-0.0791
-4.3961 absinthe	-0.3737
-4.1554 absinthes	-0.0786
-4.9821 absolu	-0.0837
-4.0014 absolument	-0.0818
-4.9821 absorbait	-0.0773
-4.9821 absorbèrent	-0.0794
-4.9821 abus	-0.0639
-4.9821 académie	-0.0639
-4.9821 acariâtre	-0.0819
-4.9821 accablent	-0.0727
-4.9821 accent	-0.0639
-4.9821 acceptai	-0.0821
-4.9821 accessoires	-0.0833
-4.3961 accident	-0.0837
-4.9821 acclimatation	-0.0804
-4.9821 accompagnais	-0.0773
-4.3961 accompagnait	-0.0685
-4.3961 accompli	-0.0804
-4.9821 accomplie	-0.0841
-4.1554 accomplir	-0.0814
-4.9821 accomplissaient	-0.0726
-4.3961 accomplissait	-0.0810
-4.9821 accomplit	-0.0841
-4.3961 accord	-0.3832
-4.9821 accords	-0.0748
-4.9821 accorte	-0.0841
-4.9821 accouchait	-0.0639
-4.9821 accouché	-0.0786
-4.9821 accouchée	-0.0727
-4.9821 accoutré	-0.0786
-4.9821 accrocha	-0.0821
-4.3961 accueil	-0.0678
-4.9821 accueilli	-0.0839
-4.9821 accuse	-0.0794
-4.9821 accusé	-0.0838
-4.3961 accès	-0.0782
-4.9821 acharnés	-0.0748
-4.9821 achetait	-0.0823
-4.0014 acheter	-0.0708
-4.9821 acheteuse	-0.0813
-4.9821 acheté	-0.0775
-4.9821 achevèrent	-0.0639
-3.5557 achète	-0.7717
-4.1554 acier	-0.0814
-4.3961 acquiesçai	-0.0614
-4.9821 acquis	-0.0825
-4.3961 acquittée	-0.0800
-4.9821 actes	-0.0639
-4.1554 action	-0.0775
-4.9821 actuelle	-0.0775
-4.9821 actuellement	-0.0841
-4.9821 acétate	-0.0639
-4.3961 ad	-0.3851
-4.9821 adaptation	-0.0841
-4.9821 adapte	-0.0748
-4.9821 adaptent	-0.0748
-4.9821 adhésions	-0.0841
-4.3961 adieu	-0.0730
-4.9821 adieux	-0.0748
-4.9821 adjoindre	-0.0769
-4.9821 adjoint	-0.0820
-4.3961 adjudant	-0.0832
-4.9821 admets	-0.0841
-4.9821 administrai	-0.0775
-4.9821 administrait	-0.0754
-4.9821 administratif	-0.0841
-4.9821 administration	-0.0831
-4.9821 administrations	-0.0639
-4.9821 administrer	-0.0821
-4.9821 administré	-0.0832
-4.9821 administrés	-0.0826
-4.9821 admira	-0.0831
-4.9821 admirable	-0.0841
-4.3961 admirablement	-0.0838
-4.9821 admirai	-0.0837
-4.9821 admiratif	-0.0731
-4.3961 admiration	-0.0816
-4.1554 admirer	-0.0593
-4.9821 admises	-0.0726
-4.9821 adopté	-0.0727
-4.9821 adoptée	-0.0826
-4.9821 adora	-0.0731
-4.3961 adorable	-0.0841
-4.3961 adorablement	-0.0773
-4.9821 adorais	-0.0816
-4.3961 adorait	-0.0764
-4.3961 adore	-0.0768
-4.9821 adorée	-0.0826
-4.9821 adoucir	-0.0841
-4.9821 adressa	-0.0775
-4.9821 adressait	-0.0840
-3.8880 adresse	-0.0660
-4.9821 adresser	-0.0748
-4.9821 adroitement	-0.0841
-4.9821 adulte	-0.0794
-4.9821 adultère	-0.0841
-4.9821 adverse	-0.0840
-4.3961 advint	-0.3849
-4.3961 affabilité	-0.0775
-4.9821 affable	-0.0821
-4.9821 affables	-0.0840
-3.7981 affaire	-0.2242
-4.9821 affaires	-0.0639
-4.9821 affairés	-0.0841
-4.9821 affaissa	-0.0821
-4.9821 affection	-0.0786
-4.9821 affichage	-0.0801
-4.9821 affiches	-0.0639
-4.9821 affirme	-0.0808
-4.9821 affirmer	-0.0815
-4.9821 affleurait	-0.0773
-4.9821 affliction	-0.0841
-4.9821 afflictions	-0.0639
-4.9821 afflige	-0.0823
-4.9821 affliger	-0.0726
-4.9821 affranchie	-0.0826
-4.9821 affranchissement	-0.0821
-4.9821 affriolantes	-0.0841
-4.9821 affronter	-0.0773
-4.9821 affublait	-0.0826
-4.3961 afin	-0.0752
-4.3961 africaine	-0.0786
-4.9821 afrique	-0.0804
-4.9821 aggravait	-0.0769
-4.9821 aggravante	-0.0808
-4.9821 aggravation	-0.0840
-4.9821 agi	-0.0639
-4.9821 agilité	-0.0808
-4.3961 agit	-0.0581
-4.9821 agonie	-0.0840
-4.9821 agréable	-0.0819
-4.9821 agréments	-0.0639
-3.1971 ah	-0.1736
-4.3961 ahuri	-0.0821
-4.9821 ahurie	-0.0841
-4.9821 ahurissement	-0.0836
-2.6982 ai	-0.2013
-4.1554 aide	-0.2342
-4.3961 aidé	-0.0623
-4.9821 aie	-0.0841
-4.9821 aigreur	-0.0821
-3.7237 aiguille	-0.0620
-4.9821 aiguillon	-0.0808
-4.9821 aiguisait	-0.0817
-4.9821 aiguë	-0.0816
-4.9821 ail	-0.0836
-4.3961 aile	-0.0832
-4.3961 ailes	-0.0837
-3.4348 ailleurs	-0.0720
-4.9821 aimable	-0.0810
-3.7237 aimais	-0.0746
-3.7237 aimait	-0.0748
-3.4715 aime	-0.2450
-4.3961 aiment	-0.0710
-4.9821 aimerais	-0.0837
-4.9821 aimeras	-0.0823
-4.9821 aimez	-0.0808
-4.3961 aimé	-0.0836
-3.5557 ainsi	-0.1470
-3.1582 air	-0.1576
-4.1554 airs	-0.0639
-4.1554 aisance	-0.0801
-3.8880 aise	-0.0532
-4.9821 aisées	-0.0804
-4.9821 aisément	-0.0826
-4.3961 ait	-0.0727
-3.7981 ajouta	-0.2403
-4.9821 ajoutai	-0.0841
-4.3961 ajoutait	-0.0723
-4.9821 ajoute	-0.0639
-4.0014 ajouter	-0.3796
-4.9821 ajouterai	-0.0786
-4.9821 ajouté	-0.0801
-4.9821 albe	-0.0841
-4.3961 alcide	-0.3851
-4.9821 alcôve	-0.0727
-4.3961 ale	-0.0769
-4.9821 alentour	-0.0726
-4.3961 algérie	-0.0833
-4.9821 alimentation	-0.0808
-4.9821 alimentée	-0.0826
-4.9821 aliénation	-0.0841
-4.1554 alla	-0.0828
-4.3961 allai	-0.0816
-4.3961 allaient	-0.0833
-3.8880 allais	-0.0813
-3.4010 allait	-0.0452
-3.5557 aller	-0.1172
-3.7237 allez	-0.3181
-4.3961 allocution	-0.0766
-4.9821 allongent	-0.0841
-3.6602 allons	-0.1368
-4.9821 allume	-0.0838
-4.9821 allumer	-0.0727
-4.9821 allumette	-0.0841
-4.9821 allumettes	-0.0841
-4.1554 allumons	-0.5498
-4.9821 allumé	-0.0819
-4.1554 allumée	-0.0586
-4.3961 allure	-0.0613
-4.9821 allures	-0.0841
-4.9821 allègrement	-0.0840
-4.3961 allèrent	-0.0809
-4.9821 allée	-0.0835
-4.9821 allées	-0.0826
-4.9821 allégresse	-0.0639
-4.9821 allés	-0.0818
-4.9821 almées	-0.0831
-2.7834 alors	-0.2265
-4.9821 alpaga	-0.0804
-4.9821 alphonse	-0.0841
-4.9821 alternative	-0.0774
-4.9821 amaigries	-0.0817
-4.9821 amante	-0.0775
-4.3961 amants	-0.0815
-4.9821 amarraient	-0.0786
-4.9821 amas	-0.0841
-3.7981 amateur	-0.0709
-4.9821 ambiant	-0.0815
-4.9821 ambulance	-0.0841
-4.3961 amena	-0.0745
-4.3961 amener	-0.0745
-4.9821 amené	-0.0791
-4.9821 amenée	-0.0791
-4.3961 amenés	-0.0800
-4.9821 amer	-0.0841
-2.9660 ami	-0.1223
-4.9821 amicale	-0.0841
-4.9821 amidon	-0.0731
-3.6048 amie	-0.0569
-3.5557 amis	-0.1166
-4.1554 amitié	-0.0480
-4.9821 amoncellement	-0.0786
-4.9821 amor	-0.0837
-3.3130 amour	-0.1072
-4.3961 amoureuse	-0.0786
-3.6602 amoureux	-0.1685
-4.9821 amours	-0.0837
-4.9821 amplement	-0.0841
-4.9821 amsterdam	-0.0840
-4.3961 amusait	-0.0837
-4.9821 amusant	-0.0820
-4.3961 amusante	-0.0840
-4.3961 amuse	-0.0745
-4.0014 amuser	-0.1996
-4.9821 amusé	-0.0801
-4.9821 amusés	-0.0831
-4.9821 amyot	-0.0815
-4.9821 amère	-0.0841
-4.0014 américain	-0.0781
-4.0014 américaine	-0.0632
-4.0014 américains	-0.2022
-4.1554 amérique	-0.0736
-4.9821 an	-0.0727
-4.9821 analogue	-0.0841
-4.9821 analyse	-0.0840
-4.9821 analyser	-0.0837
-4.3961 anatomie	-0.0763
-3.7237 ancien	-0.0834
-4.1554 ancienne	-0.2601
-4.9821 anciennes	-0.0841
-4.9821 anciens	-0.0841
-4.9821 ancêtres	-0.0731
-4.3961 and	-0.0841
-4.9821 andouille	-0.0727
-4.9821 andouilles	-0.0731
-3.7237 andouilly	-0.0604
-4.9821 anesthesie	-0.0833
-4.1554 anesthésie	-0.0839
-4.9821 angers	-0.0731
-3.4348 anglais	-0.0677
-4.3961 anglaise	-0.0771
-3.8880 anglaises	-0.2900
-4.1554 angleterre	-0.0707
-4.1554 angoisse	-0.0816
-3.5557 angéline	-0.0547
-3.5557 animal	-0.0888
-4.9821 animalier	-0.0841
-4.0014 animaux	-0.1980
-4.9821 animé	-0.0833
-4.9821 anisettes	-0.0786
-4.9821 annonce	-0.0794
-4.9821 annoncèrent	-0.0838
-4.9821 annonça	-0.0841
-4.3961 annonçait	-0.0631
-3.4715 année	-0.1452
-3.7981 années	-0.0583
-4.9821 anodines	-0.0839
-3.3130 ans	-0.1078
-4.3961 antécédents	-0.0826
-4.9821 antédiluviennes	-0.0839
-4.3961 anxieux	-0.0724
-4.9821 apanage	-0.0794
-4.9821 apercevait	-0.0838
-4.0014 apercevoir	-0.0607
-4.9821 aperçu	-0.0727
-4.9821 aperçurent	-0.0832
-4.3961 aperçus	-0.0814
-4.9821 aperçut	-0.0841
-3.7237 aphasie	-0.1415
-4.3961 aplomb	-0.0841
-3.8880 apoplectique	-0.0675
-3.8880 apothicaire	-0.0489
-4.9821 apothicaires	-0.0840
-4.3961 apparaissait	-0.0750
-4.9821 apparaît	-0.0801
-4.3961 apparaître	-0.0680
-3.8880 appareil	-0.0619
-4.9821 apparence	-0.0639
-4.9821 apparente	-0.0823
-4.3961 apparition	-0.0659
-3.6048 appartement	-0.1500
-4.9821 appartenait	-0.0840
-4.9821 appartiendrait	-0.0832
-4.9821 appartiennent	-0.0817
-4.9821 apparut	-0.0816
-4.9821 appela	-0.0841
-4.9821 appelais	-0.0817
-3.5115 appelait	-0.1456
-4.3961 appeler	-0.0826
-4.9821 appelez	-0.0726
-4.9821 appellation	-0.0841
-4.9821 appellations	-0.0841
-3.6048 appelle	-0.2367
-4.1554 appellent	-0.0654
-4.9821 appellerai	-0.0841
-4.3961 application	-0.0800
-4.9821 applications	-0.0639
-4.9821 appliquaient	-0.0841
-4.9821 appliquait	-0.0748
-4.9821 appliquant	-0.0748
-4.9821 appliquer	-0.0791
-4.9821 appliquât	-0.0769
-4.9821 appliquèrent	-0.0748
-4.9821 appliqué	-0.0818
-4.9821 appointements	-0.0769
-4.0014 apporta	-0.0610
-4.1554 apportait	-0.0506
-4.9821 apporte	-0.0748
-4.3961 apporter	-0.0659
-4.9821 apprenait	-0.0826
-4.9821 apprenant	-0.0726
-4.9821 apprend	-0.0748
-4.9821 apprenti	-0.0639
-4.0014 appris	-0.0627
-4.9821 apprit	-0.0808
-4.9821 approbation	-0.0810
-4.3961 approcha	-0.3650
-4.9821 approchait	-0.0838
-4.9821 appréciable	-0.0639
-4.9821 appréciation	-0.0774
-4.9821 apprêtais	-0.0748
-4.9821 apprîmes	-0.0786
-4.9821 appuya	-0.0826
-4.9821 appuyée	-0.0821
-4.9821 appâter	-0.0841
-4.9821 appétissant	-0.0774
-4.0014 appétit	-0.0638
-4.9821 appétits	-0.0841
-2.8512 après	-0.2631
-4.9821 aptitude	-0.0832
-4.9821 aptitudes	-0.0832
-4.9821 apéritif	-0.0748
-4.9821 apéritifs	-0.0731
-3.8880 aquarelle	-0.0464
-4.9821 aquarelliste	-0.0775
-4.9821 aquarellistes	-0.0794
-4.9821 aquarium	-0.0791
-4.9821 arbora	-0.0727
-4.9821 arbore	-0.0754
-4.9821 arbustes	-0.0841
-4.9821 arc	-0.0791
-4.0014 arcades	-0.0566
-4.3961 archéologie	-0.0784
-4.9821 archéologiques	-0.0817
-4.9821 archéologue	-0.0639
-3.7237 archéologues	-0.0619
-4.9821 ardente	-0.0794
-4.9821 ardeurs	-0.0786
-4.3961 ardoise	-0.0766
-4.9821 are	-0.0841
-3.5115 argent	-0.1362
-4.9821 argenteuil	-0.0805
-4.9821 ariette	-0.0791
-4.9821 aristocratique	-0.0786
-4.9821 arme	-0.0786
-4.0014 armure	-0.0708
-4.9821 armuriers	-0.0841
-4.9821 armée	-0.0833
-4.9821 arménienne	-0.0786
-4.3961 arracha	-0.0519
-4.9821 arrache	-0.0726
-4.3961 arracher	-0.0659
-4.9821 arrange	-0.0773
-4.9821 arrangeassent	-0.0817
-4.9821 arranger	-0.0823
-4.9821 arrangez	-0.0808
-4.9821 arrangées	-0.0801
-3.2629 arriva	-0.1386
-3.8880 arrivai	-0.1566
-4.9821 arrivais	-0.0815
-3.5557 arrivait	-0.1103
-4.3961 arrivant	-0.0811
-3.7237 arrive	-0.0504
-4.3961 arriver	-0.0829
-4.3961 arrivèrent	-0.3759
-4.0014 arrivé	-0.3758
-4.1554 arrivée	-0.0696
-4.9821 arrivés	-0.0832
-4.3961 arrière	-0.3850
-4.3961 arrondissement	-0.0805
-4.3961 arrosoirs	-0.0662
-4.3961 arrosé	-0.0670
-4.3961 arrêt	-0.0817
-4.1554 arrêta	-0.0740
-4.9821 arrête	-0.0794
-4.9821 arrêter	-0.0839
-3.7981 art	-0.0430
-4.9821 arthurson	-0.0838
-4.3961 article	-0.0797
-4.9821 articles	-0.0808
-4.9821 articulé	-0.0773
-4.9821 articulée	-0.0773
-4.9821 artifices	-0.0639
-4.9821 artificielles	-0.0794
-3.7981 artillerie	-0.0556
-4.9821 artilleur	-0.0805
-4.3961 artilleurs	-0.0730
-4.9821 artisan	-0.0805
-4.0014 artiste	-0.0758
-4.0014 artistes	-0.0598
-4.3961 artistiques	-0.0675
-4.9821 arts	-0.0754
-4.9821 artère	-0.0786
-4.3961 artères	-0.3650
-3.3130 as	-0.2560
-4.3961 asile	-0.3819
-4.9821 aspasie	-0.0840
-4.0014 aspect	-0.0808
-4.9821 asphyxiés	-0.0775
-4.9821 aspiré	-0.0731
-4.9821 assassinés	-0.0826
-4.9821 asseoir	-0.0838
-4.9821 asseyant	-0.0748
-4.9821 asseyez	-0.0808
-3.1225 assez	-0.1155
-4.9821 assiette	-0.0841
-4.3961 assiettes	-0.0590
-4.9821 assis	-0.0838
-4.3961 assistait	-0.3759
-4.3961 assistants	-0.0840
-4.0014 assister	-0.1974
-4.9821 assisté	-0.0818
-4.9821 association	-0.0786
-4.9821 assommèrent	-0.0832
-4.9821 assurance	-0.0786
-4.9821 assurances	-0.0826
-4.9821 assure	-0.0817
-4.9821 assurer	-0.0727
-4.9821 assureur	-0.0731
-4.9821 assuré	-0.0808
-4.9821 at	-0.0841
-4.1554 atelier	-0.0697
-3.6602 athanase	-0.0782
-4.9821 athlétique	-0.0808
-4.9821 atrophiées	-0.0841
-4.9821 attacha	-0.0775
-4.9821 attache	-0.0831
-4.9821 attachée	-0.0791
-4.9821 attarde	-0.0818
-4.9821 atteints	-0.0826
-4.9821 attelé	-0.0748
-4.9821 attelés	-0.0791
-4.3961 attend	-0.0724
-4.1554 attendait	-0.2392
-4.3961 attendant	-0.0703
-4.3961 attendis	-0.3784
-4.0014 attendre	-0.0574
-4.3961 attendrissement	-0.0815
-4.9821 attendrons	-0.0817
-4.0014 attends	-0.0607
-4.3961 attendu	-0.0759
-4.9821 attentif	-0.0832
-4.9821 attentifs	-0.0821
-4.0014 attention	-0.0652
-4.9821 attentions	-0.0810
-4.9821 attira	-0.0835
-4.3961 attirail	-0.0783
-4.9821 attirante	-0.0639
-4.9821 attiré	-0.0726
-3.6602 attitude	-0.1121
-4.9821 attitudes	-0.0841
-4.9821 attractions	-0.0841
-4.9821 attrait	-0.0786
-4.9821 attraper	-0.0773
-4.9821 attrapés	-0.0727
-4.3961 attribuai	-0.0723
-4.9821 attribuait	-0.0775
-2.2728 au	-0.2473
-4.3961 aube	-0.0821
-4.9821 auberge	-0.0808
-3.8880 aucun	-0.1608
-3.7981 aucune	-0.0837
-4.9821 auguste	-0.0841
-3.7981 aujourd	-0.8622
-4.9821 aunes	-0.0639
-4.0014 auprès	-0.3649
-4.3961 auquel	-0.0816
-4.9821 aura	-0.0836
-4.0014 auraient	-0.0791
-3.7981 aurais	-0.0761
-3.1057 aurait	-0.4600
-4.3961 auras	-0.0832
-4.9821 auriez	-0.0840
-4.9821 auriol	-0.0825
-4.3961 aurore	-0.0679
-4.9821 ausculte	-0.0808
-4.9821 ausculté	-0.0815
-2.9100 aussi	-0.0614
-4.0014 aussitôt	-0.0749
-4.9821 austère	-0.0841
-3.7981 autant	-0.2313
-4.9821 autels	-0.0841
-4.3961 auteur	-0.3650
-3.7981 autour	-0.2257
-3.0739 autre	-0.0817
-4.3961 autrefois	-0.0731
-4.9821 autrement	-0.0840
-3.0589 autres	-0.1064
-4.1554 autruches	-0.0625
-4.3961 auvergnate	-0.0809
-2.6854 aux	-0.1904
-4.9821 auxquelles	-0.0774
-3.2872 avaient	-0.0663
-3.1400 avais	-0.0795
-2.3983 avait	-0.1282
-4.3961 avalé	-0.0686
-4.1554 avance	-0.0802
-4.9821 avancer	-0.0839
-4.9821 avancée	-0.0816
-3.2629 avant	-0.1510
-4.9821 avantage	-0.0808
-4.9821 avantageux	-0.0841
-4.9821 avança	-0.0841
-4.9821 avare	-0.0805
-2.3408 avec	-0.4486
-4.9821 avem_	-0.0754
-4.9821 avenir	-0.0817
-3.6602 aventure	-0.0269
-4.3961 aventures	-0.0639
-4.3961 avenue	-0.3650
-4.9821 averse	-0.0840
-4.9821 averses	-0.0841
-4.9821 aversion	-0.0817
-4.3961 averti	-0.0692
-4.9821 averties	-0.0813
-4.9821 avertir	-0.0821
-4.9821 avertis	-0.0835
-4.9821 aveux	-0.0841
-3.2179 avez	-0.0966
-4.9821 aviez	-0.0836
-4.9821 avions	-0.0833
-4.9821 avisai	-0.0754
-4.3961 avocat	-0.0639
-3.0303 avoir	-0.0466
-4.0014 avons	-0.0766
-4.1554 avouer	-0.0719
-4.9821 avouerai	-0.0775
-4.9821 avoué	-0.0769
-4.9821 avril	-0.0639
-4.9821 axe	-0.0808
-3.8880 axelsen	-0.0759
-3.7981 ayant	-0.0783
-4.3961 ayez	-0.0638
-4.9821 azote	-0.0773
-4.3961 azur	-0.0639
-4.9821 aériennes	-0.0841
-4.1554 aîné	-0.0634
-4.9821 aînée	-0.0794
-4.9821 aïeux	-0.0639
-4.9821 babel	-0.0837
-3.3404 bacchante	-0.1210
-4.3961 badois	-0.0811
-4.3961 bah	-0.0722
-4.3961 baie	-0.0634
-4.9821 bail	-0.0731
-3.8880 bain	-0.1673
-4.9821 baiser	-0.0840
-4.1554 baisers	-0.2591
-4.0014 baisser	-0.1906
-4.9821 baissé	-0.0841
-4.3961 baker	-0.0606
-4.9821 baker_	-0.0769
-3.7981 bal	-0.2549
-4.9821 balancé	-0.0731
-4.9821 balayait	-0.0841
-4.9821 balayeur	-0.0731
-4.1554 balbutia	-0.0770
-4.9821 balcon	-0.0841
-4.9821 baleine	-0.0837
-4.3961 baleines	-0.0804
-3.5115 balizard	-0.0626
-4.9821 ballants	-0.0748
-4.9821 balle	-0.0791
-4.9821 balles	-0.0801
-4.3961 bals	-0.3851
-4.9821 balustrade	-0.0837
-4.9821 bambou	-0.0826
-4.9821 banaloïd	-0.0817
-4.9821 bancal	-0.0841
-4.9821 bancs	-0.0821
-4.3961 bande	-0.3650
-4.9821 bandoulière	-0.0731
-4.9821 bange	-0.0639
-4.9821 banlieue	-0.0775
-4.9821 banque	-0.0769
-4.9821 baptiser	-0.0817
-3.7237 baptiste	-0.0513
-4.9821 baptisé	-0.0837
-4.9821 baptême	-0.0820
-4.3961 baraque	-0.0731
-4.9821 barbarie	-0.0831
-4.9821 bardé	-0.0639
-4.9821 barnum	-0.0815
-3.8880 baronne	-0.0496
-4.9821 barques	-0.0841
-4.9821 barricade	-0.0805
-4.9821 bars	-0.0826
-3.4010 bas	-0.1496
-4.1554 basse	-0.5611
-4.9821 basses	-0.0773
-4.9821 bassin	-0.0639
-4.9821 bassins	-0.0731
-4.9821 bastion	-0.0639
-4.9821 bataillons	-0.0837
-4.3961 bateau	-0.0714
-3.8880 bateaux	-0.0616
-4.9821 batignolles	-0.0808
-4.9821 battaient	-0.0773
-4.1554 baudru	-0.0826
-4.9821 bavant	-0.0786
-4.9821 bavettes	-0.0836
-3.0303 beau	-0.2166
-3.0589 beaucoup	-0.4056
-4.9821 beaumont	-0.0774
-3.5115 beauté	-0.0640
-4.9821 beautés	-0.0639
-4.3961 beaux	-0.0837
-4.1554 bec	-0.0686
-4.3961 bedeau	-0.0755
-4.9821 bel	-0.0841
-3.1971 belle	-0.1425
-4.0014 belles	-0.0840
-4.9821 belligérants	-0.0841
-4.9821 belliqueux	-0.0839
-4.9821 bello	-0.0837
-4.9821 belveau	-0.0841
-4.0014 ben	-0.0766
-4.9821 benoîton	-0.0837
-4.9821 bergen	-0.0841
-4.9821 bergère	-0.0832
-4.9821 berné	-0.0754
-3.4348 bertha	-0.1159
-4.9821 berthe	-0.0808
-4.9821 besogne	-0.0831
-4.9821 besognes	-0.0841
-4.9821 besogneux	-0.0810
-4.3961 besoin	-0.0786
-4.9821 bibliothèques	-0.0841
-4.3961 biche	-0.0675
-4.9821 bidons	-0.0786
-2.2704 bien	-0.0776
-4.9821 bienfaisant	-0.0841
-4.9821 bienfaitrice	-0.0726
-3.5115 bientôt	-0.0795
-4.9821 bienveillant	-0.0836
-4.9821 bigrement	-0.0840
-4.9821 bijou	-0.0808
-4.9821 bijoux	-0.0794
-4.3961 billard	-0.0631
-4.3961 billes	-0.0627
-4.9821 billet	-0.0748
-4.9821 billets	-0.0805
-4.9821 bin	-0.0805
-4.9821 bitters	-0.0819
-4.1554 bizarre	-0.0644
-4.9821 bizarres	-0.0836
-3.5115 black	-0.1013
-4.9821 blafard	-0.0639
-3.6048 blagsmith	-0.0399
-4.9821 blaguaient	-0.0841
-3.7981 blague	-0.0499
-4.3961 blaguer	-0.3832
-4.0014 blagues	-0.1962
-3.6602 blanc	-0.1248
-4.3961 blanche	-0.0808
-4.9821 blanches	-0.0841
-4.9821 blanchir	-0.0775
-4.9821 blanchissent	-0.0791
-4.3961 blancs	-0.0841
-4.9821 blason	-0.0786
-4.3961 blesser	-0.3784
-4.0014 bleu	-0.0579
-4.9821 bleue	-0.0819
-4.3961 bleus	-0.0718
-4.9821 blinde	-0.0816
-4.9821 bloc	-0.0639
-4.3961 blond	-0.0833
-4.3961 blonde	-0.0830
-4.9821 blondes	-0.0794
-4.3961 blonds	-0.0787
-4.9821 blouse	-0.0748
-4.9821 blouses	-0.0841
-4.9821 blême	-0.0836
-4.9821 blêmissait	-0.0837
-4.3961 blêmit	-0.0724
-4.1554 boa	-0.0674
-4.9821 bock	-0.0818
-4.9821 bocks	-0.0791
-4.9821 bohème	-0.0774
-4.1554 boire	-0.0802
-3.8880 bois	-0.0655
-3.3130 boisflambard	-0.0552
-4.9821 boiteux	-0.0838
-4.9821 boivent	-0.0748
-2.9206 bon	-0.1559
-4.9821 bondit	-0.0639
-4.9821 bondés	-0.0786
-4.1554 bonheur	-0.0691
-4.9821 bonheurs	-0.0841
-3.8880 bonhomme	-0.0725
-3.6602 bonjour	-0.1876
-2.9427 bonne	-0.1206
-3.6602 bonnes	-0.1218
-4.9821 bonnets	-0.0639
-4.0014 bons	-0.2089
-4.9821 bonsoir	-0.0816
-4.9821 bonté	-0.0639
-4.9821 bordeaux	-0.0835
-4.9821 bordee	-0.0726
-4.1554 bords	-0.0638
-4.9821 bordé	-0.0821
-4.9821 bordés	-0.0639
-4.9821 borne	-0.0839
-4.9821 bornes	-0.0731
-4.9821 bosse	-0.0818
-4.9821 bossuet	-0.0809
-4.9821 botanique	-0.0748
-4.3961 bottes	-0.0840
-4.9821 botticelli	-0.0754
-4.9821 bottin	-0.0817
-4.9821 bottine	-0.0791
-3.6602 bottines	-0.1175
-3.6048 bouche	-0.1622
-4.1554 boucher	-0.0693
-4.9821 bouches	-0.0815
-4.9821 bouchon	-0.0819
-4.9821 bouclent	-0.0841
-4.9821 boudin	-0.0731
-3.8880 boue	-0.0720
-4.9821 bougeait	-0.0815
-4.9821 bougie	-0.0786
-4.9821 bougies	-0.0639
-4.1554 bougre	-0.0688
-4.9821 bouillant	-0.0801
-4.9821 bouillon	-0.0731
-4.3961 boulanger	-0.0767
-4.9821 boulangerie	-0.0839
-4.9821 boulangeries	-0.0808
-4.3961 boule	-0.0542
-4.9821 boulet	-0.0639
-4.9821 boulets	-0.0639
-3.6602 boulevard	-0.2649
-4.3961 boulevards	-0.0711
-4.9821 bouleversent	-0.0754
-4.9821 boulon	-0.0794
-4.9821 boulotté	-0.0833
-4.9821 bourdonnantes	-0.0821
-4.3961 bourgade	-0.0721
-4.9821 bourgeois	-0.0841
-4.9821 bourgeoise	-0.0841
-4.3961 bourgeoises	-0.0785
-4.9821 bourris	-0.0794
-4.3961 bourse	-0.0768
-3.7981 bout	-0.2224
-4.9821 boutade	-0.0838
-4.9821 bouteille	-0.0748
-4.1554 bouteilles	-0.0818
-3.4715 boutique	-0.1462
-3.8880 boutiques	-0.1646
-4.9821 boutiquiers	-0.0639
-4.9821 boutons	-0.0731
-4.1554 boîte	-0.0629
-4.3961 boîtes	-0.0569
-4.9821 branche	-0.0821
-4.9821 branle	-0.0773
-3.3130 bras	-0.1181
-4.9821 brassait	-0.0726
-4.3961 brasserie	-0.0838
-4.3961 brasseries	-0.0542
-4.9821 brassées	-0.0801
-3.6602 brave	-0.1406
-4.9821 bravement	-0.0838
-4.0014 braves	-0.3844
-4.9821 bravo	-0.0839
-3.7981 bref	-0.0550
-4.3961 brevet	-0.0818
-4.9821 bribes	-0.0815
-4.9821 brides	-0.0748
-4.1554 brillant	-0.0840
-4.9821 brillante	-0.0841
-4.9821 brillants	-0.0748
-4.9821 bringue	-0.0731
-4.9821 brique	-0.0639
-4.1554 brise	-0.0728
-4.9821 brisent	-0.0816
-4.9821 brisé	-0.0837
-4.9821 british	-0.0841
-4.9821 britishisme	-0.0841
-4.9821 brocards	-0.0815
-4.9821 broche	-0.0820
-4.9821 brocs	-0.0791
-4.9821 brodequins	-0.0791
-4.0014 bronze	-0.0821
-4.9821 bronzes	-0.0815
-4.1554 brosse	-0.0701
-4.9821 brosses	-0.0786
-4.9821 brosseur	-0.0731
-4.9821 brosseurs	-0.0731
-4.3961 brouhaha	-0.0831
-4.9821 broussailles	-0.0639
-3.8880 bruit	-0.1622
-4.9821 bruits	-0.0839
-4.9821 brunette	-0.0748
-4.0014 brusque	-0.0833
-4.0014 brusquement	-0.0706
-4.9821 brutalement	-0.0748
-4.3961 brute	-0.0612
-4.9821 bruyant	-0.0840
-4.9821 bruyante	-0.0841
-4.9821 brûlée	-0.0826
-4.9821 brûlées	-0.0774
-4.1554 bu	-0.0698
-4.9821 buci	-0.0813
-4.9821 buffault	-0.0727
-4.9821 buffon	-0.0786
-4.9821 bullier	-0.0834
-3.7981 bureau	-0.1211
-4.9821 bureaux	-0.0841
-4.9821 burlesque	-0.0841
-4.9821 buste	-0.0639
-4.9821 bustes	-0.0821
-4.1554 but	-0.0760
-4.9821 butte	-0.0808
-4.9821 buvait	-0.0639
-4.9821 buvant	-0.0726
-4.9821 bâti	-0.0639
-4.9821 bâties	-0.0820
-4.9821 bâtir	-0.0838
-4.9821 bâtit	-0.0775
-4.9821 bâton	-0.0820
-4.9821 bâtons	-0.0841
-4.9821 béante	-0.0639
-4.9821 bébé	-0.0731
-4.9821 bégayant	-0.0841
-4.9821 béni	-0.0817
-4.9821 bénie	-0.0841
-4.9821 bénit	-0.0821
-4.9821 bénédiction	-0.0841
-4.9821 bénéfices	-0.0840
-4.9821 bétail	-0.0815
-4.9821 bêche	-0.0808
-3.6048 bête	-0.0936
-4.9821 bêtement	-0.0775
-3.7237 bêtes	-0.0472
-4.9821 bêtises	-0.0840
-3.7981 bœuf	-0.1431
-4.9821 bœufs	-0.0817
-4.9821 bœufs_	-0.0839
-2.2269 c	-1.4621
-4.3961 cabane	-0.0750
-4.9821 cabanons	-0.0836
-4.9821 cabaret	-0.0841
-4.9821 cabarets	-0.0639
-4.9821 cabine	-0.0639
-4.1554 cabinet	-0.0634
-4.3961 caboche	-0.0726
-4.9821 caboulots	-0.0748
-4.9821 cachaient	-0.0775
-4.9821 cache	-0.0754
-4.9821 cacheter	-0.0774
-4.9821 cacochyme	-0.0786
-4.9821 cadavres	-0.0748
-3.8880 cadeau	-0.1604
-4.3961 cadeaux	-0.0602
-4.3961 cadet	-0.0799
-3.6048 café	-0.2998
-4.9821 cafés	-0.0839
-4.9821 caillou	-0.0794
-4.9821 caire	-0.0839
-3.8880 caisse	-0.1675
-4.9821 caissière	-0.0835
-4.9821 calais	-0.0841
-4.3961 calamité	-0.0786
-4.9821 calibre	-0.0726
-4.9821 calme	-0.0841
-4.9821 calotter	-0.0774
-4.3961 calottes	-0.0824
-4.1554 camarade	-0.0722
-4.0014 camarades	-0.0597
-4.9821 cambrée	-0.0731
-3.7237 camille	-0.0460
-4.9821 camion	-0.0754
-3.7237 camp	-0.0483
-4.9821 campagnarde	-0.0826
-4.9821 campagne	-0.0839
-4.3961 campagnes	-0.0679
-4.9821 campo	-0.0748
-4.3961 canaille	-0.0837
-4.9821 canaques	-0.0841
-3.8880 canard	-0.0642
-4.9821 canards	-0.0748
-4.9821 candeur	-0.0731
-4.9821 candidature	-0.0748
-4.3961 candide	-0.0751
-4.9821 canif	-0.0754
-4.9821 canivet	-0.0841
-4.0014 canne	-0.2070
-4.9821 cannes	-0.0731
-3.7237 canon	-0.1355
-4.9821 canonnier	-0.0774
-4.9821 canton	-0.0794
-4.9821 caoutchouc	-0.0639
-4.9821 cap	-0.0835
-4.3961 capable	-0.0581
-4.9821 capello	-0.0639
-3.2398 capitaine	-0.4060
-4.9821 capital	-0.0841
-4.3961 capitale	-0.0657
-4.3961 capitaliste	-0.0841
-4.9821 capituler	-0.0840
-4.9821 caporal	-0.0773
-4.9821 caporaux	-0.0838
-4.9821 capricieuse	-0.0819
-4.9821 capus	-0.0819
-2.8895 car	-0.2746
-4.9821 carabine	-0.0791
-4.9821 caracolant	-0.0820
-4.9821 caracoler	-0.0817
-4.9821 caractère	-0.0794
-4.9821 caractères	-0.0748
-4.9821 caravane	-0.0841
-4.9821 carbure	-0.0786
-4.9821 caressant	-0.0769
-4.9821 caresses	-0.0831
-4.3961 carlo	-0.0726
-4.9821 carmin	-0.0775
-4.9821 carreaux	-0.0639
-4.9821 carrefour	-0.0841
-4.9821 carrefours	-0.0639
-4.3961 carriole	-0.0833
-4.3961 carrière	-0.0816
-4.3961 carte	-0.0581
-4.9821 cartouche	-0.0639
-4.9821 carène	-0.0754
-3.3130 cas	-0.2132
-3.7981 caserne	-0.0345
-4.0014 casque	-0.1973
-4.9821 cassait	-0.0773
-4.9821 casser	-0.0769
-4.3961 casserole	-0.0754
-4.9821 cassis	-0.0840
-4.1554 cassé	-0.0597
-4.9821 cassée	-0.0775
-4.9821 catafalque	-0.0841
-4.9821 cataloguée	-0.0818
-4.1554 catastrophe	-0.0709
-4.9821 catastrophes	-0.0731
-4.9821 cauchemar	-0.0817
-4.9821 causait	-0.0821
-4.9821 causant	-0.0839
-3.7237 cause	-0.2927
-4.3961 causer	-0.0830
-4.9821 caustique	-0.0731
-4.3961 causâmes	-0.0840
-4.9821 causé	-0.0726
-4.9821 cavalcade	-0.0810
-4.9821 cavalier	-0.0810
-4.3961 caverne	-0.0738
-4.9821 caves	-0.0794
-2.0666 ce	-0.4569
-4.9821 ceci	-0.0639
-4.9821 ceinture	-0.0817
-3.1582 cela	-0.1059
-3.3130 celle	-0.3665
-4.9821 celles	-0.0805
-4.9821 celluloïd	-0.0840
-3.4348 celui	-0.3119
-4.9821 cendre	-0.0639
-3.6602 cent	-0.3841
-4.9821 centigrammes	-0.0731
-4.9821 centimes	-0.0837
-4.9821 centimètre	-0.0821
-4.3961 centre	-0.0639
-3.7237 cents	-0.2297
-4.3961 cependant	-0.0670
-4.0014 cercueil	-0.3801
-4.3961 certain	-0.0786
-4.1554 certaine	-0.0730
-4.0014 certainement	-0.0676
-4.3961 certaines	-0.0834
-4.0014 certains	-0.0841
-4.3961 certes	-0.0775
-4.9821 certifier	-0.0769
-3.7981 cerveau	-0.0376
-2.6792 ces	-0.1668
-4.3961 cessai	-0.0581
-4.9821 cesser	-0.0639
-4.9821 cessé	-0.0639
-3.1057 cet	-0.0818
-2.4354 cette	-0.2938
-3.6602 ceux	-0.2587
-4.9821 chacal	-0.0838
-3.8880 chacun	-0.3011
-4.9821 chagrin	-0.0639
-4.9821 chair	-0.0841
-4.3961 chaise	-0.0614
-4.1554 chalet	-0.0699
-4.3961 chaleur	-0.0690
-4.9821 challan	-0.0837
-3.7237 chambardoscope	-0.0728
-3.3696 chambre	-0.1768
-4.9821 chambres	-0.0639
-4.9821 chameau	-0.0830
-4.9821 chameaux	-0.0786
-4.9821 champ	-0.0639
-4.1554 champagne	-0.0811
-4.3961 champagnes	-0.0587
-4.3961 champs	-0.0568
-4.3961 changements	-0.0754
-4.9821 changé	-0.0838
-4.0014 chanson	-0.1882
-4.1554 chantait	-0.0782
-4.9821 chanter	-0.0727
-4.9821 chantez	-0.0748
-3.8880 chapeau	-0.0607
-3.7237 chapeaux	-0.1177
-4.9821 chapelle	-0.0731
-4.3961 chapellerie	-0.0781
-3.6602 chapitre	-0.0727
-3.4010 chaque	-0.3832
-4.9821 char	-0.0748
-4.9821 charcutier	-0.0726
-4.1554 charge	-0.2342
-4.9821 chargea	-0.0639
-4.1554 charger	-0.5557
-4.9821 chargé	-0.0794
-4.9821 chargée	-0.0731
-4.9821 charma	-0.0821
-3.6602 charmant	-0.1035
-3.6048 charmante	-0.1553
-4.9821 charmants	-0.0775
-4.3961 charme	-0.0730
-4.9821 charmes	-0.0775
-4.9821 charonne	-0.0817
-4.3961 charretier	-0.0747
-4.9821 chasser	-0.0727
-4.9821 chassieux	-0.0835
-4.9821 chaste	-0.0834
-4.3961 chat	-0.0840
-4.9821 chats	-0.0841
-4.0014 chaud	-0.0632
-4.9821 chaussait	-0.0841
-4.0014 chaussures	-0.0719
-4.9821 chaussée	-0.0731
-4.3961 chaussées	-0.0519
-4.3961 chaîne	-0.0794
-4.3961 chef	-0.0785
-4.9821 chefs	-0.0639
-4.0014 chemin	-0.0358
-4.9821 chemins	-0.0808
-4.9821 cheminées	-0.0805
-4.1554 chemise	-0.0584
-4.9821 chemists_	-0.0805
-3.8880 cher	-0.0741
-4.9821 cherchais	-0.0748
-4.9821 cherche	-0.0754
-3.7981 chercher	-0.1471
-3.5557 cheval	-0.2142
-3.7981 chevaux	-0.2491
-4.3961 chevelu	-0.0841
-4.9821 chevet	-0.0840
-4.9821 cheveu	-0.0841
-3.3130 cheveux	-0.1590
-4.9821 chevreau	-0.0748
-2.8699 chez	-0.3298
-3.5557 chien	-0.2147
-4.1554 chiens	-0.0602
-4.1554 chiffre	-0.2400
-4.9821 chimie	-0.0826
-4.3961 chimériques	-0.0730
-4.3961 chinois	-0.0816
-4.9821 chinoise	-0.0805
-4.9821 chipie	-0.0840
-4.9821 chirurgie	-0.0836
-4.3961 chirurgien	-0.0753
-4.9821 chloroformes	-0.0773
-4.9821 chlorures	-0.0639
-4.9821 chloé	-0.0774
-4.3961 choir	-0.0749
-4.9821 choisir	-0.0726
-4.9821 choisis	-0.0821
-4.9821 choisissent	-0.0835
-4.9821 choisit	-0.0727
-4.9821 choix	-0.0794
-3.1400 chose	-0.0751
-3.7981 choses	-0.0716
-4.9821 chouette	-0.0833
-4.9821 christmas	-0.0727
-4.9821 christophe	-0.0841
-4.9821 chroniques	-0.0840
-4.9821 chronomètre	-0.0791
-4.9821 chute	-0.0639
-3.7981 chère	-0.2507
-4.0014 chéri	-0.0784
-4.9821 chérie	-0.0817
-4.9821 chôma	-0.0841
-4.3961 chœur	-0.0747
-4.1554 ci	-0.0723
-4.9821 cicatrisées	-0.0840
-3.7237 ciel	-0.1887
-3.8880 cigare	-0.0508
-4.3961 cils	-0.0819
-4.9821 cincinnatus	-0.0837
-4.9821 cinglait	-0.0839
-3.2398 cinq	-0.4261
-4.9821 cinquantaine	-0.0639
-3.5115 cinquante	-0.5230
-4.9821 cinquième	-0.0841
-4.1554 circonstance	-0.0804
-4.9821 circonstances	-0.0754
-4.9821 circulaire	-0.0826
-4.9821 cirés	-0.0817
-4.9821 cite	-0.0829
-4.9821 citerai	-0.0833
-4.3961 citoyen	-0.0777
-4.1554 cité	-0.0718
-4.3961 civil	-0.0768
-4.9821 civile	-0.0827
-4.0014 civilisation	-0.0597
-4.9821 civils	-0.0821
-4.9821 clair	-0.0731
-4.9821 claire	-0.0833
-4.3961 clairement	-0.0726
-3.7237 clairon	-0.1330
-4.9821 clama	-0.0840
-4.9821 clamait	-0.0774
-4.9821 clameur	-0.0841
-4.9821 clans	-0.0841
-4.9821 clapotante	-0.0841
-4.9821 claquait	-0.0794
-4.9821 claquerait	-0.0817
-4.9821 claques	-0.0839
-4.9821 claqué	-0.0828
-4.0014 clara	-0.0726
-3.7981 classe	-0.0442
-4.9821 classes	-0.0841
-4.9821 classique	-0.0786
-4.3961 clef	-0.0776
-4.9821 clematis	-0.0841
-4.1554 clichy	-0.0656
-4.1554 client	-0.0692
-4.3961 cliente	-0.0754
-4.3961 clients	-0.0800
-3.8880 clientèle	-0.2667
-4.9821 clignancourt	-0.0808
-4.9821 clignant	-0.0748
-4.9821 cligné	-0.0726
-4.9821 cliniques	-0.0838
-4.9821 cliques	-0.0813
-4.9821 cliquetis	-0.0639
-4.3961 cloche	-0.3650
-4.9821 cloisons	-0.0639
-4.9821 clora	-0.0794
-4.9821 clou	-0.0639
-4.9821 cloua	-0.0821
-4.3961 cloud	-0.0811
-4.9821 clown	-0.0841
-4.3961 clématite	-0.0768
-4.3961 clématites	-0.0705
-4.9821 cléopâtreux	-0.0731
-4.9821 clérical	-0.0841
-4.9821 coalisés	-0.0817
-4.9821 cobra	-0.0841
-4.9821 cochers	-0.0838
-2.9660 cochon	-0.0457
-4.9821 cochonicida	-0.0726
-4.9821 cochonnerie	-0.0830
-4.9821 cochonneries	-0.0831
-3.3130 cochons	-0.0867
-4.9821 cocotte	-0.0731
-4.3961 cocu	-0.0794
-4.3961 code	-0.3851
-4.9821 cognac	-0.0774
-4.9821 coiffée	-0.0748
-3.7237 coin	-0.1879
-4.9821 coincoins	-0.0639
-4.9821 coins	-0.0801
-4.1554 col	-0.2400
-4.9821 coliques	-0.0818
-4.9821 colis	-0.0841
-4.1554 colla	-0.0750
-4.3961 collage	-0.0657
-4.9821 collectif	-0.0832
-4.3961 collection	-0.3650
-4.1554 collections	-0.0731
-4.3961 collet	-0.0637
-4.9821 colloque	-0.0774
-4.9821 collègues	-0.0791
-4.9821 collé	-0.0808
-4.9821 collés	-0.0769
-4.9821 colocataires	-0.0817
-4.3961 colomb	-0.0805
-4.3961 colonel	-0.0821
-4.3961 colonie	-0.3851
-4.9821 colonnes	-0.0841
-4.9821 coloré	-0.0817
-4.3961 colza	-0.0731
-4.0014 colère	-0.0710
-4.9821 colères	-0.0840
-4.9821 combats	-0.0817
-3.7981 combien	-0.0751
-4.3961 comble	-0.0605
-4.9821 comblèrent	-0.0639
-4.9821 comestibles	-0.0836
-4.9821 comfort	-0.0775
-4.3961 comique	-0.0766
-4.3961 comiques	-0.3815
-4.9821 comité	-0.0786
-4.1554 commande	-0.0674
-4.9821 commandé	-0.0639
-2.3081 comme	-0.3591
-4.0014 commence	-0.1965
-4.1554 commencement	-0.2366
-4.9821 commencent	-0.0826
-4.9821 commencer	-0.0826
-4.9821 commencé	-0.0840
-3.0739 comment	-0.1108
-4.9821 commentaires	-0.0833
-4.3961 commença	-0.0824
-4.3961 commençaient	-0.3759
-4.9821 commençais	-0.0748
-4.3961 commençait	-0.3759
-4.0014 commerce	-0.0638
-4.9821 commerçant	-0.0840
-4.3961 commerçante	-0.0796
-4.9821 commerçants	-0.0748
-4.9821 commettre	-0.0794
-4.0014 commis	-0.1873
-4.3961 commissions	-0.0753
-4.9821 commissures	-0.0639
-4.3961 commode	-0.0826
-4.3961 commun	-0.0808
-4.0014 commune	-0.0709
-4.3961 communes	-0.0704
-4.9821 communication	-0.0841
-4.9821 compagnie	-0.0801
-4.9821 compagnies	-0.0786
-4.9821 comparait	-0.0801
-4.0014 compartiment	-0.0836
-4.9821 compassion	-0.0817
-4.9821 complaisamment	-0.0815
-4.9821 complaisance	-0.0841
-4.9821 complet	-0.0774
-4.9821 compliments	-0.0840
-4.9821 compliqué	-0.0769
-4.0014 compliqués	-0.0655
-3.6602 complètement	-0.0639
-4.9821 complémentaires	-0.0775
-4.9821 compléta	-0.0835
-4.3961 complété	-0.3836
-4.9821 comportaient	-0.0820
-4.9821 comportant	-0.0833
-4.3961 comporte	-0.3818
-4.9821 comporté	-0.0754
-4.9821 composai	-0.0821
-4.9821 composait	-0.0748
-4.9821 composent	-0.0639
-4.9821 composé	-0.0786
-4.9821 composées	-0.0775
-4.3961 comprenait	-0.0767
-4.9821 comprendre	-0.0748
-4.3961 comprends	-0.0726
-4.3961 comprenez	-0.0808
-4.9821 comprenne	-0.0801
-4.9821 compresses	-0.0748
-3.7237 compris	-0.3073
-4.9821 comptait	-0.0829
-3.7981 compte	-0.1357
-4.3961 comptent	-0.0801
-4.9821 compter	-0.0773
-3.8880 comptoir	-0.0687
-4.3961 comte	-0.0632
-4.9821 comtesse	-0.0841
-4.9821 concert	-0.0841
-4.9821 concessions	-0.0815
-3.4715 concierge	-0.1468
-4.3961 concierges	-0.0768
-4.3961 conciliation	-0.0815
-4.9821 conclu	-0.0786
-4.9821 conclus	-0.0815
-4.9821 conclusion	-0.0731
-4.1554 conclut	-0.0657
-4.9821 concurrence	-0.0841
-4.9821 concurrent	-0.0840
-4.9821 condamné	-0.0748
-4.0014 conditions	-0.0357
-4.9821 conduisit	-0.0840
-4.9821 conduit	-0.0794
-4.3961 conduite	-0.0706
-4.9821 confectionna	-0.0838
-4.0014 confectionner	-0.3736
-4.3961 confession	-0.0815
-4.9821 confier	-0.0726
-4.9821 confiné	-0.0835
-4.9821 confié	-0.0727
-4.1554 conforme	-0.0655
-4.9821 conformé	-0.0804
-4.9821 confort	-0.0817
-3.6048 confortable	-0.1047
-4.9821 confrère	-0.0840
-4.3961 confrères	-0.0840
-4.3961 confus	-0.0623
-4.3961 confusion	-0.0619
-4.3961 congolaise	-0.0740
-4.9821 congédie	-0.0841
-4.9821 congénères	-0.0773
-4.9821 conjoints	-0.0817
-4.9821 conjure	-0.0731
-4.0014 connais	-0.1930
-4.9821 connaissaient	-0.0794
-4.1554 connaissais	-0.0677
-4.1554 connaissait	-0.2479
-3.7237 connaissance	-0.0463
-4.9821 connaisseuses	-0.0836
-4.0014 connaissez	-0.0752
-4.9821 connaissiez	-0.0804
-4.9821 connaît	-0.0786
-4.9821 connaîtras	-0.0841
-4.1554 connaître	-0.0647
-4.9821 connaîtrez	-0.0832
-3.6602 connu	-0.0301
-4.9821 connue	-0.0817
-3.8880 connus	-0.0565
-4.9821 connusse	-0.0837
-4.9821 connut	-0.0794
-4.9821 conquête	-0.0832
-4.9821 consacrer	-0.0835
-4.0014 conscience	-0.0578
-4.3961 consciencieusement	-0.0841
-4.9821 conseil	-0.0639
-4.9821 conseilla	-0.0841
-4.9821 conseillai	-0.0754
-4.9821 conseille	-0.0794
-4.1554 conseils	-0.0609
-4.9821 consentement	-0.0819
-4.9821 conserve	-0.0726
-4.9821 conserverai	-0.0836
-4.9821 conservons	-0.0821
-4.9821 conservé	-0.0754
-4.1554 considère	-0.0799
-4.1554 considérable	-0.0773
-4.9821 considérait	-0.0841
-4.9821 considéré	-0.0820
-4.9821 considérée	-0.0820
-4.3961 consigne	-0.0707
-4.1554 consigné	-0.0759
-3.7981 consignés	-0.1498
-4.3961 consistaient	-0.3801
-4.1554 consistait	-0.0671
-4.3961 consiste	-0.0697
-4.9821 consistent	-0.0748
-4.9821 consolation	-0.0822
-4.9821 consommateurs	-0.0801
-4.9821 consommations	-0.0841
-4.9821 constata	-0.0786
-4.9821 constatai	-0.0786
-4.3961 constater	-0.0712
-4.9821 consternation	-0.0839
-4.9821 constitua	-0.0829
-4.9821 constituait	-0.0748
-4.3961 constituer	-0.3786
-4.9821 construisit	-0.0791
-4.9821 consultations	-0.0731
-4.9821 consulter	-0.0775
-4.9821 consulté	-0.0754
-4.9821 conséquence	-0.0836
-4.9821 contai	-0.0825
-4.3961 conte	-0.0617
-4.9821 contempla	-0.0841
-4.9821 contemplaient	-0.0841
-4.9821 contemplant	-0.0841
-4.3961 contemplation	-0.0808
-4.9821 contemplative	-0.0794
-4.9821 contemple	-0.0804
-4.9821 contempler	-0.0835
-4.9821 contemplé	-0.0839
-4.9821 contemplée	-0.0841
-4.9821 contemporains	-0.0839
-4.9821 contenant	-0.0794
-3.5557 content	-0.0054
-4.9821 contenta	-0.0639
-4.9821 contentait	-0.0639
-4.1554 contente	-0.2285
-4.9821 contenterai	-0.0823
-4.9821 contenté	-0.0639
-4.9821 contentée	-0.0786
-4.9821 contenu	-0.0821
-4.1554 conter	-0.2475
-4.9821 contez	-0.0831
-4.9821 contient	-0.0831
-4.9821 continent	-0.0841
-4.9821 continua	-0.0836
-4.9821 continuai	-0.0775
-4.1554 continuait	-0.0727
-4.3961 continue	-0.0785
-4.9821 continuelles	-0.0731
-4.3961 continuer	-0.0723
-4.9821 continuez	-0.0773
-4.9821 continuons	-0.0816
-4.9821 continué	-0.0835
-4.3961 contracter	-0.3765
-4.9821 contraigne	-0.0748
-4.0014 contraire	-0.0693
-4.9821 contrairement	-0.0748
-4.9821 contrastait	-0.0821
-4.1554 contre	-0.0745
-4.9821 contrebande	-0.0775
-4.9821 contrepoids	-0.0836
-4.9821 contribua	-0.0748
-4.9821 contribuables	-0.0810
-4.3961 contributions	-0.0808
-4.9821 contrée	-0.0813
-4.9821 contrôleurs	-0.0808
-4.9821 convenablement	-0.0841
-4.9821 convenables	-0.0775
-4.9821 convenu	-0.0841
-4.9821 convenue	-0.0816
-3.8880 conversation	-0.1625
-4.9821 conversations	-0.0786
-4.3961 convives	-0.0794
-4.9821 conçoit	-0.0808
-4.9821 conçus	-0.0754
-4.9821 conçut	-0.0727
-4.9821 copieusement	-0.0773
-4.1554 coq	-0.0640
-4.9821 coqueluche	-0.0808
-4.9821 coquet	-0.0840
-4.9821 coquetier	-0.0840
-4.9821 coquette	-0.0823
-4.9821 coquin	-0.0754
-4.9821 cor	-0.0748
-4.1554 corde	-0.0673
-4.3961 cordial	-0.0826
-4.9821 cordialité	-0.0639
-4.3961 cordon	-0.3851
-4.9821 cordonnerie	-0.0841
-4.9821 cordons	-0.0834
-3.7981 corps	-0.1362
-4.3961 correspondance	-0.0809
-4.9821 corridors	-0.0775
-4.9821 cosmopolite	-0.0731
-4.9821 cosses	-0.0639
-4.9821 cossue	-0.0773
-4.9821 costume	-0.0828
-4.9821 costumé	-0.0833
-4.9821 coton	-0.0817
-4.9821 cottage	-0.0639
-4.9821 cotte	-0.0639
-3.8880 cou	-0.1677
-4.9821 coucha	-0.0821
-4.9821 couchaient	-0.0748
-4.9821 couchant	-0.0821
-4.3961 couche	-0.0619
-4.3961 coucher	-0.0830
-4.3961 couché	-0.0755
-4.3961 couchée	-0.0706
-4.9821 couchées	-0.0726
-4.9821 coucou	-0.0826
-4.9821 coula	-0.0821
-4.9821 coule	-0.0818
-4.3961 couleur	-0.0841
-4.0014 couleurs	-0.0712
-4.3961 couloirs	-0.0840
-3.2398 coup	-0.2487
-4.3961 coupa	-0.0631
-4.3961 coupable	-0.0731
-4.9821 coupables	-0.0773
-4.9821 coupaient	-0.0841
-4.9821 couper	-0.0754
-4.3961 couple	-0.0813
-3.6048 coups	-0.5300
-4.3961 coupé	-0.0737
-3.6602 cour	-0.0333
-4.9821 courageusement	-0.0726
-4.9821 couramment	-0.0639
-4.0014 courant	-0.0488
-4.0014 courants	-0.6861
-4.9821 courbant	-0.0841
-4.3961 courcelles	-0.0754
-4.9821 couronner	-0.0831
-4.9821 couronnés	-0.0639
-4.9821 courra	-0.0794
-4.9821 cours	-0.0841
-4.1554 course	-0.0818
-4.1554 court	-0.2602
-4.9821 courtaude	-0.0841
-4.9821 courtier	-0.0769
-4.9821 courtois	-0.0841
-4.9821 courut	-0.0748
-3.3404 cousin	-0.1786
-4.9821 cousines	-0.0731
-4.3961 coutume	-0.0748
-4.9821 coutumières	-0.0815
-4.9821 couvertures	-0.0774
-4.9821 couvraient	-0.0727
-4.9821 couvrant	-0.0773
-4.9821 couvre	-0.0836
-4.9821 couvreur	-0.0802
-4.9821 coïncidassent	-0.0774
-4.9821 coûta	-0.0773
-4.9821 coûtant	-0.0823
-4.9821 coûtent	-0.0794
-4.9821 coûteux	-0.0841
-4.3961 crac	-0.0707
-4.9821 craindre	-0.0823
-4.9821 crainte	-0.0639
-4.9821 crapaud	-0.0815
-4.9821 crapulite	-0.0841
-4.3961 cravate	-0.0790
-4.3961 cravates	-0.0819
-4.9821 crayon	-0.0748
-4.9821 creusé	-0.0727
-4.1554 creux	-0.0639
-4.3961 crevette	-0.0841
-3.8880 cri	-0.1539
-4.0014 cria	-0.2084
-4.9821 criaient	-0.0731
-4.9821 criait	-0.0726
-4.9821 crime	-0.0639
-4.9821 criminel	-0.0841
-4.9821 crimée	-0.0818
-4.9821 cris	-0.0841
-4.9821 crispait	-0.0773
-4.3961 cristal	-0.0840
-4.9821 croie	-0.0808
-4.9821 croirai	-0.0786
-4.9821 croirait	-0.0819
-4.9821 croiras	-0.0823
-3.4348 croire	-0.5696
-3.5115 crois	-0.2433
-4.9821 croisa	-0.0826
-4.9821 croissante	-0.0731
-4.9821 croisés	-0.0727
-4.9821 croit	-0.0836
-4.9821 croque	-0.0839
-4.9821 crottées	-0.0748
-4.3961 croyais	-0.0770
-4.1554 croyait	-0.0770
-4.9821 croyez	-0.0786
-4.9821 croûtes	-0.0639
-4.0014 cru	-0.2029
-4.9821 crue	-0.0834
-4.9821 cruel	-0.0815
-4.0014 cruelle	-0.0770
-4.1554 cruellement	-0.0560
-4.9821 crurent	-0.0726
-4.9821 crus	-0.0822
-4.3961 crut	-0.0793
-4.9821 crâne	-0.0639
-4.3961 crème	-0.0794
-4.9821 création	-0.0774
-4.3961 créature	-0.0663
-4.3961 créatures	-0.0779
-4.9821 crédit	-0.0808
-4.9821 crée	-0.0840
-3.8880 cuir	-0.1751
-4.0014 cuirassier	-0.1986
-4.9821 cuire	-0.0639
-4.1554 cuisine	-0.0669
-4.1554 cuisinière	-0.0799
-4.9821 cuisinières	-0.0731
-4.9821 cuisses	-0.0837
-4.9821 cuite	-0.0639
-4.9821 cuivre	-0.0821
-4.0014 cul	-0.1756
-4.9821 culminant	-0.0639
-4.9821 culottes	-0.0840
-4.9821 curieuses	-0.0731
-3.5557 curieux	-0.1228
-4.3961 curé	-0.0775
-4.9821 cuvette	-0.0794
-4.3961 cylindre	-0.0786
-4.9821 cylindres	-0.0841
-4.0014 cymbales	-0.0763
-4.9821 cynique	-0.0816
-4.9821 cyniques	-0.0801
-4.3961 câble	-0.0817
-4.9821 câline	-0.0786
-4.9821 céder	-0.0754
-4.9821 célibataires	-0.0805
-4.9821 cérémonies	-0.0841
-4.9821 césar	-0.0773
-4.9821 cône	-0.0841
-4.1554 côte	-0.0719
-4.9821 côtes	-0.0840
-3.6048 côté	-0.1370
-4.3961 côtés	-0.0822
-3.1057 cœur	-0.0108
-4.3961 cœurs	-0.0840
-1.8977 d	-0.3952
-4.3961 daim	-0.0694
-3.3696 dame	-0.0851
-3.7237 dames	-0.0261
-4.9821 dandysme	-0.0841
-4.9821 danger	-0.0775
-4.9821 dangereuse	-0.0786
-4.0014 dangereux	-0.1732
-4.9821 dangers	-0.0840
-2.0374 dans	-0.8982
-4.9821 dansant	-0.0727
-4.3961 danse	-0.3819
-4.9821 dansé	-0.0841
-4.9821 daphnis	-0.0731
-3.8880 darwin	-0.0712
-4.9821 darwinisme	-0.0775
-4.9821 date	-0.0841
-4.9821 datent	-0.0839
-4.9821 datura	-0.0841
-1.3431 de	-0.2649
-4.9821 dear_	-0.0808
-4.9821 death	-0.0841
-4.9821 debout	-0.0821
-4.3961 dedans	-0.0833
-4.3961 dehors	-0.0689
-3.7237 delavanne	-0.0637
-4.1554 delphacomanie	-0.0791
-4.9821 delphacos	-0.0805
-4.9821 delphax	-0.0841
-4.0014 demain	-0.1974
-3.4010 demanda	-0.1132
-4.1554 demandai	-0.2535
-4.9821 demandais	-0.0833
-4.9821 demandait	-0.0804
-4.9821 demandant	-0.0839
-3.4715 demande	-0.0527
-3.7981 demander	-0.0538
-4.1554 demandé	-0.0831
-4.9821 demeuraient	-0.0748
-4.9821 demeurait	-0.0816
-4.0014 demeure	-0.0663
-4.9821 demeurer	-0.0839
-4.9821 demeurèrent	-0.0794
-4.9821 demi	-0.0841
-4.9821 demoiselle	-0.0786
-4.0014 demoiselles	-0.0544
-4.9821 denier	-0.0639
-4.9821 dent	-0.0840
-4.9821 dentist_	-0.0801
-4.3961 dentiste	-0.0838
-4.9821 dentistes	-0.0840
-4.9821 dentition	-0.0748
-3.8880 dents	-0.0630
-3.1772 depuis	-0.1545
-3.2398 dernier	-0.1056
-3.4715 dernière	-0.0861
-4.3961 dernièrement	-0.0680
-4.1554 dernières	-0.0701
-3.5557 derrière	-0.0845
-1.9686 des	-0.1904
-4.9821 descend	-0.0639
-4.3961 descendaient	-0.0786
-4.9821 descendait	-0.0837
-4.3961 descendant	-0.0634
-4.0014 descendit	-0.0492
-4.9821 descendons	-0.0775
-4.1554 descendre	-0.0755
-4.1554 descends	-0.0809
-4.9821 descendus	-0.0801
-3.5557 desflemmes	-0.1507
-4.9821 desseins	-0.0831
-4.0014 dessert	-0.0609
-4.9821 dessous	-0.0726
-3.5557 dessus	-0.1308
-4.9821 desséchés	-0.0837
-4.9821 destiné	-0.0748
-4.9821 destinée	-0.0841
-4.9821 destruction	-0.0820
-2.7458 deux	-0.1232
-4.1554 deuxième	-0.2601
-3.5557 devait	-0.1235
-3.1971 devant	-0.2203
-4.1554 devanture	-0.0800
-4.0014 devenait	-0.0724
-4.9821 devenant	-0.0815
-4.9821 devenir	-0.0826
-3.7237 devenu	-0.3174
-4.3961 devenue	-0.0836
-4.9821 devez	-0.0818
-4.9821 deviens	-0.0841
-4.9821 devient	-0.0841
-4.1554 devinait	-0.0790
-4.9821 devine	-0.0794
-4.9821 devineriez	-0.0832
-4.1554 devinez	-0.0712
-4.9821 devinrent	-0.0841
-4.9821 devins	-0.0841
-4.0014 devint	-0.1955
-4.9821 deviné	-0.0769
-4.1554 devise	-0.2570
-3.7981 devoir	-0.1570
-4.9821 devoirs	-0.0841
-4.9821 devra	-0.0773
-4.9821 devraient	-0.0818
-4.9821 devrais	-0.0836
-4.9821 devrait	-0.0841
-4.9821 devînt	-0.0840
-4.9821 dextérité	-0.0840
-3.7981 deyck	-0.8622
-3.5557 diable	-0.1294
-4.9821 diabète	-0.0839
-4.9821 diabétique	-0.0775
-4.9821 diagnostic	-0.0817
-4.9821 diagnostiquai	-0.0841
-4.9821 dialogue	-0.0821
-4.9821 diamant	-0.0808
-3.1225 dieu	-0.1193
-4.9821 dieux	-0.0831
-4.0014 difficile	-0.1732
-4.9821 différence	-0.0838
-4.9821 différentes	-0.0773
-4.0014 différents	-0.1831
-4.1554 dign	-0.2580
-4.3961 digne	-0.3851
-4.9821 dignes	-0.0639
-4.3961 dignité	-0.0833
-4.9821 digérer	-0.0833
-4.9821 diligence	-0.0775
-4.9821 diluviennes	-0.0836
-3.7981 dimanche	-0.2570
-4.9821 dimension	-0.0786
-4.3961 dimensions	-0.0727
-4.3961 dinde	-0.0815
-4.9821 dindon	-0.0840
-4.1554 diplôme	-0.5557
-4.9821 dira	-0.0839
-4.9821 dirai	-0.0639
-4.1554 dirais	-0.5546
-4.3961 dirait	-0.3786
-4.9821 diras	-0.0731
-2.9206 dire	-0.0825
-4.3961 directement	-0.3759
-4.3961 direction	-0.0639
-4.9821 dirige	-0.0748
-4.9821 dirigèrent	-0.0841
-3.1772 dis	-0.3111
-4.0014 disaient	-0.0519
-4.1554 disais	-0.0770
-3.6048 disait	-0.1602
-4.0014 disant	-0.0749
-4.9821 discipline	-0.0813
-4.9821 discordante	-0.0815
-4.9821 discourtois	-0.0838
-4.9821 discret	-0.0786
-4.3961 discrétion	-0.3851
-4.9821 discussion	-0.0841
-4.3961 discussions	-0.0830
-4.3961 disent	-0.0769
-4.9821 disgrâces	-0.0794
-4.9821 disiez	-0.0808
-4.1554 disparu	-0.2397
-4.9821 disparus	-0.0841
-4.0014 disparut	-0.0655
-4.9821 dispersés	-0.0801
-4.9821 disponible	-0.0775
-4.9821 dispose	-0.0791
-4.9821 disposés	-0.0748
-4.3961 disputaient	-0.0744
-4.9821 disputer	-0.0837
-4.9821 disputèrent	-0.0815
-4.3961 dissimulant	-0.0837
-4.9821 distance	-0.0731
-4.9821 distinction	-0.0821
-4.3961 distingué	-0.0804
-4.3961 distinguée	-0.0837
-4.9821 distractions	-0.0841
-4.9821 distrait	-0.0819
-4.9821 distribuant	-0.0794
-4.3961 distribution	-0.0773
-2.8604 dit	-0.2611
-4.9821 dite	-0.0791
-3.6602 dites	-0.1224
-4.9821 diva	-0.0841
-4.9821 diverse	-0.0731
-4.9821 diversité	-0.0794
-4.9821 divertissement	-0.0836
-4.9821 divertit	-0.0837
-4.9821 divine	-0.0840
-4.3961 divorce	-0.0834
-3.5557 dix	-0.1792
-4.9821 dizaine	-0.0639
-4.3961 dizier	-0.0775
-4.9821 do	-0.0837
-4.3961 docile	-0.0730
-3.3130 docteur	-0.1363
-4.9821 docteurs	-0.0769
-4.9821 documentaire	-0.0639
-3.8880 doddy	-0.0669
-4.9821 dodo	-0.0769
-4.3961 doigt	-0.0830
-4.9821 doigts	-0.0838
-3.6048 dois	-0.2430
-3.6048 doit	-0.5555
-4.9821 dollars	-0.0639
-4.9821 domaine	-0.0774
-4.9821 domicile	-0.0791
-4.9821 dominait	-0.0809
-4.9821 dominante	-0.0841
-4.9821 dominos	-0.0838
-4.9821 dominotiers	-0.0731
-3.8880 dommage	-0.4764
-4.9821 don	-0.0836
-2.9542 donc	-0.1601
-4.3961 donna	-0.0769
-4.9821 donnaient	-0.0754
-4.1554 donnait	-0.0737
-4.9821 donnante	-0.0817
-4.0014 donne	-0.2008
-3.7981 donner	-0.0661
-4.3961 donnera	-0.0733
-4.9821 donnerai	-0.0794
-4.9821 donnons	-0.0821
-4.9821 donnèrent	-0.0841
-3.4715 donné	-0.1437
-4.9821 donnés	-0.0818
-2.9427 dont	-0.3041
-4.9821 doodle	-0.0821
-4.3961 door	-0.0836
-4.3961 dormait	-0.0790
-4.3961 dormir	-0.0771
-4.9821 dort	-0.0731
-4.9821 dorénavant	-0.0775
-4.1554 dos	-0.0738
-4.9821 doses	-0.0731
-4.9821 dot	-0.0840
-4.9821 douai	-0.0835
-4.3961 douairière	-0.0617
-4.1554 douane	-0.0834
-4.9821 douanes	-0.0815
-4.9821 douanier	-0.0775
-4.9821 double	-0.0840
-4.9821 doublement	-0.0773
-4.9821 doublée	-0.0786
-3.8880 douce	-0.0737
-3.5557 doucement	-0.0868
-4.1554 douleur	-0.0723
-4.9821 douloureuse	-0.0815
-4.9821 douloureusement	-0.0820
-4.9821 douloureux	-0.0841
-4.9821 doutait	-0.0639
-3.7237 doute	-0.0686
-4.9821 douter	-0.0786
-4.3961 douté	-0.0581
-3.7981 doux	-0.1443
-3.8880 doué	-0.4561
-4.3961 douée	-0.3796
-4.9821 dozulé	-0.0805
-4.3961 dr	-0.0840
-4.9821 drame	-0.0818
-4.9821 drapa	-0.0801
-4.9821 drapeau	-0.0823
-4.9821 draperies	-0.0841
-4.9821 draps	-0.0808
-4.9821 drapée	-0.0639
-4.9821 drastiques	-0.0839
-4.9821 dressa	-0.0769
-4.9821 dressait	-0.0727
-4.9821 dresse	-0.0727
-4.9821 dresser	-0.0794
-4.9821 drilles	-0.0786
-4.3961 drogues	-0.3741
-3.7237 droit	-0.1089
-3.8880 droite	-0.1456
-4.9821 droits	-0.0748
-4.9821 druggist_	-0.0816
-3.5557 drôle	-0.1983
-4.3961 drôles	-0.3650
-2.1245 du	-0.1986
-4.0014 duc	-0.6861
-4.9821 duché	-0.0831
-4.9821 due	-0.0818
-4.9821 dufay	-0.0731
-4.9821 dunkerque	-0.0826
-4.1554 duquel	-0.0704
-3.7981 dur	-0.0485
-4.9821 durables	-0.0841
-4.3961 durant	-0.0765
-4.9821 dure	-0.0826
-4.9821 durer	-0.0818
-4.1554 dus	-0.0839
-4.3961 dut	-0.0726
-4.3961 dynamite	-0.0697
-3.5557 dès	-0.2705
-4.9821 débarbouille	-0.0837
-4.9821 débarqua	-0.0835
-4.9821 débarras	-0.0841
-4.9821 débarrassant	-0.0639
-4.9821 débarrasser	-0.0639
-4.9821 débarrassé	-0.0639
-4.9821 débattis	-0.0817
-4.9821 débauché	-0.0786
-4.9821 débiter	-0.0639
-4.9821 déboires	-0.0731
-4.9821 débordante	-0.0832
-4.9821 déborde	-0.0794
-4.9821 débordements	-0.0815
-4.9821 débordé	-0.0727
-4.9821 début	-0.0821
-4.9821 débutais	-0.0801
-4.9821 débutants	-0.0836
-4.9821 débuter	-0.0801
-4.9821 débuts	-0.0841
-4.1554 décembre	-0.0747
-4.9821 décerné	-0.0748
-4.9821 décevant	-0.0841
-4.9821 décharnées	-0.0831
-4.9821 déchaîné	-0.0821
-4.9821 déchirer	-0.0840
-4.9821 décidai	-0.0816
-4.1554 décidé	-0.0668
-4.0014 décidément	-0.0812
-4.9821 décision	-0.0808
-4.3961 déclarai	-0.0831
-4.9821 déclarant	-0.0808
-4.9821 déclaration	-0.0731
-4.9821 déclare	-0.0727
-4.3961 déclarer	-0.0752
-4.9821 déconcerta	-0.0794
-4.9821 décoratif	-0.0839
-4.9821 décoratives	-0.0791
-4.9821 découplé	-0.0639
-4.9821 découvert	-0.0754
-4.1554 découverte	-0.0679
-4.3961 découvrir	-0.3779
-4.9821 découvrit	-0.0727
-4.9821 décriée	-0.0833
-4.9821 décrocha	-0.0775
-4.9821 décès	-0.0769
-4.9821 dédaigneuse	-0.0808
-4.9821 défaut	-0.0726
-4.3961 défendre	-0.0581
-4.9821 défends	-0.0831
-4.3961 défense	-0.0639
-4.9821 défi	-0.0838
-4.9821 défier	-0.0773
-4.9821 défilèrent	-0.0801
-4.9821 défroque	-0.0639
-4.3961 dégagea	-0.0800
-4.9821 dégaina	-0.0726
-4.9821 dégarnit	-0.0639
-4.9821 dégel	-0.0809
-4.9821 dégourdissait	-0.0773
-4.9821 dégoûta	-0.0748
-4.3961 dégoûtante	-0.0702
-4.9821 dégoûtent	-0.0791
-4.1554 dégoûté	-0.2366
-4.9821 déguiser	-0.0791
-4.3961 déguisé	-0.3801
-4.9821 déguisée	-0.0791
-4.9821 dégustait	-0.0817
-3.6048 déjeuner	-0.0583
-4.3961 déjeunèrent	-0.3851
-3.7981 déjà	-0.0614
-4.9821 délicat	-0.0808
-4.1554 délicate	-0.2492
-4.9821 délicatesse	-0.0818
-4.9821 délicats	-0.0775
-4.9821 délices	-0.0773
-4.1554 délicieuse	-0.0708
-4.3961 délicieusement	-0.0639
-4.9821 délicieux	-0.0841
-4.9821 délirantes	-0.0731
-4.9821 déluge	-0.0841
-4.9821 démangeaisons	-0.0731
-4.9821 démence	-0.0841
-4.9821 dément	-0.0841
-4.9821 démentit	-0.0832
-4.9821 déments	-0.0833
-4.9821 démesuré	-0.0840
-4.9821 démesurée	-0.0810
-4.9821 démodé	-0.0731
-4.9821 démons	-0.0810
-4.9821 démontait	-0.0794
-4.9821 démontrer	-0.0826
-4.9821 démunie	-0.0786
-4.3961 déménagement	-0.0765
-4.3961 déménager	-0.0772
-4.9821 déménagé	-0.0837
-4.3961 dénouement	-0.0807
-4.3961 dénué	-0.3650
-4.9821 dénuée	-0.0841
-4.9821 dénuées	-0.0639
-4.9821 dépassa	-0.0773
-4.3961 dépassait	-0.0773
-4.9821 dépassant	-0.0773
-4.9821 dépasser	-0.0754
-4.9821 dépenaillé	-0.0840
-4.3961 dépend	-0.0787
-4.9821 dépit	-0.0639
-4.9821 déplacée	-0.0838
-4.9821 déplaisant	-0.0841
-4.9821 déplorables	-0.0841
-4.9821 déplumé	-0.0805
-4.9821 dépoli	-0.0817
-4.9821 dépêche	-0.0838
-4.9821 dépêcher	-0.0639
-4.9821 dérisoire	-0.0774
-4.9821 dérobait	-0.0791
-4.9821 dérober	-0.0754
-4.9821 dérobés	-0.0775
-4.9821 déroulède	-0.0831
-4.9821 dés	-0.0731
-4.9821 désagréable	-0.0819
-4.9821 désarmer	-0.0815
-4.9821 désarmé	-0.0838
-4.9821 désarmés	-0.0841
-4.9821 désarticulant	-0.0726
-4.9821 désastres	-0.0731
-4.9821 désemplissait	-0.0794
-4.9821 déserte	-0.0839
-4.9821 déserter	-0.0726
-4.9821 désertes	-0.0639
-4.9821 déserté	-0.0773
-4.1554 désespoir	-0.0700
-4.9821 désespoirs	-0.0786
-4.9821 désespéré	-0.0731
-4.9821 désespérée	-0.0731
-4.9821 désespérément	-0.0831
-4.9821 déshabilla	-0.0773
-4.9821 déshonoré	-0.0786
-4.3961 désignait	-0.0726
-4.9821 désignations	-0.0731
-4.3961 désigner	-0.0799
-4.9821 désillusion	-0.0822
-4.9821 désinvolture	-0.0840
-4.1554 désir	-0.0581
-4.9821 désirait	-0.0816
-4.9821 désirez	-0.0834
-4.9821 désobligeantes	-0.0748
-4.9821 désobligeants	-0.0821
-4.9821 désobligé	-0.0826
-4.9821 désoler	-0.0821
-4.9821 désolé	-0.0775
-4.3961 désolée	-0.0623
-4.9821 désordre	-0.0840
-4.3961 désormais	-0.0810
-4.9821 détachées	-0.0639
-4.0014 détail	-0.0820
-4.3961 détails	-0.0808
-4.3961 détenteurs	-0.3650
-4.9821 déterminait	-0.0773
-4.3961 détermine	-0.0609
-4.9821 déterminer	-0.0841
-4.9821 déterminé	-0.0726
-4.9821 déterreront	-0.0840
-4.9821 détour	-0.0836
-4.9821 détournerais	-0.0835
-4.9821 détromper	-0.0773
-4.9821 développé	-0.0840
-4.9821 développés	-0.0821
-4.9821 dévergondée	-0.0808
-4.3961 dévorant	-0.0707
-4.9821 dévoré	-0.0826
-4.9821 dévoué	-0.0839
-4.3961 dévoyé	-0.0602
-4.9821 dézébrer	-0.0840
-4.3961 dîna	-0.0725
-4.9821 dînaient	-0.0727
-3.6602 dîner	-0.0596
-4.9821 dînette	-0.0821
-4.9821 dîneurs	-0.0810
-4.9821 dînons	-0.0840
-4.9821 dînèrent	-0.0840
-4.9821 dîné	-0.0774
-4.1554 dû	-0.0722
-4.9821 e	-0.0815
-3.5557 eau	-0.1338
-4.9821 eaux	-0.0841
-4.0014 ecclésiastique	-0.0521
-4.9821 eczémateux	-0.0804
-4.9821 eden	-0.0819
-4.9821 effaré	-0.0804
-4.1554 effectivement	-0.0723
-4.9821 effectives	-0.0727
-3.5115 effet	-0.0679
-4.9821 effets	-0.0831
-4.9821 effleurer	-0.0773
-4.9821 effleuré	-0.0808
-4.9821 effondrant	-0.0801
-4.9821 effondré	-0.0826
-4.1554 efforts	-0.0816
-4.3961 effrayant	-0.3814
-4.3961 effroi	-0.0730
-4.3961 effrontée	-0.0814
-4.3961 effroyable	-0.0748
-4.9821 effusions	-0.0831
-4.9821 eguisier	-0.0813
-3.0739 eh	-0.9331
-2.2876 elle	-0.1984
-3.7981 ellen	-0.0576
-3.6048 elles	-0.1102
-4.9821 embarrassé	-0.0786
-4.3961 embrassa	-0.3759
-4.9821 embrassai	-0.0840
-4.9821 embrassaient	-0.0831
-4.9821 embrassais	-0.0821
-4.9821 embrassait	-0.0727
-4.1554 embrasser	-0.2370
-3.6048 embrasseur	-0.0419
-4.9821 embrouille	-0.0837
-4.9821 embrumait	-0.0727
-4.9821 embryonnaires	-0.0841
-4.9821 embêtais	-0.0794
-4.3961 embêtait	-0.0841
-4.3961 embête	-0.0657
-3.8880 embêter	-0.2923
-4.3961 embêtes	-0.0803
-4.9821 embêtèrent	-0.0794
-4.9821 embêté	-0.0821
-4.3961 emily	-0.0784
-4.9821 emmena	-0.0835
-4.9821 empaillées	-0.0841
-4.9821 empanaché	-0.0774
-4.9821 empara	-0.0794
-4.9821 emparai	-0.0835
-4.9821 empila	-0.0804
-4.9821 empire	-0.0819
-4.9821 emploient	-0.0817
-4.9821 employe	-0.0748
-4.9821 employer	-0.0820
-4.0014 employé	-0.2039
-4.9821 employés	-0.0841
-4.9821 emplâtre	-0.0815
-4.9821 empochai	-0.0804
-4.0014 empoigna	-0.0711
-4.9821 emportait	-0.0835
-4.9821 empressée	-0.0839
-4.3961 emprunter	-0.3805
-4.1554 empêche	-0.0531
-4.3961 empêcher	-0.0519
-4.9821 empêcherait	-0.0773
-4.9821 empêches	-0.0639
-1.9373 en	-0.1076
-4.9821 encadraient	-0.0826
-4.9821 enchanté	-0.0639
-4.3961 enchantés	-0.3650
-4.9821 enchères	-0.0841
-4.9821 encolure	-0.0639
-4.9821 encombrait	-0.0831
-4.9821 encombre	-0.0817
-4.1554 encombrement	-0.0527
-4.9821 encontre	-0.0639
-3.0166 encore	-0.0975
-4.9821 encouragea	-0.0773
-4.9821 encouragés	-0.0826
-4.3961 endiablé	-0.0814
-4.3961 endormis	-0.0726
-4.9821 endort	-0.0726
-4.9821 endossait	-0.0826
-3.6602 endroit	-0.1187
-4.3961 endroits	-0.0841
-4.9821 enfance	-0.0731
-4.0014 enfant	-0.0824
-4.9821 enfantine	-0.0754
-3.7237 enfants	-0.0406
-4.9821 enfer	-0.0815
-4.9821 enfermer	-0.0840
-4.9821 enfermeras	-0.0726
-4.9821 enfila	-0.0727
-4.9821 enfilant	-0.0775
-4.9821 enfiler	-0.0775
-3.6602 enfin	-0.0639
-4.9821 enfoncer	-0.0826
-4.1554 enfonça	-0.5572
-4.9821 enfuit	-0.0841
-4.9821 enfuyais	-0.0841
-4.9821 engageantes	-0.0731
-4.3961 engagement	-0.3650
-4.9821 engager	-0.0727
-4.3961 engagé	-0.0660
-4.9821 engendrer	-0.0754
-4.9821 engin	-0.0841
-4.9821 engouement	-0.0841
-4.9821 engouffrait	-0.0801
-4.9821 engouffrer	-0.0801
-4.9821 engourdies	-0.0821
-4.9821 engraisser	-0.0731
-4.9821 engraissé	-0.0817
-4.9821 enhardi	-0.0841
-4.1554 enleva	-0.0555
-4.9821 enlever	-0.0838
-4.9821 ennemi	-0.0808
-4.9821 ennemis	-0.0810
-4.9821 ennui	-0.0841
-4.9821 ennuient	-0.0754
-4.3961 ennuyait	-0.0714
-4.9821 enragé	-0.0840
-4.9821 enrouement	-0.0834
-4.9821 enroulaient	-0.0801
-4.9821 enroué	-0.0838
-4.3961 enrouée	-0.0824
-4.9821 enseigne	-0.0727
-4.9821 enseignement	-0.0841
-3.7237 ensemble	-0.2026
-4.9821 ensuit	-0.0819
-4.3961 ensuite	-0.0773
-4.9821 entassa	-0.0801
-4.9821 entassait	-0.0775
-4.9821 entendais	-0.0835
-4.9821 entendait	-0.0835
-4.9821 entendant	-0.0840
-4.9821 entendement	-0.0837
-4.9821 entendeur	-0.0841
-4.9821 entendeuse	-0.0841
-4.0014 entendre	-0.0634
-4.9821 entends	-0.0828
-3.6048 entendu	-0.1691
-4.9821 entendus	-0.0840
-4.9821 enterra	-0.0801
-4.3961 enterrement	-0.0793
-4.3961 enterré	-0.0727
-4.9821 entier	-0.0817
-4.9821 entiers	-0.0815
-4.3961 entièrement	-0.0841
-4.9821 entonna	-0.0775
-4.9821 entonnoir	-0.0835
-4.9821 entoura	-0.0726
-4.9821 entouraient	-0.0840
-4.9821 entourait	-0.0769
-4.0014 entra	-0.0739
-3.8880 entrai	-0.0723
-4.9821 entrain	-0.0840
-4.9821 entrais	-0.0791
-4.9821 entrait	-0.0801
-4.9821 entravait	-0.0731
-4.3961 entraîna	-0.0799
-3.1971 entre	-0.2652
-4.9821 entrebâillement	-0.0639
-4.9821 entrent	-0.0838
-4.9821 entrepont	-0.0840
-4.9821 entreprendrai	-0.0794
-4.0014 entrer	-0.0719
-4.1554 entresol	-0.0717
-4.9821 entretenir	-0.0816
-4.1554 entretien	-0.0600
-4.9821 entrevue	-0.0775
-4.9821 entrons	-0.0791
-4.9821 entrouverte	-0.0841
-3.7237 entrée	-0.3026
-4.9821 entrés	-0.0801
-4.9821 entêté	-0.0808
-4.9821 envahis	-0.0826
-4.9821 enveloppait	-0.0833
-4.1554 enveloppe	-0.0796
-4.9821 envers	-0.0775
-4.9821 enviable	-0.0841
-4.9821 enviaient	-0.0833
-4.0014 envie	-0.1829
-4.1554 environ	-0.0772
-4.1554 environs	-0.2366
-4.9821 envoi	-0.0786
-4.3961 envoie	-0.0639
-4.9821 envois	-0.0826
-4.9821 envolaient	-0.0821
-4.9821 envoya	-0.0837
-4.9821 envoyai	-0.0748
-4.9821 envoyait	-0.0794
-4.3961 envoyer	-0.0681
-4.9821 envoyât	-0.0794
-4.9821 envoyé	-0.0821
-4.3961 ern	-0.0841
-4.9821 errements	-0.0841
-4.3961 erreurs	-0.0542
-4.9821 erville	-0.0841
-3.7237 es	-0.1382
-4.9821 escadres	-0.0639
-3.8880 escalier	-0.0487
-4.9821 escaliers	-0.0731
-4.9821 esclaves	-0.0841
-4.9821 espiègle	-0.0841
-4.9821 espiègles	-0.0639
-4.9821 espoir	-0.0639
-3.6602 esprit	-0.0382
-4.9821 esprits	-0.0840
-3.6048 espèce	-0.5351
-4.3961 espère	-0.0818
-4.3961 espérances	-0.0734
-4.9821 essai	-0.0841
-4.3961 essaya	-0.0590
-4.9821 essayai	-0.0639
-4.3961 essence	-0.0711
-4.9821 essieu	-0.0841
-4.9821 essoufflée	-0.0816
-4.9821 essuie	-0.0818
-4.9821 essuyer	-0.0775
-2.0460 est	-0.2767
-4.9821 estaminet	-0.0808
-4.9821 esthetic	-0.0841
-4.9821 esthétique	-0.0794
-4.9821 estimais	-0.0823
-4.0014 estomac	-0.0640
-4.0014 estrade	-0.0645
-1.6000 et	-0.2418
-3.6048 etc	-0.1062
-4.3961 ethnographie	-0.0720
-4.9821 ethnographique	-0.0817
-3.5557 eu	-0.0224
-4.9821 eugène	-0.0841
-4.9821 eugénie	-0.0815
-4.9821 eurent	-0.0840
-4.3961 europe	-0.0699
-3.5557 eus	-0.1461
-4.9821 eusse	-0.0841
-4.3961 eussent	-0.0834
-3.5557 eut	-0.0417
-3.5557 eux	-0.1466
-4.3961 evening	-0.3851
-4.9821 ex	-0.0841
-4.3961 exact	-0.0807
-4.9821 exacte	-0.0841
-4.0014 exactement	-0.0614
-4.9821 exactitude	-0.0825
-4.9821 exacts	-0.0841
-4.9821 exagère	-0.0775
-4.1554 examen	-0.0680
-4.1554 examens	-0.0831
-4.9821 examinai	-0.0826
-4.3961 examinateurs	-0.0803
-4.1554 excellent	-0.0830
-4.3961 excellente	-0.0841
-4.9821 excentric	-0.0815
-4.9821 excentrique	-0.0639
-4.9821 exceptions	-0.0726
-4.9821 excepté	-0.0841
-4.9821 excita	-0.0726
-4.9821 exclama	-0.0840
-4.3961 excluait	-0.3847
-4.9821 exclusivement	-0.0841
-4.3961 exclut	-0.3804
-4.9821 excréments	-0.0731
-4.3961 excusa	-0.0822
-4.9821 excuse	-0.0786
-4.9821 excuser	-0.0754
-4.9821 excuses	-0.0731
-4.9821 excédent	-0.0639
-3.6048 exemple	-0.0961
-4.9821 exemples	-0.0731
-4.9821 exempte	-0.0639
-4.0014 exercice	-0.0465
-4.9821 exerçant	-0.0775
-4.9821 exhiber	-0.0831
-4.1554 exhibition	-0.0763
-4.9821 exigences	-0.0816
-4.9821 exigu	-0.0775
-4.9821 exiguë	-0.0824
-4.9821 exiguïté	-0.0841
-4.9821 existe	-0.0829
-3.7981 existence	-0.0455
-4.9821 exorbitante	-0.0786
-4.3961 exotique	-0.0639
-4.3961 exotiques	-0.0747
-4.3961 explication	-0.0771
-4.0014 expliquer	-0.1955
-4.9821 expliquerai	-0.0826
-4.9821 expliqueras	-0.0828
-4.9821 exploré	-0.0840
-4.1554 explosion	-0.0543
-4.3961 expose	-0.0838
-3.3404 exposition	-0.2053
-4.9821 expositions	-0.0841
-4.3961 express	-0.3650
-4.3961 expresse	-0.3650
-4.9821 expression	-0.0841
-4.9821 exprimer	-0.0791
-4.9821 exprès	-0.0826
-4.9821 exquis	-0.0841
-4.3961 exquise	-0.0731
-4.9821 exquises	-0.0840
-4.9821 extraordinaire	-0.0841
-4.0014 extrême	-0.0840
-4.1554 extrêmement	-0.0831
-4.9821 extérieur	-0.0841
-4.1554 exécutait	-0.0469
-4.9821 exécutant	-0.0775
-4.9821 exécuter	-0.0835
-4.9821 exécuté	-0.0826
-4.9821 exécutée	-0.0775
-4.9821 exécutées	-0.0775
-4.9821 exécutés	-0.0831
-3.4715 eût	-0.2470
-3.7237 f	-0.4188
-4.9821 fable	-0.0821
-4.9821 fables	-0.0786
-4.9821 fabricant	-0.0786
-4.1554 fabrication	-0.5612
-4.9821 fabriquer	-0.0794
-4.9821 fabriquez	-0.0826
-4.9821 fabuleux	-0.0639
-4.9821 face	-0.0839
-4.1554 facilement	-0.0730
-4.9821 facilité	-0.0804
-3.8880 faction	-0.0676
-4.9821 factionnaire	-0.0726
-4.9821 factures	-0.0841
-4.9821 facultés	-0.0836
-4.9821 facéties	-0.0802
-4.9821 fagots	-0.0841
-4.3961 faible	-0.0836
-4.9821 faiblement	-0.0841
-4.9821 faibles	-0.0841
-4.3961 faiblesse	-0.0773
-4.9821 faict	-0.0841
-4.9821 failli	-0.0840
-4.3961 faillit	-0.0818
-4.1554 faillite	-0.0589
-2.7994 faire	-0.1082
-3.5557 fais	-0.0402
-4.9821 faisable	-0.0726
-4.0014 faisaient	-0.0775
-4.3961 faisais	-0.0815
-3.0895 faisait	-0.2527
-4.1554 faisant	-0.0790
-4.9821 faisions	-0.0639
-2.7387 fait	-0.1319
-3.7981 faite	-0.1457
-3.6602 faites	-0.1279
-4.9821 faits	-0.0810
-4.9821 falaises	-0.0731
-4.0014 fallait	-0.0674
-4.3961 falot	-0.0702
-4.3961 fameuse	-0.0839
-4.1554 fameux	-0.0839
-4.9821 familier	-0.0639
-4.9821 familiers	-0.0774
-3.2398 famille	-0.0733
-4.3961 familles	-0.0639
-4.9821 fange	-0.0774
-4.1554 fantaisie	-0.0724
-4.9821 fantaisies	-0.0775
-4.1554 fantaisiste	-0.0703
-4.9821 faquins	-0.0786
-4.9821 farce	-0.0808
-4.3961 farnèse	-0.0758
-4.9821 farouche	-0.0825
-4.9821 farouches	-0.0841
-4.0014 fasse	-0.0539
-4.9821 fastueuse	-0.0639
-4.9821 fat	-0.0775
-4.9821 fatal	-0.0834
-4.9821 fati_	-0.0831
-4.9821 fatidique	-0.0639
-4.9821 fatiguerai	-0.0794
-4.9821 fatma	-0.0831
-4.1554 faubourg	-0.2598
-4.9821 fauchée	-0.0826
-4.3961 faudra	-0.0813
-4.9821 faudrait	-0.0841
-4.3961 fausser	-0.0716
-4.9821 fausses	-0.0841
-3.2872 faut	-0.1124
-4.3961 faute	-0.0693
-4.3961 fauteuil	-0.0731
-4.9821 fauve	-0.0841
-4.9821 fauves	-0.0639
-4.0014 faux	-0.0813
-4.3961 faveur	-0.0753
-4.9821 favorisée	-0.0826
-4.3961 favorite	-0.0722
-3.4010 façon	-0.2806
-4.3961 feignant	-0.0827
-2.9542 femme	-0.0524
-3.6602 femmes	-0.0430
-4.9821 fenayrou	-0.0840
-4.9821 fente	-0.0841
-3.8880 fenêtre	-0.0622
-4.1554 fenêtres	-0.0609
-3.8880 fer	-0.0727
-4.3961 fera	-0.0813
-4.9821 ferai	-0.0841
-4.3961 feraient	-0.0769
-4.1554 ferais	-0.0707
-3.6602 ferait	-0.1180
-4.9821 feras	-0.0841
-4.9821 ferblanterie	-0.0833
-3.2872 ferdinand	-0.1470
-4.9821 ferez	-0.0832
-4.3961 ferma	-0.0609
-4.9821 fermai	-0.0727
-3.7981 ferme	-0.0563
-4.9821 fermier	-0.0840
-4.3961 fermé	-0.0749
-4.9821 fermées	-0.0834
-4.9821 fermés	-0.0817
-4.9821 ferons	-0.0833
-4.9821 feront	-0.0775
-4.0014 feu	-0.0819
-3.8880 feuille	-0.4619
-4.3961 feuilles	-0.0786
-4.9821 feutre	-0.0841
-4.9821 fiancé	-0.0813
-4.3961 ficelle	-0.0785
-4.9821 fichais	-0.0794
-4.3961 fichait	-0.0745
-3.8880 fiche	-0.0527
-4.9821 ficheras	-0.0794
-3.7981 fichu	-0.0425
-4.9821 fichus	-0.0748
-4.1554 fidèle	-0.0813
-4.9821 fier	-0.0731
-4.9821 figurait	-0.0791
-4.0014 figure	-0.0766
-4.9821 figurer	-0.0835
-4.9821 figurez	-0.0808
-4.9821 filait	-0.0821
-4.9821 file	-0.0804
-4.9821 filer	-0.0775
-2.9100 fille	-0.1117
-3.6048 filles	-0.0609
-4.9821 fillettes	-0.0818
-3.5557 fils	-0.1845
-3.1582 fin	-0.1861
-4.9821 finalement	-0.0835
-4.9821 finance	-0.0841
-4.9821 fine	-0.0794
-4.9821 finement	-0.0726
-4.0014 fines	-0.1980
-4.3961 fini	-0.0825
-4.9821 finie	-0.0840
-4.9821 finir	-0.0838
-4.9821 finirent	-0.0826
-4.9821 finissent	-0.0826
-3.8880 fins	-0.0678
-4.3961 fioles	-0.0707
-4.3961 firent	-0.0816
-3.4715 fis	-0.2922
-4.9821 fisse	-0.0786
-2.9781 fit	-0.1422
-4.9821 fixa	-0.0839
-4.9821 fixaient	-0.0841
-4.9821 fixé	-0.0821
-4.9821 fixée	-0.0821
-4.1554 flacon	-0.2400
-4.9821 flagrante	-0.0773
-4.9821 flamand	-0.0840
-4.9821 flambaient	-0.0786
-4.9821 flamboyait	-0.0804
-4.1554 flamboyants	-0.0794
-4.9821 flamboyèrent	-0.0838
-4.3961 flamme	-0.0795
-4.9821 flammes	-0.0805
-4.3961 flanc	-0.0840
-4.9821 flancs	-0.0832
-4.9821 flanqué	-0.0835
-4.9821 flanqués	-0.0826
-4.3961 flaque	-0.0524
-4.9821 flattant	-0.0817
-4.9821 flatte	-0.0836
-4.9821 flatteurs	-0.0841
-4.9821 flatteuses	-0.0841
-4.9821 flattés	-0.0639
-4.9821 flegme	-0.0841
-4.9821 flemmard	-0.0639
-4.9821 fleurant	-0.0731
-4.9821 fleurissaient	-0.0816
-4.3961 fleurs	-0.0642
-4.9821 fleuves	-0.0805
-4.9821 flingot	-0.0731
-4.9821 florissante	-0.0841
-4.9821 flots	-0.0639
-4.9821 flotte	-0.0818
-4.9821 flâner	-0.0838
-4.9821 flâneries	-0.0826
-4.9821 flâneuse	-0.0731
-3.6048 foi	-0.1113
-4.9821 foin	-0.0639
-2.8996 fois	-0.1560
-4.1554 folie	-0.0754
-4.1554 folies	-0.0731
-4.1554 folle	-0.0636
-4.9821 folles	-0.0840
-3.8880 fonction	-0.0753
-4.9821 fonctionnaires	-0.0775
-3.6602 fond	-0.3539
-4.3961 fonds	-0.0771
-4.9821 fondu	-0.0821
-4.0014 font	-0.0570
-4.9821 fontaine	-0.0805
-4.3961 fontenay	-0.0828
-4.3961 for	-0.0841
-3.7981 force	-0.2285
-4.9821 forcer	-0.0773
-4.9821 forcerais	-0.0773
-4.1554 forcé	-0.2375
-4.9821 forfaitz	-0.0841
-4.9821 forma	-0.0726
-4.9821 formaient	-0.0815
-4.9821 formation	-0.0786
-4.9821 formats	-0.0813
-3.7237 forme	-0.1026
-4.3961 formes	-0.0759
-4.9821 formidable	-0.0841
-4.9821 formidables	-0.0841
-4.9821 formulé	-0.0791
-3.0739 fort	-0.1960
-3.5557 forte	-0.1109
-4.3961 fortement	-0.0679
-4.9821 fortes	-0.0841
-4.9821 fortifications	-0.0794
-3.6602 fortune	-0.0640
-4.9821 forçait	-0.0748
-3.5557 fou	-0.0433
-4.9821 foudre	-0.0817
-4.9821 foudroya	-0.0769
-4.9821 foudroyer	-0.0754
-4.9821 foudroyé	-0.0826
-4.9821 fouet	-0.0808
-4.9821 fouetta	-0.0769
-4.9821 fougueuse	-0.0841
-4.9821 fouiller	-0.0831
-4.9821 foulai	-0.0726
-4.3961 foule	-0.0719
-4.9821 found	-0.0837
-4.9821 fourchettes	-0.0794
-4.9821 fourmillement	-0.0808
-4.9821 fourneau	-0.0786
-4.9821 fourneaux	-0.0841
-4.9821 fournir	-0.0839
-4.9821 fournissent	-0.0818
-4.9821 fourniture	-0.0639
-3.8880 fourquemin	-0.1693
-4.9821 fourrait	-0.0841
-4.9821 fourrer	-0.0773
-4.9821 fourré	-0.0801
-4.9821 fours	-0.0731
-4.1554 fous	-0.0638
-4.9821 foutu	-0.0639
-4.9821 fox	-0.0837
-4.9821 foyers	-0.0786
-4.9821 fragment	-0.0639
-4.0014 frais	-0.0727
-3.7981 france	-0.3681
-4.3961 franchement	-0.0803
-3.6602 francs	-0.1252
-4.1554 français	-0.0768
-4.3961 française	-0.0727
-4.9821 françois	-0.0841
-4.9821 frappa	-0.0794
-4.9821 frappai	-0.0748
-4.9821 frappante	-0.0727
-4.9821 frapper	-0.0748
-4.9821 frappé	-0.0786
-4.9821 frasque	-0.0815
-4.3961 frasques	-0.0841
-4.9821 fraternité	-0.0754
-4.9821 frayeur	-0.0841
-4.9821 fraîche	-0.0841
-4.3961 fraîchement	-0.0841
-4.3961 fraîcheur	-0.0803
-4.9821 fraîchissait	-0.0775
-4.9821 friand	-0.0639
-4.9821 friction	-0.0841
-4.9821 frictionner	-0.0726
-4.9821 frictionné	-0.0727
-4.9821 frigide	-0.0639
-4.9821 frileux	-0.0639
-4.9821 frisait	-0.0727
-4.9821 frisant	-0.0727
-4.9821 frise	-0.0727
-4.9821 frisons	-0.0805
-4.9821 frissons	-0.0841
-4.9821 frisé	-0.0726
-4.9821 frisés	-0.0731
-4.9821 frite	-0.0731
-3.7237 froid	-0.0669
-4.9821 froide	-0.0754
-4.9821 froids	-0.0731
-4.9821 froissent	-0.0839
-4.9821 froncez	-0.0794
-3.7981 front	-0.0522
-4.9821 frontières	-0.0841
-4.9821 fronça	-0.0817
-4.9821 frottaient	-0.0773
-4.9821 frottait	-0.0841
-4.9821 frottant	-0.0773
-4.9821 frotte	-0.0773
-4.9821 fructueux	-0.0727
-4.9821 frères	-0.0821
-4.9821 frémissements	-0.0786
-4.3961 frémit	-0.0818
-4.9821 fréquence	-0.0841
-4.9821 fréquent	-0.0816
-4.9821 fréquentait	-0.0801
-4.9821 fréquentée	-0.0826
-3.8880 frêle	-0.2910
-4.9821 fuite	-0.0639
-4.9821 fulgura	-0.0726
-4.9821 fumait	-0.0754
-4.9821 fumant	-0.0754
-4.9821 fumants	-0.0808
-4.9821 fument	-0.0794
-4.3961 fumer	-0.0834
-4.9821 fumer_	-0.0839
-4.9821 fumet	-0.0639
-4.1554 fumier	-0.0719
-4.9821 fumiste	-0.0839
-4.9821 funèbres	-0.0823
-3.8880 furent	-0.0831
-4.9821 furet	-0.0826
-4.9821 fureur	-0.0639
-4.9821 furibonds	-0.0837
-4.9821 furieuse	-0.0841
-4.3961 furieux	-0.0706
-4.9821 furtif	-0.0794
-4.9821 furtive	-0.0731
-4.9821 furtivement	-0.0841
-3.7981 fus	-0.0764
-4.9821 fusil	-0.0731
-4.9821 fusilleriez	-0.0841
-4.9821 fusse	-0.0840
-2.9315 fut	-0.0526
-4.9821 futaille	-0.0841
-4.3961 fuyait	-0.0819
-4.9821 fâcher	-0.0639
-4.9821 fâché	-0.0639
-4.9821 féculents	-0.0841
-4.9821 fées	-0.0841
-4.9821 félicita	-0.0639
-4.9821 fénelon	-0.0802
-4.9821 férocité	-0.0841
-4.9821 féroé	-0.0841
-3.7981 fête	-0.0515
-4.9821 fêtes	-0.0841
-4.9821 fîmes	-0.0727
-4.9821 fûmes	-0.0841
-3.7237 fût	-0.1337
-4.3961 g	-0.0779
-4.3961 gabelou	-0.0762
-4.9821 gageure	-0.0817
-4.1554 gagna	-0.0609
-4.1554 gagner	-0.0838
-4.1554 gaiement	-0.0797
-4.9821 gaieté	-0.0831
-4.9821 gaietés	-0.0786
-4.9821 gaillarde	-0.0639
-4.9821 gaillards	-0.0748
-4.9821 gais	-0.0841
-4.3961 galerie	-0.3805
-4.9821 galette	-0.0748
-4.3961 gallo	-0.3851
-4.9821 galonnée	-0.0816
-4.1554 galop	-0.0619
-4.9821 galopait	-0.0820
-4.3961 gants	-0.0816
-4.9821 garanti	-0.0639
-4.9821 garantir	-0.0639
-4.9821 garantis	-0.0794
-4.9821 gardaient	-0.0835
-3.6048 garde	-0.2241
-4.1554 garder	-0.2516
-4.9821 gardiens	-0.0639
-4.9821 gare	-0.0774
-4.9821 gargousses	-0.0837
-4.9821 garnement	-0.0805
-4.9821 garnison	-0.0639
-4.9821 garnissaient	-0.0769
-4.9821 gars	-0.0840
-2.9100 garçon	-0.0349
-3.7981 garçons	-0.0378
-4.3961 gaspard	-0.0635
-3.7237 gauche	-0.0246
-4.9821 gauchement	-0.0841
-4.9821 gaulois	-0.0731
-4.9821 gausser	-0.0794
-4.9821 gauthier	-0.0841
-4.9821 gazouillis	-0.0786
-4.1554 gendarmes	-0.2463
-4.1554 genoux	-0.0726
-4.1554 genre	-0.2536
-4.9821 genres	-0.0639
-2.7994 gens	-0.2424
-3.7237 gentil	-0.0654
-4.9821 gentilhomme	-0.0837
-3.7237 gentille	-0.0493
-4.9821 gentilles	-0.0731
-4.9821 gentils	-0.0841
-4.9821 gentiment	-0.0834
-4.9821 gentleman	-0.0821
-4.9821 gentlemen	-0.0805
-4.9821 genèse	-0.0639
-3.3130 george	-0.1053
-4.9821 georges	-0.0731
-4.3961 germain	-0.0728
-4.9821 geste	-0.0841
-4.1554 gesticulatoire	-0.0763
-4.9821 giboyeux	-0.0731
-4.9821 gifle	-0.0754
-4.9821 gigot	-0.0731
-4.3961 gigue	-0.0748
-4.9821 gilets	-0.0786
-4.9821 glace	-0.0821
-4.9821 glaces	-0.0841
-4.9821 glacialité	-0.0841
-4.9821 glaçait	-0.0819
-4.9821 glisse	-0.0726
-4.9821 glissement	-0.0841
-4.9821 glisseras	-0.0748
-4.9821 glissèrent	-0.0841
-4.9821 glissé	-0.0801
-4.9821 gobai	-0.0826
-4.9821 gobbler	-0.0727
-4.9821 gobes	-0.0816
-4.9821 goinfre	-0.0817
-3.8880 gommeux	-0.0690
-4.9821 gonfalonier	-0.0639
-4.3961 good	-0.3851
-4.9821 gorge	-0.0639
-4.9821 gosiers	-0.0841
-4.3961 gosse	-0.0689
-4.9821 gosses	-0.0818
-4.9821 gotha	-0.0840
-4.9821 goutte	-0.0834
-4.3961 gouvernante	-0.0793
-4.3961 gouvernement	-0.0766
-4.9821 goût	-0.0731
-4.3961 grace	-0.0808
-4.3961 gracieux	-0.0840
-4.9821 grade	-0.0731
-4.9821 graduellement	-0.0838
-3.7981 grailly	-0.1543
-4.9821 grain	-0.0639
-4.9821 grammaire	-0.0748
-4.9821 grammes	-0.0731
-2.8796 grand	-0.1062
-2.9906 grande	-0.1803
-3.7981 grandes	-0.0836
-4.9821 grandeur	-0.0841
-3.4348 grands	-0.0723
-4.9821 granit	-0.0836
-4.3961 grappe	-0.3650
-4.3961 gras	-0.0730
-4.9821 gratifier	-0.0808
-4.3961 gratta	-0.3737
-4.9821 grattant	-0.0841
-4.9821 gratter	-0.0821
-3.7981 grave	-0.0547
-4.0014 gravement	-0.0588
-4.0014 graves	-0.1907
-4.0014 graveur	-0.6861
-4.3961 gravité	-0.0748
-4.9821 gravure	-0.0731
-4.9821 gravé	-0.0818
-4.9821 grec	-0.0841
-4.1554 grecques	-0.0659
-4.9821 grecs	-0.0841
-4.9821 grelottent	-0.0726
-4.9821 grenadine	-0.0837
-4.9821 grenouille	-0.0837
-4.9821 grillais	-0.0808
-4.9821 grimpa	-0.0841
-4.3961 grimpé	-0.0781
-4.9821 grincer	-0.0841
-4.9821 grincha	-0.0837
-4.9821 grincheux	-0.0837
-4.9821 grippe	-0.0821
-4.3961 gris	-0.0731
-4.9821 grives	-0.0834
-4.9821 grogna	-0.0820
-4.9821 grognements	-0.0639
-4.9821 grognon	-0.0731
-4.0014 groin	-0.0588
-4.9821 grommelant	-0.0774
-4.9821 gronder	-0.0840
-3.1772 gros	-0.1746
-4.9821 grosclaude	-0.0841
-3.7237 grosse	-0.0830
-4.3961 grosses	-0.0840
-3.8880 groupe	-0.1492
-4.3961 groupes	-0.0829
-4.9821 grue	-0.0726
-3.5557 grâce	-0.1879
-4.9821 grève	-0.0775
-4.9821 grèves	-0.0817
-4.9821 gré	-0.0774
-4.3961 guerre	-0.0639
-4.9821 guerrier	-0.0841
-4.0014 gueule	-0.0712
-4.3961 guigne	-0.0726
-4.9821 guilbert	-0.0639
-4.3961 guitare	-0.0742
-4.9821 gustave	-0.0841
-4.9821 gutta	-0.0841
-3.0895 guy	-0.1998
-3.8880 guéri	-0.0713
-4.3961 guérir	-0.0768
-4.9821 guéris	-0.0840
-4.9821 guérisons	-0.0786
-4.9821 guérissez	-0.0821
-4.9821 guérite	-0.0841
-4.9821 guêpe	-0.0833
-4.9821 gymnastique	-0.0837
-4.9821 gâte	-0.0835
-4.9821 gâteaux	-0.0808
-4.9821 gâté	-0.0639
-4.9821 gâtée	-0.0826
-3.8880 géant	-0.4709
-4.9821 gémissais	-0.0801
-4.9821 gémissements	-0.0841
-4.9821 gémît	-0.0794
-4.3961 génial	-0.0615
-4.9821 géniale	-0.0840
-4.1554 génie	-0.0761
-3.7981 général	-0.1413
-4.1554 générale	-0.0694
-4.0014 généralement	-0.0602
-4.9821 génération	-0.0836
-4.9821 généreuse	-0.0808
-4.3961 génésiaque	-0.0809
-4.9821 géographe	-0.0754
-4.1554 géographie	-0.0810
-4.3961 géraniums	-0.0758
-4.9821 gênante	-0.0794
-4.9821 gênent	-0.0794
-4.1554 gêner	-0.0771
-4.9821 gêné	-0.0801
-4.9821 gênée	-0.0791
-4.3961 h	-0.0820
-4.9821 ha	-0.0818
-4.9821 habilement	-0.0841
-4.9821 habileté	-0.0836
-4.9821 habiller	-0.0726
-4.9821 habillé	-0.0834
-4.9821 habillées	-0.0841
-4.9821 habitais	-0.0841
-4.1554 habitants	-0.2329
-4.9821 habite	-0.0786
-4.9821 habitua	-0.0748
-4.0014 habitude	-0.0654
-4.9821 habituel	-0.0639
-4.9821 habituer	-0.0839
-4.3961 habitués	-0.0712
-4.9821 habitée	-0.0826
-4.9821 haleine	-0.0825
-4.9821 haletaient	-0.0773
-4.1554 hall	-0.0805
-4.9821 halls	-0.0826
-4.9821 halte	-0.0830
-4.9821 hanches	-0.0731
-4.9821 hand	-0.0769
-4.9821 hanneton	-0.0639
-4.9821 harcourt	-0.0840
-4.9821 hardes	-0.0815
-4.9821 hargneux	-0.0839
-4.9821 haricots	-0.0731
-4.3961 harmonie	-0.3805
-3.7981 hasard	-0.1316
-4.9821 hasardai	-0.0748
-4.9821 haussa	-0.0841
-4.9821 haussait	-0.0821
-4.9821 hausse	-0.0841
-4.9821 hausser	-0.0773
-3.5115 haut	-0.2398
-3.8880 haute	-0.0839
-4.9821 hautes	-0.0841
-4.1554 hauteur	-0.0579
-4.1554 hauts	-0.0639
-4.9821 havrais	-0.0815
-4.3961 havre	-0.0524
-3.7981 hein	-0.0666
-4.9821 helvète	-0.0838
-4.3961 helvétie	-0.0722
-4.1554 henri	-0.2573
-4.3961 henry	-0.0786
-4.3961 hercule	-0.3851
-4.9821 hermétiquement	-0.0841
-4.0014 hervé	-0.1883
-3.3404 heure	-0.1066
-3.2398 heures	-0.2542
-3.7237 heureusement	-0.2045
-3.5557 heureux	-0.0494
-4.9821 hideux	-0.0841
-3.8880 hier	-0.0486
-4.9821 hilarité	-0.0731
-4.9821 hippiques	-0.0731
-4.9821 hirondelles	-0.0826
-4.9821 his	-0.0841
-4.9821 hissa	-0.0821
-3.1057 histoire	-0.0974
-4.3961 histoires	-0.0744
-4.9821 historique	-0.0639
-4.0014 hiver	-0.0723
-4.3961 hoc	-0.0832
-4.3961 hollandais	-0.0617
-4.9821 homicide	-0.0639
-2.8332 homme	-0.0348
-3.3404 hommes	-0.0824
-4.3961 honfleur	-0.0660
-4.0014 honneau	-0.3650
-3.6048 honneur	-0.0859
-3.8880 honnête	-0.1745
-4.9821 honorable	-0.0731
-4.9821 honore	-0.0826
-4.9821 honte	-0.0841
-4.9821 honteux	-0.0639
-4.9821 horizontale	-0.0731
-4.9821 horizontalement	-0.0841
-4.3961 horloger	-0.0735
-4.9821 horlogerie	-0.0748
-4.0014 horreur	-0.1991
-3.8880 hors	-0.4561
-4.9821 hospitalière	-0.0817
-4.9821 hostellerie	-0.0773
-4.9821 hostiles	-0.0639
-4.9821 hostilité	-0.0832
-4.9821 houilles	-0.0748
-4.3961 houlbec	-0.0810
-4.9821 houppelande	-0.0821
-3.6048 hue	-0.0547
-3.7981 hui	-0.0671
-4.3961 huissier	-0.0738
-3.6048 huit	-0.4353
-4.9821 humain	-0.0841
-4.9821 humaine	-0.0836
-4.9821 humains	-0.0805
-4.0014 humanité	-0.0561
-4.0014 humble	-0.0841
-4.0014 hume	-0.6861
-4.9821 humecteurs	-0.0832
-3.7981 humeur	-0.1451
-4.1554 humide	-0.0632
-4.9821 hure	-0.0808
-4.9821 hurlai	-0.0775
-4.9821 hurlements	-0.0786
-4.9821 hurleurs	-0.0841
-3.4010 hurlotte	-0.0619
-4.9821 hurrah	-0.0841
-4.9821 huyotson	-0.0731
-4.9821 hydrogène	-0.0639
-4.3961 hymen	-0.0819
-4.9821 hyménéennes	-0.0754
-4.9821 hyperboloïdes	-0.0774
-4.3961 hyène	-0.0808
-4.3961 hâte	-0.0833
-4.9821 hé	-0.0841
-4.0014 hélas	-0.0535
-4.9821 héliotrope	-0.0726
-4.3961 hélène	-0.3759
-4.3961 hémisphères	-0.0817
-4.0014 héraldique	-0.2015
-4.9821 héritage	-0.0822
-4.9821 hériter	-0.0839
-4.1554 héritier	-0.0746
-4.9821 hérité	-0.0774
-4.9821 héros	-0.0841
-4.9821 hérédité	-0.0808
-4.9821 hérésies	-0.0833
-4.9821 hésita	-0.0794
-4.3961 hésitai	-0.0639
-4.9821 hésité	-0.0748
-4.3961 hétéroclite	-0.0679
-4.9821 hétéroclites	-0.0841
-4.3961 hôpital	-0.0766
-4.9821 hôpitaux	-0.0794
-4.0014 hôte	-0.1868
-3.3130 hôtel	-0.2233
-4.9821 hôtelière	-0.0808
-4.9821 hôtels	-0.0639
-4.9821 hôtesse	-0.0639
-4.1554 i	-0.0774
-3.6048 ici	-0.1842
-4.9821 idees	-0.0841
-4.9821 idiome	-0.0639
-4.0014 idiot	-0.0639
-4.9821 idiotes	-0.0731
-4.3961 idiots	-0.0783
-4.9821 idylle	-0.0838
-4.9821 idéal	-0.0731
-2.9660 idée	-0.1776
-4.1554 idées	-0.0745
-4.9821 ier	-0.0818
-4.9821 ignoble	-0.0731
-4.3961 ignorais	-0.0749
-4.9821 ignorait	-0.0731
-4.3961 ignorance	-0.0524
-4.9821 ignore	-0.0731
-4.9821 ignoré	-0.0839
-4.3961 ii	-0.0837
-4.3961 iii	-0.0826
-1.8135 il	-0.3562
-4.9821 illico	-0.0821
-4.9821 illusion	-0.0832
-4.9821 illustrèrent	-0.0818
-2.6854 ils	-0.3196
-4.3961 image	-0.0627
-4.9821 imagination	-0.0841
-4.9821 imagine	-0.0838
-4.9821 imaginer	-0.0839
-3.8880 imaginez	-0.7798
-4.9821 imaginé	-0.0841
-4.3961 imbéciles	-0.0639
-4.9821 immaculation	-0.0817
-3.8880 immense	-0.1809
-4.9821 immeuble	-0.0791
-4.9821 imminentes	-0.0841
-4.9821 immobile	-0.0817
-4.3961 immédiate	-0.0781
-4.3961 immédiatement	-0.0754
-4.9821 impassiblement	-0.0818
-4.3961 impatience	-0.0614
-4.9821 impatientée	-0.0639
-4.9821 impeccable	-0.0639
-4.9821 imperceptiblement	-0.0773
-4.3961 impertinents	-0.0639
-4.9821 imperturbable	-0.0769
-4.9821 imperturbablement	-0.0841
-4.3961 impitoyable	-0.0639
-4.9821 impitoyablement	-0.0841
-4.9821 importait	-0.0727
-4.1554 importance	-0.0821
-4.3961 important	-0.0817
-4.3961 importante	-0.0840
-4.9821 importantes	-0.0841
-3.7981 importe	-0.0577
-4.3961 impossible	-0.0819
-4.3961 imprimer	-0.0708
-4.9821 improviste	-0.0775
-4.3961 improvisé	-0.0752
-4.9821 imprudent	-0.0775
-4.9821 imprévu	-0.0786
-4.9821 impulser	-0.0839
-4.9821 impériale	-0.0786
-4.3961 inaccoutumé	-0.0831
-4.9821 inaccoutumée	-0.0817
-4.3961 inanimés	-0.0837
-4.9821 inaperçu	-0.0794
-4.9821 inattendu	-0.0841
-4.9821 inaugurée	-0.0821
-4.9821 incendiai	-0.0835
-4.9821 incessante	-0.0839
-4.9821 incisions	-0.0769
-4.9821 incitait	-0.0748
-4.9821 inclina	-0.0838
-4.9821 inclination	-0.0818
-4.9821 incline	-0.0748
-4.3961 incoercible	-0.0817
-4.1554 incohérents	-0.2579
-4.9821 incomptable	-0.0639
-4.9821 inconnu	-0.0639
-4.9821 inconstante	-0.0828
-4.9821 inconvénient	-0.0775
-4.9821 incorporation	-0.0726
-4.9821 incorrecte	-0.0841
-4.9821 incroyable	-0.0639
-4.9821 incroyables	-0.0639
-4.3961 inculquer	-0.0703
-4.9821 incurable	-0.0815
-4.9821 indes	-0.0820
-4.9821 indication	-0.0818
-4.9821 indiffèrent	-0.0839
-4.9821 indifférence	-0.0748
-4.9821 indifférent	-0.0775
-4.9821 indifférente	-0.0805
-4.9821 indifférents	-0.0841
-4.9821 indigence	-0.0731
-4.3961 indignation	-0.0730
-4.9821 indigné	-0.0639
-4.9821 indigènes	-0.0841
-4.9821 indiquait	-0.0726
-4.9821 indique	-0.0817
-4.3961 indiquer	-0.0783
-4.9821 indiquée	-0.0769
-4.9821 indirect	-0.0831
-4.9821 indirectes	-0.0841
-4.9821 indispensable	-0.0832
-4.9821 indisposé	-0.0820
-4.9821 individu	-0.0824
-4.9821 indulgence	-0.0791
-4.0014 industrie	-0.0726
-4.3961 infanterie	-0.3851
-4.1554 infernal	-0.0728
-4.3961 infidèle	-0.0570
-4.9821 infinie	-0.0639
-3.8880 infiniment	-0.0803
-4.9821 infligeât	-0.0727
-4.9821 influencer	-0.0773
-4.1554 informa	-0.0547
-4.9821 informai	-0.0786
-4.9821 informaient	-0.0639
-4.1554 informer	-0.2382
-4.3961 informé	-0.0773
-4.9821 informées	-0.0794
-4.9821 infortune	-0.0813
-4.1554 infortuné	-0.0837
-4.9821 infâme	-0.0727
-4.3961 inférieur	-0.0707
-4.9821 ingénieur	-0.0841
-4.1554 ingénieuse	-0.0730
-4.1554 ingénieux	-0.0730
-4.9821 ingéniosité	-0.0810
-4.9821 ingénue	-0.0820
-4.9821 ingénus	-0.0805
-4.9821 inhabituelle	-0.0841
-4.3961 innocent	-0.3785
-4.9821 innocente	-0.0841
-3.8880 innombrables	-0.0683
-4.9821 inoccupé	-0.0840
-4.9821 inoffensif	-0.0836
-4.9821 inonda	-0.0841
-4.9821 inondé	-0.0639
-4.9821 inopinément	-0.0801
-4.3961 inouïe	-0.0636
-4.1554 inquiet	-0.0400
-4.9821 inquiète	-0.0727
-4.3961 inquiétant	-0.0775
-4.9821 inquiétantes	-0.0817
-4.3961 inquiéter	-0.3650
-4.9821 inquiétude	-0.0841
-4.9821 inquiétudes	-0.0817
-4.3961 insalubre	-0.0707
-4.9821 insane	-0.0841
-4.9821 insanité	-0.0841
-4.9821 insensible	-0.0748
-4.9821 insensibles	-0.0841
-4.3961 insistai	-0.0727
-4.9821 insistais	-0.0774
-4.9821 insolence	-0.0841
-4.9821 insolente	-0.0819
-4.9821 insolite	-0.0808
-3.7981 inspecteur	-0.0587
-4.9821 inspection	-0.0841
-4.9821 inspiré	-0.0841
-4.9821 installa	-0.0801
-4.3961 installait	-0.0753
-4.9821 installation	-0.0839
-4.9821 installent	-0.0841
-4.3961 installer	-0.0800
-4.9821 installèrent	-0.0841
-4.9821 installé	-0.0731
-4.9821 installés	-0.0821
-3.7981 instant	-0.0603
-4.3961 instants	-0.0759
-4.9821 instar	-0.0639
-4.9821 instinct	-0.0731
-4.3961 instinctive	-0.0783
-4.3961 institut	-0.0724
-4.3961 institutrice	-0.0758
-4.9821 instruction	-0.0786
-4.9821 instruite	-0.0829
-3.7237 instrument	-0.0375
-4.9821 instruments	-0.0639
-4.9821 insuffisant	-0.0818
-4.9821 insulaire	-0.0791
-4.9821 insultait	-0.0794
-4.9821 inséparables	-0.0839
-4.9821 inséré	-0.0731
-4.9821 intelligence	-0.0794
-4.9821 intelligent	-0.0841
-4.9821 intention	-0.0639
-4.3961 interdit	-0.0630
-4.9821 interloqué	-0.0841
-4.9821 interloqués	-0.0786
-4.3961 interminable	-0.0840
-4.9821 interminables	-0.0841
-4.9821 intermède	-0.0813
-4.9821 international	-0.0841
-4.9821 interposez	-0.0838
-4.3961 interrogateur	-0.0774
-4.9821 interroge	-0.0821
-4.3961 interrogea	-0.0789
-4.9821 interrogeai	-0.0804
-4.9821 interrogeait	-0.0841
-4.9821 interroger	-0.0726
-4.9821 interrompait	-0.0639
-4.3961 interrompit	-0.0725
-4.9821 interrompre	-0.0839
-4.9821 interromps	-0.0821
-4.9821 interrompus	-0.0840
-4.9821 intervalles	-0.0841
-4.9821 intervient	-0.0731
-4.9821 intimes	-0.0817
-4.9821 intriguait	-0.0835
-4.9821 introduire	-0.0801
-4.9821 introduisait	-0.0801
-4.1554 introduisit	-0.2562
-4.9821 introduit	-0.0801
-4.9821 intrépide	-0.0840
-4.9821 intéressa	-0.0841
-4.9821 intéressait	-0.0773
-4.9821 intéressant	-0.0775
-4.9821 intéressante	-0.0817
-4.9821 intéresse	-0.0731
-4.9821 intéresser	-0.0818
-4.9821 intéressée	-0.0840
-4.0014 intérieur	-0.0636
-4.3961 intérieurs	-0.0821
-3.7981 intérêt	-0.0662
-4.3961 intérêts	-0.0587
-4.0014 inutile	-0.6660
-4.9821 inutilité	-0.0841
-4.9821 inventer	-0.0774
-4.9821 inventif	-0.0808
-3.4715 invention	-0.1267
-4.3961 inventions	-0.0602
-4.0014 inventé	-0.0589
-4.9821 invincible	-0.0815
-4.3961 invita	-0.0748
-4.9821 invitai	-0.0841
-4.9821 invitation	-0.0748
-4.9821 invitations	-0.0832
-4.0014 invité	-0.1957
-4.3961 invités	-0.0745
-4.9821 invraisemblable	-0.0727
-4.9821 inégaux	-0.0817
-4.9821 inéluctable	-0.0808
-4.9821 ira	-0.0769
-4.9821 irais	-0.0727
-4.9821 irait	-0.0818
-4.9821 iras	-0.0818
-4.9821 irlandais	-0.0841
-4.9821 ironie	-0.0815
-4.9821 ironique	-0.0837
-4.9821 ironiquement	-0.0839
-4.9821 irons	-0.0794
-4.9821 irrémédiables	-0.0816
-4.9821 irréparable	-0.0820
-4.9821 irréprochablement	-0.0840
-4.3961 irrésistible	-0.0788
-4.9821 irrésistiblement	-0.0775
-4.9821 isdahl	-0.0726
-4.9821 israélite	-0.0775
-4.3961 it	-0.3825
-4.9821 iv	-0.0837
-4.3961 ivoire	-0.0786
-4.9821 ivre	-0.0839
-4.9821 ivres	-0.0841
-2.2469 j	-0.5429
-4.9821 jadis	-0.0823
-4.1554 jalousie	-0.0734
-4.9821 jalousies	-0.0841
-4.1554 jaloux	-0.0560
-2.6918 jamais	-0.0434
-4.3961 jambe	-0.0840
-4.1554 jambes	-0.0664
-4.9821 jambonneaux	-0.0835
-4.1554 janvier	-0.0793
-3.8880 japonais	-0.0527
-4.9821 japonaises	-0.0840
-4.3961 jaquette	-0.0840
-3.6602 jardin	-0.1079
-4.3961 jardinier	-0.0801
-4.9821 jargons	-0.0836
-4.9821 jarretières	-0.0841
-4.9821 jatte	-0.0839
-4.9821 jatte_	-0.0841
-4.0014 jaune	-0.0782
-4.9821 jaunes	-0.0840
-4.9821 jauni	-0.0815
-4.9821 jaunissent	-0.0815
-4.3961 java	-0.0686
-1.8203 je	-0.3933
-3.7981 jeta	-0.2526
-4.9821 jetai	-0.0754
-4.9821 jetait	-0.0639
-4.9821 jeter	-0.0748
-4.9821 jette	-0.0801
-4.9821 jettent	-0.0801
-4.9821 jettes	-0.0773
-4.9821 jeté	-0.0817
-4.3961 jetée	-0.0542
-3.7981 jeu	-0.1326
-3.7237 jeudi	-0.1223
-4.9821 jeun	-0.0731
-2.5658 jeune	-0.5227
-3.2629 jeunes	-0.4074
-4.3961 jeunesse	-0.0692
-4.3961 joe	-0.0686
-4.3961 johanson	-0.0689
-3.6602 joie	-0.0397
-4.9821 joies	-0.0841
-4.9821 joignait	-0.0769
-3.1971 joli	-0.2437
-2.9660 jolie	-0.1849
-4.3961 jolies	-0.0838
-4.0014 joliment	-0.0666
-3.7981 jolis	-0.0723
-4.9821 jonchait	-0.0726
-4.9821 jonchant	-0.0726
-4.9821 jonchèrent	-0.0840
-4.9821 joris	-0.0841
-4.9821 josse	-0.0837
-4.3961 jouait	-0.0798
-3.7981 jouard	-0.0594
-4.9821 joue	-0.0830
-4.3961 jouer	-0.0685
-4.0014 joues	-0.0837
-4.9821 jouet	-0.0639
-4.9821 jouir	-0.0821
-4.9821 jouit	-0.0801
-4.9821 joujou	-0.0731
-4.3961 joujoux	-0.0524
-2.7605 jour	-0.2167
-4.9821 journalistes	-0.0639
-4.9821 journaux	-0.0639
-3.3130 journée	-0.1018
-4.9821 journées	-0.0805
-3.0303 jours	-0.2939
-4.9821 jouvence	-0.0775
-4.3961 joué	-0.0725
-4.1554 joyeuse	-0.0712
-3.8880 joyeux	-0.0836
-4.9821 judicieuse	-0.0786
-4.9821 judicieusement	-0.0821
-4.9821 juge	-0.0639
-4.9821 jugeait	-0.0816
-4.9821 jugement	-0.0639
-3.7981 juillet	-0.1349
-4.9821 jules	-0.0841
-4.3961 julius	-0.3850
-3.4010 jumet	-0.1884
-4.3961 jumièges	-0.0807
-4.9821 jungle	-0.0769
-4.9821 jupon	-0.0835
-4.1554 jura	-0.2376
-4.1554 jure	-0.0761
-4.9821 jurer	-0.0837
-3.7981 jury	-0.1458
-4.1554 juré	-0.0459
-4.9821 jurés	-0.0639
-3.4010 jusqu	-0.7407
-4.0014 jusque	-0.3806
-3.8880 juste	-0.1593
-3.5557 justement	-0.1467
-4.0014 k	-0.0770
-4.9821 kilos	-0.0754
-4.9821 kiosques	-0.0748
-4.9821 képi	-0.0820
-1.7811 l	-0.3180
-1.5843 la	-0.3508
-4.1554 laboratoire	-0.0705
-4.9821 lacédémonienne	-0.0819
-4.9821 ladite	-0.0839
-4.9821 laffitte	-0.0731
-3.1772 laflemme	-0.0155
-4.3961 lah	-0.0699
-4.9821 laid	-0.0731
-4.9821 laine	-0.0841
-4.9821 laissa	-0.0841
-4.1554 laissait	-0.0793
-4.9821 laissant	-0.0748
-4.3961 laisse	-0.0740
-3.8880 laisser	-0.0826
-4.1554 laissez	-0.2591
-4.9821 laissé	-0.0821
-4.3961 lait	-0.0754
-4.9821 lampe	-0.0821
-4.3961 lampes	-0.0737
-3.6602 lampiste	-0.1099
-4.1554 lance	-0.0655
-4.9821 lancé	-0.0727
-4.9821 lande	-0.0841
-4.3961 langage	-0.0841
-4.1554 langue	-0.0754
-4.9821 lanterne	-0.0731
-4.9821 lança	-0.0826
-4.3961 lapin	-0.3741
-4.9821 lapins	-0.0639
-4.9821 laps	-0.0841
-3.5557 laquelle	-0.1633
-4.0014 large	-0.0555
-4.3961 larges	-0.3851
-4.9821 largeurs	-0.0775
-4.3961 larme	-0.0748
-3.8880 larmes	-0.0554
-4.9821 las	-0.0794
-4.3961 lascars	-0.0838
-4.9821 lassait	-0.0794
-4.9821 lasserait	-0.0832
-3.6602 latin	-0.0674
-4.9821 latins	-0.0820
-4.9821 laughs	-0.0841
-4.3961 lauréats	-0.0819
-4.9821 lautars	-0.0727
-4.9821 lavement	-0.0841
-4.9821 lavements	-0.0837
-4.3961 laï	-0.3851
-1.5838 le	-0.3568
-3.6048 lecoq	-1.0382
-4.3961 lecteur	-0.0818
-4.3961 lecteurs	-0.0639
-4.9821 lectrices	-0.0841
-4.9821 lecture	-0.0808
-4.9821 leicester	-0.0841
-3.4715 lemballeur	-0.1010
-3.1582 lendemain	-0.1177
-4.0014 lentement	-0.0693
-3.7981 lequel	-0.0671
-1.8094 les	-0.2514
-4.9821 lesquelles	-0.0841
-3.6602 lettre	-0.0333
-4.0014 lettres	-0.1919
-2.8699 leur	-0.0922
-3.1971 leurs	-0.1038
-4.3961 leva	-0.0613
-4.1554 levai	-0.2509
-4.3961 levait	-0.0821
-4.9821 levallois	-0.0727
-4.0014 lever	-0.0611
-4.9821 levé	-0.0731
-4.9821 levée	-0.0769
-4.9821 levés	-0.0839
-4.0014 leçon	-0.0690
-4.3961 leçons	-0.0708
-4.9821 lia	-0.0773
-4.9821 libellerait	-0.0726
-4.9821 libellé	-0.0773
-4.9821 libellée	-0.0841
-4.9821 libre	-0.0841
-4.9821 libéral	-0.0835
-4.3961 lient	-0.0770
-4.9821 lier	-0.0840
-3.7237 lieu	-0.4302
-4.9821 life	-0.0837
-4.9821 life_	-0.0836
-4.0014 ligne	-0.0700
-4.3961 lily	-0.0727
-4.9821 limace	-0.0839
-4.9821 limite	-0.0639
-4.9821 limonadier	-0.0823
-4.9821 lin	-0.0839
-4.9821 linceul	-0.0786
-4.9821 linge	-0.0639
-4.9821 lions	-0.0639
-4.1554 liquide	-0.0840
-3.8880 lire	-0.0421
-3.8880 lis	-0.2882
-4.9821 lisait	-0.0769
-4.9821 lisser	-0.0786
-3.7981 lister	-0.1399
-3.7237 lit	-0.0413
-4.1554 littéralement	-0.0834
-4.9821 littérature	-0.0838
-4.9821 livide	-0.0639
-4.9821 livides	-0.0841
-4.9821 livraient	-0.0727
-4.9821 livrasse	-0.0769
-4.1554 livre	-0.0637
-4.3961 livrer	-0.0631
-4.3961 livres	-0.0524
-4.3961 livret	-0.0840
-4.9821 lié	-0.0841
-4.9821 liées	-0.0815
-4.9821 local	-0.0786
-4.3961 localité	-0.0808
-4.9821 locomotive	-0.0835
-4.9821 logeait	-0.0840
-4.3961 logement	-0.0730
-4.9821 logette	-0.0833
-4.3961 logique	-0.0775
-4.9821 logiques	-0.0841
-4.0014 logis	-0.0684
-4.9821 logé	-0.0838
-4.3961 loi	-0.0723
-3.6602 loin	-0.2450
-4.9821 lointain	-0.0841
-4.9821 lointaine	-0.0841
-4.9821 lois	-0.0786
-4.9821 london	-0.0815
-4.1554 londres	-0.0696
-4.9821 londrès	-0.0821
-3.6602 long	-0.1054
-4.3961 longs	-0.0841
-3.3404 longtemps	-0.1204
-3.6602 longue	-0.0515
-4.0014 longuement	-0.1859
-4.3961 longues	-0.0841
-4.1554 longueur	-0.2569
-4.9821 lorgnette	-0.0841
-4.3961 lors	-0.0715
-4.1554 lorsqu	-0.0750
-4.9821 lorsque	-0.0775
-4.9821 lotie	-0.0639
-4.9821 lotion	-0.0731
-4.9821 louer	-0.0801
-4.9821 loufoque	-0.0840
-4.9821 loufoques	-0.0786
-3.3404 louis	-0.1168
-4.9821 loup	-0.0639
-4.9821 loupe	-0.0817
-4.1554 lourde	-0.0706
-4.3961 loué	-0.0701
-4.9821 loyalement	-0.0840
-4.9821 loyer	-0.0748
-4.3961 lucius	-0.3851
-4.9821 ludovic	-0.0839
-4.3961 lueur	-0.0639
-4.9821 lugubre	-0.0773
-4.9821 lugubres	-0.0731
-2.3380 lui	-0.0753
-4.3961 luire	-0.0707
-4.9821 luisaient	-0.0791
-4.9821 luisait	-0.0727
-4.3961 luisant	-0.0524
-4.3961 lumière	-0.0782
-4.9821 lunaires	-0.0731
-4.9821 lundi	-0.0839
-4.9821 lune	-0.0841
-4.1554 lunerie	-0.0717
-4.9821 luxembourg	-0.0726
-4.9821 luxueuses	-0.0841
-4.9821 lycée	-0.0838
-2.6004 là	-0.1131
-4.3961 lâche	-0.0725
-4.9821 lâcherais	-0.0821
-4.9821 lèvre	-0.0841
-4.9821 lèvres	-0.0639
-4.9821 lécher	-0.0773
-4.9821 légende	-0.0808
-4.9821 légendes	-0.0841
-4.9821 légers	-0.0808
-4.9821 légitime	-0.0841
-4.1554 légèrement	-0.0639
-4.9821 lévy	-0.0841
-2.3671 m	-0.2164
-2.6325 ma	-0.2820
-4.9821 maboul	-0.0839
-4.0014 mabrize	-0.0768
-4.9821 machiavélisme	-0.0841
-4.9821 machinal	-0.0840
-4.1554 machines	-0.0709
-4.9821 macère	-0.0831
-3.4715 madame	-0.1965
-4.9821 madone	-0.0731
-4.3961 madrigal	-0.0835
-3.4715 magasin	-0.0249
-4.9821 magasins	-0.0834
-4.9821 magistral	-0.0821
-4.9821 magistrature	-0.0791
-4.9821 mahrnoud_	-0.0841
-4.9821 maigres	-0.0841
-4.9821 maigri	-0.0786
-4.9821 maigriot	-0.0841
-3.1225 main	-0.0738
-3.5557 mains	-0.0948
-3.4348 maintenant	-0.0477
-4.9821 maintient	-0.0821
-4.1554 maintint	-0.0801
-4.1554 maire	-0.0690
-4.3961 mairie	-0.0697
-2.2608 mais	-0.1377
-3.2398 maison	-0.0758
-3.7981 maisons	-0.0541
-4.3961 majesté	-0.0809
-3.6602 major	-0.0652
-4.9821 majorité	-0.0819
-3.1057 mal	-0.1074
-3.5115 malade	-0.2564
-4.3961 malades	-0.0657
-3.7981 maladie	-0.0639
-4.9821 maladies	-0.0731
-4.9821 maladroit	-0.0817
-4.9821 malentendu	-0.0840
-4.9821 malentendus	-0.0841
-3.8880 malfaiteur	-0.0747
-3.6048 malgré	-0.1681
-3.8880 malheur	-0.0594
-4.9821 malheureuse	-0.0836
-3.8880 malheureusement	-0.0562
-3.7981 malheureux	-0.0644
-4.0014 malin	-0.3684
-4.9821 malins	-0.0841
-4.9821 malles	-0.0841
-4.9821 malpropre	-0.0786
-4.9821 malpropres	-0.0836
-4.9821 malséant	-0.0731
-4.9821 malveillant	-0.0841
-3.7237 mam	-0.9291
-3.5557 maman	-0.1122
-4.1554 manche	-0.2514
-4.9821 manches	-0.0731
-4.9821 manchettes	-0.0841
-4.9821 mandat	-0.0786
-4.9821 mande	-0.0748
-4.9821 mandoline	-0.0841
-4.3961 mangea	-0.0833
-4.3961 mangeant	-0.0700
-4.9821 mangent	-0.0748
-4.3961 manger	-0.0683
-4.9821 mangé	-0.0726
-4.1554 maniaque	-0.0774
-4.1554 manie	-0.0789
-4.1554 manifesta	-0.0665
-4.9821 manifestant	-0.0639
-4.3961 manifestation	-0.0581
-4.9821 manifeste	-0.0840
-4.9821 manifester	-0.0639
-4.9821 manitou	-0.0731
-4.9821 manivelle	-0.0821
-3.7981 manière	-0.5411
-4.9821 manières	-0.0841
-4.9821 manqua	-0.0731
-4.9821 manquai	-0.0794
-4.9821 manquait	-0.0786
-3.8880 manque	-0.1504
-4.9821 manquent	-0.0840
-4.9821 manqué	-0.0726
-4.9821 mansarde	-0.0726
-4.9821 mansuétude	-0.0808
-4.9821 manteaux	-0.0841
-4.0014 manège	-0.0765
-4.9821 marbre	-0.0841
-4.3961 marbres	-0.0731
-4.1554 marcha	-0.0817
-4.9821 marchaient	-0.0820
-4.9821 marchait	-0.0821
-4.0014 marchand	-0.6660
-4.9821 marchandise	-0.0821
-4.9821 marchands	-0.0639
-4.9821 marchant	-0.0840
-4.9821 marche	-0.0639
-3.6048 marché	-0.0341
-4.3961 mardi	-0.0815
-4.9821 margarita	-0.0813
-3.5115 marguerite	-0.0566
-3.4715 mari	-0.0536
-3.8880 mariage	-0.0702
-3.3696 marie	-0.0597
-4.9821 marierait	-0.0639
-4.3961 marin	-0.0706
-4.3961 marié	-0.0790
-4.3961 mariée	-0.0754
-4.9821 mariées	-0.0791
-4.9821 mariés	-0.0838
-4.9821 marmotte	-0.0841
-4.9821 marne	-0.0731
-4.9821 marquait	-0.0841
-4.3961 marque	-0.0726
-4.9821 marquis	-0.0639
-4.3961 marseillais	-0.0730
-4.9821 maréchal	-0.0794
-4.1554 marée	-0.2568
-4.3961 marées	-0.0803
-4.3961 masque	-0.0569
-4.9821 masqué	-0.0731
-4.9821 masquée	-0.0731
-4.9821 masqués	-0.0821
-4.3961 massif	-0.0705
-4.9821 massifs	-0.0639
-4.9821 mastic	-0.0821
-4.9821 mastroquets	-0.0841
-4.9821 maternels	-0.0819
-4.9821 mathias	-0.0841
-3.2398 matin	-0.1342
-4.9821 matineux	-0.0841
-4.3961 matinée	-0.0542
-4.9821 matière	-0.0639
-4.9821 matières	-0.0841
-4.9821 maubeuge	-0.0754
-4.9821 maure	-0.0840
-4.9821 maurice	-0.0839
-4.9821 maussade	-0.0731
-3.8880 mauvais	-0.3046
-3.8880 mauvaise	-0.1803
-4.9821 maux	-0.0805
-4.9821 mayer	-0.0841
-4.9821 mazas	-0.0791
-3.8880 maître	-0.1764
-4.9821 maîtres	-0.0841
-3.6602 maîtresse	-0.0287
-2.2357 me	-0.1978
-4.9821 mechant	-0.0830
-4.9821 medecin	-0.0841
-4.9821 meeting	-0.0639
-4.1554 meilleur	-0.0780
-4.1554 meilleures	-0.0839
-3.8880 meilleurs	-0.0830
-4.9821 membre	-0.0639
-4.3961 membres	-0.0627
-4.9821 menaces	-0.0773
-4.9821 menait	-0.0818
-4.9821 mener	-0.0841
-4.9821 menons	-0.0731
-4.9821 mentais	-0.0794
-4.9821 mention	-0.0841
-4.9821 menton	-0.0754
-4.3961 menu	-0.0661
-4.9821 menus	-0.0841
-3.4715 mer	-0.0085
-4.9821 mercerie	-0.0748
-4.9821 mercier	-0.0841
-4.3961 mercredi	-0.0703
-4.9821 mergitur_	-0.0826
-4.9821 mermeix	-0.0834
-3.7237 merrycalf	-0.1348
-4.3961 merveille	-0.0612
-4.9821 merveilles	-0.0639
-4.9821 merveilleuses	-0.0841
-2.8604 mes	-0.1312
-4.3961 mesdames	-0.0730
-4.9821 mesdemoiselles	-0.0841
-4.9821 messeigneurs	-0.0839
-3.8880 messieurs	-0.0617
-4.9821 mesurait	-0.0794
-4.9821 mesures	-0.0841
-4.3961 met	-0.0697
-4.9821 mets	-0.0839
-4.9821 mettaient	-0.0839
-3.8880 mettait	-0.0636
-4.9821 mettant	-0.0801
-4.9821 mette	-0.0726
-4.0014 mettent	-0.6769
-4.9821 mettez	-0.0808
-4.9821 mettons	-0.0794
-4.9821 mettras	-0.0816
-3.6602 mettre	-0.1799
-4.3961 meubles	-0.0817
-4.9821 meublée	-0.0794
-4.9821 meurs	-0.0817
-4.9821 meurtrier	-0.0731
-4.9821 meurtriers	-0.0841
-4.9821 mexique	-0.0731
-4.3961 meyer	-0.0755
-4.9821 mezzo	-0.0841
-4.9821 mi	-0.0841
-4.1554 michel	-0.0660
-4.9821 microscopes	-0.0817
-4.9821 microscopique	-0.0774
-3.6048 midi	-0.0145
-3.8880 mie	-0.4593
-4.1554 mien	-0.0826
-4.0014 mienne	-0.1996
-3.2872 mieux	-0.0805
-4.9821 mignonne	-0.0820
-4.9821 mijotait	-0.0821
-4.0014 milieu	-0.0543
-3.7981 militaire	-0.0788
-4.3961 militaires	-0.0635
-3.3404 mille	-0.4417
-4.1554 milliards	-0.2342
-4.9821 milligramme	-0.0726
-4.9821 milligrammes	-0.0786
-4.9821 minable	-0.0841
-4.9821 mine	-0.0840
-4.9821 ministère	-0.0775
-4.3961 minuit	-0.0813
-4.3961 minuscule	-0.0816
-4.3961 minuscules	-0.0718
-3.7237 minute	-0.1903
-3.8880 minutes	-0.0603
-4.9821 minéral	-0.0831
-4.9821 miraculeuses	-0.0794
-4.3961 mirent	-0.3759
-3.5557 mis	-0.0875
-3.2398 miss	-0.3048
-4.0014 mission	-0.0644
-4.9821 misérables	-0.0838
-3.4715 mit	-0.0726
-4.9821 miteux	-0.0839
-4.9821 mitrailler	-0.0833
-3.7237 mitrailleuse	-0.1388
-4.9821 mlle	-0.0841
-4.3961 mm	-0.3851
-3.4715 mme	-0.6859
-4.9821 mobile	-0.0837
-4.9821 mobilier	-0.0841
-4.9821 mode	-0.0639
-4.3961 modeler	-0.3805
-4.9821 modelée	-0.0820
-4.3961 moderne	-0.0703
-4.9821 modernes	-0.0726
-4.0014 modeste	-0.0632
-4.9821 modestes	-0.0835
-4.9821 modifie	-0.0773
-4.9821 modiste	-0.0639
-4.0014 modèle	-0.0469
-2.6380 moi	-0.1221
-3.7237 moindre	-0.0829
-3.1772 moins	-0.1322
-4.9821 moirer	-0.0726
-3.5557 mois	-0.1550
-4.9821 moisi	-0.0731
-4.9821 moisira	-0.0794
-2.9206 moment	-0.2509
-2.2469 mon	-0.3426
-4.9821 monarque	-0.0810
-4.9821 monarques	-0.0841
-4.9821 mondanité	-0.0802
-3.0895 monde	-0.1824
-4.1554 monnaie	-0.0710
-4.3961 monnaies	-0.3851
-4.9821 monocotylédones	-0.0791
-4.9821 monologuait	-0.0839
-4.3961 monologue	-0.3827
-4.3961 monotone	-0.0700
-4.9821 monseigneur	-0.0726
-2.7994 monsieur	-0.1220
-4.9821 monstrueux	-0.0841
-4.3961 monta	-0.0542
-4.9821 montai	-0.0748
-4.1554 montcocasse	-0.0780
-4.1554 monte	-0.2529
-3.7237 monter	-0.2258
-3.6602 montmartre	-0.0579
-4.9821 montrai	-0.0727
-4.9821 montraient	-0.0726
-4.9821 montrais	-0.0816
-4.9821 montrait	-0.0840
-4.9821 montrant	-0.0726
-3.6048 montre	-0.0702
-4.9821 montrent	-0.0833
-4.3961 montrer	-0.0717
-4.9821 montrerai	-0.0754
-4.3961 monté	-0.0786
-4.9821 moonman	-0.0841
-4.1554 moral	-0.0831
-3.8880 morceau	-0.2742
-4.3961 morceaux	-0.0772
-4.9821 mord	-0.0837
