#############################################################################
## Copyright (c) 1996, Carnegie Mellon University, Cambridge University,
## Ronald Rosenfeld and Philip Clarkson
#############################################################################
=============================================================================
===============  This file was produced by the CMU-Cambridge  ===============
===============     Statistical Language Modeling Toolkit     ===============
=============================================================================
This is a 3-gram language model, based on a vocabulary of 6942 words,
  which begins "1", "12", "14"...
This is an OPEN-vocabulary model (type 1)
  (OOVs were mapped to UNK, which is treated as any other vocabulary word)
Good-Turing discounting was applied.
1-gram frequency of frequency : 4181 
2-gram frequency of frequency : 21384 2285 716 332 195 128 90 
3-gram frequency of frequency : 33493 1293 256 72 45 36 15 
1-gram discounting ratios : 1.00 
2-gram discounting ratios : 0.20 0.46 0.61 0.73 0.78 0.82 0.64 
3-gram discounting ratios : 0.08 0.30 0.37 0.78 0.96 0.49 0.61 
This file is in the ARPA-standard format introduced by Doug Paul.

p(wd3|wd1,wd2)= if(trigram exists)           p_3(wd1,wd2,wd3)
                else if(bigram w1,w2 exists) bo_wt_2(w1,w2)*p(wd3|wd2)
                else                         p(wd3|w2)

p(wd2|wd1)= if(bigram exists) p_2(wd1,wd2)
            else              bo_wt_1(wd1)*p_1(wd2)

All probs and back-off weights (bo_wt) are given in log10 form.

Data formats:

Beginning of data mark: \data\
ngram 1=nr            # number of 1-grams
ngram 2=nr            # number of 2-grams
ngram 3=nr            # number of 3-grams

\1-grams:
p_1     wd_1 bo_wt_1
\2-grams:
p_2     wd_1 wd_2 bo_wt_2
\3-grams:
p_3     wd_1 wd_2 wd_3 

end of data mark: \end\

\data\
ngram 1=6943
ngram 2=25494
ngram 3=35247

\1-grams:
-4.5815 <UNK>	0.0000
-4.2801 1	-0.0767
-4.5815 12	-0.0945
-3.9791 14	-0.3077
-4.5815 145	-0.0783
-4.5815 15	-0.0944
-4.5815 1826	-0.0901
-4.5815 187	-0.0954
-4.2801 1878	-0.0875
-4.5815 188	-0.0859
-4.5815 1886	-0.0879
-3.9791 1889	-0.0813
-4.5815 1er	-0.0960
-4.5815 1º	-0.0902
-4.2801 2	-0.0905
-4.5815 20	-0.0944
-4.5815 2e	-0.0960
-4.5815 2º	-0.0884
-3.9791 3	-0.0709
-4.2801 31	-0.2673
-4.5815 37th	-0.0960
-4.5815 3e	-0.0932
-4.2801 4	-0.0953
-4.5815 5	-0.0960
-4.5815 59	-0.0958
-3.8822 6	-0.0923
-4.5815 7	-0.0960
-4.1040 8	-0.0959
-4.2801 80	-0.0843
-4.1040 81	-0.0906
-4.5815 86	-0.0901
-4.5815 9	-0.0960
-4.5815 90	-0.0960
-3.0371 _	-0.1024
-4.5815 _0	-0.0931
-4.5815 _albert	-0.0960
-4.2801 _alma	-0.2674
-4.5815 _amour	-0.0916
-4.5815 _black_	-0.0960
-4.5815 _buvons	-0.0859
-4.5815 _by	-0.0960
-4.5815 _c	-0.0926
-4.5815 _chemist	-0.0960
-4.5815 _chemist_	-0.0925
-4.1040 _comfortable_	-0.4097
-4.5815 _conscius	-0.0960
-4.5815 _deuils	-0.0960
-4.5815 _do	-0.0960
-4.5815 _donna	-0.0960
-4.5815 _défense	-0.0960
-4.5815 _english	-0.0960
-4.5815 _espoir	-0.0783
-4.5815 _et	-0.0947
-4.5815 _exclusively	-0.0960
-4.5815 _fluctuat	-0.0960
-4.5815 _good	-0.0960
-4.5815 _hold	-0.0960
-4.5815 _if	-0.0960
-4.5815 _l	-0.0960
-4.2801 _la	-0.0958
-4.5815 _mai	-0.0960
-4.5815 _mistress_	-0.0960
-4.5815 _my	-0.0960
-4.5815 _of	-0.0960
-4.5815 _on	-0.0936
-4.5815 _open	-0.0960
-4.5815 _or	-0.0956
-4.5815 _ou	-0.0860
-4.5815 _parfume	-0.0859
-4.5815 _quantum	-0.0960
-4.5815 _raram	-0.0960
-4.5815 _struggles	-0.0960
-4.5815 _surgeon	-0.0960
-4.5815 _that	-0.0960
-4.2801 _the	-0.0960
-4.5815 _truc	-0.0960
-4.5815 _we	-0.0960
-4.5815 _y	-0.0960
-4.5815 _yes	-0.0960
-2.3690 a	-0.2327
-4.5815 abandon	-0.0783
-4.5815 abandonnait	-0.0939
-4.5815 abandonnent	-0.0958
-4.5815 abandonner	-0.0884
-4.5815 abattaient	-0.0960
-4.5815 abattirent	-0.0943
-4.5815 abattit	-0.0960
-4.5815 abattoirs	-0.0783
-4.5815 abattu	-0.0947
-4.2801 abbé	-0.2573
-3.5812 abord	-0.1107
-4.5815 abraham	-0.0960
-4.5815 abri	-0.0960
-4.5815 abriteraient	-0.0901
-4.5815 abrutir	-0.0859
-4.5815 abrègent	-0.0884
-4.5815 abrégea	-0.0901
-4.1040 absence	-0.0716
-4.5815 absenter	-0.0916
-4.2801 absinthe	-0.2573
-4.1040 absinthes	-0.0912
-4.5815 absolu	-0.0957
-3.9791 absolument	-0.0940
-4.5815 absorbait	-0.0901
-4.5815 absorbèrent	-0.0919
-4.5815 abus	-0.0783
-4.5815 académie	-0.0783
-4.5815 acariâtre	-0.0941
-4.5815 accablent	-0.0860
-4.5815 accent	-0.0783
-4.5815 acceptai	-0.0943
-4.5815 accessoires	-0.0954
-4.2801 accident	-0.0957
-4.5815 acclimatation	-0.0927
-4.5815 accompagnais	-0.0901
-4.2801 accompagnait	-0.0823
-4.2801 accompli	-0.0927
-4.5815 accomplie	-0.0960
-4.1040 accomplir	-0.0937
-4.5815 accomplissaient	-0.0859
-4.2801 accomplissait	-0.0933
-4.5815 accomplit	-0.0960
-4.2801 accord	-0.2656
-4.5815 accords	-0.0879
-4.5815 accorte	-0.0960
-4.5815 accouchait	-0.0783
-4.5815 accouché	-0.0912
-4.5815 accouchée	-0.0860
-4.5815 accoutré	-0.0912
-4.5815 accrocha	-0.0943
-4.2801 accueil	-0.0817
-4.5815 accueilli	-0.0959
-4.5815 accuse	-0.0919
-4.5815 accusé	-0.0958
-4.2801 accès	-0.0908
-4.5815 acharnés	-0.0879
-4.5815 achetait	-0.0945
-3.9791 acheter	-0.0843
-4.5815 acheteuse	-0.0936
-4.5815 acheté	-0.0902
-4.5815 achevèrent	-0.0783
-3.5812 achète	-1.1274
-4.1040 acier	-0.0937
-4.2801 acquiesçai	-0.0761
-4.5815 acquis	-0.0946
-4.2801 acquittée	-0.0924
-4.5815 actes	-0.0783
-4.1040 action	-0.0902
-4.5815 actuelle	-0.0902
-4.5815 actuellement	-0.0960
-4.5815 acétate	-0.0783
-4.2801 ad	-0.2674
-4.5815 adaptation	-0.0960
-4.5815 adapte	-0.0879
-4.5815 adaptent	-0.0879
-4.5815 adhésions	-0.0960
-4.2801 adieu	-0.0863
-4.5815 adieux	-0.0879
-4.5815 adjoindre	-0.0897
-4.5815 adjoint	-0.0942
-4.2801 adjudant	-0.0953
-4.5815 admets	-0.0960
-4.5815 administrai	-0.0902
-4.5815 administrait	-0.0884
-4.5815 administratif	-0.0960
-4.5815 administration	-0.0951
-4.5815 administrations	-0.0783
-4.5815 administrer	-0.0943
-4.5815 administré	-0.0953
-4.5815 administrés	-0.0947
-4.5815 admira	-0.0951
-4.5815 admirable	-0.0960
-4.2801 admirablement	-0.0958
-4.5815 admirai	-0.0957
-4.5815 admiratif	-0.0863
-4.2801 admiration	-0.0939
-4.1040 admirer	-0.0742
-4.5815 admises	-0.0859
-4.5815 adopté	-0.0860
-4.5815 adoptée	-0.0947
-4.5815 adora	-0.0863
-4.2801 adorable	-0.0960
-4.2801 adorablement	-0.0901
-4.5815 adorais	-0.0939
-4.2801 adorait	-0.0892
-4.2801 adore	-0.0896
-4.5815 adorée	-0.0947
-4.5815 adoucir	-0.0960
-4.5815 adressa	-0.0902
-4.5815 adressait	-0.0959
-3.8822 adresse	-0.0801
-4.5815 adresser	-0.0879
-4.5815 adroitement	-0.0960
-4.5815 adulte	-0.0919
-4.5815 adultère	-0.0960
-4.5815 adverse	-0.0959
-4.2801 advint	-0.2672
-4.2801 affabilité	-0.0902
-4.5815 affable	-0.0943
-4.5815 affables	-0.0960
-3.8030 affaire	-0.1936
-4.5815 affaires	-0.0783
-4.5815 affairés	-0.0960
-4.5815 affaissa	-0.0943
-4.5815 affection	-0.0912
-4.5815 affichage	-0.0925
-4.5815 affiches	-0.0783
-4.5815 affirme	-0.0931
-4.5815 affirmer	-0.0938
-4.5815 affleurait	-0.0901
-4.5815 affliction	-0.0960
-4.5815 afflictions	-0.0783
-4.5815 afflige	-0.0945
-4.5815 affliger	-0.0859
-4.5815 affranchie	-0.0948
-4.5815 affranchissement	-0.0943
-4.5815 affriolantes	-0.0960
-4.5815 affronter	-0.0901
-4.5815 affublait	-0.0947
-4.2801 afin	-0.0882
-4.2801 africaine	-0.0911
-4.5815 afrique	-0.0927
-4.5815 aggravait	-0.0897
-4.5815 aggravante	-0.0931
-4.5815 aggravation	-0.0960
-4.5815 agi	-0.0783
-4.5815 agilité	-0.0932
-4.2801 agit	-0.0732
-4.5815 agonie	-0.0959
-4.5815 agréable	-0.0941
-4.5815 agréments	-0.0783
-3.2387 ah	-0.1551
-4.2801 ahuri	-0.0942
-4.5815 ahurie	-0.0960
-4.5815 ahurissement	-0.0956
-2.7486 ai	-0.1679
-4.1040 aide	-0.1796
-4.2801 aidé	-0.0769
-4.5815 aie	-0.0960
-4.5815 aigreur	-0.0943
-3.7361 aiguille	-0.0765
-4.5815 aiguillon	-0.0932
-4.5815 aiguisait	-0.0939
-4.5815 aiguë	-0.0938
-4.5815 ail	-0.0956
-4.2801 aile	-0.0952
-4.2801 ailes	-0.0957
-3.4672 ailleurs	-0.0772
-4.5815 aimable	-0.0933
-3.7361 aimais	-0.0876
-3.7361 aimait	-0.0878
-3.5020 aime	-0.2003
-4.2801 aiment	-0.0845
-4.5815 aimerais	-0.0957
-4.5815 aimeras	-0.0945
-4.5815 aimez	-0.0931
-4.2801 aimé	-0.0955
-3.5812 ainsi	-0.1390
-3.2009 air	-0.1506
-4.1040 airs	-0.0783
-4.1040 aisance	-0.0925
-3.8822 aise	-0.0689
-4.5815 aisées	-0.0927
-4.5815 aisément	-0.0947
-4.2801 ait	-0.0860
-3.8030 ajouta	-0.2077
-4.5815 ajoutai	-0.0960
-4.2801 ajoutait	-0.0856
-4.5815 ajoute	-0.0783
-3.9791 ajouter	-0.3029
-4.5815 ajouterai	-0.0912
-4.5815 ajouté	-0.0925
-4.5815 albe	-0.0960
-4.2801 alcide	-0.2673
-4.5815 alcôve	-0.0860
-4.2801 ale	-0.0897
-4.5815 alentour	-0.0859
-4.2801 algérie	-0.0953
-4.5815 alimentation	-0.0931
-4.5815 alimentée	-0.0947
-4.5815 aliénation	-0.0960
-4.1040 alla	-0.0949
-4.2801 allai	-0.0938
-4.2801 allaient	-0.0953
-3.8822 allais	-0.0935
-3.4350 allait	-0.0618
-3.5812 aller	-0.1141
-3.7361 allez	-0.2515
-4.2801 allocution	-0.0894
-4.5815 allongent	-0.0960
-3.6781 allons	-0.1283
-4.5815 allume	-0.0957
-4.5815 allumer	-0.0860
-4.5815 allumette	-0.0960
-4.5815 allumettes	-0.0960
-4.1040 allumons	-0.3998
-4.5815 allumé	-0.0941
-4.1040 allumée	-0.0736
-4.2801 allure	-0.0760
-4.5815 allures	-0.0960
-4.5815 allègrement	-0.0960
-4.2801 allèrent	-0.0932
-4.5815 allée	-0.0955
-4.5815 allées	-0.0947
-4.5815 allégresse	-0.0783
-4.5815 allés	-0.0940
-4.5815 almées	-0.0951
-2.8330 alors	-0.2003
-4.5815 alpaga	-0.0927
-4.5815 alphonse	-0.0960
-4.5815 alternative	-0.0901
-4.5815 amaigries	-0.0939
-4.5815 amante	-0.0902
-4.2801 amants	-0.0937
-4.5815 amarraient	-0.0912
-4.5815 amas	-0.0960
-3.8030 amateur	-0.0844
-4.5815 ambiant	-0.0937
-4.5815 ambulance	-0.0960
-4.2801 amena	-0.0876
-4.2801 amener	-0.0876
-4.5815 amené	-0.0916
-4.5815 amenée	-0.0916
-4.2801 amenés	-0.0924
-4.5815 amer	-0.0960
-3.0130 ami	-0.1077
-4.5815 amicale	-0.0960
-4.5815 amidon	-0.0863
-3.6269 amie	-0.0721
-3.5812 amis	-0.1136
-4.1040 amitié	-0.0644
-4.5815 amoncellement	-0.0912
-4.5815 amor	-0.0957
-3.3507 amour	-0.1032
-4.2801 amoureuse	-0.0911
-3.6781 amoureux	-0.1377
-4.5815 amours	-0.0957
-4.5815 amplement	-0.0960
-4.5815 amsterdam	-0.0960
-4.2801 amusait	-0.0957
-4.5815 amusant	-0.0942
-4.2801 amusante	-0.0960
-4.2801 amuse	-0.0875
-3.9791 amuser	-0.1650
-4.5815 amusé	-0.0925
-4.5815 amusés	-0.0952
-4.5815 amyot	-0.0937
-4.5815 amère	-0.0960
-3.9791 américain	-0.0907
-3.9791 américaine	-0.0776
-3.9791 américains	-0.1673
-4.1040 amérique	-0.0867
-4.5815 an	-0.0860
-4.5815 analogue	-0.0960
-4.5815 analyse	-0.0959
-4.5815 analyser	-0.0957
-4.2801 anatomie	-0.0892
-3.7361 ancien	-0.0954
-4.1040 ancienne	-0.2024
-4.5815 anciennes	-0.0960
-4.5815 anciens	-0.0960
-4.5815 ancêtres	-0.0863
-4.2801 and	-0.0960
-4.5815 andouille	-0.0860
-4.5815 andouilles	-0.0863
-3.7361 andouilly	-0.0752
-4.5815 anesthesie	-0.0953
-4.1040 anesthésie	-0.0958
-4.5815 angers	-0.0863
-3.4672 anglais	-0.0735
-4.2801 anglaise	-0.0899
-3.8822 anglaises	-0.2423
-4.1040 angleterre	-0.0842
-4.1040 angoisse	-0.0938
-3.5812 angéline	-0.0702
-3.5812 animal	-0.0892
-4.5815 animalier	-0.0960
-3.9791 animaux	-0.1636
-4.5815 animé	-0.0954
-4.5815 anisettes	-0.0912
-4.5815 annonce	-0.0919
-4.5815 annoncèrent	-0.0958
-4.5815 annonça	-0.0960
-4.2801 annonçait	-0.0776
-3.5020 année	-0.1300
-3.8030 années	-0.0733
-4.5815 anodines	-0.0959
-3.3507 ans	-0.0960
-4.2801 antécédents	-0.0947
-4.5815 antédiluviennes	-0.0958
-4.2801 anxieux	-0.0858
-4.5815 apanage	-0.0919
-4.5815 apercevait	-0.0958
-3.9791 apercevoir	-0.0755
-4.5815 aperçu	-0.0860
-4.5815 aperçurent	-0.0953
-4.2801 aperçus	-0.0937
-4.5815 aperçut	-0.0960
-3.7361 aphasie	-0.1301
-4.2801 aplomb	-0.0960
-3.8822 apoplectique	-0.0814
-3.8822 apothicaire	-0.0651
-4.5815 apothicaires	-0.0959
-4.2801 apparaissait	-0.0880
-4.5815 apparaît	-0.0925
-4.2801 apparaître	-0.0819
-3.8822 appareil	-0.0765
-4.5815 apparence	-0.0783
-4.5815 apparente	-0.0945
-4.2801 apparition	-0.0800
-3.6269 appartement	-0.1260
-4.5815 appartenait	-0.0960
-4.5815 appartiendrait	-0.0953
-4.5815 appartiennent	-0.0939
-4.5815 apparut	-0.0939
-4.5815 appela	-0.0960
-4.5815 appelais	-0.0939
-3.5398 appelait	-0.1391
-4.2801 appeler	-0.0947
-4.5815 appelez	-0.0859
-4.5815 appellation	-0.0960
-4.5815 appellations	-0.0960
-3.6269 appelle	-0.1968
-4.1040 appellent	-0.0795
-4.5815 appellerai	-0.0960
-4.2801 application	-0.0924
-4.5815 applications	-0.0783
-4.5815 appliquaient	-0.0960
-4.5815 appliquait	-0.0879
-4.5815 appliquant	-0.0879
-4.5815 appliquer	-0.0916
-4.5815 appliquât	-0.0897
-4.5815 appliquèrent	-0.0879
-4.5815 appliqué	-0.0940
-4.5815 appointements	-0.0897
-3.9791 apporta	-0.0757
-4.1040 apportait	-0.0666
-4.5815 apporte	-0.0879
-4.2801 apporter	-0.0800
-4.5815 apprenait	-0.0947
-4.5815 apprenant	-0.0859
-4.5815 apprend	-0.0879
-4.5815 apprenti	-0.0783
-3.9791 appris	-0.0772
-4.5815 apprit	-0.0931
-4.5815 approbation	-0.0933
-4.2801 approcha	-0.2496
-4.5815 approchait	-0.0958
-4.5815 appréciable	-0.0783
-4.5815 appréciation	-0.0901
-4.5815 apprêtais	-0.0879
-4.5815 apprîmes	-0.0912
-4.5815 appuya	-0.0947
-4.5815 appuyée	-0.0943
-4.5815 appâter	-0.0960
-4.5815 appétissant	-0.0901
-3.9791 appétit	-0.0781
-4.5815 appétits	-0.0960
-2.8999 après	-0.2182
-4.5815 aptitude	-0.0953
-4.5815 aptitudes	-0.0953
-4.5815 apéritif	-0.0879
-4.5815 apéritifs	-0.0863
-3.8822 aquarelle	-0.0629
-4.5815 aquarelliste	-0.0902
-4.5815 aquarellistes	-0.0919
-4.5815 aquarium	-0.0916
-4.5815 arbora	-0.0860
-4.5815 arbore	-0.0884
-4.5815 arbustes	-0.0960
-4.5815 arc	-0.0916
-3.9791 arcades	-0.0719
-4.2801 archéologie	-0.0910
-4.5815 archéologiques	-0.0939
-4.5815 archéologue	-0.0783
-3.7361 archéologues	-0.0765
-4.5815 ardente	-0.0919
-4.5815 ardeurs	-0.0912
-4.2801 ardoise	-0.0894
-4.5815 are	-0.0960
-3.5398 argent	-0.1308
-4.5815 argenteuil	-0.0929
-4.5815 ariette	-0.0916
-4.5815 aristocratique	-0.0912
-4.5815 arme	-0.0912
-3.9791 armure	-0.0843
-4.5815 armuriers	-0.0960
-4.5815 armée	-0.0954
-4.5815 arménienne	-0.0912
-4.2801 arracha	-0.0678
-4.5815 arrache	-0.0859
-4.2801 arracher	-0.0800
-4.5815 arrange	-0.0901
-4.5815 arrangeassent	-0.0939
-4.5815 arranger	-0.0945
-4.5815 arrangez	-0.0931
-4.5815 arrangées	-0.0925
-3.3024 arriva	-0.1095
-3.8822 arrivai	-0.1353
-4.5815 arrivais	-0.0938
-3.5812 arrivait	-0.1080
-4.2801 arrivant	-0.0934
-3.7361 arrive	-0.0664
-4.2801 arriver	-0.0949
-4.2801 arrivèrent	-0.2592
-3.9791 arrivé	-0.2996
-4.1040 arrivée	-0.0832
-4.5815 arrivés	-0.0953
-4.2801 arrière	-0.2672
-4.2801 arrondissement	-0.0929
-4.2801 arrosoirs	-0.0803
-4.2801 arrosé	-0.0809
-4.2801 arrêt	-0.0939
-4.1040 arrêta	-0.0871
-4.5815 arrête	-0.0919
-4.5815 arrêter	-0.0959
-3.8030 art	-0.0599
-4.5815 arthurson	-0.0958
-4.2801 article	-0.0922
-4.5815 articles	-0.0932
-4.5815 articulé	-0.0901
-4.5815 articulée	-0.0901
-4.5815 artifices	-0.0783
-4.5815 artificielles	-0.0919
-3.8030 artillerie	-0.0710
-4.5815 artilleur	-0.0929
-4.2801 artilleurs	-0.0863
-4.5815 artisan	-0.0929
-3.9791 artiste	-0.0887
-3.9791 artistes	-0.0746
-4.2801 artistiques	-0.0814
-4.5815 arts	-0.0884
-4.5815 artère	-0.0912
-4.2801 artères	-0.2496
-3.3507 as	-0.2265
-4.2801 asile	-0.2645
-4.5815 aspasie	-0.0959
-3.9791 aspect	-0.0931
-4.5815 asphyxiés	-0.0902
-4.5815 aspiré	-0.0863
-4.5815 assassinés	-0.0947
-4.5815 asseoir	-0.0958
-4.5815 asseyant	-0.0879
-4.5815 asseyez	-0.0931
-3.1662 assez	-0.1102
-4.5815 assiette	-0.0960
-4.2801 assiettes	-0.0740
-4.5815 assis	-0.0958
-4.2801 assistait	-0.2592
-4.2801 assistants	-0.0959
-3.9791 assister	-0.1630
-4.5815 assisté	-0.0940
-4.5815 association	-0.0912
-4.5815 assommèrent	-0.0952
-4.5815 assurance	-0.0912
-4.5815 assurances	-0.0947
-4.5815 assure	-0.0939
-4.5815 assurer	-0.0860
-4.5815 assureur	-0.0863
-4.5815 assuré	-0.0931
-4.5815 at	-0.0960
-4.1040 atelier	-0.0833
-3.6781 athanase	-0.0908
-4.5815 athlétique	-0.0931
-4.5815 atrophiées	-0.0960
-4.5815 attacha	-0.0902
-4.5815 attache	-0.0951
-4.5815 attachée	-0.0916
-4.5815 attarde	-0.0940
-4.5815 atteints	-0.0947
-4.5815 attelé	-0.0879
-4.5815 attelés	-0.0916
-4.2801 attend	-0.0857
-4.1040 attendait	-0.1840
-4.2801 attendant	-0.0838
-4.2801 attendis	-0.2614
-3.9791 attendre	-0.0725
-4.2801 attendrissement	-0.0937
-4.5815 attendrons	-0.0939
-3.9791 attends	-0.0754
-4.2801 attendu	-0.0888
-4.5815 attentif	-0.0953
-4.5815 attentifs	-0.0943
-3.9791 attention	-0.0794
-4.5815 attentions	-0.0933
-4.5815 attira	-0.0955
-4.2801 attirail	-0.0909
-4.5815 attirante	-0.0783
-4.5815 attiré	-0.0859
-3.6781 attitude	-0.1066
-4.5815 attitudes	-0.0960
-4.5815 attractions	-0.0960
-4.5815 attrait	-0.0912
-4.5815 attraper	-0.0901
-4.5815 attrapés	-0.0860
-4.2801 attribuai	-0.0856
-4.5815 attribuait	-0.0902
-2.3259 au	-0.2237
-4.2801 aube	-0.0942
-4.5815 auberge	-0.0932
-3.8822 aucun	-0.1389
-3.8030 aucune	-0.0957
-4.5815 auguste	-0.0960
-3.8030 aujourd	-0.7370
-4.5815 aunes	-0.0783
-3.9791 auprès	-0.2900
-4.2801 auquel	-0.0939
-4.5815 aura	-0.0956
-3.9791 auraient	-0.0916
-3.8030 aurais	-0.0889
-3.1498 aurait	-0.3935
-4.2801 auras	-0.0952
-4.5815 auriez	-0.0960
-4.5815 auriol	-0.0946
-4.2801 aurore	-0.0818
-4.5815 ausculte	-0.0931
-4.5815 ausculté	-0.0937
-2.9579 aussi	-0.0684
-3.9791 aussitôt	-0.0879
-4.5815 austère	-0.0960
-3.8030 autant	-0.1998
-4.5815 autels	-0.0960
-4.2801 auteur	-0.2496
-3.8030 autour	-0.1722
-3.1188 autre	-0.0825
-4.2801 autrefois	-0.0863
-4.5815 autrement	-0.0959
-3.1040 autres	-0.1042
-4.1040 autruches	-0.0770
-4.2801 auvergnate	-0.0932
-2.7361 aux	-0.1731
-4.5815 auxquelles	-0.0901
-3.3259 avaient	-0.0746
-3.1832 avais	-0.0833
-2.4508 avait	-0.1354
-4.2801 avalé	-0.0824
-4.1040 avance	-0.0926
-4.5815 avancer	-0.0959
-4.5815 avancée	-0.0939
-3.3024 avant	-0.1398
-4.5815 avantage	-0.0932
-4.5815 avantageux	-0.0960
-4.5815 avança	-0.0960
-4.5815 avare	-0.0929
-2.3936 avec	-0.4661
-4.5815 avem_	-0.0884
-4.5815 avenir	-0.0939
-3.6781 aventure	-0.0459
-4.2801 aventures	-0.0783
-4.2801 avenue	-0.2496
-4.5815 averse	-0.0960
-4.5815 averses	-0.0960
-4.5815 aversion	-0.0939
-4.2801 averti	-0.0829
-4.5815 averties	-0.0936
-4.5815 avertir	-0.0943
-4.5815 avertis	-0.0955
-4.5815 aveux	-0.0960
-3.2589 avez	-0.0965
-4.5815 aviez	-0.0956
-4.5815 avions	-0.0953
-4.5815 avisai	-0.0884
-4.2801 avocat	-0.0782
-3.0760 avoir	-0.0567
-3.9791 avons	-0.0894
-4.1040 avouer	-0.0853
-4.5815 avouerai	-0.0902
-4.5815 avoué	-0.0897
-4.5815 avril	-0.0783
-4.5815 axe	-0.0932
-3.8822 axelsen	-0.0887
-3.8030 ayant	-0.0909
-4.2801 ayez	-0.0781
-4.5815 azote	-0.0901
-4.2801 azur	-0.0782
-4.5815 aériennes	-0.0960
-4.1040 aîné	-0.0778
-4.5815 aînée	-0.0919
-4.5815 aïeux	-0.0783
-4.5815 babel	-0.0957
-3.3770 bacchante	-0.1059
-4.2801 badois	-0.0934
-4.2801 bah	-0.0856
-4.2801 baie	-0.0778
-4.5815 bail	-0.0863
-3.8822 bain	-0.1446
-4.5815 baiser	-0.0959
-4.1040 baisers	-0.2015
-3.9791 baisser	-0.1570
-4.5815 baissé	-0.0960
-4.2801 baker	-0.0753
-4.5815 baker_	-0.0897
-3.8030 bal	-0.2205
-4.5815 balancé	-0.0863
-4.5815 balayait	-0.0960
-4.5815 balayeur	-0.0863
-4.1040 balbutia	-0.0897
-4.5815 balcon	-0.0960
-4.5815 baleine	-0.0957
-4.2801 baleines	-0.0928
-3.5398 balizard	-0.0771
-4.5815 ballants	-0.0879
-4.5815 balle	-0.0916
-4.5815 balles	-0.0925
-4.2801 bals	-0.2673
-4.5815 balustrade	-0.0957
-4.5815 bambou	-0.0947
-4.5815 banaloïd	-0.0939
-4.5815 bancal	-0.0960
-4.5815 bancs	-0.0943
-4.2801 bande	-0.2496
-4.5815 bandoulière	-0.0863
-4.5815 bange	-0.0783
-4.5815 banlieue	-0.0902
-4.5815 banque	-0.0897
-4.5815 baptiser	-0.0939
-3.7361 baptiste	-0.0672
-4.5815 baptisé	-0.0957
-4.5815 baptême	-0.0942
-4.2801 baraque	-0.0863
-4.5815 barbarie	-0.0952
-4.5815 bardé	-0.0783
-4.5815 barnum	-0.0938
-3.8822 baronne	-0.0657
-4.5815 barques	-0.0960
-4.5815 barricade	-0.0929
-4.5815 bars	-0.0947
-3.4350 bas	-0.1424
-4.1040 basse	-0.4098
-4.5815 basses	-0.0901
-4.5815 bassin	-0.0783
-4.5815 bassins	-0.0863
-4.5815 bastion	-0.0783
-4.5815 bataillons	-0.0957
-4.2801 bateau	-0.0849
-3.8822 bateaux	-0.0762
-4.5815 batignolles	-0.0931
-4.5815 battaient	-0.0901
-4.1040 baudru	-0.0947
-4.5815 bavant	-0.0912
-4.5815 bavettes	-0.0956
-3.0760 beau	-0.1674
-3.1040 beaucoup	-0.4132
-4.5815 beaumont	-0.0901
-3.5398 beauté	-0.0687
-4.5815 beautés	-0.0783
-4.2801 beaux	-0.0957
-4.1040 bec	-0.0823
-4.2801 bedeau	-0.0885
-4.5815 bel	-0.0960
-3.2387 belle	-0.1369
-3.9791 belles	-0.0959
-4.5815 belligérants	-0.0960
-4.5815 belliqueux	-0.0958
-4.5815 bello	-0.0957
-4.5815 belveau	-0.0960
-3.9791 ben	-0.0894
-4.5815 benoîton	-0.0956
-4.5815 bergen	-0.0960
-4.5815 bergère	-0.0953
-4.5815 berné	-0.0884
-3.4672 bertha	-0.1061
-4.5815 berthe	-0.0931
-4.5815 besogne	-0.0952
-4.5815 besognes	-0.0960
-4.5815 besogneux	-0.0933
-4.2801 besoin	-0.0911
-4.5815 bibliothèques	-0.0960
-4.2801 biche	-0.0814
-4.5815 bidons	-0.0912
-2.3235 bien	-0.0742
-4.5815 bienfaisant	-0.0960
-4.5815 bienfaitrice	-0.0859
-3.5398 bientôt	-0.0822
-4.5815 bienveillant	-0.0956
-4.5815 bigrement	-0.0960
-4.5815 bijou	-0.0932
-4.5815 bijoux	-0.0919
-4.2801 billard	-0.0776
-4.2801 billes	-0.0772
-4.5815 billet	-0.0879
-4.5815 billets	-0.0929
-4.5815 bin	-0.0929
-4.5815 bitters	-0.0941
-4.1040 bizarre	-0.0787
-4.5815 bizarres	-0.0956
-3.5398 black	-0.1013
-4.5815 blafard	-0.0783
-3.6269 blagsmith	-0.0573
-4.5815 blaguaient	-0.0960
-3.8030 blague	-0.0660
-4.2801 blaguer	-0.2656
-3.9791 blagues	-0.1620
-3.6781 blanc	-0.1177
-4.2801 blanche	-0.0931
-4.5815 blanches	-0.0960
-4.5815 blanchir	-0.0902
-4.5815 blanchissent	-0.0916
-4.2801 blancs	-0.0960
-4.5815 blason	-0.0912
-4.2801 blesser	-0.2614
-3.9791 bleu	-0.0730
-4.5815 bleue	-0.0941
-4.2801 bleus	-0.0852
-4.5815 blinde	-0.0939
-4.5815 bloc	-0.0783
-4.2801 blond	-0.0953
-4.2801 blonde	-0.0951
-4.5815 blondes	-0.0919
-4.2801 blonds	-0.0913
-4.5815 blouse	-0.0879
-4.5815 blouses	-0.0960
-4.5815 blême	-0.0956
-4.5815 blêmissait	-0.0956
-4.2801 blêmit	-0.0857
-4.1040 boa	-0.0814
-4.5815 bock	-0.0940
-4.5815 bocks	-0.0916
-4.5815 bohème	-0.0901
-4.1040 boire	-0.0926
-3.8822 bois	-0.0796
-3.3507 boisflambard	-0.0646
-4.5815 boiteux	-0.0957
-4.5815 boivent	-0.0879
-2.9684 bon	-0.1381
-4.5815 bondit	-0.0783
-4.5815 bondés	-0.0912
-4.1040 bonheur	-0.0828
-4.5815 bonheurs	-0.0960
-3.8822 bonhomme	-0.0858
-3.6781 bonjour	-0.1702
-2.9901 bonne	-0.1185
-3.6781 bonnes	-0.1151
-4.5815 bonnets	-0.0783
-3.9791 bons	-0.1732
-4.5815 bonsoir	-0.0939
-4.5815 bonté	-0.0783
-4.5815 bordeaux	-0.0955
-4.5815 bordee	-0.0859
-4.1040 bords	-0.0781
-4.5815 bordé	-0.0943
-4.5815 bordés	-0.0783
-4.5815 borne	-0.0959
-4.5815 bornes	-0.0863
-4.5815 bosse	-0.0940
-4.5815 bossuet	-0.0932
-4.5815 botanique	-0.0879
-4.2801 bottes	-0.0960
-4.5815 botticelli	-0.0884
-4.5815 bottin	-0.0939
-4.5815 bottine	-0.0916
-3.6781 bottines	-0.1113
-3.6269 bouche	-0.1367
-4.1040 boucher	-0.0830
-4.5815 bouches	-0.0937
-4.5815 bouchon	-0.0941
-4.5815 bouclent	-0.0960
-4.5815 boudin	-0.0863
-3.8822 boue	-0.0853
-4.5815 bougeait	-0.0937
-4.5815 bougie	-0.0912
-4.5815 bougies	-0.0783
-4.1040 bougre	-0.0825
-4.5815 bouillant	-0.0925
-4.5815 bouillon	-0.0863
-4.2801 boulanger	-0.0895
-4.5815 boulangerie	-0.0958
-4.5815 boulangeries	-0.0932
-4.2801 boule	-0.0698
-4.5815 boulet	-0.0783
-4.5815 boulets	-0.0783
-3.6781 boulevard	-0.2148
-4.2801 boulevards	-0.0845
-4.5815 bouleversent	-0.0884
-4.5815 boulon	-0.0919
-4.5815 boulotté	-0.0954
-4.5815 bourdonnantes	-0.0943
-4.2801 bourgade	-0.0855
-4.5815 bourgeois	-0.0960
-4.5815 bourgeoise	-0.0960
-4.2801 bourgeoises	-0.0911
-4.5815 bourris	-0.0919
-4.2801 bourse	-0.0896
-3.8030 bout	-0.1920
-4.5815 boutade	-0.0958
-4.5815 bouteille	-0.0879
-4.1040 bouteilles	-0.0940
-3.5020 boutique	-0.1288
-3.8822 boutiques	-0.1423
-4.5815 boutiquiers	-0.0783
-4.5815 boutons	-0.0863
-4.1040 boîte	-0.0774
-4.2801 boîtes	-0.0721
-4.5815 branche	-0.0943
-4.5815 branle	-0.0901
-3.3507 bras	-0.1050
-4.5815 brassait	-0.0859
-4.2801 brasserie	-0.0958
-4.2801 brasseries	-0.0698
-4.5815 brassées	-0.0925
-3.6781 brave	-0.1316
-4.5815 bravement	-0.0957
-3.9791 braves	-0.3071
-4.5815 bravo	-0.0958
-3.8030 bref	-0.0704
-4.2801 brevet	-0.0940
-4.5815 bribes	-0.0938
-4.5815 brides	-0.0879
-4.1040 brillant	-0.0959
-4.5815 brillante	-0.0960
-4.5815 brillants	-0.0879
-4.5815 bringue	-0.0863
-4.5815 brique	-0.0783
-4.1040 brise	-0.0860
-4.5815 brisent	-0.0939
-4.5815 brisé	-0.0957
-4.5815 british	-0.0960
-4.5815 britishisme	-0.0960
-4.5815 brocards	-0.0938
-4.5815 broche	-0.0942
-4.5815 brocs	-0.0916
-4.5815 brodequins	-0.0916
-3.9791 bronze	-0.0942
-4.5815 bronzes	-0.0937
-4.1040 brosse	-0.0837
-4.5815 brosses	-0.0912
-4.5815 brosseur	-0.0863
-4.5815 brosseurs	-0.0863
-4.2801 brouhaha	-0.0952
-4.5815 broussailles	-0.0783
-3.8822 bruit	-0.1402
-4.5815 bruits	-0.0959
-4.5815 brunette	-0.0879
-3.9791 brusque	-0.0953
-3.9791 brusquement	-0.0842
-4.5815 brutalement	-0.0879
-4.2801 brute	-0.0759
-4.5815 bruyant	-0.0960
-4.5815 bruyante	-0.0960
-4.5815 brûlée	-0.0948
-4.5815 brûlées	-0.0901
-4.1040 bu	-0.0834
-4.5815 buci	-0.0936
-4.5815 buffault	-0.0860
-4.5815 buffon	-0.0912
-4.5815 bullier	-0.0954
-3.8030 bureau	-0.1090
-4.5815 bureaux	-0.0960
-4.5815 burlesque	-0.0960
-4.5815 buste	-0.0783
-4.5815 bustes	-0.0943
-4.1040 but	-0.0889
-4.5815 butte	-0.0931
-4.5815 buvait	-0.0783
-4.5815 buvant	-0.0859
-4.5815 bâti	-0.0783
-4.5815 bâties	-0.0942
-4.5815 bâtir	-0.0958
-4.5815 bâtit	-0.0902
-4.5815 bâton	-0.0942
-4.5815 bâtons	-0.0960
-4.5815 béante	-0.0783
-4.5815 bébé	-0.0863
-4.5815 bégayant	-0.0960
-4.5815 béni	-0.0939
-4.5815 bénie	-0.0960
-4.5815 bénit	-0.0943
-4.5815 bénédiction	-0.0960
-4.5815 bénéfices	-0.0959
-4.5815 bétail	-0.0937
-4.5815 bêche	-0.0932
-3.6269 bête	-0.0921
-4.5815 bêtement	-0.0902
-3.7361 bêtes	-0.0637
-4.5815 bêtises	-0.0960
-3.8030 bœuf	-0.1282
-4.5815 bœufs	-0.0939
-4.5815 bœufs_	-0.0959
-2.2801 c	-1.5695
-4.2801 cabane	-0.0880
-4.5815 cabanons	-0.0956
-4.5815 cabaret	-0.0960
-4.5815 cabarets	-0.0783
-4.5815 cabine	-0.0783
-4.1040 cabinet	-0.0778
-4.2801 caboche	-0.0859
-4.5815 caboulots	-0.0879
-4.5815 cachaient	-0.0902
-4.5815 cache	-0.0884
-4.5815 cacheter	-0.0901
-4.5815 cacochyme	-0.0912
-4.5815 cadavres	-0.0879
-3.8822 cadeau	-0.1386
-4.2801 cadeaux	-0.0750
-4.2801 cadet	-0.0923
-3.6269 café	-0.2264
-4.5815 cafés	-0.0959
-4.5815 caillou	-0.0919
-4.5815 caire	-0.0959
-3.8822 caisse	-0.1448
-4.5815 caissière	-0.0955
-4.5815 calais	-0.0960
-4.2801 calamité	-0.0911
-4.5815 calibre	-0.0859
-4.5815 calme	-0.0960
-4.5815 calotter	-0.0901
-4.2801 calottes	-0.0945
-4.1040 camarade	-0.0855
-3.9791 camarades	-0.0746
-4.5815 cambrée	-0.0863
-3.7361 camille	-0.0625
-4.5815 camion	-0.0884
-3.7361 camp	-0.0646
-4.5815 campagnarde	-0.0948
-4.5815 campagne	-0.0958
-4.2801 campagnes	-0.0818
-4.5815 campo	-0.0879
-4.2801 canaille	-0.0956
-4.5815 canaques	-0.0960
-3.8822 canard	-0.0785
-4.5815 canards	-0.0879
-4.5815 candeur	-0.0863
-4.5815 candidature	-0.0879
-4.2801 candide	-0.0881
-4.5815 canif	-0.0884
-4.5815 canivet	-0.0960
-3.9791 canne	-0.1715
-4.5815 cannes	-0.0863
-3.7361 canon	-0.1248
-4.5815 canonnier	-0.0901
-4.5815 canton	-0.0919
-4.5815 caoutchouc	-0.0783
-4.5815 cap	-0.0955
-4.2801 capable	-0.0732
-4.5815 capello	-0.0783
-3.2801 capitaine	-0.4536
-4.5815 capital	-0.0960
-4.2801 capitale	-0.0798
-4.2801 capitaliste	-0.0960
-4.5815 capituler	-0.0959
-4.5815 caporal	-0.0901
-4.5815 caporaux	-0.0958
-4.5815 capricieuse	-0.0941
-4.5815 capus	-0.0941
-2.9377 car	-0.2420
-4.5815 carabine	-0.0916
-4.5815 caracolant	-0.0942
-4.5815 caracoler	-0.0939
-4.5815 caractère	-0.0919
-4.5815 caractères	-0.0879
-4.5815 caravane	-0.0960
-4.5815 carbure	-0.0912
-4.5815 caressant	-0.0897
-4.5815 caresses	-0.0951
-4.2801 carlo	-0.0859
-4.5815 carmin	-0.0902
-4.5815 carreaux	-0.0783
-4.5815 carrefour	-0.0960
-4.5815 carrefours	-0.0783
-4.2801 carriole	-0.0953
-4.2801 carrière	-0.0938
-4.2801 carte	-0.0732
-4.5815 cartouche	-0.0783
-4.5815 carène	-0.0884
-3.3507 cas	-0.1806
-3.8030 caserne	-0.0526
-3.9791 casque	-0.1630
-4.5815 cassait	-0.0901
-4.5815 casser	-0.0897
-4.2801 casserole	-0.0883
-4.5815 cassis	-0.0960
-4.1040 cassé	-0.0746
-4.5815 cassée	-0.0902
-4.5815 catafalque	-0.0960
-4.5815 cataloguée	-0.0940
-4.1040 catastrophe	-0.0844
-4.5815 catastrophes	-0.0863
-4.5815 cauchemar	-0.0939
-4.5815 causait	-0.0943
-4.5815 causant	-0.0958
-3.7361 cause	-0.2292
-4.2801 causer	-0.0951
-4.5815 caustique	-0.0863
-4.2801 causâmes	-0.0959
-4.5815 causé	-0.0859
-4.5815 cavalcade	-0.0933
-4.5815 cavalier	-0.0933
-4.2801 caverne	-0.0870
-4.5815 caves	-0.0919
-2.1203 ce	-0.4699
-4.5815 ceci	-0.0783
-4.5815 ceinture	-0.0939
-3.2009 cela	-0.0898
-3.3507 celle	-0.3140
-4.5815 celles	-0.0929
-4.5815 celluloïd	-0.0960
-3.4672 celui	-0.2498
-4.5815 cendre	-0.0783
-3.6781 cent	-0.3261
-4.5815 centigrammes	-0.0863
-4.5815 centimes	-0.0957
-4.5815 centimètre	-0.0943
-4.2801 centre	-0.0782
-3.7361 cents	-0.1851
-4.2801 cependant	-0.0809
-3.9791 cercueil	-0.2629
-4.2801 certain	-0.0911
-4.1040 certaine	-0.0863
-3.9791 certainement	-0.0815
-4.2801 certaines	-0.0954
-3.9791 certains	-0.0960
-4.2801 certes	-0.0902
-4.5815 certifier	-0.0897
-3.8030 cerveau	-0.0552
-2.7299 ces	-0.1570
-4.2801 cessai	-0.0732
-4.5815 cesser	-0.0783
-4.5815 cessé	-0.0783
-3.1498 cet	-0.0938
-2.4877 cette	-0.2786
-3.6781 ceux	-0.2447
-4.5815 chacal	-0.0957
-3.8822 chacun	-0.2230
-4.5815 chagrin	-0.0783
-4.5815 chair	-0.0960
-4.2801 chaise	-0.0761
-4.1040 chalet	-0.0835
-4.2801 chaleur	-0.0828
-4.5815 challan	-0.0957
-3.7361 chambardoscope	-0.0860
-3.4051 chambre	-0.1670
-4.5815 chambres	-0.0783
-4.5815 chameau	-0.0951
-4.5815 chameaux	-0.0912
-4.5815 champ	-0.0783
-4.1040 champagne	-0.0933
-4.2801 champagnes	-0.0737
-4.2801 champs	-0.0721
-4.2801 changements	-0.0883
-4.5815 changé	-0.0958
-3.9791 chanson	-0.1550
-4.1040 chantait	-0.0908
-4.5815 chanter	-0.0860
-4.5815 chantez	-0.0879
-3.8822 chapeau	-0.0754
-3.7361 chapeaux	-0.1092
-4.5815 chapelle	-0.0863
-4.2801 chapellerie	-0.0907
-3.6781 chapitre	-0.0860
-3.4350 chaque	-0.3290
-4.5815 char	-0.0879
-4.5815 charcutier	-0.0859
-4.1040 charge	-0.1796
-4.5815 chargea	-0.0783
-4.1040 charger	-0.4050
-4.5815 chargé	-0.0919
-4.5815 chargée	-0.0863
-4.5815 charma	-0.0943
-3.6781 charmant	-0.0991
-3.6269 charmante	-0.1306
-4.5815 charmants	-0.0902
-4.2801 charme	-0.0863
-4.5815 charmes	-0.0902
-4.5815 charonne	-0.0939
-4.2801 charretier	-0.0877
-4.5815 chasser	-0.0860
-4.5815 chassieux	-0.0955
-4.5815 chaste	-0.0954
-4.2801 chat	-0.0960
-4.5815 chats	-0.0960
-3.9791 chaud	-0.0776
-4.5815 chaussait	-0.0960
-3.9791 chaussures	-0.0853
-4.5815 chaussée	-0.0863
-4.2801 chaussées	-0.0678
-4.2801 chaîne	-0.0919
-4.2801 chef	-0.0911
-4.5815 chefs	-0.0783
-3.9791 chemin	-0.0537
-4.5815 chemins	-0.0931
-4.5815 cheminées	-0.0929
-4.1040 chemise	-0.0734
-4.5815 chemists_	-0.0929
-3.8822 cher	-0.0872
-4.5815 cherchais	-0.0879
-4.5815 cherche	-0.0884
-3.8030 chercher	-0.1318
-3.5812 cheval	-0.2078
-3.8030 chevaux	-0.2154
-4.2801 chevelu	-0.0960
-4.5815 chevet	-0.0960
-4.5815 cheveu	-0.0960
-3.3507 cheveux	-0.1391
-4.5815 chevreau	-0.0879
-2.9184 chez	-0.2505
-3.5812 chien	-0.1691
-4.1040 chiens	-0.0750
-4.1040 chiffre	-0.1847
-4.5815 chimie	-0.0947
-4.2801 chimériques	-0.0863
-4.2801 chinois	-0.0938
-4.5815 chinoise	-0.0929
-4.5815 chipie	-0.0959
-4.5815 chirurgie	-0.0956
-4.2801 chirurgien	-0.0883
-4.5815 chloroformes	-0.0901
-4.5815 chlorures	-0.0783
-4.5815 chloé	-0.0901
-4.2801 choir	-0.0879
-4.5815 choisir	-0.0859
-4.5815 choisis	-0.0943
-4.5815 choisissent	-0.0955
-4.5815 choisit	-0.0860
-4.5815 choix	-0.0919
-3.1832 chose	-0.0835
-3.8030 choses	-0.0850
-4.5815 chouette	-0.0953
-4.5815 christmas	-0.0860
-4.5815 christophe	-0.0960
-4.5815 chroniques	-0.0960
-4.5815 chronomètre	-0.0916
-4.5815 chute	-0.0783
-3.8030 chère	-0.2168
-3.9791 chéri	-0.0910
-4.5815 chérie	-0.0939
-4.5815 chôma	-0.0960
-4.2801 chœur	-0.0877
-4.1040 ci	-0.0856
-4.5815 cicatrisées	-0.0960
-3.7361 ciel	-0.1491
-3.8822 cigare	-0.0668
-4.2801 cils	-0.0941
-4.5815 cincinnatus	-0.0957
-4.5815 cinglait	-0.0959
-3.2801 cinq	-0.2995
-4.5815 cinquantaine	-0.0783
-3.5398 cinquante	-0.3251
-4.5815 cinquième	-0.0960
-4.1040 circonstance	-0.0928
-4.5815 circonstances	-0.0884
-4.5815 circulaire	-0.0947
-4.5815 cirés	-0.0939
-4.5815 cite	-0.0950
-4.5815 citerai	-0.0954
-4.2801 citoyen	-0.0904
-4.1040 cité	-0.0852
-4.2801 civil	-0.0896
-4.5815 civile	-0.0948
-3.9791 civilisation	-0.0745
-4.5815 civils	-0.0943
-4.5815 clair	-0.0863
-4.5815 claire	-0.0953
-4.2801 clairement	-0.0859
-3.7361 clairon	-0.1226
-4.5815 clama	-0.0959
-4.5815 clamait	-0.0901
-4.5815 clameur	-0.0960
-4.5815 clans	-0.0960
-4.5815 clapotante	-0.0960
-4.5815 claquait	-0.0919
-4.5815 claquerait	-0.0939
-4.5815 claques	-0.0959
-4.5815 claqué	-0.0949
-3.9791 clara	-0.0859
-3.8030 classe	-0.0610
-4.5815 classes	-0.0960
-4.5815 classique	-0.0912
-4.2801 clef	-0.0903
-4.5815 clematis	-0.0960
-4.1040 clichy	-0.0798
-4.1040 client	-0.0829
-4.2801 cliente	-0.0884
-4.2801 clients	-0.0924
-3.8822 clientèle	-0.2219
-4.5815 clignancourt	-0.0931
-4.5815 clignant	-0.0879
-4.5815 cligné	-0.0859
-4.5815 cliniques	-0.0957
-4.5815 cliques	-0.0936
-4.5815 cliquetis	-0.0783
-4.2801 cloche	-0.2496
-4.5815 cloisons	-0.0783
-4.5815 clora	-0.0919
-4.5815 clou	-0.0783
-4.5815 cloua	-0.0943
-4.2801 cloud	-0.0933
-4.5815 clown	-0.0960
-4.2801 clématite	-0.0896
-4.2801 clématites	-0.0841
-4.5815 cléopâtreux	-0.0863
-4.5815 clérical	-0.0960
-4.5815 coalisés	-0.0939
-4.5815 cobra	-0.0960
-4.5815 cochers	-0.0957
-3.0130 cochon	-0.0441
-4.5815 cochonicida	-0.0859
-4.5815 cochonnerie	-0.0951
-4.5815 cochonneries	-0.0951
-3.3507 cochons	-0.0852
-4.5815 cocotte	-0.0863
-4.2801 cocu	-0.0919
-4.2801 code	-0.2673
-4.5815 cognac	-0.0901
-4.5815 coiffée	-0.0879
-3.7361 coin	-0.1671
-4.5815 coincoins	-0.0783
-4.5815 coins	-0.0925
-4.1040 col	-0.1846
-4.5815 coliques	-0.0940
-4.5815 colis	-0.0960
-4.1040 colla	-0.0880
-4.2801 collage	-0.0798
-4.5815 collectif	-0.0953
-4.2801 collection	-0.2496
-4.1040 collections	-0.0863
-4.2801 collet	-0.0781
-4.5815 colloque	-0.0901
-4.5815 collègues	-0.0916
-4.5815 collé	-0.0932
-4.5815 collés	-0.0897
-4.5815 colocataires	-0.0939
-4.2801 colomb	-0.0929
-4.2801 colonel	-0.0943
-4.2801 colonie	-0.2674
-4.5815 colonnes	-0.0960
-4.5815 coloré	-0.0939
-4.2801 colza	-0.0863
-3.9791 colère	-0.0845
-4.5815 colères	-0.0960
-4.5815 combats	-0.0939
-3.8030 combien	-0.0881
-4.2801 comble	-0.0753
-4.5815 comblèrent	-0.0783
-4.5815 comestibles	-0.0956
-4.5815 comfort	-0.0902
-4.2801 comique	-0.0894
-4.2801 comiques	-0.2642
-4.5815 comité	-0.0912
-4.1040 commande	-0.0813
-4.5815 commandé	-0.0783
-2.3610 comme	-0.3659
-3.9791 commence	-0.1623
-4.1040 commencement	-0.1817
-4.5815 commencent	-0.0947
-4.5815 commencer	-0.0947
-4.5815 commencé	-0.0960
-3.1188 comment	-0.0984
-4.5815 commentaires	-0.0953
-4.2801 commença	-0.0946
-4.2801 commençaient	-0.2592
-4.5815 commençais	-0.0879
-4.2801 commençait	-0.2592
-3.9791 commerce	-0.0782
-4.5815 commerçant	-0.0960
-4.2801 commerçante	-0.0921
-4.5815 commerçants	-0.0879
-4.5815 commettre	-0.0919
-3.9791 commis	-0.1542
-4.2801 commissions	-0.0883
-4.5815 commissures	-0.0783
-4.2801 commode	-0.0947
-4.2801 commun	-0.0931
-3.9791 commune	-0.0844
-4.2801 communes	-0.0840
-4.5815 communication	-0.0960
-4.5815 compagnie	-0.0925
-4.5815 compagnies	-0.0912
-4.5815 comparait	-0.0925
-3.9791 compartiment	-0.0956
-4.5815 compassion	-0.0939
-4.5815 complaisamment	-0.0938
-4.5815 complaisance	-0.0960
-4.5815 complet	-0.0901
-4.5815 compliments	-0.0959
-4.5815 compliqué	-0.0897
-3.9791 compliqués	-0.0796
-3.6781 complètement	-0.0782
-4.5815 complémentaires	-0.0902
-4.5815 compléta	-0.0955
-4.2801 complété	-0.2660
-4.5815 comportaient	-0.0942
-4.5815 comportant	-0.0954
-4.2801 comporte	-0.2644
-4.5815 comporté	-0.0884
-4.5815 composai	-0.0943
-4.5815 composait	-0.0879
-4.5815 composent	-0.0783
-4.5815 composé	-0.0912
-4.5815 composées	-0.0902
-4.2801 comprenait	-0.0895
-4.5815 comprendre	-0.0879
-4.2801 comprends	-0.0859
-4.2801 comprenez	-0.0931
-4.5815 comprenne	-0.0925
-4.5815 compresses	-0.0879
-3.7361 compris	-0.2420
-4.5815 comptait	-0.0950
-3.8030 compte	-0.1217
-4.2801 comptent	-0.0925
-4.5815 compter	-0.0901
-3.8822 comptoir	-0.0824
-4.2801 comte	-0.0777
-4.5815 comtesse	-0.0960
-4.5815 concert	-0.0960
-4.5815 concessions	-0.0938
-3.5020 concierge	-0.1413
-4.2801 concierges	-0.0896
-4.2801 conciliation	-0.0937
-4.5815 conclu	-0.0912
-4.5815 conclus	-0.0938
-4.5815 conclusion	-0.0863
-4.1040 conclut	-0.0798
-4.5815 concurrence	-0.0960
-4.5815 concurrent	-0.0960
-4.5815 condamné	-0.0879
-3.9791 conditions	-0.0536
-4.5815 conduisit	-0.0959
-4.5815 conduit	-0.0919
-4.2801 conduite	-0.0842
-4.5815 confectionna	-0.0958
-3.9791 confectionner	-0.2976
-4.2801 confession	-0.0938
-4.5815 confier	-0.0859
-4.5815 confiné	-0.0955
-4.5815 confié	-0.0860
-4.1040 conforme	-0.0797
-4.5815 conformé	-0.0927
-4.5815 confort	-0.0939
-3.6269 confortable	-0.1018
-4.5815 confrère	-0.0960
-4.2801 confrères	-0.0959
-4.2801 confus	-0.0769
-4.2801 confusion	-0.0765
-4.2801 congolaise	-0.0872
-4.5815 congédie	-0.0960
-4.5815 congénères	-0.0901
-4.5815 conjoints	-0.0939
-4.5815 conjure	-0.0863
-3.9791 connais	-0.1592
-4.5815 connaissaient	-0.0919
-4.1040 connaissais	-0.0816
-4.1040 connaissait	-0.1917
-3.7361 connaissance	-0.0628
-4.5815 connaisseuses	-0.0956
-3.9791 connaissez	-0.0882
-4.5815 connaissiez	-0.0927
-4.5815 connaît	-0.0912
-4.5815 connaîtras	-0.0960
-4.1040 connaître	-0.0790
-4.5815 connaîtrez	-0.0953
-3.6781 connu	-0.0487
-4.5815 connue	-0.0939
-3.8822 connus	-0.0717
-4.5815 connusse	-0.0957
-4.5815 connut	-0.0919
-4.5815 conquête	-0.0953
-4.5815 consacrer	-0.0955
-3.9791 conscience	-0.0729
-4.2801 consciencieusement	-0.0960
-4.5815 conseil	-0.0783
-4.5815 conseilla	-0.0960
-4.5815 conseillai	-0.0884
-4.5815 conseille	-0.0919
-4.1040 conseils	-0.0756
-4.5815 consentement	-0.0941
-4.5815 conserve	-0.0859
-4.5815 conserverai	-0.0956
-4.5815 conservons	-0.0943
-4.5815 conservé	-0.0884
-4.1040 considère	-0.0924
-4.1040 considérable	-0.0900
-4.5815 considérait	-0.0960
-4.5815 considéré	-0.0942
-4.5815 considérée	-0.0942
-4.2801 consigne	-0.0842
-4.1040 consigné	-0.0888
-3.8030 consignés	-0.1341
-4.2801 consistaient	-0.2629
-4.1040 consistait	-0.0811
-4.2801 consiste	-0.0833
-4.5815 consistent	-0.0879
-4.5815 consolation	-0.0944
-4.5815 consommateurs	-0.0925
-4.5815 consommations	-0.0960
-4.5815 constata	-0.0912
-4.5815 constatai	-0.0912
-4.2801 constater	-0.0847
-4.5815 consternation	-0.0958
-4.5815 constitua	-0.0950
-4.5815 constituait	-0.0879
-4.2801 constituer	-0.2616
-4.5815 construisit	-0.0916
-4.5815 consultations	-0.0863
-4.5815 consulter	-0.0902
-4.5815 consulté	-0.0884
-4.5815 conséquence	-0.0956
-4.5815 contai	-0.0946
-4.2801 conte	-0.0764
-4.5815 contempla	-0.0960
-4.5815 contemplaient	-0.0960
-4.5815 contemplant	-0.0960
-4.2801 contemplation	-0.0931
-4.5815 contemplative	-0.0919
-4.5815 contemple	-0.0927
-4.5815 contempler	-0.0955
-4.5815 contemplé	-0.0959
-4.5815 contemplée	-0.0960
-4.5815 contemporains	-0.0959
-4.5815 contenant	-0.0919
-3.5812 content	-0.0274
-4.5815 contenta	-0.0783
-4.5815 contentait	-0.0783
-4.1040 contente	-0.1746
-4.5815 contenterai	-0.0945
-4.5815 contenté	-0.0783
-4.5815 contentée	-0.0912
-4.5815 contenu	-0.0943
-4.1040 conter	-0.1913
-4.5815 contez	-0.0952
-4.5815 contient	-0.0952
-4.5815 continent	-0.0960
-4.5815 continua	-0.0956
-4.5815 continuai	-0.0902
-4.1040 continuait	-0.0860
-4.2801 continue	-0.0911
-4.5815 continuelles	-0.0863
-4.2801 continuer	-0.0856
-4.5815 continuez	-0.0901
-4.5815 continuons	-0.0939
-4.5815 continué	-0.0955
-4.2801 contracter	-0.2597
-4.5815 contraigne	-0.0879
-3.9791 contraire	-0.0830
-4.5815 contrairement	-0.0879
-4.5815 contrastait	-0.0943
-4.1040 contre	-0.0875
-4.5815 contrebande	-0.0902
-4.5815 contrepoids	-0.0956
-4.5815 contribua	-0.0879
-4.5815 contribuables	-0.0933
-4.2801 contributions	-0.0931
-4.5815 contrée	-0.0936
-4.5815 contrôleurs	-0.0932
-4.5815 convenablement	-0.0960
-4.5815 convenables	-0.0902
-4.5815 convenu	-0.0960
-4.5815 convenue	-0.0939
-3.8822 conversation	-0.1404
-4.5815 conversations	-0.0912
-4.2801 convives	-0.0919
-4.5815 conçoit	-0.0931
-4.5815 conçus	-0.0884
-4.5815 conçut	-0.0860
-4.5815 copieusement	-0.0901
-4.1040 coq	-0.0783
-4.5815 coqueluche	-0.0932
-4.5815 coquet	-0.0960
-4.5815 coquetier	-0.0959
-4.5815 coquette	-0.0945
-4.5815 coquin	-0.0884
-4.5815 cor	-0.0879
-4.1040 corde	-0.0813
-4.2801 cordial	-0.0947
-4.5815 cordialité	-0.0783
-4.2801 cordon	-0.2674
-4.5815 cordonnerie	-0.0960
-4.5815 cordons	-0.0954
-3.8030 corps	-0.1221
-4.2801 correspondance	-0.0932
-4.5815 corridors	-0.0902
-4.5815 cosmopolite	-0.0863
-4.5815 cosses	-0.0783
-4.5815 cossue	-0.0901
-4.5815 costume	-0.0949
-4.5815 costumé	-0.0953
-4.5815 coton	-0.0939
-4.5815 cottage	-0.0783
-4.5815 cotte	-0.0783
-3.8822 cou	-0.1450
-4.5815 coucha	-0.0943
-4.5815 couchaient	-0.0879
-4.5815 couchant	-0.0943
-4.2801 couche	-0.0765
-4.2801 coucher	-0.0951
-4.2801 couché	-0.0884
-4.2801 couchée	-0.0841
-4.5815 couchées	-0.0859
-4.5815 coucou	-0.0948
-4.5815 coula	-0.0943
-4.5815 coule	-0.0940
-4.2801 couleur	-0.0960
-3.9791 couleurs	-0.0846
-4.2801 couloirs	-0.0960
-3.2801 coup	-0.2920
-4.2801 coupa	-0.0776
-4.2801 coupable	-0.0863
-4.5815 coupables	-0.0901
-4.5815 coupaient	-0.0960
-4.5815 couper	-0.0884
-4.2801 couple	-0.0936
-3.6269 coups	-0.3121
-4.2801 coupé	-0.0868
-3.6781 cour	-0.0515
-4.5815 courageusement	-0.0859
-4.5815 couramment	-0.0783
-3.9791 courant	-0.0650
-3.9791 courants	-0.5670
-4.5815 courbant	-0.0960
-4.2801 courcelles	-0.0884
-4.5815 couronner	-0.0952
-4.5815 couronnés	-0.0783
-4.5815 courra	-0.0919
-4.5815 cours	-0.0960
-4.1040 course	-0.0940
-4.1040 court	-0.2024
-4.5815 courtaude	-0.0960
-4.5815 courtier	-0.0897
-4.5815 courtois	-0.0960
-4.5815 courut	-0.0879
-3.3770 cousin	-0.1696
-4.5815 cousines	-0.0863
-4.2801 coutume	-0.0879
-4.5815 coutumières	-0.0937
-4.5815 couvertures	-0.0901
-4.5815 couvraient	-0.0860
-4.5815 couvrant	-0.0901
-4.5815 couvre	-0.0956
-4.5815 couvreur	-0.0926
-4.5815 coïncidassent	-0.0901
-4.5815 coûta	-0.0901
-4.5815 coûtant	-0.0945
-4.5815 coûtent	-0.0919
-4.5815 coûteux	-0.0960
-4.2801 crac	-0.0842
-4.5815 craindre	-0.0945
-4.5815 crainte	-0.0783
-4.5815 crapaud	-0.0937
-4.5815 crapulite	-0.0960
-4.2801 cravate	-0.0915
-4.2801 cravates	-0.0941
-4.5815 crayon	-0.0879
-4.5815 creusé	-0.0860
-4.1040 creux	-0.0783
-4.2801 crevette	-0.0960
-3.8822 cri	-0.1328
-3.9791 cria	-0.1727
-4.5815 criaient	-0.0863
-4.5815 criait	-0.0859
-4.5815 crime	-0.0783
-4.5815 criminel	-0.0960
-4.5815 crimée	-0.0940
-4.5815 cris	-0.0960
-4.5815 crispait	-0.0901
-4.2801 cristal	-0.0959
-4.5815 croie	-0.0931
-4.5815 croirai	-0.0912
-4.5815 croirait	-0.0941
-4.5815 croiras	-0.0945
-3.4672 croire	-0.6481
-3.5398 crois	-0.1935
-4.5815 croisa	-0.0947
-4.5815 croissante	-0.0863
-4.5815 croisés	-0.0860
-4.5815 croit	-0.0956
-4.5815 croque	-0.0959
-4.5815 crottées	-0.0879
-4.2801 croyais	-0.0898
-4.1040 croyait	-0.0898
-4.5815 croyez	-0.0912
-4.5815 croûtes	-0.0783
-3.9791 cru	-0.1678
-4.5815 crue	-0.0954
-4.5815 cruel	-0.0938
-3.9791 cruelle	-0.0897
-4.1040 cruellement	-0.0713
-4.5815 crurent	-0.0859
-4.5815 crus	-0.0944
-4.2801 crut	-0.0918
-4.5815 crâne	-0.0783
-4.2801 crème	-0.0919
-4.5815 création	-0.0901
-4.2801 créature	-0.0804
-4.2801 créatures	-0.0906
-4.5815 crédit	-0.0931
-4.5815 crée	-0.0960
-3.8822 cuir	-0.1514
-3.9791 cuirassier	-0.1641
-4.5815 cuire	-0.0783
-4.1040 cuisine	-0.0809
-4.1040 cuisinière	-0.0923
-4.5815 cuisinières	-0.0863
-4.5815 cuisses	-0.0957
-4.5815 cuite	-0.0783
-4.5815 cuivre	-0.0943
-3.9791 cul	-0.1440
-4.5815 culminant	-0.0783
-4.5815 culottes	-0.0959
-4.5815 curieuses	-0.0863
-3.5812 curieux	-0.1058
-4.2801 curé	-0.0902
-4.5815 cuvette	-0.0919
-4.2801 cylindre	-0.0911
-4.5815 cylindres	-0.0960
-3.9791 cymbales	-0.0892
-4.5815 cynique	-0.0938
-4.5815 cyniques	-0.0925
-4.2801 câble	-0.0939
-4.5815 câline	-0.0912
-4.5815 céder	-0.0884
-4.5815 célibataires	-0.0929
-4.5815 cérémonies	-0.0960
-4.5815 césar	-0.0901
-4.5815 cône	-0.0960
-4.1040 côte	-0.0853
-4.5815 côtes	-0.0959
-3.6269 côté	-0.1285
-4.2801 côtés	-0.0944
-3.1498 cœur	-0.0208
-4.2801 cœurs	-0.0959
-1.9517 d	-0.3926
-4.2801 daim	-0.0831
-3.4051 dame	-0.0819
-3.7361 dames	-0.0452
-4.5815 dandysme	-0.0960
-4.5815 danger	-0.0902
-4.5815 dangereuse	-0.0912
-3.9791 dangereux	-0.1418
-4.5815 dangers	-0.0959
-2.0912 dans	-0.9663
-4.5815 dansant	-0.0860
-4.2801 danse	-0.2645
-4.5815 dansé	-0.0960
-4.5815 daphnis	-0.0863
-3.8822 darwin	-0.0846
-4.5815 darwinisme	-0.0902
-4.5815 date	-0.0960
-4.5815 datent	-0.0959
-4.5815 datura	-0.0960
-1.3976 de	-0.2692
-4.5815 dear_	-0.0931
-4.5815 death	-0.0960
-4.5815 debout	-0.0943
-4.2801 dedans	-0.0953
-4.2801 dehors	-0.0827
-3.7361 delavanne	-0.0781
-4.1040 delphacomanie	-0.0916
-4.5815 delphacos	-0.0929
-4.5815 delphax	-0.0960
-3.9791 demain	-0.1630
-3.4350 demanda	-0.1052
-4.1040 demandai	-0.1965
-4.5815 demandais	-0.0953
-4.5815 demandait	-0.0927
-4.5815 demandant	-0.0958
-3.5020 demande	-0.0598
-3.8030 demander	-0.0694
-4.1040 demandé	-0.0951
-4.5815 demeuraient	-0.0879
-4.5815 demeurait	-0.0939
-3.9791 demeure	-0.0804
-4.5815 demeurer	-0.0958
-4.5815 demeurèrent	-0.0919
-4.5815 demi	-0.0960
-4.5815 demoiselle	-0.0912
-3.9791 demoiselles	-0.0699
-4.5815 denier	-0.0783
-4.5815 dent	-0.0959
-4.5815 dentist_	-0.0925
-4.2801 dentiste	-0.0958
-4.5815 dentistes	-0.0960
-4.5815 dentition	-0.0879
-3.8822 dents	-0.0775
-3.2194 depuis	-0.1396
-3.2801 dernier	-0.0976
-3.5020 dernière	-0.0888
-4.2801 dernièrement	-0.0818
-4.1040 dernières	-0.0837
-3.5812 derrière	-0.0855
-2.0224 des	-0.1864
-4.5815 descend	-0.0783
-4.2801 descendaient	-0.0911
-4.5815 descendait	-0.0957
-4.2801 descendant	-0.0778
-3.9791 descendit	-0.0654
-4.5815 descendons	-0.0902
-4.1040 descendre	-0.0885
-4.1040 descends	-0.0932
-4.5815 descendus	-0.0925
-3.5812 desflemmes	-0.1300
-4.5815 desseins	-0.0952
-3.9791 dessert	-0.0756
-4.5815 dessous	-0.0859
-3.5812 dessus	-0.1127
-4.5815 desséchés	-0.0957
-4.5815 destiné	-0.0879
-4.5815 destinée	-0.0960
-4.5815 destruction	-0.0942
-2.7958 deux	-0.1105
-4.1040 deuxième	-0.2023
-3.5812 devait	-0.1197
-3.2387 devant	-0.1923
-4.1040 devanture	-0.0924
-3.9791 devenait	-0.0857
-4.5815 devenant	-0.0937
-4.5815 devenir	-0.0947
-3.7361 devenu	-0.2509
-4.2801 devenue	-0.0956
-4.5815 devez	-0.0940
-4.5815 deviens	-0.0960
-4.5815 devient	-0.0960
-4.1040 devinait	-0.0915
-4.5815 devine	-0.0919
-4.5815 devineriez	-0.0953
-4.1040 devinez	-0.0846
-4.5815 devinrent	-0.0960
-4.5815 devins	-0.0960
-3.9791 devint	-0.1614
-4.5815 deviné	-0.0897
-4.1040 devise	-0.1996
-3.8030 devoir	-0.1405
-4.5815 devoirs	-0.0960
-4.5815 devra	-0.0901
-4.5815 devraient	-0.0940
-4.5815 devrais	-0.0956
-4.5815 devrait	-0.0960
-4.5815 devînt	-0.0960
-4.5815 dextérité	-0.0959
-3.8030 deyck	-0.7370
-3.5812 diable	-0.1236
-4.5815 diabète	-0.0958
-4.5815 diabétique	-0.0902
-4.5815 diagnostic	-0.0939
-4.5815 diagnostiquai	-0.0960
-4.5815 dialogue	-0.0943
-4.5815 diamant	-0.0932
-3.1662 dieu	-0.1119
-4.5815 dieux	-0.0952
-3.9791 difficile	-0.1418
-4.5815 différence	-0.0958
-4.5815 différentes	-0.0901
-3.9791 différents	-0.1505
-4.1040 dign	-0.2005
-4.2801 digne	-0.2673
-4.5815 dignes	-0.0783
-4.2801 dignité	-0.0953
-4.5815 digérer	-0.0954
-4.5815 diligence	-0.0902
-4.5815 diluviennes	-0.0956
-3.8030 dimanche	-0.1996
-4.5815 dimension	-0.0912
-4.2801 dimensions	-0.0859
-4.2801 dinde	-0.0938
-4.5815 dindon	-0.0960
-4.1040 diplôme	-0.4050
-4.5815 dira	-0.0959
-4.5815 dirai	-0.0783
-4.1040 dirais	-0.4040
-4.2801 dirait	-0.2616
-4.5815 diras	-0.0863
-2.9684 dire	-0.0740
-4.2801 directement	-0.2592
-4.2801 direction	-0.0783
-4.5815 dirige	-0.0879
-4.5815 dirigèrent	-0.0960
-3.2194 dis	-0.3159
-3.9791 disaient	-0.0677
-4.1040 disais	-0.0897
-3.6269 disait	-0.1350
-3.9791 disant	-0.0879
-4.5815 discipline	-0.0936
-4.5815 discordante	-0.0937
-4.5815 discourtois	-0.0958
-4.5815 discret	-0.0912
-4.2801 discrétion	-0.2674
-4.5815 discussion	-0.0960
-4.2801 discussions	-0.0951
-4.2801 disent	-0.0897
-4.5815 disgrâces	-0.0919
-4.5815 disiez	-0.0931
-4.1040 disparu	-0.1844
-4.5815 disparus	-0.0960
-3.9791 disparut	-0.0797
-4.5815 dispersés	-0.0925
-4.5815 disponible	-0.0902
-4.5815 dispose	-0.0916
-4.5815 disposés	-0.0879
-4.2801 disputaient	-0.0875
-4.5815 disputer	-0.0957
-4.5815 disputèrent	-0.0937
-4.2801 dissimulant	-0.0956
-4.5815 distance	-0.0863
-4.5815 distinction	-0.0943
-4.2801 distingué	-0.0928
-4.2801 distinguée	-0.0957
-4.5815 distractions	-0.0960
-4.5815 distrait	-0.0941
-4.5815 distribuant	-0.0919
-4.2801 distribution	-0.0901
-2.9091 dit	-0.2524
-4.5815 dite	-0.0916
-3.6781 dites	-0.1156
-4.5815 diva	-0.0960
-4.5815 diverse	-0.0863
-4.5815 diversité	-0.0919
-4.5815 divertissement	-0.0956
-4.5815 divertit	-0.0957
-4.5815 divine	-0.0959
-4.2801 divorce	-0.0954
-3.5812 dix	-0.1550
-4.5815 dizaine	-0.0783
-4.2801 dizier	-0.0902
-4.5815 do	-0.0957
-4.2801 docile	-0.0863
-3.3507 docteur	-0.1278
-4.5815 docteurs	-0.0897
-4.5815 documentaire	-0.0783
-3.8822 doddy	-0.0809
-4.5815 dodo	-0.0897
-4.2801 doigt	-0.0951
-4.5815 doigts	-0.0957
-3.6269 dois	-0.2322
-3.6269 doit	-0.4747
-4.5815 dollars	-0.0783
-4.5815 domaine	-0.0901
-4.5815 domicile	-0.0916
-4.5815 dominait	-0.0932
-4.5815 dominante	-0.0960
-4.5815 dominos	-0.0958
-4.5815 dominotiers	-0.0863
-3.8822 dommage	-0.4185
-4.5815 don	-0.0956
-3.0014 donc	-0.1273
-4.2801 donna	-0.0897
-4.5815 donnaient	-0.0884
-4.1040 donnait	-0.0868
-4.5815 donnante	-0.0939
-3.9791 donne	-0.1661
-3.8030 donner	-0.0802
-4.2801 donnera	-0.0865
-4.5815 donnerai	-0.0919
-4.5815 donnons	-0.0943
-4.5815 donnèrent	-0.0960
-3.5020 donné	-0.1162
-4.5815 donnés	-0.0940
-2.9901 dont	-0.2411
-4.5815 doodle	-0.0943
-4.2801 door	-0.0956
-4.2801 dormait	-0.0915
-4.2801 dormir	-0.0898
-4.5815 dort	-0.0863
-4.5815 dorénavant	-0.0902
-4.1040 dos	-0.0869
-4.5815 doses	-0.0863
-4.5815 dot	-0.0960
-4.5815 douai	-0.0955
-4.2801 douairière	-0.0763
-4.1040 douane	-0.0954
-4.5815 douanes	-0.0938
-4.5815 douanier	-0.0902
-4.5815 double	-0.0959
-4.5815 doublement	-0.0901
-4.5815 doublée	-0.0912
-3.8822 douce	-0.0869
-3.5812 doucement	-0.0876
-4.1040 douleur	-0.0857
-4.5815 douloureuse	-0.0938
-4.5815 douloureusement	-0.0942
-4.5815 douloureux	-0.0960
-4.5815 doutait	-0.0783
-3.7361 doute	-0.0824
-4.5815 douter	-0.0912
-4.2801 douté	-0.0732
-3.8030 doux	-0.1293
-3.8822 doué	-0.3243
-4.2801 douée	-0.2625
-4.5815 dozulé	-0.0929
-4.2801 dr	-0.0960
-4.5815 drame	-0.0940
-4.5815 drapa	-0.0925
-4.5815 drapeau	-0.0945
-4.5815 draperies	-0.0960
-4.5815 draps	-0.0932
-4.5815 drapée	-0.0783
-4.5815 drastiques	-0.0958
-4.5815 dressa	-0.0897
-4.5815 dressait	-0.0860
-4.5815 dresse	-0.0860
-4.5815 dresser	-0.0919
-4.5815 drilles	-0.0912
-4.2801 drogues	-0.2576
-3.7361 droit	-0.1015
-3.8822 droite	-0.1256
-4.5815 droits	-0.0879
-4.5815 druggist_	-0.0939
-3.5812 drôle	-0.1548
-4.2801 drôles	-0.2496
-2.1780 du	-0.1822
-3.9791 duc	-0.5670
-4.5815 duché	-0.0952
-4.5815 due	-0.0940
-4.5815 dufay	-0.0863
-4.5815 dunkerque	-0.0948
-4.1040 duquel	-0.0839
-3.8030 dur	-0.0647
-4.5815 durables	-0.0960
-4.2801 durant	-0.0893
-4.5815 dure	-0.0947
-4.5815 durer	-0.0940
-4.1040 dus	-0.0958
-4.2801 dut	-0.0859
-4.2801 dynamite	-0.0834
-3.5812 dès	-0.2388
-4.5815 débarbouille	-0.0957
-4.5815 débarqua	-0.0955
-4.5815 débarras	-0.0960
-4.5815 débarrassant	-0.0783
-4.5815 débarrasser	-0.0783
-4.5815 débarrassé	-0.0783
-4.5815 débattis	-0.0939
-4.5815 débauché	-0.0912
-4.5815 débiter	-0.0783
-4.5815 déboires	-0.0863
-4.5815 débordante	-0.0953
-4.5815 déborde	-0.0919
-4.5815 débordements	-0.0938
-4.5815 débordé	-0.0860
-4.5815 début	-0.0943
-4.5815 débutais	-0.0925
-4.5815 débutants	-0.0956
-4.5815 débuter	-0.0925
-4.5815 débuts	-0.0960
-4.1040 décembre	-0.0877
-4.5815 décerné	-0.0879
-4.5815 décevant	-0.0960
-4.5815 décharnées	-0.0952
-4.5815 déchaîné	-0.0943
-4.5815 déchirer	-0.0960
-4.5815 décidai	-0.0939
-4.1040 décidé	-0.0808
-3.9791 décidément	-0.0935
-4.5815 décision	-0.0932
-4.2801 déclarai	-0.0951
-4.5815 déclarant	-0.0931
-4.5815 déclaration	-0.0863
-4.5815 déclare	-0.0860
-4.2801 déclarer	-0.0882
-4.5815 déconcerta	-0.0919
-4.5815 décoratif	-0.0958
-4.5815 décoratives	-0.0916
-4.5815 découplé	-0.0783
-4.5815 découvert	-0.0884
-4.1040 découverte	-0.0818
-4.2801 découvrir	-0.2610
-4.5815 découvrit	-0.0860
-4.5815 décriée	-0.0953
-4.5815 décrocha	-0.0902
-4.5815 décès	-0.0897
-4.5815 dédaigneuse	-0.0932
-4.5815 défaut	-0.0859
-4.2801 défendre	-0.0732
-4.5815 défends	-0.0952
-4.2801 défense	-0.0783
-4.5815 défi	-0.0958
-4.5815 défier	-0.0901
-4.5815 défilèrent	-0.0925
-4.5815 défroque	-0.0783
-4.2801 dégagea	-0.0924
-4.5815 dégaina	-0.0859
-4.5815 dégarnit	-0.0783
-4.5815 dégel	-0.0932
-4.5815 dégourdissait	-0.0901
-4.5815 dégoûta	-0.0879
-4.2801 dégoûtante	-0.0838
-4.5815 dégoûtent	-0.0916
-4.1040 dégoûté	-0.1817
-4.5815 déguiser	-0.0916
-4.2801 déguisé	-0.2629
-4.5815 déguisée	-0.0916
-4.5815 dégustait	-0.0939
-3.6269 déjeuner	-0.0733
-4.2801 déjeunèrent	-0.2673
-3.8030 déjà	-0.0760
-4.5815 délicat	-0.0931
-4.1040 délicate	-0.1927
-4.5815 délicatesse	-0.0940
-4.5815 délicats	-0.0902
-4.5815 délices	-0.0901
-4.1040 délicieuse	-0.0843
-4.2801 délicieusement	-0.0783
-4.5815 délicieux	-0.0960
-4.5815 délirantes	-0.0863
-4.5815 déluge	-0.0960
-4.5815 démangeaisons	-0.0863
-4.5815 démence	-0.0960
-4.5815 dément	-0.0960
-4.5815 démentit	-0.0953
-4.5815 déments	-0.0953
-4.5815 démesuré	-0.0960
-4.5815 démesurée	-0.0933
-4.5815 démodé	-0.0863
-4.5815 démons	-0.0933
-4.5815 démontait	-0.0919
-4.5815 démontrer	-0.0947
-4.5815 démunie	-0.0912
-4.2801 déménagement	-0.0893
-4.2801 déménager	-0.0899
-4.5815 déménagé	-0.0957
-4.2801 dénouement	-0.0930
-4.2801 dénué	-0.2496
-4.5815 dénuée	-0.0960
-4.5815 dénuées	-0.0783
-4.5815 dépassa	-0.0901
-4.2801 dépassait	-0.0901
-4.5815 dépassant	-0.0901
-4.5815 dépasser	-0.0884
-4.5815 dépenaillé	-0.0960
-4.2801 dépend	-0.0913
-4.5815 dépit	-0.0783
-4.5815 déplacée	-0.0958
-4.5815 déplaisant	-0.0960
-4.5815 déplorables	-0.0960
-4.5815 déplumé	-0.0929
-4.5815 dépoli	-0.0939
-4.5815 dépêche	-0.0957
-4.5815 dépêcher	-0.0783
-4.5815 dérisoire	-0.0901
-4.5815 dérobait	-0.0916
-4.5815 dérober	-0.0884
-4.5815 dérobés	-0.0902
-4.5815 déroulède	-0.0952
-4.5815 dés	-0.0863
-4.5815 désagréable	-0.0941
-4.5815 désarmer	-0.0938
-4.5815 désarmé	-0.0958
-4.5815 désarmés	-0.0960
-4.5815 désarticulant	-0.0859
-4.5815 désastres	-0.0863
-4.5815 désemplissait	-0.0919
-4.5815 déserte	-0.0959
-4.5815 déserter	-0.0859
-4.5815 désertes	-0.0783
-4.5815 déserté	-0.0901
-4.1040 désespoir	-0.0836
-4.5815 désespoirs	-0.0912
-4.5815 désespéré	-0.0863
-4.5815 désespérée	-0.0863
-4.5815 désespérément	-0.0951
-4.5815 déshabilla	-0.0901
-4.5815 déshonoré	-0.0912
-4.2801 désignait	-0.0859
-4.5815 désignations	-0.0863
-4.2801 désigner	-0.0923
-4.5815 désillusion	-0.0944
-4.5815 désinvolture	-0.0959
-4.1040 désir	-0.0732
-4.5815 désirait	-0.0938
-4.5815 désirez	-0.0954
-4.5815 désobligeantes	-0.0879
-4.5815 désobligeants	-0.0943
-4.5815 désobligé	-0.0947
-4.5815 désoler	-0.0943
-4.5815 désolé	-0.0902
-4.2801 désolée	-0.0769
-4.5815 désordre	-0.0960
-4.2801 désormais	-0.0933
-4.5815 détachées	-0.0783
-3.9791 détail	-0.0942
-4.2801 détails	-0.0931
-4.2801 détenteurs	-0.2496
-4.5815 déterminait	-0.0901
-4.2801 détermine	-0.0756
-4.5815 déterminer	-0.0960
-4.5815 déterminé	-0.0859
-4.5815 déterreront	-0.0959
-4.5815 détour	-0.0956
-4.5815 détournerais	-0.0955
-4.5815 détromper	-0.0901
-4.5815 développé	-0.0960
-4.5815 développés	-0.0943
-4.5815 dévergondée	-0.0931
-4.2801 dévorant	-0.0842
-4.5815 dévoré	-0.0947
-4.5815 dévoué	-0.0959
-4.2801 dévoyé	-0.0750
-4.5815 dézébrer	-0.0960
-4.2801 dîna	-0.0858
-4.5815 dînaient	-0.0860
-3.6781 dîner	-0.0745
-4.5815 dînette	-0.0943
-4.5815 dîneurs	-0.0933
-4.5815 dînons	-0.0960
-4.5815 dînèrent	-0.0960
-4.5815 dîné	-0.0901
-4.1040 dû	-0.0855
-4.5815 e	-0.0938
-3.5812 eau	-0.1274
-4.5815 eaux	-0.0960
-3.9791 ecclésiastique	-0.0679
-4.5815 eczémateux	-0.0927
-4.5815 eden	-0.0941
-4.5815 effaré	-0.0927
-4.1040 effectivement	-0.0857
-4.5815 effectives	-0.0860
-3.5398 effet	-0.0721
-4.5815 effets	-0.0952
-4.5815 effleurer	-0.0901
-4.5815 effleuré	-0.0932
-4.5815 effondrant	-0.0925
-4.5815 effondré	-0.0947
-4.1040 efforts	-0.0938
-4.2801 effrayant	-0.2641
-4.2801 effroi	-0.0862
-4.2801 effrontée	-0.0937
-4.2801 effroyable	-0.0878
-4.5815 effusions	-0.0952
-4.5815 eguisier	-0.0936
-3.1188 eh	-1.0231
-2.3406 elle	-0.1954
-3.8030 ellen	-0.0727
-3.6269 elles	-0.1066
-4.5815 embarrassé	-0.0912
-4.2801 embrassa	-0.2592
-4.5815 embrassai	-0.0960
-4.5815 embrassaient	-0.0952
-4.5815 embrassais	-0.0943
-4.5815 embrassait	-0.0860
-4.1040 embrasser	-0.1820
-3.6269 embrasseur	-0.0590
-4.5815 embrouille	-0.0957
-4.5815 embrumait	-0.0860
-4.5815 embryonnaires	-0.0960
-4.5815 embêtais	-0.0919
-4.2801 embêtait	-0.0960
-4.2801 embête	-0.0798
-3.8822 embêter	-0.2443
-4.2801 embêtes	-0.0927
-4.5815 embêtèrent	-0.0919
-4.5815 embêté	-0.0943
-4.2801 emily	-0.0910
-4.5815 emmena	-0.0955
-4.5815 empaillées	-0.0960
-4.5815 empanaché	-0.0901
-4.5815 empara	-0.0919
-4.5815 emparai	-0.0955
-4.5815 empila	-0.0927
-4.5815 empire	-0.0941
-4.5815 emploient	-0.0939
-4.5815 employe	-0.0879
-4.5815 employer	-0.0942
-3.9791 employé	-0.1688
-4.5815 employés	-0.0960
-4.5815 emplâtre	-0.0938
-4.5815 empochai	-0.0927
-3.9791 empoigna	-0.0845
-4.5815 emportait	-0.0955
-4.5815 empressée	-0.0959
-4.2801 emprunter	-0.2632
-4.1040 empêche	-0.0688
-4.2801 empêcher	-0.0678
-4.5815 empêcherait	-0.0901
-4.5815 empêches	-0.0783
-1.9912 en	-0.1055
-4.5815 encadraient	-0.0947
-4.5815 enchanté	-0.0783
-4.2801 enchantés	-0.2496
-4.5815 enchères	-0.0960
-4.5815 encolure	-0.0783
-4.5815 encombrait	-0.0951
-4.5815 encombre	-0.0939
-4.1040 encombrement	-0.0685
-4.5815 encontre	-0.0783
-3.0626 encore	-0.0899
-4.5815 encouragea	-0.0901
-4.5815 encouragés	-0.0947
-4.2801 endiablé	-0.0937
-4.2801 endormis	-0.0859
-4.5815 endort	-0.0859
-4.5815 endossait	-0.0947
-3.6781 endroit	-0.1123
-4.2801 endroits	-0.0960
-4.5815 enfance	-0.0863
-3.9791 enfant	-0.0945
-4.5815 enfantine	-0.0884
-3.7361 enfants	-0.0578
-4.5815 enfer	-0.0938
-4.5815 enfermer	-0.0959
-4.5815 enfermeras	-0.0859
-4.5815 enfila	-0.0860
-4.5815 enfilant	-0.0902
-4.5815 enfiler	-0.0902
-3.6781 enfin	-0.0782
-4.5815 enfoncer	-0.0947
-4.1040 enfonça	-0.4063
-4.5815 enfuit	-0.0960
-4.5815 enfuyais	-0.0960
-4.5815 engageantes	-0.0863
-4.2801 engagement	-0.2496
-4.5815 engager	-0.0860
-4.2801 engagé	-0.0801
-4.5815 engendrer	-0.0884
-4.5815 engin	-0.0960
-4.5815 engouement	-0.0960
-4.5815 engouffrait	-0.0925
-4.5815 engouffrer	-0.0925
-4.5815 engourdies	-0.0943
-4.5815 engraisser	-0.0863
-4.5815 engraissé	-0.0939
-4.5815 enhardi	-0.0960
-4.1040 enleva	-0.0709
-4.5815 enlever	-0.0958
-4.5815 ennemi	-0.0932
-4.5815 ennemis	-0.0933
-4.5815 ennui	-0.0960
-4.5815 ennuient	-0.0884
-4.2801 ennuyait	-0.0848
-4.5815 enragé	-0.0960
-4.5815 enrouement	-0.0954
-4.5815 enroulaient	-0.0925
-4.5815 enroué	-0.0958
-4.2801 enrouée	-0.0945
-4.5815 enseigne	-0.0860
-4.5815 enseignement	-0.0960
-3.7361 ensemble	-0.1613
-4.5815 ensuit	-0.0941
-4.2801 ensuite	-0.0900
-4.5815 entassa	-0.0925
-4.5815 entassait	-0.0902
-4.5815 entendais	-0.0955
-4.5815 entendait	-0.0955
-4.5815 entendant	-0.0959
-4.5815 entendement	-0.0957
-4.5815 entendeur	-0.0960
-4.5815 entendeuse	-0.0960
-3.9791 entendre	-0.0778
-4.5815 entends	-0.0949
-3.6269 entendu	-0.1427
-4.5815 entendus	-0.0959
-4.5815 enterra	-0.0925
-4.2801 enterrement	-0.0918
-4.2801 enterré	-0.0859
-4.5815 entier	-0.0939
-4.5815 entiers	-0.0937
-4.2801 entièrement	-0.0960
-4.5815 entonna	-0.0902
-4.5815 entonnoir	-0.0955
-4.5815 entoura	-0.0859
-4.5815 entouraient	-0.0960
-4.5815 entourait	-0.0897
-3.9791 entra	-0.0870
-3.8822 entrai	-0.0856
-4.5815 entrain	-0.0959
-4.5815 entrais	-0.0916
-4.5815 entrait	-0.0925
-4.5815 entravait	-0.0863
-4.2801 entraîna	-0.0923
-3.2387 entre	-0.2022
-4.5815 entrebâillement	-0.0783
-4.5815 entrent	-0.0958
-4.5815 entrepont	-0.0959
-4.5815 entreprendrai	-0.0919
-3.9791 entrer	-0.0852
-4.1040 entresol	-0.0851
-4.5815 entretenir	-0.0939
-4.1040 entretien	-0.0748
-4.5815 entrevue	-0.0902
-4.5815 entrons	-0.0916
-4.5815 entrouverte	-0.0960
-3.7361 entrée	-0.2379
-4.5815 entrés	-0.0925
-4.5815 entêté	-0.0931
-4.5815 envahis	-0.0947
-4.5815 enveloppait	-0.0954
-4.1040 enveloppe	-0.0921
-4.5815 envers	-0.0902
-4.5815 enviable	-0.0960
-4.5815 enviaient	-0.0954
-3.9791 envie	-0.1504
-4.1040 environ	-0.0899
-4.1040 environs	-0.1817
-4.5815 envoi	-0.0912
-4.2801 envoie	-0.0782
-4.5815 envois	-0.0947
-4.5815 envolaient	-0.0943
-4.5815 envoya	-0.0957
-4.5815 envoyai	-0.0879
-4.5815 envoyait	-0.0919
-4.2801 envoyer	-0.0819
-4.5815 envoyât	-0.0919
-4.5815 envoyé	-0.0943
-4.2801 ern	-0.0960
-4.5815 errements	-0.0960
-4.2801 erreurs	-0.0698
-4.5815 erville	-0.0960
-3.7361 es	-0.1272
-4.5815 escadres	-0.0783
-3.8822 escalier	-0.0649
-4.5815 escaliers	-0.0863
-4.5815 esclaves	-0.0960
-4.5815 espiègle	-0.0960
-4.5815 espiègles	-0.0783
-4.5815 espoir	-0.0783
-3.6781 esprit	-0.0558
-4.5815 esprits	-0.0959
-3.6269 espèce	-0.3166
-4.2801 espère	-0.0940
-4.2801 espérances	-0.0866
-4.5815 essai	-0.0960
-4.2801 essaya	-0.0740
-4.5815 essayai	-0.0783
-4.2801 essence	-0.0846
-4.5815 essieu	-0.0960
-4.5815 essoufflée	-0.0938
-4.5815 essuie	-0.0940
-4.5815 essuyer	-0.0902
-2.0997 est	-0.2767
-4.5815 estaminet	-0.0932
-4.5815 esthetic	-0.0960
-4.5815 esthétique	-0.0919
-4.5815 estimais	-0.0945
-3.9791 estomac	-0.0783
-3.9791 estrade	-0.0788
-1.6543 et	-0.2959
-3.6269 etc	-0.1031
-4.2801 ethnographie	-0.0854
-4.5815 ethnographique	-0.0939
-3.5812 eu	-0.0421
-4.5815 eugène	-0.0960
-4.5815 eugénie	-0.0938
-4.5815 eurent	-0.0960
-4.2801 europe	-0.0836
-3.5812 eus	-0.1260
-4.5815 eusse	-0.0960
-4.2801 eussent	-0.0954
-3.5812 eut	-0.0588
-3.5812 eux	-0.1264
-4.2801 evening	-0.2673
-4.5815 ex	-0.0960
-4.2801 exact	-0.0931
-4.5815 exacte	-0.0960
-3.9791 exactement	-0.0760
-4.5815 exactitude	-0.0946
-4.5815 exacts	-0.0960
-4.5815 exagère	-0.0902
-4.1040 examen	-0.0819
-4.1040 examens	-0.0951
-4.5815 examinai	-0.0947
-4.2801 examinateurs	-0.0927
-4.1040 excellent	-0.0951
-4.2801 excellente	-0.0960
-4.5815 excentric	-0.0937
-4.5815 excentrique	-0.0783
-4.5815 exceptions	-0.0859
-4.5815 excepté	-0.0960
-4.5815 excita	-0.0859
-4.5815 exclama	-0.0960
-4.2801 excluait	-0.2670
-4.5815 exclusivement	-0.0960
-4.2801 exclut	-0.2632
-4.5815 excréments	-0.0863
-4.2801 excusa	-0.0943
-4.5815 excuse	-0.0912
-4.5815 excuser	-0.0884
-4.5815 excuses	-0.0863
-4.5815 excédent	-0.0783
-3.6269 exemple	-0.0943
-4.5815 exemples	-0.0863
-4.5815 exempte	-0.0783
-3.9791 exercice	-0.0631
-4.5815 exerçant	-0.0902
-4.5815 exhiber	-0.0952
-4.1040 exhibition	-0.0891
-4.5815 exigences	-0.0939
-4.5815 exigu	-0.0902
-4.5815 exiguë	-0.0945
-4.5815 exiguïté	-0.0960
-4.5815 existe	-0.0950
-3.8030 existence	-0.0621
-4.5815 exorbitante	-0.0912
-4.2801 exotique	-0.0783
-4.2801 exotiques	-0.0877
-4.2801 explication	-0.0899
-3.9791 expliquer	-0.1614
-4.5815 expliquerai	-0.0948
-4.5815 expliqueras	-0.0949
-4.5815 exploré	-0.0960
-4.1040 explosion	-0.0698
-4.2801 expose	-0.0958
-3.3770 exposition	-0.1915
-4.5815 expositions	-0.0960
-4.2801 express	-0.2496
-4.2801 expresse	-0.2496
-4.5815 expression	-0.0960
-4.5815 exprimer	-0.0916
-4.5815 exprès	-0.0948
-4.5815 exquis	-0.0960
-4.2801 exquise	-0.0863
-4.5815 exquises	-0.0959
-4.5815 extraordinaire	-0.0960
-3.9791 extrême	-0.0959
-4.1040 extrêmement	-0.0951
-4.5815 extérieur	-0.0960
-4.1040 exécutait	-0.0634
-4.5815 exécutant	-0.0902
-4.5815 exécuter	-0.0955
-4.5815 exécuté	-0.0947
-4.5815 exécutée	-0.0902
-4.5815 exécutées	-0.0902
-4.5815 exécutés	-0.0951
-3.5020 eût	-0.2240
-3.7361 f	-0.3869
-4.5815 fable	-0.0943
-4.5815 fables	-0.0912
-4.5815 fabricant	-0.0912
-4.1040 fabrication	-0.4098
-4.5815 fabriquer	-0.0919
-4.5815 fabriquez	-0.0948
-4.5815 fabuleux	-0.0783
-4.5815 face	-0.0959
-4.1040 facilement	-0.0862
-4.5815 facilité	-0.0927
-3.8822 faction	-0.0815
-4.5815 factionnaire	-0.0859
-4.5815 factures	-0.0960
-4.5815 facultés	-0.0956
-4.5815 facéties	-0.0926
-4.5815 fagots	-0.0960
-4.2801 faible	-0.0956
-4.5815 faiblement	-0.0960
-4.5815 faibles	-0.0960
-4.2801 faiblesse	-0.0900
-4.5815 faict	-0.0960
-4.5815 failli	-0.0960
-4.2801 faillit	-0.0940
-4.1040 faillite	-0.0738
-2.8488 faire	-0.0931
-3.5812 fais	-0.0575
-4.5815 faisable	-0.0859
-3.9791 faisaient	-0.0902
-4.2801 faisais	-0.0937
-3.1340 faisait	-0.2180
-4.1040 faisant	-0.0916
-4.5815 faisions	-0.0783
-2.7888 fait	-0.1025
-3.8030 faite	-0.1305
-3.6781 faites	-0.1204
-4.5815 faits	-0.0933
-4.5815 falaises	-0.0863
-3.9791 fallait	-0.0813
-4.2801 falot	-0.0838
-4.2801 fameuse	-0.0959
-4.1040 fameux	-0.0958
-4.5815 familier	-0.0783
-4.5815 familiers	-0.0901
-3.2801 famille	-0.0754
-4.2801 familles	-0.0783
-4.5815 fange	-0.0901
-4.1040 fantaisie	-0.0857
-4.5815 fantaisies	-0.0902
-4.1040 fantaisiste	-0.0839
-4.5815 faquins	-0.0912
-4.5815 farce	-0.0932
-4.2801 farnèse	-0.0887
-4.5815 farouche	-0.0946
-4.5815 farouches	-0.0960
-3.9791 fasse	-0.0694
-4.5815 fastueuse	-0.0783
-4.5815 fat	-0.0902
-4.5815 fatal	-0.0954
-4.5815 fati_	-0.0952
-4.5815 fatidique	-0.0783
-4.5815 fatiguerai	-0.0919
-4.5815 fatma	-0.0952
-4.1040 faubourg	-0.2021
-4.5815 fauchée	-0.0947
-4.2801 faudra	-0.0935
-4.5815 faudrait	-0.0960
-4.2801 fausser	-0.0850
-4.5815 fausses	-0.0960
-3.3259 faut	-0.1013
-4.2801 faute	-0.0830
-4.2801 fauteuil	-0.0863
-4.5815 fauve	-0.0960
-4.5815 fauves	-0.0783
-3.9791 faux	-0.0935
-4.2801 faveur	-0.0882
-4.5815 favorisée	-0.0947
-4.2801 favorite	-0.0855
-3.4350 façon	-0.2283
-4.2801 feignant	-0.0948
-3.0014 femme	-0.0535
-3.6781 femmes	-0.0600
-4.5815 fenayrou	-0.0959
-4.5815 fente	-0.0960
-3.8822 fenêtre	-0.0768
-4.1040 fenêtres	-0.0756
-3.8822 fer	-0.0859
-4.2801 fera	-0.0936
-4.5815 ferai	-0.0960
-4.2801 feraient	-0.0897
-4.1040 ferais	-0.0842
-3.6781 ferait	-0.1117
-4.5815 feras	-0.0960
-4.5815 ferblanterie	-0.0953
-3.3259 ferdinand	-0.1234
-4.5815 ferez	-0.0953
-4.2801 ferma	-0.0756
-4.5815 fermai	-0.0860
-3.8030 ferme	-0.0716
-4.5815 fermier	-0.0960
-4.2801 fermé	-0.0879
-4.5815 fermées	-0.0954
-4.5815 fermés	-0.0939
-4.5815 ferons	-0.0954
-4.5815 feront	-0.0902
-3.9791 feu	-0.0941
-3.8822 feuille	-0.4058
-4.2801 feuilles	-0.0912
-4.5815 feutre	-0.0960
-4.5815 fiancé	-0.0936
-4.2801 ficelle	-0.0911
-4.5815 fichais	-0.0919
-4.2801 fichait	-0.0875
-3.8822 fiche	-0.0685
-4.5815 ficheras	-0.0919
-3.8030 fichu	-0.0595
-4.5815 fichus	-0.0879
-4.1040 fidèle	-0.0935
-4.5815 fier	-0.0863
-4.5815 figurait	-0.0916
-3.9791 figure	-0.0894
-4.5815 figurer	-0.0955
-4.5815 figurez	-0.0931
-4.5815 filait	-0.0943
-4.5815 file	-0.0927
-4.5815 filer	-0.0902
-2.9579 fille	-0.1087
-3.6269 filles	-0.0756
-4.5815 fillettes	-0.0940
-3.5812 fils	-0.1560
-3.2009 fin	-0.2306
-4.5815 finalement	-0.0955
-4.5815 finance	-0.0960
-4.5815 fine	-0.0919
-4.5815 finement	-0.0859
-3.9791 fines	-0.1635
-4.2801 fini	-0.0946
-4.5815 finie	-0.0960
-4.5815 finir	-0.0957
-4.5815 finirent	-0.0947
-4.5815 finissent	-0.0947
-3.8822 fins	-0.0817
-4.2801 fioles	-0.0842
-4.2801 firent	-0.0938
-3.5020 fis	-0.2848
-4.5815 fisse	-0.0912
-3.0249 fit	-0.1217
-4.5815 fixa	-0.0958
-4.5815 fixaient	-0.0960
-4.5815 fixé	-0.0943
-4.5815 fixée	-0.0943
-4.1040 flacon	-0.1847
-4.5815 flagrante	-0.0901
-4.5815 flamand	-0.0960
-4.5815 flambaient	-0.0912
-4.5815 flamboyait	-0.0927
-4.1040 flamboyants	-0.0918
-4.5815 flamboyèrent	-0.0958
-4.2801 flamme	-0.0919
-4.5815 flammes	-0.0929
-4.2801 flanc	-0.0959
-4.5815 flancs	-0.0953
-4.5815 flanqué	-0.0955
-4.5815 flanqués	-0.0947
-4.2801 flaque	-0.0682
-4.5815 flattant	-0.0939
-4.5815 flatte	-0.0956
-4.5815 flatteurs	-0.0960
-4.5815 flatteuses	-0.0960
-4.5815 flattés	-0.0783
-4.5815 flegme	-0.0960
-4.5815 flemmard	-0.0783
-4.5815 fleurant	-0.0863
-4.5815 fleurissaient	-0.0939
-4.2801 fleurs	-0.0785
-4.5815 fleuves	-0.0929
-4.5815 flingot	-0.0863
-4.5815 florissante	-0.0960
-4.5815 flots	-0.0783
-4.5815 flotte	-0.0940
-4.5815 flâner	-0.0958
-4.5815 flâneries	-0.0947
-4.5815 flâneuse	-0.0863
-3.6269 foi	-0.1076
-4.5815 foin	-0.0783
-2.9477 fois	-0.1337
-4.1040 folie	-0.0884
-4.1040 folies	-0.0863
-4.1040 folle	-0.0780
-4.5815 folles	-0.0960
-3.8822 fonction	-0.0883
-4.5815 fonctionnaires	-0.0902
-3.6781 fond	-0.3331
-4.2801 fonds	-0.0898
-4.5815 fondu	-0.0943
-3.9791 font	-0.0722
-4.5815 fontaine	-0.0929
-4.2801 fontenay	-0.0949
-4.2801 for	-0.0960
-3.8030 force	-0.1746
-4.5815 forcer	-0.0901
-4.5815 forcerais	-0.0901
-4.1040 forcé	-0.1825
-4.5815 forfaitz	-0.0960
-4.5815 forma	-0.0859
-4.5815 formaient	-0.0937
-4.5815 formation	-0.0912
-4.5815 formats	-0.0936
-3.7361 forme	-0.0960
-4.2801 formes	-0.0888
-4.5815 formidable	-0.0960
-4.5815 formidables	-0.0960
-4.5815 formulé	-0.0916
-3.1188 fort	-0.1733
-3.5812 forte	-0.1086
-4.2801 fortement	-0.0818
-4.5815 fortes	-0.0960
-4.5815 fortifications	-0.0919
-3.6781 fortune	-0.0783
-4.5815 forçait	-0.0879
-3.5812 fou	-0.0601
-4.5815 foudre	-0.0939
-4.5815 foudroya	-0.0897
-4.5815 foudroyer	-0.0884
-4.5815 foudroyé	-0.0947
-4.5815 fouet	-0.0931
-4.5815 fouetta	-0.0897
-4.5815 fougueuse	-0.0960
-4.5815 fouiller	-0.0952
-4.5815 foulai	-0.0859
-4.2801 foule	-0.0853
-4.5815 found	-0.0957
-4.5815 fourchettes	-0.0919
-4.5815 fourmillement	-0.0932
-4.5815 fourneau	-0.0912
-4.5815 fourneaux	-0.0960
-4.5815 fournir	-0.0958
-4.5815 fournissent	-0.0940
-4.5815 fourniture	-0.0783
-3.8822 fourquemin	-0.1464
-4.5815 fourrait	-0.0960
-4.5815 fourrer	-0.0901
-4.5815 fourré	-0.0925
-4.5815 fours	-0.0863
-4.1040 fous	-0.0781
-4.5815 foutu	-0.0783
-4.5815 fox	-0.0957
-4.5815 foyers	-0.0912
-4.5815 fragment	-0.0783
-3.9791 frais	-0.0859
-3.8030 france	-0.3339
-4.2801 franchement	-0.0927
-3.6781 francs	-0.1180
-4.1040 français	-0.0896
-4.2801 française	-0.0860
-4.5815 françois	-0.0960
-4.5815 frappa	-0.0919
-4.5815 frappai	-0.0879
-4.5815 frappante	-0.0860
-4.5815 frapper	-0.0879
-4.5815 frappé	-0.0912
-4.5815 frasque	-0.0937
-4.2801 frasques	-0.0960
-4.5815 fraternité	-0.0884
-4.5815 frayeur	-0.0960
-4.5815 fraîche	-0.0960
-4.2801 fraîchement	-0.0960
-4.2801 fraîcheur	-0.0927
-4.5815 fraîchissait	-0.0902
-4.5815 friand	-0.0783
-4.5815 friction	-0.0960
-4.5815 frictionner	-0.0859
-4.5815 frictionné	-0.0860
-4.5815 frigide	-0.0783
-4.5815 frileux	-0.0783
-4.5815 frisait	-0.0860
-4.5815 frisant	-0.0860
-4.5815 frise	-0.0860
-4.5815 frisons	-0.0929
-4.5815 frissons	-0.0960
-4.5815 frisé	-0.0859
-4.5815 frisés	-0.0863
-4.5815 frite	-0.0863
-3.7361 froid	-0.0808
-4.5815 froide	-0.0884
-4.5815 froids	-0.0863
-4.5815 froissent	-0.0959
-4.5815 froncez	-0.0919
-3.8030 front	-0.0680
-4.5815 frontières	-0.0960
-4.5815 fronça	-0.0939
-4.5815 frottaient	-0.0901
-4.5815 frottait	-0.0960
-4.5815 frottant	-0.0901
-4.5815 frotte	-0.0901
-4.5815 fructueux	-0.0860
-4.5815 frères	-0.0943
-4.5815 frémissements	-0.0912
-4.2801 frémit	-0.0940
-4.5815 fréquence	-0.0960
-4.5815 fréquent	-0.0939
-4.5815 fréquentait	-0.0925
-4.5815 fréquentée	-0.0947
-3.8822 frêle	-0.2432
-4.5815 fuite	-0.0783
-4.5815 fulgura	-0.0859
-4.5815 fumait	-0.0884
-4.5815 fumant	-0.0884
-4.5815 fumants	-0.0931
-4.5815 fument	-0.0919
-4.2801 fumer	-0.0954
-4.5815 fumer_	-0.0959
-4.5815 fumet	-0.0783
-4.1040 fumier	-0.0853
-4.5815 fumiste	-0.0958
-4.5815 funèbres	-0.0945
-3.8822 furent	-0.0951
-4.5815 furet	-0.0948
-4.5815 fureur	-0.0783
-4.5815 furibonds	-0.0957
-4.5815 furieuse	-0.0960
-4.2801 furieux	-0.0842
-4.5815 furtif	-0.0919
-4.5815 furtive	-0.0863
-4.5815 furtivement	-0.0960
-3.8030 fus	-0.0892
-4.5815 fusil	-0.0863
-4.5815 fusilleriez	-0.0960
-4.5815 fusse	-0.0960
-2.9791 fut	-0.0547
-4.5815 futaille	-0.0960
-4.2801 fuyait	-0.0941
-4.5815 fâcher	-0.0783
-4.5815 fâché	-0.0783
-4.5815 féculents	-0.0960
-4.5815 fées	-0.0960
-4.5815 félicita	-0.0783
-4.5815 fénelon	-0.0926
-4.5815 férocité	-0.0960
-4.5815 féroé	-0.0960
-3.8030 fête	-0.0674
-4.5815 fêtes	-0.0960
-4.5815 fîmes	-0.0860
-4.5815 fûmes	-0.0960
-3.7361 fût	-0.1232
-4.2801 g	-0.0905
-4.2801 gabelou	-0.0890
-4.5815 gageure	-0.0939
-4.1040 gagna	-0.0756
-4.1040 gagner	-0.0958
-4.1040 gaiement	-0.0921
-4.5815 gaieté	-0.0951
-4.5815 gaietés	-0.0912
-4.5815 gaillarde	-0.0783
-4.5815 gaillards	-0.0879
-4.5815 gais	-0.0960
-4.2801 galerie	-0.2632
-4.5815 galette	-0.0879
-4.2801 gallo	-0.2673
-4.5815 galonnée	-0.0939
-4.1040 galop	-0.0765
-4.5815 galopait	-0.0942
-4.2801 gants	-0.0939
-4.5815 garanti	-0.0783
-4.5815 garantir	-0.0783
-4.5815 garantis	-0.0919
-4.5815 gardaient	-0.0955
-3.6269 garde	-0.1708
-4.1040 garder	-0.1949
-4.5815 gardiens	-0.0783
-4.5815 gare	-0.0901
-4.5815 gargousses	-0.0957
-4.5815 garnement	-0.0929
-4.5815 garnison	-0.0783
-4.5815 garnissaient	-0.0897
-4.5815 gars	-0.0960
-2.9579 garçon	-0.0427
-3.8030 garçons	-0.0554
-4.2801 gaspard	-0.0779
-3.7361 gauche	-0.0440
-4.5815 gauchement	-0.0960
-4.5815 gaulois	-0.0863
-4.5815 gausser	-0.0919
-4.5815 gauthier	-0.0960
-4.5815 gazouillis	-0.0912
-4.1040 gendarmes	-0.1902
-4.1040 genoux	-0.0859
-4.1040 genre	-0.1966
-4.5815 genres	-0.0783
-2.8488 gens	-0.1863
-3.7361 gentil	-0.0795
-4.5815 gentilhomme	-0.0957
-3.7361 gentille	-0.0655
-4.5815 gentilles	-0.0863
-4.5815 gentils	-0.0960
-4.5815 gentiment	-0.0954
-4.5815 gentleman	-0.0943
-4.5815 gentlemen	-0.0929
-4.5815 genèse	-0.0783
-3.3507 george	-0.1015
-4.5815 georges	-0.0863
-4.2801 germain	-0.0860
-4.5815 geste	-0.0960
-4.1040 gesticulatoire	-0.0892
-4.5815 giboyeux	-0.0863
-4.5815 gifle	-0.0884
-4.5815 gigot	-0.0863
-4.2801 gigue	-0.0878
-4.5815 gilets	-0.0912
-4.5815 glace	-0.0943
-4.5815 glaces	-0.0960
-4.5815 glacialité	-0.0960
-4.5815 glaçait	-0.0941
-4.5815 glisse	-0.0859
-4.5815 glissement	-0.0960
-4.5815 glisseras	-0.0879
-4.5815 glissèrent	-0.0960
-4.5815 glissé	-0.0925
-4.5815 gobai	-0.0947
-4.5815 gobbler	-0.0860
-4.5815 gobes	-0.0939
-4.5815 goinfre	-0.0939
-3.8822 gommeux	-0.0827
-4.5815 gonfalonier	-0.0783
-4.2801 good	-0.2674
-4.5815 gorge	-0.0783
-4.5815 gosiers	-0.0960
-4.2801 gosse	-0.0827
-4.5815 gosses	-0.0940
-4.5815 gotha	-0.0959
-4.5815 goutte	-0.0954
-4.2801 gouvernante	-0.0918
-4.2801 gouvernement	-0.0895
-4.5815 goût	-0.0863
-4.2801 grace	-0.0931
-4.2801 gracieux	-0.0959
-4.5815 grade	-0.0863
-4.5815 graduellement	-0.0958
-3.8030 grailly	-0.1380
-4.5815 grain	-0.0783
-4.5815 grammaire	-0.0879
-4.5815 grammes	-0.0863
-2.9279 grand	-0.1055
-3.0371 grande	-0.1755
-3.8030 grandes	-0.0956
-4.5815 grandeur	-0.0960
-3.4672 grands	-0.0855
-4.5815 granit	-0.0956
-4.2801 grappe	-0.2496
-4.2801 gras	-0.0863
-4.5815 gratifier	-0.0931
-4.2801 gratta	-0.2573
-4.5815 grattant	-0.0960
-4.5815 gratter	-0.0943
-3.8030 grave	-0.0702
-3.9791 gravement	-0.0738
-3.9791 graves	-0.1572
-3.9791 graveur	-0.5670
-4.2801 gravité	-0.0879
-4.5815 gravure	-0.0863
-4.5815 gravé	-0.0940
-4.5815 grec	-0.0960
-4.1040 grecques	-0.0800
-4.5815 grecs	-0.0960
-4.5815 grelottent	-0.0859
-4.5815 grenadine	-0.0957
-4.5815 grenouille	-0.0957
-4.5815 grillais	-0.0932
-4.5815 grimpa	-0.0960
-4.2801 grimpé	-0.0907
-4.5815 grincer	-0.0960
-4.5815 grincha	-0.0957
-4.5815 grincheux	-0.0957
-4.5815 grippe	-0.0943
-4.2801 gris	-0.0863
-4.5815 grives	-0.0954
-4.5815 grogna	-0.0942
-4.5815 grognements	-0.0783
-4.5815 grognon	-0.0863
-3.9791 groin	-0.0738
-4.5815 grommelant	-0.0901
-4.5815 gronder	-0.0959
-3.2194 gros	-0.1718
-4.5815 grosclaude	-0.0960
-3.7361 grosse	-0.0950
-4.2801 grosses	-0.0959
-3.8822 groupe	-0.1288
-4.2801 groupes	-0.0949
-4.5815 grue	-0.0859
-3.5812 grâce	-0.1848
-4.5815 grève	-0.0902
-4.5815 grèves	-0.0939
-4.5815 gré	-0.0901
-4.2801 guerre	-0.0783
-4.5815 guerrier	-0.0960
-3.9791 gueule	-0.0846
-4.2801 guigne	-0.0859
-4.5815 guilbert	-0.0783
-4.2801 guitare	-0.0873
-4.5815 gustave	-0.0960
-4.5815 gutta	-0.0960
-3.1340 guy	-0.1811
-3.8822 guéri	-0.0848
-4.2801 guérir	-0.0896
-4.5815 guéris	-0.0959
-4.5815 guérisons	-0.0912
-4.5815 guérissez	-0.0943
-4.5815 guérite	-0.0960
-4.5815 guêpe	-0.0954
-4.5815 gymnastique	-0.0957
-4.5815 gâte	-0.0955
-4.5815 gâteaux	-0.0932
-4.5815 gâté	-0.0783
-4.5815 gâtée	-0.0947
-3.8822 géant	-0.4137
-4.5815 gémissais	-0.0925
-4.5815 gémissements	-0.0960
-4.5815 gémît	-0.0919
-4.2801 génial	-0.0762
-4.5815 géniale	-0.0959
-4.1040 génie	-0.0889
-3.8030 général	-0.1266
-4.1040 générale	-0.0831
-3.9791 généralement	-0.0750
-4.5815 génération	-0.0956
-4.5815 généreuse	-0.0931
-4.2801 génésiaque	-0.0932
-4.5815 géographe	-0.0884
-4.1040 géographie	-0.0933
-4.2801 géraniums	-0.0887
-4.5815 gênante	-0.0919
-4.5815 gênent	-0.0919
-4.1040 gêner	-0.0899
-4.5815 gêné	-0.0925
-4.5815 gênée	-0.0916
-4.2801 h	-0.0942
-4.5815 ha	-0.0940
-4.5815 habilement	-0.0960
-4.5815 habileté	-0.0956
-4.5815 habiller	-0.0859
-4.5815 habillé	-0.0954
-4.5815 habillées	-0.0960
-4.5815 habitais	-0.0960
-4.1040 habitants	-0.1785
-4.5815 habite	-0.0912
-4.5815 habitua	-0.0879
-3.9791 habitude	-0.0796
-4.5815 habituel	-0.0783
-4.5815 habituer	-0.0959
-4.2801 habitués	-0.0846
-4.5815 habitée	-0.0947
-4.5815 haleine	-0.0946
-4.5815 haletaient	-0.0901
-4.1040 hall	-0.0928
-4.5815 halls	-0.0947
-4.5815 halte	-0.0951
-4.5815 hanches	-0.0863
-4.5815 hand	-0.0897
-4.5815 hanneton	-0.0783
-4.5815 harcourt	-0.0959
-4.5815 hardes	-0.0937
-4.5815 hargneux	-0.0958
-4.5815 haricots	-0.0863
-4.2801 harmonie	-0.2632
-3.8030 hasard	-0.1182
-4.5815 hasardai	-0.0879
-4.5815 haussa	-0.0960
-4.5815 haussait	-0.0943
-4.5815 hausse	-0.0960
-4.5815 hausser	-0.0901
-3.5398 haut	-0.2153
-3.8822 haute	-0.0958
-4.5815 hautes	-0.0960
-4.1040 hauteur	-0.0730
-4.1040 hauts	-0.0783
-4.5815 havrais	-0.0937
-4.2801 havre	-0.0682
-3.8030 hein	-0.0806
-4.5815 helvète	-0.0957
-4.2801 helvétie	-0.0855
-4.1040 henri	-0.1999
-4.2801 henry	-0.0911
-4.2801 hercule	-0.2674
-4.5815 hermétiquement	-0.0960
-3.9791 hervé	-0.1550
-3.3770 heure	-0.0934
-3.2801 heures	-0.2212
-3.7361 heureusement	-0.1816
-3.5812 heureux	-0.0655
-4.5815 hideux	-0.0960
-3.8822 hier	-0.0648
-4.5815 hilarité	-0.0863
-4.5815 hippiques	-0.0863
-4.5815 hirondelles	-0.0947
-4.5815 his	-0.0960
-4.5815 hissa	-0.0943
-3.1498 histoire	-0.0805
-4.2801 histoires	-0.0875
-4.5815 historique	-0.0783
-3.9791 hiver	-0.0856
-4.2801 hoc	-0.0952
-4.2801 hollandais	-0.0764
-4.5815 homicide	-0.0783
-2.8822 homme	-0.0456
-3.3770 hommes	-0.0806
-4.2801 honfleur	-0.0801
-3.9791 honneau	-0.2900
-3.6269 honneur	-0.0854
-3.8822 honnête	-0.1510
-4.5815 honorable	-0.0863
-4.5815 honore	-0.0947
-4.5815 honte	-0.0960
-4.5815 honteux	-0.0783
-4.5815 horizontale	-0.0863
-4.5815 horizontalement	-0.0960
-4.2801 horloger	-0.0867
-4.5815 horlogerie	-0.0879
-3.9791 horreur	-0.1645
-3.8822 hors	-0.4007
-4.5815 hospitalière	-0.0939
-4.5815 hostellerie	-0.0901
-4.5815 hostiles	-0.0783
-4.5815 hostilité	-0.0953
-4.5815 houilles	-0.0879
-4.2801 houlbec	-0.0933
-4.5815 houppelande	-0.0943
-3.6269 hue	-0.0701
-3.8030 hui	-0.0810
-4.2801 huissier	-0.0869
-3.6269 huit	-0.3775
-4.5815 humain	-0.0960
-4.5815 humaine	-0.0956
-4.5815 humains	-0.0929
-3.9791 humanité	-0.0714
-3.9791 humble	-0.0960
-3.9791 hume	-0.5670
-4.5815 humecteurs	-0.0953
-3.8030 humeur	-0.1300
-4.1040 humide	-0.0777
-4.5815 hure	-0.0932
-4.5815 hurlai	-0.0902
-4.5815 hurlements	-0.0912
-4.5815 hurleurs	-0.0960
-3.4350 hurlotte	-0.0764
-4.5815 hurrah	-0.0960
-4.5815 huyotson	-0.0863
-4.5815 hydrogène	-0.0783
-4.2801 hymen	-0.0940
-4.5815 hyménéennes	-0.0884
-4.5815 hyperboloïdes	-0.0901
-4.2801 hyène	-0.0931
-4.2801 hâte	-0.0953
-4.5815 hé	-0.0960
-3.9791 hélas	-0.0692
-4.5815 héliotrope	-0.0859
-4.2801 hélène	-0.2592
-4.2801 hémisphères	-0.0939
-3.9791 héraldique	-0.1666
-4.5815 héritage	-0.0944
-4.5815 hériter	-0.0959
-4.1040 héritier	-0.0877
-4.5815 hérité	-0.0901
-4.5815 héros	-0.0960
-4.5815 hérédité	-0.0931
-4.5815 hérésies	-0.0953
-4.5815 hésita	-0.0919
-4.2801 hésitai	-0.0783
-4.5815 hésité	-0.0879
-4.2801 hétéroclite	-0.0818
-4.5815 hétéroclites	-0.0960
-4.2801 hôpital	-0.0894
-4.5815 hôpitaux	-0.0919
-3.9791 hôte	-0.1537
-3.3507 hôtel	-0.2019
-4.5815 hôtelière	-0.0932
-4.5815 hôtels	-0.0783
-4.5815 hôtesse	-0.0783
-4.1040 i	-0.0901
-3.6269 ici	-0.1560
-4.5815 idees	-0.0960
-4.5815 idiome	-0.0783
-3.9791 idiot	-0.0782
-4.5815 idiotes	-0.0863
-4.2801 idiots	-0.0909
-4.5815 idylle	-0.0958
-4.5815 idéal	-0.0863
-3.0130 idée	-0.1842
-4.1040 idées	-0.0875
-4.5815 ier	-0.0940
-4.5815 ignoble	-0.0863
-4.2801 ignorais	-0.0879
-4.5815 ignorait	-0.0863
-4.2801 ignorance	-0.0682
-4.5815 ignore	-0.0863
-4.5815 ignoré	-0.0959
-4.2801 ii	-0.0956
-4.2801 iii	-0.0947
-1.8677 il	-0.3867
-4.5815 illico	-0.0943
-4.5815 illusion	-0.0953
-4.5815 illustrèrent	-0.0940
-2.7361 ils	-0.2830
-4.2801 image	-0.0772
-4.5815 imagination	-0.0960
-4.5815 imagine	-0.0957
-4.5815 imaginer	-0.0958
-3.8822 imaginez	-0.6618
-4.5815 imaginé	-0.0960
-4.2801 imbéciles	-0.0783
-4.5815 immaculation	-0.0939
-3.8822 immense	-0.1566
-4.5815 immeuble	-0.0916
-4.5815 imminentes	-0.0960
-4.5815 immobile	-0.0939
-4.2801 immédiate	-0.0908
-4.2801 immédiatement	-0.0884
-4.5815 impassiblement	-0.0940
-4.2801 impatience	-0.0761
-4.5815 impatientée	-0.0783
-4.5815 impeccable	-0.0783
-4.5815 imperceptiblement	-0.0901
-4.2801 impertinents	-0.0783
-4.5815 imperturbable	-0.0897
-4.5815 imperturbablement	-0.0960
-4.2801 impitoyable	-0.0783
-4.5815 impitoyablement	-0.0960
-4.5815 importait	-0.0860
-4.1040 importance	-0.0943
-4.2801 important	-0.0939
-4.2801 importante	-0.0959
-4.5815 importantes	-0.0960
-3.8030 importe	-0.0728
-4.2801 impossible	-0.0941
-4.2801 imprimer	-0.0843
-4.5815 improviste	-0.0902
-4.2801 improvisé	-0.0882
-4.5815 imprudent	-0.0902
-4.5815 imprévu	-0.0912
-4.5815 impulser	-0.0959
-4.5815 impériale	-0.0912
-4.2801 inaccoutumé	-0.0952
-4.5815 inaccoutumée	-0.0939
-4.2801 inanimés	-0.0957
-4.5815 inaperçu	-0.0919
-4.5815 inattendu	-0.0960
-4.5815 inaugurée	-0.0943
-4.5815 incendiai	-0.0955
-4.5815 incessante	-0.0959
-4.5815 incisions	-0.0897
-4.5815 incitait	-0.0879
-4.5815 inclina	-0.0958
-4.5815 inclination	-0.0940
-4.5815 incline	-0.0879
-4.2801 incoercible	-0.0939
-4.1040 incohérents	-0.2004
-4.5815 incomptable	-0.0783
-4.5815 inconnu	-0.0783
-4.5815 inconstante	-0.0949
-4.5815 inconvénient	-0.0902
-4.5815 incorporation	-0.0859
-4.5815 incorrecte	-0.0960
-4.5815 incroyable	-0.0783
-4.5815 incroyables	-0.0783
-4.2801 inculquer	-0.0839
-4.5815 incurable	-0.0937
-4.5815 indes	-0.0942
-4.5815 indication	-0.0940
-4.5815 indiffèrent	-0.0959
-4.5815 indifférence	-0.0879
-4.5815 indifférent	-0.0902
-4.5815 indifférente	-0.0929
-4.5815 indifférents	-0.0960
-4.5815 indigence	-0.0863
-4.2801 indignation	-0.0863
-4.5815 indigné	-0.0783
-4.5815 indigènes	-0.0960
-4.5815 indiquait	-0.0859
-4.5815 indique	-0.0939
-4.2801 indiquer	-0.0909
-4.5815 indiquée	-0.0897
-4.5815 indirect	-0.0952
-4.5815 indirectes	-0.0960
-4.5815 indispensable	-0.0953
-4.5815 indisposé	-0.0942
-4.5815 individu	-0.0945
-4.5815 indulgence	-0.0916
-3.9791 industrie	-0.0859
-4.2801 infanterie	-0.2674
-4.1040 infernal	-0.0860
-4.2801 infidèle	-0.0722
-4.5815 infinie	-0.0783
-3.8822 infiniment	-0.0926
-4.5815 infligeât	-0.0860
-4.5815 influencer	-0.0901
-4.1040 informa	-0.0702
-4.5815 informai	-0.0912
-4.5815 informaient	-0.0783
-4.1040 informer	-0.1831
-4.2801 informé	-0.0900
-4.5815 informées	-0.0919
-4.5815 infortune	-0.0936
-4.1040 infortuné	-0.0956
-4.5815 infâme	-0.0860
-4.2801 inférieur	-0.0842
-4.5815 ingénieur	-0.0960
-4.1040 ingénieuse	-0.0863
-4.1040 ingénieux	-0.0863
-4.5815 ingéniosité	-0.0933
-4.5815 ingénue	-0.0942
-4.5815 ingénus	-0.0929
-4.5815 inhabituelle	-0.0960
-4.2801 innocent	-0.2615
-4.5815 innocente	-0.0960
-3.8822 innombrables	-0.0821
-4.5815 inoccupé	-0.0960
-4.5815 inoffensif	-0.0956
-4.5815 inonda	-0.0960
-4.5815 inondé	-0.0783
-4.5815 inopinément	-0.0925
-4.2801 inouïe	-0.0780
-4.1040 inquiet	-0.0574
-4.5815 inquiète	-0.0860
-4.2801 inquiétant	-0.0902
-4.5815 inquiétantes	-0.0939
-4.2801 inquiéter	-0.2496
-4.5815 inquiétude	-0.0960
-4.5815 inquiétudes	-0.0939
-4.2801 insalubre	-0.0843
-4.5815 insane	-0.0960
-4.5815 insanité	-0.0960
-4.5815 insensible	-0.0879
-4.5815 insensibles	-0.0960
-4.2801 insistai	-0.0860
-4.5815 insistais	-0.0901
-4.5815 insolence	-0.0960
-4.5815 insolente	-0.0941
-4.5815 insolite	-0.0931
-3.8030 inspecteur	-0.0736
-4.5815 inspection	-0.0960
-4.5815 inspiré	-0.0960
-4.5815 installa	-0.0925
-4.2801 installait	-0.0883
-4.5815 installation	-0.0958
-4.5815 installent	-0.0960
-4.2801 installer	-0.0924
-4.5815 installèrent	-0.0960
-4.5815 installé	-0.0863
-4.5815 installés	-0.0943
-3.8030 instant	-0.0751
-4.2801 instants	-0.0888
-4.5815 instar	-0.0783
-4.5815 instinct	-0.0863
-4.2801 instinctive	-0.0910
-4.2801 institut	-0.0857
-4.2801 institutrice	-0.0887
-4.5815 instruction	-0.0912
-4.5815 instruite	-0.0950
-3.7361 instrument	-0.0551
-4.5815 instruments	-0.0783
-4.5815 insuffisant	-0.0940
-4.5815 insulaire	-0.0916
-4.5815 insultait	-0.0919
-4.5815 inséparables	-0.0958
-4.5815 inséré	-0.0863
-4.5815 intelligence	-0.0919
-4.5815 intelligent	-0.0960
-4.5815 intention	-0.0783
-4.2801 interdit	-0.0775
-4.5815 interloqué	-0.0960
-4.5815 interloqués	-0.0912
-4.2801 interminable	-0.0959
-4.5815 interminables	-0.0960
-4.5815 intermède	-0.0936
-4.5815 international	-0.0960
-4.5815 interposez	-0.0957
-4.2801 interrogateur	-0.0901
-4.5815 interroge	-0.0943
-4.2801 interrogea	-0.0914
-4.5815 interrogeai	-0.0927
-4.5815 interrogeait	-0.0960
-4.5815 interroger	-0.0859
-4.5815 interrompait	-0.0783
-4.2801 interrompit	-0.0858
-4.5815 interrompre	-0.0958
-4.5815 interromps	-0.0943
-4.5815 interrompus	-0.0960
-4.5815 intervalles	-0.0960
-4.5815 intervient	-0.0863
-4.5815 intimes	-0.0939
-4.5815 intriguait	-0.0955
-4.5815 introduire	-0.0925
-4.5815 introduisait	-0.0925
-4.1040 introduisit	-0.1989
-4.5815 introduit	-0.0925
-4.5815 intrépide	-0.0960
-4.5815 intéressa	-0.0960
-4.5815 intéressait	-0.0901
-4.5815 intéressant	-0.0902
-4.5815 intéressante	-0.0939
-4.5815 intéresse	-0.0863
-4.5815 intéresser	-0.0940
-4.5815 intéressée	-0.0960
-3.9791 intérieur	-0.0780
-4.2801 intérieurs	-0.0943
-3.8030 intérêt	-0.0802
-4.2801 intérêts	-0.0737
-3.9791 inutile	-0.5493
-4.5815 inutilité	-0.0960
-4.5815 inventer	-0.0901
-4.5815 inventif	-0.0932
-3.5020 invention	-0.1138
-4.2801 inventions	-0.0750
-3.9791 inventé	-0.0739
-4.5815 invincible	-0.0937
-4.2801 invita	-0.0878
-4.5815 invitai	-0.0960
-4.5815 invitation	-0.0879
-4.5815 invitations	-0.0953
-3.9791 invité	-0.1616
-4.2801 invités	-0.0875
-4.5815 invraisemblable	-0.0860
-4.5815 inégaux	-0.0939
-4.5815 inéluctable	-0.0931
-4.5815 ira	-0.0897
-4.5815 irais	-0.0860
-4.5815 irait	-0.0940
-4.5815 iras	-0.0940
-4.5815 irlandais	-0.0960
-4.5815 ironie	-0.0938
-4.5815 ironique	-0.0957
-4.5815 ironiquement	-0.0959
-4.5815 irons	-0.0919
-4.5815 irrémédiables	-0.0939
-4.5815 irréparable	-0.0942
-4.5815 irréprochablement	-0.0960
-4.2801 irrésistible	-0.0914
-4.5815 irrésistiblement	-0.0902
-4.5815 isdahl	-0.0859
-4.5815 israélite	-0.0902
-4.2801 it	-0.2651
-4.5815 iv	-0.0957
-4.2801 ivoire	-0.0912
-4.5815 ivre	-0.0959
-4.5815 ivres	-0.0960
-2.3001 j	-0.5333
-4.5815 jadis	-0.0945
-4.1040 jalousie	-0.0866
-4.5815 jalousies	-0.0960
-4.1040 jaloux	-0.0714
-2.7423 jamais	-0.0452
-4.2801 jambe	-0.0959
-4.1040 jambes	-0.0804
-4.5815 jambonneaux	-0.0955
-4.1040 janvier	-0.0917
-3.8822 japonais	-0.0685
-4.5815 japonaises	-0.0959
-4.2801 jaquette	-0.0959
-3.6781 jardin	-0.1029
-4.2801 jardinier	-0.0925
-4.5815 jargons	-0.0956
-4.5815 jarretières	-0.0960
-4.5815 jatte	-0.0958
-4.5815 jatte_	-0.0960
-3.9791 jaune	-0.0908
-4.5815 jaunes	-0.0960
-4.5815 jauni	-0.0937
-4.5815 jaunissent	-0.0938
-4.2801 java	-0.0824
-1.8744 je	-0.4061
-3.8030 jeta	-0.2185
-4.5815 jetai	-0.0884
-4.5815 jetait	-0.0783
-4.5815 jeter	-0.0879
-4.5815 jette	-0.0925
-4.5815 jettent	-0.0925
-4.5815 jettes	-0.0901
-4.5815 jeté	-0.0939
-4.2801 jetée	-0.0698
-3.8030 jeu	-0.1190
-3.7361 jeudi	-0.1132
-4.5815 jeun	-0.0863
-2.6174 jeune	-0.5208
-3.3024 jeunes	-0.4290
-4.2801 jeunesse	-0.0829
-4.2801 joe	-0.0824
-4.2801 johanson	-0.0827
-3.6781 joie	-0.0571
-4.5815 joies	-0.0960
-4.5815 joignait	-0.0897
-3.2387 joli	-0.2269
-3.0130 jolie	-0.1746
-4.2801 jolies	-0.0957
-3.9791 joliment	-0.0806
-3.8030 jolis	-0.0856
-4.5815 jonchait	-0.0859
-4.5815 jonchant	-0.0859
-4.5815 jonchèrent	-0.0959
-4.5815 joris	-0.0960
-4.5815 josse	-0.0956
-4.2801 jouait	-0.0923
-3.8030 jouard	-0.0743
-4.5815 joue	-0.0951
-4.2801 jouer	-0.0823
-3.9791 joues	-0.0957
-4.5815 jouet	-0.0783
-4.5815 jouir	-0.0943
-4.5815 jouit	-0.0925
-4.5815 joujou	-0.0863
-4.2801 joujoux	-0.0682
-2.8103 jour	-0.1891
-4.5815 journalistes	-0.0783
-4.5815 journaux	-0.0783
-3.3507 journée	-0.1051
-4.5815 journées	-0.0929
-3.0760 jours	-0.3212
-4.5815 jouvence	-0.0902
-4.2801 joué	-0.0858
-4.1040 joyeuse	-0.0846
-3.8822 joyeux	-0.0956
-4.5815 judicieuse	-0.0912
-4.5815 judicieusement	-0.0943
-4.5815 juge	-0.0783
-4.5815 jugeait	-0.0939
-4.5815 jugement	-0.0783
-3.8030 juillet	-0.1210
-4.5815 jules	-0.0960
-4.2801 julius	-0.2673
-3.4350 jumet	-0.1488
-4.2801 jumièges	-0.0931
-4.5815 jungle	-0.0897
-4.5815 jupon	-0.0955
-4.1040 jura	-0.1826
-4.1040 jure	-0.0890
-4.5815 jurer	-0.0957
-3.8030 jury	-0.1305
-4.1040 juré	-0.0626
-4.5815 jurés	-0.0783
-3.4350 jusqu	-0.8605
-3.9791 jusque	-0.3037
-3.8822 juste	-0.1376
-3.5812 justement	-0.1387
-3.9791 k	-0.0898
-4.5815 kilos	-0.0884
-4.5815 kiosques	-0.0879
-4.5815 képi	-0.0942
-1.8353 l	-0.2849
-1.6386 la	-0.3291
-4.1040 laboratoire	-0.0840
-4.5815 lacédémonienne	-0.0941
-4.5815 ladite	-0.0959
-4.5815 laffitte	-0.0863
-3.2194 laflemme	-0.0359
-4.2801 lah	-0.0836
-4.5815 laid	-0.0863
-4.5815 laine	-0.0960
-4.5815 laissa	-0.0960
-4.1040 laissait	-0.0918
-4.5815 laissant	-0.0879
-4.2801 laisse	-0.0871
-3.8822 laisser	-0.0947
-4.1040 laissez	-0.2015
-4.5815 laissé	-0.0943
-4.2801 lait	-0.0883
-4.5815 lampe	-0.0943
-4.2801 lampes	-0.0868
-3.6781 lampiste	-0.1046
-4.1040 lance	-0.0796
-4.5815 lancé	-0.0860
-4.5815 lande	-0.0960
-4.2801 langage	-0.0960
-4.1040 langue	-0.0884
-4.5815 lanterne	-0.0863
-4.5815 lança	-0.0947
-4.2801 lapin	-0.2576
-4.5815 lapins	-0.0783
-4.5815 laps	-0.0960
-3.5812 laquelle	-0.1411
-3.9791 large	-0.0709
-4.2801 larges	-0.2673
-4.5815 largeurs	-0.0902
-4.2801 larme	-0.0878
-3.8822 larmes	-0.0708
-4.5815 las	-0.0919
-4.2801 lascars	-0.0957
-4.5815 lassait	-0.0919
-4.5815 lasserait	-0.0953
-3.6781 latin	-0.0813
-4.5815 latins	-0.0942
-4.5815 laughs	-0.0960
-4.2801 lauréats	-0.0940
-4.5815 lautars	-0.0860
-4.5815 lavement	-0.0960
-4.5815 lavements	-0.0957
-4.2801 laï	-0.2674
-1.6382 le	-0.3391
-3.6269 lecoq	-0.9999
-4.2801 lecteur	-0.0940
-4.2801 lecteurs	-0.0783
-4.5815 lectrices	-0.0960
-4.5815 lecture	-0.0932
-4.5815 leicester	-0.0960
-3.5020 lemballeur	-0.1019
-3.2009 lendemain	-0.0988
-3.9791 lentement	-0.0830
-3.8030 lequel	-0.0810
-1.8635 les	-0.2361
-4.5815 lesquelles	-0.0960
-3.6781 lettre	-0.0515
-3.9791 lettres	-0.1582
-2.9184 leur	-0.0984
-3.2387 leurs	-0.1085
-4.2801 leva	-0.0760
-4.1040 levai	-0.1943
-4.2801 levait	-0.0942
-4.5815 levallois	-0.0860
-3.9791 lever	-0.0758
-4.5815 levé	-0.0863
-4.5815 levée	-0.0897
-4.5815 levés	-0.0959
-3.9791 leçon	-0.0827
-4.2801 leçons	-0.0843
-4.5815 lia	-0.0901
-4.5815 libellerait	-0.0859
-4.5815 libellé	-0.0901
-4.5815 libellée	-0.0960
-4.5815 libre	-0.0960
-4.5815 libéral	-0.0955
-4.2801 lient	-0.0898
-4.5815 lier	-0.0960
-3.7361 lieu	-0.3969
-4.5815 life	-0.0957
-4.5815 life_	-0.0956
-3.9791 ligne	-0.0836
-4.2801 lily	-0.0859
-4.5815 limace	-0.0959
-4.5815 limite	-0.0783
-4.5815 limonadier	-0.0945
-4.5815 lin	-0.0959
-4.5815 linceul	-0.0912
-4.5815 linge	-0.0783
-4.5815 lions	-0.0783
-4.1040 liquide	-0.0959
-3.8822 lire	-0.0592
-3.8822 lis	-0.2407
-4.5815 lisait	-0.0897
-4.5815 lisser	-0.0912
-3.8030 lister	-0.1254
-3.7361 lit	-0.0585
-4.1040 littéralement	-0.0954
-4.5815 littérature	-0.0957
-4.5815 livide	-0.0783
-4.5815 livides	-0.0960
-4.5815 livraient	-0.0860
-4.5815 livrasse	-0.0897
-4.1040 livre	-0.0781
-4.2801 livrer	-0.0776
-4.2801 livres	-0.0682
-4.2801 livret	-0.0960
-4.5815 lié	-0.0960
-4.5815 liées	-0.0937
-4.5815 local	-0.0912
-4.2801 localité	-0.0931
-4.5815 locomotive	-0.0955
-4.5815 logeait	-0.0959
-4.2801 logement	-0.0862
-4.5815 logette	-0.0954
-4.2801 logique	-0.0902
-4.5815 logiques	-0.0960
-3.9791 logis	-0.0822
-4.5815 logé	-0.0958
-4.2801 loi	-0.0857
-3.6781 loin	-0.1974
-4.5815 lointain	-0.0960
-4.5815 lointaine	-0.0960
-4.5815 lois	-0.0912
-4.5815 london	-0.0938
-4.1040 londres	-0.0832
-4.5815 londrès	-0.0943
-3.6781 long	-0.1007
-4.2801 longs	-0.0960
-3.3770 longtemps	-0.1129
-3.6781 longue	-0.0673
-3.9791 longuement	-0.1530
-4.2801 longues	-0.0960
-4.1040 longueur	-0.1996
-4.5815 lorgnette	-0.0960
-4.2801 lors	-0.0849
-4.1040 lorsqu	-0.0880
-4.5815 lorsque	-0.0902
-4.5815 lotie	-0.0783
-4.5815 lotion	-0.0863
-4.5815 louer	-0.0925
-4.5815 loufoque	-0.0959
-4.5815 loufoques	-0.0912
-3.3770 louis	-0.1098
-4.5815 loup	-0.0783
-4.5815 loupe	-0.0939
-4.1040 lourde	-0.0841
-4.2801 loué	-0.0837
-4.5815 loyalement	-0.0960
-4.5815 loyer	-0.0879
-4.2801 lucius	-0.2674
-4.5815 ludovic	-0.0958
-4.2801 lueur	-0.0783
-4.5815 lugubre	-0.0901
-4.5815 lugubres	-0.0863
-2.3908 lui	-0.0830
-4.2801 luire	-0.0843
-4.5815 luisaient	-0.0916
-4.5815 luisait	-0.0860
-4.2801 luisant	-0.0682
-4.2801 lumière	-0.0908
-4.5815 lunaires	-0.0863
-4.5815 lundi	-0.0958
-4.5815 lune	-0.0960
-4.1040 lunerie	-0.0851
-4.5815 luxembourg	-0.0859
-4.5815 luxueuses	-0.0960
-4.5815 lycée	-0.0958
-2.6517 là	-0.1053
-4.2801 lâche	-0.0858
-4.5815 lâcherais	-0.0943
-4.5815 lèvre	-0.0960
-4.5815 lèvres	-0.0783
-4.5815 lécher	-0.0901
-4.5815 légende	-0.0932
-4.5815 légendes	-0.0960
-4.5815 légers	-0.0932
-4.5815 légitime	-0.0960
-4.1040 légèrement	-0.0783
-4.5815 lévy	-0.0960
-2.4198 m	-0.2003
-2.6835 ma	-0.2638
-4.5815 maboul	-0.0959
-3.9791 mabrize	-0.0896
-4.5815 machiavélisme	-0.0960
-4.5815 machinal	-0.0959
-4.1040 machines	-0.0844
-4.5815 macère	-0.0952
-3.5020 madame	-0.1727
-4.5815 madone	-0.0863
-4.2801 madrigal	-0.0955
-3.5020 magasin	-0.0441
-4.5815 magasins	-0.0954
-4.5815 magistral	-0.0943
-4.5815 magistrature	-0.0916
-4.5815 mahrnoud_	-0.0960
-4.5815 maigres	-0.0960
-4.5815 maigri	-0.0912
-4.5815 maigriot	-0.0960
-3.1662 main	-0.0779
-3.5812 mains	-0.0945
-3.4672 maintenant	-0.0562
-4.5815 maintient	-0.0943
-4.1040 maintint	-0.0925
-4.1040 maire	-0.0827
-4.2801 mairie	-0.0834
-2.3140 mais	-0.1343
-3.2801 maison	-0.0779
-3.8030 maisons	-0.0696
-4.2801 majesté	-0.0932
-3.6781 major	-0.0794
-4.5815 majorité	-0.0941
-3.1498 mal	-0.0982
-3.5398 malade	-0.2298
-4.2801 malades	-0.0798
-3.8030 maladie	-0.0782
-4.5815 maladies	-0.0863
-4.5815 maladroit	-0.0939
-4.5815 malentendu	-0.0959
-4.5815 malentendus	-0.0960
-3.8822 malfaiteur	-0.0877
-3.6269 malgré	-0.1418
-3.8822 malheur	-0.0743
-4.5815 malheureuse	-0.0956
-3.8822 malheureusement	-0.0715
-3.8030 malheureux	-0.0787
-3.9791 malin	-0.2526
-4.5815 malins	-0.0960
-4.5815 malles	-0.0960
-4.5815 malpropre	-0.0912
-4.5815 malpropres	-0.0956
-4.5815 malséant	-0.0863
-4.5815 malveillant	-0.0960
-3.7361 mam	-0.4445
-3.5812 maman	-0.1097
-4.1040 manche	-0.1947
-4.5815 manches	-0.0863
-4.5815 manchettes	-0.0960
-4.5815 mandat	-0.0912
-4.5815 mande	-0.0879
-4.5815 mandoline	-0.0960
-4.2801 mangea	-0.0954
-4.2801 mangeant	-0.0836
-4.5815 mangent	-0.0879
-4.2801 manger	-0.0821
-4.5815 mangé	-0.0859
-4.1040 maniaque	-0.0902
-4.1040 manie	-0.0914
-4.1040 manifesta	-0.0805
-4.5815 manifestant	-0.0783
-4.2801 manifestation	-0.0732
-4.5815 manifeste	-0.0960
-4.5815 manifester	-0.0783
-4.5815 manitou	-0.0863
-4.5815 manivelle	-0.0943
-3.8030 manière	-0.4854
-4.5815 manières	-0.0960
-4.5815 manqua	-0.0863
-4.5815 manquai	-0.0919
-4.5815 manquait	-0.0912
-3.8822 manque	-0.1298
-4.5815 manquent	-0.0959
-4.5815 manqué	-0.0859
-4.5815 mansarde	-0.0859
-4.5815 mansuétude	-0.0931
-4.5815 manteaux	-0.0960
-3.9791 manège	-0.0893
-4.5815 marbre	-0.0960
-4.2801 marbres	-0.0863
-4.1040 marcha	-0.0939
-4.5815 marchaient	-0.0942
-4.5815 marchait	-0.0943
-3.9791 marchand	-0.5493
-4.5815 marchandise	-0.0943
-4.5815 marchands	-0.0783
-4.5815 marchant	-0.0960
-4.5815 marche	-0.0783
-3.6269 marché	-0.0522
-4.2801 mardi	-0.0938
-4.5815 margarita	-0.0936
-3.5398 marguerite	-0.0718
-3.5020 mari	-0.0692
-3.8822 mariage	-0.0838
-3.4051 marie	-0.0677
-4.5815 marierait	-0.0783
-4.2801 marin	-0.0841
-4.2801 marié	-0.0915
-4.2801 mariée	-0.0884
-4.5815 mariées	-0.0916
-4.5815 mariés	-0.0958
-4.5815 marmotte	-0.0960
-4.5815 marne	-0.0863
-4.5815 marquait	-0.0960
-4.2801 marque	-0.0859
-4.5815 marquis	-0.0783
-4.2801 marseillais	-0.0862
-4.5815 maréchal	-0.0919
-4.1040 marée	-0.1995
-4.2801 marées	-0.0926
-4.2801 masque	-0.0721
-4.5815 masqué	-0.0863
-4.5815 masquée	-0.0863
-4.5815 masqués	-0.0943
-4.2801 massif	-0.0841
-4.5815 massifs	-0.0783
-4.5815 mastic	-0.0943
-4.5815 mastroquets	-0.0960
-4.5815 maternels	-0.0941
-4.5815 mathias	-0.0960
-3.2801 matin	-0.1263
-4.5815 matineux	-0.0960
-4.2801 matinée	-0.0698
-4.5815 matière	-0.0783
-4.5815 matières	-0.0960
-4.5815 maubeuge	-0.0884
-4.5815 maure	-0.0959
-4.5815 maurice	-0.0959
-4.5815 maussade	-0.0863
-3.8822 mauvais	-0.2551
-3.8822 mauvaise	-0.1561
-4.5815 maux	-0.0929
-4.5815 mayer	-0.0960
-4.5815 mazas	-0.0916
-3.8822 maître	-0.1526
-4.5815 maîtres	-0.0960
-3.6781 maîtresse	-0.0475
-2.2889 me	-0.1908
-4.5815 mechant	-0.0951
-4.5815 medecin	-0.0960
-4.5815 meeting	-0.0783
-4.1040 meilleur	-0.0907
-4.1040 meilleures	-0.0959
-3.8822 meilleurs	-0.0950
-4.5815 membre	-0.0783
-4.2801 membres	-0.0772
-4.5815 menaces	-0.0901
-4.5815 menait	-0.0940
-4.5815 mener	-0.0960
-4.5815 menons	-0.0863
-4.5815 mentais	-0.0919
-4.5815 mention	-0.0960
-4.5815 menton	-0.0884
-4.2801 menu	-0.0802
-4.5815 menus	-0.0960
-3.5020 mer	-0.0300
-4.5815 mercerie	-0.0879
-4.5815 mercier	-0.0960
-4.2801 mercredi	-0.0839
-4.5815 mergitur_	-0.0947
-4.5815 mermeix	-0.0954
-3.7361 merrycalf	-0.1242
-4.2801 merveille	-0.0759
-4.5815 merveilles	-0.0783
-4.5815 merveilleuses	-0.0960
-2.9091 mes	-0.1278
-4.2801 mesdames	-0.0862
-4.5815 mesdemoiselles	-0.0960
-4.5815 messeigneurs	-0.0958
-3.8822 messieurs	-0.0763
-4.5815 mesurait	-0.0919
-4.5815 mesures	-0.0960
-4.2801 met	-0.0833
-4.5815 mets	-0.0959
-4.5815 mettaient	-0.0958
-3.8822 mettait	-0.0780
-4.5815 mettant	-0.0925
-4.5815 mette	-0.0859
-3.9791 mettent	-0.5589
-4.5815 mettez	-0.0931
-4.5815 mettons	-0.0919
-4.5815 mettras	-0.0939
-3.6781 mettre	-0.1476
-4.2801 meubles	-0.0939
-4.5815 meublée	-0.0919
-4.5815 meurs	-0.0939
-4.5815 meurtrier	-0.0863
-4.5815 meurtriers	-0.0960
-4.5815 mexique	-0.0863
-4.2801 meyer	-0.0884
-4.5815 mezzo	-0.0960
-4.5815 mi	-0.0960
-4.1040 michel	-0.0801
-4.5815 microscopes	-0.0939
-4.5815 microscopique	-0.0901
-3.6269 midi	-0.0352
-3.8822 mie	-0.4035
-4.1040 mien	-0.0947
-3.9791 mienne	-0.1650
-3.3259 mieux	-0.0806
-4.5815 mignonne	-0.0942
-4.5815 mijotait	-0.0943
-3.9791 milieu	-0.0699
-3.8030 militaire	-0.0913
-4.2801 militaires	-0.0779
-3.3770 mille	-0.3014
-4.1040 milliards	-0.1796
-4.5815 milligramme	-0.0859
-4.5815 milligrammes	-0.0912
-4.5815 minable	-0.0960
-4.5815 mine	-0.0959
-4.5815 ministère	-0.0902
-4.2801 minuit	-0.0935
-4.2801 minuscule	-0.0938
-4.2801 minuscules	-0.0852
-3.7361 minute	-0.1505
-3.8822 minutes	-0.0751
-4.5815 minéral	-0.0952
-4.5815 miraculeuses	-0.0919
-4.2801 mirent	-0.2592
-3.5812 mis	-0.0881
-3.2801 miss	-0.2694
-3.9791 mission	-0.0787
-4.5815 misérables	-0.0958
-3.5020 mit	-0.0771
-4.5815 miteux	-0.0959
-4.5815 mitrailler	-0.0954
-3.7361 mitrailleuse	-0.1276
-4.5815 mlle	-0.0960
-4.2801 mm	-0.2673
-3.5020 mme	-0.4354
-4.5815 mobile	-0.0957
-4.5815 mobilier	-0.0960
-4.5815 mode	-0.0783
-4.2801 modeler	-0.2632
-4.5815 modelée	-0.0942
-4.2801 moderne	-0.0838
-4.5815 modernes	-0.0859
-3.9791 modeste	-0.0776
-4.5815 modestes	-0.0955
-4.5815 modifie	-0.0901
-4.5815 modiste	-0.0783
-3.9791 modèle	-0.0633
-2.6891 moi	-0.1312
-3.7361 moindre	-0.0949
-3.2194 moins	-0.1154
-4.5815 moirer	-0.0859
-3.5812 mois	-0.1460
-4.5815 moisi	-0.0863
-4.5815 moisira	-0.0919
-2.9684 moment	-0.2021
-2.3001 mon	-0.3316
-4.5815 monarque	-0.0933
-4.5815 monarques	-0.0960
-4.5815 mondanité	-0.0926
-3.1340 monde	-0.1604
-4.1040 monnaie	-0.0845
-4.2801 monnaies	-0.2673
-4.5815 monocotylédones	-0.0916
-4.5815 monologuait	-0.0959
-4.2801 monologue	-0.2652
-4.2801 monotone	-0.0836
-4.5815 monseigneur	-0.0859
-2.8488 monsieur	-0.1127
-4.5815 monstrueux	-0.0960
-4.2801 monta	-0.0698
-4.5815 montai	-0.0879
-4.1040 montcocasse	-0.0906
-4.1040 monte	-0.1960
-3.7361 monter	-0.1816
-3.6781 montmartre	-0.0729
-4.5815 montrai	-0.0860
-4.5815 montraient	-0.0859
-4.5815 montrais	-0.0939
-4.5815 montrait	-0.0959
-4.5815 montrant	-0.0859
-3.6269 montre	-0.0718
