#############################################################################
## Copyright (c) 1996, Carnegie Mellon University, Cambridge University,
## Ronald Rosenfeld and Philip Clarkson
#############################################################################
=============================================================================
===============  This file was produced by the CMU-Cambridge  ===============
===============     Statistical Language Modeling Toolkit     ===============
=============================================================================
This is a 3-gram language model, based on a vocabulary of 6942 words,
  which begins "1", "12", "14"...
This is an OPEN-vocabulary model (type 1)
  (OOVs were mapped to UNK, which is treated as any other vocabulary word)
Linear discounting was applied.
1-gram discounting ratio : 0.89032
2-gram discounting ratio : 0.439035
3-gram discounting ratio : 0.12138
This file is in the ARPA-standard format introduced by Doug Paul.

p(wd3|wd1,wd2)= if(trigram exists)           p_3(wd1,wd2,wd3)
                else if(bigram w1,w2 exists) bo_wt_2(w1,w2)*p(wd3|wd2)
                else                         p(wd3|w2)

p(wd2|wd1)= if(bigram exists) p_2(wd1,wd2)
            else              bo_wt_1(wd1)*p_1(wd2)

All probs and back-off weights (bo_wt) are given in log10 form.

Data formats:

Beginning of data mark: \data\
ngram 1=nr            # number of 1-grams
ngram 2=nr            # number of 2-grams
ngram 3=nr            # number of 3-grams

\1-grams:
p_1     wd_1 bo_wt_1
\2-grams:
p_2     wd_1 wd_2 bo_wt_2
\3-grams:
p_3     wd_1 wd_2 wd_3 

end of data mark: \end\

\data\
ngram 1=6943
ngram 2=25494
ngram 3=35247

\1-grams:
-4.5812 <UNK>	0.0000
-4.2802 1	-0.2317
-4.5812 12	-0.2495
-3.9791 14	-0.2510
-4.5812 145	-0.2333
-4.5812 15	-0.2494
-4.5812 1826	-0.2451
-4.5812 187	-0.2504
-4.2802 1878	-0.2425
-4.5812 188	-0.2410
-4.5812 1886	-0.2429
-3.9791 1889	-0.2363
-4.5812 1er	-0.2510
-4.5812 1º	-0.2453
-4.2802 2	-0.2456
-4.5812 20	-0.2494
-4.5812 2e	-0.2510
-4.5812 2º	-0.2434
-3.9791 3	-0.2259
-4.2802 31	-0.2510
-4.5812 37th	-0.2510
-4.5812 3e	-0.2482
-4.2802 4	-0.2504
-4.5812 5	-0.2510
-4.5812 59	-0.2508
-3.8822 6	-0.2473
-4.5812 7	-0.2511
-4.1041 8	-0.2509
-4.2802 80	-0.2393
-4.1041 81	-0.2457
-4.5812 86	-0.2451
-4.5812 9	-0.2511
-4.5812 90	-0.2510
-3.0371 _	-0.2117
-4.5812 _0	-0.2481
-4.5812 _albert	-0.2511
-4.2802 _alma	-0.2510
-4.5812 _amour	-0.2466
-4.5812 _black_	-0.2510
-4.5812 _buvons	-0.2410
-4.5812 _by	-0.2511
-4.5812 _c	-0.2476
-4.5812 _chemist	-0.2510
-4.5812 _chemist_	-0.2475
-4.1041 _comfortable_	-0.2509
-4.5812 _conscius	-0.2511
-4.5812 _deuils	-0.2511
-4.5812 _do	-0.2510
-4.5812 _donna	-0.2511
-4.5812 _défense	-0.2510
-4.5812 _english	-0.2511
-4.5812 _espoir	-0.2333
-4.5812 _et	-0.2497
-4.5812 _exclusively	-0.2511
-4.5812 _fluctuat	-0.2511
-4.5812 _good	-0.2511
-4.5812 _hold	-0.2511
-4.5812 _if	-0.2510
-4.5812 _l	-0.2511
-4.2802 _la	-0.2508
-4.5812 _mai	-0.2511
-4.5812 _mistress_	-0.2510
-4.5812 _my	-0.2511
-4.5812 _of	-0.2510
-4.5812 _on	-0.2486
-4.5812 _open	-0.2510
-4.5812 _or	-0.2506
-4.5812 _ou	-0.2410
-4.5812 _parfume	-0.2410
-4.5812 _quantum	-0.2511
-4.5812 _raram	-0.2511
-4.5812 _struggles	-0.2510
-4.5812 _surgeon	-0.2511
-4.5812 _that	-0.2511
-4.2802 _the	-0.2510
-4.5812 _truc	-0.2510
-4.5812 _we	-0.2511
-4.5812 _y	-0.2511
-4.5812 _yes	-0.2511
-2.3690 a	-0.1586
-4.5812 abandon	-0.2333
-4.5812 abandonnait	-0.2489
-4.5812 abandonnent	-0.2508
-4.5812 abandonner	-0.2434
-4.5812 abattaient	-0.2511
-4.5812 abattirent	-0.2493
-4.5812 abattit	-0.2511
-4.5812 abattoirs	-0.2333
-4.5812 abattu	-0.2497
-4.2802 abbé	-0.2410
-3.5812 abord	-0.2365
-4.5812 abraham	-0.2510
-4.5812 abri	-0.2510
-4.5812 abriteraient	-0.2451
-4.5812 abrutir	-0.2410
-4.5812 abrègent	-0.2434
-4.5812 abrégea	-0.2451
-4.1041 absence	-0.2266
-4.5812 absenter	-0.2466
-4.2802 absinthe	-0.2410
-4.1041 absinthes	-0.2462
-4.5812 absolu	-0.2507
-3.9791 absolument	-0.2490
-4.5812 absorbait	-0.2451
-4.5812 absorbèrent	-0.2469
-4.5812 abus	-0.2333
-4.5812 académie	-0.2333
-4.5812 acariâtre	-0.2491
-4.5812 accablent	-0.2410
-4.5812 accent	-0.2333
-4.5812 acceptai	-0.2493
-4.5812 accessoires	-0.2504
-4.2802 accident	-0.2507
-4.5812 acclimatation	-0.2478
-4.5812 accompagnais	-0.2451
-4.2802 accompagnait	-0.2373
-4.2802 accompli	-0.2477
-4.5812 accomplie	-0.2510
-4.1041 accomplir	-0.2487
-4.5812 accomplissaient	-0.2410
-4.2802 accomplissait	-0.2483
-4.5812 accomplit	-0.2510
-4.2802 accord	-0.2493
-4.5812 accords	-0.2429
-4.5812 accorte	-0.2511
-4.5812 accouchait	-0.2333
-4.5812 accouché	-0.2462
-4.5812 accouchée	-0.2410
-4.5812 accoutré	-0.2462
-4.5812 accrocha	-0.2493
-4.2802 accueil	-0.2367
-4.5812 accueilli	-0.2509
-4.5812 accuse	-0.2469
-4.5812 accusé	-0.2508
-4.2802 accès	-0.2458
-4.5812 acharnés	-0.2429
-4.5812 achetait	-0.2495
-3.9791 acheter	-0.2393
-4.5812 acheteuse	-0.2486
-4.5812 acheté	-0.2453
-4.5812 achevèrent	-0.2333
-3.5812 achète	-0.2411
-4.1041 acier	-0.2487
-4.2802 acquiesçai	-0.2311
-4.5812 acquis	-0.2496
-4.2802 acquittée	-0.2474
-4.5812 actes	-0.2333
-4.1041 action	-0.2452
-4.5812 actuelle	-0.2452
-4.5812 actuellement	-0.2510
-4.5812 acétate	-0.2333
-4.2802 ad	-0.2510
-4.5812 adaptation	-0.2511
-4.5812 adapte	-0.2429
-4.5812 adaptent	-0.2429
-4.5812 adhésions	-0.2511
-4.2802 adieu	-0.2413
-4.5812 adieux	-0.2429
-4.5812 adjoindre	-0.2447
-4.5812 adjoint	-0.2492
-4.2802 adjudant	-0.2503
-4.5812 admets	-0.2510
-4.5812 administrai	-0.2453
-4.5812 administrait	-0.2434
-4.5812 administratif	-0.2511
-4.5812 administration	-0.2501
-4.5812 administrations	-0.2333
-4.5812 administrer	-0.2493
-4.5812 administré	-0.2503
-4.5812 administrés	-0.2497
-4.5812 admira	-0.2501
-4.5812 admirable	-0.2510
-4.2802 admirablement	-0.2508
-4.5812 admirai	-0.2507
-4.5812 admiratif	-0.2413
-4.2802 admiration	-0.2489
-4.1041 admirer	-0.2292
-4.5812 admises	-0.2410
-4.5812 adopté	-0.2410
-4.5812 adoptée	-0.2497
-4.5812 adora	-0.2413
-4.2802 adorable	-0.2510
-4.2802 adorablement	-0.2451
-4.5812 adorais	-0.2489
-4.2802 adorait	-0.2443
-4.2802 adore	-0.2446
-4.5812 adorée	-0.2497
-4.5812 adoucir	-0.2510
-4.5812 adressa	-0.2453
-4.5812 adressait	-0.2509
-3.8822 adresse	-0.2351
-4.5812 adresser	-0.2429
-4.5812 adroitement	-0.2511
-4.5812 adulte	-0.2469
-4.5812 adultère	-0.2510
-4.5812 adverse	-0.2509
-4.2802 advint	-0.2509
-4.2802 affabilité	-0.2452
-4.5812 affable	-0.2493
-4.5812 affables	-0.2510
-3.8030 affaire	-0.2194
-4.5812 affaires	-0.2333
-4.5812 affairés	-0.2511
-4.5812 affaissa	-0.2493
-4.5812 affection	-0.2462
-4.5812 affichage	-0.2475
-4.5812 affiches	-0.2333
-4.5812 affirme	-0.2481
-4.5812 affirmer	-0.2488
-4.5812 affleurait	-0.2451
-4.5812 affliction	-0.2511
-4.5812 afflictions	-0.2333
-4.5812 afflige	-0.2495
-4.5812 affliger	-0.2410
-4.5812 affranchie	-0.2498
-4.5812 affranchissement	-0.2493
-4.5812 affriolantes	-0.2510
-4.5812 affronter	-0.2451
-4.5812 affublait	-0.2497
-4.2802 afin	-0.2432
-4.2802 africaine	-0.2462
-4.5812 afrique	-0.2478
-4.5812 aggravait	-0.2447
-4.5812 aggravante	-0.2481
-4.5812 aggravation	-0.2510
-4.5812 agi	-0.2333
-4.5812 agilité	-0.2482
-4.2802 agit	-0.2282
-4.5812 agonie	-0.2509
-4.5812 agréable	-0.2491
-4.5812 agréments	-0.2333
-3.2388 ah	-0.2082
-4.2802 ahuri	-0.2492
-4.5812 ahurie	-0.2510
-4.5812 ahurissement	-0.2506
-2.7487 ai	-0.1793
-4.1041 aide	-0.2282
-4.2802 aidé	-0.2319
-4.5812 aie	-0.2510
-4.5812 aigreur	-0.2493
-3.7361 aiguille	-0.2316
-4.5812 aiguillon	-0.2482
-4.5812 aiguisait	-0.2489
-4.5812 aiguë	-0.2488
-4.5812 ail	-0.2506
-4.2802 aile	-0.2502
-4.2802 ailes	-0.2507
-3.4672 ailleurs	-0.2099
-4.5812 aimable	-0.2483
-3.7361 aimais	-0.2426
-3.7361 aimait	-0.2428
-3.5020 aime	-0.2377
-4.2802 aiment	-0.2395
-4.5812 aimerais	-0.2507
-4.5812 aimeras	-0.2495
-4.5812 aimez	-0.2482
-4.2802 aimé	-0.2506
-3.5812 ainsi	-0.2212
-3.2010 air	-0.1844
-4.1041 airs	-0.2333
-4.1041 aisance	-0.2475
-3.8822 aise	-0.2239
-4.5812 aisées	-0.2478
-4.5812 aisément	-0.2497
-4.2802 ait	-0.2410
-3.8030 ajouta	-0.2335
-4.5812 ajoutai	-0.2511
-4.2802 ajoutait	-0.2406
-4.5812 ajoute	-0.2333
-3.9791 ajouter	-0.2462
-4.5812 ajouterai	-0.2462
-4.5812 ajouté	-0.2475
-4.5812 albe	-0.2511
-4.2802 alcide	-0.2510
-4.5812 alcôve	-0.2410
-4.2802 ale	-0.2447
-4.5812 alentour	-0.2410
-4.2802 algérie	-0.2504
-4.5812 alimentation	-0.2482
-4.5812 alimentée	-0.2497
-4.5812 aliénation	-0.2511
-4.1041 alla	-0.2499
-4.2802 allai	-0.2488
-4.2802 allaient	-0.2504
-3.8822 allais	-0.2486
-3.4351 allait	-0.2168
-3.5812 aller	-0.2398
-3.7361 allez	-0.2431
-4.2802 allocution	-0.2444
-4.5812 allongent	-0.2511
-3.6781 allons	-0.2464
-4.5812 allume	-0.2507
-4.5812 allumer	-0.2410
-4.5812 allumette	-0.2511
-4.5812 allumettes	-0.2511
-4.1041 allumons	-0.2410
-4.5812 allumé	-0.2491
-4.1041 allumée	-0.2286
-4.2802 allure	-0.2310
-4.5812 allures	-0.2511
-4.5812 allègrement	-0.2510
-4.2802 allèrent	-0.2482
-4.5812 allée	-0.2505
-4.5812 allées	-0.2497
-4.5812 allégresse	-0.2333
-4.5812 allés	-0.2490
-4.5812 almées	-0.2501
-2.8330 alors	-0.1748
-4.5812 alpaga	-0.2478
-4.5812 alphonse	-0.2510
-4.5812 alternative	-0.2451
-4.5812 amaigries	-0.2489
-4.5812 amante	-0.2452
-4.2802 amants	-0.2487
-4.5812 amarraient	-0.2462
-4.5812 amas	-0.2510
-3.8030 amateur	-0.2394
-4.5812 ambiant	-0.2488
-4.5812 ambulance	-0.2511
-4.2802 amena	-0.2426
-4.2802 amener	-0.2426
-4.5812 amené	-0.2466
-4.5812 amenée	-0.2466
-4.2802 amenés	-0.2474
-4.5812 amer	-0.2511
-3.0130 ami	-0.1650
-4.5812 amicale	-0.2511
-4.5812 amidon	-0.2413
-3.6269 amie	-0.2271
-3.5812 amis	-0.2393
-4.1041 amitié	-0.2194
-4.5812 amoncellement	-0.2462
-4.5812 amor	-0.2507
-3.3507 amour	-0.2235
-4.2802 amoureuse	-0.2462
-3.6781 amoureux	-0.2155
-4.5812 amours	-0.2507
-4.5812 amplement	-0.2510
-4.5812 amsterdam	-0.2510
-4.2802 amusait	-0.2507
-4.5812 amusant	-0.2492
-4.2802 amusante	-0.2510
-4.2802 amuse	-0.2426
-3.9791 amuser	-0.2428
-4.5812 amusé	-0.2475
-4.5812 amusés	-0.2502
-4.5812 amyot	-0.2488
-4.5812 amère	-0.2511
-3.9791 américain	-0.2457
-3.9791 américaine	-0.2326
-3.9791 américains	-0.2450
-4.1041 amérique	-0.2417
-4.5812 an	-0.2410
-4.5812 analogue	-0.2510
-4.5812 analyse	-0.2509
-4.5812 analyser	-0.2507
-4.2802 anatomie	-0.2442
-3.7361 ancien	-0.2504
-4.1041 ancienne	-0.2510
-4.5812 anciennes	-0.2511
-4.5812 anciens	-0.2510
-4.5812 ancêtres	-0.2413
-4.2802 and	-0.2510
-4.5812 andouille	-0.2410
-4.5812 andouilles	-0.2413
-3.7361 andouilly	-0.2302
-4.5812 anesthesie	-0.2503
-4.1041 anesthésie	-0.2508
-4.5812 angers	-0.2413
-3.4672 anglais	-0.2062
-4.2802 anglaise	-0.2449
-3.8822 anglaises	-0.2370
-4.1041 angleterre	-0.2392
-4.1041 angoisse	-0.2488
-3.5812 angéline	-0.2252
-3.5812 animal	-0.2150
-4.5812 animalier	-0.2510
-3.9791 animaux	-0.2413
-4.5812 animé	-0.2504
-4.5812 anisettes	-0.2462
-4.5812 annonce	-0.2469
-4.5812 annoncèrent	-0.2508
-4.5812 annonça	-0.2510
-4.2802 annonçait	-0.2326
-3.5020 année	-0.2351
-3.8030 années	-0.2283
-4.5812 anodines	-0.2509
-3.3507 ans	-0.1979
-4.2802 antécédents	-0.2497
-4.5812 antédiluviennes	-0.2509
-4.2802 anxieux	-0.2408
-4.5812 apanage	-0.2469
-4.5812 apercevait	-0.2508
-3.9791 apercevoir	-0.2305
-4.5812 aperçu	-0.2410
-4.5812 aperçurent	-0.2503
-4.2802 aperçus	-0.2487
-4.5812 aperçut	-0.2511
-3.7361 aphasie	-0.2426
-4.2802 aplomb	-0.2510
-3.8822 apoplectique	-0.2364
-3.8822 apothicaire	-0.2201
-4.5812 apothicaires	-0.2509
-4.2802 apparaissait	-0.2431
-4.5812 apparaît	-0.2475
-4.2802 apparaître	-0.2369
-3.8822 appareil	-0.2315
-4.5812 apparence	-0.2333
-4.5812 apparente	-0.2495
-4.2802 apparition	-0.2350
-3.6269 appartement	-0.2131
-4.5812 appartenait	-0.2510
-4.5812 appartiendrait	-0.2503
-4.5812 appartiennent	-0.2489
-4.5812 apparut	-0.2489
-4.5812 appela	-0.2510
-4.5812 appelais	-0.2489
-3.5398 appelait	-0.2285
-4.2802 appeler	-0.2497
-4.5812 appelez	-0.2410
-4.5812 appellation	-0.2511
-4.5812 appellations	-0.2511
-3.6269 appelle	-0.2304
-4.1041 appellent	-0.2345
-4.5812 appellerai	-0.2510
-4.2802 application	-0.2474
-4.5812 applications	-0.2333
-4.5812 appliquaient	-0.2511
-4.5812 appliquait	-0.2429
-4.5812 appliquant	-0.2429
-4.5812 appliquer	-0.2466
-4.5812 appliquât	-0.2447
-4.5812 appliquèrent	-0.2429
-4.5812 appliqué	-0.2490
-4.5812 appointements	-0.2447
-3.9791 apporta	-0.2308
-4.1041 apportait	-0.2216
-4.5812 apporte	-0.2429
-4.2802 apporter	-0.2350
-4.5812 apprenait	-0.2497
-4.5812 apprenant	-0.2410
-4.5812 apprend	-0.2429
-4.5812 apprenti	-0.2333
-3.9791 appris	-0.2322
-4.5812 apprit	-0.2481
-4.5812 approbation	-0.2483
-4.2802 approcha	-0.2333
-4.5812 approchait	-0.2508
-4.5812 appréciable	-0.2333
-4.5812 appréciation	-0.2451
-4.5812 apprêtais	-0.2429
-4.5812 apprîmes	-0.2462
-4.5812 appuya	-0.2497
-4.5812 appuyée	-0.2493
-4.5812 appâter	-0.2511
-4.5812 appétissant	-0.2451
-3.9791 appétit	-0.2332
-4.5812 appétits	-0.2511
-2.8999 après	-0.1603
-4.5812 aptitude	-0.2503
-4.5812 aptitudes	-0.2503
-4.5812 apéritif	-0.2429
-4.5812 apéritifs	-0.2413
-3.8822 aquarelle	-0.2179
-4.5812 aquarelliste	-0.2452
-4.5812 aquarellistes	-0.2469
-4.5812 aquarium	-0.2466
-4.5812 arbora	-0.2410
-4.5812 arbore	-0.2434
-4.5812 arbustes	-0.2510
-4.5812 arc	-0.2466
-3.9791 arcades	-0.2269
-4.2802 archéologie	-0.2460
-4.5812 archéologiques	-0.2490
-4.5812 archéologue	-0.2333
-3.7361 archéologues	-0.2315
-4.5812 ardente	-0.2469
-4.5812 ardeurs	-0.2462
-4.2802 ardoise	-0.2444
-4.5812 are	-0.2511
-3.5398 argent	-0.2202
-4.5812 argenteuil	-0.2479
-4.5812 ariette	-0.2466
-4.5812 aristocratique	-0.2462
-4.5812 arme	-0.2462
-3.9791 armure	-0.2393
-4.5812 armuriers	-0.2510
-4.5812 armée	-0.2504
-4.5812 arménienne	-0.2462
-4.2802 arracha	-0.2228
-4.5812 arrache	-0.2410
-4.2802 arracher	-0.2350
-4.5812 arrange	-0.2451
-4.5812 arrangeassent	-0.2489
-4.5812 arranger	-0.2495
-4.5812 arrangez	-0.2482
-4.5812 arrangées	-0.2475
-3.3024 arriva	-0.1828
-3.8822 arrivai	-0.2296
-4.5812 arrivais	-0.2488
-3.5812 arrivait	-0.2338
-4.2802 arrivant	-0.2484
-3.7361 arrive	-0.2214
-4.2802 arriver	-0.2499
-4.2802 arrivèrent	-0.2429
-3.9791 arrivé	-0.2428
-4.1041 arrivée	-0.2382
-4.5812 arrivés	-0.2503
-4.2802 arrière	-0.2509
-4.2802 arrondissement	-0.2479
-4.2802 arrosoirs	-0.2353
-4.2802 arrosé	-0.2360
-4.2802 arrêt	-0.2489
-4.1041 arrêta	-0.2421
-4.5812 arrête	-0.2469
-4.5812 arrêter	-0.2509
-3.8030 art	-0.2149
-4.5812 arthurson	-0.2508
-4.2802 article	-0.2472
-4.5812 articles	-0.2482
-4.5812 articulé	-0.2451
-4.5812 articulée	-0.2451
-4.5812 artifices	-0.2333
-4.5812 artificielles	-0.2469
-3.8030 artillerie	-0.2260
-4.5812 artilleur	-0.2479
-4.2802 artilleurs	-0.2413
-4.5812 artisan	-0.2479
-3.9791 artiste	-0.2437
-3.9791 artistes	-0.2297
-4.2802 artistiques	-0.2364
-4.5812 arts	-0.2434
-4.5812 artère	-0.2462
-4.2802 artères	-0.2333
-3.3507 as	-0.2359
-4.2802 asile	-0.2482
-4.5812 aspasie	-0.2509
-3.9791 aspect	-0.2481
-4.5812 asphyxiés	-0.2452
-4.5812 aspiré	-0.2413
-4.5812 assassinés	-0.2497
-4.5812 asseoir	-0.2508
-4.5812 asseyant	-0.2429
-4.5812 asseyez	-0.2482
-3.1662 assez	-0.2148
-4.5812 assiette	-0.2511
-4.2802 assiettes	-0.2290
-4.5812 assis	-0.2508
-4.2802 assistait	-0.2429
-4.2802 assistants	-0.2509
-3.9791 assister	-0.2408
-4.5812 assisté	-0.2490
-4.5812 association	-0.2462
-4.5812 assommèrent	-0.2503
-4.5812 assurance	-0.2462
-4.5812 assurances	-0.2497
-4.5812 assure	-0.2489
-4.5812 assurer	-0.2410
-4.5812 assureur	-0.2413
-4.5812 assuré	-0.2481
-4.5812 at	-0.2511
-4.1041 atelier	-0.2383
-3.6781 athanase	-0.2458
-4.5812 athlétique	-0.2481
-4.5812 atrophiées	-0.2511
-4.5812 attacha	-0.2453
-4.5812 attache	-0.2501
-4.5812 attachée	-0.2466
-4.5812 attarde	-0.2490
-4.5812 atteints	-0.2497
-4.5812 attelé	-0.2429
-4.5812 attelés	-0.2466
-4.2802 attend	-0.2407
-4.1041 attendait	-0.2326
-4.2802 attendant	-0.2389
-4.2802 attendis	-0.2451
-3.9791 attendre	-0.2276
-4.2802 attendrissement	-0.2487
-4.5812 attendrons	-0.2490
-3.9791 attends	-0.2304
-4.2802 attendu	-0.2438
-4.5812 attentif	-0.2503
-4.5812 attentifs	-0.2493
-3.9791 attention	-0.2344
-4.5812 attentions	-0.2483
-4.5812 attira	-0.2505
-4.2802 attirail	-0.2459
-4.5812 attirante	-0.2333
-4.5812 attiré	-0.2410
-3.6781 attitude	-0.2247
-4.5812 attitudes	-0.2511
-4.5812 attractions	-0.2511
-4.5812 attrait	-0.2462
-4.5812 attraper	-0.2451
-4.5812 attrapés	-0.2410
-4.2802 attribuai	-0.2407
-4.5812 attribuait	-0.2453
-2.3259 au	-0.2356
-4.2802 aube	-0.2493
-4.5812 auberge	-0.2482
-3.8822 aucun	-0.2332
-3.8030 aucune	-0.2507
-4.5812 auguste	-0.2510
-3.8030 aujourd	-0.2510
-4.5812 aunes	-0.2333
-3.9791 auprès	-0.2333
-4.2802 auquel	-0.2489
-4.5812 aura	-0.2506
-3.9791 auraient	-0.2466
-3.8030 aurais	-0.2439
-3.1498 aurait	-0.2386
-4.2802 auras	-0.2502
-4.5812 auriez	-0.2510
-4.5812 auriol	-0.2496
-4.2802 aurore	-0.2368
-4.5812 ausculte	-0.2482
-4.5812 ausculté	-0.2487
-2.9579 aussi	-0.1829
-3.9791 aussitôt	-0.2429
-4.5812 austère	-0.2511
-3.8030 autant	-0.2257
-4.5812 autels	-0.2511
-4.2802 auteur	-0.2333
-3.8030 autour	-0.2208
-3.1188 autre	-0.2072
-4.2802 autrefois	-0.2413
-4.5812 autrement	-0.2509
-3.1041 autres	-0.2159
-4.1041 autruches	-0.2320
-4.2802 auvergnate	-0.2482
-2.7361 aux	-0.2450
-4.5812 auxquelles	-0.2451
-3.3259 avaient	-0.2136
-3.1832 avais	-0.2151
-2.4509 avait	-0.1065
-4.2802 avalé	-0.2374
-4.1041 avance	-0.2476
-4.5812 avancer	-0.2509
-4.5812 avancée	-0.2489
-3.3024 avant	-0.1935
-4.5812 avantage	-0.2482
-4.5812 avantageux	-0.2511
-4.5812 avança	-0.2511
-4.5812 avare	-0.2479
-2.3937 avec	-0.1282
-4.5812 avem_	-0.2434
-4.5812 avenir	-0.2490
-3.6781 aventure	-0.2009
-4.2802 aventures	-0.2333
-4.2802 avenue	-0.2333
-4.5812 averse	-0.2510
-4.5812 averses	-0.2511
-4.5812 aversion	-0.2489
-4.2802 averti	-0.2380
-4.5812 averties	-0.2486
-4.5812 avertir	-0.2493
-4.5812 avertis	-0.2505
-4.5812 aveux	-0.2511
-3.2590 avez	-0.2237
-4.5812 aviez	-0.2506
-4.5812 avions	-0.2503
-4.5812 avisai	-0.2434
-4.2802 avocat	-0.2332
-3.0760 avoir	-0.1809
-3.9791 avons	-0.2445
-4.1041 avouer	-0.2403
-4.5812 avouerai	-0.2452
-4.5812 avoué	-0.2447
-4.5812 avril	-0.2333
-4.5812 axe	-0.2482
-3.8822 axelsen	-0.2438
-3.8030 ayant	-0.2459
-4.2802 ayez	-0.2331
-4.5812 azote	-0.2451
-4.2802 azur	-0.2333
-4.5812 aériennes	-0.2511
-4.1041 aîné	-0.2328
-4.5812 aînée	-0.2469
-4.5812 aïeux	-0.2333
-4.5812 babel	-0.2507
-3.3771 bacchante	-0.2043
-4.2802 badois	-0.2484
-4.2802 bah	-0.2406
-4.2802 baie	-0.2329
-4.5812 bail	-0.2413
-3.8822 bain	-0.2390
-4.5812 baiser	-0.2509
-4.1041 baisers	-0.2501
-3.9791 baisser	-0.2348
-4.5812 baissé	-0.2510
-4.2802 baker	-0.2304
-4.5812 baker_	-0.2447
-3.8030 bal	-0.2464
-4.5812 balancé	-0.2413
-4.5812 balayait	-0.2511
-4.5812 balayeur	-0.2413
-4.1041 balbutia	-0.2448
-4.5812 balcon	-0.2510
-4.5812 baleine	-0.2507
-4.2802 baleines	-0.2478
-3.5398 balizard	-0.2321
-4.5812 ballants	-0.2429
-4.5812 balle	-0.2466
-4.5812 balles	-0.2475
-4.2802 bals	-0.2510
-4.5812 balustrade	-0.2507
-4.5812 bambou	-0.2497
-4.5812 banaloïd	-0.2489
-4.5812 bancal	-0.2511
-4.5812 bancs	-0.2493
-4.2802 bande	-0.2333
-4.5812 bandoulière	-0.2413
-4.5812 bange	-0.2333
-4.5812 banlieue	-0.2452
-4.5812 banque	-0.2447
-4.5812 baptiser	-0.2489
-3.7361 baptiste	-0.2222
-4.5812 baptisé	-0.2507
-4.5812 baptême	-0.2492
-4.2802 baraque	-0.2413
-4.5812 barbarie	-0.2502
-4.5812 bardé	-0.2333
-4.5812 barnum	-0.2488
-3.8822 baronne	-0.2207
-4.5812 barques	-0.2510
-4.5812 barricade	-0.2479
-4.5812 bars	-0.2497
-3.4351 bas	-0.1807
-4.1041 basse	-0.2510
-4.5812 basses	-0.2451
-4.5812 bassin	-0.2333
-4.5812 bassins	-0.2413
-4.5812 bastion	-0.2333
-4.5812 bataillons	-0.2507
-4.2802 bateau	-0.2399
-3.8822 bateaux	-0.2312
-4.5812 batignolles	-0.2481
-4.5812 battaient	-0.2451
-4.1041 baudru	-0.2497
-4.5812 bavant	-0.2462
-4.5812 bavettes	-0.2506
-3.0760 beau	-0.2243
-3.1041 beaucoup	-0.2145
-4.5812 beaumont	-0.2451
-3.5398 beauté	-0.1972
-4.5812 beautés	-0.2333
-4.2802 beaux	-0.2507
-4.1041 bec	-0.2374
-4.2802 bedeau	-0.2435
-4.5812 bel	-0.2510
-3.2388 belle	-0.2462
-3.9791 belles	-0.2509
-4.5812 belligérants	-0.2510
-4.5812 belliqueux	-0.2509
-4.5812 bello	-0.2507
-4.5812 belveau	-0.2510
-3.9791 ben	-0.2444
-4.5812 benoîton	-0.2507
-4.5812 bergen	-0.2511
-4.5812 bergère	-0.2503
-4.5812 berné	-0.2434
-3.4672 bertha	-0.2152
-4.5812 berthe	-0.2481
-4.5812 besogne	-0.2502
-4.5812 besognes	-0.2511
-4.5812 besogneux	-0.2483
-4.2802 besoin	-0.2462
-4.5812 bibliothèques	-0.2511
-4.2802 biche	-0.2364
-4.5812 bidons	-0.2462
-2.3235 bien	-0.0569
-4.5812 bienfaisant	-0.2511
-4.5812 bienfaitrice	-0.2410
-3.5398 bientôt	-0.2107
-4.5812 bienveillant	-0.2506
-4.5812 bigrement	-0.2510
-4.5812 bijou	-0.2482
-4.5812 bijoux	-0.2469
-4.2802 billard	-0.2326
-4.2802 billes	-0.2322
-4.5812 billet	-0.2429
-4.5812 billets	-0.2479
-4.5812 bin	-0.2479
-4.5812 bitters	-0.2491
-4.1041 bizarre	-0.2337
-4.5812 bizarres	-0.2506
-3.5398 black	-0.2297
-4.5812 blafard	-0.2333
-3.6269 blagsmith	-0.2123
-4.5812 blaguaient	-0.2510
-3.8030 blague	-0.2210
-4.2802 blaguer	-0.2493
-3.9791 blagues	-0.2397
-3.6781 blanc	-0.2358
-4.2802 blanche	-0.2482
-4.5812 blanches	-0.2511
-4.5812 blanchir	-0.2453
-4.5812 blanchissent	-0.2466
-4.2802 blancs	-0.2510
-4.5812 blason	-0.2462
-4.2802 blesser	-0.2451
-3.9791 bleu	-0.2280
-4.5812 bleue	-0.2491
-4.2802 bleus	-0.2402
-4.5812 blinde	-0.2489
-4.5812 bloc	-0.2333
-4.2802 blond	-0.2504
-4.2802 blonde	-0.2501
-4.5812 blondes	-0.2469
-4.2802 blonds	-0.2463
-4.5812 blouse	-0.2429
-4.5812 blouses	-0.2510
-4.5812 blême	-0.2506
-4.5812 blêmissait	-0.2507
-4.2802 blêmit	-0.2407
-4.1041 boa	-0.2364
-4.5812 bock	-0.2490
-4.5812 bocks	-0.2466
-4.5812 bohème	-0.2451
-4.1041 boire	-0.2476
-3.8822 bois	-0.2346
-3.3507 boisflambard	-0.2026
-4.5812 boiteux	-0.2508
-4.5812 boivent	-0.2429
-2.9684 bon	-0.2311
-4.5812 bondit	-0.2333
-4.5812 bondés	-0.2462
-4.1041 bonheur	-0.2378
-4.5812 bonheurs	-0.2511
-3.8822 bonhomme	-0.2408
-3.6781 bonjour	-0.2322
-2.9901 bonne	-0.2075
-3.6781 bonnes	-0.2332
-4.5812 bonnets	-0.2333
-3.9791 bons	-0.2509
-4.5812 bonsoir	-0.2489
-4.5812 bonté	-0.2333
-4.5812 bordeaux	-0.2506
-4.5812 bordee	-0.2410
-4.1041 bords	-0.2332
-4.5812 bordé	-0.2493
-4.5812 bordés	-0.2333
-4.5812 borne	-0.2509
-4.5812 bornes	-0.2413
-4.5812 bosse	-0.2490
-4.5812 bossuet	-0.2482
-4.5812 botanique	-0.2429
-4.2802 bottes	-0.2510
-4.5812 botticelli	-0.2434
-4.5812 bottin	-0.2489
-4.5812 bottine	-0.2466
-3.6781 bottines	-0.2294
-3.6269 bouche	-0.2238
-4.1041 boucher	-0.2380
-4.5812 bouches	-0.2488
-4.5812 bouchon	-0.2491
-4.5812 bouclent	-0.2510
-4.5812 boudin	-0.2413
-3.8822 boue	-0.2403
-4.5812 bougeait	-0.2487
-4.5812 bougie	-0.2462
-4.5812 bougies	-0.2333
-4.1041 bougre	-0.2375
-4.5812 bouillant	-0.2475
-4.5812 bouillon	-0.2413
-4.2802 boulanger	-0.2446
-4.5812 boulangerie	-0.2508
-4.5812 boulangeries	-0.2482
-4.2802 boule	-0.2248
-4.5812 boulet	-0.2333
-4.5812 boulets	-0.2333
-3.6781 boulevard	-0.2305
-4.2802 boulevards	-0.2396
-4.5812 bouleversent	-0.2434
-4.5812 boulon	-0.2469
-4.5812 boulotté	-0.2504
-4.5812 bourdonnantes	-0.2493
-4.2802 bourgade	-0.2405
-4.5812 bourgeois	-0.2511
-4.5812 bourgeoise	-0.2510
-4.2802 bourgeoises	-0.2461
-4.5812 bourris	-0.2469
-4.2802 bourse	-0.2446
-3.8030 bout	-0.2179
-4.5812 boutade	-0.2508
-4.5812 bouteille	-0.2429
-4.1041 bouteilles	-0.2490
-3.5020 boutique	-0.1961
-3.8822 boutiques	-0.2366
-4.5812 boutiquiers	-0.2333
-4.5812 boutons	-0.2413
-4.1041 boîte	-0.2324
-4.2802 boîtes	-0.2271
-4.5812 branche	-0.2493
-4.5812 branle	-0.2451
-3.3507 bras	-0.2069
-4.5812 brassait	-0.2410
-4.2802 brasserie	-0.2508
-4.2802 brasseries	-0.2248
-4.5812 brassées	-0.2475
-3.6781 brave	-0.2497
-4.5812 bravement	-0.2507
-3.9791 braves	-0.2504
-4.5812 bravo	-0.2508
-3.8030 bref	-0.2254
-4.2802 brevet	-0.2490
-4.5812 bribes	-0.2488
-4.5812 brides	-0.2429
-4.1041 brillant	-0.2509
-4.5812 brillante	-0.2510
-4.5812 brillants	-0.2429
-4.5812 bringue	-0.2413
-4.5812 brique	-0.2333
-4.1041 brise	-0.2411
-4.5812 brisent	-0.2489
-4.5812 brisé	-0.2507
-4.5812 british	-0.2510
-4.5812 britishisme	-0.2510
-4.5812 brocards	-0.2488
-4.5812 broche	-0.2492
-4.5812 brocs	-0.2466
-4.5812 brodequins	-0.2466
-3.9791 bronze	-0.2492
-4.5812 bronzes	-0.2488
-4.1041 brosse	-0.2387
-4.5812 brosses	-0.2462
-4.5812 brosseur	-0.2413
-4.5812 brosseurs	-0.2413
-4.2802 brouhaha	-0.2502
-4.5812 broussailles	-0.2333
-3.8822 bruit	-0.2345
-4.5812 bruits	-0.2509
-4.5812 brunette	-0.2429
-3.9791 brusque	-0.2503
-3.9791 brusquement	-0.2392
-4.5812 brutalement	-0.2429
-4.2802 brute	-0.2309
-4.5812 bruyant	-0.2510
-4.5812 bruyante	-0.2510
-4.5812 brûlée	-0.2498
-4.5812 brûlées	-0.2451
-4.1041 bu	-0.2385
-4.5812 buci	-0.2486
-4.5812 buffault	-0.2410
-4.5812 buffon	-0.2462
-4.5812 bullier	-0.2504
-3.8030 bureau	-0.2141
-4.5812 bureaux	-0.2511
-4.5812 burlesque	-0.2510
-4.5812 buste	-0.2333
-4.5812 bustes	-0.2493
-4.1041 but	-0.2439
-4.5812 butte	-0.2482
-4.5812 buvait	-0.2333
-4.5812 buvant	-0.2410
-4.5812 bâti	-0.2333
-4.5812 bâties	-0.2492
-4.5812 bâtir	-0.2508
-4.5812 bâtit	-0.2453
-4.5812 bâton	-0.2492
-4.5812 bâtons	-0.2511
-4.5812 béante	-0.2333
-4.5812 bébé	-0.2413
-4.5812 bégayant	-0.2511
-4.5812 béni	-0.2489
-4.5812 bénie	-0.2511
-4.5812 bénit	-0.2493
-4.5812 bénédiction	-0.2511
-4.5812 bénéfices	-0.2509
-4.5812 bétail	-0.2488
-4.5812 bêche	-0.2482
-3.6269 bête	-0.2145
-4.5812 bêtement	-0.2452
-3.7361 bêtes	-0.2187
-4.5812 bêtises	-0.2510
-3.8030 bœuf	-0.2333
-4.5812 bœufs	-0.2489
-4.5812 bœufs_	-0.2509
-2.2802 c	-0.2335
-4.2802 cabane	-0.2430
-4.5812 cabanons	-0.2506
-4.5812 cabaret	-0.2511
-4.5812 cabarets	-0.2333
-4.5812 cabine	-0.2333
-4.1041 cabinet	-0.2328
-4.2802 caboche	-0.2409
-4.5812 caboulots	-0.2429
-4.5812 cachaient	-0.2453
-4.5812 cache	-0.2434
-4.5812 cacheter	-0.2451
-4.5812 cacochyme	-0.2462
-4.5812 cadavres	-0.2429
-3.8822 cadeau	-0.2329
-4.2802 cadeaux	-0.2300
-4.2802 cadet	-0.2473
-3.6269 café	-0.2163
-4.5812 cafés	-0.2509
-4.5812 caillou	-0.2469
-4.5812 caire	-0.2509
-3.8822 caisse	-0.2391
-4.5812 caissière	-0.2505
-4.5812 calais	-0.2511
-4.2802 calamité	-0.2461
-4.5812 calibre	-0.2410
-4.5812 calme	-0.2511
-4.5812 calotter	-0.2451
-4.2802 calottes	-0.2496
-4.1041 camarade	-0.2405
-3.9791 camarades	-0.2296
-4.5812 cambrée	-0.2413
-3.7361 camille	-0.2176
-4.5812 camion	-0.2434
-3.7361 camp	-0.2196
-4.5812 campagnarde	-0.2498
-4.5812 campagne	-0.2508
-4.2802 campagnes	-0.2368
-4.5812 campo	-0.2429
-4.2802 canaille	-0.2507
-4.5812 canaques	-0.2511
-3.8822 canard	-0.2335
-4.5812 canards	-0.2429
-4.5812 candeur	-0.2413
-4.5812 candidature	-0.2429
-4.2802 candide	-0.2431
-4.5812 canif	-0.2434
-4.5812 canivet	-0.2510
-3.9791 canne	-0.2492
-4.5812 cannes	-0.2413
-3.7361 canon	-0.2374
-4.5812 canonnier	-0.2451
-4.5812 canton	-0.2469
-4.5812 caoutchouc	-0.2333
-4.5812 cap	-0.2506
-4.2802 capable	-0.2282
-4.5812 capello	-0.2333
-3.2802 capitaine	-0.2291
-4.5812 capital	-0.2511
-4.2802 capitale	-0.2348
-4.2802 capitaliste	-0.2510
-4.5812 capituler	-0.2509
-4.5812 caporal	-0.2451
-4.5812 caporaux	-0.2508
-4.5812 capricieuse	-0.2491
-4.5812 capus	-0.2491
-2.9377 car	-0.1874
-4.5812 carabine	-0.2466
-4.5812 caracolant	-0.2492
-4.5812 caracoler	-0.2489
-4.5812 caractère	-0.2469
-4.5812 caractères	-0.2429
-4.5812 caravane	-0.2511
-4.5812 carbure	-0.2462
-4.5812 caressant	-0.2447
-4.5812 caresses	-0.2501
-4.2802 carlo	-0.2409
-4.5812 carmin	-0.2453
-4.5812 carreaux	-0.2333
-4.5812 carrefour	-0.2511
-4.5812 carrefours	-0.2333
-4.2802 carriole	-0.2503
-4.2802 carrière	-0.2488
-4.2802 carte	-0.2282
-4.5812 cartouche	-0.2333
-4.5812 carène	-0.2434
-3.3507 cas	-0.1985
-3.8030 caserne	-0.2076
-3.9791 casque	-0.2407
-4.5812 cassait	-0.2451
-4.5812 casser	-0.2447
-4.2802 casserole	-0.2434
-4.5812 cassis	-0.2510
-4.1041 cassé	-0.2296
-4.5812 cassée	-0.2453
-4.5812 catafalque	-0.2511
-4.5812 cataloguée	-0.2490
-4.1041 catastrophe	-0.2394
-4.5812 catastrophes	-0.2413
-4.5812 cauchemar	-0.2490
-4.5812 causait	-0.2493
-4.5812 causant	-0.2508
-3.7361 cause	-0.2208
-4.2802 causer	-0.2501
-4.5812 caustique	-0.2413
-4.2802 causâmes	-0.2509
-4.5812 causé	-0.2410
-4.5812 cavalcade	-0.2483
-4.5812 cavalier	-0.2483
-4.2802 caverne	-0.2420
-4.5812 caves	-0.2469
-2.1203 ce	-0.1660
-4.5812 ceci	-0.2333
-4.5812 ceinture	-0.2489
-3.2010 cela	-0.1815
-3.3507 celle	-0.2116
-4.5812 celles	-0.2479
-4.5812 celluloïd	-0.2510
-3.4672 celui	-0.2150
-4.5812 cendre	-0.2333
-3.6781 cent	-0.2501
-4.5812 centigrammes	-0.2413
-4.5812 centimes	-0.2507
-4.5812 centimètre	-0.2493
-4.2802 centre	-0.2333
-3.7361 cents	-0.2506
-4.2802 cependant	-0.2360
-3.9791 cercueil	-0.2466
-4.2802 certain	-0.2462
-4.1041 certaine	-0.2413
-3.9791 certainement	-0.2365
-4.2802 certaines	-0.2504
-3.9791 certains	-0.2510
-4.2802 certes	-0.2452
-4.5812 certifier	-0.2447
-3.8030 cerveau	-0.2102
-2.7299 ces	-0.2461
-4.2802 cessai	-0.2282
-4.5812 cesser	-0.2333
-4.5812 cessé	-0.2333
-3.1498 cet	-0.2488
-2.4878 cette	-0.2428
-3.6781 ceux	-0.2251
-4.5812 chacal	-0.2508
-3.8822 chacun	-0.2468
-4.5812 chagrin	-0.2333
-4.5812 chair	-0.2511
-4.2802 chaise	-0.2311
-4.1041 chalet	-0.2385
-4.2802 chaleur	-0.2378
-4.5812 challan	-0.2507
-3.7361 chambardoscope	-0.2410
-3.4051 chambre	-0.2141
-4.5812 chambres	-0.2333
-4.5812 chameau	-0.2501
-4.5812 chameaux	-0.2462
-4.5812 champ	-0.2333
-4.1041 champagne	-0.2483
-4.2802 champagnes	-0.2287
-4.2802 champs	-0.2271
-4.2802 changements	-0.2434
-4.5812 changé	-0.2508
-3.9791 chanson	-0.2327
-4.1041 chantait	-0.2458
-4.5812 chanter	-0.2410
-4.5812 chantez	-0.2429
-3.8822 chapeau	-0.2304
-3.7361 chapeaux	-0.2218
-4.5812 chapelle	-0.2413
-4.2802 chapellerie	-0.2457
-3.6781 chapitre	-0.2410
-3.4351 chaque	-0.2493
-4.5812 char	-0.2429
-4.5812 charcutier	-0.2410
-4.1041 charge	-0.2282
-4.5812 chargea	-0.2333
-4.1041 charger	-0.2462
-4.5812 chargé	-0.2469
-4.5812 chargée	-0.2413
-4.5812 charma	-0.2493
-3.6781 charmant	-0.2172
-3.6269 charmante	-0.2177
-4.5812 charmants	-0.2452
-4.2802 charme	-0.2413
-4.5812 charmes	-0.2452
-4.5812 charonne	-0.2489
-4.2802 charretier	-0.2428
-4.5812 chasser	-0.2410
-4.5812 chassieux	-0.2505
-4.5812 chaste	-0.2504
-4.2802 chat	-0.2510
-4.5812 chats	-0.2511
-3.9791 chaud	-0.2326
-4.5812 chaussait	-0.2511
-3.9791 chaussures	-0.2403
-4.5812 chaussée	-0.2413
-4.2802 chaussées	-0.2228
-4.2802 chaîne	-0.2469
-4.2802 chef	-0.2461
-4.5812 chefs	-0.2333
-3.9791 chemin	-0.2087
-4.5812 chemins	-0.2482
-4.5812 cheminées	-0.2479
-4.1041 chemise	-0.2284
-4.5812 chemists_	-0.2479
-3.8822 cher	-0.2422
-4.5812 cherchais	-0.2429
-4.5812 cherche	-0.2434
-3.8030 chercher	-0.2368
-3.5812 cheval	-0.2292
-3.8030 chevaux	-0.2412
-4.2802 chevelu	-0.2510
-4.5812 chevet	-0.2510
-4.5812 cheveu	-0.2510
-3.3507 cheveux	-0.2145
-4.5812 chevreau	-0.2429
-2.9184 chez	-0.1858
-3.5812 chien	-0.2296
-4.1041 chiens	-0.2300
-4.1041 chiffre	-0.2333
-4.5812 chimie	-0.2497
-4.2802 chimériques	-0.2413
-4.2802 chinois	-0.2488
-4.5812 chinoise	-0.2479
-4.5812 chipie	-0.2509
-4.5812 chirurgie	-0.2506
-4.2802 chirurgien	-0.2433
-4.5812 chloroformes	-0.2451
-4.5812 chlorures	-0.2333
-4.5812 chloé	-0.2451
-4.2802 choir	-0.2429
-4.5812 choisir	-0.2410
-4.5812 choisis	-0.2493
-4.5812 choisissent	-0.2505
-4.5812 choisit	-0.2410
-4.5812 choix	-0.2469
-3.1832 chose	-0.1771
-3.8030 choses	-0.2400
-4.5812 chouette	-0.2503
-4.5812 christmas	-0.2410
-4.5812 christophe	-0.2510
-4.5812 chroniques	-0.2510
-4.5812 chronomètre	-0.2466
-4.5812 chute	-0.2333
-3.8030 chère	-0.2427
-3.9791 chéri	-0.2460
-4.5812 chérie	-0.2490
-4.5812 chôma	-0.2511
-4.2802 chœur	-0.2428
-4.1041 ci	-0.2406
-4.5812 cicatrisées	-0.2510
-3.7361 ciel	-0.2146
-3.8822 cigare	-0.2218
-4.2802 cils	-0.2491
-4.5812 cincinnatus	-0.2507
-4.5812 cinglait	-0.2509
-3.2802 cinq	-0.2468
-4.5812 cinquantaine	-0.2333
-3.5398 cinquante	-0.2506
-4.5812 cinquième	-0.2510
-4.1041 circonstance	-0.2478
-4.5812 circonstances	-0.2434
-4.5812 circulaire	-0.2497
-4.5812 cirés	-0.2490
-4.5812 cite	-0.2500
-4.5812 citerai	-0.2504
-4.2802 citoyen	-0.2454
-4.1041 cité	-0.2402
-4.2802 civil	-0.2446
-4.5812 civile	-0.2498
-3.9791 civilisation	-0.2296
-4.5812 civils	-0.2493
-4.5812 clair	-0.2413
-4.5812 claire	-0.2503
-4.2802 clairement	-0.2409
-3.7361 clairon	-0.2351
-4.5812 clama	-0.2509
-4.5812 clamait	-0.2451
-4.5812 clameur	-0.2511
-4.5812 clans	-0.2510
-4.5812 clapotante	-0.2511
-4.5812 claquait	-0.2469
-4.5812 claquerait	-0.2490
-4.5812 claques	-0.2509
-4.5812 claqué	-0.2499
-3.9791 clara	-0.2409
-3.8030 classe	-0.2160
-4.5812 classes	-0.2511
-4.5812 classique	-0.2462
-4.2802 clef	-0.2453
-4.5812 clematis	-0.2511
-4.1041 clichy	-0.2348
-4.1041 client	-0.2379
-4.2802 cliente	-0.2434
-4.2802 clients	-0.2474
-3.8822 clientèle	-0.2166
-4.5812 clignancourt	-0.2481
-4.5812 clignant	-0.2429
-4.5812 cligné	-0.2410
-4.5812 cliniques	-0.2508
-4.5812 cliques	-0.2486
-4.5812 cliquetis	-0.2333
-4.2802 cloche	-0.2333
-4.5812 cloisons	-0.2333
-4.5812 clora	-0.2469
-4.5812 clou	-0.2333
-4.5812 cloua	-0.2493
-4.2802 cloud	-0.2484
-4.5812 clown	-0.2510
-4.2802 clématite	-0.2446
-4.2802 clématites	-0.2391
-4.5812 cléopâtreux	-0.2413
-4.5812 clérical	-0.2511
-4.5812 coalisés	-0.2489
-4.5812 cobra	-0.2511
-4.5812 cochers	-0.2508
-3.0130 cochon	-0.1387
-4.5812 cochonicida	-0.2410
-4.5812 cochonnerie	-0.2501
-4.5812 cochonneries	-0.2501
-3.3507 cochons	-0.2056
-4.5812 cocotte	-0.2413
-4.2802 cocu	-0.2469
-4.2802 code	-0.2510
-4.5812 cognac	-0.2451
-4.5812 coiffée	-0.2429
-3.7361 coin	-0.2139
-4.5812 coincoins	-0.2333
-4.5812 coins	-0.2475
-4.1041 col	-0.2332
-4.5812 coliques	-0.2490
-4.5812 colis	-0.2510
-4.1041 colla	-0.2430
-4.2802 collage	-0.2348
-4.5812 collectif	-0.2503
-4.2802 collection	-0.2333
-4.1041 collections	-0.2413
-4.2802 collet	-0.2331
-4.5812 colloque	-0.2451
-4.5812 collègues	-0.2466
-4.5812 collé	-0.2482
-4.5812 collés	-0.2447
-4.5812 colocataires	-0.2490
-4.2802 colomb	-0.2479
-4.2802 colonel	-0.2493
-4.2802 colonie	-0.2510
-4.5812 colonnes	-0.2511
-4.5812 coloré	-0.2490
-4.2802 colza	-0.2413
-3.9791 colère	-0.2395
-4.5812 colères	-0.2510
-4.5812 combats	-0.2489
-3.8030 combien	-0.2431
-4.2802 comble	-0.2303
-4.5812 comblèrent	-0.2333
-4.5812 comestibles	-0.2506
-4.5812 comfort	-0.2452
-4.2802 comique	-0.2444
-4.2802 comiques	-0.2479
-4.5812 comité	-0.2462
-4.1041 commande	-0.2363
-4.5812 commandé	-0.2333
-2.3611 comme	-0.0821
-3.9791 commence	-0.2400
-4.1041 commencement	-0.2303
-4.5812 commencent	-0.2497
-4.5812 commencer	-0.2497
-4.5812 commencé	-0.2510
-3.1188 comment	-0.1863
-4.5812 commentaires	-0.2503
-4.2802 commença	-0.2496
-4.2802 commençaient	-0.2429
-4.5812 commençais	-0.2429
-4.2802 commençait	-0.2429
-3.9791 commerce	-0.2332
-4.5812 commerçant	-0.2510
-4.2802 commerçante	-0.2471
-4.5812 commerçants	-0.2429
-4.5812 commettre	-0.2469
-3.9791 commis	-0.2319
-4.2802 commissions	-0.2433
-4.5812 commissures	-0.2333
-4.2802 commode	-0.2498
-4.2802 commun	-0.2481
-3.9791 commune	-0.2394
-4.2802 communes	-0.2390
-4.5812 communication	-0.2510
-4.5812 compagnie	-0.2475
-4.5812 compagnies	-0.2462
-4.5812 comparait	-0.2475
-3.9791 compartiment	-0.2506
-4.5812 compassion	-0.2489
-4.5812 complaisamment	-0.2488
-4.5812 complaisance	-0.2510
-4.5812 complet	-0.2451
-4.5812 compliments	-0.2509
-4.5812 compliqué	-0.2447
-3.9791 compliqués	-0.2346
-3.6781 complètement	-0.2332
-4.5812 complémentaires	-0.2452
-4.5812 compléta	-0.2505
-4.2802 complété	-0.2497
-4.5812 comportaient	-0.2492
-4.5812 comportant	-0.2504
-4.2802 comporte	-0.2481
-4.5812 comporté	-0.2434
-4.5812 composai	-0.2493
-4.5812 composait	-0.2429
-4.5812 composent	-0.2333
-4.5812 composé	-0.2462
-4.5812 composées	-0.2452
-4.2802 comprenait	-0.2446
-4.5812 comprendre	-0.2429
-4.2802 comprends	-0.2409
-4.2802 comprenez	-0.2481
-4.5812 comprenne	-0.2475
-4.5812 compresses	-0.2429
-3.7361 compris	-0.2336
-4.5812 comptait	-0.2500
-3.8030 compte	-0.2268
-4.2802 comptent	-0.2475
-4.5812 compter	-0.2451
-3.8822 comptoir	-0.2374
-4.2802 comte	-0.2327
-4.5812 comtesse	-0.2510
-4.5812 concert	-0.2510
-4.5812 concessions	-0.2488
-3.5020 concierge	-0.2365
-4.2802 concierges	-0.2446
-4.2802 conciliation	-0.2487
-4.5812 conclu	-0.2462
-4.5812 conclus	-0.2488
-4.5812 conclusion	-0.2413
-4.1041 conclut	-0.2349
-4.5812 concurrence	-0.2510
-4.5812 concurrent	-0.2510
-4.5812 condamné	-0.2429
-3.9791 conditions	-0.2086
-4.5812 conduisit	-0.2509
-4.5812 conduit	-0.2469
-4.2802 conduite	-0.2392
-4.5812 confectionna	-0.2508
-3.9791 confectionner	-0.2409
-4.2802 confession	-0.2488
-4.5812 confier	-0.2410
-4.5812 confiné	-0.2505
-4.5812 confié	-0.2410
-4.1041 conforme	-0.2347
-4.5812 conformé	-0.2478
-4.5812 confort	-0.2490
-3.6269 confortable	-0.2241
-4.5812 confrère	-0.2510
-4.2802 confrères	-0.2509
-4.2802 confus	-0.2319
-4.2802 confusion	-0.2315
-4.2802 congolaise	-0.2422
-4.5812 congédie	-0.2511
-4.5812 congénères	-0.2451
-4.5812 conjoints	-0.2489
-4.5812 conjure	-0.2413
-3.9791 connais	-0.2369
-4.5812 connaissaient	-0.2469
-4.1041 connaissais	-0.2366
-4.1041 connaissait	-0.2403
-3.7361 connaissance	-0.2178
-4.5812 connaisseuses	-0.2506
-3.9791 connaissez	-0.2432
-4.5812 connaissiez	-0.2478
-4.5812 connaît	-0.2462
-4.5812 connaîtras	-0.2511
-4.1041 connaître	-0.2340
-4.5812 connaîtrez	-0.2503
-3.6781 connu	-0.2038
-4.5812 connue	-0.2489
-3.8822 connus	-0.2267
-4.5812 connusse	-0.2507
-4.5812 connut	-0.2469
-4.5812 conquête	-0.2503
-4.5812 consacrer	-0.2505
-3.9791 conscience	-0.2279
-4.2802 consciencieusement	-0.2510
-4.5812 conseil	-0.2333
-4.5812 conseilla	-0.2510
-4.5812 conseillai	-0.2434
-4.5812 conseille	-0.2469
-4.1041 conseils	-0.2307
-4.5812 consentement	-0.2491
-4.5812 conserve	-0.2410
-4.5812 conserverai	-0.2506
-4.5812 conservons	-0.2493
-4.5812 conservé	-0.2434
-4.1041 considère	-0.2474
-4.1041 considérable	-0.2450
-4.5812 considérait	-0.2510
-4.5812 considéré	-0.2492
-4.5812 considérée	-0.2492
-4.2802 consigne	-0.2392
-4.1041 consigné	-0.2439
-3.8030 consignés	-0.2392
-4.2802 consistaient	-0.2466
-4.1041 consistait	-0.2361
-4.2802 consiste	-0.2383
-4.5812 consistent	-0.2429
-4.5812 consolation	-0.2494
-4.5812 consommateurs	-0.2475
-4.5812 consommations	-0.2511
-4.5812 constata	-0.2462
-4.5812 constatai	-0.2462
-4.2802 constater	-0.2397
-4.5812 consternation	-0.2509
-4.5812 constitua	-0.2500
-4.5812 constituait	-0.2429
-4.2802 constituer	-0.2453
-4.5812 construisit	-0.2466
-4.5812 consultations	-0.2413
-4.5812 consulter	-0.2452
-4.5812 consulté	-0.2434
-4.5812 conséquence	-0.2506
-4.5812 contai	-0.2496
-4.2802 conte	-0.2314
-4.5812 contempla	-0.2510
-4.5812 contemplaient	-0.2510
-4.5812 contemplant	-0.2511
-4.2802 contemplation	-0.2481
-4.5812 contemplative	-0.2469
-4.5812 contemple	-0.2478
-4.5812 contempler	-0.2505
-4.5812 contemplé	-0.2509
-4.5812 contemplée	-0.2511
-4.5812 contemporains	-0.2509
-4.5812 contenant	-0.2469
-3.5812 content	-0.1824
-4.5812 contenta	-0.2333
-4.5812 contentait	-0.2333
-4.1041 contente	-0.2232
-4.5812 contenterai	-0.2495
-4.5812 contenté	-0.2333
-4.5812 contentée	-0.2462
-4.5812 contenu	-0.2493
-4.1041 conter	-0.2399
-4.5812 contez	-0.2502
-4.5812 contient	-0.2502
-4.5812 continent	-0.2511
-4.5812 continua	-0.2506
-4.5812 continuai	-0.2452
-4.1041 continuait	-0.2410
-4.2802 continue	-0.2461
-4.5812 continuelles	-0.2413
-4.2802 continuer	-0.2407
-4.5812 continuez	-0.2451
-4.5812 continuons	-0.2489
-4.5812 continué	-0.2505
-4.2802 contracter	-0.2434
-4.5812 contraigne	-0.2429
-3.9791 contraire	-0.2380
-4.5812 contrairement	-0.2429
-4.5812 contrastait	-0.2493
-4.1041 contre	-0.2426
-4.5812 contrebande	-0.2452
-4.5812 contrepoids	-0.2506
-4.5812 contribua	-0.2429
-4.5812 contribuables	-0.2483
-4.2802 contributions	-0.2481
-4.5812 contrée	-0.2486
-4.5812 contrôleurs	-0.2482
-4.5812 convenablement	-0.2510
-4.5812 convenables	-0.2452
-4.5812 convenu	-0.2510
-4.5812 convenue	-0.2489
-3.8822 conversation	-0.2348
-4.5812 conversations	-0.2462
-4.2802 convives	-0.2469
-4.5812 conçoit	-0.2481
-4.5812 conçus	-0.2434
-4.5812 conçut	-0.2410
-4.5812 copieusement	-0.2451
-4.1041 coq	-0.2334
-4.5812 coqueluche	-0.2482
-4.5812 coquet	-0.2510
-4.5812 coquetier	-0.2509
-4.5812 coquette	-0.2495
-4.5812 coquin	-0.2434
-4.5812 cor	-0.2429
-4.1041 corde	-0.2363
-4.2802 cordial	-0.2498
-4.5812 cordialité	-0.2333
-4.2802 cordon	-0.2510
-4.5812 cordonnerie	-0.2511
-4.5812 cordons	-0.2504
-3.8030 corps	-0.2272
-4.2802 correspondance	-0.2482
-4.5812 corridors	-0.2453
-4.5812 cosmopolite	-0.2413
-4.5812 cosses	-0.2333
-4.5812 cossue	-0.2451
-4.5812 costume	-0.2499
-4.5812 costumé	-0.2503
-4.5812 coton	-0.2489
-4.5812 cottage	-0.2333
-4.5812 cotte	-0.2333
-3.8822 cou	-0.2393
-4.5812 coucha	-0.2493
-4.5812 couchaient	-0.2429
-4.5812 couchant	-0.2493
-4.2802 couche	-0.2315
-4.2802 coucher	-0.2501
-4.2802 couché	-0.2434
-4.2802 couchée	-0.2392
-4.5812 couchées	-0.2410
-4.5812 coucou	-0.2498
-4.5812 coula	-0.2493
-4.5812 coule	-0.2490
-4.2802 couleur	-0.2510
-3.9791 couleurs	-0.2396
-4.2802 couloirs	-0.2510
-3.2802 coup	-0.2009
-4.2802 coupa	-0.2326
-4.2802 coupable	-0.2413
-4.5812 coupables	-0.2451
-4.5812 coupaient	-0.2511
-4.5812 couper	-0.2434
-4.2802 couple	-0.2486
-3.6269 coups	-0.2236
-4.2802 coupé	-0.2419
-3.6781 cour	-0.2065
-4.5812 courageusement	-0.2410
-4.5812 couramment	-0.2333
-3.9791 courant	-0.2200
-3.9791 courants	-0.2510
-4.5812 courbant	-0.2511
-4.2802 courcelles	-0.2434
-4.5812 couronner	-0.2502
-4.5812 couronnés	-0.2333
-4.5812 courra	-0.2469
-4.5812 cours	-0.2510
-4.1041 course	-0.2490
-4.1041 court	-0.2510
-4.5812 courtaude	-0.2510
-4.5812 courtier	-0.2447
-4.5812 courtois	-0.2511
-4.5812 courut	-0.2429
-3.3771 cousin	-0.2243
-4.5812 cousines	-0.2413
-4.2802 coutume	-0.2429
-4.5812 coutumières	-0.2488
-4.5812 couvertures	-0.2451
-4.5812 couvraient	-0.2410
-4.5812 couvrant	-0.2451
-4.5812 couvre	-0.2506
-4.5812 couvreur	-0.2476
-4.5812 coïncidassent	-0.2451
-4.5812 coûta	-0.2451
-4.5812 coûtant	-0.2495
-4.5812 coûtent	-0.2469
-4.5812 coûteux	-0.2510
-4.2802 crac	-0.2393
-4.5812 craindre	-0.2495
-4.5812 crainte	-0.2333
-4.5812 crapaud	-0.2488
-4.5812 crapulite	-0.2511
-4.2802 cravate	-0.2465
-4.2802 cravates	-0.2491
-4.5812 crayon	-0.2429
-4.5812 creusé	-0.2410
-4.1041 creux	-0.2333
-4.2802 crevette	-0.2510
-3.8822 cri	-0.2272
-3.9791 cria	-0.2504
-4.5812 criaient	-0.2413
-4.5812 criait	-0.2410
-4.5812 crime	-0.2333
-4.5812 criminel	-0.2511
-4.5812 crimée	-0.2490
-4.5812 cris	-0.2511
-4.5812 crispait	-0.2451
-4.2802 cristal	-0.2509
-4.5812 croie	-0.2482
-4.5812 croirai	-0.2462
-4.5812 croirait	-0.2491
-4.5812 croiras	-0.2495
-3.4672 croire	-0.2279
-3.5398 crois	-0.2185
-4.5812 croisa	-0.2497
-4.5812 croissante	-0.2413
-4.5812 croisés	-0.2410
-4.5812 croit	-0.2506
-4.5812 croque	-0.2509
-4.5812 crottées	-0.2429
-4.2802 croyais	-0.2448
-4.1041 croyait	-0.2448
-4.5812 croyez	-0.2462
-4.5812 croûtes	-0.2333
-3.9791 cru	-0.2456
-4.5812 crue	-0.2504
-4.5812 cruel	-0.2488
-3.9791 cruelle	-0.2448
-4.1041 cruellement	-0.2263
-4.5812 crurent	-0.2410
-4.5812 crus	-0.2494
-4.2802 crut	-0.2468
-4.5812 crâne	-0.2333
-4.2802 crème	-0.2469
-4.5812 création	-0.2451
-4.2802 créature	-0.2354
-4.2802 créatures	-0.2456
-4.5812 crédit	-0.2481
-4.5812 crée	-0.2510
-3.8822 cuir	-0.2458
-3.9791 cuirassier	-0.2418
-4.5812 cuire	-0.2333
-4.1041 cuisine	-0.2359
-4.1041 cuisinière	-0.2474
-4.5812 cuisinières	-0.2413
-4.5812 cuisses	-0.2507
-4.5812 cuite	-0.2333
-4.5812 cuivre	-0.2493
-3.9791 cul	-0.2217
-4.5812 culminant	-0.2333
-4.5812 culottes	-0.2509
-4.5812 curieuses	-0.2413
-3.5812 curieux	-0.2001
-4.2802 curé	-0.2452
-4.5812 cuvette	-0.2469
-4.2802 cylindre	-0.2462
-4.5812 cylindres	-0.2511
-3.9791 cymbales	-0.2442
-4.5812 cynique	-0.2488
-4.5812 cyniques	-0.2475
-4.2802 câble	-0.2489
-4.5812 câline	-0.2462
-4.5812 céder	-0.2434
-4.5812 célibataires	-0.2479
-4.5812 cérémonies	-0.2511
-4.5812 césar	-0.2451
-4.5812 cône	-0.2511
-4.1041 côte	-0.2403
-4.5812 côtes	-0.2509
-3.6269 côté	-0.2018
-4.2802 côtés	-0.2494
-3.1498 cœur	-0.1431
-4.2802 cœurs	-0.2509
-1.9518 d	-0.2068
-4.2802 daim	-0.2381
-3.4051 dame	-0.1975
-3.7361 dames	-0.2003
-4.5812 dandysme	-0.2511
-4.5812 danger	-0.2452
-4.5812 dangereuse	-0.2462
-3.9791 dangereux	-0.2196
-4.5812 dangers	-0.2509
-2.0912 dans	-0.1472
-4.5812 dansant	-0.2410
-4.2802 danse	-0.2482
-4.5812 dansé	-0.2510
-4.5812 daphnis	-0.2413
-3.8822 darwin	-0.2397
-4.5812 darwinisme	-0.2452
-4.5812 date	-0.2511
-4.5812 datent	-0.2509
-4.5812 datura	-0.2511
-1.3976 de	-0.0623
-4.5812 dear_	-0.2482
-4.5812 death	-0.2510
-4.5812 debout	-0.2493
-4.2802 dedans	-0.2503
-4.2802 dehors	-0.2377
-3.7361 delavanne	-0.2331
-4.1041 delphacomanie	-0.2466
-4.5812 delphacos	-0.2479
-4.5812 delphax	-0.2511
-3.9791 demain	-0.2408
-3.4351 demanda	-0.2178
-4.1041 demandai	-0.2451
-4.5812 demandais	-0.2503
-4.5812 demandait	-0.2478
-4.5812 demandant	-0.2508
-3.5020 demande	-0.1906
-3.8030 demander	-0.2244
-4.1041 demandé	-0.2502
-4.5812 demeuraient	-0.2429
-4.5812 demeurait	-0.2489
-3.9791 demeure	-0.2354
-4.5812 demeurer	-0.2508
-4.5812 demeurèrent	-0.2469
-4.5812 demi	-0.2510
-4.5812 demoiselle	-0.2462
-3.9791 demoiselles	-0.2249
-4.5812 denier	-0.2333
-4.5812 dent	-0.2509
-4.5812 dentist_	-0.2475
-4.2802 dentiste	-0.2508
-4.5812 dentistes	-0.2510
-4.5812 dentition	-0.2429
-3.8822 dents	-0.2325
-3.2195 depuis	-0.1977
-3.2802 dernier	-0.2079
-3.5020 dernière	-0.2196
-4.2802 dernièrement	-0.2368
-4.1041 dernières	-0.2387
-3.5812 derrière	-0.2112
-2.0225 des	-0.2346
-4.5812 descend	-0.2333
-4.2802 descendaient	-0.2462
-4.5812 descendait	-0.2507
-4.2802 descendant	-0.2328
-3.9791 descendit	-0.2204
-4.5812 descendons	-0.2452
-4.1041 descendre	-0.2435
-4.1041 descends	-0.2482
-4.5812 descendus	-0.2475
-3.5812 desflemmes	-0.2244
-4.5812 desseins	-0.2502
-3.9791 dessert	-0.2307
-4.5812 dessous	-0.2410
-3.5812 dessus	-0.2071
-4.5812 desséchés	-0.2507
-4.5812 destiné	-0.2429
-4.5812 destinée	-0.2511
-4.5812 destruction	-0.2492
-2.7959 deux	-0.2092
-4.1041 deuxième	-0.2509
-3.5812 devait	-0.2454
-3.2388 devant	-0.1984
-4.1041 devanture	-0.2474
-3.9791 devenait	-0.2407
-4.5812 devenant	-0.2487
-4.5812 devenir	-0.2497
-3.7361 devenu	-0.2425
-4.2802 devenue	-0.2506
-4.5812 devez	-0.2490
-4.5812 deviens	-0.2510
-4.5812 devient	-0.2510
-4.1041 devinait	-0.2465
-4.5812 devine	-0.2469
-4.5812 devineriez	-0.2503
-4.1041 devinez	-0.2396
-4.5812 devinrent	-0.2511
-4.5812 devins	-0.2511
-3.9791 devint	-0.2391
-4.5812 deviné	-0.2447
-4.1041 devise	-0.2482
-3.8030 devoir	-0.2455
-4.5812 devoirs	-0.2510
-4.5812 devra	-0.2451
-4.5812 devraient	-0.2490
-4.5812 devrais	-0.2506
-4.5812 devrait	-0.2511
-4.5812 devînt	-0.2510
-4.5812 dextérité	-0.2510
-3.8030 deyck	-0.2510
-3.5812 diable	-0.2058
-4.5812 diabète	-0.2508
-4.5812 diabétique	-0.2452
-4.5812 diagnostic	-0.2490
-4.5812 diagnostiquai	-0.2511
-4.5812 dialogue	-0.2493
-4.5812 diamant	-0.2482
-3.1662 dieu	-0.1823
-4.5812 dieux	-0.2502
-3.9791 difficile	-0.2196
-4.5812 différence	-0.2508
-4.5812 différentes	-0.2451
-3.9791 différents	-0.2282
-4.1041 dign	-0.2491
-4.2802 digne	-0.2510
-4.5812 dignes	-0.2333
-4.2802 dignité	-0.2503
-4.5812 digérer	-0.2504
-4.5812 diligence	-0.2452
-4.5812 diluviennes	-0.2506
-3.8030 dimanche	-0.2482
-4.5812 dimension	-0.2462
-4.2802 dimensions	-0.2410
-4.2802 dinde	-0.2488
-4.5812 dindon	-0.2510
-4.1041 diplôme	-0.2462
-4.5812 dira	-0.2509
-4.5812 dirai	-0.2333
-4.1041 dirais	-0.2452
-4.2802 dirait	-0.2453
-4.5812 diras	-0.2413
-2.9684 dire	-0.1560
-4.2802 directement	-0.2429
-4.2802 direction	-0.2333
-4.5812 dirige	-0.2429
-4.5812 dirigèrent	-0.2510
-3.2195 dis	-0.2023
-3.9791 disaient	-0.2227
-4.1041 disais	-0.2448
-3.6269 disait	-0.2220
-3.9791 disant	-0.2429
-4.5812 discipline	-0.2486
-4.5812 discordante	-0.2488
-4.5812 discourtois	-0.2508
-4.5812 discret	-0.2462
-4.2802 discrétion	-0.2510
-4.5812 discussion	-0.2510
-4.2802 discussions	-0.2501
-4.2802 disent	-0.2447
-4.5812 disgrâces	-0.2469
-4.5812 disiez	-0.2482
-4.1041 disparu	-0.2330
-4.5812 disparus	-0.2511
-3.9791 disparut	-0.2347
-4.5812 dispersés	-0.2475
-4.5812 disponible	-0.2453
-4.5812 dispose	-0.2466
-4.5812 disposés	-0.2429
-4.2802 disputaient	-0.2425
-4.5812 disputer	-0.2507
-4.5812 disputèrent	-0.2487
-4.2802 dissimulant	-0.2507
-4.5812 distance	-0.2413
-4.5812 distinction	-0.2493
-4.2802 distingué	-0.2478
-4.2802 distinguée	-0.2507
-4.5812 distractions	-0.2511
-4.5812 distrait	-0.2491
-4.5812 distribuant	-0.2469
-4.2802 distribution	-0.2451
-2.9091 dit	-0.1810
-4.5812 dite	-0.2466
-3.6781 dites	-0.2337
-4.5812 diva	-0.2511
-4.5812 diverse	-0.2413
-4.5812 diversité	-0.2469
-4.5812 divertissement	-0.2506
-4.5812 divertit	-0.2507
-4.5812 divine	-0.2509
-4.2802 divorce	-0.2504
-3.5812 dix	-0.2494
-4.5812 dizaine	-0.2333
-4.2802 dizier	-0.2452
-4.5812 do	-0.2507
-4.2802 docile	-0.2413
-3.3507 docteur	-0.2228
-4.5812 docteurs	-0.2447
-4.5812 documentaire	-0.2333
-3.8822 doddy	-0.2359
-4.5812 dodo	-0.2447
-4.2802 doigt	-0.2501
-4.5812 doigts	-0.2508
-3.6269 dois	-0.2359
-3.6269 doit	-0.2460
-4.5812 dollars	-0.2333
-4.5812 domaine	-0.2451
-4.5812 domicile	-0.2466
-4.5812 dominait	-0.2482
-4.5812 dominante	-0.2510
-4.5812 dominos	-0.2508
-4.5812 dominotiers	-0.2413
-3.8822 dommage	-0.2460
-4.5812 don	-0.2506
-3.0014 donc	-0.2013
-4.2802 donna	-0.2447
-4.5812 donnaient	-0.2434
-4.1041 donnait	-0.2418
-4.5812 donnante	-0.2490
-3.9791 donne	-0.2438
-3.8030 donner	-0.2352
-4.2802 donnera	-0.2416
-4.5812 donnerai	-0.2469
-4.5812 donnons	-0.2493
-4.5812 donnèrent	-0.2511
-3.5020 donné	-0.1939
-4.5812 donnés	-0.2490
-2.9901 dont	-0.1897
-4.5812 doodle	-0.2493
-4.2802 door	-0.2506
-4.2802 dormait	-0.2465
-4.2802 dormir	-0.2448
-4.5812 dort	-0.2413
-4.5812 dorénavant	-0.2452
-4.1041 dos	-0.2420
-4.5812 doses	-0.2413
-4.5812 dot	-0.2510
-4.5812 douai	-0.2505
-4.2802 douairière	-0.2313
-4.1041 douane	-0.2504
-4.5812 douanes	-0.2488
-4.5812 douanier	-0.2452
-4.5812 double	-0.2510
-4.5812 doublement	-0.2451
-4.5812 doublée	-0.2462
-3.8822 douce	-0.2419
-3.5812 doucement	-0.2133
-4.1041 douleur	-0.2407
-4.5812 douloureuse	-0.2488
-4.5812 douloureusement	-0.2492
-4.5812 douloureux	-0.2510
-4.5812 doutait	-0.2333
-3.7361 doute	-0.2374
-4.5812 douter	-0.2462
-4.2802 douté	-0.2282
-3.8030 doux	-0.2343
-3.8822 doué	-0.2282
-4.2802 douée	-0.2462
-4.5812 dozulé	-0.2479
-4.2802 dr	-0.2510
-4.5812 drame	-0.2490
-4.5812 drapa	-0.2475
-4.5812 drapeau	-0.2495
-4.5812 draperies	-0.2510
-4.5812 draps	-0.2482
-4.5812 drapée	-0.2333
-4.5812 drastiques	-0.2508
-4.5812 dressa	-0.2447
-4.5812 dressait	-0.2410
-4.5812 dresse	-0.2410
-4.5812 dresser	-0.2469
-4.5812 drilles	-0.2462
-4.2802 drogues	-0.2413
-3.7361 droit	-0.2141
-3.8822 droite	-0.2199
-4.5812 droits	-0.2429
-4.5812 druggist_	-0.2489
-3.5812 drôle	-0.2153
-4.2802 drôles	-0.2333
-2.1781 du	-0.2246
-3.9791 duc	-0.2510
-4.5812 duché	-0.2502
-4.5812 due	-0.2490
-4.5812 dufay	-0.2413
-4.5812 dunkerque	-0.2498
-4.1041 duquel	-0.2390
-3.8030 dur	-0.2198
-4.5812 durables	-0.2511
-4.2802 durant	-0.2443
-4.5812 dure	-0.2497
-4.5812 durer	-0.2490
-4.1041 dus	-0.2508
-4.2802 dut	-0.2409
-4.2802 dynamite	-0.2384
-3.5812 dès	-0.2199
-4.5812 débarbouille	-0.2507
-4.5812 débarqua	-0.2505
-4.5812 débarras	-0.2511
-4.5812 débarrassant	-0.2333
-4.5812 débarrasser	-0.2333
-4.5812 débarrassé	-0.2333
-4.5812 débattis	-0.2490
-4.5812 débauché	-0.2462
-4.5812 débiter	-0.2333
-4.5812 déboires	-0.2413
-4.5812 débordante	-0.2503
-4.5812 déborde	-0.2469
-4.5812 débordements	-0.2488
-4.5812 débordé	-0.2410
-4.5812 début	-0.2493
-4.5812 débutais	-0.2475
-4.5812 débutants	-0.2506
-4.5812 débuter	-0.2475
-4.5812 débuts	-0.2511
-4.1041 décembre	-0.2427
-4.5812 décerné	-0.2429
-4.5812 décevant	-0.2510
-4.5812 décharnées	-0.2502
-4.5812 déchaîné	-0.2493
-4.5812 déchirer	-0.2510
-4.5812 décidai	-0.2489
-4.1041 décidé	-0.2358
-3.9791 décidément	-0.2485
-4.5812 décision	-0.2482
-4.2802 déclarai	-0.2501
-4.5812 déclarant	-0.2481
-4.5812 déclaration	-0.2413
-4.5812 déclare	-0.2410
-4.2802 déclarer	-0.2432
-4.5812 déconcerta	-0.2469
-4.5812 décoratif	-0.2509
-4.5812 décoratives	-0.2466
-4.5812 découplé	-0.2333
-4.5812 découvert	-0.2434
-4.1041 découverte	-0.2368
-4.2802 découvrir	-0.2447
-4.5812 découvrit	-0.2410
-4.5812 décriée	-0.2503
-4.5812 décrocha	-0.2453
-4.5812 décès	-0.2447
-4.5812 dédaigneuse	-0.2482
-4.5812 défaut	-0.2410
-4.2802 défendre	-0.2282
-4.5812 défends	-0.2502
-4.2802 défense	-0.2333
-4.5812 défi	-0.2508
-4.5812 défier	-0.2451
-4.5812 défilèrent	-0.2475
-4.5812 défroque	-0.2333
-4.2802 dégagea	-0.2474
-4.5812 dégaina	-0.2410
-4.5812 dégarnit	-0.2333
-4.5812 dégel	-0.2482
-4.5812 dégourdissait	-0.2451
-4.5812 dégoûta	-0.2429
-4.2802 dégoûtante	-0.2388
-4.5812 dégoûtent	-0.2466
-4.1041 dégoûté	-0.2303
-4.5812 déguiser	-0.2466
-4.2802 déguisé	-0.2466
-4.5812 déguisée	-0.2466
-4.5812 dégustait	-0.2489
-3.6269 déjeuner	-0.2283
-4.2802 déjeunèrent	-0.2510
-3.8030 déjà	-0.2311
-4.5812 délicat	-0.2481
-4.1041 délicate	-0.2413
-4.5812 délicatesse	-0.2490
-4.5812 délicats	-0.2452
-4.5812 délices	-0.2451
-4.1041 délicieuse	-0.2393
-4.2802 délicieusement	-0.2333
-4.5812 délicieux	-0.2511
-4.5812 délirantes	-0.2413
-4.5812 déluge	-0.2511
-4.5812 démangeaisons	-0.2413
-4.5812 démence	-0.2510
-4.5812 dément	-0.2510
-4.5812 démentit	-0.2503
-4.5812 déments	-0.2503
-4.5812 démesuré	-0.2510
-4.5812 démesurée	-0.2483
-4.5812 démodé	-0.2413
-4.5812 démons	-0.2483
-4.5812 démontait	-0.2469
-4.5812 démontrer	-0.2497
-4.5812 démunie	-0.2462
-4.2802 déménagement	-0.2443
-4.2802 déménager	-0.2450
-4.5812 déménagé	-0.2507
-4.2802 dénouement	-0.2480
-4.2802 dénué	-0.2333
-4.5812 dénuée	-0.2511
-4.5812 dénuées	-0.2333
-4.5812 dépassa	-0.2451
-4.2802 dépassait	-0.2451
-4.5812 dépassant	-0.2451
-4.5812 dépasser	-0.2434
-4.5812 dépenaillé	-0.2510
-4.2802 dépend	-0.2463
-4.5812 dépit	-0.2333
-4.5812 déplacée	-0.2508
-4.5812 déplaisant	-0.2510
-4.5812 déplorables	-0.2510
-4.5812 déplumé	-0.2479
-4.5812 dépoli	-0.2489
-4.5812 dépêche	-0.2507
-4.5812 dépêcher	-0.2333
-4.5812 dérisoire	-0.2451
-4.5812 dérobait	-0.2466
-4.5812 dérober	-0.2434
-4.5812 dérobés	-0.2452
-4.5812 déroulède	-0.2502
-4.5812 dés	-0.2413
-4.5812 désagréable	-0.2491
-4.5812 désarmer	-0.2488
-4.5812 désarmé	-0.2508
-4.5812 désarmés	-0.2510
-4.5812 désarticulant	-0.2410
-4.5812 désastres	-0.2413
-4.5812 désemplissait	-0.2469
-4.5812 déserte	-0.2509
-4.5812 déserter	-0.2410
-4.5812 désertes	-0.2333
-4.5812 déserté	-0.2451
-4.1041 désespoir	-0.2386
-4.5812 désespoirs	-0.2462
-4.5812 désespéré	-0.2413
-4.5812 désespérée	-0.2413
-4.5812 désespérément	-0.2502
-4.5812 déshabilla	-0.2451
-4.5812 déshonoré	-0.2462
-4.2802 désignait	-0.2409
-4.5812 désignations	-0.2413
-4.2802 désigner	-0.2473
-4.5812 désillusion	-0.2494
-4.5812 désinvolture	-0.2510
-4.1041 désir	-0.2282
-4.5812 désirait	-0.2488
-4.5812 désirez	-0.2504
-4.5812 désobligeantes	-0.2429
-4.5812 désobligeants	-0.2493
-4.5812 désobligé	-0.2497
-4.5812 désoler	-0.2493
-4.5812 désolé	-0.2452
-4.2802 désolée	-0.2319
-4.5812 désordre	-0.2510
-4.2802 désormais	-0.2483
-4.5812 détachées	-0.2333
-3.9791 détail	-0.2492
-4.2802 détails	-0.2481
-4.2802 détenteurs	-0.2333
-4.5812 déterminait	-0.2451
-4.2802 détermine	-0.2306
-4.5812 déterminer	-0.2510
-4.5812 déterminé	-0.2410
-4.5812 déterreront	-0.2509
-4.5812 détour	-0.2506
-4.5812 détournerais	-0.2505
-4.5812 détromper	-0.2451
-4.5812 développé	-0.2510
-4.5812 développés	-0.2493
-4.5812 dévergondée	-0.2481
-4.2802 dévorant	-0.2392
-4.5812 dévoré	-0.2497
-4.5812 dévoué	-0.2509
-4.2802 dévoyé	-0.2300
-4.5812 dézébrer	-0.2510
-4.2802 dîna	-0.2408
-4.5812 dînaient	-0.2410
-3.6781 dîner	-0.2295
-4.5812 dînette	-0.2493
-4.5812 dîneurs	-0.2483
-4.5812 dînons	-0.2510
-4.5812 dînèrent	-0.2510
-4.5812 dîné	-0.2451
-4.1041 dû	-0.2405
-4.5812 e	-0.2488
-3.5812 eau	-0.2096
-4.5812 eaux	-0.2511
-3.9791 ecclésiastique	-0.2230
-4.5812 eczémateux	-0.2478
-4.5812 eden	-0.2491
-4.5812 effaré	-0.2478
-4.1041 effectivement	-0.2407
-4.5812 effectives	-0.2410
-3.5398 effet	-0.2006
-4.5812 effets	-0.2502
-4.5812 effleurer	-0.2451
-4.5812 effleuré	-0.2482
-4.5812 effondrant	-0.2475
-4.5812 effondré	-0.2497
-4.1041 efforts	-0.2488
-4.2802 effrayant	-0.2478
-4.2802 effroi	-0.2412
-4.2802 effrontée	-0.2487
-4.2802 effroyable	-0.2429
-4.5812 effusions	-0.2502
-4.5812 eguisier	-0.2486
-3.1188 eh	-0.2411
-2.3406 elle	-0.0984
-3.8030 ellen	-0.2277
-3.6269 elles	-0.2290
-4.5812 embarrassé	-0.2462
-4.2802 embrassa	-0.2429
-4.5812 embrassai	-0.2510
-4.5812 embrassaient	-0.2502
-4.5812 embrassais	-0.2493
-4.5812 embrassait	-0.2410
-4.1041 embrasser	-0.2306
-3.6269 embrasseur	-0.2140
-4.5812 embrouille	-0.2507
-4.5812 embrumait	-0.2410
-4.5812 embryonnaires	-0.2510
-4.5812 embêtais	-0.2469
-4.2802 embêtait	-0.2510
-4.2802 embête	-0.2348
-3.8822 embêter	-0.2390
-4.2802 embêtes	-0.2477
-4.5812 embêtèrent	-0.2469
-4.5812 embêté	-0.2493
-4.2802 emily	-0.2461
-4.5812 emmena	-0.2505
-4.5812 empaillées	-0.2511
-4.5812 empanaché	-0.2451
-4.5812 empara	-0.2469
-4.5812 emparai	-0.2505
-4.5812 empila	-0.2478
-4.5812 empire	-0.2491
-4.5812 emploient	-0.2489
-4.5812 employe	-0.2429
-4.5812 employer	-0.2492
-3.9791 employé	-0.2465
-4.5812 employés	-0.2511
-4.5812 emplâtre	-0.2488
-4.5812 empochai	-0.2478
-3.9791 empoigna	-0.2396
-4.5812 emportait	-0.2505
-4.5812 empressée	-0.2509
-4.2802 emprunter	-0.2469
-4.1041 empêche	-0.2238
-4.2802 empêcher	-0.2228
-4.5812 empêcherait	-0.2451
-4.5812 empêches	-0.2333
-1.9912 en	-0.1424
-4.5812 encadraient	-0.2497
-4.5812 enchanté	-0.2333
-4.2802 enchantés	-0.2333
-4.5812 enchères	-0.2511
-4.5812 encolure	-0.2333
-4.5812 encombrait	-0.2501
-4.5812 encombre	-0.2490
-4.1041 encombrement	-0.2235
-4.5812 encontre	-0.2333
-3.0627 encore	-0.1865
-4.5812 encouragea	-0.2451
-4.5812 encouragés	-0.2497
-4.2802 endiablé	-0.2487
-4.2802 endormis	-0.2409
-4.5812 endort	-0.2410
-4.5812 endossait	-0.2497
-3.6781 endroit	-0.2304
-4.2802 endroits	-0.2510
-4.5812 enfance	-0.2413
-3.9791 enfant	-0.2495
-4.5812 enfantine	-0.2434
-3.7361 enfants	-0.2128
-4.5812 enfer	-0.2488
-4.5812 enfermer	-0.2509
-4.5812 enfermeras	-0.2410
-4.5812 enfila	-0.2410
-4.5812 enfilant	-0.2453
-4.5812 enfiler	-0.2453
-3.6781 enfin	-0.2332
-4.5812 enfoncer	-0.2497
-4.1041 enfonça	-0.2475
-4.5812 enfuit	-0.2511
-4.5812 enfuyais	-0.2510
-4.5812 engageantes	-0.2413
-4.2802 engagement	-0.2333
-4.5812 engager	-0.2410
-4.2802 engagé	-0.2351
-4.5812 engendrer	-0.2434
-4.5812 engin	-0.2511
-4.5812 engouement	-0.2510
-4.5812 engouffrait	-0.2475
-4.5812 engouffrer	-0.2475
-4.5812 engourdies	-0.2493
-4.5812 engraisser	-0.2413
-4.5812 engraissé	-0.2490
-4.5812 enhardi	-0.2510
-4.1041 enleva	-0.2260
-4.5812 enlever	-0.2508
-4.5812 ennemi	-0.2482
-4.5812 ennemis	-0.2483
-4.5812 ennui	-0.2511
-4.5812 ennuient	-0.2434
-4.2802 ennuyait	-0.2398
-4.5812 enragé	-0.2510
-4.5812 enrouement	-0.2504
-4.5812 enroulaient	-0.2475
-4.5812 enroué	-0.2508
-4.2802 enrouée	-0.2495
-4.5812 enseigne	-0.2410
-4.5812 enseignement	-0.2511
-3.7361 ensemble	-0.2268
-4.5812 ensuit	-0.2491
-4.2802 ensuite	-0.2450
-4.5812 entassa	-0.2475
-4.5812 entassait	-0.2453
-4.5812 entendais	-0.2506
-4.5812 entendait	-0.2506
-4.5812 entendant	-0.2509
-4.5812 entendement	-0.2507
-4.5812 entendeur	-0.2510
-4.5812 entendeuse	-0.2510
-3.9791 entendre	-0.2328
-4.5812 entends	-0.2499
-3.6269 entendu	-0.2297
-4.5812 entendus	-0.2509
-4.5812 enterra	-0.2475
-4.2802 enterrement	-0.2468
-4.2802 enterré	-0.2410
-4.5812 entier	-0.2489
-4.5812 entiers	-0.2488
-4.2802 entièrement	-0.2510
-4.5812 entonna	-0.2453
-4.5812 entonnoir	-0.2505
-4.5812 entoura	-0.2410
-4.5812 entouraient	-0.2510
-4.5812 entourait	-0.2447
-3.9791 entra	-0.2420
-3.8822 entrai	-0.2406
-4.5812 entrain	-0.2509
-4.5812 entrais	-0.2466
-4.5812 entrait	-0.2475
-4.5812 entravait	-0.2413
-4.2802 entraîna	-0.2473
-3.2388 entre	-0.2094
-4.5812 entrebâillement	-0.2333
-4.5812 entrent	-0.2508
-4.5812 entrepont	-0.2509
-4.5812 entreprendrai	-0.2469
-3.9791 entrer	-0.2402
-4.1041 entresol	-0.2401
-4.5812 entretenir	-0.2489
-4.1041 entretien	-0.2298
-4.5812 entrevue	-0.2452
-4.5812 entrons	-0.2466
-4.5812 entrouverte	-0.2511
-3.7361 entrée	-0.2294
-4.5812 entrés	-0.2475
-4.5812 entêté	-0.2481
-4.5812 envahis	-0.2497
-4.5812 enveloppait	-0.2504
-4.1041 enveloppe	-0.2471
-4.5812 envers	-0.2452
-4.5812 enviable	-0.2511
-4.5812 enviaient	-0.2504
-3.9791 envie	-0.2281
-4.1041 environ	-0.2449
-4.1041 environs	-0.2303
-4.5812 envoi	-0.2462
-4.2802 envoie	-0.2333
-4.5812 envois	-0.2497
-4.5812 envolaient	-0.2493
-4.5812 envoya	-0.2507
-4.5812 envoyai	-0.2429
-4.5812 envoyait	-0.2469
-4.2802 envoyer	-0.2370
-4.5812 envoyât	-0.2469
-4.5812 envoyé	-0.2493
-4.2802 ern	-0.2510
-4.5812 errements	-0.2511
-4.2802 erreurs	-0.2248
-4.5812 erville	-0.2511
-3.7361 es	-0.2397
-4.5812 escadres	-0.2333
-3.8822 escalier	-0.2199
-4.5812 escaliers	-0.2413
-4.5812 esclaves	-0.2511
-4.5812 espiègle	-0.2511
-4.5812 espiègles	-0.2333
-4.5812 espoir	-0.2333
-3.6781 esprit	-0.2108
-4.5812 esprits	-0.2509
-3.6269 espèce	-0.2281
-4.2802 espère	-0.2490
-4.2802 espérances	-0.2416
-4.5812 essai	-0.2510
-4.2802 essaya	-0.2290
-4.5812 essayai	-0.2333
-4.2802 essence	-0.2396
-4.5812 essieu	-0.2511
-4.5812 essoufflée	-0.2488
-4.5812 essuie	-0.2490
-4.5812 essuyer	-0.2453
-2.0997 est	-0.0618
-4.5812 estaminet	-0.2482
-4.5812 esthetic	-0.2511
-4.5812 esthétique	-0.2469
-4.5812 estimais	-0.2495
-3.9791 estomac	-0.2333
-3.9791 estrade	-0.2338
-1.6543 et	0.0315
-3.6269 etc	-0.2255
-4.2802 ethnographie	-0.2404
-4.5812 ethnographique	-0.2490
-3.5812 eu	-0.1971
-4.5812 eugène	-0.2511
-4.5812 eugénie	-0.2488
-4.5812 eurent	-0.2510
-4.2802 europe	-0.2386
-3.5812 eus	-0.2203
-4.5812 eusse	-0.2511
-4.2802 eussent	-0.2504
-3.5812 eut	-0.2138
-3.5812 eux	-0.2208
-4.2802 evening	-0.2510
-4.5812 ex	-0.2510
-4.2802 exact	-0.2481
-4.5812 exacte	-0.2510
-3.9791 exactement	-0.2311
-4.5812 exactitude	-0.2496
-4.5812 exacts	-0.2510
-4.5812 exagère	-0.2452
-4.1041 examen	-0.2369
-4.1041 examens	-0.2501
-4.5812 examinai	-0.2497
-4.2802 examinateurs	-0.2477
-4.1041 excellent	-0.2501
-4.2802 excellente	-0.2510
-4.5812 excentric	-0.2488
-4.5812 excentrique	-0.2333
-4.5812 exceptions	-0.2410
-4.5812 excepté	-0.2511
-4.5812 excita	-0.2410
-4.5812 exclama	-0.2510
-4.2802 excluait	-0.2507
-4.5812 exclusivement	-0.2510
-4.2802 exclut	-0.2469
-4.5812 excréments	-0.2413
-4.2802 excusa	-0.2493
-4.5812 excuse	-0.2462
-4.5812 excuser	-0.2434
-4.5812 excuses	-0.2413
-4.5812 excédent	-0.2333
-3.6269 exemple	-0.2167
-4.5812 exemples	-0.2413
-4.5812 exempte	-0.2333
-3.9791 exercice	-0.2181
-4.5812 exerçant	-0.2453
-4.5812 exhiber	-0.2502
-4.1041 exhibition	-0.2441
-4.5812 exigences	-0.2489
-4.5812 exigu	-0.2452
-4.5812 exiguë	-0.2495
-4.5812 exiguïté	-0.2511
-4.5812 existe	-0.2500
-3.8030 existence	-0.2171
-4.5812 exorbitante	-0.2462
-4.2802 exotique	-0.2333
-4.2802 exotiques	-0.2428
-4.2802 explication	-0.2449
-3.9791 expliquer	-0.2391
-4.5812 expliquerai	-0.2498
-4.5812 expliqueras	-0.2499
-4.5812 exploré	-0.2510
-4.1041 explosion	-0.2249
-4.2802 expose	-0.2508
-3.3771 exposition	-0.2146
-4.5812 expositions	-0.2511
-4.2802 express	-0.2333
-4.2802 expresse	-0.2333
-4.5812 expression	-0.2511
-4.5812 exprimer	-0.2466
-4.5812 exprès	-0.2498
-4.5812 exquis	-0.2511
-4.2802 exquise	-0.2413
-4.5812 exquises	-0.2509
-4.5812 extraordinaire	-0.2510
-3.9791 extrême	-0.2509
-4.1041 extrêmement	-0.2501
-4.5812 extérieur	-0.2510
-4.1041 exécutait	-0.2184
-4.5812 exécutant	-0.2453
-4.5812 exécuter	-0.2505
-4.5812 exécuté	-0.2497
-4.5812 exécutée	-0.2452
-4.5812 exécutées	-0.2452
-4.5812 exécutés	-0.2501
-3.5020 eût	-0.2394
-3.7361 f	-0.2218
-4.5812 fable	-0.2493
-4.5812 fables	-0.2462
-4.5812 fabricant	-0.2462
-4.1041 fabrication	-0.2510
-4.5812 fabriquer	-0.2469
-4.5812 fabriquez	-0.2498
-4.5812 fabuleux	-0.2333
-4.5812 face	-0.2509
-4.1041 facilement	-0.2412
-4.5812 facilité	-0.2478
-3.8822 faction	-0.2365
-4.5812 factionnaire	-0.2410
-4.5812 factures	-0.2511
-4.5812 facultés	-0.2506
-4.5812 facéties	-0.2476
-4.5812 fagots	-0.2510
-4.2802 faible	-0.2506
-4.5812 faiblement	-0.2510
-4.5812 faibles	-0.2510
-4.2802 faiblesse	-0.2450
-4.5812 faict	-0.2511
-4.5812 failli	-0.2510
-4.2802 faillit	-0.2490
-4.1041 faillite	-0.2288
-2.8488 faire	-0.1491
-3.5812 fais	-0.2125
-4.5812 faisable	-0.2410
-3.9791 faisaient	-0.2452
-4.2802 faisais	-0.2487
-3.1340 faisait	-0.1860
-4.1041 faisant	-0.2466
-4.5812 faisions	-0.2333
-2.7888 fait	-0.1367
-3.8030 faite	-0.2356
-3.6781 faites	-0.2385
-4.5812 faits	-0.2483
-4.5812 falaises	-0.2413
-3.9791 fallait	-0.2363
-4.2802 falot	-0.2388
-4.2802 fameuse	-0.2509
-4.1041 fameux	-0.2508
-4.5812 familier	-0.2333
-4.5812 familiers	-0.2451
-3.2802 famille	-0.1800
-4.2802 familles	-0.2333
-4.5812 fange	-0.2451
-4.1041 fantaisie	-0.2407
-4.5812 fantaisies	-0.2452
-4.1041 fantaisiste	-0.2389
-4.5812 faquins	-0.2462
-4.5812 farce	-0.2482
-4.2802 farnèse	-0.2437
-4.5812 farouche	-0.2496
-4.5812 farouches	-0.2511
-3.9791 fasse	-0.2245
-4.5812 fastueuse	-0.2333
-4.5812 fat	-0.2452
-4.5812 fatal	-0.2504
-4.5812 fati_	-0.2502
-4.5812 fatidique	-0.2333
-4.5812 fatiguerai	-0.2469
-4.5812 fatma	-0.2502
-4.1041 faubourg	-0.2507
-4.5812 fauchée	-0.2497
-4.2802 faudra	-0.2485
-4.5812 faudrait	-0.2511
-4.2802 fausser	-0.2400
-4.5812 fausses	-0.2510
-3.3259 faut	-0.2064
-4.2802 faute	-0.2380
-4.2802 fauteuil	-0.2413
-4.5812 fauve	-0.2510
-4.5812 fauves	-0.2333
-3.9791 faux	-0.2485
-4.2802 faveur	-0.2433
-4.5812 favorisée	-0.2497
-4.2802 favorite	-0.2405
-3.4351 façon	-0.2102
-4.2802 feignant	-0.2498
-3.0014 femme	-0.1467
-3.6781 femmes	-0.2150
-4.5812 fenayrou	-0.2510
-4.5812 fente	-0.2511
-3.8822 fenêtre	-0.2318
-4.1041 fenêtres	-0.2306
-3.8822 fer	-0.2409
-4.2802 fera	-0.2486
-4.5812 ferai	-0.2510
-4.2802 feraient	-0.2447
-4.1041 ferais	-0.2393
-3.6781 ferait	-0.2298
-4.5812 feras	-0.2510
-4.5812 ferblanterie	-0.2503
-3.3259 ferdinand	-0.2104
-4.5812 ferez	-0.2503
-4.2802 ferma	-0.2306
-4.5812 fermai	-0.2410
-3.8030 ferme	-0.2266
-4.5812 fermier	-0.2510
-4.2802 fermé	-0.2429
-4.5812 fermées	-0.2504
-4.5812 fermés	-0.2490
-4.5812 ferons	-0.2504
-4.5812 feront	-0.2453
-3.9791 feu	-0.2491
-3.8822 feuille	-0.2333
-4.2802 feuilles	-0.2462
-4.5812 feutre	-0.2511
-4.5812 fiancé	-0.2486
-4.2802 ficelle	-0.2461
-4.5812 fichais	-0.2469
-4.2802 fichait	-0.2426
-3.8822 fiche	-0.2235
-4.5812 ficheras	-0.2469
-3.8030 fichu	-0.2145
-4.5812 fichus	-0.2429
-4.1041 fidèle	-0.2485
-4.5812 fier	-0.2413
-4.5812 figurait	-0.2466
-3.9791 figure	-0.2444
-4.5812 figurer	-0.2505
-4.5812 figurez	-0.2482
-4.5812 filait	-0.2493
-4.5812 file	-0.2478
-4.5812 filer	-0.2452
-2.9579 fille	-0.1602
-3.6269 filles	-0.2306
-4.5812 fillettes	-0.2490
-3.5812 fils	-0.2033
-3.2010 fin	-0.1622
-4.5812 finalement	-0.2505
-4.5812 finance	-0.2511
-4.5812 fine	-0.2469
-4.5812 finement	-0.2410
-3.9791 fines	-0.2413
-4.2802 fini	-0.2496
-4.5812 finie	-0.2510
-4.5812 finir	-0.2507
-4.5812 finirent	-0.2497
-4.5812 finissent	-0.2497
-3.8822 fins	-0.2367
-4.2802 fioles	-0.2392
-4.2802 firent	-0.2488
-3.5020 fis	-0.2282
-4.5812 fisse	-0.2462
-3.0249 fit	-0.1925
-4.5812 fixa	-0.2508
-4.5812 fixaient	-0.2511
-4.5812 fixé	-0.2493
-4.5812 fixée	-0.2493
-4.1041 flacon	-0.2333
-4.5812 flagrante	-0.2451
-4.5812 flamand	-0.2510
-4.5812 flambaient	-0.2462
-4.5812 flamboyait	-0.2478
-4.1041 flamboyants	-0.2469
-4.5812 flamboyèrent	-0.2508
-4.2802 flamme	-0.2470
-4.5812 flammes	-0.2479
-4.2802 flanc	-0.2509
-4.5812 flancs	-0.2503
-4.5812 flanqué	-0.2505
-4.5812 flanqués	-0.2497
-4.2802 flaque	-0.2232
-4.5812 flattant	-0.2489
-4.5812 flatte	-0.2506
-4.5812 flatteurs	-0.2510
-4.5812 flatteuses	-0.2510
-4.5812 flattés	-0.2333
-4.5812 flegme	-0.2510
-4.5812 flemmard	-0.2333
-4.5812 fleurant	-0.2413
-4.5812 fleurissaient	-0.2489
-4.2802 fleurs	-0.2335
-4.5812 fleuves	-0.2479
-4.5812 flingot	-0.2413
-4.5812 florissante	-0.2511
-4.5812 flots	-0.2333
-4.5812 flotte	-0.2490
-4.5812 flâner	-0.2508
-4.5812 flâneries	-0.2497
-4.5812 flâneuse	-0.2413
-3.6269 foi	-0.2299
-4.5812 foin	-0.2333
-2.9477 fois	-0.1516
-4.1041 folie	-0.2434
-4.1041 folies	-0.2413
-4.1041 folle	-0.2330
-4.5812 folles	-0.2510
-3.8822 fonction	-0.2433
-4.5812 fonctionnaires	-0.2452
-3.6781 fond	-0.2236
-4.2802 fonds	-0.2448
-4.5812 fondu	-0.2493
-3.9791 font	-0.2272
-4.5812 fontaine	-0.2479
-4.2802 fontenay	-0.2499
-4.2802 for	-0.2510
-3.8030 force	-0.2232
-4.5812 forcer	-0.2451
-4.5812 forcerais	-0.2451
-4.1041 forcé	-0.2311
-4.5812 forfaitz	-0.2511
-4.5812 forma	-0.2410
-4.5812 formaient	-0.2487
-4.5812 formation	-0.2462
-4.5812 formats	-0.2486
-3.7361 forme	-0.2085
-4.2802 formes	-0.2438
-4.5812 formidable	-0.2510
-4.5812 formidables	-0.2510
-4.5812 formulé	-0.2466
-3.1188 fort	-0.2076
-3.5812 forte	-0.2343
-4.2802 fortement	-0.2368
-4.5812 fortes	-0.2510
-4.5812 fortifications	-0.2469
-3.6781 fortune	-0.2333
-4.5812 forçait	-0.2429
-3.5812 fou	-0.2152
-4.5812 foudre	-0.2490
-4.5812 foudroya	-0.2447
-4.5812 foudroyer	-0.2434
-4.5812 foudroyé	-0.2497
-4.5812 fouet	-0.2481
-4.5812 fouetta	-0.2447
-4.5812 fougueuse	-0.2511
-4.5812 fouiller	-0.2502
-4.5812 foulai	-0.2410
-4.2802 foule	-0.2403
-4.5812 found	-0.2507
-4.5812 fourchettes	-0.2469
-4.5812 fourmillement	-0.2482
-4.5812 fourneau	-0.2462
-4.5812 fourneaux	-0.2511
-4.5812 fournir	-0.2508
-4.5812 fournissent	-0.2490
-4.5812 fourniture	-0.2333
-3.8822 fourquemin	-0.2407
-4.5812 fourrait	-0.2510
-4.5812 fourrer	-0.2451
-4.5812 fourré	-0.2475
-4.5812 fours	-0.2413
-4.1041 fous	-0.2331
-4.5812 foutu	-0.2333
-4.5812 fox	-0.2507
-4.5812 foyers	-0.2462
-4.5812 fragment	-0.2333
-3.9791 frais	-0.2410
-3.8030 france	-0.2361
-4.2802 franchement	-0.2477
-3.6781 francs	-0.2361
-4.1041 français	-0.2446
-4.2802 française	-0.2410
-4.5812 françois	-0.2511
-4.5812 frappa	-0.2469
-4.5812 frappai	-0.2429
-4.5812 frappante	-0.2410
-4.5812 frapper	-0.2429
-4.5812 frappé	-0.2462
-4.5812 frasque	-0.2487
-4.2802 frasques	-0.2510
-4.5812 fraternité	-0.2434
-4.5812 frayeur	-0.2510
-4.5812 fraîche	-0.2510
-4.2802 fraîchement	-0.2510
-4.2802 fraîcheur	-0.2477
-4.5812 fraîchissait	-0.2452
-4.5812 friand	-0.2333
-4.5812 friction	-0.2511
-4.5812 frictionner	-0.2410
-4.5812 frictionné	-0.2410
-4.5812 frigide	-0.2333
-4.5812 frileux	-0.2333
-4.5812 frisait	-0.2410
-4.5812 frisant	-0.2410
-4.5812 frise	-0.2410
-4.5812 frisons	-0.2479
-4.5812 frissons	-0.2510
-4.5812 frisé	-0.2410
-4.5812 frisés	-0.2413
-4.5812 frite	-0.2413
-3.7361 froid	-0.2358
-4.5812 froide	-0.2434
-4.5812 froids	-0.2413
-4.5812 froissent	-0.2509
-4.5812 froncez	-0.2469
-3.8030 front	-0.2230
-4.5812 frontières	-0.2511
-4.5812 fronça	-0.2489
-4.5812 frottaient	-0.2451
-4.5812 frottait	-0.2510
-4.5812 frottant	-0.2451
-4.5812 frotte	-0.2451
-4.5812 fructueux	-0.2410
-4.5812 frères	-0.2493
-4.5812 frémissements	-0.2462
-4.2802 frémit	-0.2490
-4.5812 fréquence	-0.2510
-4.5812 fréquent	-0.2489
-4.5812 fréquentait	-0.2475
-4.5812 fréquentée	-0.2497
-3.8822 frêle	-0.2379
-4.5812 fuite	-0.2333
-4.5812 fulgura	-0.2410
-4.5812 fumait	-0.2434
-4.5812 fumant	-0.2434
-4.5812 fumants	-0.2481
-4.5812 fument	-0.2469
-4.2802 fumer	-0.2504
-4.5812 fumer_	-0.2509
-4.5812 fumet	-0.2333
-4.1041 fumier	-0.2403
-4.5812 fumiste	-0.2508
-4.5812 funèbres	-0.2495
-3.8822 furent	-0.2502
-4.5812 furet	-0.2498
-4.5812 fureur	-0.2333
-4.5812 furibonds	-0.2507
-4.5812 furieuse	-0.2510
-4.2802 furieux	-0.2392
-4.5812 furtif	-0.2469
-4.5812 furtive	-0.2413
-4.5812 furtivement	-0.2510
-3.8030 fus	-0.2442
-4.5812 fusil	-0.2413
-4.5812 fusilleriez	-0.2510
-4.5812 fusse	-0.2510
-2.9791 fut	-0.1728
-4.5812 futaille	-0.2511
-4.2802 fuyait	-0.2491
-4.5812 fâcher	-0.2333
-4.5812 fâché	-0.2333
-4.5812 féculents	-0.2511
-4.5812 fées	-0.2511
-4.5812 félicita	-0.2333
-4.5812 fénelon	-0.2476
-4.5812 férocité	-0.2510
-4.5812 féroé	-0.2510
-3.8030 fête	-0.2224
-4.5812 fêtes	-0.2511
-4.5812 fîmes	-0.2410
-4.5812 fûmes	-0.2510
-3.7361 fût	-0.2357
-4.2802 g	-0.2455
-4.2802 gabelou	-0.2440
-4.5812 gageure	-0.2490
-4.1041 gagna	-0.2306
-4.1041 gagner	-0.2508
-4.1041 gaiement	-0.2472
-4.5812 gaieté	-0.2501
-4.5812 gaietés	-0.2462
-4.5812 gaillarde	-0.2333
-4.5812 gaillards	-0.2429
-4.5812 gais	-0.2511
-4.2802 galerie	-0.2469
-4.5812 galette	-0.2429
-4.2802 gallo	-0.2510
-4.5812 galonnée	-0.2489
-4.1041 galop	-0.2315
-4.5812 galopait	-0.2492
-4.2802 gants	-0.2489
-4.5812 garanti	-0.2333
-4.5812 garantir	-0.2333
-4.5812 garantis	-0.2469
-4.5812 gardaient	-0.2505
-3.6269 garde	-0.2194
-4.1041 garder	-0.2435
-4.5812 gardiens	-0.2333
-4.5812 gare	-0.2451
-4.5812 gargousses	-0.2507
-4.5812 garnement	-0.2479
-4.5812 garnison	-0.2333
-4.5812 garnissaient	-0.2447
-4.5812 gars	-0.2510
-2.9579 garçon	-0.1397
-3.8030 garçons	-0.2104
-4.2802 gaspard	-0.2330
-3.7361 gauche	-0.1990
-4.5812 gauchement	-0.2510
-4.5812 gaulois	-0.2413
-4.5812 gausser	-0.2469
-4.5812 gauthier	-0.2511
-4.5812 gazouillis	-0.2462
-4.1041 gendarmes	-0.2388
-4.1041 genoux	-0.2409
-4.1041 genre	-0.2452
-4.5812 genres	-0.2333
-2.8488 gens	-0.1787
-3.7361 gentil	-0.2346
-4.5812 gentilhomme	-0.2507
-3.7361 gentille	-0.2205
-4.5812 gentilles	-0.2413
-4.5812 gentils	-0.2510
-4.5812 gentiment	-0.2504
-4.5812 gentleman	-0.2493
-4.5812 gentlemen	-0.2479
-4.5812 genèse	-0.2333
-3.3507 george	-0.2218
-4.5812 georges	-0.2413
-4.2802 germain	-0.2411
-4.5812 geste	-0.2511
-4.1041 gesticulatoire	-0.2442
-4.5812 giboyeux	-0.2413
-4.5812 gifle	-0.2434
-4.5812 gigot	-0.2413
-4.2802 gigue	-0.2428
-4.5812 gilets	-0.2462
-4.5812 glace	-0.2493
-4.5812 glaces	-0.2510
-4.5812 glacialité	-0.2511
-4.5812 glaçait	-0.2491
-4.5812 glisse	-0.2410
-4.5812 glissement	-0.2511
-4.5812 glisseras	-0.2429
-4.5812 glissèrent	-0.2510
-4.5812 glissé	-0.2475
-4.5812 gobai	-0.2497
-4.5812 gobbler	-0.2410
-4.5812 gobes	-0.2489
-4.5812 goinfre	-0.2489
-3.8822 gommeux	-0.2377
-4.5812 gonfalonier	-0.2333
-4.2802 good	-0.2510
-4.5812 gorge	-0.2333
-4.5812 gosiers	-0.2511
-4.2802 gosse	-0.2377
-4.5812 gosses	-0.2490
-4.5812 gotha	-0.2509
-4.5812 goutte	-0.2504
-4.2802 gouvernante	-0.2468
-4.2802 gouvernement	-0.2445
-4.5812 goût	-0.2413
-4.2802 grace	-0.2481
-4.2802 gracieux	-0.2509
-4.5812 grade	-0.2413
-4.5812 graduellement	-0.2508
-3.8030 grailly	-0.2431
-4.5812 grain	-0.2333
-4.5812 grammaire	-0.2429
-4.5812 grammes	-0.2413
-2.9280 grand	-0.2346
-3.0371 grande	-0.2363
-3.8030 grandes	-0.2506
-4.5812 grandeur	-0.2510
-3.4672 grands	-0.2405
-4.5812 granit	-0.2506
-4.2802 grappe	-0.2333
-4.2802 gras	-0.2413
-4.5812 gratifier	-0.2481
-4.2802 gratta	-0.2410
-4.5812 grattant	-0.2510
-4.5812 gratter	-0.2493
-3.8030 grave	-0.2252
-3.9791 gravement	-0.2288
-3.9791 graves	-0.2349
-3.9791 graveur	-0.2510
-4.2802 gravité	-0.2429
-4.5812 gravure	-0.2413
-4.5812 gravé	-0.2490
-4.5812 grec	-0.2511
-4.1041 grecques	-0.2350
-4.5812 grecs	-0.2511
-4.5812 grelottent	-0.2410
-4.5812 grenadine	-0.2507
-4.5812 grenouille	-0.2507
-4.5812 grillais	-0.2482
-4.5812 grimpa	-0.2511
-4.2802 grimpé	-0.2458
-4.5812 grincer	-0.2511
-4.5812 grincha	-0.2507
-4.5812 grincheux	-0.2507
-4.5812 grippe	-0.2493
-4.2802 gris	-0.2413
-4.5812 grives	-0.2504
-4.5812 grogna	-0.2492
-4.5812 grognements	-0.2333
-4.5812 grognon	-0.2413
-3.9791 groin	-0.2288
-4.5812 grommelant	-0.2451
-4.5812 gronder	-0.2509
-3.2195 gros	-0.2369
-4.5812 grosclaude	-0.2511
-3.7361 grosse	-0.2500
-4.2802 grosses	-0.2510
-3.8822 groupe	-0.2231
-4.2802 groupes	-0.2500
-4.5812 grue	-0.2410
-3.5812 grâce	-0.2062
-4.5812 grève	-0.2452
-4.5812 grèves	-0.2489
-4.5812 gré	-0.2451
-4.2802 guerre	-0.2333
-4.5812 guerrier	-0.2510
-3.9791 gueule	-0.2396
-4.2802 guigne	-0.2409
-4.5812 guilbert	-0.2333
-4.2802 guitare	-0.2423
-4.5812 gustave	-0.2510
-4.5812 gutta	-0.2511
-3.1340 guy	-0.1844
-3.8822 guéri	-0.2398
-4.2802 guérir	-0.2446
-4.5812 guéris	-0.2509
-4.5812 guérisons	-0.2462
-4.5812 guérissez	-0.2493
-4.5812 guérite	-0.2511
-4.5812 guêpe	-0.2504
-4.5812 gymnastique	-0.2507
-4.5812 gâte	-0.2506
-4.5812 gâteaux	-0.2482
-4.5812 gâté	-0.2333
-4.5812 gâtée	-0.2497
-3.8822 géant	-0.2413
-4.5812 gémissais	-0.2475
-4.5812 gémissements	-0.2511
-4.5812 gémît	-0.2469
-4.2802 génial	-0.2312
-4.5812 géniale	-0.2509
-4.1041 génie	-0.2440
-3.8030 général	-0.2317
-4.1041 générale	-0.2381
-3.9791 généralement	-0.2300
-4.5812 génération	-0.2506
-4.5812 généreuse	-0.2481
-4.2802 génésiaque	-0.2482
-4.5812 géographe	-0.2434
-4.1041 géographie	-0.2483
-4.2802 géraniums	-0.2438
-4.5812 gênante	-0.2469
-4.5812 gênent	-0.2469
-4.1041 gêner	-0.2449
-4.5812 gêné	-0.2475
-4.5812 gênée	-0.2466
-4.2802 h	-0.2492
-4.5812 ha	-0.2490
-4.5812 habilement	-0.2511
-4.5812 habileté	-0.2506
-4.5812 habiller	-0.2410
-4.5812 habillé	-0.2504
-4.5812 habillées	-0.2511
-4.5812 habitais	-0.2511
-4.1041 habitants	-0.2271
-4.5812 habite	-0.2462
-4.5812 habitua	-0.2429
-3.9791 habitude	-0.2346
-4.5812 habituel	-0.2333
-4.5812 habituer	-0.2509
-4.2802 habitués	-0.2397
-4.5812 habitée	-0.2497
-4.5812 haleine	-0.2496
-4.5812 haletaient	-0.2451
-4.1041 hall	-0.2478
-4.5812 halls	-0.2497
-4.5812 halte	-0.2501
-4.5812 hanches	-0.2413
-4.5812 hand	-0.2447
-4.5812 hanneton	-0.2333
-4.5812 harcourt	-0.2509
-4.5812 hardes	-0.2487
-4.5812 hargneux	-0.2508
-4.5812 haricots	-0.2413
-4.2802 harmonie	-0.2469
-3.8030 hasard	-0.2232
-4.5812 hasardai	-0.2429
-4.5812 haussa	-0.2510
-4.5812 haussait	-0.2493
-4.5812 hausse	-0.2511
-4.5812 hausser	-0.2451
-3.5398 haut	-0.2154
-3.8822 haute	-0.2508
-4.5812 hautes	-0.2511
-4.1041 hauteur	-0.2280
-4.1041 hauts	-0.2333
-4.5812 havrais	-0.2488
-4.2802 havre	-0.2232
-3.8030 hein	-0.2356
-4.5812 helvète	-0.2508
-4.2802 helvétie	-0.2405
-4.1041 henri	-0.2485
-4.2802 henry	-0.2462
-4.2802 hercule	-0.2510
-4.5812 hermétiquement	-0.2511
-3.9791 hervé	-0.2328
-3.3771 heure	-0.1918
-3.2802 heures	-0.2056
-3.7361 heureusement	-0.2284
-3.5812 heureux	-0.2206
-4.5812 hideux	-0.2511
-3.8822 hier	-0.2198
-4.5812 hilarité	-0.2413
-4.5812 hippiques	-0.2413
-4.5812 hirondelles	-0.2497
-4.5812 his	-0.2511
-4.5812 hissa	-0.2493
-3.1498 histoire	-0.1675
-4.2802 histoires	-0.2425
-4.5812 historique	-0.2333
-3.9791 hiver	-0.2406
-4.2802 hoc	-0.2502
-4.2802 hollandais	-0.2314
-4.5812 homicide	-0.2333
-2.8822 homme	-0.1336
-3.3771 hommes	-0.1987
-4.2802 honfleur	-0.2351
-3.9791 honneau	-0.2333
-3.6269 honneur	-0.2077
-3.8822 honnête	-0.2453
-4.5812 honorable	-0.2413
-4.5812 honore	-0.2497
-4.5812 honte	-0.2511
-4.5812 honteux	-0.2333
-4.5812 horizontale	-0.2413
-4.5812 horizontalement	-0.2511
-4.2802 horloger	-0.2417
-4.5812 horlogerie	-0.2429
-3.9791 horreur	-0.2423
-3.8822 hors	-0.2282
-4.5812 hospitalière	-0.2490
-4.5812 hostellerie	-0.2451
-4.5812 hostiles	-0.2333
-4.5812 hostilité	-0.2503
-4.5812 houilles	-0.2429
-4.2802 houlbec	-0.2483
-4.5812 houppelande	-0.2493
-3.6269 hue	-0.2252
-3.8030 hui	-0.2360
-4.2802 huissier	-0.2419
-3.6269 huit	-0.2502
-4.5812 humain	-0.2511
-4.5812 humaine	-0.2506
-4.5812 humains	-0.2479
-3.9791 humanité	-0.2264
-3.9791 humble	-0.2510
-3.9791 hume	-0.2510
-4.5812 humecteurs	-0.2503
-3.8030 humeur	-0.2350
-4.1041 humide	-0.2327
-4.5812 hure	-0.2482
-4.5812 hurlai	-0.2452
-4.5812 hurlements	-0.2462
-4.5812 hurleurs	-0.2511
-3.4351 hurlotte	-0.2314
-4.5812 hurrah	-0.2511
-4.5812 huyotson	-0.2413
-4.5812 hydrogène	-0.2333
-4.2802 hymen	-0.2491
-4.5812 hyménéennes	-0.2434
-4.5812 hyperboloïdes	-0.2451
-4.2802 hyène	-0.2481
-4.2802 hâte	-0.2503
-4.5812 hé	-0.2510
-3.9791 hélas	-0.2242
-4.5812 héliotrope	-0.2410
-4.2802 hélène	-0.2429
-4.2802 hémisphères	-0.2489
-3.9791 héraldique	-0.2444
-4.5812 héritage	-0.2494
-4.5812 hériter	-0.2509
-4.1041 héritier	-0.2427
-4.5812 hérité	-0.2451
-4.5812 héros	-0.2511
-4.5812 hérédité	-0.2482
-4.5812 hérésies	-0.2503
-4.5812 hésita	-0.2469
-4.2802 hésitai	-0.2333
-4.5812 hésité	-0.2429
-4.2802 hétéroclite	-0.2368
-4.5812 hétéroclites	-0.2510
-4.2802 hôpital	-0.2444
-4.5812 hôpitaux	-0.2469
-3.9791 hôte	-0.2315
-3.3507 hôtel	-0.2073
-4.5812 hôtelière	-0.2482
-4.5812 hôtels	-0.2333
-4.5812 hôtesse	-0.2333
-4.1041 i	-0.2451
-3.6269 ici	-0.2430
-4.5812 idees	-0.2510
-4.5812 idiome	-0.2333
-3.9791 idiot	-0.2333
-4.5812 idiotes	-0.2413
-4.2802 idiots	-0.2459
-4.5812 idylle	-0.2508
-4.5812 idéal	-0.2413
-3.0130 idée	-0.1365
-4.1041 idées	-0.2426
-4.5812 ier	-0.2490
-4.5812 ignoble	-0.2413
-4.2802 ignorais	-0.2429
-4.5812 ignorait	-0.2413
-4.2802 ignorance	-0.2232
-4.5812 ignore	-0.2413
-4.5812 ignoré	-0.2509
-4.2802 ii	-0.2507
-4.2802 iii	-0.2497
-1.8677 il	-0.0796
-4.5812 illico	-0.2493
-4.5812 illusion	-0.2503
-4.5812 illustrèrent	-0.2490
-2.7361 ils	-0.1935
-4.2802 image	-0.2322
-4.5812 imagination	-0.2511
-4.5812 imagine	-0.2507
-4.5812 imaginer	-0.2508
-3.8822 imaginez	-0.2482
-4.5812 imaginé	-0.2511
-4.2802 imbéciles	-0.2333
-4.5812 immaculation	-0.2489
-3.8822 immense	-0.2509
-4.5812 immeuble	-0.2466
-4.5812 imminentes	-0.2511
-4.5812 immobile	-0.2490
-4.2802 immédiate	-0.2458
-4.2802 immédiatement	-0.2434
-4.5812 impassiblement	-0.2490
-4.2802 impatience	-0.2311
-4.5812 impatientée	-0.2333
-4.5812 impeccable	-0.2333
-4.5812 imperceptiblement	-0.2451
-4.2802 impertinents	-0.2333
-4.5812 imperturbable	-0.2447
-4.5812 imperturbablement	-0.2510
-4.2802 impitoyable	-0.2333
-4.5812 impitoyablement	-0.2511
-4.5812 importait	-0.2410
-4.1041 importance	-0.2493
-4.2802 important	-0.2489
-4.2802 importante	-0.2510
-4.5812 importantes	-0.2511
-3.8030 importe	-0.2278
-4.2802 impossible	-0.2491
-4.2802 imprimer	-0.2393
-4.5812 improviste	-0.2452
-4.2802 improvisé	-0.2432
-4.5812 imprudent	-0.2453
-4.5812 imprévu	-0.2462
-4.5812 impulser	-0.2509
-4.5812 impériale	-0.2462
-4.2802 inaccoutumé	-0.2502
-4.5812 inaccoutumée	-0.2490
-4.2802 inanimés	-0.2507
-4.5812 inaperçu	-0.2469
-4.5812 inattendu	-0.2511
-4.5812 inaugurée	-0.2493
-4.5812 incendiai	-0.2505
-4.5812 incessante	-0.2509
-4.5812 incisions	-0.2447
-4.5812 incitait	-0.2429
-4.5812 inclina	-0.2508
-4.5812 inclination	-0.2490
-4.5812 incline	-0.2429
-4.2802 incoercible	-0.2489
-4.1041 incohérents	-0.2490
-4.5812 incomptable	-0.2333
-4.5812 inconnu	-0.2333
-4.5812 inconstante	-0.2499
-4.5812 inconvénient	-0.2452
-4.5812 incorporation	-0.2410
-4.5812 incorrecte	-0.2510
-4.5812 incroyable	-0.2333
-4.5812 incroyables	-0.2333
-4.2802 inculquer	-0.2389
-4.5812 incurable	-0.2488
-4.5812 indes	-0.2492
-4.5812 indication	-0.2490
-4.5812 indiffèrent	-0.2509
-4.5812 indifférence	-0.2429
-4.5812 indifférent	-0.2452
-4.5812 indifférente	-0.2479
-4.5812 indifférents	-0.2511
-4.5812 indigence	-0.2413
-4.2802 indignation	-0.2413
-4.5812 indigné	-0.2333
-4.5812 indigènes	-0.2510
-4.5812 indiquait	-0.2410
-4.5812 indique	-0.2489
-4.2802 indiquer	-0.2459
-4.5812 indiquée	-0.2447
-4.5812 indirect	-0.2502
-4.5812 indirectes	-0.2511
-4.5812 indispensable	-0.2503
-4.5812 indisposé	-0.2492
-4.5812 individu	-0.2495
-4.5812 indulgence	-0.2466
-3.9791 industrie	-0.2409
-4.2802 infanterie	-0.2510
-4.1041 infernal	-0.2410
-4.2802 infidèle	-0.2272
-4.5812 infinie	-0.2333
-3.8822 infiniment	-0.2476
-4.5812 infligeât	-0.2410
-4.5812 influencer	-0.2451
-4.1041 informa	-0.2252
-4.5812 informai	-0.2462
-4.5812 informaient	-0.2333
-4.1041 informer	-0.2317
-4.2802 informé	-0.2450
-4.5812 informées	-0.2469
-4.5812 infortune	-0.2486
-4.1041 infortuné	-0.2507
-4.5812 infâme	-0.2410
-4.2802 inférieur	-0.2393
-4.5812 ingénieur	-0.2511
-4.1041 ingénieuse	-0.2413
-4.1041 ingénieux	-0.2413
-4.5812 ingéniosité	-0.2483
-4.5812 ingénue	-0.2492
-4.5812 ingénus	-0.2479
-4.5812 inhabituelle	-0.2510
-4.2802 innocent	-0.2452
-4.5812 innocente	-0.2511
-3.8822 innombrables	-0.2371
-4.5812 inoccupé	-0.2510
-4.5812 inoffensif	-0.2506
-4.5812 inonda	-0.2511
-4.5812 inondé	-0.2333
-4.5812 inopinément	-0.2475
-4.2802 inouïe	-0.2330
-4.1041 inquiet	-0.2124
-4.5812 inquiète	-0.2410
-4.2802 inquiétant	-0.2452
-4.5812 inquiétantes	-0.2490
-4.2802 inquiéter	-0.2333
-4.5812 inquiétude	-0.2510
-4.5812 inquiétudes	-0.2489
-4.2802 insalubre	-0.2393
-4.5812 insane	-0.2511
-4.5812 insanité	-0.2510
-4.5812 insensible	-0.2429
-4.5812 insensibles	-0.2511
-4.2802 insistai	-0.2410
-4.5812 insistais	-0.2451
-4.5812 insolence	-0.2510
-4.5812 insolente	-0.2491
-4.5812 insolite	-0.2481
-3.8030 inspecteur	-0.2286
-4.5812 inspection	-0.2510
-4.5812 inspiré	-0.2511
-4.5812 installa	-0.2475
-4.2802 installait	-0.2433
-4.5812 installation	-0.2508
-4.5812 installent	-0.2511
-4.2802 installer	-0.2474
-4.5812 installèrent	-0.2510
-4.5812 installé	-0.2413
-4.5812 installés	-0.2493
-3.8030 instant	-0.2301
-4.2802 instants	-0.2438
-4.5812 instar	-0.2333
-4.5812 instinct	-0.2413
-4.2802 instinctive	-0.2460
-4.2802 institut	-0.2408
-4.2802 institutrice	-0.2437
-4.5812 instruction	-0.2462
-4.5812 instruite	-0.2500
-3.7361 instrument	-0.2101
-4.5812 instruments	-0.2333
-4.5812 insuffisant	-0.2490
-4.5812 insulaire	-0.2466
-4.5812 insultait	-0.2469
-4.5812 inséparables	-0.2509
-4.5812 inséré	-0.2413
-4.5812 intelligence	-0.2469
-4.5812 intelligent	-0.2511
-4.5812 intention	-0.2333
-4.2802 interdit	-0.2325
-4.5812 interloqué	-0.2511
-4.5812 interloqués	-0.2462
-4.2802 interminable	-0.2509
-4.5812 interminables	-0.2511
-4.5812 intermède	-0.2486
-4.5812 international	-0.2511
-4.5812 interposez	-0.2508
-4.2802 interrogateur	-0.2451
-4.5812 interroge	-0.2493
-4.2802 interrogea	-0.2464
-4.5812 interrogeai	-0.2478
-4.5812 interrogeait	-0.2510
-4.5812 interroger	-0.2410
-4.5812 interrompait	-0.2333
-4.2802 interrompit	-0.2408
-4.5812 interrompre	-0.2508
-4.5812 interromps	-0.2493
-4.5812 interrompus	-0.2510
-4.5812 intervalles	-0.2511
-4.5812 intervient	-0.2413
-4.5812 intimes	-0.2490
-4.5812 intriguait	-0.2505
-4.5812 introduire	-0.2475
-4.5812 introduisait	-0.2475
-4.1041 introduisit	-0.2475
-4.5812 introduit	-0.2475
-4.5812 intrépide	-0.2510
-4.5812 intéressa	-0.2510
-4.5812 intéressait	-0.2451
-4.5812 intéressant	-0.2452
-4.5812 intéressante	-0.2490
-4.5812 intéresse	-0.2413
-4.5812 intéresser	-0.2490
-4.5812 intéressée	-0.2510
-3.9791 intérieur	-0.2330
-4.2802 intérieurs	-0.2493
-3.8030 intérêt	-0.2352
-4.2802 intérêts	-0.2287
-3.9791 inutile	-0.2333
-4.5812 inutilité	-0.2511
-4.5812 inventer	-0.2451
-4.5812 inventif	-0.2482
-3.5020 invention	-0.2189
-4.2802 inventions	-0.2300
-3.9791 inventé	-0.2289
-4.5812 invincible	-0.2488
-4.2802 invita	-0.2429
-4.5812 invitai	-0.2510
-4.5812 invitation	-0.2429
-4.5812 invitations	-0.2503
-3.9791 invité	-0.2393
-4.2802 invités	-0.2426
-4.5812 invraisemblable	-0.2410
-4.5812 inégaux	-0.2490
-4.5812 inéluctable	-0.2481
-4.5812 ira	-0.2447
-4.5812 irais	-0.2410
-4.5812 irait	-0.2490
-4.5812 iras	-0.2490
-4.5812 irlandais	-0.2510
-4.5812 ironie	-0.2488
-4.5812 ironique	-0.2507
-4.5812 ironiquement	-0.2509
-4.5812 irons	-0.2469
-4.5812 irrémédiables	-0.2489
-4.5812 irréparable	-0.2492
-4.5812 irréprochablement	-0.2510
-4.2802 irrésistible	-0.2464
-4.5812 irrésistiblement	-0.2452
-4.5812 isdahl	-0.2410
-4.5812 israélite	-0.2452
-4.2802 it	-0.2488
-4.5812 iv	-0.2507
-4.2802 ivoire	-0.2462
-4.5812 ivre	-0.2509
-4.5812 ivres	-0.2510
-2.3002 j	-0.2424
-4.5812 jadis	-0.2495
-4.1041 jalousie	-0.2416
-4.5812 jalousies	-0.2511
-4.1041 jaloux	-0.2264
-2.7423 jamais	-0.1168
-4.2802 jambe	-0.2509
-4.1041 jambes	-0.2354
-4.5812 jambonneaux	-0.2505
-4.1041 janvier	-0.2468
-3.8822 japonais	-0.2235
-4.5812 japonaises	-0.2510
-4.2802 jaquette	-0.2509
-3.6781 jardin	-0.2210
-4.2802 jardinier	-0.2475
-4.5812 jargons	-0.2506
-4.5812 jarretières	-0.2510
-4.5812 jatte	-0.2508
-4.5812 jatte_	-0.2511
-3.9791 jaune	-0.2458
-4.5812 jaunes	-0.2510
-4.5812 jauni	-0.2488
-4.5812 jaunissent	-0.2488
-4.2802 java	-0.2374
-1.8745 je	-0.1265
-3.8030 jeta	-0.2443
-4.5812 jetai	-0.2434
-4.5812 jetait	-0.2333
-4.5812 jeter	-0.2429
-4.5812 jette	-0.2475
-4.5812 jettent	-0.2475
-4.5812 jettes	-0.2451
-4.5812 jeté	-0.2489
-4.2802 jetée	-0.2248
-3.8030 jeu	-0.2241
-3.7361 jeudi	-0.2257
-4.5812 jeun	-0.2413
-2.6174 jeune	-0.2332
-3.3024 jeunes	-0.2499
-4.2802 jeunesse	-0.2379
-4.2802 joe	-0.2374
-4.2802 johanson	-0.2377
-3.6781 joie	-0.2121
-4.5812 joies	-0.2511
-4.5812 joignait	-0.2447
-3.2388 joli	-0.2450
-3.0130 jolie	-0.2050
-4.2802 jolies	-0.2507
-3.9791 joliment	-0.2356
-3.8030 jolis	-0.2406
-4.5812 jonchait	-0.2410
-4.5812 jonchant	-0.2410
-4.5812 jonchèrent	-0.2509
-4.5812 joris	-0.2511
-4.5812 josse	-0.2507
-4.2802 jouait	-0.2473
-3.8030 jouard	-0.2293
-4.5812 joue	-0.2501
-4.2802 jouer	-0.2373
-3.9791 joues	-0.2507
-4.5812 jouet	-0.2333
-4.5812 jouir	-0.2493
-4.5812 jouit	-0.2475
-4.5812 joujou	-0.2413
-4.2802 joujoux	-0.2232
-2.8103 jour	-0.1357
-4.5812 journalistes	-0.2333
-4.5812 journaux	-0.2333
-3.3507 journée	-0.2188
-4.5812 journées	-0.2479
-3.0760 jours	-0.1942
-4.5812 jouvence	-0.2453
-4.2802 joué	-0.2408
-4.1041 joyeuse	-0.2397
-3.8822 joyeux	-0.2506
-4.5812 judicieuse	-0.2462
-4.5812 judicieusement	-0.2493
-4.5812 juge	-0.2333
-4.5812 jugeait	-0.2489
-4.5812 jugement	-0.2333
-3.8030 juillet	-0.2261
-4.5812 jules	-0.2511
-4.2802 julius	-0.2510
-3.4351 jumet	-0.2143
-4.2802 jumièges	-0.2481
-4.5812 jungle	-0.2447
-4.5812 jupon	-0.2505
-4.1041 jura	-0.2312
-4.1041 jure	-0.2440
-4.5812 jurer	-0.2507
-3.8030 jury	-0.2356
-4.1041 juré	-0.2176
-4.5812 jurés	-0.2333
-3.4351 jusqu	-0.2401
-3.9791 jusque	-0.2470
-3.8822 juste	-0.2320
-3.5812 justement	-0.2209
-3.9791 k	-0.2448
-4.5812 kilos	-0.2434
-4.5812 kiosques	-0.2429
-4.5812 képi	-0.2492
-1.8353 l	-0.2027
-1.6387 la	-0.2034
-4.1041 laboratoire	-0.2390
-4.5812 lacédémonienne	-0.2491
-4.5812 ladite	-0.2509
-4.5812 laffitte	-0.2413
-3.2195 laflemme	-0.1909
-4.2802 lah	-0.2386
-4.5812 laid	-0.2413
-4.5812 laine	-0.2511
-4.5812 laissa	-0.2510
-4.1041 laissait	-0.2468
-4.5812 laissant	-0.2429
-4.2802 laisse	-0.2421
-3.8822 laisser	-0.2497
-4.1041 laissez	-0.2501
-4.5812 laissé	-0.2493
-4.2802 lait	-0.2434
-4.5812 lampe	-0.2493
-4.2802 lampes	-0.2419
-3.6781 lampiste	-0.2227
-4.1041 lance	-0.2346
-4.5812 lancé	-0.2410
-4.5812 lande	-0.2511
-4.2802 langage	-0.2510
-4.1041 langue	-0.2434
-4.5812 lanterne	-0.2413
-4.5812 lança	-0.2497
-4.2802 lapin	-0.2413
-4.5812 lapins	-0.2333
-4.5812 laps	-0.2510
-3.5812 laquelle	-0.2354
-3.9791 large	-0.2259
-4.2802 larges	-0.2510
-4.5812 largeurs	-0.2452
-4.2802 larme	-0.2429
-3.8822 larmes	-0.2258
-4.5812 las	-0.2469
-4.2802 lascars	-0.2507
-4.5812 lassait	-0.2469
-4.5812 lasserait	-0.2503
-3.6781 latin	-0.2363
-4.5812 latins	-0.2492
-4.5812 laughs	-0.2511
-4.2802 lauréats	-0.2491
-4.5812 lautars	-0.2410
-4.5812 lavement	-0.2510
-4.5812 lavements	-0.2507
-4.2802 laï	-0.2510
-1.6382 le	-0.2000
-3.6269 lecoq	-0.2510
-4.2802 lecteur	-0.2490
-4.2802 lecteurs	-0.2333
-4.5812 lectrices	-0.2510
-4.5812 lecture	-0.2482
-4.5812 leicester	-0.2510
-3.5020 lemballeur	-0.2326
-3.2010 lendemain	-0.1714
-3.9791 lentement	-0.2380
-3.8030 lequel	-0.2360
-1.8635 les	-0.2262
-4.5812 lesquelles	-0.2510
-3.6781 lettre	-0.2065
-3.9791 lettres	-0.2359
-2.9184 leur	-0.2409
-3.2388 leurs	-0.2504
-4.2802 leva	-0.2310
-4.1041 levai	-0.2429
-4.2802 levait	-0.2493
-4.5812 levallois	-0.2410
-3.9791 lever	-0.2308
-4.5812 levé	-0.2413
-4.5812 levée	-0.2447
-4.5812 levés	-0.2509
-3.9791 leçon	-0.2377
-4.2802 leçons	-0.2393
-4.5812 lia	-0.2451
-4.5812 libellerait	-0.2410
-4.5812 libellé	-0.2451
-4.5812 libellée	-0.2511
-4.5812 libre	-0.2510
-4.5812 libéral	-0.2505
-4.2802 lient	-0.2448
-4.5812 lier	-0.2510
-3.7361 lieu	-0.2318
-4.5812 life	-0.2507
-4.5812 life_	-0.2506
-3.9791 ligne	-0.2386
-4.2802 lily	-0.2410
-4.5812 limace	-0.2509
-4.5812 limite	-0.2333
-4.5812 limonadier	-0.2495
-4.5812 lin	-0.2509
-4.5812 linceul	-0.2462
-4.5812 linge	-0.2333
-4.5812 lions	-0.2333
-4.1041 liquide	-0.2509
-3.8822 lire	-0.2142
-3.8822 lis	-0.2354
-4.5812 lisait	-0.2447
-4.5812 lisser	-0.2462
-3.8030 lister	-0.2305
-3.7361 lit	-0.2135
-4.1041 littéralement	-0.2504
-4.5812 littérature	-0.2507
-4.5812 livide	-0.2333
-4.5812 livides	-0.2511
-4.5812 livraient	-0.2410
-4.5812 livrasse	-0.2447
-4.1041 livre	-0.2331
-4.2802 livrer	-0.2326
-4.2802 livres	-0.2232
-4.2802 livret	-0.2510
-4.5812 lié	-0.2510
-4.5812 liées	-0.2488
-4.5812 local	-0.2462
-4.2802 localité	-0.2481
-4.5812 locomotive	-0.2505
-4.5812 logeait	-0.2509
-4.2802 logement	-0.2412
-4.5812 logette	-0.2504
-4.2802 logique	-0.2452
-4.5812 logiques	-0.2511
-3.9791 logis	-0.2372
-4.5812 logé	-0.2508
-4.2802 loi	-0.2407
-3.6781 loin	-0.2131
-4.5812 lointain	-0.2510
-4.5812 lointaine	-0.2510
-4.5812 lois	-0.2462
-4.5812 london	-0.2488
-4.1041 londres	-0.2382
-4.5812 londrès	-0.2493
-3.6781 long	-0.2188
-4.2802 longs	-0.2510
-3.3771 longtemps	-0.2038
-3.6781 longue	-0.2224
-3.9791 longuement	-0.2307
-4.2802 longues	-0.2510
-4.1041 longueur	-0.2482
-4.5812 lorgnette	-0.2511
-4.2802 lors	-0.2399
-4.1041 lorsqu	-0.2431
-4.5812 lorsque	-0.2452
-4.5812 lotie	-0.2333
-4.5812 lotion	-0.2413
-4.5812 louer	-0.2475
-4.5812 loufoque	-0.2509
-4.5812 loufoques	-0.2462
-3.3771 louis	-0.2007
-4.5812 loup	-0.2333
-4.5812 loupe	-0.2489
-4.1041 lourde	-0.2391
-4.2802 loué	-0.2387
-4.5812 loyalement	-0.2510
-4.5812 loyer	-0.2429
-4.2802 lucius	-0.2510
-4.5812 ludovic	-0.2508
-4.2802 lueur	-0.2333
-4.5812 lugubre	-0.2451
-4.5812 lugubres	-0.2413
-2.3909 lui	-0.1041
-4.2802 luire	-0.2393
-4.5812 luisaient	-0.2466
-4.5812 luisait	-0.2410
-4.2802 luisant	-0.2232
-4.2802 lumière	-0.2458
-4.5812 lunaires	-0.2413
-4.5812 lundi	-0.2508
-4.5812 lune	-0.2511
-4.1041 lunerie	-0.2401
-4.5812 luxembourg	-0.2410
-4.5812 luxueuses	-0.2510
-4.5812 lycée	-0.2508
-2.6518 là	-0.1194
-4.2802 lâche	-0.2408
-4.5812 lâcherais	-0.2493
-4.5812 lèvre	-0.2511
-4.5812 lèvres	-0.2333
-4.5812 lécher	-0.2451
-4.5812 légende	-0.2482
-4.5812 légendes	-0.2511
-4.5812 légers	-0.2482
-4.5812 légitime	-0.2510
-4.1041 légèrement	-0.2333
-4.5812 lévy	-0.2511
-2.4198 m	-0.1973
-2.6836 ma	-0.2423
-4.5812 maboul	-0.2509
-3.9791 mabrize	-0.2446
-4.5812 machiavélisme	-0.2511
-4.5812 machinal	-0.2509
-4.1041 machines	-0.2394
-4.5812 macère	-0.2502
-3.5020 madame	-0.2399
-4.5812 madone	-0.2413
-4.2802 madrigal	-0.2505
-3.5020 magasin	-0.1992
-4.5812 magasins	-0.2504
-4.5812 magistral	-0.2493
-4.5812 magistrature	-0.2466
-4.5812 mahrnoud_	-0.2511
-4.5812 maigres	-0.2511
-4.5812 maigri	-0.2462
-4.5812 maigriot	-0.2511
-3.1662 main	-0.1613
-3.5812 mains	-0.2202
-3.4672 maintenant	-0.1889
-4.5812 maintient	-0.2493
-4.1041 maintint	-0.2475
-4.1041 maire	-0.2377
-4.2802 mairie	-0.2384
-2.3140 mais	-0.0496
-3.2802 maison	-0.2036
-3.8030 maisons	-0.2247
-4.2802 majesté	-0.2482
-3.6781 major	-0.2344
-4.5812 majorité	-0.2491
-3.1498 mal	-0.1762
-3.5398 malade	-0.2299
-4.2802 malades	-0.2348
-3.8030 maladie	-0.2332
-4.5812 maladies	-0.2413
-4.5812 maladroit	-0.2490
-4.5812 malentendu	-0.2509
-4.5812 malentendus	-0.2511
-3.8822 malfaiteur	-0.2427
-3.6269 malgré	-0.2289
-3.8822 malheur	-0.2293
-4.5812 malheureuse	-0.2506
-3.8822 malheureusement	-0.2265
-3.8030 malheureux	-0.2337
-3.9791 malin	-0.2363
-4.5812 malins	-0.2511
-4.5812 malles	-0.2511
-4.5812 malpropre	-0.2462
-4.5812 malpropres	-0.2506
-4.5812 malséant	-0.2413
-4.5812 malveillant	-0.2511
-3.7361 mam	-0.2510
-3.5812 maman	-0.2354
-4.1041 manche	-0.2433
-4.5812 manches	-0.2413
-4.5812 manchettes	-0.2511
-4.5812 mandat	-0.2462
-4.5812 mande	-0.2429
-4.5812 mandoline	-0.2510
-4.2802 mangea	-0.2504
-4.2802 mangeant	-0.2387
-4.5812 mangent	-0.2429
-4.2802 manger	-0.2371
-4.5812 mangé	-0.2410
-4.1041 maniaque	-0.2452
-4.1041 manie	-0.2465
-4.1041 manifesta	-0.2355
-4.5812 manifestant	-0.2333
-4.2802 manifestation	-0.2282
-4.5812 manifeste	-0.2510
-4.5812 manifester	-0.2333
-4.5812 manitou	-0.2413
-4.5812 manivelle	-0.2493
-3.8030 manière	-0.2333
-4.5812 manières	-0.2511
-4.5812 manqua	-0.2413
-4.5812 manquai	-0.2469
-4.5812 manquait	-0.2462
-3.8822 manque	-0.2242
-4.5812 manquent	-0.2510
-4.5812 manqué	-0.2410
-4.5812 mansarde	-0.2410
-4.5812 mansuétude	-0.2481
-4.5812 manteaux	-0.2511
-3.9791 manège	-0.2443
-4.5812 marbre	-0.2511
-4.2802 marbres	-0.2413
-4.1041 marcha	-0.2489
-4.5812 marchaient	-0.2492
-4.5812 marchait	-0.2493
-3.9791 marchand	-0.2333
-4.5812 marchandise	-0.2493
-4.5812 marchands	-0.2333
-4.5812 marchant	-0.2510
-4.5812 marche	-0.2333
-3.6269 marché	-0.2072
-4.2802 mardi	-0.2488
-4.5812 margarita	-0.2486
-3.5398 marguerite	-0.2268
-3.5020 mari	-0.2242
-3.8822 mariage	-0.2388
-3.4051 marie	-0.2034
-4.5812 marierait	-0.2333
-4.2802 marin	-0.2392
-4.2802 marié	-0.2465
-4.2802 mariée	-0.2434
-4.5812 mariées	-0.2466
-4.5812 mariés	-0.2508
-4.5812 marmotte	-0.2511
-4.5812 marne	-0.2413
-4.5812 marquait	-0.2511
-4.2802 marque	-0.2409
-4.5812 marquis	-0.2333
-4.2802 marseillais	-0.2413
-4.5812 maréchal	-0.2469
-4.1041 marée	-0.2481
-4.2802 marées	-0.2477
-4.2802 masque	-0.2271
-4.5812 masqué	-0.2413
-4.5812 masquée	-0.2413
-4.5812 masqués	-0.2493
-4.2802 massif	-0.2391
-4.5812 massifs	-0.2333
-4.5812 mastic	-0.2493
-4.5812 mastroquets	-0.2511
-4.5812 maternels	-0.2491
-4.5812 mathias	-0.2511
-3.2802 matin	-0.1857
-4.5812 matineux	-0.2510
-4.2802 matinée	-0.2248
-4.5812 matière	-0.2333
-4.5812 matières	-0.2510
-4.5812 maubeuge	-0.2434
-4.5812 maure	-0.2509
-4.5812 maurice	-0.2509
-4.5812 maussade	-0.2413
-3.8822 mauvais	-0.2498
-3.8822 mauvaise	-0.2504
-4.5812 maux	-0.2479
-4.5812 mayer	-0.2511
-4.5812 mazas	-0.2466
-3.8822 maître	-0.2469
-4.5812 maîtres	-0.2511
-3.6781 maîtresse	-0.2025
-2.2889 me	-0.2187
-4.5812 mechant	-0.2501
-4.5812 medecin	-0.2510
-4.5812 meeting	-0.2333
-4.1041 meilleur	-0.2457
-4.1041 meilleures	-0.2509
-3.8822 meilleurs	-0.2501
-4.5812 membre	-0.2333
-4.2802 membres	-0.2322
-4.5812 menaces	-0.2451
-4.5812 menait	-0.2490
-4.5812 mener	-0.2510
-4.5812 menons	-0.2413
-4.5812 mentais	-0.2469
-4.5812 mention	-0.2511
-4.5812 menton	-0.2434
-4.2802 menu	-0.2352
-4.5812 menus	-0.2510
-3.5020 mer	-0.1850
-4.5812 mercerie	-0.2429
-4.5812 mercier	-0.2510
-4.2802 mercredi	-0.2389
-4.5812 mergitur_	-0.2497
-4.5812 mermeix	-0.2504
-3.7361 merrycalf	-0.2367
-4.2802 merveille	-0.2309
-4.5812 merveilles	-0.2333
-4.5812 merveilleuses	-0.2511
-2.9091 mes	-0.2492
-4.2802 mesdames	-0.2412
-4.5812 mesdemoiselles	-0.2511
-4.5812 messeigneurs	-0.2508
-3.8822 messieurs	-0.2314
-4.5812 mesurait	-0.2469
-4.5812 mesures	-0.2511
-4.2802 met	-0.2383
-4.5812 mets	-0.2509
-4.5812 mettaient	-0.2508
-3.8822 mettait	-0.2330
-4.5812 mettant	-0.2475
-4.5812 mette	-0.2410
-3.9791 mettent	-0.2429
-4.5812 mettez	-0.2482
-4.5812 mettons	-0.2469
-4.5812 mettras	-0.2489
-3.6781 mettre	-0.2254
-4.2802 meubles	-0.2489
-4.5812 meublée	-0.2469
-4.5812 meurs	-0.2489
-4.5812 meurtrier	-0.2413
-4.5812 meurtriers	-0.2511
-4.5812 mexique	-0.2413
-4.2802 meyer	-0.2434
-4.5812 mezzo	-0.2511
-4.5812 mi	-0.2511
-4.1041 michel	-0.2351
-4.5812 microscopes	-0.2490
-4.5812 microscopique	-0.2451
-3.6269 midi	-0.1902
-3.8822 mie	-0.2311
-4.1041 mien	-0.2497
-3.9791 mienne	-0.2428
-3.3259 mieux	-0.2030
-4.5812 mignonne	-0.2492
-4.5812 mijotait	-0.2493
-3.9791 milieu	-0.2249
-3.8030 militaire	-0.2463
-4.2802 militaires	-0.2330
-3.3771 mille	-0.2498
-4.1041 milliards	-0.2282
-4.5812 milligramme	-0.2410
-4.5812 milligrammes	-0.2462
-4.5812 minable	-0.2511
-4.5812 mine	-0.2510
-4.5812 ministère	-0.2452
-4.2802 minuit	-0.2486
-4.2802 minuscule	-0.2489
-4.2802 minuscules	-0.2402
-3.7361 minute	-0.2160
-3.8822 minutes	-0.2301
-4.5812 minéral	-0.2502
-4.5812 miraculeuses	-0.2469
-4.2802 mirent	-0.2429
-3.5812 mis	-0.2139
-3.2802 miss	-0.2168
-3.9791 mission	-0.2337
-4.5812 misérables	-0.2508
-3.5020 mit	-0.2078
-4.5812 miteux	-0.2509
-4.5812 mitrailler	-0.2504
-3.7361 mitrailleuse	-0.2402
-4.5812 mlle	-0.2511
-4.2802 mm	-0.2510
-3.5020 mme	-0.2508
-4.5812 mobile	-0.2507
-4.5812 mobilier	-0.2510
-4.5812 mode	-0.2333
-4.2802 modeler	-0.2469
-4.5812 modelée	-0.2492
-4.2802 moderne	-0.2389
-4.5812 modernes	-0.2410
-3.9791 modeste	-0.2326
-4.5812 modestes	-0.2505
-4.5812 modifie	-0.2451
-4.5812 modiste	-0.2333
-3.9791 modèle	-0.2184
-2.6891 moi	-0.0945
-3.7361 moindre	-0.2499
-3.2195 moins	-0.1784
-4.5812 moirer	-0.2410
-3.5812 mois	-0.2282
-4.5812 moisi	-0.2413
-4.5812 moisira	-0.2469
-2.9684 moment	-0.1609
-2.3002 mon	-0.2380
-4.5812 monarque	-0.2483
-4.5812 monarques	-0.2511
-4.5812 mondanité	-0.2476
-3.1340 monde	-0.1897
-4.1041 monnaie	-0.2395
-4.2802 monnaies	-0.2510
-4.5812 monocotylédones	-0.2466
-4.5812 monologuait	-0.2509
-4.2802 monologue	-0.2489
-4.2802 monotone	-0.2387
-4.5812 monseigneur	-0.2410
-2.8488 monsieur	-0.1414
-4.5812 monstrueux	-0.2510
-4.2802 monta	-0.2248
-4.5812 montai	-0.2429
-4.1041 montcocasse	-0.2457
-4.1041 monte	-0.2446
-3.7361 monter	-0.2471
-3.6781 montmartre	-0.2279
-4.5812 montrai	-0.2410
-4.5812 montraient	-0.2410
-4.5812 montrais	-0.2489
-4.5812 montrait	-0.2510
-4.5812 montrant	-0.2410
-3.6269 montre	-0.1942
-4.5812 montrent	-0.2504
-4.2802 montrer	-0.2401
-4.5812 montrerai	-0.2434
-4.2802 monté	-0.2461
-4.5812 moonman	-0.2510
-4.1041 moral	-0.2502
-3.8822 morceau	-0.2232
-4.2802 morceaux	-0.2450
-4.5812 mord	-0.2507
-4.5812 mordillait	-0.2429
