#############################################################################
## Copyright (c) 1996, Carnegie Mellon University, Cambridge University,
## Ronald Rosenfeld and Philip Clarkson
#############################################################################
=============================================================================
===============  This file was produced by the CMU-Cambridge  ===============
===============     Statistical Language Modeling Toolkit     ===============
=============================================================================
This is a 3-gram language model, based on a vocabulary of 2965 words,
  which begins "0", "000", "1"...
This is an OPEN-vocabulary model (type 1)
  (OOVs were mapped to UNK, which is treated as any other vocabulary word)
Linear discounting was applied.
1-gram discounting ratio : 0.914934
2-gram discounting ratio : 0.506803
3-gram discounting ratio : 0.189561
This file is in the ARPA-standard format introduced by Doug Paul.

p(wd3|wd1,wd2)= if(trigram exists)           p_3(wd1,wd2,wd3)
                else if(bigram w1,w2 exists) bo_wt_2(w1,w2)*p(wd3|wd2)
                else                         p(wd3|w2)

p(wd2|wd1)= if(bigram exists) p_2(wd1,wd2)
            else              bo_wt_1(wd1)*p_1(wd2)

All probs and back-off weights (bo_wt) are given in log10 form.

Data formats:

Beginning of data mark: \data\
ngram 1=nr            # number of 1-grams
ngram 2=nr            # number of 2-grams
ngram 3=nr            # number of 3-grams

\1-grams:
p_1     wd_1 bo_wt_1
\2-grams:
p_2     wd_1 wd_2 bo_wt_2
\3-grams:
p_3     wd_1 wd_2 wd_3 

end of data mark: \end\

\data\
ngram 1=2966
ngram 2=11468
ngram 3=16209

\1-grams:
-4.2643 <UNK>	0.0000
-3.9632 0	-0.3067
-3.7871 000	-0.3067
-3.7871 1	-0.2936
-3.9632 10	-0.3013
-3.9632 100	-0.3067
-3.9632 11	-0.3064
-4.2643 13	-0.3069
-4.2643 130	-0.3069
-3.9632 14	-0.3065
-4.2643 15	-0.3014
-4.2643 16	-0.3065
-4.2643 1992	-0.3028
-3.2643 2	-0.2986
-3.7871 20	-0.3009
-4.2643 2004	-0.2998
-3.9632 2011	-0.2918
-3.9632 2013	-0.2964
-4.2643 2014	-0.3064
-3.5653 2015	-0.2909
-3.9632 2016	-0.3009
-4.2643 22	-0.3070
-4.2643 25	-0.3014
-4.2643 257	-0.2988
-3.6622 3	-0.3063
-3.7871 30	-0.2991
-4.2643 3000	-0.3067
-4.2643 35	-0.3069
-3.9632 35000	-0.3067
-3.6622 4	-0.3058
-3.4192 5	-0.3017
-4.2643 500	-0.3067
-4.2643 6	-0.3065
-4.2643 69	-0.3051
-4.2643 7	-0.3065
-4.2643 70	-0.3014
-3.4861 8	-0.2915
-2.1639 a	-0.2414
-4.2643 aah	-0.2998
-3.9632 abandonné	-0.3034
-3.3100 abord	-0.2763
-3.9632 abordent	-0.2996
-3.9632 aborder	-0.3045
-4.2643 abordé	-0.3002
-4.2643 absente	-0.2998
-3.9632 absolument	-0.2962
-3.9632 abstraction	-0.2917
-3.9632 accepte	-0.3067
-4.2643 accepter	-0.3022
-3.4192 accepté	-0.2744
-3.4192 accessibilité	-0.2813
-3.5653 accessible	-0.2976
-4.2643 accessibles	-0.3051
-3.9632 accident	-0.3062
-4.2643 accompagnant	-0.3025
-4.2643 accompagnantes	-0.3040
-3.9632 accompagner	-0.3058
-3.9632 accompagné	-0.3001
-4.2643 accompagnée	-0.3051
-3.6622 accord	-0.2814
-4.2643 accoucha	-0.3020
-4.2643 accouchement	-0.3050
-4.2643 accueil	-0.2917
-4.2643 accès	-0.3047
-3.9632 accélérer	-0.2992
-4.2643 accéléré	-0.3042
-3.6622 achat	-0.2926
-4.2643 achats	-0.3059
-3.7871 acheter	-0.2908
-4.2643 achetez	-0.3002
-3.9632 acheté	-0.3000
-4.2643 achetée	-0.3051
-4.2643 achèterai	-0.2992
-4.2643 acides	-0.3070
-4.2643 action	-0.3067
-3.9632 actions	-0.2917
-3.7871 activités	-0.3068
-4.2643 actuellement	-0.3048
-4.2643 adaptation	-0.3069
-4.2643 adaptations	-0.3068
-3.1851 adapter	-0.2806
-4.2643 adaptée	-0.3025
-3.6622 adaptés	-0.2925
-4.2643 adar	-0.3010
-3.9632 admet	-0.2992
-4.2643 adoption	-0.3059
-3.6622 adore	-0.3046
-4.2643 adresser	-0.3061
-3.9632 adrénoleucodystrophie	-0.3069
-4.2643 adulte	-0.3069
-3.5653 adultes	-0.2973
-3.9632 affecter	-0.2987
-4.2643 affections	-0.3070
-4.2643 affiches	-0.3070
-4.2643 affichés	-0.3053
-4.2643 afflux	-0.3063
-4.2643 affronte	-0.2988
-3.9632 affronter	-0.2946
-3.0601 afin	-0.2814
-4.2643 agissent	-0.3067
-4.2643 agit	-0.3020
-3.3100 agréable	-0.2683
-3.9632 agréables	-0.2962
-2.0090 ai	-0.2363
-2.8329 aide	-0.2206
-4.2643 aident	-0.3025
-3.3100 aider	-0.2828
-3.0601 aides	-0.2742
-3.3100 aidé	-0.2876
-4.2643 aie	-0.3012
-4.2643 ailes	-0.3056
-3.7871 aime	-0.3002
-4.2643 aiment	-0.3059
-3.9632 aimer	-0.3023
-3.9632 aimerais	-0.3052
-4.2643 aimé	-0.3020
-3.7871 ainsi	-0.3004
-4.2643 aise	-0.3057
-3.9632 ajouter	-0.2973
-4.2643 alcool	-0.3014
-4.2643 alimentation	-0.3039
-4.2643 allaient	-0.3069
-3.9632 allais	-0.3060
-3.9632 allait	-0.3030
-2.9420 aller	-0.2793
-4.2643 allez	-0.3058
-4.2643 allocation	-0.3025
-4.2643 allons	-0.3020
-3.6622 alors	-0.2864
-3.6622 ami	-0.2867
-3.9632 amie	-0.2917
-3.9632 amies	-0.2984
-4.2643 aminés	-0.3057
-3.1181 amis	-0.2712
-3.9632 amortir	-0.3051
-3.7871 amour	-0.2972
-4.2643 ampleur	-0.2996
-4.2643 amplifié	-0.3034
-4.2643 amplifiés	-0.3034
-4.2643 amusant	-0.3053
-4.2643 amuse	-0.2917
-4.2643 amusement	-0.3028
-4.2643 amuser	-0.2998
-4.2643 amusé	-0.3028
-4.2643 améliorations	-0.2996
-4.2643 améliore	-0.3039
-3.9632 améliorer	-0.2956
-4.2643 amélioré	-0.3039
-4.2643 améliorés	-0.3067
-3.9632 aménagement	-0.3011
-4.2643 aménagements	-0.2993
-4.2643 aménager	-0.3064
-4.2643 américain	-0.3065
-3.6622 an	-0.2901
-3.7871 analyser	-0.2960
-4.2643 anatomopathologiques	-0.3014
-4.2643 animal	-0.3034
-3.9632 animaux	-0.2945
-4.2643 annoncer	-0.2988
-4.2643 annonces	-0.3042
-3.9632 annoncé	-0.3020
-3.3100 année	-0.2762
-3.4861 années	-0.2803
-3.6622 anomalies	-0.3049
-2.9632 ans	-0.2034
-4.2643 anti	-0.3070
-4.2643 antécédents	-0.3070
-4.2643 août	-0.3069
-4.2643 apaiser	-0.3067
-4.2643 apparaissent	-0.3066
-4.2643 apparaitra	-0.3069
-3.7871 appareil	-0.2889
-4.2643 appareillage	-0.2992
-4.2643 appareils	-0.3070
-3.9632 apparence	-0.3068
-4.2643 apparences	-0.3069
-4.2643 apparition	-0.3050
-4.2643 appartement	-0.3039
-4.2643 appartements	-0.3069
-4.2643 appartenant	-0.2993
-4.2643 appartient	-0.3066
-3.5653 appel	-0.2993
-3.6622 appelle	-0.2914
-4.2643 application	-0.2993
-4.2643 applications	-0.3028
-4.2643 appliqué	-0.2993
-4.2643 apport	-0.3061
-4.2643 apporte	-0.3010
-4.2643 apportent	-0.3050
-4.2643 apporter	-0.3010
-4.2643 apportera	-0.3012
-3.9632 apporté	-0.2975
-4.2643 apprenais	-0.2998
-3.9632 apprendre	-0.3045
-3.6622 apprends	-0.3002
-4.2643 apprennent	-0.3020
-3.3612 appris	-0.2959
-4.2643 approfondir	-0.3002
-4.2643 appropriées	-0.2917
-4.2643 appréhension	-0.3028
-2.8840 après	-0.2589
-4.2643 arbre	-0.3070
-4.2643 arcades	-0.3050
-4.2643 archaïques	-0.3010
-3.7871 argent	-0.2898
-4.2643 armure	-0.2998
-3.9632 arrivais	-0.2942
-3.9632 arrive	-0.3018
-3.9632 arrivent	-0.2993
-3.1851 arriver	-0.2897
-4.2643 arriverais	-0.3065
-3.4192 arrivé	-0.2904
-3.9632 arriération	-0.3069
-3.7871 arrêter	-0.2956
-4.2643 arrêterai	-0.3065
-3.6622 arrêté	-0.2940
-3.5653 article	-0.2882
-4.2643 articles	-0.3070
-3.2229 as	-0.3024
-3.5653 asphyxie	-0.3067
-4.2643 aspirais	-0.2993
-3.6622 assez	-0.3066
-4.2643 assis	-0.3046
-4.2643 assistait	-0.2993
-3.9632 assistance	-0.2987
-4.2643 assistant	-0.3069
-3.7871 assistante	-0.3068
-4.2643 assistées	-0.3051
-4.2643 associant	-0.3059
-3.0338 association	-0.2528
-3.7871 associations	-0.3004
-4.2643 associées	-0.2993
-3.9632 associés	-0.2991
-4.2643 assouvir	-0.3056
-4.2643 assouvis	-0.2996
-4.2643 assumer	-0.3062
-4.2643 assure	-0.3048
-4.2643 asthénie	-0.3010
-4.2643 astuce	-0.3015
-4.2643 astuces	-0.2996
-3.7871 ataxie	-0.2985
-4.2643 ataxique	-0.2998
-3.7871 ataxiques	-0.3045
-3.7871 atelier	-0.2865
-3.5653 athétose	-0.3016
-3.6622 athétosique	-0.2897
-3.9632 athétosiques	-0.3057
-4.2643 atout	-0.3028
-4.2643 atrophie	-0.3069
-3.5653 atteindre	-0.2835
-4.2643 atteindront	-0.3067
-3.4861 atteinte	-0.2992
-3.2643 atteints	-0.2571
-4.2643 attendant	-0.3010
-4.2643 attende	-0.2996
-4.2643 attendes	-0.3054
-4.2643 attendre	-0.3047
-3.4192 attends	-0.2770
-4.2643 attendu	-0.3067
-3.6622 attention	-0.2985
-4.2643 attentionnées	-0.3025
-4.2643 attire	-0.3002
-3.9632 attirer	-0.2990
-2.2730 au	-0.2966
-4.2643 auchant	-0.3070
-3.4192 aucun	-0.3058
-3.6622 aucune	-0.3065
-4.2643 audience	-0.3014
-4.2643 audiovisuel	-0.3015
-4.2643 augmentant	-0.2992
-3.9632 augmentation	-0.2860
-4.2643 augmente	-0.3056
-4.2643 augmentent	-0.3034
-3.9632 augmenté	-0.3022
-3.1181 aujourd	-0.3066
-3.6622 auparavant	-0.2946
-3.6622 auprès	-0.2839
-3.6622 aura	-0.3035
-4.2643 aurai	-0.3012
-4.2643 auraient	-0.3069
-3.4192 aurais	-0.3006
-3.4192 aurait	-0.2863
-3.7871 auras	-0.2945
-3.9632 aurez	-0.3006
-4.2643 auront	-0.3020
-3.1181 aussi	-0.2695
-4.2643 aussitôt	-0.3020
-3.9632 autant	-0.2914
-3.5653 autobiographie	-0.3028
-3.9632 automatique	-0.3064
-4.2643 automatiquement	-0.3070
-4.2643 automutilation	-0.2998
-3.6622 autonome	-0.2843
-3.2229 autonomie	-0.2767
-4.2643 autorisation	-0.3028
-4.2643 autorise	-0.3002
-4.2643 autorisé	-0.2993
-3.6622 autour	-0.2896
-3.0338 autre	-0.2754
-4.2643 autrement	-0.3020
-2.6308 autres	-0.2540
-3.6622 autrui	-0.2956
-2.7079 aux	-0.3002
-3.4192 avaient	-0.2883
-2.9855 avais	-0.2760
-3.1503 avait	-0.2957
-4.2643 avance	-0.3034
-3.7871 avancer	-0.3014
-3.0882 avant	-0.2602
-3.6622 avantages	-0.2773
-2.0853 avec	-0.1999
-3.5653 avenir	-0.2897
-4.2643 aventure	-0.3051
-4.2643 aveugle	-0.3069
-4.2643 avez	-0.3069
-3.6622 avion	-0.2916
-3.7871 avis	-0.2897
-2.6622 avoir	-0.2422
-3.7871 avons	-0.3035
-3.9632 avoue	-0.2964
-4.2643 avouer	-0.3020
-4.2643 avoué	-0.3040
-3.2643 avs	-0.2941
-4.2643 avèrent	-0.3069
-3.4861 ayant	-0.2901
-4.2643 ayez	-0.3012
-4.2643 azerty	-0.3054
-4.2643 aéroport	-0.3069
-4.2643 b	-0.3002
-3.1503 bac	-0.2870
-4.2643 bah	-0.3069
-4.2643 bailleur	-0.3068
-4.2643 bain	-0.2998
-4.2643 balle	-0.3025
-3.9632 ballon	-0.2998
-4.2643 bardot	-0.2993
-4.2643 barrière	-0.3040
-3.9632 bas	-0.3052
-4.2643 base	-0.2917
-4.2643 basique	-0.2977
-4.2643 bassel	-0.3070
-4.2643 bat	-0.3066
-4.2643 bats	-0.3058
-3.9632 battant	-0.2996
-4.2643 batterie	-0.2917
-3.6622 battre	-0.2945
-3.6622 beau	-0.3059
-2.7457 beaucoup	-0.2563
-3.9632 beaux	-0.3065
-3.5653 belgique	-0.2875
-3.2643 belle	-0.3064
-4.2643 belles	-0.3070
-3.3612 besoin	-0.2866
-3.3100 besoins	-0.2897
-2.9632 bien	-0.2503
-4.2643 bienvenu	-0.3025
-3.9632 bienvenus	-0.2931
-4.2643 bienêtre	-0.3066
-4.2643 biochimiques	-0.3070
-4.2643 bizarre	-0.3068
-3.9632 bizarrement	-0.2977
-4.2643 blanc	-0.3068
-4.2643 blancs	-0.3069
-4.2643 blessure	-0.3055
-3.9632 blessée	-0.3039
-4.2643 bleui	-0.3051
-3.7871 blog	-0.2968
-4.2643 bloquent	-0.3025
-4.2643 bloqué	-0.3025
-4.2643 boire	-0.3066
-4.2643 boissière	-0.3047
-4.2643 boisson	-0.3069
-4.2643 boite	-0.2917
-3.2229 bon	-0.3021
-3.7871 bonheur	-0.2908
-4.2643 bonjour	-0.2977
-3.7871 bonne	-0.3066
-3.9632 bonnes	-0.3050
-3.6622 bons	-0.3064
-4.2643 bord	-0.3040
-4.2643 borde	-0.3046
-3.5653 bouche	-0.2923
-4.2643 bouge	-0.3025
-4.2643 bourse	-0.2996
-4.2643 bout	-0.3020
-3.7871 bras	-0.2965
-4.2643 brigitte	-0.3070
-4.2643 brochures	-0.3070
-4.2643 bruler	-0.3014
-4.2643 brusques	-0.3066
-3.9632 bruxelles	-0.2935
-4.2643 brûler	-0.3028
-4.2643 buccaux	-0.3070
-3.9632 budget	-0.3036
-4.2643 bulle	-0.3069
-3.0601 but	-0.2644
-4.2643 bâtards	-0.3040
-4.2643 bâtiment	-0.3067
-4.2643 bébé	-0.3068
-3.9632 bénéfice	-0.2917
-4.2643 bénéfices	-0.2993
-4.2643 bénévole	-0.3068
-4.2643 bêtement	-0.3069
-3.7871 bêtises	-0.2908
-2.1924 c	-0.2998
-4.2643 cachaient	-0.3069
-4.2643 cachais	-0.3025
-4.2643 cachait	-0.3028
-4.2643 cacher	-0.3069
-4.2643 cachées	-0.3028
-4.2643 cadeaux	-0.2917
-4.2643 cadence	-0.2993
-3.7871 cadre	-0.2866
-4.2643 calme	-0.3067
-3.9632 calmement	-0.2978
-3.9632 cap	-0.3069
-3.3612 capable	-0.2906
-3.9632 capacité	-0.2847
-4.2643 capacités	-0.3069
-2.3666 car	-0.1984
-4.2643 caractère	-0.2917
-3.9632 caractères	-0.3039
-4.2643 caractérisent	-0.3066
-4.2643 caractéristiques	-0.3066
-4.2643 caractérisés	-0.3051
-4.2643 carapace	-0.2998
-4.2643 carte	-0.2917
-3.0601 cas	-0.2471
-3.9632 casser	-0.2978
-3.9632 catholique	-0.2987
-4.2643 catégories	-0.3068
-2.8840 cause	-0.2611
-4.2643 ccd	-0.2998
-4.2643 cdd	-0.3068
-4.2643 cdi	-0.3058
-2.1503 ce	-0.2801
-3.2229 ceci	-0.2883
-2.1998 cela	-0.1767
-3.7871 celle	-0.2858
-4.2643 celui	-0.3014
-4.2643 centraux	-0.2988
-3.7871 centre	-0.2917
-4.2643 centrée	-0.3069
-2.7591 cependant	-0.2379
-4.2643 cercle	-0.3066
-4.2643 cerebral	-0.3070
-4.2643 cerner	-0.3023
-4.2643 certain	-0.3069
-4.2643 certaine	-0.3069
-3.7871 certainement	-0.2840
-3.5653 certaines	-0.3045
-3.3612 certains	-0.2947
-4.2643 certes	-0.2992
-4.2643 certitude	-0.3067
-3.7871 cerveau	-0.3065
-4.2643 cervelet	-0.3057
-2.7202 ces	-0.3007
-4.2643 cesse	-0.3070
-4.2643 cesser	-0.3020
-3.1503 cet	-0.3061
-2.4317 cette	-0.2996
-3.0601 ceux	-0.2859
-4.2643 ch	-0.3070
-3.3612 chacun	-0.2934
-4.2643 chaines	-0.3070
-3.1851 chance	-0.2691
-3.9632 change	-0.2914
-4.2643 changeant	-0.3020
-3.7871 changement	-0.2871
-3.9632 changements	-0.2977
-4.2643 changent	-0.3065
-3.2643 changer	-0.2806
-4.2643 changera	-0.3020
-3.5653 changé	-0.2952
-4.2643 chanson	-0.3069
-3.0882 chaque	-0.2988
-3.7871 charge	-0.2933
-4.2643 charger	-0.3025
-4.2643 charnel	-0.3046
-4.2643 chauffeurs	-0.3070
-3.5653 chemin	-0.2909
-4.2643 chemins	-0.2917
-4.2643 cher	-0.3069
-3.7871 chercheur	-0.3003
-4.2643 chewbacca	-0.2996
-3.0338 chez	-0.2813
-4.2643 chirurgicales	-0.3057
-4.2643 chirurgie	-0.3070
-4.2643 chié	-0.3034
-3.9632 choisi	-0.2908
-3.6622 choisir	-0.2921
-3.7871 choix	-0.2982
-3.9632 choquant	-0.2970
-4.2643 choquer	-0.3064
-4.2643 choréiformes	-0.3064
-3.0882 chose	-0.2587
-3.2229 choses	-0.2713
-4.2643 choubaka	-0.3068
-4.2643 chroniques	-0.2988
-4.2643 chubaka	-0.3069
-3.9632 chère	-0.2961
-4.2643 chômage	-0.3040
-4.2643 ci	-0.3069
-4.2643 cigarette	-0.2988
-4.2643 cinq	-0.2917
-4.2643 cinquante	-0.2998
-3.9632 claire	-0.2917
-3.4861 classe	-0.2808
-3.9632 classique	-0.3016
-3.5653 clavier	-0.2888
-3.9632 claviers	-0.3069
-3.7871 clients	-0.2976
-4.2643 cliniques	-0.3057
-4.2643 clique	-0.3022
-4.2643 cloniques	-0.3070
-3.9632 clé	-0.2843
-3.5653 clés	-0.2841
-4.2643 cm2	-0.3002
-4.2643 cnrs	-0.2992
-4.2643 codes	-0.3056
-3.7871 collège	-0.2917
-4.2643 collègue	-0.3040
-4.2643 colonne	-0.3070
-3.6622 combat	-0.2822
-4.2643 combattante	-0.3020
-4.2643 comble	-0.3023
-4.2643 comitiales	-0.3069
-4.2643 commandant	-0.2917
-2.4861 comme	-0.1832
-3.9632 commence	-0.2908
-3.6622 commencé	-0.2946
-2.9025 comment	-0.2765
-4.2643 commençais	-0.3022
-3.7871 commerce	-0.2997
-3.9632 commercial	-0.3063
-3.7871 commerçant	-0.3025
-3.6622 commerçants	-0.2961
-3.9632 commun	-0.2928
-4.2643 communautés	-0.3070
-4.2643 commune	-0.3028
-3.1181 communication	-0.2833
-3.7871 communiquer	-0.2999
-4.2643 communs	-0.2977
-3.7871 compassion	-0.3016
-4.2643 compenser	-0.3012
-4.2643 compensé	-0.3034
-4.2643 complexe	-0.2996
-4.2643 complexité	-0.2917
-4.2643 complicité	-0.3069
-3.4192 compliqué	-0.2856
-4.2643 compliquée	-0.2993
-4.2643 complète	-0.3041
-3.4861 complètement	-0.2960
-3.9632 complémentaires	-0.2981
-3.9632 comporte	-0.3066
-3.7871 comportement	-0.2968
-3.1181 comprendre	-0.2795
-3.9632 comprendront	-0.3067
-3.1851 comprends	-0.2840
-4.2643 comprennent	-0.3069
-3.6622 compris	-0.2743
-3.6622 compte	-0.2915
-4.2643 compter	-0.3053
-3.7871 compétences	-0.2911
-3.5653 con	-0.2734
-3.9632 concentration	-0.3069
-4.2643 concernait	-0.3022
-3.3100 concernant	-0.2766
-4.2643 concerne	-0.2988
-4.2643 concernent	-0.2988
-4.2643 concerné	-0.3051
-3.9632 concernées	-0.2910
-4.2643 concernés	-0.3051
-3.9632 conclusion	-0.2964
-4.2643 concours	-0.3020
-4.2643 condition	-0.3068
-4.2643 conditionnée	-0.3051
-4.2643 conduire	-0.3067
-4.2643 conduit	-0.3028
-3.4861 confiance	-0.2844
-4.2643 confident	-0.3051
-4.2643 confidentialité	-0.3011
-4.2643 confirmé	-0.3054
-3.9632 confort	-0.3060
-4.2643 confronté	-0.3012
-3.7871 conférence	-0.2937
-4.2643 conférences	-0.3020
-4.2643 conjoint	-0.3069
-3.9632 connais	-0.2994
-3.9632 connaissait	-0.3064
-3.9632 connaissances	-0.2981
-4.2643 connait	-0.3020
-3.9632 connaitre	-0.3008
-4.2643 connard	-0.3067
-4.2643 connaît	-0.3020
-4.2643 connerie	-0.3069
-4.2643 conneries	-0.2992
-4.2643 connu	-0.3066
-4.2643 connues	-0.3049
-4.2643 cons	-0.3039
-3.6622 conscience	-0.2895
-3.9632 conscient	-0.2998
-4.2643 conscientes	-0.2917
-4.2643 conseil	-0.3061
-4.2643 conseille	-0.3069
-4.2643 conseiller	-0.3032
-4.2643 conseillé	-0.3051
-4.2643 conseils	-0.3070
-3.9632 considérer	-0.3054
-3.9632 considéré	-0.3056
-4.2643 consiste	-0.2993
-4.2643 consistent	-0.2993
-4.2643 console	-0.3042
-4.2643 constants	-0.2998
-3.7871 constatation	-0.2884
-3.9632 constater	-0.2995
-3.9632 constaté	-0.3020
-3.9632 constitue	-0.2929
-4.2643 constitué	-0.3012
-4.2643 constructif	-0.2917
-4.2643 construction	-0.3028
-4.2643 construire	-0.3012
-4.2643 conséquences	-0.3070
-2.9855 conséquent	-0.2658
-4.2643 conséquents	-0.2977
-3.6622 contact	-0.3020
-4.2643 conte	-0.3067
-3.5653 contexte	-0.2792
-4.2643 contextes	-0.3069
-3.9632 continuait	-0.3039
-4.2643 continue	-0.3070
-4.2643 continuent	-0.2993
-3.4861 continuer	-0.2982
-4.2643 contractures	-0.3010
-4.2643 contradictoire	-0.2977
-4.2643 contraignant	-0.3051
-3.7871 contraire	-0.2910
-3.5653 contre	-0.2907
-4.2643 contrepartie	-0.3050
-4.2643 contrôle	-0.3014
-3.5653 contrôler	-0.2888
-4.2643 conversation	-0.3070
-4.2643 convient	-0.3068
-4.2643 convulsions	-0.3070
-4.2643 convulsives	-0.3070
-4.2643 conçois	-0.3020
-4.2643 copine	-0.3069
-3.4192 corps	-0.2981
-3.9632 correct	-0.2894
-4.2643 correction	-0.2917
-4.2643 correspondaient	-0.2998
-3.9632 correspondait	-0.2992
-4.2643 corrigeait	-0.3023
-4.2643 corticobulbaire	-0.3014
-4.2643 cotée	-0.2917
-3.9632 coucher	-0.3041
-4.2643 couchés	-0.2988
-3.9632 couleur	-0.2911
-3.9632 couleurs	-0.2971
-4.2643 coupables	-0.3050
-3.7871 coups	-0.2887
-3.9632 cour	-0.2917
-3.4192 courage	-0.2842
-4.2643 couramment	-0.3010
-3.9632 courant	-0.2975
-4.2643 coureur	-0.3065
-2.9632 cours	-0.2319
-4.2643 courses	-0.3053
-4.2643 couvé	-0.3062
-3.5653 coût	-0.2835
-4.2643 coûte	-0.3069
-3.9632 cp	-0.2958
-4.2643 crainte	-0.3062
-3.9632 crises	-0.3069
-4.2643 crispé	-0.3039
-4.2643 critique	-0.3053
-4.2643 critères	-0.3070
-4.2643 croient	-0.3068
-4.2643 croire	-0.3059
-3.9632 crois	-0.3019
-4.2643 croyances	-0.3070
-3.9632 cru	-0.3028
-4.2643 créa	-0.3002
-4.2643 créaient	-0.2977
-4.2643 créait	-0.3014
-3.9632 création	-0.2917
-3.9632 créativité	-0.2977
-3.6622 créer	-0.2950
-4.2643 créeront	-0.3069
-3.9632 créé	-0.2858
-4.2643 crête	-0.2917
-4.2643 cul	-0.2996
-4.2643 curiosité	-0.2998
-4.2643 curseur	-0.3068
-4.2643 cutanées	-0.3057
-4.2643 cv	-0.3047
-4.2643 cérébelleuse	-0.3069
-4.2643 cérébral	-0.3069
-3.7871 cérébrale	-0.3012
-4.2643 cérébraux	-0.3041
-3.9632 côté	-0.3069
-4.2643 côtés	-0.3034
-1.9462 d	-0.2644
-4.2643 dame	-0.3040
-3.9632 danger	-0.2953
-3.9632 dangereux	-0.2977
-1.9878 dans	-0.2372
-1.4622 de	-0.1841
-4.2643 debout	-0.3034
-3.9632 degré	-0.2917
-3.9632 degrés	-0.2946
-4.2643 demandai	-0.2917
-4.2643 demandaient	-0.3048
-4.2643 demandait	-0.3070
-3.6622 demande	-0.2863
-4.2643 demandent	-0.2917
-3.4861 demander	-0.2832
-4.2643 demanderai	-0.3020
-3.6622 demandé	-0.2885
-3.7871 demeure	-0.3049
-3.0090 depuis	-0.2734
-3.5653 dernier	-0.3013
-3.9632 derniers	-0.3038
-3.6622 dernière	-0.3014
-4.2643 dernièrement	-0.2996
-3.6622 derrière	-0.3008
-1.8969 des	-0.2900
-4.2643 descriptif	-0.3070
-4.2643 description	-0.3020
-3.7871 dessous	-0.2873
-3.9632 dessus	-0.2955
-4.2643 destination	-0.3046
-3.7871 destinée	-0.2969
-2.9855 deux	-0.3005
-3.3100 deuxième	-0.2975
-3.9632 deuxièmement	-0.3025
-3.4861 devais	-0.3009
-3.9632 devait	-0.3053
-3.9632 devant	-0.2927
-3.9632 devenait	-0.3069
-3.6622 devenir	-0.2961
-3.7871 devenu	-0.2906
-3.9632 devenue	-0.3039
-4.2643 devenues	-0.2917
-3.7871 devez	-0.3039
-4.2643 devienne	-0.3012
-4.2643 devient	-0.3069
-4.2643 devise	-0.3062
-3.7871 devoirs	-0.3067
-4.2643 devrai	-0.3047
-4.2643 devrais	-0.3070
-4.2643 devrait	-0.3058
-4.2643 devrons	-0.3054
-3.9632 diagnostic	-0.3041
-4.2643 diagnostiquée	-0.3034
-4.2643 diagnostiquées	-0.3053
-3.9632 dialogue	-0.3018
-4.2643 dictateurs	-0.3070
-3.3100 difficile	-0.2656
-3.5653 difficiles	-0.2993
-3.5653 difficulté	-0.2691
-3.1181 difficultés	-0.2640
-4.2643 diffusés	-0.3056
-3.2643 différence	-0.2822
-3.7871 différences	-0.2880
-3.6622 différent	-0.2853
-3.7871 différente	-0.2811
-3.4861 différentes	-0.3031
-3.6622 différents	-0.3069
-4.2643 dignement	-0.3025
-4.2643 dimension	-0.3069
-4.2643 diminuant	-0.3022
-3.7871 diminuer	-0.2908
-4.2643 diminué	-0.3060
-4.2643 diminuée	-0.2998
-4.2643 diminuées	-0.3022
-4.2643 diminués	-0.3069
-4.2643 diplégie	-0.2988
-3.9632 diplôme	-0.3025
-3.9632 diplômes	-0.3046
-4.2643 dira	-0.3069
-3.4192 dirais	-0.2993
-3.0338 dire	-0.2676
-3.9632 direct	-0.2941
-4.2643 directe	-0.3034
-4.2643 directement	-0.3034
-3.7871 directeur	-0.2835
-4.2643 direction	-0.3068
-3.5653 dires	-0.3032
-4.2643 diront	-0.3020
-3.6622 dis	-0.2874
-3.9632 disaient	-0.3038
-3.7871 disait	-0.2974
-3.4861 disant	-0.2904
-4.2643 discours	-0.3053
-4.2643 discrimination	-0.3069
-4.2643 discussion	-0.3060
-4.2643 discussions	-0.2998
-4.2643 discutent	-0.3034
-4.2643 discuter	-0.2993
-3.2229 disent	-0.3007
-4.2643 disons	-0.3048
-3.9632 disparaissent	-0.3047
-3.9632 disparait	-0.3044
-4.2643 disparaît	-0.3042
-4.2643 disparition	-0.3014
-4.2643 disparu	-0.3056
-4.2643 disponibilités	-0.2998
-4.2643 dispositif	-0.3069
-4.2643 disposition	-0.2917
-3.9632 distance	-0.3057
-4.2643 distantes	-0.2998
-4.2643 distaux	-0.3070
-4.2643 distinguer	-0.2988
-4.2643 distraction	-0.3047
-3.0882 dit	-0.2817
-4.2643 dite	-0.3069
-4.2643 dites	-0.3069
-3.9632 divers	-0.3068
-3.9632 diverses	-0.3066
-4.2643 dix	-0.3069
-4.2643 docteur	-0.3011
-3.4861 doctorat	-0.2946
-4.2643 document	-0.3070
-3.3612 dois	-0.2982
-3.2229 doit	-0.3033
-3.2229 doivent	-0.3023
-3.0338 domaine	-0.2488
-3.7871 domaines	-0.2872
-3.5653 domicile	-0.2842
-4.2643 domination	-0.3068
-4.2643 dominent	-0.3065
-3.9632 dominer	-0.2985
-4.2643 dommages	-0.2993
-4.2643 don	-0.2917
-2.8493 donc	-0.2547
-3.9632 donnaient	-0.3056
-3.6622 donne	-0.2827
-3.1181 donner	-0.2499
-3.4192 donné	-0.2879
-4.2643 données	-0.3064
-4.2643 dons	-0.3062
-3.7871 dont	-0.3035
-4.2643 dopant	-0.2996
-4.2643 dorian	-0.3068
-3.9632 dos	-0.2909
-3.4192 dossier	-0.2783
-4.2643 dossiers	-0.2996
-3.9632 doucement	-0.2998
-4.2643 douche	-0.3069
-4.2643 douleur	-0.3014
-3.9632 douloureux	-0.2980
-4.2643 draguer	-0.3057
-4.2643 dresse	-0.2988
-4.2643 drive	-0.3051
-4.2643 drogués	-0.2917
-3.6622 droit	-0.2814
-3.7871 droits	-0.2893
-4.2643 drôle	-0.3011
-3.6622 ds	-0.2985
-4.2643 dsk	-0.3053
-2.3348 du	-0.2922
-3.9632 due	-0.2993
-4.2643 dur	-0.3020
-3.1503 durant	-0.2698
-4.2643 dus	-0.2993
-4.2643 dut	-0.2988
-3.9632 dysarthrie	-0.3063
-4.2643 dyskinétiques	-0.3053
-4.2643 dystonique	-0.3064
-4.2643 dystoniques	-0.2917
-4.2643 dystrophies	-0.3070
-4.2643 dès	-0.3020
-4.2643 débat	-0.3070
-4.2643 débordants	-0.2917
-3.9632 débrouiller	-0.2995
-4.2643 débrouillée	-0.2996
-3.3100 début	-0.2815
-4.2643 débute	-0.3046
-4.2643 décembre	-0.3069
-4.2643 décente	-0.3064
-4.2643 décevoir	-0.3050
-4.2643 décida	-0.2917
-3.4192 décidé	-0.2812
-4.2643 déclaré	-0.3048
-4.2643 décor	-0.2998
-4.2643 découpes	-0.3070
-3.9632 décourage	-0.3061
-3.5653 découvert	-0.2873
-4.2643 découvre	-0.3012
-3.4192 découvrir	-0.2553
-4.2643 décrire	-0.3023
-4.2643 décrit	-0.3012
-4.2643 défaut	-0.3042
-3.7871 défauts	-0.3047
-4.2643 déficit	-0.3028
-4.2643 défirent	-0.3042
-4.2643 défoncer	-0.3069
-3.9632 déformés	-0.3041
-4.2643 dégoutée	-0.3051
-4.2643 dégradée	-0.3070
-4.2643 dégénérative	-0.3070
-4.2643 dégénérescences	-0.3070
-3.6622 déjà	-0.3008
-4.2643 délires	-0.3059
-3.7871 démarche	-0.2988
-3.9632 démarches	-0.2902
-4.2643 démontaient	-0.3039
-4.2643 démontré	-0.3020
-4.2643 démunis	-0.2988
-3.7871 déménagement	-0.2885
-4.2643 dénoncer	-0.3054
-3.7871 départ	-0.2979
-4.2643 dépassaient	-0.3069
-3.6622 dépasser	-0.2912
-4.2643 dépend	-0.3050
-4.2643 dépendre	-0.3020
-4.2643 dépense	-0.3059
-3.5653 dépenses	-0.2817
-4.2643 dépensons	-0.3067
-3.7871 déplacer	-0.2978
-4.2643 déposent	-0.3012
-4.2643 dépourvu	-0.2917
-4.2643 dérangera	-0.3065
-4.2643 dérisoires	-0.3051
-4.2643 dérogations	-0.2996
-4.2643 déroulement	-0.3014
-4.2643 déshydratation	-0.3064
-4.2643 désire	-0.3063
-4.2643 désiré	-0.2996
-4.2643 détails	-0.2996
-4.2643 détend	-0.3069
-4.2643 détendre	-0.3039
-4.2643 détendu	-0.3051
-4.2643 déterminant	-0.2996
-4.2643 déterminer	-0.3054
-4.2643 dévastateur	-0.3053
-4.2643 développe	-0.3025
-3.9632 développement	-0.3068
-3.9632 développer	-0.3031
-4.2643 développé	-0.3068
-3.3100 dû	-0.2917
-3.9632 e	-0.2909
-3.6622 eau	-0.2898
-4.2643 ecrire	-0.3054
-4.2643 effacé	-0.2977
-4.2643 effectue	-0.3020
-3.9632 effectuer	-0.2914
-3.9632 effectué	-0.2994
-3.7871 effet	-0.2949
-3.6622 effort	-0.2864
-3.9632 efforts	-0.2987
-4.2643 eh	-0.3069
-2.5653 elle	-0.2396
-2.9855 elles	-0.2601
-4.2643 embarquement	-0.3051
-3.9632 embauche	-0.2998
-4.2643 embaucher	-0.3067
-4.2643 emmener	-0.3067
-4.2643 emplacement	-0.3014
-3.7871 emploi	-0.2889
-3.7871 emplois	-0.3027
-4.2643 employé	-0.3014
-4.2643 empêcher	-0.3020
-4.2643 empêché	-0.3020
-2.0212 en	-0.2583
-4.2643 encadre	-0.2998
-4.2643 enceins	-0.3070
-2.8329 encore	-0.2679
-4.2643 endommagé	-0.3023
-4.2643 endommagée	-0.3051
-3.7871 enfance	-0.2986
-3.1503 enfant	-0.2620
-2.9025 enfants	-0.2755
-3.9632 enfer	-0.3065
-4.2643 enfermé	-0.3053
-4.2643 enfin	-0.3023
-4.2643 engendre	-0.3068
-4.2643 ennemie	-0.3048
-4.2643 ennui	-0.3069
-3.9632 enseignant	-0.3030
-3.9632 enseignantes	-0.3057
-3.9632 enseignants	-0.3054
-3.9632 enseignement	-0.3069
-4.2643 enseigner	-0.2993
-3.6622 ensemble	-0.2845
-3.4861 ensuite	-0.2742
-4.2643 entendrais	-0.3047
-3.5653 entendre	-0.2973
-3.7871 entends	-0.2887
-4.2643 entendu	-0.3056
-4.2643 entière	-0.3070
-3.7871 entourage	-0.3032
-4.2643 entoure	-0.3070
-4.2643 entouré	-0.2917
-4.2643 entrait	-0.3025
-4.2643 entraînent	-0.3010
-3.9632 entraîner	-0.2952
-3.2643 entre	-0.2780
-3.9632 entreprise	-0.2997
-3.5653 entrer	-0.2954
-4.2643 entrouvertes	-0.3040
-4.2643 entré	-0.3070
-3.6622 entrée	-0.2850
-4.2643 envahissait	-0.3025
-3.1851 envers	-0.2862
-3.6622 envie	-0.2917
-4.2643 envier	-0.3010
-3.6622 envies	-0.2947
-3.4861 environ	-0.3068
-4.2643 envoie	-0.2988
-4.2643 envole	-0.2996
-4.2643 envolent	-0.3056
-3.9632 envoyer	-0.2954
-4.2643 ergologue	-0.3015
-4.2643 ergothérapeute	-0.3069
-4.2643 ergothérapie	-0.3022
-4.2643 erreur	-0.3011
-3.3612 es	-0.2938
-4.2643 escient	-0.2998
-4.2643 espoir	-0.2992
-3.7871 esprit	-0.3016
-3.6622 esprits	-0.3039
-3.4861 espère	-0.2914
-3.7871 espérant	-0.2995
-4.2643 espérer	-0.3020
-3.9632 essaient	-0.3020
-3.6622 essayer	-0.2893
-4.2643 essayez	-0.2917
-3.9632 essayé	-0.2917
-4.2643 essentiel	-0.2917
-1.9025 est	-0.1704
-4.2643 estelle	-0.3039
-1.7857 et	-0.0567
-2.6732 eu	-0.2402
-4.2643 eues	-0.2977
-3.2229 euros	-0.2722
-2.9855 eux	-0.2424
-4.2643 evidemment	-0.3046
-3.5653 ex	-0.2887
-3.9632 examens	-0.3069
-4.2643 examiner	-0.3023
-4.2643 excel	-0.3057
-4.2643 exclure	-0.3068
-4.2643 exclusif	-0.3040
-3.9632 exemplaire	-0.3004
-4.2643 exemplarité	-0.3050
-3.2643 exemple	-0.2768
-4.2643 exemples	-0.2917
-4.2643 exercice	-0.3068
-3.7871 exercices	-0.2990
-4.2643 existais	-0.3068
-3.7871 existe	-0.2895
-3.7871 existence	-0.2920
-4.2643 explications	-0.2998
-4.2643 expliquai	-0.3058
-4.2643 explique	-0.3025
-4.2643 expliquent	-0.3020
-3.4861 expliquer	-0.2896
-4.2643 expliqué	-0.3070
-4.2643 exploitent	-0.2988
-4.2643 exploits	-0.3025
-4.2643 explosion	-0.3020
-4.2643 exposés	-0.2993
-4.2643 expression	-0.3046
-3.2643 exprimer	-0.2826
-3.2229 expérience	-0.2640
-3.6622 expériences	-0.2892
-4.2643 extrême	-0.3069
-3.9632 extérieur	-0.3020
-4.2643 extérieure	-0.3069
-4.2643 exécution	-0.3014
-3.6622 face	-0.2985
-3.2643 facile	-0.2843
-3.4192 facilement	-0.2679
-4.2643 faciles	-0.2993
-4.2643 facilité	-0.3042
-4.2643 facteurs	-0.2917
-4.2643 facturé	-0.2993
-3.5653 faible	-0.3065
-2.3198 faire	-0.1914
-3.4861 fais	-0.2877
-4.2643 faisable	-0.3034
-4.2643 faisaient	-0.3068
-3.5653 faisais	-0.2922
-3.7871 faisait	-0.3012
-2.5161 fait	-0.1996
-3.6622 faites	-0.2882
-3.6622 faits	-0.2974
-3.9632 fallait	-0.2917
-4.2643 familiale	-0.3025
-4.2643 familiaux	-0.3046
-4.2643 familièrement	-0.3002
-2.9420 famille	-0.2736
-4.2643 familles	-0.2998
-3.9632 fardeau	-0.3051
-4.2643 farfelu	-0.3039
-4.2643 fassent	-0.3014
-4.2643 fauchant	-0.2998
-4.2643 faudrait	-0.3070
-2.7591 faut	-0.2735
-4.2643 faute	-0.3050
-3.1851 fauteuil	-0.2881
-4.2643 faux	-0.2977
-4.2643 favorable	-0.3061
-4.2643 favorisait	-0.3023
-4.2643 favorise	-0.2988
-3.4192 façon	-0.2892
-3.9632 femme	-0.3031
-3.9632 femmes	-0.2987
-3.9632 ferait	-0.3022
-4.2643 ferme	-0.3020
-4.2643 fermement	-0.3002
-4.2643 fermes	-0.3069
-4.2643 fermé	-0.3012
-4.2643 fessai	-0.3039
-4.2643 fessaient	-0.3014
-3.9632 fessait	-0.3014
-3.9632 fessant	-0.2897
-4.2643 fiancée	-0.2996
-3.9632 fierté	-0.2990
-3.9632 figure	-0.2987
-4.2643 fille	-0.2917
-4.2643 film	-0.3020
-4.2643 fils	-0.2917
-3.6622 fin	-0.2893
-3.6622 final	-0.3008
-3.5653 finalement	-0.2901
-3.9632 finance	-0.3010
-4.2643 financement	-0.3060
-3.6622 financements	-0.2897
-3.9632 financer	-0.2932
-4.2643 financiers	-0.3011
-4.2643 financièrement	-0.3047
-4.2643 financières	-0.3070
-4.2643 fini	-0.3039
-3.6622 finir	-0.2965
-4.2643 finirai	-0.3065
-4.2643 fins	-0.2988
-4.2643 fixe	-0.3069
-4.2643 fixés	-0.2998
-4.2643 flotteurs	-0.3011
-4.2643 flyers	-0.3070
-4.2643 foi	-0.3014
-3.1181 fois	-0.2656
-4.2643 folie	-0.2917
-3.9632 fonce	-0.3029
-4.2643 foncer	-0.3067
-3.7871 fonction	-0.3013
-4.2643 fonctionnelle	-0.3022
-4.2643 fonctionner	-0.3065
-3.3100 font	-0.2869
-3.7871 foot	-0.2987
-4.2643 football	-0.3011
-4.2643 footballer	-0.3070
-3.5653 force	-0.2840
-3.9632 forces	-0.2966
-3.6622 forcément	-0.2914
-3.9632 formation	-0.3025
-3.9632 formations	-0.2976
-4.2643 forme	-0.3069
-4.2643 forment	-0.2998
-4.2643 former	-0.3066
-3.6622 formes	-0.3068
-4.2643 formidable	-0.3028
-4.2643 formé	-0.2996
-3.9632 formées	-0.2996
-3.7871 fort	-0.2994
-4.2643 forte	-0.3070
-3.5653 fortement	-0.2919
-4.2643 forts	-0.2977
-4.2643 fou	-0.3011
-4.2643 fournir	-0.3012
-4.2643 fournisseur	-0.3066
-4.2643 foutent	-0.3051
-4.2643 foutre	-0.2977
-4.2643 frais	-0.3020
-3.5653 france	-0.2851
-3.7871 français	-0.3024
-3.9632 frappé	-0.2979
-4.2643 frontière	-0.2996
-3.5653 frère	-0.2829
-3.9632 frères	-0.2954
-4.2643 frédéric	-0.3070
-3.9632 fréquemment	-0.3010
-4.2643 fréquente	-0.3064
-3.9632 fréquenter	-0.2954
-3.9632 fréquentes	-0.3022
-4.2643 fur	-0.2993
-4.2643 fut	-0.3069
-3.6622 futur	-0.2874
-3.9632 future	-0.3069
-4.2643 futures	-0.2917
-4.2643 futurs	-0.3069
-4.2643 février	-0.3069
-4.2643 fête	-0.3051
-4.2643 gagnait	-0.3066
-3.5653 gagné	-0.2812
-3.9632 garage	-0.2998
-4.2643 garde	-0.3010
-3.9632 garder	-0.3036
-4.2643 gardé	-0.3023
-4.2643 garçons	-0.3002
-3.9632 gay	-0.3041
-4.2643 genres	-0.2998
-3.0090 gens	-0.2824
-4.2643 gentiment	-0.3020
-4.2643 gestes	-0.3069
-4.2643 gesticulant	-0.3025
-3.9632 gifle	-0.2996
-3.7871 gillard	-0.2916
-4.2643 global	-0.3069
-4.2643 gloire	-0.3020
-3.9632 gothiques	-0.2998
-3.7871 gouvernement	-0.2983
-3.2643 grand	-0.3055
-3.0601 grande	-0.3055
-3.6622 grandes	-0.3048
-4.2643 grandi	-0.3025
-3.9632 grandir	-0.2952
-3.6622 grands	-0.3061
-4.2643 gratuitement	-0.3054
-3.9632 grave	-0.2898
-3.9632 gravement	-0.2989
-4.2643 graves	-0.2988
-4.2643 gravité	-0.3064
-4.2643 gravure	-0.2998
-4.2643 gris	-0.3070
-3.9632 gros	-0.3020
-3.9632 groupe	-0.2857
-4.2643 groupés	-0.3028
-3.1503 grâce	-0.2970
-4.2643 guerrier	-0.3069
-4.2643 guerriers	-0.2917
-4.2643 guide	-0.3053
-4.2643 guider	-0.3065
-4.2643 guillaume	-0.3069
-4.2643 guérir	-0.3069
-3.5653 général	-0.2845
-4.2643 généreux	-0.2977
-3.9632 gérer	-0.2992
-4.2643 gênant	-0.3020
-3.9632 gêner	-0.2949
-4.2643 h	-0.3069
-4.2643 habillage	-0.2998
-4.2643 habille	-0.3046
-3.5653 habitude	-0.2866
-3.7871 habitudes	-0.2998
-3.9632 habituel	-0.3051
-4.2643 habituellement	-0.3023
-3.9632 habituelles	-0.2985
-3.7871 habituer	-0.2829
-4.2643 habitué	-0.2993
-4.2643 habituées	-0.2993
-4.2643 habitués	-0.2993
-4.2643 handball	-0.3022
-2.3247 handicap	-0.1796
-4.2643 handicapante	-0.2998
-3.7871 handicaps	-0.3063
-2.9632 handicapé	-0.2453
-3.1851 handicapée	-0.2750
-2.8840 handicapées	-0.2379
-3.1851 handicapés	-0.2694
-3.5653 handisport	-0.2986
-3.9632 hasard	-0.2997
-4.2643 haut	-0.3070
-4.2643 haute	-0.3028
-3.9632 hauteur	-0.2914
-4.2643 heure	-0.3028
-3.5653 heures	-0.2814
-3.9632 heureusement	-0.3016
-3.4192 heureux	-0.2743
-4.2643 heurtai	-0.3060
-4.2643 hippel	-0.3070
-3.3612 histoire	-0.2882
-3.9632 histoires	-0.3034
-4.2643 hiver	-0.3023
-4.2643 hommage	-0.3061
-3.2229 homme	-0.2798
-3.7871 hommes	-0.3066
-4.2643 honnêteté	-0.2977
-3.7871 honte	-0.2914
-4.2643 hop	-0.3065
-3.7871 horaire	-0.3030
-4.2643 horaires	-0.2996
-4.2643 horizon	-0.3067
-3.9632 horreur	-0.3007
-4.2643 horrible	-0.2996
-3.7871 hors	-0.2917
-4.2643 hublot	-0.3067
-3.1181 hui	-0.2575
-3.6622 humain	-0.3005
-3.6622 humaine	-0.2968
-3.9632 humains	-0.2992
-3.7871 humour	-0.2976
-4.2643 hyperactivité	-0.3053
-4.2643 hyperréflexie	-0.2998
-4.2643 hypertonicité	-0.3069
-4.2643 hypertonie	-0.3070
-4.2643 hyperuricémie	-0.3070
-4.2643 hypothèse	-0.2977
-4.2643 hypotonie	-0.3057
-3.9632 hypotrophiques	-0.2956
-4.2643 hé	-0.3070
-3.6622 hémiplégie	-0.2995
-4.2643 héréditaires	-0.3070
-3.9632 hésitation	-0.2987
-4.2643 ici	-0.3028
-3.6622 ictère	-0.3056
-3.9632 identifier	-0.2915
-4.2643 identifiés	-0.3066
-3.9632 identité	-0.3030
-3.7871 idéal	-0.2992
-3.7871 idée	-0.3007
-3.9632 idées	-0.3046
-4.2643 ignorent	-0.3068
-4.2643 ignoré	-0.3023
-2.2730 il	-0.2761
-4.2643 illusion	-0.3042
-4.2643 illustrations	-0.3025
-2.4861 ils	-0.2815
-3.9632 image	-0.2917
-4.2643 images	-0.3014
-4.2643 imaginai	-0.3053
-3.6622 imagination	-0.2844
-3.9632 imagine	-0.2951
-3.7871 imaginer	-0.2978
-3.6622 imaginez	-0.3036
-4.2643 imaginé	-0.3012
-3.2229 imc	-0.2885
-3.7871 immense	-0.2976
-3.9632 immeuble	-0.3041
-4.2643 imperturbable	-0.3023
-3.6622 importance	-0.2916
-3.1851 important	-0.2641
-3.9632 importante	-0.2966
-3.3100 impossible	-0.2609
-4.2643 impossibles	-0.2993
-4.2643 imposé	-0.3051
-3.7871 impression	-0.2948
-4.2643 improductifs	-0.3051
-4.2643 incidents	-0.3070
-4.2643 incompatibles	-0.3062
-3.7871 inconnu	-0.2945
-3.9632 inconnues	-0.2983
-4.2643 incontestablement	-0.3039
-3.7871 inconvénient	-0.3015
-4.2643 inconvénients	-0.2977
-4.2643 incoordination	-0.3069
-4.2643 indirectement	-0.3058
-3.9632 indispensables	-0.3054
-3.9632 individu	-0.3032
-4.2643 individus	-0.3047
-3.9632 indépendance	-0.3009
-3.9632 infantile	-0.2956
-4.2643 infection	-0.3010
-4.2643 infiniment	-0.2996
-4.2643 infirme	-0.3069
-4.2643 infirmité	-0.3069
-3.9632 infographie	-0.2967
-4.2643 infographiste	-0.2998
-4.2643 information	-0.3028
-3.9632 informations	-0.2987
-3.1181 informatique	-0.2706
-4.2643 informatisées	-0.3046
-4.2643 inhabituelles	-0.2998
-4.2643 injustice	-0.3047
-4.2643 injustices	-0.2998
-4.2643 innovation	-0.3056
-4.2643 inspiré	-0.3064
-4.2643 instabilité	-0.3010
-4.2643 installations	-0.3066
-3.9632 installe	-0.2956
-4.2643 installer	-0.3025
-4.2643 instant	-0.3028
-4.2643 institutrice	-0.2917
-3.7871 institutrices	-0.3004
-4.2643 insuffisante	-0.3067
-4.2643 insuffisantes	-0.3067
-4.2643 insuffisants	-0.3067
-4.2643 intellectuelle	-0.3068
-4.2643 intellectuels	-0.3039
-4.2643 intelligence	-0.3068
-3.9632 intelligentes	-0.2996
-3.9632 intense	-0.3037
-4.2643 intention	-0.3020
-4.2643 intentionnel	-0.3070
-4.2643 interdisant	-0.3002
-4.2643 interdit	-0.3039
-4.2643 interdits	-0.3051
-3.4861 internet	-0.2959
-4.2643 interrogations	-0.3047
-3.7871 intervenante	-0.2880
-3.4192 intervenantes	-0.2980
-4.2643 intervenants	-0.3068
-3.5653 interventions	-0.2924
-4.2643 interview	-0.2977
-3.9632 intégration	-0.2893
-3.9632 intéressant	-0.2843
-3.9632 intéressent	-0.2924
-3.6622 intéressé	-0.2985
-4.2643 intéressées	-0.3064
-4.2643 invalidante	-0.3010
-3.7871 invalides	-0.3004
-4.2643 invitations	-0.3070
-3.9632 inviter	-0.2956
-3.9632 invité	-0.2985
-3.7871 involontaires	-0.3039
-4.2643 inégalité	-0.3025
-4.2643 irm	-0.3069
-4.2643 irresponsable	-0.3067
-3.5653 iut	-0.2856
-1.8733 j	-0.2984
-2.9855 jamais	-0.2783
-3.9632 jambes	-0.2953
-3.9632 janvier	-0.3068
-1.6765 je	-0.2506
-3.6622 jeu	-0.2864
-3.9632 jeune	-0.3066
-3.4861 jeunes	-0.2872
-3.9632 jeux	-0.3067
-3.4861 joie	-0.2817
-4.2643 joies	-0.3046
-4.2643 joins	-0.3022
-3.9632 jouai	-0.2961
-4.2643 jouaient	-0.3047
-4.2643 jouait	-0.2993
-4.2643 jouent	-0.3012
-4.2643 jouer	-0.2996
-4.2643 jouera	-0.3047
-3.9632 joues	-0.3047
-4.2643 joueur	-0.2917
-4.2643 joueurs	-0.3062
-2.9632 jour	-0.2433
-4.2643 journalières	-0.3011
-3.9632 journée	-0.3065
-3.6622 journées	-0.2928
-3.0601 jours	-0.2530
-4.2643 joyeuse	-0.3062
-4.2643 joyeuses	-0.3060
-4.2643 joyeux	-0.3034
-3.9632 joystick	-0.2917
-4.2643 jugeaient	-0.3042
-4.2643 jugement	-0.3050
-4.2643 jugements	-0.2998
-4.2643 juger	-0.3059
-4.2643 jugez	-0.3022
-4.2643 juillet	-0.3070
-4.2643 juin	-0.3069
-3.3100 jusqu	-0.2970
-3.2643 juste	-0.2797
-4.2643 justifier	-0.3042
-3.9632 kaligrav	-0.3005
-3.7871 kiné	-0.2956
-1.9589 l	-0.2801
-1.7497 la	-0.2832
-4.2643 lacunes	-0.3028
-4.2643 laid	-0.3042
-3.7871 laisse	-0.2955
-3.6622 laisser	-0.2983
-4.2643 laquelle	-0.3048
-4.2643 large	-0.3070
-4.2643 laser	-0.3070
-4.2643 lave	-0.2998
-3.9632 laver	-0.3013
-1.8079 le	-0.2611
-4.2643 lelogiciel	-0.3039
-3.9632 lent	-0.2996
-4.2643 lente	-0.2998
-4.2643 lents	-0.3070
-3.7871 lequel	-0.2919
-1.7277 les	-0.2830
-4.2643 lesch	-0.3070
-3.9632 lesquels	-0.2988
-3.7871 lettre	-0.3069
-3.9632 lettres	-0.3047
-4.2643 leucodystrophie	-0.3070
-2.5084 leur	-0.2918
-3.1503 leurs	-0.3053
-4.2643 levé	-0.3012
-4.2643 levés	-0.2988
-3.5653 leçon	-0.2896
-4.2643 leçons	-0.2917
-3.7871 liberté	-0.2943
-4.2643 libre	-0.3067
-4.2643 librement	-0.3028
-4.2643 libres	-0.3011
-3.7871 lien	-0.3027
-3.6622 liens	-0.3038
-3.9632 lieu	-0.2917
-4.2643 lieux	-0.3069
-4.2643 lille	-0.3011
-4.2643 limite	-0.3014
-3.9632 limites	-0.3068
-4.2643 limité	-0.3067
-4.2643 limitée	-0.2993
-4.2643 limités	-0.3047
-4.2643 lindau	-0.3057
-4.2643 linguaux	-0.2998
-3.9632 lionne	-0.2996
-4.2643 liraient	-0.3023
-4.2643 lire	-0.3060
-4.2643 liront	-0.3023
-4.2643 lisant	-0.3042
-4.2643 lisent	-0.3039
-4.2643 lisez	-0.3039
-3.9632 lisible	-0.2977
-4.2643 lisibles	-0.2993
-4.2643 lit	-0.2998
-4.2643 live	-0.2977
-2.7328 livre	-0.2536
-3.9632 livres	-0.3049
-3.9632 liés	-0.2970
-4.2643 local	-0.2993
-3.9632 location	-0.2998
-4.2643 logement	-0.2996
-3.7871 logements	-0.3066
-4.2643 logicielle	-0.3070
-3.7871 logiciels	-0.2864
-3.9632 logique	-0.3025
-4.2643 logos	-0.2998
-3.4861 loin	-0.2729
-3.7871 long	-0.2892
-4.2643 longs	-0.3070
-4.2643 longtemps	-0.3070
-3.6622 longue	-0.2870
-3.6622 lorsqu	-0.2965
-3.1851 lorsque	-0.2689
-3.9632 louer	-0.3011
-3.5653 lourd	-0.2979
-4.2643 lourdement	-0.3064
-3.6622 lu	-0.2990
-3.0882 lui	-0.2912
-4.2643 lumineuse	-0.2996
-4.2643 lumière	-0.3040
-3.9632 lycée	-0.3008
-3.3612 là	-0.2760
-3.9632 légèrement	-0.3054
-4.2643 lésion	-0.3069
-2.2865 m	-0.2931
-2.1470 ma	-0.2966
-4.2643 macadam	-0.2998
-3.9632 magasin	-0.3056
-3.9632 magasins	-0.2996
-3.7871 magie	-0.2910
-4.2643 magique	-0.3025
-3.9632 magiques	-0.3010
-4.2643 magnifique	-0.3054
-4.2643 magnifiques	-0.3069
-3.6622 mai	-0.2996
-4.2643 main	-0.3022
-3.9632 mains	-0.2918
-4.2643 maintenance	-0.2993
-3.6622 maintenant	-0.3032
-4.2643 maintien	-0.2917
-2.4317 mais	-0.1881
-3.3100 maison	-0.2899
-4.2643 maisons	-0.3066
-3.5653 majorité	-0.2964
-3.4192 mal	-0.2939
-4.2643 malade	-0.2998
-3.9632 malades	-0.3066
-3.6622 maladie	-0.2917
-4.2643 malcom	-0.3070
-4.2643 maleki	-0.2998
-3.3612 malgré	-0.2896
-3.5653 malheureusement	-0.2793
-3.9632 malheureux	-0.2989
-3.9632 malheurs	-0.3030
-4.2643 manette	-0.2917
-4.2643 mange	-0.3020
-4.2643 manger	-0.3066
-4.2643 manipulations	-0.3068
-4.2643 manipule	-0.2993
-3.7871 manipuler	-0.2917
-4.2643 manipulées	-0.3025
-3.4861 manière	-0.2758
-4.2643 manquaient	-0.3065
-3.9632 manque	-0.3014
-4.2643 manuel	-0.2996
-4.2643 marche	-0.3053
-3.7871 marcher	-0.2961
-4.2643 marché	-0.2993
-4.2643 mardis	-0.2996
-3.7871 mariage	-0.3014
-3.6622 marie	-0.3062
-4.2643 mascotte	-0.2917
-4.2643 master	-0.3011
-4.2643 match	-0.2917
-4.2643 matchs	-0.3053
-4.2643 maternelle	-0.3042
-4.2643 maternels	-0.2996
-3.9632 mathématique	-0.2996
-4.2643 matin	-0.3028
-3.4861 matériel	-0.2924
-3.7871 maubeuge	-0.3033
-4.2643 mauvais	-0.3070
-3.9632 mauvaise	-0.3069
-4.2643 mauvaises	-0.3069
-3.9632 max	-0.2975
-3.9632 maximum	-0.2914
-3.9632 maîtres	-0.3069
-4.2643 maîtresses	-0.3070
-2.0629 me	-0.2698
-3.7871 meilleur	-0.3068
-3.6622 meilleure	-0.2990
-3.5653 membres	-0.2820
-4.2643 mener	-0.3010
-4.2643 mental	-0.3046
-3.9632 mentale	-0.3069
-4.2643 mentalité	-0.3062
-4.2643 mentaux	-0.3054
-4.2643 menu	-0.2917
-3.3612 merci	-0.2993
-2.3504 mes	-0.3015
-3.4192 message	-0.2954
-3.9632 mesure	-0.2901
-3.9632 mesures	-0.3069
-3.9632 met	-0.3047
-4.2643 mets	-0.3023
-4.2643 mettait	-0.2993
-3.3612 mettre	-0.2877
-4.2643 meuble	-0.3042
-4.2643 micro	-0.3069
-4.2643 midi	-0.3068
-3.9632 mien	-0.2904
-4.2643 mienne	-0.3042
-3.4861 miens	-0.2976
-3.2643 mieux	-0.2559
-4.2643 milieu	-0.3014
-4.2643 milles	-0.3068
-4.2643 milliards	-0.3020
-3.7871 millions	-0.2780
-4.2643 mince	-0.3063
-3.7871 minimum	-0.3066
-4.2643 ministres	-0.3067
-4.2643 ministère	-0.2996
-3.6622 minorité	-0.2957
-3.7871 minorités	-0.3016
-4.2643 minute	-0.3066
-3.7871 minutes	-0.3046
-4.2643 miracles	-0.3054
-3.9632 miroir	-0.2902
-3.3100 mis	-0.2843
-3.9632 mise	-0.3028
-4.2643 mixte	-0.2988
-3.9632 mixtes	-0.3053
-4.2643 mobilisé	-0.2996
-4.2643 mobilité	-0.3070
-3.9632 mode	-0.2917
-4.2643 modifier	-0.3069
-3.9632 modèle	-0.2991
-2.3298 moi	-0.1453
-3.1181 moins	-0.2674
-2.9855 mois	-0.2658
-3.4192 moment	-0.2834
-3.6622 moments	-0.3066
-1.9698 mon	-0.2898
-2.4934 monde	-0.2179
-4.2643 mondes	-0.3054
-3.9632 monsieur	-0.3047
-4.2643 monstres	-0.3054
-4.2643 montait	-0.3053
-3.9632 monter	-0.3025
-3.9632 montre	-0.3015
-4.2643 montrent	-0.3010
-3.1851 montrer	-0.2708
-3.9632 montré	-0.2990
-4.2643 montée	-0.2917
-4.2643 monétaire	-0.3069
-3.9632 moquent	-0.2860
-4.2643 moqueurs	-0.3011
-3.6622 moral	-0.2841
-3.9632 mort	-0.2893
-3.7871 mot	-0.3049
-3.5653 moteur	-0.2950
-3.6622 moteurs	-0.2988
-4.2643 motivait	-0.3062
-3.4861 motivation	-0.2914
-4.2643 motivations	-0.2996
-4.2643 motivés	-0.3010
-4.2643 motoneurone	-0.3070
-3.6622 motrice	-0.2928
-3.3100 mots	-0.2967
-4.2643 mourir	-0.3067
-4.2643 mourrai	-0.3028
-3.1181 mouvements	-0.2839
-3.4861 moyen	-0.2788
-4.2643 moyenne	-0.3066
-3.9632 moyens	-0.2996
-4.2643 moyenâgeuses	-0.2977
-4.2643 mucopolysaccharidoses	-0.3020
-3.9632 muet	-0.2995
-4.2643 multicontrol	-0.3068
-4.2643 multitude	-0.2917
-4.2643 municipale	-0.3047
-3.9632 murir	-0.2998
-3.9632 muscles	-0.3052
-3.6622 musculaire	-0.2936
-4.2643 musculaires	-0.3039
-3.7871 musique	-0.2870
-4.2643 musulmane	-0.3046
-4.2643 myopathie	-0.3042
-4.2643 mâture	-0.2996
-2.9632 mère	-0.2300
-3.9632 mères	-0.2996
-3.3100 médecin	-0.2858
-4.2643 médias	-0.3062
-3.9632 méfiance	-0.3011
-4.2643 mémoire	-0.3041
-4.2643 mémoriser	-0.3022
-3.9632 méningite	-0.2997
-4.2643 méprisent	-0.2988
-4.2643 mérite	-0.2917
-4.2643 métaboliques	-0.3067
-4.2643 métabolisme	-0.3014
-4.2643 métachromatique	-0.2998
-3.6622 méthode	-0.2996
-4.2643 méthodes	-0.2996
-2.6960 même	-0.2464
-3.4861 mêmes	-0.3038
-2.1743 n	-0.2763
-3.9632 nageurs	-0.3039
-3.4192 naissance	-0.2784
-4.2643 natale	-0.3050
-3.9632 nature	-0.3063
-3.9632 naturel	-0.2947
-4.2643 naturelle	-0.3034
-3.9632 naturellement	-0.2904
-4.2643 naturelles	-0.2996
-4.2643 nazisme	-0.2977
-4.2643 naître	-0.3067
-2.1503 ne	-0.2663
-3.9632 nettement	-0.3066
-4.2643 neurofibromatose	-0.3010
-4.2643 neurologique	-0.2988
-4.2643 neurologiques	-0.3070
-4.2643 neurones	-0.2993
-3.6622 neutre	-0.2979
-3.0338 ni	-0.2608
-4.2643 niqué	-0.3054
-3.2229 niveau	-0.2661
-3.7871 nom	-0.2739
-3.6622 nombre	-0.2866
-3.6622 nombreuses	-0.2976
-3.5653 nombreux	-0.3063
-4.2643 nomme	-0.3070
-3.1851 non	-0.2991
-4.2643 nordiques	-0.3066
-3.5653 normal	-0.2925
-3.3612 normale	-0.2707
-3.6622 normalement	-0.2826
-3.9632 normales	-0.2985
-3.6622 normalité	-0.3027
-4.2643 normalités	-0.3053
-3.7871 normes	-0.3010
-3.3612 nos	-0.3059
-4.2643 note	-0.3067
-3.7871 notes	-0.2928
-4.2643 notion	-0.2917
-2.9855 notre	-0.2956
-4.2643 nourrissent	-0.3050
-4.2643 nourrit	-0.3047
-4.2643 nourriture	-0.2998
-2.6515 nous	-0.2593
-3.4861 nouveau	-0.2886
-4.2643 nouveaux	-0.3068
-4.2643 nouvel	-0.3070
-3.5653 nouvelle	-0.3039
-3.2229 nouvelles	-0.3033
-4.2643 noyaux	-0.3070
-4.2643 noël	-0.3070
-3.9632 nucléaire	-0.3012
-4.2643 nuit	-0.2996
-4.2643 nuits	-0.2993
-4.2643 nul	-0.3025
-4.2643 nyhan	-0.3014
-3.6622 né	-0.2820
-4.2643 néant	-0.3014
-4.2643 nécessaire	-0.3022
-3.7871 nécessaires	-0.2981
-4.2643 nécessitent	-0.3012
-3.6622 négatif	-0.2963
-4.2643 négatifs	-0.3025
-3.6622 négatives	-0.2918
-4.2643 néonatal	-0.3070
-3.9632 néonatale	-0.2998
-4.2643 néonatals	-0.2917
-4.2643 nés	-0.3069
-4.2643 objectifs	-0.3020
-4.2643 objet	-0.3020
-4.2643 objets	-0.2993
-4.2643 obligation	-0.2917
-4.2643 obligations	-0.2992
-3.9632 obligé	-0.2917
-4.2643 obligée	-0.2917
-4.2643 observateur	-0.3068
-4.2643 observer	-0.3012
-3.9632 observés	-0.2966
-3.6622 obstacle	-0.2821
-3.6622 obstacles	-0.2967
-3.9632 obstétrical	-0.3009
-4.2643 obstétricaux	-0.2998
-3.7871 obtenir	-0.2923
-4.2643 obtention	-0.3014
-4.2643 occasion	-0.3020
-4.2643 occupaient	-0.3014
-4.2643 occupais	-0.3069
-4.2643 occupation	-0.3067
-3.9632 occupations	-0.3009
-3.5653 occuper	-0.2845
-4.2643 occupée	-0.2917
-4.2643 occupées	-0.2917
-3.9632 octobre	-0.3069
-4.2643 oculaires	-0.3064
-4.2643 offensé	-0.3051
-4.2643 offre	-0.3020
-4.2643 offrir	-0.2993
-2.2686 on	-0.2669
-3.7871 oncle	-0.3016
-2.5239 ont	-0.2609
-3.9632 onéreux	-0.2985
-3.5653 opinion	-0.2873
-4.2643 opinions	-0.3067
-4.2643 opérateur	-0.3070
-3.9632 or	-0.2965
-4.2643 ordinaire	-0.3022
-3.4192 ordinateur	-0.2794
-4.2643 ordinateurs	-0.3070
-4.2643 ordre	-0.3070
-3.6622 organisation	-0.2878
-3.7871 organiser	-0.2895
-3.7871 organisme	-0.3039
-3.6622 organismes	-0.2916
-3.7871 organisé	-0.2996
-4.2643 organisée	-0.2996
-3.9632 orientation	-0.2994
-4.2643 orienter	-0.3025
-3.9632 originalité	-0.3030
-4.2643 origine	-0.3020
-4.2643 origines	-0.3051
-3.6622 orthographe	-0.2807
-4.2643 orthophonie	-0.3064
-4.2643 orthopédique	-0.2998
-3.7871 osent	-0.2978
-4.2643 ostéotendineux	-0.3010
-2.5239 ou	-0.2222
-4.2643 oubliant	-0.2988
-3.9632 oublie	-0.3013
-3.6622 oublier	-0.2775
-4.2643 oublierai	-0.3065
-4.2643 oubliés	-0.3012
-3.9632 oui	-0.2946
-3.7871 outil	-0.3066
-3.7871 ouvert	-0.2993
-3.9632 ouvre	-0.2913
-4.2643 ouvrent	-0.2988
-3.7871 ouvrir	-0.2963
-3.6622 oxygène	-0.2902
-3.2229 où	-0.2716
-3.4861 p	-0.2997
-3.9632 page	-0.3055
-4.2643 palatins	-0.3034
-4.2643 palier	-0.2993
-4.2643 palsy	-0.3066
-3.9632 panne	-0.3043
-3.9632 papier	-0.2918
-4.2643 papiers	-0.3028
-2.3558 par	-0.2463
-4.2643 paradis	-0.3054
-3.9632 parallèle	-0.2952
-4.2643 paralysie	-0.3050
-4.2643 paralysé	-0.3034
-3.5653 paraplégie	-0.2995
-3.9632 paravent	-0.2937
-4.2643 paraît	-0.3054
-3.6622 parce	-0.2998
-3.1851 parcours	-0.2660
-4.2643 parcourue	-0.3051
-4.2643 pare	-0.3066
-3.9632 parent	-0.3045
-4.2643 parentaux	-0.3070
-2.9218 parents	-0.2545
-4.2643 parfait	-0.3028
-3.4861 parfaitement	-0.2830
-3.4192 parfois	-0.3010
-4.2643 paris	-0.3058
-4.2643 parité	-0.3069
-3.9632 parlait	-0.3051
-3.9632 parlant	-0.2964
-3.2229 parle	-0.2852
-3.9632 parlent	-0.3048
-3.3100 parler	-0.2719
-4.2643 parleur	-0.3054
-4.2643 parlé	-0.2917
-3.5653 parmi	-0.2963
-4.2643 parodique	-0.3066
-3.6622 parole	-0.2834
-3.2643 part	-0.2698
-4.2643 partageons	-0.3002
-3.3612 partager	-0.2934
-4.2643 partagé	-0.3023
-4.2643 parti	-0.2917
-4.2643 participants	-0.3010
-3.9632 participer	-0.3038
-3.9632 participé	-0.2920
-4.2643 particulière	-0.3068
-3.9632 particulièrement	-0.3068
-3.3100 partie	-0.2748
-4.2643 partiels	-0.3034
-4.2643 parties	-0.3070
-3.5653 partir	-0.2896
-4.2643 partis	-0.3020
-4.2643 partout	-0.2993
-4.2643 paru	-0.3028
-4.2643 parution	-0.2917
-4.2643 parvenu	-0.2993
-4.2643 parâtre	-0.3046
-1.9400 pas	-0.1125
-4.2643 passants	-0.3032
-3.7871 passe	-0.2989
-3.1851 passer	-0.2674
-4.2643 passif	-0.3042
-3.7871 passion	-0.2830
-3.1851 passé	-0.2482
-3.9632 passées	-0.3045
-4.2643 passés	-0.3069
-3.9632 patience	-0.2843
-4.2643 patient	-0.2998
-3.6622 patients	-0.2986
-4.2643 pause	-0.2996
-3.7871 payer	-0.3005
-3.4861 pays	-0.2860
-4.2643 paysage	-0.3070
-4.2643 payée	-0.3051
-4.2643 peau	-0.3056
-3.1851 pendant	-0.2700
-4.2643 pendent	-0.3065
-4.2643 pendre	-0.3002
-4.2643 pensant	-0.3065
-2.7328 pense	-0.2837
-3.5653 pensent	-0.2987
-3.5653 penser	-0.2896
-3.6622 pensé	-0.2898
-4.2643 pensée	-0.3050
-4.2643 pensées	-0.3011
-4.2643 perception	-0.2998
-4.2643 perdre	-0.3063
-4.2643 perdu	-0.3064
-4.2643 perfection	-0.3067
-4.2643 permanents	-0.2996
-3.4192 permet	-0.2866
-4.2643 permets	-0.2917
-3.9632 permettant	-0.2917
-4.2643 permettent	-0.3014
-3.9632 permettrait	-0.2866
-3.9632 permettre	-0.2917
-4.2643 permis	-0.2917
-3.9632 permission	-0.2992
-4.2643 persistance	-0.3014
-4.2643 perso	-0.3054
-4.2643 personnage	-0.3070
-4.2643 personnalisés	-0.2993
-3.3100 personnalité	-0.2592
-2.6208 personne	-0.2445
-3.5653 personnel	-0.2893
-3.6622 personnellement	-0.2918
-3.9632 personnelles	-0.2966
-2.3348 personnes	-0.1964
-4.2643 perturbation	-0.3050
-4.2643 perturber	-0.2998
-4.2643 pesant	-0.3011
-4.2643 peser	-0.3053
-3.5653 petit	-0.2915
-3.9632 petite	-0.3068
-3.6622 petites	-0.3067
-3.6622 petits	-0.2967
-3.2229 peu	-0.2903
-4.2643 peuple	-0.2996
-4.2643 peupleront	-0.3054
-4.2643 peuples	-0.3055
-3.3100 peur	-0.2708
-2.6732 peut	-0.2839
-2.8840 peuvent	-0.2914
-3.2229 peux	-0.3010
-4.2643 philippe	-0.3070
-3.9632 philosophie	-0.2991
-4.2643 phobie	-0.3066
-3.9632 photocopie	-0.3039
-4.2643 photocopier	-0.3002
-4.2643 photographie	-0.3028
-4.2643 photomontages	-0.2998
-3.9632 phrase	-0.2966
-4.2643 phrases	-0.3042
-3.4192 physique	-0.2893
-3.7871 physiques	-0.2921
-4.2643 pied	-0.3047
-3.5653 pieds	-0.2879
-3.9632 pions	-0.3002
-3.7871 pire	-0.2868
-3.7871 piscine	-0.2880
-4.2643 pitié	-0.3068
-4.2643 pitoyable	-0.3023
-4.2643 pièce	-0.2993
-3.2229 place	-0.2692
-4.2643 plage	-0.3069
-4.2643 plains	-0.3020
-4.2643 plaint	-0.2917
-3.2643 plaisir	-0.2752
-4.2643 planète	-0.3054
-4.2643 plaît	-0.3020
-4.2643 plein	-0.3062
-4.2643 pleine	-0.3069
-4.2643 pleurer	-0.2988
-4.2643 plonge	-0.3062
-4.2643 plongent	-0.3025
-4.2643 plongé	-0.3025
-3.6622 plupart	-0.2860
-2.2557 plus	-0.1842
-3.4861 plusieurs	-0.3062
-3.7871 plutôt	-0.3004
-3.9632 poids	-0.2918
-3.4192 point	-0.2884
-3.9632 pointe	-0.2860
-3.9632 points	-0.3028
-4.2643 pole	-0.3069
-4.2643 poliment	-0.2998
-4.2643 politiques	-0.3051
-4.2643 polyclinique	-0.3062
-4.2643 polyhandicapé	-0.3064
-3.7871 population	-0.3034
-4.2643 pornographique	-0.3039
-4.2643 portable	-0.3002
-4.2643 portables	-0.3042
-3.9632 portail	-0.2990
-3.3612 porte	-0.2833
-4.2643 portent	-0.3067
-3.9632 porter	-0.2993
-3.4861 portes	-0.2735
-4.2643 portée	-0.2993
-3.9632 pose	-0.2952
-4.2643 posent	-0.3062
-3.9632 positif	-0.3051
-3.7871 positive	-0.3014
-4.2643 positives	-0.2917
-4.2643 possibilités	-0.3070
-3.4861 possible	-0.2798
-3.9632 possède	-0.3063
-4.2643 possédant	-0.3010
-4.2643 post	-0.3070
-4.2643 potentiels	-0.3069
-1.7743 pour	-0.1616
-4.2643 pourcentage	-0.2917
-3.7871 pourquoi	-0.3009
-3.7871 pourra	-0.3053
-4.2643 pourrai	-0.3069
-3.9632 pourraient	-0.3066
-3.7871 pourrais	-0.3031
-3.4192 pourrait	-0.2988
-4.2643 pourront	-0.3055
-4.2643 pourtant	-0.2977
-3.9632 pousser	-0.3053
-3.9632 poussette	-0.2998
-3.9632 pouvaient	-0.3005
-3.5653 pouvais	-0.2991
-3.6622 pouvait	-0.2940
-4.2643 pouvant	-0.3069
-3.9632 pouvez	-0.3069
-3.4192 pouvoir	-0.2973
-4.2643 pouvons	-0.3020
-4.2643 pratiquant	-0.3046
-4.2643 pratique	-0.3002
-3.2643 premier	-0.2991
-2.9632 première	-0.2962
-3.7871 premièrement	-0.2974
-3.1851 prendre	-0.2748
-4.2643 prennent	-0.2996
-3.5653 prenons	-0.2843
-3.3612 presque	-0.2929
-3.9632 preuve	-0.3067
-3.7871 primaire	-0.2944
-4.2643 primaires	-0.3040
-3.9632 primordial	-0.2996
-3.9632 principe	-0.3047
-4.2643 principes	-0.3020
-3.2229 pris	-0.2743
-3.6622 prise	-0.2917
-4.2643 prive	-0.3069
-3.9632 privé	-0.2917
-4.2643 privée	-0.3025
-3.9632 privés	-0.2916
-3.5653 prix	-0.2983
-3.9632 probablement	-0.3023
-4.2643 probables	-0.3069
-2.9025 problème	-0.2584
-2.9025 problèmes	-0.2510
-4.2643 prochain	-0.3011
-4.2643 proche	-0.2917
-4.2643 proches	-0.3050
-4.2643 procure	-0.3010
-4.2643 produirai	-0.3062
-4.2643 produisant	-0.3066
-4.2643 produit	-0.3070
-3.9632 produits	-0.3056
-3.9632 prof	-0.3043
-4.2643 professeur	-0.2998
-3.7871 professeure	-0.2893
-3.9632 professeurs	-0.2996
-4.2643 professionnalisme	-0.3070
-4.2643 professionnel	-0.2977
-3.9632 professionnelle	-0.2986
-4.2643 professionnelles	-0.3034
-3.7871 professionnels	-0.3049
-4.2643 profit	-0.2917
-4.2643 profitent	-0.3066
-4.2643 profiter	-0.2917
-3.6622 profs	-0.3032
-4.2643 programmes	-0.3014
-4.2643 progressifs	-0.3057
-3.9632 progressive	-0.2962
-4.2643 progrès	-0.2993
-3.3612 projet	-0.2757
-3.9632 projets	-0.2954
-4.2643 promenades	-0.3065
-4.2643 promets	-0.3020
-3.6622 promène	-0.2879
-4.2643 prononce	-0.3011
-4.2643 prononcent	-0.2988
-3.9632 prononcer	-0.2956
-3.9632 prononcée	-0.2970
-4.2643 pronostic	-0.3070
-3.1181 propos	-0.2806
-4.2643 propose	-0.3010
-4.2643 proposer	-0.3065
-4.2643 propositions	-0.2917
-3.6622 proposé	-0.2822
-4.2643 proposés	-0.3066
-3.4861 propre	-0.3054
-3.9632 propres	-0.3068
-4.2643 prostitution	-0.3042
-4.2643 protège	-0.3051
-4.2643 protéger	-0.3056
-3.9632 prouver	-0.2943
-4.2643 prouverai	-0.3002
-4.2643 provoquait	-0.3012
-3.9632 provoque	-0.3014
-4.2643 provoquent	-0.3010
-4.2643 proximales	-0.3014
-3.7871 près	-0.2832
-4.2643 préciser	-0.2917
-4.2643 précision	-0.3025
-4.2643 préfère	-0.3069
-3.9632 préjugés	-0.3011
-4.2643 prématurée	-0.2992
-4.2643 prématurés	-0.3057
-4.2643 prénatal	-0.3057
-4.2643 prénatals	-0.3012
-3.9632 préparation	-0.2841
-3.7871 préparer	-0.2870
-3.1851 présent	-0.2549
-3.6622 présentant	-0.2952
-3.5653 présente	-0.2838
-3.7871 présentent	-0.3028
-3.5653 présenter	-0.2849
-3.9632 président	-0.2917
-3.9632 prêt	-0.2990
-4.2643 prêtées	-0.3051
-4.2643 ps	-0.2977
-3.9632 psychologiques	-0.3051
-3.3612 pu	-0.3010
-3.9632 publication	-0.2917
-3.7871 publics	-0.2827
-3.7871 publique	-0.3041
-4.2643 publiques	-0.2993
-2.8840 puis	-0.2475
-4.2643 puisqu	-0.3047
-3.4192 puisse	-0.2947
-3.7871 puissent	-0.3066
-4.2643 punitive	-0.3046
-3.9632 punks	-0.2964
-4.2643 pur	-0.3069
-4.2643 putain	-0.3042
-4.2643 pute	-0.3068
-3.9632 pyramide	-0.3012
-2.8019 père	-0.2503
-4.2643 pénible	-0.2917
-3.6622 périnatale	-0.2968
-3.9632 période	-0.2987
-4.2643 pôle	-0.3069
-2.3005 qu	-0.2625
-4.2643 qualités	-0.2917
-2.7729 quand	-0.2571
-4.2643 quant	-0.2993
-4.2643 quatre	-0.3069
-4.2643 quatrièmement	-0.3067
-1.9441 que	-0.1821
-3.5653 quel	-0.2995
-3.3100 quelle	-0.2994
-3.9632 quelles	-0.3053
-4.2643 quelqu	-0.3012
-3.4861 quelque	-0.3064
-2.9632 quelques	-0.2966
-3.6622 question	-0.2862
-3.7871 questions	-0.3053
-2.1604 qui	-0.2462
-4.2643 quitter	-0.2992
-3.6622 quoi	-0.2946
-4.2643 quotas	-0.3020
-3.5653 quotidien	-0.2914
-4.2643 quotidienne	-0.3042
-4.2643 quotidiennes	-0.2992
-4.2643 r	-0.3055
-4.2643 racial	-0.3028
-4.2643 racines	-0.3020
-4.2643 racontaient	-0.3067
-4.2643 racontant	-0.3065
-3.7871 raconte	-0.3030
-4.2643 racontent	-0.3067
-3.9632 raconter	-0.2988
-4.2643 radio	-0.3025
-3.4192 raison	-0.2789
-3.3612 raisons	-0.2915
-4.2643 ralentissement	-0.3050
-4.2643 ralentit	-0.3069
-3.9632 rancœur	-0.3066
-3.5653 rapidement	-0.2957
-4.2643 rapides	-0.2998
-3.7871 rapport	-0.2993
-4.2643 rapprocher	-0.2917
-3.9632 rare	-0.2971
-3.9632 rarement	-0.3053
-4.2643 rassure	-0.3025
-4.2643 recevoir	-0.3014
-4.2643 recherchai	-0.3012
-4.2643 recherche	-0.3066
-4.2643 recherches	-0.2917
-4.2643 recherchées	-0.3066
-4.2643 reconnus	-0.3051
-4.2643 redonné	-0.3022
-4.2643 referme	-0.3070
-4.2643 refusait	-0.3060
-3.9632 refusé	-0.2898
-2.9025 regard	-0.2541
-3.7871 regardant	-0.2888
-4.2643 regarde	-0.3012
-3.6622 regardent	-0.2997
-3.7871 regarder	-0.2956
-4.2643 regardez	-0.3058
-3.9632 regards	-0.3019
-4.2643 regrouper	-0.3067
-3.7871 relation	-0.3015
-4.2643 relationnel	-0.3046
-4.2643 relativement	-0.3070
-4.2643 relevant	-0.2917
-4.2643 religieuses	-0.3069
-4.2643 religion	-0.3069
-3.9632 remarque	-0.3064
-3.4192 remarques	-0.3015
-3.6622 remarqué	-0.3020
-4.2643 remboursé	-0.3020
-3.3612 remercie	-0.2738
-4.2643 remercier	-0.3039
-4.2643 remets	-0.3061
-4.2643 remis	-0.3028
-4.2643 remonté	-0.3051
-4.2643 remotiver	-0.3039
-4.2643 rempli	-0.3012
-3.9632 remplir	-0.2929
-4.2643 remuer	-0.3050
-4.2643 remédier	-0.2977
-4.2643 rencontre	-0.3069
-3.7871 rencontrer	-0.2897
-3.7871 rencontres	-0.2993
-3.9632 rencontrez	-0.3000
-3.4192 rencontré	-0.2828
-3.6622 rencontrées	-0.2953
-3.7871 rencontrés	-0.3032
-4.2643 rend	-0.2992
-4.2643 rendais	-0.3020
-3.9632 rendent	-0.3068
-4.2643 rendez	-0.3058
-3.5653 rendre	-0.3050
-4.2643 rends	-0.2993
-3.9632 rendu	-0.3027
-4.2643 renie	-0.3020
-4.2643 renouveler	-0.3065
-4.2643 rentabilité	-0.3069
-3.9632 rentrer	-0.3022
-4.2643 repas	-0.2998
-3.9632 reportage	-0.2998
-4.2643 repose	-0.3053
-4.2643 repoussent	-0.3060
-4.2643 reprenant	-0.3002
-4.2643 reprend	-0.2988
-4.2643 représentait	-0.3012
-4.2643 représentant	-0.3068
-3.9632 représentation	-0.2860
-4.2643 représente	-0.3010
-3.9632 représentent	-0.3012
-4.2643 représenter	-0.3063
-4.2643 représenté	-0.2993
-4.2643 représentée	-0.2977
-4.2643 reptatoires	-0.3069
-3.9632 respect	-0.2917
-4.2643 respectent	-0.3056
-4.2643 respecter	-0.3014
-4.2643 respiration	-0.3046
-3.7871 responsable	-0.2994
-4.2643 responsables	-0.2917
-4.2643 ressemblait	-0.2993
-3.9632 ressemble	-0.2970
-3.9632 ressemblent	-0.2991
-3.6622 ressens	-0.2871
-3.7871 ressenti	-0.2834
-3.9632 ressentir	-0.2893
-3.9632 ressource	-0.2996
-3.9632 ressources	-0.2966
-4.2643 restai	-0.3010
-4.2643 restais	-0.3012
-3.3100 reste	-0.2994
-4.2643 restent	-0.3069
-3.7871 rester	-0.3068
-3.9632 restera	-0.3059
-4.2643 restes	-0.3066
-4.2643 resté	-0.3070
-4.2643 retard	-0.2988
-4.2643 retouches	-0.3020
-3.6622 retour	-0.2893
-4.2643 retournent	-0.3053
-4.2643 revenait	-0.3066
-4.2643 revivre	-0.3023
-4.2643 revoir	-0.3023
-3.7871 reçu	-0.2797
-4.2643 riches	-0.3055
-3.6622 richesse	-0.2789
-3.2229 rien	-0.2742
-3.9632 rime	-0.3044
-3.6622 rire	-0.2802
-4.2643 risible	-0.2917
-4.2643 risque	-0.3056
-4.2643 robe	-0.2993
-4.2643 rond	-0.3039
-3.9632 ronde	-0.3001
-4.2643 rougir	-0.3069
-4.2643 roulant	-0.3034
-4.2643 roulement	-0.3034
-4.2643 roulette	-0.3070
-4.2643 route	-0.2977
-3.5653 rue	-0.2786
-4.2643 rupture	-0.3067
-4.2643 russe	-0.3051
-4.2643 règle	-0.2917
-4.2643 ré	-0.3069
-3.6622 réaction	-0.2915
-4.2643 réactions	-0.3014
-4.2643 réadaptation	-0.3069
-4.2643 réagissent	-0.3034
-4.2643 réalisation	-0.3014
-3.2643 réaliser	-0.2753
-4.2643 réalisons	-0.3014
-4.2643 réaliste	-0.2996
-3.9632 réalisé	-0.2962
-3.7871 réalité	-0.2913
-3.9632 réanimer	-0.2998
-3.4192 récemment	-0.2889
-4.2643 récréations	-0.3067
-4.2643 rédaction	-0.2917
-4.2643 rédige	-0.3063
-4.2643 rédiger	-0.3042
-4.2643 réduit	-0.2992
-4.2643 réduite	-0.3069
-4.2643 réelle	-0.3040
-3.7871 réflexes	-0.3067
-3.9632 réflexions	-0.3005
-4.2643 réfléchies	-0.3069
-3.9632 réfléchir	-0.2993
-4.2643 région	-0.3039
-4.2643 régulièrement	-0.3048
-4.2643 réparateur	-0.3068
-4.2643 réparé	-0.3042
-4.2643 répertoire	-0.3063
-4.2643 répond	-0.3020
-4.2643 répondant	-0.3068
-3.9632 répondre	-0.2970
-3.7871 répondu	-0.2965
-4.2643 réponse	-0.2993
-4.2643 réputation	-0.3014
-4.2643 répéter	-0.2988
-4.2643 répétés	-0.3051
-4.2643 réseaux	0.0000
-4.2643 réserver	-0.2993
-4.2643 réservée	-0.2996
-4.2643 résiste	-0.3056
-4.2643 résoudre	-0.3067
-4.2643 résultant	-0.3014
-4.2643 résultat	-0.3011
-4.2643 résultats	-0.3050
-4.2643 résultent	-0.3064
-4.2643 résume	-0.2993
-3.7871 résumé	-0.2849
-3.5653 réunion	-0.2949
-3.5653 réussi	-0.2907
-4.2643 réussir	-0.3068
-3.4861 réussite	-0.2772
-3.7871 réveiller	-0.2981
-3.9632 réviser	-0.3043
-4.2643 révolté	-0.3051
-4.2643 révolutionner	-0.3002
-4.2643 révéler	-0.3010
-3.9632 rééducation	-0.2996
-3.7871 rêve	-0.2923
-4.2643 rêver	-0.3020
-3.9632 rêves	-0.2977
-4.2643 rêveur	-0.3067
-3.9632 rôle	-0.3063
-2.7328 s	-0.2855
-3.1181 sa	-0.3038
-4.2643 sachant	-0.3048
-4.2643 sachs	-0.2992
-4.2643 sages	-0.3062
-3.1851 sais	-0.2837
-3.5653 saisie	-0.2981
-3.9632 saisir	-0.2954
-3.9632 sait	-0.3017
-4.2643 salis	-0.3051
-4.2643 salive	-0.3062
-4.2643 salle	-0.2917
-3.9632 samedi	-0.2976
-2.9420 sans	-0.2967
-4.2643 santé	-0.3051
-4.2643 saoulé	-0.3034
-4.2643 satisfaire	-0.2998
-4.2643 satisfait	-0.2917
-4.2643 savais	-0.3049
-4.2643 savait	-0.3020
-4.2643 savent	-0.3020
-3.4861 savoir	-0.2950
-4.2643 sciences	-0.3028
-4.2643 scientifique	-0.3034
-4.2643 scientifiques	-0.2993
-4.2643 sclérose	-0.3070
-3.2643 scolaire	-0.2722
-3.9632 scolaires	-0.2946
-3.9632 scolarisation	-0.3014
-3.3612 scolarité	-0.2914
-3.9632 sdf	-0.2982
-2.4649 se	-0.2999
-4.2643 secondaire	-0.2988
-4.2643 secondaires	-0.2993
-4.2643 seconde	-0.3046
-3.9632 sein	-0.2964
-3.1503 selon	-0.3017
-3.5653 semaine	-0.2901
-3.7871 semaines	-0.2997
-4.2643 semblables	-0.3042
-3.9632 semble	-0.3064
-4.2643 semblé	-0.3070
-3.1503 sens	-0.2616
-3.7871 sensation	-0.2883
-4.2643 sensations	-0.3054
-3.7871 sensibilisation	-0.3002
-3.4192 sensibiliser	-0.2862
-3.9632 sensible	-0.2990
-4.2643 sensuel	-0.3034
-3.7871 sent	-0.2998
-4.2643 sentais	-0.3065
-4.2643 sentait	-0.3020
-3.9632 sentent	-0.3069
-3.9632 sentiment	-0.3049
-3.9632 sentiments	-0.3038
-3.4192 sentir	-0.3051
-4.2643 sentirais	-0.3020
-3.5653 septembre	-0.2921
-3.5653 sera	-0.2957
-3.9632 serais	-0.3065
-3.0090 serait	-0.2620
-4.2643 serez	-0.3061
-4.2643 sert	-0.2993
-4.2643 servant	-0.2996
-3.9632 service	-0.3063
-3.1503 ses	-0.3054
-3.2229 seul	-0.2748
-3.5653 seule	-0.2854
-3.1181 seulement	-0.2675
-4.2643 seules	-0.3069
-3.7871 sexe	-0.2929
-3.7871 sexualité	-0.2913
-4.2643 sexuel	-0.3028
-4.2643 sexuelle	-0.3002
-2.6015 si	-0.2528
-4.2643 signalétiques	-0.3069
-4.2643 signer	-0.3002
-3.9632 signes	-0.2866
-3.9632 signifie	-0.2970
-4.2643 signifierait	-0.3020
-3.4861 simple	-0.2854
-2.9632 simplement	-0.2391
-4.2643 simples	-0.2993
-4.2643 simplifier	-0.2988
-4.2643 sims	-0.3068
-4.2643 simulez	-0.3012
-3.6622 sincèrement	-0.3020
-3.4861 sinon	-0.2888
-3.6622 site	-0.2990
-3.7871 sites	-0.2997
-3.4192 situation	-0.2629
-4.2643 situations	-0.3020
-3.9632 situe	-0.2948
-3.9632 sms	-0.2904
-3.9632 snc	-0.3042
-4.2643 social	-0.3039
-3.3100 sociale	-0.2669
-3.9632 sociaux	-0.2935
-3.0601 société	-0.2709
-4.2643 sociétés	-0.3070
-3.7871 soi	-0.2988
-3.9632 soient	-0.2987
-3.7871 soins	-0.3068
-4.2643 soir	-0.3061
-3.9632 sois	-0.2995
-3.1503 soit	-0.2800
-4.2643 soixante	-0.3067
-4.2643 solitude	-0.3015
-3.4192 solution	-0.2896
-4.2643 solutions	-0.3061
-4.2643 sombre	-0.3062
-3.7871 somme	-0.3001
-3.9632 sommeil	-0.2988
-3.6622 sommes	-0.3015
-2.8171 son	-0.3002
-3.9632 sons	-0.3039
-2.4192 sont	-0.2747
-4.2643 sortants	-0.3053
-4.2643 sortent	-0.2917
-4.2643 sortie	-0.2917
-3.6622 sorties	-0.2981
-3.4861 sortir	-0.2832
-4.2643 soucis	-0.3062
-4.2643 souffre	-0.3020
-3.5653 souhait	-0.2838
-3.7871 souhaitais	-0.2980
-3.4861 souhaite	-0.2909
-4.2643 souhaitent	-0.3070
-4.2643 souhaiterais	-0.3069
-4.2643 souhaites	-0.3060
-4.2643 souhaitons	-0.3067
-4.2643 souhaits	-0.3020
-3.9632 souplesse	-0.2871
-4.2643 sourd	-0.3070
-4.2643 souris	-0.2998
-3.9632 sous	-0.3068
-3.7871 soutien	-0.2978
-2.8329 souvent	-0.2266
-3.6622 spasticité	-0.2915
-3.3612 spastique	-0.2898
-4.2643 spastiques	-0.3070
-4.2643 spectateur	-0.2977
-4.2643 spectateurs	-0.3066
-4.2643 spinale	-0.3069
-4.2643 spinocérébelleuses	-0.2998
-4.2643 sport	-0.3066
-4.2643 sportifs	-0.3067
-4.2643 spécialement	-0.3070
-4.2643 spécialiste	-0.2993
-4.2643 spécialistes	-0.3025
-3.5653 spécialisé	-0.2728
-3.7871 spécialisée	-0.2933
-4.2643 spécialisées	-0.3061
-4.2643 spécialisés	-0.3060
-3.6622 spécifique	-0.2773
-3.9632 spécifiques	-0.2989
-4.2643 stage	-0.3028
-4.2643 strabisme	-0.3057
-3.6622 stress	-0.2942
-4.2643 stresser	-0.2977
-3.6622 structure	-0.3041
-4.2643 style	-0.3070
-4.2643 stylo	-0.3066
-4.2643 stürge	-0.3070
-3.7871 su	-0.3047
-4.2643 subi	-0.3014
-4.2643 subit	-0.3051
-4.2643 suffisamment	-0.3069
-4.2643 suffit	-0.2917
-4.2643 suicident	-0.3051
-2.4719 suis	-0.2710
-4.2643 suisse	-0.3046
-3.2229 suite	-0.2657
-3.7871 suivant	-0.3028
-3.5653 suivante	-0.3023
-3.6622 suivantes	-0.2941
-3.7871 suivants	-0.2889
-3.7871 suivre	-0.2925
-3.2643 sujet	-0.2736
-4.2643 sujets	-0.3064
-4.2643 supplier	-0.2988
-4.2643 supplémentaire	-0.2996
-4.2643 supporter	-0.3060
-4.2643 supposer	-0.3020
-4.2643 supérieur	-0.2998
-2.4192 sur	-0.2386
-4.2643 surdité	-0.2917
-4.2643 surement	-0.3023
-3.7871 surpris	-0.3032
-4.2643 surprise	-0.2917
-3.5653 surtout	-0.2838
-3.6622 surveillance	-0.2942
-3.9632 surveillant	-0.2995
-3.9632 survie	-0.2967
-4.2643 surviennent	-0.3025
-3.9632 suscite	-0.3068
-4.2643 sustentation	-0.2998
-3.9632 symboles	-0.3028
-3.9632 sympathisé	-0.2992
-4.2643 symétrique	-0.3002
-3.4861 syndrome	-0.2855
-3.4861 syndromes	-0.3068
-4.2643 synonyme	-0.3020
-3.5653 syrie	-0.2823
-3.5653 système	-0.2808
-4.2643 systémique	-0.3069
-3.9632 séance	-0.3046
-4.2643 sécurité	-0.3064
-4.2643 ségolène	-0.2998
-3.9632 séjour	-0.3052
-4.2643 sévère	-0.3050
-4.2643 sûr	-0.2977
-4.2643 sûre	-0.3020
-3.3612 sœur	-0.2711
-3.4861 t	-0.2991
-4.2643 t9	-0.3014
-3.6622 ta	-0.3046
-3.3612 tabou	-0.2898
-4.2643 talent	-0.2992
-4.2643 tant	-0.3066
-3.5653 tard	-0.2848
-4.2643 tas	-0.3042
-4.2643 taux	-0.2917
-4.2643 tay	-0.3070
-4.2643 tdm	-0.3057
-3.6622 te	-0.3067
-3.9632 technique	-0.2946
-4.2643 technologie	-0.3034
-3.9632 tel	-0.2998
-3.7871 tellement	-0.3019
-4.2643 tels	-0.3020
-2.7729 temps	-0.2291
-3.9632 tendance	-0.2985
-4.2643 tendent	-0.3051
-3.9632 tenir	-0.3011
-4.2643 tension	-0.3070
-3.9632 terme	-0.2917
-3.9632 terminal	-0.3034
-4.2643 terminale	-0.3062
-4.2643 terminales	-0.2998
-4.2643 termine	-0.3002
-3.9632 terminerai	-0.3020
-4.2643 terminé	-0.3039
-4.2643 terni	-0.2992
-4.2643 terrain	-0.3069
-3.7871 terre	-0.2982
-4.2643 terroristes	-0.3070
-3.6622 tests	-0.2964
-3.9632 texte	-0.3041
-3.7871 textes	-0.3008
-3.9632 thème	-0.3050
-4.2643 théorie	-0.2998
-3.9632 tiens	-0.2993
-4.2643 tient	-0.3070
-3.9632 tirer	-0.3068
-4.2643 todu	-0.3025
-3.9632 toi	-0.2904
-4.2643 toilette	-0.3022
-3.6622 toilettes	-0.2912
-3.6622 tomber	-0.2959
-4.2643 tombé	-0.3028
-2.9632 ton	-0.2963
-4.2643 tonus	-0.3069
-4.2643 tort	-0.2992
-4.2643 tortue	-0.3069
-3.6622 totalement	-0.2942
-4.2643 totalité	-0.3062
-4.2643 touchant	-0.3064
-3.7871 touche	-0.2897
-4.2643 touchée	-0.3034
-2.6308 toujours	-0.2303
-3.7871 tour	-0.2868
-3.9632 tourne	-0.3069
-4.2643 tourner	-0.3002
-4.2643 tourné	-0.3066
-2.5567 tous	-0.2516
-2.2643 tout	-0.2040
-3.4861 toute	-0.2883
-3.1503 toutes	-0.2959
-3.7871 train	-0.2917
-4.2643 transformer	-0.2988
-4.2643 transport	-0.2998
-4.2643 transposable	-0.2996
-3.7871 traumatisme	-0.3069
-4.2643 traumatismes	-0.3070
-3.2643 travail	-0.2741
-4.2643 travaillai	-0.3034
-4.2643 travaillant	-0.3020
-3.7871 travaille	-0.2988
-3.9632 travaillent	-0.3034
-3.9632 travailler	-0.3011
-4.2643 travaillé	-0.3068
-3.3100 travaux	-0.2889
-3.2229 travers	-0.2808
-4.2643 traînent	-0.2988
-4.2643 tremblement	-0.3070
-4.2643 trente	-0.3069
-4.2643 triste	-0.2993
-3.6622 tristesse	-0.2890
-3.1851 trois	-0.3025
-4.2643 troisièmement	-0.3067
-3.9632 trompe	-0.3020
-4.2643 tronc	-0.3070
-3.0882 trop	-0.2858
-3.4861 troubles	-0.3012
-4.2643 trouva	-0.3062
-4.2643 trouvai	-0.2992
-4.2643 trouvais	-0.3069
-3.9632 trouvant	-0.3046
-3.0338 trouve	-0.2558
-3.6622 trouvent	-0.2887
-3.1503 trouver	-0.2532
-4.2643 trouverai	-0.3022
-4.2643 trouverez	-0.3053
-3.6622 trouvé	-0.2966
-2.6015 très	-0.2987
-3.7871 tt	-0.3014
-2.6515 tu	-0.2780
-4.2643 tubéreuse	-0.3010
-4.2643 tunisie	-0.3028
-4.2643 tv	-0.3069
-3.9632 type	-0.2866
-3.9632 types	-0.2917
-4.2643 télangiectasie	-0.3010
-4.2643 télécommande	-0.3047
-4.2643 téléphonait	-0.3046
-3.6622 téléphone	-0.3033
-4.2643 téléphoner	-0.3049
-4.2643 téléphones	-0.3070
-4.2643 téléphonique	-0.3069
-3.7871 téléthon	-0.2820
-3.3612 télévision	-0.2733
-4.2643 témoignage	-0.2998
-3.5653 tétraplégie	-0.3034
-3.7871 tétraplégique	-0.3067
-3.4192 tête	-0.2916
-4.2643 tôt	-0.2996
-1.8804 un	-0.2548
-1.8663 une	-0.2739
-4.2643 union	-0.3046
-3.5653 uniquement	-0.2760
-4.2643 united	-0.3070
-4.2643 unité	-0.3070
-3.7871 univers	-0.3039
-4.2643 universitaire	-0.2917
-3.9632 usagés	-0.3022
-3.9632 utile	-0.2950
-3.7871 utiles	-0.2970
-4.2643 utilisais	-0.3028
-3.7871 utilisateur	-0.2911
-4.2643 utilisateurs	-0.3067
-4.2643 utilisation	-0.2988
-3.7871 utilise	-0.2956
-3.9632 utiliser	-0.3050
-4.2643 utilisée	-0.3051
-4.2643 utilisés	-0.2996
-4.2643 utopie	-0.3025
-3.9632 v	-0.3046
-3.6622 va	-0.3030
-4.2643 vagues	-0.3054
-3.2229 vais	-0.2953
-4.2643 valeur	-0.3069
-3.3100 valide	-0.2524
-3.4861 valides	-0.2798
-4.2643 variable	-0.2917
-4.2643 vas	-0.3069
-4.2643 vella	-0.3047
-3.6622 venait	-0.3012
-4.2643 vendant	-0.3014
-3.7871 vende	-0.2970
-3.5653 venir	-0.2974
-4.2643 ventre	-0.2917
-4.2643 venu	-0.3066
-4.2643 venue	-0.3066
-3.9632 verbale	-0.3052
-3.0090 vers	-0.2640
-4.2643 vert	-0.3034
-4.2643 vertical	-0.2988
-4.2643 vertébrale	-0.2998
-3.5653 veulent	-0.2910
-3.3612 veut	-0.2869
-3.6622 veux	-0.3054
-4.2643 viable	-0.3028
-4.2643 victimes	-0.2917
-3.9632 vide	-0.3018
-3.7871 vidéo	-0.3052
-2.3504 vie	-0.1606
-4.2643 vieil	-0.3069
-4.2643 viendra	-0.2917
-3.9632 viennent	-0.3066
-4.2643 viens	-0.2977
-3.9632 vient	-0.3063
-3.7871 village	-0.2956
-3.9632 virage	-0.3025
-4.2643 virtuel	-0.3067
-3.9632 virtuelle	-0.3047
-4.2643 virtuels	-0.3069
-3.3612 vis	-0.2808
-4.2643 visage	-0.3065
-3.5653 vision	-0.2761
-4.2643 visitai	-0.3014
-4.2643 visite	-0.3069
-4.2643 visité	-0.3014
-4.2643 visuels	-0.2988
-3.9632 vit	-0.2989
-3.6622 vite	-0.3067
-4.2643 vitesse	-0.2917
-3.9632 vivait	-0.3025
-4.2643 vivant	-0.3066
-3.7871 vivent	-0.2950
-3.1181 vivre	-0.2739
-4.2643 voici	-0.2988
-3.7871 voie	-0.2805
-3.7871 voient	-0.2888
-4.2643 voies	-0.3010
-3.3100 voir	-0.2695
-3.3612 voire	-0.2733
-3.4192 vois	-0.2730
-4.2643 voit	-0.3066
-4.2643 voiture	-0.3014
-4.2643 voitures	-0.3056
-4.2643 voiturette	-0.3069
-3.9632 volontaires	-0.3020
-3.4861 volonté	-0.2693
-4.2643 volontés	-0.3039
-4.2643 volume	-0.3069
-4.2643 von	-0.3070
-3.9632 vont	-0.3060
-3.6622 vos	-0.3066
-3.5653 votre	-0.3047
-3.4192 voulaient	-0.2961
-3.4192 voulais	-0.2899
-3.4861 voulait	-0.2959
-3.5653 voulu	-0.2948
-4.2643 voulue	-0.3051
-2.5741 vous	-0.2301
-3.9632 voyais	-0.3038
-3.9632 voyait	-0.2988
-4.2643 voyez	-0.3023
-3.9632 vrai	-0.3018
-3.9632 vraie	-0.3068
-2.9420 vraiment	-0.2363
-4.2643 vrais	-0.3012
-3.4192 vu	-0.2891
-3.9632 vue	-0.2900
-3.7871 vécu	-0.3015
-3.9632 vérifier	-0.3059
-3.9632 véritable	-0.3067
-3.9632 vérité	-0.3046
-4.2643 vôtre	-0.3050
-4.2643 wc	-0.3067
-3.7871 web	-0.3031
-4.2643 weber	-0.3022
-4.2643 x	-0.3047
-2.7328 y	-0.2981
-4.2643 yeux	-0.3028
-4.2643 yohan	-0.3070
-1.7577 à	-0.1865
-3.4861 âge	-0.2903
-3.7871 âgées	-0.2991
-3.3100 ça	-0.3005
-4.2643 écart	-0.3067
-4.2643 échanger	-0.3034
-4.2643 échanges	-0.3034
-4.2643 échec	-0.3069
-4.2643 échéance	-0.3066
-3.1851 école	-0.2621
-3.7871 écoles	-0.2996
-4.2643 économie	-0.3046
-4.2643 écoutai	-0.3011
-3.9632 écoute	-0.3048
-3.9632 écouter	-0.2843
-4.2643 écran	-0.3020
-4.2643 écraser	-0.2988
-4.2643 écrirais	-0.3020
-3.1503 écrire	-0.2825
-4.2643 écris	-0.2988
-3.9632 écrit	-0.2953
-4.2643 écrite	-0.3015
-3.9632 écrits	-0.2998
-3.9632 écriture	-0.2874
-3.9632 écrivant	-0.3029
-4.2643 écrive	-0.3051
-4.2643 égal	-0.3056
-4.2643 égale	-0.3051
-3.1503 également	-0.2673
-4.2643 égales	-0.3025
-4.2643 égalité	-0.3025
-4.2643 égaux	-0.3048
-4.2643 élargissement	-0.2917
-3.6622 électrique	-0.2776
-3.9632 élevé	-0.2841
-4.2643 élevées	-0.3067
-4.2643 éliminées	-0.3051
-4.2643 élite	-0.3058
-4.2643 élocution	-0.2988
-3.6622 élève	-0.3050
-3.4861 élèves	-0.2845
-4.2643 émission	-0.3042
-3.9632 émissions	-0.3025
-4.2643 émotion	-0.3058
-4.2643 émotionnelle	-0.2998
-3.7871 émotions	-0.2938
-4.2643 énervait	-0.3054
-4.2643 énerver	-0.3051
-3.7871 énorme	-0.2994
-3.2643 énormément	-0.2667
-3.9632 épanouis	-0.2950
-4.2643 épileptiques	-0.3053
-3.5653 époque	-0.2976
-3.6622 équilibre	-0.2794
-4.2643 équipe	-0.2917
-4.2643 équipé	-0.3069
-4.2643 équivalent	-0.3028
-4.2643 établir	-0.3012
-3.9632 établissement	-0.3068
-4.2643 établissements	-0.2917
-3.2643 étaient	-0.2929
-2.8840 étais	-0.2868
-2.4009 était	-0.1742
-3.7871 étant	-0.3003
-4.2643 étape	-0.2917
-4.2643 état	-0.2988
-4.2643 étau	-0.3070
-4.2643 étendu	-0.3066
-4.2643 étiologie	-0.3039
-4.2643 étouffer	-0.2998
-4.2643 étrangère	-0.3039
-4.2643 étroite	-0.3066
-3.7871 étroits	-0.2985
-4.2643 étude	-0.3070
-3.3612 études	-0.2805
-4.2643 étudie	-0.2988
-4.2643 étudier	-0.3023
-3.1851 été	-0.2974
-4.2643 évaluer	-0.3050
-4.2643 évanouit	-0.3069
-4.2643 éventuelle	-0.3070
-3.9632 éventuellement	-0.2868
-4.2643 éventuelles	-0.3069
-4.2643 éventuels	-0.3064
-2.9218 évidemment	-0.2498
-4.2643 évident	-0.3051
-4.2643 éviter	-0.2993
-4.2643 évitez	-0.2988
-4.2643 évolutifs	-0.3040
-4.2643 évolutives	-0.3068
-4.2643 événements	-0.3050
-4.2643 êtes	-0.2988
-2.4317 être	-0.2409
-3.9632 êtres	-0.3039

\2-grams:
-0.5962 0 1 -0.0109
-0.5962 0 2 -0.0687
-0.2952 000 euros -0.0267
-0.7723 1 an -0.0324
-0.7723 1 des -0.0903
-0.7723 1 à -0.0906
-0.5962 10 des -0.0884
-0.5962 10 mai -0.0324
-0.2952 100 euros -0.0493
-0.5962 11 2015 -0.0449
-0.5962 11 ans -0.0687
-0.2952 13 11 0.0356
-0.2952 130 000 0.2157
-0.2952 14 ans -0.0687
-0.2952 15 des -0.0884
-0.2952 16 ans -0.0801
-0.2952 1992 en -0.0849
-0.9941 2 ans -0.0687
-1.2952 2 des -0.0865
-1.2952 2 gros 0.0356
-1.2952 2 minutes -0.0109
-0.9941 2 personnes -0.0808
-1.2952 2 suivantes -0.0324
-1.2952 2 suivants -0.0109
-1.2952 2 terminales 0.2157
-0.7723 20 000 0.2157
-0.7723 20 ans -0.0801
-0.7723 20 des -0.0894
-0.2952 2004 et -0.0876
-0.5962 2011 j 0.0878
-0.5962 2011 je -0.0907
-0.5962 2013 j 0.0878
-0.5962 2013 mon -0.0624
-0.2952 2014 puis -0.0725
-0.9941 2015 cependant -0.0843
-0.9941 2015 depuis -0.0789
-0.9941 2015 est -0.0903
-0.6931 2015 je -0.0673
-0.5962 2016 j 0.0878
-0.5962 2016 ça -0.0661
-0.2952 22 h 0.2157
-0.2952 25 des -0.0894
-0.2952 257 les -0.0835
-0.8972 3 ans -0.0801
-0.4201 3 avs -0.0197
-0.4713 30 ans -0.0687
-0.7723 30 pour -0.0819
-0.2952 3000 euros -0.0708
-0.2952 35 000 0.2157
-0.2952 35000 euros -0.0493
-0.8972 4 ans -0.0801
-0.8972 4 grandes -0.0324
-0.8972 4 membres -0.0449
-0.8972 4 mois -0.0795
-0.6631 5 ans -0.0569
-1.1403 5 en -0.0862
-1.1403 5 euros -0.0708
-1.1403 5 février 0.2157
-1.1403 5 ses -0.0740
-0.2952 500 euros -0.0708
-0.2952 6 ans -0.0801
-0.2952 69 par -0.0363
-0.2952 7 ans -0.0801
-0.2952 70 des -0.0884
-0.7723 8 ans -0.0569
-1.0733 8 certes 0.2157
-1.0733 8 et -0.0854
-1.0733 8 participants 0.2157
-1.0733 8 à -0.0851
-2.3955 a accepté -0.0233
-2.3955 a aidé 0.0523
-2.0945 a annoncé 0.2157
-2.0945 a apporté 0.2157
-2.3955 a appris -0.0629
-2.3955 a aucune -0.0324
-2.3955 a augmenté 0.0356
-2.3955 a autorisé 0.2157
-2.3955 a avoué 0.2157
-1.9184 a beaucoup 0.0586
-2.3955 a bien -0.0801
-2.0945 a changé 0.0071
-2.3955 a chié 0.2157
-2.3955 a cinq 0.2157
-2.3955 a confirmé 0.2157
-2.3955 a créé 0.0356
-2.3955 a d -0.0729
-1.9184 a demandé 0.1164
-1.6966 a des -0.0630
-1.7935 a dit 0.0259
-1.9184 a donné 0.0151
-2.3955 a du -0.0887
-2.0945 a décidé -0.0233
-2.3955 a décrit 0.2157
-2.3955 a dû -0.0661
-2.0945 a encore -0.0747
-1.9184 a eu -0.0560
-2.3955 a expliqué 0.2157
-1.9184 a fait -0.0793
-2.0945 a frappé 0.2157
-2.3955 a invité 0.0356
-2.3955 a jamais -0.0795
-2.3955 a l -0.0902
-1.9184 a le -0.0764
-2.3955 a lorsque -0.0725
-1.9184 a mis 0.0196
-2.3955 a montré 0.0356
-2.3955 a participé 0.0356
-1.3164 a pas -0.0565
-1.9184 a passé -0.0324
-2.3955 a permis 0.2157
-2.3955 a pire -0.0109
-2.3955 a plus -0.0848
-2.3955 a plusieurs -0.0109
-2.3955 a pris -0.0708
-2.0945 a proposé 0.0356
-2.0945 a pu -0.0324
-2.3955 a quelques -0.0687
-2.3955 a redonné 0.2157
-2.3955 a refusé 0.0356
-2.3955 a réparé 0.2157
-2.0945 a répondu 0.2157
-2.3955 a réussi 0.0662
-2.3955 a sa -0.0233
-2.3955 a semblé 0.2157
-2.3955 a seulement -0.0753
-2.3955 a son -0.0833
-2.3955 a souvent -0.0747
-2.3955 a sur -0.0342
-2.0945 a sympathisé 0.2157
-2.3955 a t -0.0530
-2.3955 a tendance 0.0356
-2.0945 a toujours -0.0809
-2.3955 a tout -0.0891
-2.3955 a travaillé 0.2157
-1.7935 a un -0.0812
-2.0945 a une -0.0895
-2.3955 a vraiment -0.0807
-1.9184 a également -0.0177
-2.3955 a énormément -0.0687
-2.3955 a étendu 0.2157
-1.7935 a été -0.0109
-0.2952 aah et -0.0898
-0.5962 abandonné cette -0.0880
-0.5962 abandonné mes -0.0859
-0.9484 abord c 0.2157
-1.2494 abord demander -0.0109
-1.2494 abord j 0.0878
-1.2494 abord l -0.0858
-1.2494 abord ma -0.0811
-1.2494 abord pour -0.0906
-0.9484 abord un -0.0876
-0.5962 abordent comment -0.0071
-0.5962 abordent le -0.0874
-0.5962 aborder ces -0.0849
-0.5962 aborder cette -0.0714
-0.2952 abordé le -0.0874
-0.2952 absente et -0.0898
-0.5962 absolument que -0.0375
-0.5962 absolument un -0.0904
-0.2952 abstraction de -0.0562
-0.5962 accepte jusqu 0.1264
-0.5962 accepte tel 0.0356
-0.2952 accepter l -0.0902
-0.8392 accepté de -0.0881
-0.8392 accepté en -0.0849
-1.1403 accepté je -0.0867
-0.8392 accepté ma -0.0671
-1.1403 accessibilité c 0.1031
-1.1403 accessibilité dans -0.0878
-1.1403 accessibilité en -0.0900
-1.1403 accessibilité est -0.0903
-1.1403 accessibilité sont -0.0817
-1.1403 accessibilité une -0.0877
-1.1403 accessibilité évidemment -0.0812
-0.9941 accessible doit -0.0708
-0.9941 accessible et -0.0905
-0.9941 accessible ferait 0.0356
-0.9941 accessible leur -0.0874
-0.9941 accessible évidemment -0.0602
-0.2952 accessibles par -0.0858
-0.5962 accident cependant -0.0843
-0.5962 accident ressemble 0.0356
-0.2952 accompagnant dans -0.0831
-0.2952 accompagnantes qui -0.0860
-0.5962 accompagner aux -0.0851
-0.5962 accompagner seulement -0.0753
-0.5962 accompagné d -0.0729
-0.5962 accompagné par -0.0803
-0.2952 accompagnée par -0.0858
-0.8972 accord d -0.0718
-0.8972 accord j -0.0859
-0.8972 accord je -0.0856
-0.8972 accord que -0.0774
-0.2952 accoucha d -0.0718
-0.2952 accouchement mes -0.0607
-0.2952 accueil de -0.0867
-0.2952 accès au -0.0868
-0.2952 accélérer la -0.0886
-0.2952 accéléré cela -0.0639
-0.8972 achat aux -0.0789
-0.8972 achat d -0.0729
-0.8972 achat donc -0.0827
-0.8972 achat la -0.0886
-0.2952 achats très -0.0816
-0.4713 acheter la -0.0886
-0.7723 acheter les -0.0887
-0.2952 achetez le -0.0905
-0.5962 acheté au -0.0822
-0.5962 acheté mon -0.0857
-0.2952 achetée par -0.0831
-0.2952 achèterai la -0.0886
-0.2952 acides aminés 0.2157
-0.2952 action exemple -0.0687
-0.5962 actions de -0.0881
-0.5962 actions naturelles 0.2157
-0.7723 activités journalières 0.2157
-0.7723 activités p 0.1470
-0.7723 activités quotidiennes 0.2157
-0.2952 actuellement qu -0.0459
-0.2952 adaptation auprès -0.0324
-0.2952 adaptations concernant -0.0109
-1.3743 adapter aussi -0.0753
-1.3743 adapter aux -0.0789
-1.3743 adapter cependant -0.0479
-1.3743 adapter la -0.0886
-1.3743 adapter pour -0.0899
-1.3743 adapter puis -0.0725
-1.3743 adapter simplement -0.0801
-0.6754 adapter à -0.0802
-0.2952 adaptée dans -0.0661
-0.8972 adaptés associés 0.0356
-0.8972 adaptés cela -0.0536
-0.8972 adaptés en -0.0900
-0.8972 adaptés pour -0.0899
-0.2952 adar une -0.0904
-0.2952 admet la -0.0879
-0.2952 adoption si -0.0865
-0.8972 adore quand -0.0841
-0.5962 adore ton -0.0324
-0.8972 adore vous -0.0868
-0.2952 adresser aux -0.0596
-0.5962 adrénoleucodystrophie débute 0.2157
-0.5962 adrénoleucodystrophie infantile 0.0356
-0.2952 adulte auparavant -0.0324
-0.9941 adultes car -0.0595
-0.9941 adultes handicapés -0.0725
-0.9941 adultes pour -0.0819
-0.9941 adultes pourront 0.2157
-0.9941 adultes présentant -0.0324
-0.5962 affecter les -0.0894
-0.5962 affecter légèrement 0.0356
-0.2952 affections évolutives 0.2157
-0.2952 affiches flyers 0.2157
-0.2952 affichés sur -0.0785
-0.2952 afflux encore -0.0831
-0.2952 affronte les -0.0887
-0.5962 affronter dans -0.0686
-0.5962 affronter la -0.0734
-0.8972 afin d -0.0784
-0.4993 afin de -0.0622
-1.1983 afin que -0.0180
-0.2952 agissent envers 0.0117
-0.2952 agit d -0.0729
-1.2494 agréable après -0.0820
-1.2494 agréable cette -0.0680
-1.2494 agréable d -0.0902
-0.9484 agréable de -0.0902
-0.9484 agréable et -0.0898
-1.2494 agréable pour -0.0906
-1.2494 agréable évidemment -0.0812
-0.5962 agréables avec -0.0898
-0.5962 agréables et -0.0854
-2.5504 ai 30 0.0878
-2.5504 ai accepté -0.0233
-1.8515 ai appris 0.1164
-2.5504 ai attendu 0.2157
-2.5504 ai aucun -0.0233
-2.2494 ai aucune 0.0356
-2.5504 ai augmenté 0.0356
-2.5504 ai beaucoup 0.0492
-2.5504 ai besoin 0.0003
-2.5504 ai cet -0.0560
-1.9484 ai commencé 0.2157
-2.5504 ai compris -0.0324
-2.5504 ai connues 0.2157
-2.2494 ai conscience 0.0356
-2.2494 ai constaté 0.2157
-2.5504 ai constitué 0.2157
-2.5504 ai créé 0.0356
-2.0733 ai des -0.0865
-2.5504 ai deux -0.0795
-2.5504 ai difficultés -0.0414
-2.5504 ai droit -0.0324
-2.0733 ai décidé 0.1039
-1.8515 ai découvert 0.2157
-2.2494 ai déjà 0.0356
-2.5504 ai développé 0.2157
-2.5504 ai dû -0.0394
-2.2494 ai effectué 0.2157
-2.5504 ai envie 0.2157
-2.2494 ai essayé 0.2157
-1.1525 ai eu 0.1141
-2.5504 ai eues 0.2157
-1.7053 ai fait -0.0279
-2.0733 ai gagné 0.0662
-2.5504 ai grandi 0.2157
-2.5504 ai horreur 0.0356
-2.5504 ai imaginé 0.2157
-1.8515 ai jamais -0.0155
-2.5504 ai la -0.0859
-2.5504 ai le -0.0905
-2.5504 ai longtemps 0.2157
-2.5504 ai mal -0.0586
-2.5504 ai mis -0.0661
-2.5504 ai mon -0.0879
-2.5504 ai montré 0.0356
-2.5504 ai même -0.0853
-2.5504 ai parlé 0.2157
-2.5504 ai participé 0.0356
-1.6473 ai pas -0.0655
-2.2494 ai passé -0.0530
-2.5504 ai pensé -0.0324
-1.9484 ai pris 0.0492
-2.5504 ai proposé -0.0324
-2.2494 ai pu -0.0324
-2.5504 ai quand -0.0694
-2.0733 ai remarqué 0.2157
-2.5504 ai remercie -0.0629
-1.7723 ai rencontré 0.1562
-2.5504 ai rencontrées -0.0324
-2.5504 ai ressenti -0.0109
-2.0733 ai reçu 0.2157
-2.5504 ai réalisé 0.0356
-2.5504 ai répondu 0.0878
-2.2494 ai réussi 0.1345
-2.5504 ai souvent -0.0747
-2.0733 ai su 0.2157
-2.5504 ai subi 0.2157
-2.5504 ai terminé 0.2157
-2.5504 ai toujours -0.0861
-2.0733 ai tout -0.0801
-2.0733 ai trouvé 0.2157
-1.8515 ai un -0.0774
-1.7723 ai une -0.0824
-2.0733 ai vite 0.1164
-2.0733 ai voulu 0.0662
-2.5504 ai vraiment -0.0807
-2.2494 ai vécu 0.0878
-2.5504 ai à -0.0906
-2.5504 ai écrit 0.0356
-2.0733 ai été -0.0109
-1.7265 aide car -0.0857
-1.7265 aide d -0.0729
-1.1245 aide de -0.0822
-1.7265 aide et -0.0876
-1.2494 aide humaine 0.1164
-1.7265 aide j 0.0878
-1.7265 aide je -0.0879
-1.4255 aide la -0.0831
-1.7265 aide logicielle 0.2157
-1.7265 aide me -0.0829
-1.7265 aide mon -0.0890
-1.7265 aide n -0.0749
-1.4255 aide pour -0.0724
-1.4255 aide scolaire -0.0449
-1.1245 aide à -0.0809
-1.7265 aide énormément -0.0687
-0.2952 aident dans -0.0510
-1.2494 aider après -0.0629
-1.2494 aider cela -0.0894
-1.2494 aider cependant -0.0843
-0.9484 aider dans -0.0420
-1.2494 aider des -0.0749
-1.2494 aider financièrement 0.2157
-1.2494 aider par -0.0886
-1.2494 aider à -0.0906
-1.4993 aides afin -0.0324
-1.4993 aides avaient -0.0586
-1.4993 aides et -0.0869
-1.4993 aides financières 0.2157
-1.1983 aides habituelles 0.2157
-1.4993 aides les -0.0887
-1.1983 aides pour -0.0877
-1.4993 aides quelques -0.0449
-1.4993 aides seulement -0.0753
-0.8003 aides à -0.0571
-1.2494 aidé au -0.0799
-1.2494 aidé elle -0.0869
-1.2494 aidé et -0.0876
-1.2494 aidé quand -0.0052
-0.5504 aidé à -0.0844
-0.2952 aie un -0.0885
-0.2952 ailes comme -0.0876
-0.7723 aime cette -0.0815
-0.7723 aime pas -0.0860
-0.7723 aime récemment -0.0586
-0.2952 aiment si -0.0667
-0.5962 aimer ce -0.0633
-0.5962 aimer mais -0.0848
-0.5962 aimerais nous -0.0859
-0.5962 aimerais y -0.0848
-0.2952 aimé que -0.0838
-0.4713 ainsi que -0.0870
-0.7723 ainsi être -0.0880
-0.2952 aise ou -0.0832
-0.5962 ajouter du -0.0887
-0.5962 ajouter à -0.0892
-0.2952 alcool des -0.0894
-0.2952 alimentation ce -0.0827
-0.2952 allaient acheter 0.0878
-0.2952 allais avoir -0.0801
-0.5962 allait au -0.0868
-0.5962 allait être -0.0880
-1.1403 aller aux -0.0661
-1.6174 aller car -0.0828
-1.6174 aller dans -0.0722
-1.6174 aller du -0.0861
-1.3164 aller en -0.0888
-1.6174 aller loin -0.0530
-1.3164 aller plus -0.0826
-1.6174 aller si -0.0865
-1.6174 aller sur -0.0817
-1.1403 aller vers -0.0254
-1.1403 aller voire 0.0741
-1.3164 aller à -0.0563
-0.2952 allez vous -0.0868
-0.2952 allocation dans -0.0722
-0.2952 allons pas -0.0902
-0.8972 alors d -0.0729
-0.8972 alors je -0.0907
-0.8972 alors que -0.0607
-0.8972 alors si -0.0767
-0.8972 ami je -0.0697
-0.8972 ami l -0.0836
-0.8972 ami n -0.0655
-0.8972 ami qui -0.0736
-0.5962 amie de -0.0839
-0.5962 amie formidable 0.2157
-0.5962 amies les -0.0906
-0.5962 amies moins -0.0753
-0.2952 aminés ou -0.0580
-1.4413 amis afin -0.0629
-1.4413 amis après -0.0725
-1.4413 amis doivent -0.0028
-1.1403 amis donnaient 0.2157
-1.4413 amis elle -0.0779
-1.4413 amis et -0.0854
-1.4413 amis j 0.0878
-1.4413 amis jouaient 0.2157
-1.4413 amis me -0.0899
-1.1403 amis pour -0.0805
-1.4413 amis que -0.0902
-1.4413 amis qui -0.0736
-0.5962 amortir cette -0.0880
-0.5962 amortir leurs -0.0740
-0.7723 amour conjoint 0.2157
-0.7723 amour la -0.0899
-0.7723 amour mes -0.0859
-0.2952 ampleur pour -0.0819
-0.2952 amplifié avec -0.0780
-0.2952 amplifiés avec -0.0749
-0.2952 amusant sur -0.0817
-0.2952 amuse de -0.0707
-0.2952 amusement en -0.0888
-0.2952 amuser et -0.0824
-0.2952 amusé en -0.0875
-0.2952 améliorations pour -0.0701
-0.2952 améliore ma -0.0879
-0.5962 améliorer dans -0.0661
-0.5962 améliorer le -0.0905
-0.2952 amélioré ma -0.0563
-0.2952 améliorés grâce 0.1520
-0.5962 aménagement des -0.0903
-0.5962 aménagement durant -0.0740
-0.2952 aménagements à -0.0885
-0.2952 aménager puis -0.0725
-0.2952 américain sans -0.0807
-0.8972 an au -0.0868
-0.8972 an j -0.0886
-0.8972 an pour -0.0848
-0.8972 an vous -0.0868
-0.7723 analyser peut 0.0100
-0.7723 analyser tout -0.0687
-0.7723 analyser à -0.0802
-0.2952 anatomopathologiques des -0.0884
-0.2952 animal avec -0.0704
-0.5962 animaux en -0.0888
-0.5962 animaux les -0.0906
-0.2952 annoncer les -0.0906
-0.2952 annonces c 0.1031
-0.5962 annoncé cela -0.0875
-0.5962 annoncé qu -0.0816
-1.2494 année d -0.0902
-1.2494 année de -0.0909
-1.2494 année ma -0.0879
-0.9484 année mais -0.0781
-1.2494 année master 0.2157
-1.2494 année que -0.0902
-0.9484 année suivante 0.0662
-1.0733 années cinquante 0.2157
-1.0733 années de -0.0909
-1.0733 années j -0.0702
-1.0733 années ma -0.0811
-0.7723 années mes -0.0664
-0.8972 anomalies cutanées 0.2157
-0.5962 anomalies du -0.0834
-0.8972 anomalies métaboliques 0.2157
-1.5962 ans car -0.0595
-1.5962 ans d -0.0817
-1.5962 ans dans -0.0759
-1.5962 ans de -0.0864
-1.2952 ans en -0.0837
-1.5962 ans et -0.0905
-1.5962 ans forcément -0.0324
-1.5962 ans il -0.0776
-1.5962 ans j -0.0904
-1.5962 ans je -0.0691
-1.5962 ans le -0.0905
-1.5962 ans les -0.0835
-1.5962 ans mes -0.0859
-1.5962 ans mon -0.0902
-1.5962 ans on -0.0590
-1.5962 ans parlent 0.0356
-1.5962 ans pour -0.0848
-1.5962 ans que -0.0607
-1.5962 ans tous -0.0869
-0.2952 anti épileptiques 0.2157
-0.2952 antécédents néonatals 0.2157
-0.2952 août 2015 -0.0449
-0.2952 apaiser leurs -0.0740
-0.2952 apparaissent chez -0.0646
-0.2952 apparaitra négatif 0.0356
-0.7723 appareil cela -0.0855
-0.4713 appareil de -0.0892
-0.2952 appareillage la -0.0906
-0.2952 appareils appartenant 0.2157
-0.2952 apparence physique -0.0233
-0.2952 apparences physiques -0.0109
-0.2952 apparition du -0.0887
-0.2952 appartement ne -0.0896
-0.2952 appartements adaptés -0.0324
-0.2952 appartenant à -0.0844
-0.2952 appartient aussi -0.0753
-0.2952 appel à -0.0593
-0.8972 appelle bassel 0.2157
-0.8972 appelle et -0.0869
-0.8972 appelle les -0.0881
-0.8972 appelle yohan 0.2157
-0.2952 application à -0.0885
-0.2952 applications en -0.0900
-0.2952 appliqué à -0.0724
-0.2952 apport aux -0.0851
-0.2952 apporte une -0.0895
-0.2952 apportent du -0.0887
-0.2952 apporter une -0.0869
-0.2952 apportera un -0.0904
-0.5962 apporté d -0.0860
-0.5962 apporté dans -0.0901
-0.2952 apprenais et -0.0756
-0.5962 apprendre aux -0.0789
-0.5962 apprendre sur -0.0342
-0.8972 apprends ce -0.0845
-0.8972 apprends encore -0.0831
-0.5962 apprends qui -0.0878
-0.2952 apprennent que -0.0375
-1.1983 appris cependant -0.0773
-1.1983 appris défoncer 0.2157
-1.1983 appris qu -0.0379
-1.1983 appris rapidement 0.0071
-0.8972 appris à -0.0865
-0.8972 appris énormément 0.0356
-0.2952 approfondir le -0.0897
-0.2952 appropriées de -0.0895
-0.2952 appréhension en -0.0900
-1.3743 après asphyxie 0.0662
-1.6754 après avoir -0.0857
-1.6754 après elle -0.0869
-1.6754 après je -0.0727
-1.6754 après la -0.0906
-1.1983 après le -0.0874
-1.6754 après ma -0.0811
-1.6754 après midi 0.2157
-1.3743 après mon -0.0845
-1.6754 après on -0.0590
-1.0733 après plus -0.0826
-1.6754 après quelques -0.0449
-1.6754 après t -0.0530
-1.6754 après toutes 0.0471
-1.6754 après une -0.0904
-1.6754 après vende -0.0109
-1.6754 après ça -0.0661
-0.2952 arbre dépassaient 0.2157
-0.2952 arcades du -0.0887
-0.2952 archaïques une -0.0904
-0.7723 argent dont -0.0109
-0.7723 argent je -0.0867
-0.7723 argent à -0.0906
-0.2952 armure et -0.0756
-0.5962 arrivais pas -0.0839
-0.5962 arrivais à -0.0906
-0.5962 arrive pas -0.0839
-0.5962 arrive quelque 0.1470
-0.2952 arrivent à -0.0885
-1.3743 arriver je -0.0733
-1.3743 arriver là -0.0629
-1.3743 arriver rédiger 0.2157
-0.4201 arriver à -0.0629
-0.2952 arriverais jamais -0.0795
-1.1403 arrivé alors -0.0324
-1.1403 arrivé dans -0.0722
-1.1403 arrivé en -0.0875
-0.5382 arrivé à -0.0858
-0.2952 arriération mentale 0.2157
-0.7723 arrêter cette -0.0880
-0.7723 arrêter faire -0.0760
-0.7723 arrêter à -0.0899
-0.2952 arrêterai jamais -0.0795
-0.8972 arrêté au -0.0890
-0.8972 arrêté ce -0.0879
-0.8972 arrêté essayer 0.1164
-0.8972 arrêté pour -0.0701
-0.5170 article je -0.0856
-0.9941 article sur -0.0785
-0.9941 article à -0.0830
-0.2952 articles scientifiques 0.2157
-1.3366 as ces -0.0306
-1.0355 as donné -0.0233
-1.3366 as encore -0.0485
-1.3366 as gagné -0.0449
-1.3366 as rencontrées -0.0324
-1.3366 as sont -0.0881
-0.8594 as tu -0.0749
-1.3366 as voulu -0.0449
-0.9941 asphyxie ictère -0.0324
-0.9941 asphyxie néonatale 0.2157
-0.5170 asphyxie périnatale 0.2157
-0.2952 aspirais à -0.0858
-0.8972 assez difficile -0.0394
-0.8972 assez intelligentes 0.2157
-0.8972 assez longue -0.0324
-0.8972 assez mâture 0.2157
-0.2952 assis tout -0.0274
-0.2952 assistait à -0.0885
-0.5962 assistance et -0.0809
-0.5962 assistance si -0.0865
-0.2952 assistant e 0.0356
-0.2952 assistante sociale -0.0109
-0.2952 assistées par -0.0886
-0.2952 associant très -0.0816
-1.5256 association a -0.0895
-1.5256 association avec -0.0704
-1.5256 association c 0.1031
-1.5256 association d -0.0902
-1.5256 association de -0.0850
-1.5256 association entre -0.0687
-1.5256 association j 0.0878
-0.9235 association m -0.0264
-1.5256 association n -0.0895
-1.5256 association possède 0.0356
-1.5256 association pour -0.0884
-1.2246 association qui -0.0718
-1.5256 association voulait -0.0530
-0.4713 associations d -0.0881
-0.7723 associations sont -0.0881
-0.2952 associées à -0.0830
-0.5962 associés au -0.0890
-0.5962 associés des -0.0903
-0.2952 assouvir comme -0.0801
-0.2952 assouvis pour -0.0877
-0.2952 assumer cependant -0.0479
-0.2952 assure qu -0.0379
-0.2952 asthénie une -0.0904
-0.2952 astuce est -0.0855
-0.2952 astuces pour -0.0884
-0.7723 ataxie et -0.0898
-0.7723 ataxie ou -0.0750
-0.7723 ataxie télangiectasie 0.2157
-0.2952 ataxique et -0.0905
-0.7723 ataxiques s -0.0848
-0.7723 ataxiques sont -0.0881
-0.7723 ataxiques surviennent 0.2157
-0.7723 atelier d -0.0892
-0.7723 atelier de -0.0909
-0.7723 atelier veux -0.0324
-0.9941 athétose due 0.2157
-0.9941 athétose l -0.0902
-0.9941 athétose moins -0.0753
-0.9941 athétose provoque 0.2157
-0.9941 athétose troubles -0.0530
-0.8972 athétosique ataxique 0.2157
-0.8972 athétosique donc -0.0740
-0.8972 athétosique et -0.0905
-0.8972 athétosique je -0.0697
-0.2952 athétosiques ou -0.0832
-0.2952 atout en -0.0888
-0.2952 atrophie musculaire -0.0324
-0.9941 atteindre dans -0.0722
-0.9941 atteindre donc -0.0276
-0.9941 atteindre la -0.0906
-0.9941 atteindre les -0.0906
-0.9941 atteindre par -0.0858
-0.2952 atteindront leurs -0.0740
-1.0733 atteinte corticobulbaire 0.2157
-1.0733 atteinte cérébrale -0.0109
-1.0733 atteinte des -0.0903
-0.7723 atteinte du -0.0861
-1.0733 atteinte motrice -0.0324
-0.8180 atteints d -0.0838
-0.9941 atteints de -0.0902
-1.2952 atteints je -0.0733
-1.2952 atteints la -0.0886
-1.2952 atteints les -0.0906
-1.2952 atteints peuvent -0.0820
-1.2952 atteints sont -0.0881
-0.2952 attendant une -0.0904
-0.2952 attende pour -0.0906
-0.2952 attendes mais -0.0880
-0.2952 attendre au -0.0890
-1.1403 attends beaucoup -0.0846
-1.1403 attends comme -0.0876
-0.8392 attends de -0.0867
-1.1403 attends le -0.0882
-0.8392 attends pas -0.0829
-0.2952 attendu trois -0.0725
-0.8972 attention aux -0.0851
-0.4201 attention à -0.0892
-0.2952 attentionnées dans -0.0831
-0.2952 attire le -0.0851
-0.5962 attirer des -0.0749
-0.5962 attirer plus -0.0714
-1.9854 au ballon 0.2157
-2.2864 au bon -0.0708
-2.2864 au bout 0.2157
-2.2864 au changement -0.0109
-2.2864 au cnrs 0.2157
-1.8093 au collège 0.2157
-2.2864 au combat -0.0324
-2.2864 au concours 0.2157
-1.5874 au cours -0.0324
-1.9854 au cp 0.2157
-2.2864 au cul 0.2157
-2.2864 au côté 0.0356
-2.2864 au dessus 0.0356
-2.2864 au directeur -0.0109
-2.2864 au domaine -0.0506
-1.5082 au début 0.0878
-1.9854 au départ 0.0878
-1.9854 au fait -0.0670
-1.6843 au final 0.2157
-2.2864 au foot -0.0109
-2.2864 au football 0.2157
-2.2864 au grand -0.0687
-1.9854 au jour -0.0569
-1.9854 au lieu 0.2157
-2.2864 au lit 0.2157
-1.9854 au lycée 0.2157
-1.9854 au maximum 0.2157
-2.2864 au mieux -0.0687
-2.2864 au milieu 0.2157
-2.2864 au minimum -0.0109
-1.6843 au mois -0.0155
-1.9854 au monde -0.0643
-2.2864 au moral -0.0324
-1.8093 au même -0.0731
-1.5082 au niveau 0.0778
-2.2864 au nom -0.0109
-1.9854 au paravent 0.2157
-2.2864 au pare 0.2157
-1.9854 au plaisir -0.0449
-2.2864 au primaire -0.0109
-1.9854 au président 0.2157
-1.8093 au quotidien 0.0662
-1.9854 au sein 0.2157
-2.2864 au son -0.0833
-2.2864 au temps -0.0694
-2.2864 au transport 0.2157
-1.2450 au travers 0.2157
-2.2864 au téléphone -0.0324
-2.2864 au village -0.0109
-0.2952 auchant drive 0.2157
-1.1403 aucun appartement 0.2157
-1.1403 aucun cas -0.0629
-1.1403 aucun moyen 0.0356
-0.8392 aucun organisme 0.0878
-0.8392 aucun problème -0.0717
-0.8972 aucune expérience -0.0708
-0.8972 aucune formation 0.0356
-0.8972 aucune opinion -0.0449
-0.8972 aucune précision 0.2157
-0.2952 audience des -0.0749
-0.2952 audiovisuel est -0.0903
-0.2952 augmentant la -0.0906
-0.5962 augmentation de -0.0707
-0.5962 augmentation des -0.0884
-0.2952 augmente leur -0.0835
-0.2952 augmentent avec -0.0854
-0.5962 augmenté fortement -0.0449
-0.5962 augmenté mon -0.0879
-0.2952 aujourd hui 0.2157
-0.5962 auparavant c -0.0227
-0.8972 auparavant envers 0.0117
-0.8972 auparavant je -0.0703
-0.5962 auprès de -0.0728
-0.8972 auprès des -0.0903
-0.8972 auprès du -0.0887
-0.8972 aura plus -0.0714
-0.4201 aura toujours -0.0539
-0.2952 aurai un -0.0904
-0.2952 auraient gagné -0.0449
-1.1403 aurais aimé 0.2157
-1.1403 aurais cette -0.0880
-0.8392 aurais jamais -0.0675
-1.1403 aurais ma -0.0896
-1.1403 aurais mis -0.0661
-1.1403 aurais peut 0.0100
-1.1403 aurait fait -0.0873
-1.1403 aurait la -0.0893
-1.1403 aurait pas -0.0902
-0.8392 aurait pu 0.0003
-1.1403 aurait un -0.0904
-1.1403 aurait été -0.0725
-0.4713 auras des -0.0884
-0.7723 auras le -0.0905
-0.5962 aurez jamais -0.0795
-0.5962 aurez une -0.0904
-0.2952 auront pas -0.0764
-1.4413 aussi agréable -0.0661
-1.4413 aussi car -0.0857
-1.4413 aussi comment -0.0717
-1.4413 aussi des -0.0903
-1.4413 aussi dire -0.0781
-1.4413 aussi facilement -0.0586
-1.4413 aussi les -0.0900
-1.4413 aussi que -0.0375
-1.4413 aussi rapidement -0.0449
-1.1403 aussi une -0.0886
-1.4413 aussi volontaires 0.0356
-1.4413 aussi à -0.0906
-1.4413 aussi évidemment -0.0812
-0.2952 aussitôt que -0.0607
-0.5962 autant de -0.0909
-0.5962 autant fois -0.0586
-0.9941 autobiographie avant -0.0282
-0.9941 autobiographie comme -0.0876
-0.9941 autobiographie comprendront 0.2157
-0.9941 autobiographie m -0.0318
-0.9941 autobiographie pourraient 0.0356
-0.5962 automatique dès 0.2157
-0.5962 automatique puis -0.0725
-0.2952 automatiquement compenser 0.2157
-0.2952 automutilation et -0.0883
-0.8972 autonome c 0.1031
-0.8972 autonome dans -0.0771
-0.8972 autonome pour -0.0906
-0.8972 autonome à -0.0906
-1.3366 autonomie cependant -0.0773
-1.3366 autonomie envers -0.0530
-1.3366 autonomie et -0.0898
-1.0355 autonomie je -0.0679
-1.3366 autonomie l -0.0780
-1.3366 autonomie le -0.0897
-1.3366 autonomie malheureusement -0.0449
-1.3366 autonomie max 0.0356
-1.3366 autonomie sociale -0.0661
-1.3366 autonomie sous 0.0356
-0.2952 autorisation en -0.0888
-0.2952 autorise le -0.0890
-0.2952 autorisé à -0.0892
-0.5962 autour de -0.0867
-0.5962 autour du -0.0332
-1.5256 autre de -0.0885
-1.5256 autre expérience -0.0267
-1.5256 autre façon 0.1039
-1.5256 autre forme 0.2157
-1.5256 autre l -0.0880
-0.9235 autre livre -0.0434
-1.5256 autre orientation 0.0356
-1.5256 autre projet -0.0629
-1.5256 autre regard -0.0717
-1.5256 autre sans -0.0586
-1.5256 autre sens -0.0740
-1.5256 autre souhait 0.0071
-1.5256 autre vision -0.0449
-1.5256 autre à -0.0802
-0.2952 autrement que -0.0902
-1.9286 autres affections 0.2157
-1.4515 autres années 0.0356
-1.9286 autres anomalies -0.0324
-1.4515 autres c 0.2157
-1.9286 autres ce -0.0845
-1.9286 autres défauts -0.0109
-1.9286 autres enfant -0.0740
-1.9286 autres enfants -0.0717
-1.9286 autres enseignantes 0.2157
-1.9286 autres envers -0.0324
-1.9286 autres et -0.0809
-1.9286 autres formation 0.0356
-1.9286 autres intervenantes -0.0586
-1.9286 autres m -0.0551
-1.9286 autres mais -0.0815
-1.3266 autres me -0.0829
-1.9286 autres ne -0.0793
-1.9286 autres nous -0.0859
-1.9286 autres occupations 0.0356
-1.9286 autres par -0.0886
-1.9286 autres patients 0.0356
-1.9286 autres pensent -0.0449
-1.6276 autres personnes -0.0534
-1.6276 autres pour -0.0694
-1.6276 autres projets 0.2157
-1.9286 autres qu -0.0538
-1.9286 autres qui -0.0895
-1.9286 autres si -0.0297
-1.9286 autres sont -0.0881
-1.9286 autres souhaits 0.2157
-1.9286 autres sur -0.0785
-1.9286 autres tout -0.0779
-1.9286 autres viennent 0.2157
-0.8972 autrui d -0.0902
-0.8972 autrui mais -0.0880
-0.8972 autrui me -0.0899
-0.8972 autrui nous -0.0749
-1.8515 aux activités -0.0109
-1.8515 aux aides -0.0164
-1.8515 aux assistant 0.2157
-1.5504 aux autres -0.0809
-1.8515 aux compétences -0.0109
-1.8515 aux contractures 0.2157
-1.8515 aux cours -0.0801
-1.8515 aux diminués 0.2157
-1.8515 aux domaines -0.0109
-1.8515 aux esprits -0.0324
-1.8515 aux faites -0.0324
-1.3743 aux gens 0.0196
-1.5504 aux handicapés -0.0530
-1.8515 aux intervenantes -0.0586
-1.8515 aux jeux 0.0356
-1.8515 aux normes -0.0109
-1.8515 aux parents -0.0812
-1.1525 aux personnes -0.0150
-1.8515 aux problèmes -0.0717
-1.8515 aux profs 0.0356
-1.8515 aux rendez 0.2157
-1.2494 aux toilettes 0.2157
-1.8515 aux usagés 0.0356
-1.8515 aux victimes 0.2157
-1.8515 aux événements 0.2157
-1.1403 avaient beaucoup -0.0566
-1.1403 avaient d -0.0729
-1.1403 avaient pas -0.0902
-1.1403 avaient rien -0.0708
