#############################################################################
## Copyright (c) 1996, Carnegie Mellon University, Cambridge University,
## Ronald Rosenfeld and Philip Clarkson
#############################################################################
=============================================================================
===============  This file was produced by the CMU-Cambridge  ===============
===============     Statistical Language Modeling Toolkit     ===============
=============================================================================
This is a 3-gram language model, based on a vocabulary of 2965 words,
  which begins "0", "000", "1"...
This is an OPEN-vocabulary model (type 1)
  (OOVs were mapped to UNK, which is treated as any other vocabulary word)
Good-Turing discounting was applied.
1-gram frequency of frequency : 1563 
2-gram frequency of frequency : 9062 1305 451 207 133 62 43 
3-gram frequency of frequency : 14891 958 192 84 32 16 7 
1-gram discounting ratios : 1.00 
2-gram discounting ratios : 0.26 0.50 0.60 0.80 0.54 0.80 0.98 
3-gram discounting ratios : 0.13 0.30 0.58 0.47 0.60 0.51 
This file is in the ARPA-standard format introduced by Doug Paul.

p(wd3|wd1,wd2)= if(trigram exists)           p_3(wd1,wd2,wd3)
                else if(bigram w1,w2 exists) bo_wt_2(w1,w2)*p(wd3|wd2)
                else                         p(wd3|w2)

p(wd2|wd1)= if(bigram exists) p_2(wd1,wd2)
            else              bo_wt_1(wd1)*p_1(wd2)

All probs and back-off weights (bo_wt) are given in log10 form.

Data formats:

Beginning of data mark: \data\
ngram 1=nr            # number of 1-grams
ngram 2=nr            # number of 2-grams
ngram 3=nr            # number of 3-grams

\1-grams:
p_1     wd_1 bo_wt_1
\2-grams:
p_2     wd_1 wd_2 bo_wt_2
\3-grams:
p_3     wd_1 wd_2 wd_3 

end of data mark: \end\

\data\
ngram 1=2966
ngram 2=11468
ngram 3=16209

\1-grams:
-4.2648 <UNK>	0.0000
-3.9632 0	-0.1328
-3.7871 000	-0.3965
-3.7871 1	-0.1197
-3.9632 10	-0.1275
-3.9632 100	-0.3026
-3.9632 11	-0.1325
-4.2648 13	-0.1331
-4.2648 130	-0.1330
-3.9632 14	-0.3024
-4.2648 15	-0.1276
-4.2648 16	-0.1326
-4.2648 1992	-0.1290
-3.2642 2	-0.1849
-3.7871 20	-0.1270
-4.2648 2004	-0.1259
-3.9632 2011	-0.1179
-3.9632 2013	-0.1225
-4.2648 2014	-0.1325
-3.5652 2015	-0.1772
-3.9632 2016	-0.1270
-4.2648 22	-0.1331
-4.2648 25	-0.1276
-4.2648 257	-0.1249
-3.6621 3	-0.3137
-3.7871 30	-0.2308
-4.2648 3000	-0.1328
-4.2648 35	-0.1330
-3.9632 35000	-0.3026
-3.6621 4	-0.1320
-3.4191 5	-0.2221
-4.2648 500	-0.1328
-4.2648 6	-0.1326
-4.2648 69	-0.1312
-4.2648 7	-0.1326
-4.2648 70	-0.1276
-3.4861 8	-0.1672
-2.1638 a	-0.2470
-4.2648 aah	-0.1259
-3.9632 abandonné	-0.1295
-3.3100 abord	-0.1698
-3.9632 abordent	-0.1257
-3.9632 aborder	-0.1307
-4.2648 abordé	-0.1263
-4.2648 absente	-0.1259
-3.9632 absolument	-0.1223
-3.9632 abstraction	-0.2876
-3.9632 accepte	-0.1328
-4.2648 accepter	-0.1283
-3.4191 accepté	-0.2416
-3.4191 accessibilité	-0.1075
-3.5652 accessible	-0.1237
-4.2648 accessibles	-0.1312
-3.9632 accident	-0.1323
-4.2648 accompagnant	-0.1286
-4.2648 accompagnantes	-0.1301
-3.9632 accompagner	-0.1319
-3.9632 accompagné	-0.1262
-4.2648 accompagnée	-0.1312
-3.6621 accord	-0.1076
-4.2648 accoucha	-0.1282
-4.2648 accouchement	-0.1312
-4.2648 accueil	-0.1179
-4.2648 accès	-0.1308
-3.9632 accélérer	-0.2951
-4.2648 accéléré	-0.1304
-3.6621 achat	-0.1188
-4.2648 achats	-0.1320
-3.7871 acheter	-0.2225
-4.2648 achetez	-0.1263
-3.9632 acheté	-0.1261
-4.2648 achetée	-0.1312
-4.2648 achèterai	-0.1253
-4.2648 acides	-0.1331
-4.2648 action	-0.1329
-3.9632 actions	-0.1178
-3.7871 activités	-0.1329
-4.2648 actuellement	-0.1309
-4.2648 adaptation	-0.1330
-4.2648 adaptations	-0.1329
-3.1850 adapter	-0.1818
-4.2648 adaptée	-0.1286
-3.6621 adaptés	-0.1186
-4.2648 adar	-0.1272
-3.9632 admet	-0.2951
-4.2648 adoption	-0.1320
-3.6621 adore	-0.2074
-4.2648 adresser	-0.1323
-3.9632 adrénoleucodystrophie	-0.1330
-4.2648 adulte	-0.1330
-3.5652 adultes	-0.1234
-3.9632 affecter	-0.1249
-4.2648 affections	-0.1331
-4.2648 affiches	-0.1331
-4.2648 affichés	-0.1314
-4.2648 afflux	-0.1325
-4.2648 affronte	-0.1249
-3.9632 affronter	-0.1207
-3.0601 afin	-0.9209
-4.2648 agissent	-0.1328
-4.2648 agit	-0.1282
-3.3100 agréable	-0.1618
-3.9632 agréables	-0.1223
-2.0089 ai	-0.3332
-2.8328 aide	-0.2250
-4.2648 aident	-0.1286
-3.3100 aider	-0.1413
-3.0601 aides	-0.1973
-3.3100 aidé	-0.2171
-4.2648 aie	-0.1273
-4.2648 ailes	-0.1317
-3.7871 aime	-0.1263
-4.2648 aiment	-0.1320
-3.9632 aimer	-0.1284
-3.9632 aimerais	-0.1313
-4.2648 aimé	-0.1281
-3.7871 ainsi	-0.2320
-4.2648 aise	-0.1318
-3.9632 ajouter	-0.1234
-4.2648 alcool	-0.1276
-4.2648 alimentation	-0.1300
-4.2648 allaient	-0.1330
-3.9632 allais	-0.3019
-3.9632 allait	-0.1292
-2.9420 aller	-0.2526
-4.2648 allez	-0.1319
-4.2648 allocation	-0.1286
-4.2648 allons	-0.1281
-3.6621 alors	-0.1125
-3.6621 ami	-0.1128
-3.9632 amie	-0.1178
-3.9632 amies	-0.1246
-4.2648 aminés	-0.1318
-3.1181 amis	-0.1394
-3.9632 amortir	-0.1312
-3.7871 amour	-0.1233
-4.2648 ampleur	-0.1257
-4.2648 amplifié	-0.1295
-4.2648 amplifiés	-0.1295
-4.2648 amusant	-0.1314
-4.2648 amuse	-0.1179
-4.2648 amusement	-0.1290
-4.2648 amuser	-0.1259
-4.2648 amusé	-0.1290
-4.2648 améliorations	-0.1257
-4.2648 améliore	-0.1300
-3.9632 améliorer	-0.1217
-4.2648 amélioré	-0.1300
-4.2648 améliorés	-0.1328
-3.9632 aménagement	-0.1273
-4.2648 aménagements	-0.1255
-4.2648 aménager	-0.1325
-4.2648 américain	-0.1326
-3.6621 an	-0.1162
-3.7871 analyser	-0.1221
-4.2648 anatomopathologiques	-0.1276
-4.2648 animal	-0.1295
-3.9632 animaux	-0.1207
-4.2648 annoncer	-0.1249
-4.2648 annonces	-0.1303
-3.9632 annoncé	-0.1282
-3.3100 année	-0.1698
-3.4861 années	-0.1560
-3.6621 anomalies	-0.2077
-2.9632 ans	-0.0438
-4.2648 anti	-0.1331
-4.2648 antécédents	-0.1331
-4.2648 août	-0.1330
-4.2648 apaiser	-0.1328
-4.2648 apparaissent	-0.1327
-4.2648 apparaitra	-0.1330
-3.7871 appareil	-0.2205
-4.2648 appareillage	-0.1253
-4.2648 appareils	-0.1331
-3.9632 apparence	-0.3027
-4.2648 apparences	-0.1330
-4.2648 apparition	-0.1311
-4.2648 appartement	-0.1300
-4.2648 appartements	-0.1330
-4.2648 appartenant	-0.1255
-4.2648 appartient	-0.1328
-3.5652 appel	-0.3339
-3.6621 appelle	-0.1175
-4.2648 application	-0.1255
-4.2648 applications	-0.1290
-4.2648 appliqué	-0.1255
-4.2648 apport	-0.1323
-4.2648 apporte	-0.1272
-4.2648 apportent	-0.1311
-4.2648 apporter	-0.1272
-4.2648 apportera	-0.1273
-3.9632 apporté	-0.1236
-4.2648 apprenais	-0.1259
-3.9632 apprendre	-0.1306
-3.6621 apprends	-0.2030
-4.2648 apprennent	-0.1281
-3.3611 appris	-0.1987
-4.2648 approfondir	-0.1263
-4.2648 appropriées	-0.1179
-4.2648 appréhension	-0.1290
-2.8840 après	-0.1993
-4.2648 arbre	-0.1331
-4.2648 arcades	-0.1311
-4.2648 archaïques	-0.1272
-3.7871 argent	-0.1160
-4.2648 armure	-0.1259
-3.9632 arrivais	-0.1203
-3.9632 arrive	-0.1279
-3.9632 arrivent	-0.2952
-3.1850 arriver	-0.7179
-4.2648 arriverais	-0.1327
-3.4191 arrivé	-0.3482
-3.9632 arriération	-0.3028
-3.7871 arrêter	-0.1217
-4.2648 arrêterai	-0.1327
-3.6621 arrêté	-0.1201
-3.5652 article	-0.2528
-4.2648 articles	-0.1331
-3.2228 as	-0.2162
-3.5652 asphyxie	-0.2713
-4.2648 aspirais	-0.1255
-3.6621 assez	-0.1327
-4.2648 assis	-0.1307
-4.2648 assistait	-0.1255
-3.9632 assistance	-0.1248
-4.2648 assistant	-0.1331
-3.7871 assistante	-0.3965
-4.2648 assistées	-0.1312
-4.2648 associant	-0.1320
-3.0338 association	-0.1804
-3.7871 associations	-0.2320
-4.2648 associées	-0.1255
-3.9632 associés	-0.1252
-4.2648 assouvir	-0.1317
-4.2648 assouvis	-0.1257
-4.2648 assumer	-0.1324
-4.2648 assure	-0.1309
-4.2648 asthénie	-0.1272
-4.2648 astuce	-0.1276
-4.2648 astuces	-0.1257
-3.7871 ataxie	-0.1246
-4.2648 ataxique	-0.1259
-3.7871 ataxiques	-0.1306
-3.7871 atelier	-0.1126
-3.5652 athétose	-0.1277
-3.6621 athétosique	-0.1159
-3.9632 athétosiques	-0.3016
-4.2648 atout	-0.1290
-4.2648 atrophie	-0.1330
-3.5652 atteindre	-0.1096
-4.2648 atteindront	-0.1328
-3.4861 atteinte	-0.1749
-3.2642 atteints	-0.1808
-4.2648 attendant	-0.1272
-4.2648 attende	-0.1257
-4.2648 attendes	-0.1315
-4.2648 attendre	-0.1308
-3.4191 attends	-0.1920
-4.2648 attendu	-0.1328
-3.6621 attention	-0.3059
-4.2648 attentionnées	-0.1286
-4.2648 attire	-0.1263
-3.9632 attirer	-0.1251
-2.2730 au	-0.3504
-4.2648 auchant	-0.1331
-3.4191 aucun	-0.2207
-3.6621 aucune	-0.1327
-4.2648 audience	-0.1276
-4.2648 audiovisuel	-0.1276
-4.2648 augmentant	-0.1253
-3.9632 augmentation	-0.1121
-4.2648 augmente	-0.1318
-4.2648 augmentent	-0.1295
-3.9632 augmenté	-0.1283
-3.1181 aujourd	-1.1758
-3.6621 auparavant	-0.1974
-3.6621 auprès	-0.1866
-3.6621 aura	-0.3109
-4.2648 aurai	-0.1273
-4.2648 auraient	-0.1330
-3.4191 aurais	-0.1689
-3.4191 aurait	-0.1545
-3.7871 auras	-0.2262
-3.9632 aurez	-0.1267
-4.2648 auront	-0.1281
-3.1181 aussi	-0.1161
-4.2648 aussitôt	-0.1281
-3.9632 autant	-0.1175
-3.5652 autobiographie	-0.1290
-3.9632 automatique	-0.1325
-4.2648 automatiquement	-0.1331
-4.2648 automutilation	-0.1259
-3.6621 autonome	-0.1104
-3.2228 autonomie	-0.1291
-4.2648 autorisation	-0.1290
-4.2648 autorise	-0.1263
-4.2648 autorisé	-0.1255
-3.6621 autour	-0.2855
-3.0338 autre	-0.1826
-4.2648 autrement	-0.1281
-2.6307 autres	-0.1641
-3.6621 autrui	-0.1217
-2.7079 aux	-0.2272
-3.4191 avaient	-0.1565
-2.9855 avais	-0.2124
-3.1503 avait	-0.4459
-4.2648 avance	-0.1295
-3.7871 avancer	-0.1275
-3.0881 avant	-0.2823
-3.6621 avantages	-0.1034
-2.0852 avec	-0.5721
-3.5652 avenir	-0.1158
-4.2648 aventure	-0.1312
-4.2648 aveugle	-0.1331
-4.2648 avez	-0.1330
-3.6621 avion	-0.1178
-3.7871 avis	-0.1158
-2.6621 avoir	-0.2774
-3.7871 avons	-0.1296
-3.9632 avoue	-0.1225
-4.2648 avouer	-0.1281
-4.2648 avoué	-0.1301
-3.2642 avs	-0.2946
-4.2648 avèrent	-0.1330
-3.4861 ayant	-0.2218
-4.2648 ayez	-0.1273
-4.2648 azerty	-0.1315
-4.2648 aéroport	-0.1330
-4.2648 b	-0.1263
-3.1503 bac	-0.2359
-4.2648 bah	-0.1331
-4.2648 bailleur	-0.1329
-4.2648 bain	-0.1259
-4.2648 balle	-0.1286
-3.9632 ballon	-0.2957
-4.2648 bardot	-0.1255
-4.2648 barrière	-0.1301
-3.9632 bas	-0.1314
-4.2648 base	-0.1179
-4.2648 basique	-0.1239
-4.2648 bassel	-0.1331
-4.2648 bat	-0.1328
-4.2648 bats	-0.1319
-3.9632 battant	-0.2955
-4.2648 batterie	-0.1179
-3.6621 battre	-0.1973
-3.6621 beau	-0.2087
-2.7457 beaucoup	-0.5059
-3.9632 beaux	-0.3024
-3.5652 belgique	-0.1137
-3.2642 belle	-0.5048
-4.2648 belles	-0.1331
-3.3611 besoin	-0.3410
-3.3100 besoins	-0.1482
-2.9632 bien	-0.1071
-4.2648 bienvenu	-0.1286
-3.9632 bienvenus	-0.1193
-4.2648 bienêtre	-0.1327
-4.2648 biochimiques	-0.1331
-4.2648 bizarre	-0.1329
-3.9632 bizarrement	-0.2936
-4.2648 blanc	-0.1329
-4.2648 blancs	-0.1330
-4.2648 blessure	-0.1316
-3.9632 blessée	-0.1300
-4.2648 bleui	-0.1312
-3.7871 blog	-0.1229
-4.2648 bloquent	-0.1286
-4.2648 bloqué	-0.1286
-4.2648 boire	-0.1327
-4.2648 boissière	-0.1308
-4.2648 boisson	-0.1330
-4.2648 boite	-0.1179
-3.2228 bon	-0.1546
-3.7871 bonheur	-0.1170
-4.2648 bonjour	-0.1239
-3.7871 bonne	-0.1328
-3.9632 bonnes	-0.3009
-3.6621 bons	-0.1325
-4.2648 bord	-0.1301
-4.2648 borde	-0.1308
-3.5652 bouche	-0.1184
-4.2648 bouge	-0.1286
-4.2648 bourse	-0.1257
-4.2648 bout	-0.1282
-3.7871 bras	-0.1226
-4.2648 brigitte	-0.1331
-4.2648 brochures	-0.1331
-4.2648 bruler	-0.1276
-4.2648 brusques	-0.1328
-3.9632 bruxelles	-0.1196
-4.2648 brûler	-0.1290
-4.2648 buccaux	-0.1331
-3.9632 budget	-0.1297
-4.2648 bulle	-0.1331
-3.0601 but	-0.1874
-4.2648 bâtards	-0.1301
-4.2648 bâtiment	-0.1328
-4.2648 bébé	-0.1329
-3.9632 bénéfice	-0.1178
-4.2648 bénéfices	-0.1255
-4.2648 bénévole	-0.1329
-4.2648 bêtement	-0.1330
-3.7871 bêtises	-0.1170
-2.1923 c	-2.0683
-4.2648 cachaient	-0.1330
-4.2648 cachais	-0.1286
-4.2648 cachait	-0.1290
-4.2648 cacher	-0.1330
-4.2648 cachées	-0.1290
-4.2648 cadeaux	-0.1179
-4.2648 cadence	-0.1255
-3.7871 cadre	-0.1127
-4.2648 calme	-0.1328
-3.9632 calmement	-0.1240
-3.9632 cap	-0.3028
-3.3611 capable	-0.4625
-3.9632 capacité	-0.1108
-4.2648 capacités	-0.1331
-2.3666 car	-0.3085
-4.2648 caractère	-0.1179
-3.9632 caractères	-0.1300
-4.2648 caractérisent	-0.1327
-4.2648 caractéristiques	-0.1327
-4.2648 caractérisés	-0.1312
-4.2648 carapace	-0.1259
-4.2648 carte	-0.1179
-3.0601 cas	-0.1098
-3.9632 casser	-0.1239
-3.9632 catholique	-0.1249
-4.2648 catégories	-0.1329
-2.8840 cause	-0.4680
-4.2648 ccd	-0.1259
-4.2648 cdd	-0.1330
-4.2648 cdi	-0.1319
-2.1503 ce	-0.5623
-3.2228 ceci	-0.3271
-2.1997 cela	-0.2398
-3.7871 celle	-0.1119
-4.2648 celui	-0.1276
-4.2648 centraux	-0.1249
-3.7871 centre	-0.3815
-4.2648 centrée	-0.1330
-2.7591 cependant	-0.2708
-4.2648 cercle	-0.1327
-4.2648 cerebral	-0.1331
-4.2648 cerner	-0.1284
-4.2648 certain	-0.1330
-4.2648 certaine	-0.1331
-3.7871 certainement	-0.1101
-3.5652 certaines	-0.2691
-3.3611 certains	-0.1575
-4.2648 certes	-0.1253
-4.2648 certitude	-0.1328
-3.7871 cerveau	-0.1326
-4.2648 cervelet	-0.1318
-2.7201 ces	-0.2781
-4.2648 cesse	-0.1331
-4.2648 cesser	-0.1282
-3.1503 cet	-0.2316
-2.4317 cette	-0.2579
-3.0601 ceux	-0.7141
-4.2648 ch	-0.1331
-3.3611 chacun	-0.1961
-4.2648 chaines	-0.1331
-3.1850 chance	-0.3192
-3.9632 change	-0.1175
-4.2648 changeant	-0.1282
-3.7871 changement	-0.2187
-3.9632 changements	-0.1238
-4.2648 changent	-0.1326
-3.2642 changer	-0.2043
-4.2648 changera	-0.1281
-3.5652 changé	-0.1213
-4.2648 chanson	-0.1331
-3.0881 chaque	-0.1875
-3.7871 charge	-0.1194
-4.2648 charger	-0.1286
-4.2648 charnel	-0.1308
-4.2648 chauffeurs	-0.1331
-3.5652 chemin	-0.1772
-4.2648 chemins	-0.1179
-4.2648 cher	-0.1331
-3.7871 chercheur	-0.1264
-4.2648 chewbacca	-0.1257
-3.0338 chez	-0.2014
-4.2648 chirurgicales	-0.1318
-4.2648 chirurgie	-0.1331
-4.2648 chié	-0.1295
-3.9632 choisi	-0.1170
-3.6621 choisir	-0.1182
-3.7871 choix	-0.2299
-3.9632 choquant	-0.1231
-4.2648 choquer	-0.1325
-4.2648 choréiformes	-0.1325
-3.0881 chose	-0.1039
-3.2228 choses	-0.1237
-4.2648 choubaka	-0.1329
-4.2648 chroniques	-0.1249
-4.2648 chubaka	-0.1331
-3.9632 chère	-0.1222
-4.2648 chômage	-0.1301
-4.2648 ci	-0.1330
-4.2648 cigarette	-0.1249
-4.2648 cinq	-0.1179
-4.2648 cinquante	-0.1259
-3.9632 claire	-0.2876
-3.4861 classe	-0.1565
-3.9632 classique	-0.1277
-3.5652 clavier	-0.1150
-3.9632 claviers	-0.1331
-3.7871 clients	-0.1237
-4.2648 cliniques	-0.1318
-4.2648 clique	-0.1283
-4.2648 cloniques	-0.1331
-3.9632 clé	-0.1104
-3.5652 clés	-0.4857
-4.2648 cm2	-0.1263
-4.2648 cnrs	-0.1253
-4.2648 codes	-0.1317
-3.7871 collège	-0.1179
-4.2648 collègue	-0.1301
-4.2648 colonne	-0.1331
-3.6621 combat	-0.1084
-4.2648 combattante	-0.1281
-4.2648 comble	-0.1284
-4.2648 comitiales	-0.1331
-4.2648 commandant	-0.1179
-2.4861 comme	-0.1962
-3.9632 commence	-0.1169
-3.6621 commencé	-0.3020
-2.9025 comment	-0.3485
-4.2648 commençais	-0.1283
-3.7871 commerce	-0.1259
-3.9632 commercial	-0.1324
-3.7871 commerçant	-0.1286
-3.6621 commerçants	-0.1222
-3.9632 commun	-0.1189
-4.2648 communautés	-0.1331
-4.2648 commune	-0.1290
-3.1181 communication	-0.1299
-3.7871 communiquer	-0.1260
-4.2648 communs	-0.1239
-3.7871 compassion	-0.1277
-4.2648 compenser	-0.1273
-4.2648 compensé	-0.1295
-4.2648 complexe	-0.1257
-4.2648 complexité	-0.1179
-4.2648 complicité	-0.1330
-3.4191 compliqué	-0.1539
-4.2648 compliquée	-0.1255
-4.2648 complète	-0.1302
-3.4861 complètement	-0.1717
-3.9632 complémentaires	-0.1242
-3.9632 comporte	-0.1327
-3.7871 comportement	-0.1230
-3.1181 comprendre	-0.1731
-3.9632 comprendront	-0.3026
-3.1850 comprends	-0.2619
-4.2648 comprennent	-0.1330
-3.6621 compris	-0.1004
-3.6621 compte	-0.1176
-4.2648 compter	-0.1314
-3.7871 compétences	-0.1172
-3.5652 con	-0.0995
-3.9632 concentration	-0.1331
-4.2648 concernait	-0.1283
-3.3100 concernant	-0.2126
-4.2648 concerne	-0.1249
-4.2648 concernent	-0.1249
-4.2648 concerné	-0.1312
-3.9632 concernées	-0.1171
-4.2648 concernés	-0.1312
-3.9632 conclusion	-0.1225
-4.2648 concours	-0.1282
-4.2648 condition	-0.1329
-4.2648 conditionnée	-0.1312
-4.2648 conduire	-0.1328
-4.2648 conduit	-0.1290
-3.4861 confiance	-0.1601
-4.2648 confident	-0.1312
-4.2648 confidentialité	-0.1273
-4.2648 confirmé	-0.1315
-3.9632 confort	-0.1322
-4.2648 confronté	-0.1273
-3.7871 conférence	-0.2253
-4.2648 conférences	-0.1281
-4.2648 conjoint	-0.1331
-3.9632 connais	-0.1255
-3.9632 connaissait	-0.1325
-3.9632 connaissances	-0.1242
-4.2648 connait	-0.1281
-3.9632 connaitre	-0.1269
-4.2648 connard	-0.1328
-4.2648 connaît	-0.1281
-4.2648 connerie	-0.1330
-4.2648 conneries	-0.1253
-4.2648 connu	-0.1327
-4.2648 connues	-0.1311
-4.2648 cons	-0.1300
-3.6621 conscience	-0.2854
-3.9632 conscient	-0.1260
-4.2648 conscientes	-0.1179
-4.2648 conseil	-0.1323
-4.2648 conseille	-0.1330
-4.2648 conseiller	-0.1293
-4.2648 conseillé	-0.1312
-4.2648 conseils	-0.1331
-3.9632 considérer	-0.1316
-3.9632 considéré	-0.3015
-4.2648 consiste	-0.1255
-4.2648 consistent	-0.1255
-4.2648 console	-0.1303
-4.2648 constants	-0.1259
-3.7871 constatation	-0.1145
-3.9632 constater	-0.1257
-3.9632 constaté	-0.2979
-3.9632 constitue	-0.1190
-4.2648 constitué	-0.1273
-4.2648 constructif	-0.1179
-4.2648 construction	-0.1290
-4.2648 construire	-0.1273
-4.2648 conséquences	-0.1331
-2.9855 conséquent	-0.2216
-4.2648 conséquents	-0.1239
-3.6621 contact	-0.3094
-4.2648 conte	-0.1329
-3.5652 contexte	-0.1655
-4.2648 contextes	-0.1331
-3.9632 continuait	-0.2998
-4.2648 continue	-0.1331
-4.2648 continuent	-0.1255
-3.4861 continuer	-0.2364
-4.2648 contractures	-0.1272
-4.2648 contradictoire	-0.1239
-4.2648 contraignant	-0.1312
-3.7871 contraire	-0.1171
-3.5652 contre	-0.1168
-4.2648 contrepartie	-0.1312
-4.2648 contrôle	-0.1276
-3.5652 contrôler	-0.1150
-4.2648 conversation	-0.1331
-4.2648 convient	-0.1330
-4.2648 convulsions	-0.1331
-4.2648 convulsives	-0.1331
-4.2648 conçois	-0.1281
-4.2648 copine	-0.1331
-3.4191 corps	-0.1664
-3.9632 correct	-0.1155
-4.2648 correction	-0.1179
-4.2648 correspondaient	-0.1259
-3.9632 correspondait	-0.1253
-4.2648 corrigeait	-0.1284
-4.2648 corticobulbaire	-0.1276
-4.2648 cotée	-0.1179
-3.9632 coucher	-0.1302
-4.2648 couchés	-0.1249
-3.9632 couleur	-0.1172
-3.9632 couleurs	-0.1232
-4.2648 coupables	-0.1311
-3.7871 coups	-0.1148
-3.9632 cour	-0.2876
-3.4191 courage	-0.2046
-4.2648 couramment	-0.1272
-3.9632 courant	-0.1237
-4.2648 coureur	-0.1326
-2.9632 cours	-0.1536
-4.2648 courses	-0.1314
-4.2648 couvé	-0.1323
-3.5652 coût	-0.1698
-4.2648 coûte	-0.1331
-3.9632 cp	-0.1220
-4.2648 crainte	-0.1324
-3.9632 crises	-0.1331
-4.2648 crispé	-0.1300
-4.2648 critique	-0.1314
-4.2648 critères	-0.1331
-4.2648 croient	-0.1329
-4.2648 croire	-0.1320
-3.9632 crois	-0.1280
-4.2648 croyances	-0.1331
-3.9632 cru	-0.2987
-4.2648 créa	-0.1263
-4.2648 créaient	-0.1239
-4.2648 créait	-0.1276
-3.9632 création	-0.2876
-3.9632 créativité	-0.2936
-3.6621 créer	-0.1978
-4.2648 créeront	-0.1331
-3.9632 créé	-0.1119
-4.2648 crête	-0.1179
-4.2648 cul	-0.1257
-4.2648 curiosité	-0.1259
-4.2648 curseur	-0.1329
-4.2648 cutanées	-0.1318
-4.2648 cv	-0.1308
-4.2648 cérébelleuse	-0.1331
-4.2648 cérébral	-0.1330
-3.7871 cérébrale	-0.1273
-4.2648 cérébraux	-0.1302
-3.9632 côté	-0.1330
-4.2648 côtés	-0.1295
-1.9461 d	-0.4155
-4.2648 dame	-0.1301
-3.9632 danger	-0.1214
-3.9632 dangereux	-0.1238
-1.9877 dans	-0.9565
-1.4621 de	-0.3907
-4.2648 debout	-0.1295
-3.9632 degré	-0.1178
-3.9632 degrés	-0.1207
-4.2648 demandai	-0.1179
-4.2648 demandaient	-0.1309
-4.2648 demandait	-0.1331
-3.6621 demande	-0.1124
-4.2648 demandent	-0.1179
-3.4861 demander	-0.2149
-4.2648 demanderai	-0.1281
-3.6621 demandé	-0.1146
-3.7871 demeure	-0.1310
-3.0089 depuis	-0.2095
-3.5652 dernier	-0.1274
-3.9632 derniers	-0.1299
-3.6621 dernière	-0.1276
-4.2648 dernièrement	-0.1257
-3.6621 derrière	-0.2036
-1.8968 des	-0.2779
-4.2648 descriptif	-0.1331
-4.2648 description	-0.1282
-3.7871 dessous	-0.1134
-3.9632 dessus	-0.1216
-4.2648 destination	-0.1308
-3.7871 destinée	-0.2285
-2.9855 deux	-0.2279
-3.3100 deuxième	-0.1236
-3.9632 deuxièmement	-0.1287
-3.4861 devais	-0.2391
-3.9632 devait	-0.1315
-3.9632 devant	-0.1188
-3.9632 devenait	-0.1331
-3.6621 devenir	-0.1222
-3.7871 devenu	-0.1167
-3.9632 devenue	-0.2998
-4.2648 devenues	-0.1179
-3.7871 devez	-0.1301
-4.2648 devienne	-0.1273
-4.2648 devient	-0.1331
-4.2648 devise	-0.1324
-3.7871 devoirs	-0.2384
-4.2648 devrai	-0.1309
-4.2648 devrais	-0.1331
-4.2648 devrait	-0.1319
-4.2648 devrons	-0.1315
-3.9632 diagnostic	-0.1302
-4.2648 diagnostiquée	-0.1295
-4.2648 diagnostiquées	-0.1314
-3.9632 dialogue	-0.1279
-4.2648 dictateurs	-0.1331
-3.3100 difficile	-0.1592
-3.5652 difficiles	-0.3339
-3.5652 difficulté	-0.0952
-3.1181 difficultés	-0.2373
-4.2648 diffusés	-0.1317
-3.2642 différence	-0.1685
-3.7871 différences	-0.1142
-3.6621 différent	-0.1114
-3.7871 différente	-0.1072
-3.4861 différentes	-0.1292
-3.6621 différents	-0.1330
-4.2648 dignement	-0.1286
-4.2648 dimension	-0.1331
-4.2648 diminuant	-0.1283
-3.7871 diminuer	-0.2225
-4.2648 diminué	-0.1321
-4.2648 diminuée	-0.1259
-4.2648 diminuées	-0.1283
-4.2648 diminués	-0.1330
-4.2648 diplégie	-0.1249
-3.9632 diplôme	-0.2984
-3.9632 diplômes	-0.1307
-4.2648 dira	-0.1331
-3.4191 dirais	-0.4316
-3.0338 dire	-0.1485
-3.9632 direct	-0.1202
-4.2648 directe	-0.1295
-4.2648 directement	-0.1295
-3.7871 directeur	-0.1096
-4.2648 direction	-0.1329
-3.5652 dires	-0.1294
-4.2648 diront	-0.1281
-3.6621 dis	-0.1135
-3.9632 disaient	-0.1299
-3.7871 disait	-0.1236
-3.4861 disant	-0.2286
-4.2648 discours	-0.1314
-4.2648 discrimination	-0.1330
-4.2648 discussion	-0.1321
-4.2648 discussions	-0.1259
-4.2648 discutent	-0.1295
-4.2648 discuter	-0.1255
-3.2228 disent	-0.3783
-4.2648 disons	-0.1309
-3.9632 disparaissent	-0.3006
-3.9632 disparait	-0.1305
-4.2648 disparaît	-0.1303
-4.2648 disparition	-0.1276
-4.2648 disparu	-0.1317
-4.2648 disponibilités	-0.1259
-4.2648 dispositif	-0.1331
-4.2648 disposition	-0.1179
-3.9632 distance	-0.1318
-4.2648 distantes	-0.1259
-4.2648 distaux	-0.1331
-4.2648 distinguer	-0.1249
-4.2648 distraction	-0.1308
-3.0881 dit	-0.2147
-4.2648 dite	-0.1330
-4.2648 dites	-0.1331
-3.9632 divers	-0.1330
-3.9632 diverses	-0.1327
-4.2648 dix	-0.1330
-4.2648 docteur	-0.1273
-3.4861 doctorat	-0.1703
-4.2648 document	-0.1331
-3.3611 dois	-0.1243
-3.2228 doit	-0.1557
-3.2228 doivent	-0.3366
-3.0338 domaine	-0.1711
-3.7871 domaines	-0.1134
-3.5652 domicile	-0.1103
-4.2648 domination	-0.1329
-4.2648 dominent	-0.1327
-3.9632 dominer	-0.1246
-4.2648 dommages	-0.1255
-4.2648 don	-0.1179
-2.8492 donc	-0.2937
-3.9632 donnaient	-0.3015
-3.6621 donne	-0.1088
-3.1181 donner	-0.1765
-3.4191 donné	-0.1562
-4.2648 données	-0.1325
-4.2648 dons	-0.1324
-3.7871 dont	-0.1297
-4.2648 dopant	-0.1257
-4.2648 dorian	-0.1330
-3.9632 dos	-0.1170
-3.4191 dossier	-0.1465
-4.2648 dossiers	-0.1257
-3.9632 doucement	-0.1259
-4.2648 douche	-0.1331
-4.2648 douleur	-0.1276
-3.9632 douloureux	-0.1241
-4.2648 draguer	-0.1318
-4.2648 dresse	-0.1249
-4.2648 drive	-0.1312
-4.2648 drogués	-0.1179
-3.6621 droit	-0.1841
-3.7871 droits	-0.1154
-4.2648 drôle	-0.1273
-3.6621 ds	-0.2013
-4.2648 dsk	-0.1314
-2.3348 du	-0.2830
-3.9632 due	-0.2952
-4.2648 dur	-0.1282
-3.1503 durant	-0.1415
-4.2648 dus	-0.1255
-4.2648 dut	-0.1249
-3.9632 dysarthrie	-0.1324
-4.2648 dyskinétiques	-0.1314
-4.2648 dystonique	-0.1325
-4.2648 dystoniques	-0.1179
-4.2648 dystrophies	-0.1331
-4.2648 dès	-0.1281
-4.2648 débat	-0.1331
-4.2648 débordants	-0.1179
-3.9632 débrouiller	-0.1256
-4.2648 débrouillée	-0.1257
-3.3100 début	-0.2597
-4.2648 débute	-0.1307
-4.2648 décembre	-0.1331
-4.2648 décente	-0.1325
-4.2648 décevoir	-0.1312
-4.2648 décida	-0.1179
-3.4191 décidé	-0.2453
-4.2648 déclaré	-0.1309
-4.2648 décor	-0.1259
-4.2648 découpes	-0.1331
-3.9632 décourage	-0.1322
-3.5652 découvert	-0.1736
-4.2648 découvre	-0.1273
-3.4191 découvrir	-0.0814
-4.2648 décrire	-0.1284
-4.2648 décrit	-0.1273
-4.2648 défaut	-0.1303
-3.7871 défauts	-0.1309
-4.2648 déficit	-0.1290
-4.2648 défirent	-0.1304
-4.2648 défoncer	-0.1330
-3.9632 déformés	-0.1302
-4.2648 dégoutée	-0.1312
-4.2648 dégradée	-0.1331
-4.2648 dégénérative	-0.1331
-4.2648 dégénérescences	-0.1331
-3.6621 déjà	-0.1269
-4.2648 délires	-0.1320
-3.7871 démarche	-0.1249
-3.9632 démarches	-0.1163
-4.2648 démontaient	-0.1300
-4.2648 démontré	-0.1281
-4.2648 démunis	-0.1249
-3.7871 déménagement	-0.1147
-4.2648 dénoncer	-0.1315
-3.7871 départ	-0.1241
-4.2648 dépassaient	-0.1330
-3.6621 dépasser	-0.1173
-4.2648 dépend	-0.1311
-4.2648 dépendre	-0.1282
-4.2648 dépense	-0.1320
-3.5652 dépenses	-0.1079
-4.2648 dépensons	-0.1328
-3.7871 déplacer	-0.1239
-4.2648 déposent	-0.1273
-4.2648 dépourvu	-0.1179
-4.2648 dérangera	-0.1327
-4.2648 dérisoires	-0.1312
-4.2648 dérogations	-0.1257
-4.2648 déroulement	-0.1276
-4.2648 déshydratation	-0.1325
-4.2648 désire	-0.1325
-4.2648 désiré	-0.1257
-4.2648 détails	-0.1257
-4.2648 détend	-0.1331
-4.2648 détendre	-0.1300
-4.2648 détendu	-0.1312
-4.2648 déterminant	-0.1257
-4.2648 déterminer	-0.1315
-4.2648 dévastateur	-0.1314
-4.2648 développe	-0.1286
-3.9632 développement	-0.1330
-3.9632 développer	-0.1292
-4.2648 développé	-0.1330
-3.3100 dû	-0.2233
-3.9632 e	-0.1170
-3.6621 eau	-0.1159
-4.2648 ecrire	-0.1315
-4.2648 effacé	-0.1239
-4.2648 effectue	-0.1281
-3.9632 effectuer	-0.1175
-3.9632 effectué	-0.1255
-3.7871 effet	-0.1211
-3.6621 effort	-0.1892
-3.9632 efforts	-0.1249
-4.2648 eh	-0.1331
-2.5652 elle	-0.2593
-2.9855 elles	-0.2138
-4.2648 embarquement	-0.1312
-3.9632 embauche	-0.2957
-4.2648 embaucher	-0.1328
-4.2648 emmener	-0.1328
-4.2648 emplacement	-0.1276
-3.7871 emploi	-0.1151
-3.7871 emplois	-0.1288
-4.2648 employé	-0.1276
-4.2648 empêcher	-0.1282
-4.2648 empêché	-0.1282
-2.0212 en	-0.2354
-4.2648 encadre	-0.1259
-4.2648 enceins	-0.1331
-2.8328 encore	-0.2345
-4.2648 endommagé	-0.1284
-4.2648 endommagée	-0.1312
-3.7871 enfance	-0.1247
-3.1503 enfant	-0.1103
-2.9025 enfants	-0.1675
-3.9632 enfer	-0.1326
-4.2648 enfermé	-0.1314
-4.2648 enfin	-0.1284
-4.2648 engendre	-0.1330
-4.2648 ennemie	-0.1309
-4.2648 ennui	-0.1331
-3.9632 enseignant	-0.1291
-3.9632 enseignantes	-0.3016
-3.9632 enseignants	-0.1316
-3.9632 enseignement	-0.3028
-4.2648 enseigner	-0.1255
-3.6621 ensemble	-0.1107
-3.4861 ensuite	-0.1499
-4.2648 entendrais	-0.1308
-3.5652 entendre	-0.1234
-3.7871 entends	-0.1148
-4.2648 entendu	-0.1317
-4.2648 entière	-0.1331
-3.7871 entourage	-0.1293
-4.2648 entoure	-0.1331
-4.2648 entouré	-0.1179
-4.2648 entrait	-0.1286
-4.2648 entraînent	-0.1272
-3.9632 entraîner	-0.1213
-3.2642 entre	-0.1643
-3.9632 entreprise	-0.1258
-3.5652 entrer	-0.1817
-4.2648 entrouvertes	-0.1301
-4.2648 entré	-0.1331
-3.6621 entrée	-0.1878
-4.2648 envahissait	-0.1286
-3.1850 envers	-0.2839
-3.6621 envie	-0.6762
-4.2648 envier	-0.1272
-3.6621 envies	-0.1975
-3.4861 environ	-0.1825
-4.2648 envoie	-0.1249
-4.2648 envole	-0.1257
-4.2648 envolent	-0.1317
-3.9632 envoyer	-0.1215
-4.2648 ergologue	-0.1276
-4.2648 ergothérapeute	-0.1331
-4.2648 ergothérapie	-0.1283
-4.2648 erreur	-0.1273
-3.3611 es	-0.2458
-4.2648 escient	-0.1259
-4.2648 espoir	-0.1253
-3.7871 esprit	-0.1278
-3.6621 esprits	-0.3113
-3.4861 espère	-0.2296
-3.7871 espérant	-0.1256
-4.2648 espérer	-0.1281
-3.9632 essaient	-0.2979
-3.6621 essayer	-0.2967
-4.2648 essayez	-0.1179
-3.9632 essayé	-0.2876
-4.2648 essentiel	-0.1179
-1.9025 est	-0.2935
-4.2648 estelle	-0.1300
-1.7856 et	-0.2296
-2.6731 eu	-0.2642
-4.2648 eues	-0.1239
-3.2228 euros	-0.1246
-2.9855 eux	-0.1515
-4.2648 evidemment	-0.1307
-3.5652 ex	-0.1148
-3.9632 examens	-0.3028
-4.2648 examiner	-0.1284
-4.2648 excel	-0.1318
-4.2648 exclure	-0.1329
-4.2648 exclusif	-0.1301
-3.9632 exemplaire	-0.1265
-4.2648 exemplarité	-0.1311
-3.2642 exemple	-0.1029
-4.2648 exemples	-0.1179
-4.2648 exercice	-0.1329
-3.7871 exercices	-0.1251
-4.2648 existais	-0.1329
-3.7871 existe	-0.1156
-3.7871 existence	-0.1181
-4.2648 explications	-0.1259
-4.2648 expliquai	-0.1319
-4.2648 explique	-0.1286
-4.2648 expliquent	-0.1281
-3.4861 expliquer	-0.2278
-4.2648 expliqué	-0.1331
-4.2648 exploitent	-0.1249
-4.2648 exploits	-0.1286
-4.2648 explosion	-0.1282
-4.2648 exposés	-0.1255
-4.2648 expression	-0.1308
-3.2642 exprimer	-0.1725
-3.2228 expérience	-0.1779
-3.6621 expériences	-0.1920
-4.2648 extrême	-0.1331
-3.9632 extérieur	-0.1281
-4.2648 extérieure	-0.1330
-4.2648 exécution	-0.1276
-3.6621 face	-0.3059
-3.2642 facile	-0.3515
-3.4191 facilement	-0.0941
-4.2648 faciles	-0.1255
-4.2648 facilité	-0.1304
-4.2648 facteurs	-0.1179
-4.2648 facturé	-0.1255
-3.5652 faible	-0.2711
-2.3197 faire	-0.2260
-3.4861 fais	-0.1138
-4.2648 faisable	-0.1295
-4.2648 faisaient	-0.1329
-3.5652 faisais	-0.1786
-3.7871 faisait	-0.1274
-2.5160 fait	-0.1412
-3.6621 faites	-0.1143
-3.6621 faits	-0.2002
-3.9632 fallait	-0.1178
-4.2648 familiale	-0.1286
-4.2648 familiaux	-0.1307
-4.2648 familièrement	-0.1263
-2.9420 famille	-0.1799
-4.2648 familles	-0.1259
-3.9632 fardeau	-0.1312
-4.2648 farfelu	-0.1300
-4.2648 fassent	-0.1276
-4.2648 fauchant	-0.1259
-4.2648 faudrait	-0.1331
-2.7591 faut	-0.3012
-4.2648 faute	-0.1311
-3.1850 fauteuil	-0.1383
-4.2648 faux	-0.1239
-4.2648 favorable	-0.1323
-4.2648 favorisait	-0.1284
-4.2648 favorise	-0.1249
-3.4191 façon	-0.3124
-3.9632 femme	-0.1293
-3.9632 femmes	-0.1248
-3.9632 ferait	-0.1283
-4.2648 ferme	-0.1281
-4.2648 fermement	-0.1263
-4.2648 fermes	-0.1330
-4.2648 fermé	-0.1273
-4.2648 fessai	-0.1300
-4.2648 fessaient	-0.1276
-3.9632 fessait	-0.1275
-3.9632 fessant	-0.1158
-4.2648 fiancée	-0.1257
-3.9632 fierté	-0.1252
-3.9632 figure	-0.1248
-4.2648 fille	-0.1179
-4.2648 film	-0.1282
-4.2648 fils	-0.1179
-3.6621 fin	-0.1920
-3.6621 final	-0.1269
-3.5652 finalement	-0.1162
-3.9632 finance	-0.2969
-4.2648 financement	-0.1321
-3.6621 financements	-0.1925
-3.9632 financer	-0.1193
-4.2648 financiers	-0.1273
-4.2648 financièrement	-0.1308
-4.2648 financières	-0.1331
-4.2648 fini	-0.1300
-3.6621 finir	-0.1226
-4.2648 finirai	-0.1326
-4.2648 fins	-0.1249
-4.2648 fixe	-0.1331
-4.2648 fixés	-0.1259
-4.2648 flotteurs	-0.1273
-4.2648 flyers	-0.1331
-4.2648 foi	-0.1276
-3.1181 fois	-0.1805
-4.2648 folie	-0.1179
-3.9632 fonce	-0.1291
-4.2648 foncer	-0.1328
-3.7871 fonction	-0.1274
-4.2648 fonctionnelle	-0.1283
-4.2648 fonctionner	-0.1327
-3.3100 font	-0.1805
-3.7871 foot	-0.1248
-4.2648 football	-0.1273
-4.2648 footballer	-0.1331
-3.5652 force	-0.2402
-3.9632 forces	-0.1227
-3.6621 forcément	-0.1175
-3.9632 formation	-0.1286
-3.9632 formations	-0.1237
-4.2648 forme	-0.1330
-4.2648 forment	-0.1259
-4.2648 former	-0.1328
-3.6621 formes	-0.2095
-4.2648 formidable	-0.1290
-4.2648 formé	-0.1257
-3.9632 formées	-0.2955
-3.7871 fort	-0.2311
-4.2648 forte	-0.1331
-3.5652 fortement	-0.1180
-4.2648 forts	-0.1239
-4.2648 fou	-0.1273
-4.2648 fournir	-0.1273
-4.2648 fournisseur	-0.1327
-4.2648 foutent	-0.1312
-4.2648 foutre	-0.1239
-4.2648 frais	-0.1282
-3.5652 france	-0.1714
-3.7871 français	-0.1285
-3.9632 frappé	-0.1241
-4.2648 frontière	-0.1257
-3.5652 frère	-0.1090
-3.9632 frères	-0.1215
-4.2648 frédéric	-0.1331
-3.9632 fréquemment	-0.2969
-4.2648 fréquente	-0.1325
-3.9632 fréquenter	-0.1215
-3.9632 fréquentes	-0.1283
-4.2648 fur	-0.1255
-4.2648 fut	-0.1330
-3.6621 futur	-0.1135
-3.9632 future	-0.1330
-4.2648 futures	-0.1179
-4.2648 futurs	-0.1331
-4.2648 février	-0.1331
-4.2648 fête	-0.1312
-4.2648 gagnait	-0.1328
-3.5652 gagné	-0.1675
-3.9632 garage	-0.1259
-4.2648 garde	-0.1272
-3.9632 garder	-0.1297
-4.2648 gardé	-0.1284
-4.2648 garçons	-0.1263
-3.9632 gay	-0.1303
-4.2648 genres	-0.1259
-3.0089 gens	-0.2995
-4.2648 gentiment	-0.1281
-4.2648 gestes	-0.1331
-4.2648 gesticulant	-0.1286
-3.9632 gifle	-0.2955
-3.7871 gillard	-0.1177
-4.2648 global	-0.1331
-4.2648 gloire	-0.1282
-3.9632 gothiques	-0.1259
-3.7871 gouvernement	-0.1244
-3.2642 grand	-0.1607
-3.0601 grande	-0.3223
-3.6621 grandes	-0.2075
-4.2648 grandi	-0.1286
-3.9632 grandir	-0.1214
-3.6621 grands	-0.3020
-4.2648 gratuitement	-0.1315
-3.9632 grave	-0.1159
-3.9632 gravement	-0.1251
-4.2648 graves	-0.1249
-4.2648 gravité	-0.1325
-4.2648 gravure	-0.1259
-4.2648 gris	-0.1331
-3.9632 gros	-0.1281
-3.9632 groupe	-0.1118
-4.2648 groupés	-0.1290
-3.1503 grâce	-1.1058
-4.2648 guerrier	-0.1330
-4.2648 guerriers	-0.1179
-4.2648 guide	-0.1314
-4.2648 guider	-0.1327
-4.2648 guillaume	-0.1330
-4.2648 guérir	-0.1330
-3.5652 général	-0.1708
-4.2648 généreux	-0.1239
-3.9632 gérer	-0.1253
-4.2648 gênant	-0.1282
-3.9632 gêner	-0.1211
-4.2648 h	-0.1330
-4.2648 habillage	-0.1259
-4.2648 habille	-0.1308
-3.5652 habitude	-0.4883
-3.7871 habitudes	-0.1259
-3.9632 habituel	-0.1313
-4.2648 habituellement	-0.1284
-3.9632 habituelles	-0.1246
-3.7871 habituer	-0.1090
-4.2648 habitué	-0.1255
-4.2648 habituées	-0.1255
-4.2648 habitués	-0.1255
-4.2648 handball	-0.1283
-2.3247 handicap	-0.2184
-4.2648 handicapante	-0.1259
-3.7871 handicaps	-0.1324
-2.9632 handicapé	-0.1316
-3.1850 handicapée	-0.1011
-2.8840 handicapées	-0.1284
-3.1850 handicapés	-0.0955
-3.5652 handisport	-0.1849
-3.9632 hasard	-0.1259
-4.2648 haut	-0.1331
-4.2648 haute	-0.1290
-3.9632 hauteur	-0.1175
-4.2648 heure	-0.1290
-3.5652 heures	-0.1075
-3.9632 heureusement	-0.1277
-3.4191 heureux	-0.1004
-4.2648 heurtai	-0.1321
-4.2648 hippel	-0.1331
-3.3611 histoire	-0.1910
-3.9632 histoires	-0.2993
-4.2648 hiver	-0.1284
-4.2648 hommage	-0.1323
-3.2228 homme	-0.1059
-3.7871 hommes	-0.1328
-4.2648 honnêteté	-0.1239
-3.7871 honte	-0.2231
-4.2648 hop	-0.1326
-3.7871 horaire	-0.1291
-4.2648 horaires	-0.1257
-4.2648 horizon	-0.1328
-3.9632 horreur	-0.1268
-4.2648 horrible	-0.1257
-3.7871 hors	-0.2233
-4.2648 hublot	-0.1328
-3.1181 hui	-0.3153
-3.6621 humain	-0.1266
-3.6621 humaine	-0.1996
-3.9632 humains	-0.1253
-3.7871 humour	-0.1238
-4.2648 hyperactivité	-0.1314
-4.2648 hyperréflexie	-0.1259
-4.2648 hypertonicité	-0.1330
-4.2648 hypertonie	-0.1331
-4.2648 hyperuricémie	-0.1331
-4.2648 hypothèse	-0.1239
-4.2648 hypotonie	-0.1318
-3.9632 hypotrophiques	-0.1217
-4.2648 hé	-0.1331
-3.6621 hémiplégie	-0.2023
-4.2648 héréditaires	-0.1331
-3.9632 hésitation	-0.1248
-4.2648 ici	-0.1290
-3.6621 ictère	-0.2084
-3.9632 identifier	-0.1176
-4.2648 identifiés	-0.1328
-3.9632 identité	-0.1291
-3.7871 idéal	-0.2308
-3.7871 idée	-0.1269
-3.9632 idées	-0.1307
-4.2648 ignorent	-0.1330
-4.2648 ignoré	-0.1284
-2.2730 il	-0.7560
-4.2648 illusion	-0.1303
-4.2648 illustrations	-0.1286
-2.4861 ils	-0.2578
-3.9632 image	-0.1178
-4.2648 images	-0.1276
-4.2648 imaginai	-0.1314
-3.6621 imagination	-0.1106
-3.9632 imagine	-0.1212
-3.7871 imaginer	-0.2294
-3.6621 imaginez	-0.3110
-4.2648 imaginé	-0.1273
-3.2228 imc	-0.1146
-3.7871 immense	-0.1237
-3.9632 immeuble	-0.3000
-4.2648 imperturbable	-0.1284
-3.6621 importance	-0.1944
-3.1850 important	-0.1990
-3.9632 importante	-0.1228
-3.3100 impossible	-0.0870
-4.2648 impossibles	-0.1255
-4.2648 imposé	-0.1312
-3.7871 impression	-0.1209
-4.2648 improductifs	-0.1312
-4.2648 incidents	-0.1331
-4.2648 incompatibles	-0.1324
-3.7871 inconnu	-0.1206
-3.9632 inconnues	-0.1244
-4.2648 incontestablement	-0.1300
-3.7871 inconvénient	-0.1276
-4.2648 inconvénients	-0.1239
-4.2648 incoordination	-0.1330
-4.2648 indirectement	-0.1319
-3.9632 indispensables	-0.3013
-3.9632 individu	-0.1293
-4.2648 individus	-0.1308
-3.9632 indépendance	-0.1270
-3.9632 infantile	-0.1218
-4.2648 infection	-0.1272
-4.2648 infiniment	-0.1257
-4.2648 infirme	-0.1330
-4.2648 infirmité	-0.1330
-3.9632 infographie	-0.1229
-4.2648 infographiste	-0.1259
-4.2648 information	-0.1290
-3.9632 informations	-0.1249
-3.1181 informatique	-0.1642
-4.2648 informatisées	-0.1307
-4.2648 inhabituelles	-0.1259
-4.2648 injustice	-0.1308
-4.2648 injustices	-0.1259
-4.2648 innovation	-0.1317
-4.2648 inspiré	-0.1325
-4.2648 instabilité	-0.1272
-4.2648 installations	-0.1327
-3.9632 installe	-0.1217
-4.2648 installer	-0.1286
-4.2648 instant	-0.1290
-4.2648 institutrice	-0.1179
-3.7871 institutrices	-0.1266
-4.2648 insuffisante	-0.1328
-4.2648 insuffisantes	-0.1328
-4.2648 insuffisants	-0.1328
-4.2648 intellectuelle	-0.1329
-4.2648 intellectuels	-0.1300
-4.2648 intelligence	-0.1329
-3.9632 intelligentes	-0.2955
-3.9632 intense	-0.1298
-4.2648 intention	-0.1282
-4.2648 intentionnel	-0.1331
-4.2648 interdisant	-0.1263
-4.2648 interdit	-0.1300
-4.2648 interdits	-0.1312
-3.4861 internet	-0.1220
-4.2648 interrogations	-0.1308
-3.7871 intervenante	-0.1141
-3.4191 intervenantes	-0.2129
-4.2648 intervenants	-0.1329
-3.5652 interventions	-0.1185
-4.2648 interview	-0.1239
-3.9632 intégration	-0.1155
-3.9632 intéressant	-0.1104
-3.9632 intéressent	-0.1185
-3.6621 intéressé	-0.3059
-4.2648 intéressées	-0.1326
-4.2648 invalidante	-0.1272
-3.7871 invalides	-0.1265
-4.2648 invitations	-0.1331
-3.9632 inviter	-0.1217
-3.9632 invité	-0.1247
-3.7871 involontaires	-0.2356
-4.2648 inégalité	-0.1286
-4.2648 irm	-0.1330
-4.2648 irresponsable	-0.1328
-3.5652 iut	-0.2418
-1.8733 j	-1.0259
-2.9855 jamais	-0.1350
-3.9632 jambes	-0.1214
-3.9632 janvier	-0.1330
-1.6765 je	-0.7433
-3.6621 jeu	-0.1125
-3.9632 jeune	-0.1327
-3.4861 jeunes	-0.2188
-3.9632 jeux	-0.1328
-3.4861 joie	-0.1574
-4.2648 joies	-0.1308
-4.2648 joins	-0.1283
-3.9632 jouai	-0.1222
-4.2648 jouaient	-0.1308
-4.2648 jouait	-0.1255
-4.2648 jouent	-0.1273
-4.2648 jouer	-0.1257
-4.2648 jouera	-0.1308
-3.9632 joues	-0.3006
-4.2648 joueur	-0.1179
-4.2648 joueurs	-0.1324
-2.9632 jour	-0.1296
-4.2648 journalières	-0.1273
-3.9632 journée	-0.1326
-3.6621 journées	-0.1190
-3.0601 jours	-0.1353
-4.2648 joyeuse	-0.1324
-4.2648 joyeuses	-0.1321
-4.2648 joyeux	-0.1295
-3.9632 joystick	-0.1178
-4.2648 jugeaient	-0.1304
-4.2648 jugement	-0.1311
-4.2648 jugements	-0.1259
-4.2648 juger	-0.1320
-4.2648 jugez	-0.1283
-4.2648 juillet	-0.1331
-4.2648 juin	-0.1331
-3.3100 jusqu	-0.8966
-3.2642 juste	-0.2034
-4.2648 justifier	-0.1304
-3.9632 kaligrav	-0.1267
-3.7871 kiné	-0.1217
-1.9589 l	-0.2913
-1.7497 la	-0.3507
-4.2648 lacunes	-0.1290
-4.2648 laid	-0.1303
-3.7871 laisse	-0.1216
-3.6621 laisser	-0.1244
-4.2648 laquelle	-0.1309
-4.2648 large	-0.1331
-4.2648 laser	-0.1331
-4.2648 lave	-0.1259
-3.9632 laver	-0.1274
-1.8078 le	-0.3583
-4.2648 lelogiciel	-0.1300
-3.9632 lent	-0.2955
-4.2648 lente	-0.1259
-4.2648 lents	-0.1331
-3.7871 lequel	-0.2235
-1.7276 les	-0.3305
-4.2648 lesch	-0.1331
-3.9632 lesquels	-0.1249
-3.7871 lettre	-0.1330
-3.9632 lettres	-0.1308
-4.2648 leucodystrophie	-0.1331
-2.5083 leur	-0.2016
-3.1503 leurs	-0.1314
-4.2648 levé	-0.1273
-4.2648 levés	-0.1249
-3.5652 leçon	-0.4913
-4.2648 leçons	-0.1179
-3.7871 liberté	-0.1204
-4.2648 libre	-0.1328
-4.2648 librement	-0.1290
-4.2648 libres	-0.1273
-3.7871 lien	-0.1288
-3.6621 liens	-0.2066
-3.9632 lieu	-0.2876
-4.2648 lieux	-0.1330
-4.2648 lille	-0.1273
-4.2648 limite	-0.1276
-3.9632 limites	-0.1330
-4.2648 limité	-0.1328
-4.2648 limitée	-0.1255
-4.2648 limités	-0.1308
-4.2648 lindau	-0.1318
-4.2648 linguaux	-0.1259
-3.9632 lionne	-0.1257
-4.2648 liraient	-0.1284
-4.2648 lire	-0.1321
-4.2648 liront	-0.1284
-4.2648 lisant	-0.1304
-4.2648 lisent	-0.1300
-4.2648 lisez	-0.1300
-3.9632 lisible	-0.1238
-4.2648 lisibles	-0.1255
-4.2648 lit	-0.1259
-4.2648 live	-0.1239
-2.7327 livre	-0.2693
-3.9632 livres	-0.1310
-3.9632 liés	-0.1231
-4.2648 local	-0.1255
-3.9632 location	-0.1259
-4.2648 logement	-0.1257
-3.7871 logements	-0.2383
-4.2648 logicielle	-0.1331
-3.7871 logiciels	-0.1125
-3.9632 logique	-0.1286
-4.2648 logos	-0.1259
-3.4861 loin	-0.0991
-3.7871 long	-0.1153
-4.2648 longs	-0.1331
-4.2648 longtemps	-0.1331
-3.6621 longue	-0.1131
-3.6621 lorsqu	-0.1992
-3.1850 lorsque	-0.2854
-3.9632 louer	-0.2970
-3.5652 lourd	-0.1842
-4.2648 lourdement	-0.1325
-3.6621 lu	-0.2018
-3.0881 lui	-0.1588
-4.2648 lumineuse	-0.1257
-4.2648 lumière	-0.1301
-3.9632 lycée	-0.1269
-3.3611 là	-0.1021
-3.9632 légèrement	-0.1316
-4.2648 lésion	-0.1330
-2.2865 m	-0.4582
-2.1469 ma	-0.5723
-4.2648 macadam	-0.1259
-3.9632 magasin	-0.1317
-3.9632 magasins	-0.1257
-3.7871 magie	-0.1172
-4.2648 magique	-0.1286
-3.9632 magiques	-0.1271
-4.2648 magnifique	-0.1315
-4.2648 magnifiques	-0.1330
-3.6621 mai	-0.1258
-4.2648 main	-0.1283
-3.9632 mains	-0.1179
-4.2648 maintenance	-0.1255
-3.6621 maintenant	-0.1294
-4.2648 maintien	-0.1179
-2.4317 mais	-0.1716
-3.3100 maison	-0.1160
-4.2648 maisons	-0.1328
-3.5652 majorité	-0.2610
-3.4191 mal	-0.2143
-4.2648 malade	-0.1259
-3.9632 malades	-0.1328
-3.6621 maladie	-0.1945
-4.2648 malcom	-0.1331
-4.2648 maleki	-0.1259
-3.3611 malgré	-0.1970
-3.5652 malheureusement	-0.1054
-3.9632 malheureux	-0.1250
-3.9632 malheurs	-0.1291
-4.2648 manette	-0.1179
-4.2648 mange	-0.1281
-4.2648 manger	-0.1327
-4.2648 manipulations	-0.1330
-4.2648 manipule	-0.1255
-3.7871 manipuler	-0.1178
-4.2648 manipulées	-0.1286
-3.4861 manière	-0.1514
-4.2648 manquaient	-0.1327
-3.9632 manque	-0.1275
-4.2648 manuel	-0.1257
-4.2648 marche	-0.1314
-3.7871 marcher	-0.1223
-4.2648 marché	-0.1255
-4.2648 mardis	-0.1257
-3.7871 mariage	-0.2330
-3.6621 marie	-0.3136
-4.2648 mascotte	-0.1179
-4.2648 master	-0.1273
-4.2648 match	-0.1179
-4.2648 matchs	-0.1314
-4.2648 maternelle	-0.1303
-4.2648 maternels	-0.1257
-3.9632 mathématique	-0.1257
-4.2648 matin	-0.1290
-3.4861 matériel	-0.1185
-3.7871 maubeuge	-0.1295
-4.2648 mauvais	-0.1331
-3.9632 mauvaise	-0.1330
-4.2648 mauvaises	-0.1331
-3.9632 max	-0.1236
-3.9632 maximum	-0.1175
-3.9632 maîtres	-0.3028
-4.2648 maîtresses	-0.1331
-2.0628 me	-0.2428
-3.7871 meilleur	-0.1330
-3.6621 meilleure	-0.2018
-3.5652 membres	-0.1081
-4.2648 mener	-0.1272
-4.2648 mental	-0.1307
-3.9632 mentale	-0.1330
-4.2648 mentalité	-0.1324
-4.2648 mentaux	-0.1315
-4.2648 menu	-0.1179
-3.3611 merci	-0.9628
-2.3504 mes	-0.3397
-3.4191 message	-0.1637
-3.9632 mesure	-0.1162
-3.9632 mesures	-0.1331
-3.9632 met	-0.3006
-4.2648 mets	-0.1284
-4.2648 mettait	-0.1255
-3.3611 mettre	-0.2396
-4.2648 meuble	-0.1304
-4.2648 micro	-0.1331
-4.2648 midi	-0.1329
-3.9632 mien	-0.1165
-4.2648 mienne	-0.1303
-3.4861 miens	-0.1237
-3.2642 mieux	-0.1111
-4.2648 milieu	-0.1276
-4.2648 milles	-0.1329
-4.2648 milliards	-0.1282
-3.7871 millions	-0.1041
-4.2648 mince	-0.1325
-3.7871 minimum	-0.1327
-4.2648 ministres	-0.1328
-4.2648 ministère	-0.1257
-3.6621 minorité	-0.1218
-3.7871 minorités	-0.1277
-4.2648 minute	-0.1327
-3.7871 minutes	-0.1307
-4.2648 miracles	-0.1315
-3.9632 miroir	-0.1163
-3.3100 mis	-0.1428
-3.9632 mise	-0.2987
-4.2648 mixte	-0.1249
-3.9632 mixtes	-0.3012
-4.2648 mobilisé	-0.1257
-4.2648 mobilité	-0.1331
-3.9632 mode	-0.2876
-4.2648 modifier	-0.1331
-3.9632 modèle	-0.1252
-2.3297 moi	-0.2616
-3.1181 moins	-0.1141
-2.9855 mois	-0.2704
-3.4191 moment	-0.1516
-3.6621 moments	-0.2093
-1.9697 mon	-0.4321
-2.4934 monde	-0.1877
-4.2648 mondes	-0.1315
-3.9632 monsieur	-0.1308
-4.2648 monstres	-0.1315
-4.2648 montait	-0.1314
-3.9632 monter	-0.2984
-3.9632 montre	-0.1277
-4.2648 montrent	-0.1272
-3.1850 montrer	-0.2057
-3.9632 montré	-0.1251
-4.2648 montée	-0.1179
-4.2648 monétaire	-0.1330
-3.9632 moquent	-0.1121
-4.2648 moqueurs	-0.1273
-3.6621 moral	-0.1102
-3.9632 mort	-0.1155
-3.7871 mot	-0.1310
-3.5652 moteur	-0.1211
-3.6621 moteurs	-0.1249
-4.2648 motivait	-0.1323
-3.4861 motivation	-0.4035
-4.2648 motivations	-0.1257
-4.2648 motivés	-0.1272
-4.2648 motoneurone	-0.1331
-3.6621 motrice	-0.1189
-3.3100 mots	-0.1228
-4.2648 mourir	-0.1328
-4.2648 mourrai	-0.1290
-3.1181 mouvements	-0.1306
-3.4861 moyen	-0.2170
-4.2648 moyenne	-0.1328
-3.9632 moyens	-0.2955
-4.2648 moyenâgeuses	-0.1239
-4.2648 mucopolysaccharidoses	-0.1282
-3.9632 muet	-0.1256
-4.2648 multicontrol	-0.1329
-4.2648 multitude	-0.1179
-4.2648 municipale	-0.1308
-3.9632 murir	-0.2957
-3.9632 muscles	-0.1313
-3.6621 musculaire	-0.1198
-4.2648 musculaires	-0.1300
-3.7871 musique	-0.1131
-4.2648 musulmane	-0.1308
-4.2648 myopathie	-0.1304
-4.2648 mâture	-0.1257
-2.9632 mère	-0.1180
-3.9632 mères	-0.1257
-3.3100 médecin	-0.1793
-4.2648 médias	-0.1323
-3.9632 méfiance	-0.1272
-4.2648 mémoire	-0.1302
-4.2648 mémoriser	-0.1283
-3.9632 méningite	-0.1258
-4.2648 méprisent	-0.1249
-4.2648 mérite	-0.1179
-4.2648 métaboliques	-0.1328
-4.2648 métabolisme	-0.1276
-4.2648 métachromatique	-0.1259
-3.6621 méthode	-0.2024
-4.2648 méthodes	-0.1257
-2.6960 même	-0.1743
-3.4861 mêmes	-0.1300
-2.1743 n	-0.6447
-3.9632 nageurs	-0.1301
-3.4191 naissance	-0.1046
-4.2648 natale	-0.1311
-3.9632 nature	-0.1324
-3.9632 naturel	-0.1209
-4.2648 naturelle	-0.1295
-3.9632 naturellement	-0.1165
-4.2648 naturelles	-0.1257
-4.2648 nazisme	-0.1239
-4.2648 naître	-0.1328
-2.1503 ne	-0.3436
-3.9632 nettement	-0.1328
-4.2648 neurofibromatose	-0.1272
-4.2648 neurologique	-0.1249
-4.2648 neurologiques	-0.1331
-4.2648 neurones	-0.1255
-3.6621 neutre	-0.2006
-3.0338 ni	-0.1396
-4.2648 niqué	-0.1315
-3.2228 niveau	-0.2248
-3.7871 nom	-0.1000
-3.6621 nombre	-0.2940
-3.6621 nombreuses	-0.2004
-3.5652 nombreux	-0.1926
-4.2648 nomme	-0.1331
-3.1850 non	-0.2049
-4.2648 nordiques	-0.1327
-3.5652 normal	-0.1788
-3.3611 normale	-0.0968
-3.6621 normalement	-0.1087
-3.9632 normales	-0.1246
-3.6621 normalité	-0.1288
-4.2648 normalités	-0.1314
-3.7871 normes	-0.1271
-3.3611 nos	-0.1321
-4.2648 note	-0.1328
-3.7871 notes	-0.2245
-4.2648 notion	-0.1179
-2.9855 notre	-0.1685
-4.2648 nourrissent	-0.1312
-4.2648 nourrit	-0.1308
-4.2648 nourriture	-0.1259
-2.6514 nous	-0.1710
-3.4861 nouveau	-0.1147
-4.2648 nouveaux	-0.1329
-4.2648 nouvel	-0.1331
-3.5652 nouvelle	-0.1903
-3.2228 nouvelles	-0.3859
-4.2648 noyaux	-0.1331
-4.2648 noël	-0.1331
-3.9632 nucléaire	-0.1273
-4.2648 nuit	-0.1257
-4.2648 nuits	-0.1255
-4.2648 nul	-0.1286
-4.2648 nyhan	-0.1276
-3.6621 né	-0.1081
-4.2648 néant	-0.1276
-4.2648 nécessaire	-0.1283
-3.7871 nécessaires	-0.1242
-4.2648 nécessitent	-0.1273
-3.6621 négatif	-0.1991
-4.2648 négatifs	-0.1286
-3.6621 négatives	-0.1179
-4.2648 néonatal	-0.1331
-3.9632 néonatale	-0.2957
-4.2648 néonatals	-0.1179
-4.2648 nés	-0.1331
-4.2648 objectifs	-0.1281
-4.2648 objet	-0.1282
-4.2648 objets	-0.1255
-4.2648 obligation	-0.1179
-4.2648 obligations	-0.1253
-3.9632 obligé	-0.2876
-4.2648 obligée	-0.1179
-4.2648 observateur	-0.1329
-4.2648 observer	-0.1273
-3.9632 observés	-0.1227
-3.6621 obstacle	-0.1849
-3.6621 obstacles	-0.1995
-3.9632 obstétrical	-0.1270
-4.2648 obstétricaux	-0.1259
-3.7871 obtenir	-0.1184
-4.2648 obtention	-0.1276
-4.2648 occasion	-0.1282
-4.2648 occupaient	-0.1276
-4.2648 occupais	-0.1330
-4.2648 occupation	-0.1328
-3.9632 occupations	-0.1270
-3.5652 occuper	-0.1708
-4.2648 occupée	-0.1179
-4.2648 occupées	-0.1179
-3.9632 octobre	-0.1330
-4.2648 oculaires	-0.1325
-4.2648 offensé	-0.1312
-4.2648 offre	-0.1282
-4.2648 offrir	-0.1255
-2.2686 on	-0.4956
-3.7871 oncle	-0.1277
-2.5238 ont	-0.2096
-3.9632 onéreux	-0.1246
-3.5652 opinion	-0.1135
-4.2648 opinions	-0.1328
-4.2648 opérateur	-0.1331
-3.9632 or	-0.1227
-4.2648 ordinaire	-0.1283
-3.4191 ordinateur	-0.1056
-4.2648 ordinateurs	-0.1331
-4.2648 ordre	-0.1331
-3.6621 organisation	-0.1905
-3.7871 organiser	-0.1156
-3.7871 organisme	-0.2355
-3.6621 organismes	-0.1944
-3.7871 organisé	-0.3894
-4.2648 organisée	-0.1257
-3.9632 orientation	-0.1256
-4.2648 orienter	-0.1286
-3.9632 originalité	-0.1291
-4.2648 origine	-0.1282
-4.2648 origines	-0.1312
-3.6621 orthographe	-0.1069
-4.2648 orthophonie	-0.1325
-4.2648 orthopédique	-0.1259
-3.7871 osent	-0.2294
-4.2648 ostéotendineux	-0.1272
-2.5238 ou	-0.2061
-4.2648 oubliant	-0.1249
-3.9632 oublie	-0.1274
-3.6621 oublier	-0.1036
-4.2648 oublierai	-0.1327
-4.2648 oubliés	-0.1273
-3.9632 oui	-0.1207
-3.7871 outil	-0.3964
-3.7871 ouvert	-0.3891
-3.9632 ouvre	-0.1174
-4.2648 ouvrent	-0.1249
-3.7871 ouvrir	-0.1224
-3.6621 oxygène	-0.1163
-3.2228 où	-0.2665
-3.4861 p	-0.2918
-3.9632 page	-0.1316
-4.2648 palatins	-0.1295
-4.2648 palier	-0.1255
-4.2648 palsy	-0.1327
-3.9632 panne	-0.1305
-3.9632 papier	-0.1180
-4.2648 papiers	-0.1290
-2.3557 par	-0.4603
-4.2648 paradis	-0.1315
-3.9632 parallèle	-0.1214
-4.2648 paralysie	-0.1311
-4.2648 paralysé	-0.1295
-3.5652 paraplégie	-0.2641
-3.9632 paravent	-0.1198
-4.2648 paraît	-0.1315
-3.6621 parce	-0.3072
-3.1850 parcours	-0.2440
-4.2648 parcourue	-0.1312
-4.2648 pare	-0.1328
-3.9632 parent	-0.1307
-4.2648 parentaux	-0.1331
-2.9218 parents	-0.1884
-4.2648 parfait	-0.1290
-3.4861 parfaitement	-0.2146
-3.4191 parfois	-0.1692
-4.2648 paris	-0.1319
-4.2648 parité	-0.1330
-3.9632 parlait	-0.1312
-3.9632 parlant	-0.1226
-3.2228 parle	-0.1657
-3.9632 parlent	-0.1309
-3.3100 parler	-0.1305
-4.2648 parleur	-0.1315
-4.2648 parlé	-0.1179
-3.5652 parmi	-0.2609
-4.2648 parodique	-0.1327
-3.6621 parole	-0.1095
-3.2642 part	-0.1897
-4.2648 partageons	-0.1263
-3.3611 partager	-0.1561
-4.2648 partagé	-0.1284
-4.2648 parti	-0.1179
-4.2648 participants	-0.1272
-3.9632 participer	-0.1299
-3.9632 participé	-0.1182
-4.2648 particulière	-0.1329
-3.9632 particulièrement	-0.1330
-3.3100 partie	-0.2108
-4.2648 partiels	-0.1295
-4.2648 parties	-0.1331
-3.5652 partir	-0.3394
-4.2648 partis	-0.1282
-4.2648 partout	-0.1255
-4.2648 paru	-0.1290
-4.2648 parution	-0.1179
-4.2648 parvenu	-0.1255
-4.2648 parâtre	-0.1307
-1.9399 pas	-0.1341
-4.2648 passants	-0.1293
-3.7871 passe	-0.1250
-3.1850 passer	-0.2134
-4.2648 passif	-0.1304
-3.7871 passion	-0.1091
-3.1850 passé	-0.0744
-3.9632 passées	-0.1307
-4.2648 passés	-0.1330
-3.9632 patience	-0.1104
-4.2648 patient	-0.1259
-3.6621 patients	-0.2014
-4.2648 pause	-0.1257
-3.7871 payer	-0.1266
-3.4861 pays	-0.1121
-4.2648 paysage	-0.1331
-4.2648 payée	-0.1312
-4.2648 peau	-0.1318
-3.1850 pendant	-0.1727
-4.2648 pendent	-0.1326
-4.2648 pendre	-0.1263
-4.2648 pensant	-0.1326
-2.7327 pense	-0.7969
-3.5652 pensent	-0.1851
-3.5652 penser	-0.1759
-3.6621 pensé	-0.1159
-4.2648 pensée	-0.1311
-4.2648 pensées	-0.1273
-4.2648 perception	-0.1259
-4.2648 perdre	-0.1324
-4.2648 perdu	-0.1325
-4.2648 perfection	-0.1328
-4.2648 permanents	-0.1257
-3.4191 permet	-0.5199
-4.2648 permets	-0.1179
-3.9632 permettant	-0.2876
-4.2648 permettent	-0.1276
-3.9632 permettrait	-0.1127
-3.9632 permettre	-0.2876
-4.2648 permis	-0.1179
-3.9632 permission	-0.1254
-4.2648 persistance	-0.1276
-4.2648 perso	-0.1315
-4.2648 personnage	-0.1331
-4.2648 personnalisés	-0.1255
-3.3100 personnalité	-0.0853
-2.6208 personne	-0.3318
-3.5652 personnel	-0.1155
-3.6621 personnellement	-0.2877
-3.9632 personnelles	-0.1227
-2.3348 personnes	-0.3461
-4.2648 perturbation	-0.1311
-4.2648 perturber	-0.1259
-4.2648 pesant	-0.1273
-4.2648 peser	-0.1314
-3.5652 petit	-0.1176
-3.9632 petite	-0.1330
-3.6621 petites	-0.3026
-3.6621 petits	-0.1229
-3.2228 peu	-0.2490
-4.2648 peuple	-0.1257
-4.2648 peupleront	-0.1315
-4.2648 peuples	-0.1316
-3.3100 peur	-0.3141
-2.6731 peut	-0.3770
-2.8840 peuvent	-0.2686
-3.2228 peux	-0.2510
-4.2648 philippe	-0.1331
-3.9632 philosophie	-0.1252
-4.2648 phobie	-0.1327
-3.9632 photocopie	-0.2998
-4.2648 photocopier	-0.1263
-4.2648 photographie	-0.1290
-4.2648 photomontages	-0.1259
-3.9632 phrase	-0.1227
-4.2648 phrases	-0.1304
-3.4191 physique	-0.1154
-3.7871 physiques	-0.1183
-4.2648 pied	-0.1308
-3.5652 pieds	-0.1140
-3.9632 pions	-0.2961
-3.7871 pire	-0.2184
-3.7871 piscine	-0.1141
-4.2648 pitié	-0.1329
-4.2648 pitoyable	-0.1284
-4.2648 pièce	-0.1255
-3.2228 place	-0.1216
-4.2648 plage	-0.1330
-4.2648 plains	-0.1281
-4.2648 plaint	-0.1179
-3.2642 plaisir	-0.1615
-4.2648 planète	-0.1315
-4.2648 plaît	-0.1281
-4.2648 plein	-0.1324
-4.2648 pleine	-0.1331
-4.2648 pleurer	-0.1249
-4.2648 plonge	-0.1324
-4.2648 plongent	-0.1286
-4.2648 plongé	-0.1286
-3.6621 plupart	-0.2934
-2.2556 plus	-0.1730
-3.4861 plusieurs	-0.1819
-3.7871 plutôt	-0.1265
-3.9632 poids	-0.1180
-3.4191 point	-0.2617
-3.9632 pointe	-0.1121
-3.9632 points	-0.2987
-4.2648 pole	-0.1330
-4.2648 poliment	-0.1259
-4.2648 politiques	-0.1312
-4.2648 polyclinique	-0.1324
-4.2648 polyhandicapé	-0.1325
-3.7871 population	-0.1295
-4.2648 pornographique	-0.1300
-4.2648 portable	-0.1263
-4.2648 portables	-0.1303
-3.9632 portail	-0.1252
-3.3611 porte	-0.1861
-4.2648 portent	-0.1328
-3.9632 porter	-0.1254
-3.4861 portes	-0.0996
-4.2648 portée	-0.1255
-3.9632 pose	-0.1213
-4.2648 posent	-0.1323
-3.9632 positif	-0.1312
-3.7871 positive	-0.1275
-4.2648 positives	-0.1179
-4.2648 possibilités	-0.1331
-3.4861 possible	-0.1059
-3.9632 possède	-0.1325
-4.2648 possédant	-0.1272
-4.2648 post	-0.1331
-4.2648 potentiels	-0.1331
-1.7742 pour	-0.3779
-4.2648 pourcentage	-0.1179
-3.7871 pourquoi	-0.1270
-3.7871 pourra	-0.1315
-4.2648 pourrai	-0.1330
-3.9632 pourraient	-0.1328
-3.7871 pourrais	-0.1292
-3.4191 pourrait	-0.1670
-4.2648 pourront	-0.1316
-4.2648 pourtant	-0.1239
-3.9632 pousser	-0.1314
-3.9632 poussette	-0.2957
-3.9632 pouvaient	-0.1266
-3.5652 pouvais	-0.1253
-3.6621 pouvait	-0.1967
-4.2648 pouvant	-0.1331
-3.9632 pouvez	-0.1330
-3.4191 pouvoir	-0.2177
-4.2648 pouvons	-0.1281
-4.2648 pratiquant	-0.1308
-4.2648 pratique	-0.1263
-3.2642 premier	-0.1252
-2.9632 première	-0.3067
-3.7871 premièrement	-0.1236
-3.1850 prendre	-0.1505
-4.2648 prennent	-0.1257
-3.5652 prenons	-0.1104
-3.3611 presque	-0.1190
-3.9632 preuve	-0.1329
-3.7871 primaire	-0.1205
-4.2648 primaires	-0.1301
-3.9632 primordial	-0.2955
-3.9632 principe	-0.1308
-4.2648 principes	-0.1282
-3.2228 pris	-0.1882
-3.6621 prise	-0.6762
-4.2648 prive	-0.1330
-3.9632 privé	-0.1178
-4.2648 privée	-0.1286
-3.9632 privés	-0.1177
-3.5652 prix	-0.1245
-3.9632 probablement	-0.1284
-4.2648 probables	-0.1331
-2.9025 problème	-0.2210
-2.9025 problèmes	-0.1290
-4.2648 prochain	-0.1273
-4.2648 proche	-0.1179
-4.2648 proches	-0.1311
-4.2648 procure	-0.1272
-4.2648 produirai	-0.1323
-4.2648 produisant	-0.1328
-4.2648 produit	-0.1331
-3.9632 produits	-0.1317
-3.9632 prof	-0.1305
-4.2648 professeur	-0.1259
-3.7871 professeure	-0.1154
-3.9632 professeurs	-0.1258
-4.2648 professionnalisme	-0.1331
-4.2648 professionnel	-0.1239
-3.9632 professionnelle	-0.1247
-4.2648 professionnelles	-0.1295
-3.7871 professionnels	-0.2366
-4.2648 profit	-0.1179
-4.2648 profitent	-0.1328
-4.2648 profiter	-0.1179
-3.6621 profs	-0.2991
-4.2648 programmes	-0.1276
-4.2648 progressifs	-0.1318
-3.9632 progressive	-0.1223
-4.2648 progrès	-0.1255
-3.3611 projet	-0.1018
-3.9632 projets	-0.1215
-4.2648 promenades	-0.1327
-4.2648 promets	-0.1281
-3.6621 promène	-0.1140
-4.2648 prononce	-0.1273
-4.2648 prononcent	-0.1249
-3.9632 prononcer	-0.1218
-3.9632 prononcée	-0.1231
-4.2648 pronostic	-0.1331
-3.1181 propos	-0.7275
-4.2648 propose	-0.1272
-4.2648 proposer	-0.1326
-4.2648 propositions	-0.1179
-3.6621 proposé	-0.1083
-4.2648 proposés	-0.1327
-3.4861 propre	-0.1315
-3.9632 propres	-0.1330
-4.2648 prostitution	-0.1304
-4.2648 protège	-0.1312
-4.2648 protéger	-0.1318
-3.9632 prouver	-0.1204
-4.2648 prouverai	-0.1263
-4.2648 provoquait	-0.1273
-3.9632 provoque	-0.2973
-4.2648 provoquent	-0.1272
-4.2648 proximales	-0.1276
-3.7871 près	-0.2149
-4.2648 préciser	-0.1179
-4.2648 précision	-0.1286
-4.2648 préfère	-0.1330
-3.9632 préjugés	-0.1272
-4.2648 prématurée	-0.1253
-4.2648 prématurés	-0.1318
-4.2648 prénatal	-0.1318
-4.2648 prénatals	-0.1273
-3.9632 préparation	-0.1102
-3.7871 préparer	-0.1131
-3.1850 présent	-0.1561
-3.6621 présentant	-0.3026
-3.5652 présente	-0.1701
-3.7871 présentent	-0.1289
-3.5652 présenter	-0.1110
-3.9632 président	-0.2876
-3.9632 prêt	-0.1252
-4.2648 prêtées	-0.1312
-4.2648 ps	-0.1239
-3.9632 psychologiques	-0.3010
-3.3611 pu	-0.1637
-3.9632 publication	-0.1178
-3.7871 publics	-0.1089
-3.7871 publique	-0.1302
-4.2648 publiques	-0.1255
-2.8840 puis	-0.3129
-4.2648 puisqu	-0.1308
-3.4191 puisse	-0.1630
-3.7871 puissent	-0.1327
-4.2648 punitive	-0.1308
-3.9632 punks	-0.1225
-4.2648 pur	-0.1331
-4.2648 putain	-0.1303
-4.2648 pute	-0.1330
-3.9632 pyramide	-0.1273
-2.8018 père	-0.2688
-4.2648 pénible	-0.1179
-3.6621 périnatale	-0.1996
-3.9632 période	-0.1249
-4.2648 pôle	-0.1330
-2.3004 qu	-0.8012
-4.2648 qualités	-0.1179
-2.7728 quand	-0.3891
-4.2648 quant	-0.1255
-4.2648 quatre	-0.1330
-4.2648 quatrièmement	-0.1328
-1.9441 que	-0.6977
-3.5652 quel	-0.1858
-3.3100 quelle	-0.2288
-3.9632 quelles	-0.3012
-4.2648 quelqu	-0.1273
-3.4861 quelque	-0.2985
-2.9632 quelques	-0.2618
-3.6621 question	-0.1123
-3.7871 questions	-0.1315
-2.1604 qui	-0.4629
-4.2648 quitter	-0.1253
-3.6621 quoi	-0.1208
-4.2648 quotas	-0.1281
-3.5652 quotidien	-0.1175
-4.2648 quotidienne	-0.1303
-4.2648 quotidiennes	-0.1253
-4.2648 r	-0.1316
-4.2648 racial	-0.1290
-4.2648 racines	-0.1282
-4.2648 racontaient	-0.1328
-4.2648 racontant	-0.1326
-3.7871 raconte	-0.1291
-4.2648 racontent	-0.1328
-3.9632 raconter	-0.1249
-4.2648 radio	-0.1286
-3.4191 raison	-0.1051
-3.3611 raisons	-0.2434
-4.2648 ralentissement	-0.1311
-4.2648 ralentit	-0.1330
-3.9632 rancœur	-0.1328
-3.5652 rapidement	-0.1820
-4.2648 rapides	-0.1259
-3.7871 rapport	-0.3891
-4.2648 rapprocher	-0.1179
-3.9632 rare	-0.1232
-3.9632 rarement	-0.1315
-4.2648 rassure	-0.1286
-4.2648 recevoir	-0.1276
-4.2648 recherchai	-0.1273
-4.2648 recherche	-0.1327
-4.2648 recherches	-0.1179
-4.2648 recherchées	-0.1327
-4.2648 reconnus	-0.1312
-4.2648 redonné	-0.1283
-4.2648 referme	-0.1331
-4.2648 refusait	-0.1321
-3.9632 refusé	-0.1159
-2.9025 regard	-0.1976
-3.7871 regardant	-0.1150
-4.2648 regarde	-0.1273
-3.6621 regardent	-0.2025
-3.7871 regarder	-0.1218
-4.2648 regardez	-0.1319
-3.9632 regards	-0.1280
-4.2648 regrouper	-0.1328
-3.7871 relation	-0.2332
-4.2648 relationnel	-0.1307
-4.2648 relativement	-0.1331
-4.2648 relevant	-0.1179
-4.2648 religieuses	-0.1330
-4.2648 religion	-0.1331
-3.9632 remarque	-0.1326
-3.4191 remarques	-0.3593
-3.6621 remarqué	-0.6865
-4.2648 remboursé	-0.1282
-3.3611 remercie	-0.1766
-4.2648 remercier	-0.1300
-4.2648 remets	-0.1323
-4.2648 remis	-0.1290
-4.2648 remonté	-0.1312
-4.2648 remotiver	-0.1300
-4.2648 rempli	-0.1273
-3.9632 remplir	-0.1190
-4.2648 remuer	-0.1312
-4.2648 remédier	-0.1239
-4.2648 rencontre	-0.1330
-3.7871 rencontrer	-0.1158
-3.7871 rencontres	-0.1254
-3.9632 rencontrez	-0.1262
-3.4191 rencontré	-0.1510
-3.6621 rencontrées	-0.1214
-3.7871 rencontrés	-0.1294
-4.2648 rend	-0.1253
-4.2648 rendais	-0.1281
-3.9632 rendent	-0.1329
-4.2648 rendez	-0.1319
-3.5652 rendre	-0.1913
-4.2648 rends	-0.1255
-3.9632 rendu	-0.1289
-4.2648 renie	-0.1281
-4.2648 renouveler	-0.1327
-4.2648 rentabilité	-0.1330
-3.9632 rentrer	-0.1283
-4.2648 repas	-0.1259
-3.9632 reportage	-0.1259
-4.2648 repose	-0.1314
-4.2648 repoussent	-0.1321
-4.2648 reprenant	-0.1263
-4.2648 reprend	-0.1249
-4.2648 représentait	-0.1273
-4.2648 représentant	-0.1330
-3.9632 représentation	-0.1121
-4.2648 représente	-0.1272
-3.9632 représentent	-0.2971
-4.2648 représenter	-0.1324
-4.2648 représenté	-0.1255
-4.2648 représentée	-0.1239
-4.2648 reptatoires	-0.1330
-3.9632 respect	-0.2876
-4.2648 respectent	-0.1317
-4.2648 respecter	-0.1276
-4.2648 respiration	-0.1308
-3.7871 responsable	-0.2310
-4.2648 responsables	-0.1179
-4.2648 ressemblait	-0.1255
-3.9632 ressemble	-0.1231
-3.9632 ressemblent	-0.1252
-3.6621 ressens	-0.2945
-3.7871 ressenti	-0.1095
-3.9632 ressentir	-0.1154
-3.9632 ressource	-0.1257
-3.9632 ressources	-0.1227
-4.2648 restai	-0.1272
-4.2648 restais	-0.1273
-3.3100 reste	-0.1930
-4.2648 restent	-0.1330
-3.7871 rester	-0.1330
-3.9632 restera	-0.1320
-4.2648 restes	-0.1327
-4.2648 resté	-0.1331
-4.2648 retard	-0.1249
-4.2648 retouches	-0.1282
-3.6621 retour	-0.1920
-4.2648 retournent	-0.1314
-4.2648 revenait	-0.1328
-4.2648 revivre	-0.1284
-4.2648 revoir	-0.1284
-3.7871 reçu	-0.1059
-4.2648 riches	-0.1316
-3.6621 richesse	-0.1816
-3.2228 rien	-0.1266
-3.9632 rime	-0.1305
-3.6621 rire	-0.1829
-4.2648 risible	-0.1179
-4.2648 risque	-0.1317
-4.2648 robe	-0.1255
-4.2648 rond	-0.1300
-3.9632 ronde	-0.1262
-4.2648 rougir	-0.1330
-4.2648 roulant	-0.1295
-4.2648 roulement	-0.1295
-4.2648 roulette	-0.1331
-4.2648 route	-0.1239
-3.5652 rue	-0.1047
-4.2648 rupture	-0.1329
-4.2648 russe	-0.1312
-4.2648 règle	-0.1179
-4.2648 ré	-0.1331
-3.6621 réaction	-0.1942
-4.2648 réactions	-0.1276
-4.2648 réadaptation	-0.1331
-4.2648 réagissent	-0.1295
-4.2648 réalisation	-0.1276
-3.2642 réaliser	-0.1305
-4.2648 réalisons	-0.1276
-4.2648 réaliste	-0.1257
-3.9632 réalisé	-0.1223
-3.7871 réalité	-0.1175
-3.9632 réanimer	-0.1259
-3.4191 récemment	-0.3467
-4.2648 récréations	-0.1328
-4.2648 rédaction	-0.1179
-4.2648 rédige	-0.1325
-4.2648 rédiger	-0.1304
-4.2648 réduit	-0.1253
-4.2648 réduite	-0.1330
-4.2648 réelle	-0.1301
-3.7871 réflexes	-0.1328
-3.9632 réflexions	-0.1266
-4.2648 réfléchies	-0.1330
-3.9632 réfléchir	-0.2952
-4.2648 région	-0.1300
-4.2648 régulièrement	-0.1309
-4.2648 réparateur	-0.1329
-4.2648 réparé	-0.1304
-4.2648 répertoire	-0.1324
-4.2648 répond	-0.1281
-4.2648 répondant	-0.1330
-3.9632 répondre	-0.1231
-3.7871 répondu	-0.2281
-4.2648 réponse	-0.1255
-4.2648 réputation	-0.1276
-4.2648 répéter	-0.1249
-4.2648 répétés	-0.1312
-4.2648 réseaux	0.0000
-4.2648 réserver	-0.1255
-4.2648 réservée	-0.1257
-4.2648 résiste	-0.1317
-4.2648 résoudre	-0.1328
-4.2648 résultant	-0.1276
-4.2648 résultat	-0.1273
-4.2648 résultats	-0.1311
-4.2648 résultent	-0.1325
-4.2648 résume	-0.1255
-3.7871 résumé	-0.1110
-3.5652 réunion	-0.1812
-3.5652 réussi	-0.2552
-4.2648 réussir	-0.1329
-3.4861 réussite	-0.1034
-3.7871 réveiller	-0.2298
-3.9632 réviser	-0.1304
-4.2648 révolté	-0.1312
-4.2648 révolutionner	-0.1263
-4.2648 révéler	-0.1272
-3.9632 rééducation	-0.1257
-3.7871 rêve	-0.2240
-4.2648 rêver	-0.1282
-3.9632 rêves	-0.1238
-4.2648 rêveur	-0.1328
-3.9632 rôle	-0.1325
-2.7327 s	-0.1938
-3.1181 sa	-0.2305
-4.2648 sachant	-0.1309
-4.2648 sachs	-0.1253
-4.2648 sages	-0.1324
-3.1850 sais	-0.2962
-3.5652 saisie	-0.1242
-3.9632 saisir	-0.1215
-3.9632 sait	-0.1278
-4.2648 salis	-0.1312
-4.2648 salive	-0.1323
-4.2648 salle	-0.1179
-3.9632 samedi	-0.1237
-2.9420 sans	-0.1989
-4.2648 santé	-0.1312
-4.2648 saoulé	-0.1295
-4.2648 satisfaire	-0.1259
-4.2648 satisfait	-0.1179
-4.2648 savais	-0.1310
-4.2648 savait	-0.1281
-4.2648 savent	-0.1281
-3.4861 savoir	-0.2333
-4.2648 sciences	-0.1290
-4.2648 scientifique	-0.1295
-4.2648 scientifiques	-0.1255
-4.2648 sclérose	-0.1331
-3.2642 scolaire	-0.0983
-3.9632 scolaires	-0.1207
-3.9632 scolarisation	-0.1275
-3.3611 scolarité	-0.2988
-3.9632 sdf	-0.1244
-2.4649 se	-0.2591
-4.2648 secondaire	-0.1249
-4.2648 secondaires	-0.1255
-4.2648 seconde	-0.1308
-3.9632 sein	-0.1226
-3.1503 selon	-0.6030
-3.5652 semaine	-0.1162
-3.7871 semaines	-0.2313
-4.2648 semblables	-0.1303
-3.9632 semble	-0.1325
-4.2648 semblé	-0.1331
-3.1503 sens	-0.1333
-3.7871 sensation	-0.1144
-4.2648 sensations	-0.1315
-3.7871 sensibilisation	-0.1263
-3.4191 sensibiliser	-0.1544
-3.9632 sensible	-0.1252
-4.2648 sensuel	-0.1295
-3.7871 sent	-0.1260
-4.2648 sentais	-0.1326
-4.2648 sentait	-0.1281
-3.9632 sentent	-0.1331
-3.9632 sentiment	-0.1310
-3.9632 sentiments	-0.1300
-3.4191 sentir	-0.1733
-4.2648 sentirais	-0.1281
-3.5652 septembre	-0.1182
-3.5652 sera	-0.1218
-3.9632 serais	-0.1326
-3.0089 serait	-0.3215
-4.2648 serez	-0.1322
-4.2648 sert	-0.1255
-4.2648 servant	-0.1257
-3.9632 service	-0.1325
-3.1503 ses	-0.1315
-3.2228 seul	-0.1273
-3.5652 seule	-0.1717
-3.1181 seulement	-0.1357
-4.2648 seules	-0.1330
-3.7871 sexe	-0.1190
-3.7871 sexualité	-0.1174
-4.2648 sexuel	-0.1290
-4.2648 sexuelle	-0.1263
-2.6014 si	-0.3568
-4.2648 signalétiques	-0.1330
-4.2648 signer	-0.1263
-3.9632 signes	-0.1127
-3.9632 signifie	-0.1231
-4.2648 signifierait	-0.1281
-3.4861 simple	-0.1115
-2.9632 simplement	-0.1113
-4.2648 simples	-0.1255
-4.2648 simplifier	-0.1249
-4.2648 sims	-0.1330
-4.2648 simulez	-0.1273
-3.6621 sincèrement	-0.6865
-3.4861 sinon	-0.2205
-3.6621 site	-0.1251
-3.7871 sites	-0.1258
-3.4191 situation	-0.0890
-4.2648 situations	-0.1281
-3.9632 situe	-0.1209
-3.9632 sms	-0.1165
-3.9632 snc	-0.1303
-4.2648 social	-0.1300
-3.3100 sociale	-0.0930
-3.9632 sociaux	-0.1196
-3.0601 société	-0.1336
-4.2648 sociétés	-0.1331
-3.7871 soi	-0.1249
-3.9632 soient	-0.1249
-3.7871 soins	-0.1330
-4.2648 soir	-0.1322
-3.9632 sois	-0.1256
-3.1503 soit	-0.1283
-4.2648 soixante	-0.1328
-4.2648 solitude	-0.1276
-3.4191 solution	-0.1578
-4.2648 solutions	-0.1323
-4.2648 sombre	-0.1324
-3.7871 somme	-0.1263
-3.9632 sommeil	-0.1249
-3.6621 sommes	-0.1276
-2.8170 son	-0.1469
-3.9632 sons	-0.1301
-2.4191 sont	-0.2403
-4.2648 sortants	-0.1314
-4.2648 sortent	-0.1179
-4.2648 sortie	-0.1179
-3.6621 sorties	-0.1243
-3.4861 sortir	-0.1589
-4.2648 soucis	-0.1323
-4.2648 souffre	-0.1282
-3.5652 souhait	-0.1701
-3.7871 souhaitais	-0.1242
-3.4861 souhaite	-0.1170
-4.2648 souhaitent	-0.1331
-4.2648 souhaiterais	-0.1331
-4.2648 souhaites	-0.1321
-4.2648 souhaitons	-0.1329
-4.2648 souhaits	-0.1281
-3.9632 souplesse	-0.1132
-4.2648 sourd	-0.1331
-4.2648 souris	-0.1259
-3.9632 sous	-0.1329
-3.7871 soutien	-0.1239
-2.8328 souvent	-0.1081
-3.6621 spasticité	-0.1177
-3.3611 spastique	-0.1526
-4.2648 spastiques	-0.1331
-4.2648 spectateur	-0.1239
-4.2648 spectateurs	-0.1327
-4.2648 spinale	-0.1331
-4.2648 spinocérébelleuses	-0.1259
-4.2648 sport	-0.1328
-4.2648 sportifs	-0.1328
-4.2648 spécialement	-0.1331
-4.2648 spécialiste	-0.1255
-4.2648 spécialistes	-0.1286
-3.5652 spécialisé	-0.0989
-3.7871 spécialisée	-0.1194
-4.2648 spécialisées	-0.1322
-4.2648 spécialisés	-0.1321
-3.6621 spécifique	-0.1034
-3.9632 spécifiques	-0.1250
-4.2648 stage	-0.1290
-4.2648 strabisme	-0.1318
-3.6621 stress	-0.1203
-4.2648 stresser	-0.1239
-3.6621 structure	-0.3115
-4.2648 style	-0.1331
-4.2648 stylo	-0.1327
-4.2648 stürge	-0.1331
-3.7871 su	-0.2363
-4.2648 subi	-0.1276
-4.2648 subit	-0.1312
-4.2648 suffisamment	-0.1331
-4.2648 suffit	-0.1179
-4.2648 suicident	-0.1312
-2.4718 suis	-0.2400
-4.2648 suisse	-0.1308
-3.2228 suite	-0.1795
-3.7871 suivant	-0.1290
-3.5652 suivante	-0.2669
-3.6621 suivantes	-0.1969
-3.7871 suivants	-0.1151
-3.7871 suivre	-0.1186
-3.2642 sujet	-0.2340
-4.2648 sujets	-0.1325
-4.2648 supplier	-0.1249
-4.2648 supplémentaire	-0.1257
-4.2648 supporter	-0.1321
-4.2648 supposer	-0.1281
-4.2648 supérieur	-0.1259
-2.4191 sur	-0.4475
-4.2648 surdité	-0.1179
-4.2648 surement	-0.1284
-3.7871 surpris	-0.2348
-4.2648 surprise	-0.1179
-3.5652 surtout	-0.1099
-3.6621 surveillance	-0.1203
-3.9632 surveillant	-0.1256
-3.9632 survie	-0.1229
-4.2648 surviennent	-0.1286
-3.9632 suscite	-0.1330
-4.2648 sustentation	-0.1259
-3.9632 symboles	-0.1289
-3.9632 sympathisé	-0.1254
-4.2648 symétrique	-0.1263
-3.4861 syndrome	-0.2172
-3.4861 syndromes	-0.1825
-4.2648 synonyme	-0.1282
-3.5652 syrie	-0.2469
-3.5652 système	-0.1671
-4.2648 systémique	-0.1331
-3.9632 séance	-0.1307
-4.2648 sécurité	-0.1325
-4.2648 ségolène	-0.1259
-3.9632 séjour	-0.1313
-4.2648 sévère	-0.1311
-4.2648 sûr	-0.1239
-4.2648 sûre	-0.1281
-3.3611 sœur	-0.1338
-3.4861 t	-0.1748
-4.2648 t9	-0.1276
-3.6621 ta	-0.1307
-3.3611 tabou	-0.1160
-4.2648 talent	-0.1253
-4.2648 tant	-0.1327
-3.5652 tard	-0.1110
-4.2648 tas	-0.1304
-4.2648 taux	-0.1179
-4.2648 tay	-0.1331
-4.2648 tdm	-0.1318
-3.6621 te	-0.1329
-3.9632 technique	-0.1207
-4.2648 technologie	-0.1295
-3.9632 tel	-0.1259
-3.7871 tellement	-0.1280
-4.2648 tels	-0.1281
-2.7728 temps	-0.2268
-3.9632 tendance	-0.1246
-4.2648 tendent	-0.1312
-3.9632 tenir	-0.1273
-4.2648 tension	-0.1331
-3.9632 terme	-0.1178
-3.9632 terminal	-0.1295
-4.2648 terminale	-0.1323
-4.2648 terminales	-0.1259
-4.2648 termine	-0.1263
-3.9632 terminerai	-0.1281
-4.2648 terminé	-0.1300
-4.2648 terni	-0.1253
-4.2648 terrain	-0.1330
-3.7871 terre	-0.2298
-4.2648 terroristes	-0.1331
-3.6621 tests	-0.1991
-3.9632 texte	-0.1303
-3.7871 textes	-0.1269
-3.9632 thème	-0.3009
-4.2648 théorie	-0.1259
-3.9632 tiens	-0.2952
-4.2648 tient	-0.1331
-3.9632 tirer	-0.1330
-4.2648 todu	-0.1286
-3.9632 toi	-0.1165
-4.2648 toilette	-0.1283
-3.6621 toilettes	-0.1174
-3.6621 tomber	-0.1220
-4.2648 tombé	-0.1290
-2.9632 ton	-0.2825
-4.2648 tonus	-0.1330
-4.2648 tort	-0.1253
-4.2648 tortue	-0.1331
-3.6621 totalement	-0.1203
-4.2648 totalité	-0.1324
-4.2648 touchant	-0.1325
-3.7871 touche	-0.1158
-4.2648 touchée	-0.1295
-2.6307 toujours	-0.1685
-3.7871 tour	-0.2184
-3.9632 tourne	-0.1330
-4.2648 tourner	-0.1263
-4.2648 tourné	-0.1327
-2.5566 tous	-0.6372
-2.2642 tout	-0.4600
-3.4861 toute	-0.2265
-3.1503 toutes	-0.7003
-3.7871 train	-0.3815
-4.2648 transformer	-0.1249
-4.2648 transport	-0.1259
-4.2648 transposable	-0.1257
-3.7871 traumatisme	-0.2386
-4.2648 traumatismes	-0.1331
-3.2642 travail	-0.1604
-4.2648 travaillai	-0.1295
-4.2648 travaillant	-0.1281
-3.7871 travaille	-0.1250
-3.9632 travaillent	-0.2993
-3.9632 travailler	-0.1272
-4.2648 travaillé	-0.1330
-3.3100 travaux	-0.1824
-3.2228 travers	-0.7767
-4.2648 traînent	-0.1249
-4.2648 tremblement	-0.1331
-4.2648 trente	-0.1331
-4.2648 triste	-0.1255
-3.6621 tristesse	-0.1918
-3.1850 trois	-0.2374
-4.2648 troisièmement	-0.1328
-3.9632 trompe	-0.2979
-4.2648 tronc	-0.1331
-3.0881 trop	-0.1119
-3.4861 troubles	-0.1769
-4.2648 trouva	-0.1323
-4.2648 trouvai	-0.1253
-4.2648 trouvais	-0.1330
-3.9632 trouvant	-0.1307
-3.0338 trouve	-0.1758
-3.6621 trouvent	-0.1148
-3.1503 trouver	-0.1248
-4.2648 trouverai	-0.1283
-4.2648 trouverez	-0.1314
-3.6621 trouvé	-0.1994
-2.6014 très	-0.2410
-3.7871 tt	-0.1276
-2.6514 tu	-0.2762
-4.2648 tubéreuse	-0.1272
-4.2648 tunisie	-0.1290
-4.2648 tv	-0.1331
-3.9632 type	-0.1127
-3.9632 types	-0.2876
-4.2648 télangiectasie	-0.1272
-4.2648 télécommande	-0.1308
-4.2648 téléphonait	-0.1307
-3.6621 téléphone	-0.1295
-4.2648 téléphoner	-0.1310
-4.2648 téléphones	-0.1331
-4.2648 téléphonique	-0.1331
-3.7871 téléthon	-0.1081
-3.3611 télévision	-0.0995
-4.2648 témoignage	-0.1259
-3.5652 tétraplégie	-0.1897
-3.7871 tétraplégique	-0.2383
-3.4191 tête	-0.1599
-4.2648 tôt	-0.1257
-1.8804 un	-0.2764
-1.8663 une	-0.2615
-4.2648 union	-0.1308
-3.5652 uniquement	-0.1021
-4.2648 united	-0.1331
-4.2648 unité	-0.1331
-3.7871 univers	-0.1300
-4.2648 universitaire	-0.1179
-3.9632 usagés	-0.1283
-3.9632 utile	-0.1212
-3.7871 utiles	-0.1232
-4.2648 utilisais	-0.1290
-3.7871 utilisateur	-0.1172
-4.2648 utilisateurs	-0.1328
-4.2648 utilisation	-0.1249
-3.7871 utilise	-0.1217
-3.9632 utiliser	-0.3009
-4.2648 utilisée	-0.1312
-4.2648 utilisés	-0.1257
-4.2648 utopie	-0.1286
-3.9632 v	-0.1308
-3.6621 va	-0.1292
-4.2648 vagues	-0.1315
-3.2228 vais	-0.1478
-4.2648 valeur	-0.1331
-3.3100 valide	-0.0785
-3.4861 valides	-0.1059
-4.2648 variable	-0.1179
-4.2648 vas	-0.1330
-4.2648 vella	-0.1308
-3.6621 venait	-0.2971
-4.2648 vendant	-0.1276
-3.7871 vende	-0.2286
-3.5652 venir	-0.2620
-4.2648 ventre	-0.1179
-4.2648 venu	-0.1327
-4.2648 venue	-0.1327
-3.9632 verbale	-0.1313
-3.0089 vers	-0.2171
-4.2648 vert	-0.1295
-4.2648 vertical	-0.1249
-4.2648 vertébrale	-0.1259
-3.5652 veulent	-0.1773
-3.3611 veut	-0.1497
-3.6621 veux	-0.1315
-4.2648 viable	-0.1290
-4.2648 victimes	-0.1179
-3.9632 vide	-0.1279
-3.7871 vidéo	-0.1313
-2.3504 vie	-0.1462
-4.2648 vieil	-0.1330
-4.2648 viendra	-0.1179
-3.9632 viennent	-0.3025
-4.2648 viens	-0.1239
-3.9632 vient	-0.1324
-3.7871 village	-0.2272
-3.9632 virage	-0.2984
-4.2648 virtuel	-0.1328
-3.9632 virtuelle	-0.1309
-4.2648 virtuels	-0.1331
-3.3611 vis	-0.1836
-4.2648 visage	-0.1326
-3.5652 vision	-0.1624
-4.2648 visitai	-0.1276
-4.2648 visite	-0.1331
-4.2648 visité	-0.1276
-4.2648 visuels	-0.1249
-3.9632 vit	-0.1250
-3.6621 vite	-0.1328
-4.2648 vitesse	-0.1179
-3.9632 vivait	-0.2984
-4.2648 vivant	-0.1327
-3.7871 vivent	-0.1211
-3.1181 vivre	-0.2006
-4.2648 voici	-0.1249
-3.7871 voie	-0.1066
-3.7871 voient	-0.1150
-4.2648 voies	-0.1272
-3.3100 voir	-0.0956
-3.3611 voire	-0.1761
-3.4191 vois	-0.0991
-4.2648 voit	-0.1328
-4.2648 voiture	-0.1276
-4.2648 voitures	-0.1317
-4.2648 voiturette	-0.1330
-3.9632 volontaires	-0.1281
-3.4861 volonté	-0.1450
-4.2648 volontés	-0.1300
-4.2648 volume	-0.1330
-4.2648 von	-0.1331
-3.9632 vont	-0.1321
-3.6621 vos	-0.1328
-3.5652 votre	-0.1308
-3.4191 voulaient	-0.2110
-3.4191 voulais	-0.1161
-3.4861 voulait	-0.2275
-3.5652 voulu	-0.1209
-4.2648 voulue	-0.1312
-2.5740 vous	-0.0865
-3.9632 voyais	-0.1299
-3.9632 voyait	-0.1250
-4.2648 voyez	-0.1284
-3.9632 vrai	-0.1280
-3.9632 vraie	-0.1329
-2.9420 vraiment	-0.1045
-4.2648 vrais	-0.1273
-3.4191 vu	-0.1574
-3.9632 vue	-0.1161
-3.7871 vécu	-0.1276
-3.9632 vérifier	-0.3018
-3.9632 véritable	-0.1329
-3.9632 vérité	-0.3005
-4.2648 vôtre	-0.1312
-4.2648 wc	-0.1329
-3.7871 web	-0.1292
-4.2648 weber	-0.1283
-4.2648 x	-0.1308
-2.7327 y	-0.5873
-4.2648 yeux	-0.1290
-4.2648 yohan	-0.1331
-1.7577 à	-0.4002
-3.4861 âge	-0.2824
-3.7871 âgées	-0.1252
-3.3100 ça	-0.1267
-4.2648 écart	-0.1329
-4.2648 échanger	-0.1295
-4.2648 échanges	-0.1295
-4.2648 échec	-0.1330
-4.2648 échéance	-0.1327
-3.1850 école	-0.1378
-3.7871 écoles	-0.1257
-4.2648 économie	-0.1308
-4.2648 écoutai	-0.1273
-3.9632 écoute	-0.1310
-3.9632 écouter	-0.1104
-4.2648 écran	-0.1282
-4.2648 écraser	-0.1249
-4.2648 écrirais	-0.1281
-3.1503 écrire	-0.3444
-4.2648 écris	-0.1249
-3.9632 écrit	-0.1214
-4.2648 écrite	-0.1276
-3.9632 écrits	-0.1259
-3.9632 écriture	-0.1136
-3.9632 écrivant	-0.1290
-4.2648 écrive	-0.1312
-4.2648 égal	-0.1317
-4.2648 égale	-0.1312
-3.1503 également	-0.1156
-4.2648 égales	-0.1286
-4.2648 égalité	-0.1286
-4.2648 égaux	-0.1309
-4.2648 élargissement	-0.1179
-3.6621 électrique	-0.1037
-3.9632 élevé	-0.1102
-4.2648 élevées	-0.1328
-4.2648 éliminées	-0.1312
-4.2648 élite	-0.1319
-4.2648 élocution	-0.1249
-3.6621 élève	-0.3124
-3.4861 élèves	-0.1107
-4.2648 émission	-0.1303
-3.9632 émissions	-0.1286
-4.2648 émotion	-0.1319
-4.2648 émotionnelle	-0.1259
-3.7871 émotions	-0.1200
-4.2648 énervait	-0.1315
-4.2648 énerver	-0.1312
-3.7871 énorme	-0.2311
-3.2642 énormément	-0.1846
-3.9632 épanouis	-0.1212
-4.2648 épileptiques	-0.1314
-3.5652 époque	-0.2622
-3.6621 équilibre	-0.1821
-4.2648 équipe	-0.1179
-4.2648 équipé	-0.1330
-4.2648 équivalent	-0.1290
-4.2648 établir	-0.1273
-3.9632 établissement	-0.1329
-4.2648 établissements	-0.1179
-3.2642 étaient	-0.1827
-2.8840 étais	-0.2427
-2.4009 était	-0.1804
-3.7871 étant	-0.1265
-4.2648 étape	-0.1179
-4.2648 état	-0.1249
-4.2648 étau	-0.1331
-4.2648 étendu	-0.1328
-4.2648 étiologie	-0.1300
-4.2648 étouffer	-0.1259
-4.2648 étrangère	-0.1300
-4.2648 étroite	-0.1328
-3.7871 étroits	-0.1246
-4.2648 étude	-0.1331
-3.3611 études	-0.1433
-4.2648 étudie	-0.1249
-4.2648 étudier	-0.1284
-3.1850 été	-0.1476
-4.2648 évaluer	-0.1312
-4.2648 évanouit	-0.1330
-4.2648 éventuelle	-0.1331
-3.9632 éventuellement	-0.1129
-4.2648 éventuelles	-0.1330
-4.2648 éventuels	-0.1326
-2.9218 évidemment	-0.1796
-4.2648 évident	-0.1312
-4.2648 éviter	-0.1255
-4.2648 évitez	-0.1249
-4.2648 évolutifs	-0.1301
-4.2648 évolutives	-0.1330
-4.2648 événements	-0.1311
-4.2648 êtes	-0.1249
-2.4317 être	-0.1545
-3.9632 êtres	-0.1300

\2-grams:
-0.8795 0 1 -0.0184
-0.8795 0 2 -0.0468
-0.2227 000 euros -0.0664
-1.0556 1 an -0.0287
-1.0556 1 des -0.0579
-1.0556 1 à -0.0580
-0.8795 10 des -0.0550
-0.8795 10 mai -0.0287
-0.2992 100 euros -0.0370
-0.8795 11 2015 -0.0348
-0.8795 11 ans -0.0360
-0.5784 13 11 0.0031
-0.5784 130 000 0.3383
-0.2992 14 ans -0.0468
-0.5784 15 des -0.0550
-0.5784 16 ans -0.0526
-0.5784 1992 en -0.0516
-0.9982 2 ans -0.0468
-1.5784 2 des -0.0533
-1.5784 2 gros 0.0031
-1.5784 2 minutes -0.0184
-0.9982 2 personnes -0.1373
-1.5784 2 suivantes -0.0287
-1.5784 2 suivants -0.0184
-1.5784 2 terminales 0.0747
-1.0556 20 000 0.3383
-1.0556 20 ans -0.0526
-1.0556 20 des -0.0565
-0.5784 2004 et -0.0544
-0.8795 2011 j 0.4187
-0.8795 2011 je -0.0581
-0.8795 2013 j 0.4187
-0.8795 2013 mon 0.0006
-0.5784 2014 puis -0.0406
-1.2774 2015 cependant -0.0548
-1.2774 2015 depuis -0.0520
-1.2774 2015 est -0.0579
-0.6971 2015 je -0.0113
-0.8795 2016 j 0.4187
-0.8795 2016 ça -0.0455
-0.5784 22 h 0.0747
-0.5784 25 des -0.0565
-0.5784 257 les -0.0430
-1.1805 3 ans -0.0526
-0.3476 3 avs -0.2928
-0.4753 30 ans -0.0468
-1.0556 30 pour -0.0397
-0.5784 3000 euros -0.0478
-0.5784 35 000 0.3383
-0.2992 35000 euros -0.0370
-1.1805 4 ans -0.0526
-1.1805 4 grandes -0.0287
-1.1805 4 membres -0.0348
-1.1805 4 mois -0.0523
-0.5906 5 ans -0.0408
-1.4235 5 en -0.0504
-1.4235 5 euros -0.0478
-1.4235 5 février 0.0747
-1.4235 5 ses -0.0495
-0.5784 500 euros -0.0478
-0.5784 6 ans -0.0526
-0.5784 69 par 0.0577
-0.5784 7 ans -0.0526
-0.5784 70 des -0.0550
-0.7763 8 ans -0.0299
-1.3566 8 certes 0.0747
-1.3566 8 et -0.0467
-1.3566 8 participants 0.0747
-1.3566 8 à -0.0460
-2.6788 a accepté 0.0089
-2.6788 a aidé 0.0981
-2.0985 a annoncé 0.0747
-2.0985 a apporté 0.0747
-2.6788 a appris -0.0438
-2.6788 a aucune -0.0287
-2.6788 a augmenté 0.0031
-2.6788 a autorisé 0.0747
-2.6788 a avoué 0.0747
-1.8459 a beaucoup 0.2305
-2.6788 a bien -0.0526
-2.0985 a changé -0.0099
-2.6788 a chié 0.0747
-2.6788 a cinq 0.0747
-2.6788 a confirmé 0.0747
-2.6788 a créé 0.0031
-2.6788 a d -0.0214
-1.8459 a demandé 0.0374
-1.6654 a des -0.0094
-1.5971 a dit 0.0026
-1.8459 a donné -0.0062
-2.6788 a du -0.0570
-2.0985 a décidé -0.0243
-2.6788 a décrit 0.0747
-2.6788 a dû -0.0455
-2.0985 a encore -0.1374
-1.8459 a eu -0.0149
-2.6788 a expliqué 0.0747
-1.8459 a fait -0.0522
-2.0985 a frappé 0.0747
-2.6788 a invité 0.0031
-2.6788 a jamais -0.0523
-2.6788 a l -0.0578
-1.8459 a le -0.0317
-2.6788 a lorsque -0.0487
-1.8459 a mis 0.0227
-2.6788 a montré 0.0031
-2.6788 a participé 0.0031
-1.0212 a pas -0.0233
-1.8459 a passé -0.0287
-2.6788 a permis 0.0747
-2.6788 a pire -0.0184
-2.6788 a plus -0.0507
-2.6788 a plusieurs 0.0212
-2.6788 a pris -0.0478
-2.0985 a proposé 0.0031
-2.0985 a pu -0.0287
-2.6788 a quelques -0.0360
-2.6788 a redonné 0.0747
-2.6788 a refusé 0.0031
-2.6788 a réparé 0.0747
-2.0985 a répondu 0.1802
-2.6788 a réussi 0.1350
-2.6788 a sa 0.0538
-2.6788 a semblé 0.0747
-2.6788 a seulement -0.0501
-2.6788 a son -0.0543
-2.6788 a souvent -0.0419
-2.6788 a sur 0.0624
-2.0985 a sympathisé 0.0747
-2.6788 a t -0.0388
-2.6788 a tendance 0.0031
-2.0985 a toujours -0.0530
-2.6788 a tout -0.0572
-2.6788 a travaillé 0.0747
-1.5971 a un -0.0430
-2.0985 a une -0.0575
-2.6788 a vraiment -0.0529
-1.8459 a également -0.0039
-2.6788 a énormément -0.0468
-2.6788 a étendu 0.0747
-1.5971 a été -0.0184
-0.5784 aah et -0.0569
-0.8795 abandonné cette -0.0567
-0.8795 abandonné mes -0.0530
-0.9524 abord c 2.0172
-1.5327 abord demander 0.0212
-1.5327 abord j 0.4187
-1.5327 abord l -0.0525
-1.5327 abord ma -0.0421
-1.5327 abord pour -0.0580
-0.9524 abord un -0.0547
-0.8795 abordent comment 0.1273
-0.8795 abordent le -0.0542
-0.8795 aborder ces -0.0551
-0.8795 aborder cette -0.0265
-0.5784 abordé le -0.0542
-0.5784 absente et -0.0569
-0.8795 absolument que 0.0549
-0.8795 absolument un -0.0579
-0.2992 abstraction de 0.0137
-0.8795 accepte jusqu 0.5695
-0.8795 accepte tel 0.0031
-0.5784 accepter l -0.0578
-0.8433 accepté de -0.0527
-0.8433 accepté en -0.0497
-1.4235 accepté je -0.0493
-0.8433 accepté ma -0.0137
-1.4235 accessibilité c 0.4731
-1.4235 accessibilité dans -0.0542
-1.4235 accessibilité en -0.0577
-1.4235 accessibilité est -0.0579
-1.4235 accessibilité sont -0.0471
-1.4235 accessibilité une -0.0528
-1.4235 accessibilité évidemment -0.0531
-1.2774 accessible doit -0.0478
-1.2774 accessible et -0.0580
-1.2774 accessible ferait 0.0031
-1.2774 accessible leur -0.0564
-1.2774 accessible évidemment -0.0214
-0.5784 accessibles par -0.0530
-0.8795 accident cependant -0.0548
-0.8795 accident ressemble 0.0031
-0.5784 accompagnant dans -0.0423
-0.5784 accompagnantes qui -0.0522
-0.8795 accompagner aux -0.0552
-0.8795 accompagner seulement -0.0501
-0.8795 accompagné d -0.0214
-0.8795 accompagné par -0.0410
-0.5784 accompagnée par -0.0530
-1.1805 accord d -0.0191
-1.1805 accord j -0.0498
-1.1805 accord je -0.0470
-1.1805 accord que -0.0305
-0.5784 accoucha d -0.0191
-0.5784 accouchement mes 0.0042
-0.5784 accueil de -0.0494
-0.5784 accès au -0.0539
-0.2992 accélérer la -0.1496
-0.5784 accéléré cela -0.0025
-1.1805 achat aux -0.0461
-1.1805 achat d -0.0214
-1.1805 achat donc -0.0540
-1.1805 achat la -0.0541
-0.5784 achats très -0.0488
-0.4753 acheter la -0.1496
-1.0556 acheter les -0.0543
-0.5784 achetez le -0.0580
-0.8795 acheté au -0.0440
-0.8795 acheté mon -0.0523
-0.5784 achetée par -0.0486
-0.5784 achèterai la -0.0541
-0.5784 acides aminés 0.0747
-0.5784 action exemple -0.0468
-0.8795 actions de -0.0522
-0.8795 actions naturelles 0.0747
-1.0556 activités journalières 0.0747
-1.0556 activités p 0.2042
-1.0556 activités quotidiennes 0.0747
-0.5784 actuellement qu 0.0362
-0.5784 adaptation auprès -0.0287
-0.5784 adaptations concernant 0.0383
-1.6576 adapter aussi -0.0501
-1.6576 adapter aux -0.0461
-1.6576 adapter cependant 0.0125
-1.6576 adapter la -0.0541
-1.6576 adapter pour -0.0570
-1.6576 adapter puis -0.0406
-1.6576 adapter simplement -0.0526
-0.6442 adapter à -0.0761
-0.5784 adaptée dans -0.0072
-1.1805 adaptés associés 0.0031
-1.1805 adaptés cela 0.0193
-1.1805 adaptés en -0.0577
-1.1805 adaptés pour -0.0570
-0.5784 adar une -0.0579
-0.2992 admet la -0.0546
-0.5784 adoption si -0.0559
-1.1805 adore quand -0.0547
-0.6002 adore ton -0.0903
-1.1805 adore vous -0.0560
-0.5784 adresser aux -0.0242
-0.8795 adrénoleucodystrophie débute 0.0747
-0.8795 adrénoleucodystrophie infantile 0.0031
-0.5784 adulte auparavant -0.0287
-1.2774 adultes car 0.0067
-1.2774 adultes handicapés -0.0487
-1.2774 adultes pour -0.0397
-1.2774 adultes pourront 0.0747
-1.2774 adultes présentant -0.0287
-0.8795 affecter les -0.0561
-0.8795 affecter légèrement 0.0031
-0.5784 affections évolutives 0.0747
-0.5784 affiches flyers 0.0747
-0.5784 affichés sur -0.0382
-0.5784 afflux encore -0.0541
-0.5784 affronte les -0.0543
-0.8795 affronter dans -0.0124
-0.8795 affronter la -0.0224
-0.7009 afin d -0.2498
-0.2041 afin de -0.0221
-1.2023 afin que 0.1004
-0.5784 agissent envers 0.0534
-0.5784 agit d -0.0214
-1.5327 agréable après -0.0536
-1.5327 agréable cette -0.0121
-1.5327 agréable d -0.0578
-0.9524 agréable de -0.0575
-0.9524 agréable et -0.0576
-1.5327 agréable pour -0.0580
-1.5327 agréable évidemment -0.0531
-0.8795 agréables avec -0.0576
-0.8795 agréables et -0.0467
-2.8337 ai 30 0.1186
-2.8337 ai accepté 0.0089
-1.8203 ai appris 0.0715
-2.8337 ai attendu 0.0747
-2.8337 ai aucun 0.0089
-2.2534 ai aucune 0.0031
-2.8337 ai augmenté 0.0031
-2.8337 ai beaucoup 0.2840
-2.8337 ai besoin 0.0521
-2.8337 ai cet -0.0235
-1.7520 ai commencé 0.0404
-2.8337 ai compris -0.0287
-2.8337 ai connues 0.0747
-2.2534 ai conscience -0.0283
-2.2534 ai constaté 0.1490
-2.8337 ai constitué 0.0747
-2.8337 ai créé 0.0031
-2.0008 ai des -0.1132
-2.8337 ai deux -0.0523
-2.8337 ai difficultés 0.0013
-2.8337 ai droit -0.0287
-2.0008 ai décidé -0.1649
-1.8203 ai découvert 0.0992
-2.2534 ai déjà 0.0031
-2.8337 ai développé 0.0747
-2.8337 ai dû -0.0070
-2.2534 ai effectué 0.0747
-2.8337 ai envie 0.6330
-2.2534 ai essayé 0.1490
-0.8573 ai eu 0.0100
-2.8337 ai eues 0.0747
-1.4177 ai fait -0.0232
-2.0008 ai gagné 0.0074
-2.8337 ai grandi 0.0747
-2.8337 ai horreur 0.0031
-2.8337 ai imaginé 0.0747
-1.8203 ai jamais -0.0085
-2.8337 ai la -0.0476
-2.8337 ai le -0.0580
-2.8337 ai longtemps 0.0747
-2.8337 ai mal -0.0417
-2.8337 ai mis -0.0455
-2.8337 ai mon -0.0544
-2.8337 ai montré 0.0031
-2.8337 ai même -0.0553
-2.8337 ai parlé 0.0747
-2.8337 ai participé 0.0031
-1.3522 ai pas -0.0233
-2.2534 ai passé -0.0388
-2.8337 ai pensé -0.0287
-1.7520 ai pris 0.0581
-2.8337 ai proposé -0.0287
-2.2534 ai pu -0.0287
-2.8337 ai quand -0.0325
-2.0008 ai remarqué 0.3126
-2.8337 ai remercie -0.0438
-1.5726 ai rencontré 0.0634
-2.8337 ai rencontrées -0.0287
-2.8337 ai ressenti -0.0184
-2.0008 ai reçu 0.0747
-2.8337 ai réalisé 0.0031
-2.8337 ai répondu 0.1186
-2.2534 ai réussi 0.1723
-2.8337 ai souvent -0.0419
-2.0008 ai su 0.1190
-2.8337 ai subi 0.0747
-2.8337 ai terminé 0.0747
-2.8337 ai toujours -0.0557
-2.0008 ai tout -0.1044
-2.0008 ai trouvé 0.1514
-1.8203 ai un -0.0741
-1.5726 ai une -0.0513
-2.0008 ai vite 0.0374
-2.0008 ai voulu 0.0165
-2.8337 ai vraiment -0.0529
-2.2534 ai vécu 0.0257
-2.8337 ai à -0.0580
-2.8337 ai écrit 0.0031
-2.0008 ai été 0.0009
-2.0098 aide car -0.0528
-2.0098 aide d -0.0214
-0.9281 aide de -0.2564
-2.0098 aide et -0.0544
-1.1769 aide humaine 0.0460
-2.0098 aide j 0.4187
-2.0098 aide je -0.0529
-1.4295 aide la -0.1376
-2.0098 aide logicielle 0.0747
-2.0098 aide me -0.0450
-2.0098 aide mon -0.0562
-2.0098 aide n -0.0219
-1.4295 aide pour -0.0202
-1.4295 aide scolaire -0.0348
-0.9281 aide à -0.0870
-2.0098 aide énormément -0.0468
-0.5784 aident dans 0.0250
-1.5327 aider après -0.0246
-1.5327 aider cela -0.0574
-1.5327 aider cependant -0.0548
-0.9524 aider dans 0.0445
-1.5327 aider des -0.0255
-1.5327 aider financièrement 0.0747
-1.5327 aider par -0.0570
-1.5327 aider à -0.0580
-1.7826 aides afin 0.0380
-1.7826 aides avaient -0.0417
-1.7826 aides et -0.0514
-1.7826 aides financières 0.0747
-1.2023 aides habituelles 0.0747
-1.7826 aides les -0.0543
-1.2023 aides pour -0.0535
-1.7826 aides quelques 0.0170
-1.7826 aides seulement -0.0501
-0.7691 aides à -0.1547
-1.5327 aidé au -0.0461
-1.5327 aidé elle -0.0561
-1.5327 aidé et -0.0544
-1.5327 aidé quand 0.1319
-0.5193 aidé à -0.0856
-0.5784 aie un -0.0551
-0.5784 ailes comme -0.0565
-1.0556 aime cette -0.0468
-1.0556 aime pas -0.0527
-1.0556 aime récemment -0.0417
-0.5784 aiment si -0.0319
-0.8795 aimer ce -0.0013
-0.8795 aimer mais -0.0519
-0.8795 aimerais nous -0.0556
-0.8795 aimerais y -0.0550
-0.5784 aimé que -0.0438
-0.4753 ainsi que -0.0542
-1.0556 ainsi être -0.0567
-0.5784 aise ou -0.0504
-0.8795 ajouter du -0.0570
-0.8795 ajouter à -0.0559
-0.5784 alcool des -0.0565
-0.5784 alimentation ce -0.0492
-0.5784 allaient acheter 0.1186
-0.2992 allais avoir -0.0526
-0.8795 allait au -0.0539
-0.8795 allait être -0.0567
-1.0678 aller aux -0.3385
-1.9007 aller car -0.0484
-1.9007 aller dans -0.0200
-1.9007 aller du -0.0532
-1.3204 aller en -0.0571
-1.9007 aller loin -0.0388
-1.3204 aller plus -0.1401
-1.9007 aller si -0.0559
-1.9007 aller sur -0.0471
-1.0678 aller vers 0.0002
-1.0678 aller voire 0.0867
-1.3204 aller à 0.0136
-0.5784 allez vous -0.0560
-0.5784 allocation dans -0.0200
-0.5784 allons pas -0.0578
-1.1805 alors d -0.0214
-1.1805 alors je -0.0581
-1.1805 alors que 0.0041
-1.1805 alors si -0.0411
-1.1805 ami je -0.0147
-1.1805 ami l -0.0433
-1.1805 ami n -0.0064
-1.1805 ami qui -0.0228
-0.8795 amie de -0.0438
-0.8795 amie formidable 0.0747
-0.8795 amies les -0.0581
-0.8795 amies moins -0.0501
-0.5784 aminés ou 0.0099
-1.7246 amis afin -0.0302
-1.7246 amis après -0.0398
-1.7246 amis doivent 0.0901
-1.1443 amis donnaient 0.1490
-1.7246 amis elle -0.0425
-1.7246 amis et -0.0467
-1.7246 amis j 0.4187
-1.7246 amis jouaient 0.0747
-1.7246 amis me -0.0577
-1.1443 amis pour -0.0370
-1.7246 amis que -0.0578
-1.7246 amis qui -0.0228
-0.8795 amortir cette -0.0567
-0.8795 amortir leurs -0.0495
-1.0556 amour conjoint 0.0747
-1.0556 amour la -0.0570
-1.0556 amour mes -0.0530
-0.5784 ampleur pour -0.0397
-0.5784 amplifié avec -0.0317
-0.5784 amplifiés avec -0.0255
-0.5784 amusant sur -0.0471
-0.5784 amuse de -0.0167
-0.5784 amusement en -0.0559
-0.5784 amuser et -0.0407
-0.5784 amusé en -0.0539
-0.5784 améliorations pour -0.0156
-0.5784 améliore ma -0.0550
-0.8795 améliorer dans -0.0072
-0.8795 améliorer le -0.0580
-0.5784 amélioré ma 0.0136
-0.5784 améliorés grâce 0.7545
-0.8795 aménagement des -0.0579
-0.8795 aménagement durant -0.0495
-0.5784 aménagements à -0.0541
-0.5784 aménager puis -0.0406
-0.5784 américain sans -0.0529
-1.1805 an au -0.0539
-1.1805 an j -0.0552
-1.1805 an pour -0.0455
-1.1805 an vous -0.0560
-1.0556 analyser peut 0.1710
-1.0556 analyser tout -0.0126
-1.0556 analyser à -0.0362
-0.5784 anatomopathologiques des -0.0550
-0.5784 animal avec -0.0161
-0.8795 animaux en -0.0559
-0.8795 animaux les -0.0581
-0.5784 annoncer les -0.0581
-0.5784 annonces c 0.4731
-0.8795 annoncé cela -0.0546
-0.8795 annoncé qu -0.0431
-1.5327 année d -0.0578
-1.5327 année de -0.0582
-1.5327 année ma -0.0550
-0.9524 année mais -0.1330
-1.5327 année master 0.0747
-1.5327 année que -0.0578
-0.9524 année suivante 0.0395
-1.3566 années cinquante 0.0747
-1.3566 années de -0.0582
-1.3566 années j -0.0158
-1.3566 années ma -0.0421
-0.7763 années mes -0.1034
-1.1805 anomalies cutanées 0.0747
-0.6002 anomalies du -0.0519
-1.1805 anomalies métaboliques 0.0747
-1.8795 ans car 0.0067
-1.8795 ans d -0.0392
-1.8795 ans dans -0.0274
-1.8795 ans de -0.0487
-1.2992 ans en -0.0509
-1.8795 ans et -0.0580
-1.8795 ans forcément -0.0287
-1.8795 ans il -0.0365
-1.8795 ans j -0.0579
-1.8795 ans je -0.0135
-1.8795 ans le -0.0580
-1.8795 ans les -0.0430
-1.8795 ans mes -0.0530
-1.8795 ans mon -0.0578
-1.8795 ans on 0.0078
-1.8795 ans parlent 0.0031
-1.8795 ans pour -0.0455
-1.8795 ans que 0.0041
-1.8795 ans tous -0.0562
-0.5784 anti épileptiques 0.0747
-0.5784 antécédents néonatals 0.0747
-0.5784 août 2015 -0.0348
-0.5784 apaiser leurs -0.0495
-0.5784 apparaissent chez -0.0319
-0.5784 apparaitra négatif 0.0672
-1.0556 appareil cela -0.0516
-0.4753 appareil de -0.1505
-0.5784 appareillage la -0.0580
-0.5784 appareils appartenant 0.0747
-0.2992 apparence physique -0.0243
-0.5784 apparences physiques -0.0184
-0.5784 apparition du -0.0570
-0.5784 appartement ne -0.0575
-0.5784 appartements adaptés -0.0287
-0.5784 appartenant à -0.0446
-0.5784 appartient aussi -0.0501
-0.2640 appel à -0.0297
-1.1805 appelle bassel 0.0747
-1.1805 appelle et -0.0514
-1.1805 appelle les -0.0549
-1.1805 appelle yohan 0.0747
-0.5784 application à -0.0541
-0.5784 applications en -0.0577
-0.5784 appliqué à -0.0202
-0.5784 apport aux -0.0552
-0.5784 apporte une -0.0566
-0.5784 apportent du -0.0570
-0.5784 apporter une -0.0536
-0.5784 apportera un -0.0579
-0.8795 apporté d -0.0527
-0.8795 apporté dans -0.0578
-0.5784 apprenais et -0.0270
-0.8795 apprendre aux -0.0461
-0.8795 apprendre sur 0.0624
-1.1805 apprends ce -0.0476
-1.1805 apprends encore -0.0541
-0.6002 apprends qui -0.1504
-0.5784 apprennent que 0.0549
-1.4815 appris cependant -0.0445
-1.4815 appris défoncer 0.0747
-1.4815 appris qu 0.0541
-1.4815 appris rapidement 0.0390
-0.9012 appris à -0.0516
-0.9012 appris énormément -0.0158
-0.5784 approfondir le -0.0569
-0.5784 appropriées de -0.0565
-0.5784 appréhension en -0.0577
-1.3784 après asphyxie 0.0395
-1.9586 après avoir -0.0555
-1.9586 après elle -0.0561
-1.9586 après je -0.0209
-1.9586 après la -0.0580
-1.1258 après le -0.3746
-1.9586 après ma -0.0421
-1.9586 après midi 0.0747
-1.3784 après mon -0.0518
-1.9586 après on 0.0078
-0.8770 après plus -0.1452
-1.9586 après quelques 0.0170
-1.9586 après t -0.0388
-1.9586 après toutes 0.2688
-1.9586 après une -0.0579
-1.9586 après vende -0.0184
-1.9586 après ça -0.0455
-0.5784 arbre dépassaient 0.0747
-0.5784 arcades du -0.0570
-0.5784 archaïques une -0.0579
-1.0556 argent dont -0.0184
-1.0556 argent je -0.0493
-1.0556 argent à -0.0580
-0.5784 armure et -0.0270
-0.8795 arrivais pas -0.0440
-0.8795 arrivais à -0.0580
-0.8795 arrive pas -0.0440
-0.8795 arrive quelque 0.2042
-0.2992 arrivent à -0.0557
-1.6576 arriver je -0.0221
-1.6576 arriver là -0.0438
-1.6576 arriver rédiger 0.0747
-0.1249 arriver à -0.0120
-0.5784 arriverais jamais -0.0523
-1.4235 arrivé alors -0.0287
-1.4235 arrivé dans -0.0200
-1.4235 arrivé en -0.0539
-0.3419 arrivé à -0.0528
-0.2992 arriération mentale 0.0747
-1.0556 arrêter cette -0.0567
-1.0556 arrêter faire -0.0339
-1.0556 arrêter à -0.0570
-0.5784 arrêterai jamais -0.0523
-1.1805 arrêté au -0.0572
-1.1805 arrêté ce -0.0550
-1.1805 arrêté essayer 0.2006
-1.1805 arrêté pour -0.0156
-0.4445 article je -0.3674
-1.2774 article sur -0.0382
-1.2774 article à -0.0418
-0.5784 articles scientifiques 0.0747
-1.6198 as ces 0.0707
-1.0395 as donné -0.0866
-1.6198 as encore -0.0122
-1.6198 as gagné -0.0348
-1.6198 as rencontrées -0.0287
-1.6198 as sont -0.0567
-0.7869 as tu -0.1060
-1.6198 as voulu -0.0348
-1.2774 asphyxie ictère -0.0287
-1.2774 asphyxie néonatale 0.2445
-0.4445 asphyxie périnatale 0.1514
-0.5784 aspirais à -0.0474
-1.1805 assez difficile -0.0070
-1.1805 assez intelligentes 0.2445
-1.1805 assez longue -0.0287
-1.1805 assez mâture 0.0747
-0.5784 assis tout 0.0783
-0.5784 assistait à -0.0541
-0.8795 assistance et -0.0377
-0.8795 assistance si -0.0559
-0.5784 assistant e 0.0031
-0.2227 assistante sociale -0.0184
-0.5784 assistées par -0.0570
-0.5784 associant très -0.0488
-1.8089 association a -0.0575
-1.8089 association avec -0.0161
-1.8089 association c 0.4731
-1.8089 association d -0.0578
-1.8089 association de -0.0459
-1.8089 association entre -0.0468
-1.8089 association j 0.4187
-0.7272 association m 0.0262
-1.8089 association n -0.0575
-1.8089 association possède 0.0031
-1.8089 association pour -0.0539
-1.2286 association qui -0.0218
-1.8089 association voulait -0.0388
-0.4753 associations d -0.1501
-1.0556 associations sont -0.0567
-0.5784 associées à -0.0418
-0.8795 associés au -0.0572
-0.8795 associés des -0.0579
-0.5784 assouvir comme -0.0452
-0.5784 assouvis pour -0.0545
-0.5784 assumer cependant 0.0125
-0.5784 assure qu 0.0541
-0.5784 asthénie une -0.0579
-0.5784 astuce est -0.0492
-0.5784 astuces pour -0.0539
-1.0556 ataxie et -0.0569
-1.0556 ataxie ou -0.0325
-1.0556 ataxie télangiectasie 0.0747
-0.5784 ataxique et -0.0580
-1.0556 ataxiques s -0.0550
-1.0556 ataxiques sont -0.0567
-1.0556 ataxiques surviennent 0.0747
-1.0556 atelier d -0.0563
-1.0556 atelier de -0.0582
-1.0556 atelier veux -0.0287
-1.2774 athétose due 0.2445
-1.2774 athétose l -0.0578
-1.2774 athétose moins -0.0501
-1.2774 athétose provoque 0.2445
-1.2774 athétose troubles -0.0388
-1.1805 athétosique ataxique 0.0747
-1.1805 athétosique donc -0.0413
-1.1805 athétosique et -0.0580
-1.1805 athétosique je -0.0147
-0.2992 athétosiques ou -0.0542
-0.5784 atout en -0.0559
-0.5784 atrophie musculaire -0.0287
-1.2774 atteindre dans -0.0200
-1.2774 atteindre donc 0.0751
-1.2774 atteindre la -0.0580
-1.2774 atteindre les -0.0581
-1.2774 atteindre par -0.0530
-0.5784 atteindront leurs -0.0495
-1.3566 atteinte corticobulbaire 0.0747
-1.3566 atteinte cérébrale -0.0184
-1.3566 atteinte des -0.0579
-0.7763 atteinte du -0.0557
-1.3566 atteinte motrice -0.0287
-0.7455 atteints d -0.0490
-0.9982 atteints de -0.0575
-1.5784 atteints je -0.0221
-1.5784 atteints la -0.0541
-1.5784 atteints les -0.0581
-1.5784 atteints peuvent -0.0536
-1.5784 atteints sont -0.0567
-0.5784 attendant une -0.0579
-0.5784 attende pour -0.0580
-0.5784 attendes mais -0.0567
-0.5784 attendre au -0.0572
-1.4235 attends beaucoup -0.0549
-1.4235 attends comme -0.0565
-0.8433 attends de -0.0500
-1.4235 attends le -0.0535
-0.8433 attends pas -0.0490
-0.5784 attendu trois -0.0487
-1.1805 attention aux -0.0552
-0.3476 attention à -0.0573
-0.5784 attentionnées dans -0.0423
-0.5784 attire le -0.0461
-0.8795 attirer des -0.0255
-0.8795 attirer plus -0.0183
-1.9894 au ballon 0.1490
-2.5697 au bon -0.0478
-2.5697 au bout 0.0747
-2.5697 au changement -0.0184
-2.5697 au cnrs 0.0747
-1.7368 au collège 0.0747
-2.5697 au combat -0.0287
-2.5697 au concours 0.0747
-1.5562 au cours -0.2090
-1.9894 au cp 0.0747
-2.5697 au cul 0.0747
-2.5697 au côté 0.0031
-2.5697 au dessus 0.0031
-2.5697 au directeur -0.0184
-2.5697 au domaine -0.0099
-1.3085 au début -0.0494
-1.9894 au départ 0.0257
-1.9894 au fait -0.0346
-1.4880 au final 0.0747
-2.5697 au foot -0.0184
-2.5697 au football 0.0747
-2.5697 au grand -0.0468
-1.9894 au jour -0.0299
-1.9894 au lieu 0.1490
-2.5697 au lit 0.0747
-1.9894 au lycée 0.0747
-1.9894 au maximum 0.0747
-2.5697 au mieux -0.0468
-2.5697 au milieu 0.0747
-2.5697 au minimum -0.0184
-1.4880 au mois -0.1524
-1.9894 au monde -0.0300
-2.5697 au moral -0.0287
-1.7368 au même -0.1045
-1.3085 au niveau 0.0052
-2.5697 au nom -0.0184
-1.9894 au paravent 0.0747
-2.5697 au pare 0.0747
-1.9894 au plaisir -0.0348
-2.5697 au primaire -0.0184
-1.9894 au président 0.1490
-1.7368 au quotidien 0.0165
-1.9894 au sein 0.0747
-2.5697 au son -0.0543
-2.5697 au temps -0.0325
-2.5697 au transport 0.0747
-0.9498 au travers 0.1190
-2.5697 au téléphone -0.0287
-2.5697 au village -0.0184
-0.5784 auchant drive 0.0747
-1.4235 aucun appartement 0.0747
-1.4235 aucun cas -0.0302
-1.4235 aucun moyen 0.0962
-0.8433 aucun organisme 0.0232
-0.8433 aucun problème -0.1345
-1.1805 aucune expérience -0.0478
-1.1805 aucune formation 0.0031
-1.1805 aucune opinion -0.0348
-1.1805 aucune précision 0.0747
-0.5784 audience des -0.0255
-0.5784 audiovisuel est -0.0579
-0.5784 augmentant la -0.0580
-0.8795 augmentation de -0.0167
-0.8795 augmentation des -0.0550
-0.5784 augmente leur -0.0507
-0.5784 augmentent avec -0.0491
-0.8795 augmenté fortement -0.0348
-0.8795 augmenté mon -0.0544
-0.0300 aujourd hui 0.1941
-0.6002 auparavant c -0.0077
-1.1805 auparavant envers 0.0534
-1.1805 auparavant je -0.0160
-0.6002 auprès de -0.0212
-1.1805 auprès des -0.0579
-1.1805 auprès du -0.0570
-1.1805 aura plus -0.0183
-0.3476 aura toujours -0.0176
-0.5784 aurai un -0.0579
-0.5784 auraient gagné -0.0348
-1.4235 aurais aimé 0.0747
-1.4235 aurais cette -0.0567
-0.8433 aurais jamais -0.1303
-1.4235 aurais ma -0.0575
-1.4235 aurais mis -0.0455
-1.4235 aurais peut 0.1710
-1.4235 aurait fait -0.0563
-1.4235 aurait la -0.0560
-1.4235 aurait pas -0.0578
-0.8433 aurait pu 0.0166
-1.4235 aurait un -0.0579
-1.4235 aurait été -0.0487
-0.4753 auras des -0.1505
-1.0556 auras le -0.0580
-0.8795 aurez jamais -0.0523
-0.8795 aurez une -0.0579
-0.5784 auront pas -0.0286
-1.7246 aussi agréable -0.0455
-1.7246 aussi car -0.0528
-1.7246 aussi comment -0.0390
-1.7246 aussi des -0.0579
-1.7246 aussi dire -0.0516
-1.7246 aussi facilement -0.0417
-1.7246 aussi les -0.0571
-1.7246 aussi que 0.0549
-1.7246 aussi rapidement -0.0348
-1.1443 aussi une -0.0562
-1.7246 aussi volontaires 0.0031
-1.7246 aussi à -0.0580
-1.7246 aussi évidemment -0.0531
-0.5784 aussitôt que 0.0041
-0.8795 autant de -0.0582
-0.8795 autant fois -0.0261
-1.2774 autobiographie avant 0.0453
-1.2774 autobiographie comme -0.0565
-1.2774 autobiographie comprendront 0.2445
-1.2774 autobiographie m 0.0681
-1.2774 autobiographie pourraient 0.0031
-0.8795 automatique dès 0.0747
-0.8795 automatique puis -0.0406
-0.5784 automatiquement compenser 0.0747
-0.5784 automutilation et -0.0538
-1.1805 autonome c 0.4731
-1.1805 autonome dans -0.0299
-1.1805 autonome pour -0.0580
-1.1805 autonome à -0.0580
-1.6198 autonomie cependant -0.0445
-1.6198 autonomie envers -0.0204
-1.6198 autonomie et -0.0569
-1.0395 autonomie je -0.0125
-1.6198 autonomie l -0.0318
-1.6198 autonomie le -0.0569
-1.6198 autonomie malheureusement -0.0348
-1.6198 autonomie max 0.0031
-1.6198 autonomie sociale -0.0455
-1.6198 autonomie sous 0.0031
-0.5784 autorisation en -0.0559
-0.5784 autorise le -0.0556
-0.5784 autorisé à -0.0559
-0.6002 autour de -0.0499
-0.6002 autour du -0.0306
-1.8089 autre de -0.0529
-1.8089 autre expérience 0.0191
-1.8089 autre façon 0.1555
-1.8089 autre forme 0.0747
-1.8089 autre l -0.0545
-0.7272 autre livre -0.0136
-1.8089 autre orientation 0.0031
-1.8089 autre projet -0.0438
-1.8089 autre regard -0.0390
-1.8089 autre sans -0.0195
-1.8089 autre sens -0.0495
-1.8089 autre souhait 0.0390
-1.8089 autre vision -0.0348
-1.8089 autre à -0.0362
-0.5784 autrement que -0.0578
-2.2119 autres affections 0.0747
-1.3790 autres années -0.0165
-2.2119 autres anomalies -0.0287
-1.3790 autres c 1.9559
-2.2119 autres ce -0.0476
-2.2119 autres défauts -0.0184
-2.2119 autres enfant -0.0495
-2.2119 autres enfants -0.0390
-2.2119 autres enseignantes 0.2445
-2.2119 autres envers 0.0121
-2.2119 autres et -0.0377
-2.2119 autres formation 0.0031
-2.2119 autres intervenantes -0.0417
-2.2119 autres m 0.0162
-2.2119 autres mais -0.0468
-1.1302 autres me -0.2660
-2.2119 autres ne -0.0351
-2.2119 autres nous -0.0556
-2.2119 autres occupations 0.0031
-2.2119 autres par -0.0570
-2.2119 autres patients 0.0672
-2.2119 autres pensent -0.0348
-1.6316 autres personnes 0.0137
-1.6316 autres pour -0.0152
-1.6316 autres projets 0.0747
-2.2119 autres qu 0.0189
-2.2119 autres qui -0.0575
-2.2119 autres si 0.0729
-2.2119 autres sont -0.0567
-2.2119 autres souhaits 0.0747
-2.2119 autres sur -0.0382
-2.2119 autres tout -0.0369
-2.2119 autres viennent 0.2445
-1.1805 autrui d -0.0578
-1.1805 autrui mais -0.0567
-1.1805 autrui me -0.0577
-1.1805 autrui nous -0.0389
-2.1347 aux activités -0.0184
-2.1347 aux aides 0.0226
-2.1347 aux assistant 0.0747
-1.5545 aux autres -0.0530
-2.1347 aux compétences -0.0184
-2.1347 aux contractures 0.0747
-2.1347 aux cours -0.0526
-2.1347 aux diminués 0.0747
-2.1347 aux domaines -0.0184
-2.1347 aux esprits -0.0287
-2.1347 aux faites -0.0287
-1.3018 aux gens 0.0946
-1.5545 aux handicapés -0.0388
-2.1347 aux intervenantes -0.0417
-2.1347 aux jeux 0.0031
-2.1347 aux normes -0.0184
-2.1347 aux parents -0.0531
-1.1213 aux personnes -0.0698
-2.1347 aux problèmes -0.0390
-2.1347 aux profs 0.0672
-2.1347 aux rendez 0.0747
-1.0531 aux toilettes 0.0747
-2.1347 aux usagés 0.0031
