#############################################################################
## Copyright (c) 1996, Carnegie Mellon University, Cambridge University,
## Ronald Rosenfeld and Philip Clarkson
#############################################################################
=============================================================================
===============  This file was produced by the CMU-Cambridge  ===============
===============     Statistical Language Modeling Toolkit     ===============
=============================================================================
This is a 3-gram language model, based on a vocabulary of 2965 words,
  which begins "0", "000", "1"...
This is an OPEN-vocabulary model (type 1)
  (OOVs were mapped to UNK, which is treated as any other vocabulary word)
Witten Bell discounting was applied.
This file is in the ARPA-standard format introduced by Doug Paul.

p(wd3|wd1,wd2)= if(trigram exists)           p_3(wd1,wd2,wd3)
                else if(bigram w1,w2 exists) bo_wt_2(w1,w2)*p(wd3|wd2)
                else                         p(wd3|w2)

p(wd2|wd1)= if(bigram exists) p_2(wd1,wd2)
            else              bo_wt_1(wd1)*p_1(wd2)

All probs and back-off weights (bo_wt) are given in log10 form.

Data formats:

Beginning of data mark: \data\
ngram 1=nr            # number of 1-grams
ngram 2=nr            # number of 2-grams
ngram 3=nr            # number of 3-grams

\1-grams:
p_1     wd_1 bo_wt_1
\2-grams:
p_2     wd_1 wd_2 bo_wt_2
\3-grams:
p_3     wd_1 wd_2 wd_3 

end of data mark: \end\

\data\
ngram 1=2966
ngram 2=11468
ngram 3=16209

\1-grams:
-4.2643 <UNK>	0.0000
-3.9632 0	-0.3007
-3.7871 000	-0.6018
-3.7871 1	-0.2876
-3.9632 10	-0.2954
-3.9632 100	-0.4769
-3.9632 11	-0.3004
-4.2643 13	-0.3010
-4.2643 130	-0.3010
-3.9632 14	-0.4766
-4.2643 15	-0.2955
-4.2643 16	-0.3006
-4.2643 1992	-0.2969
-3.2643 2	-0.3438
-3.7871 20	-0.2949
-4.2643 2004	-0.2939
-3.9632 2011	-0.2858
-3.9632 2013	-0.2904
-4.2643 2014	-0.3005
-3.5653 2015	-0.3361
-3.9632 2016	-0.2950
-4.2643 22	-0.3010
-4.2643 25	-0.2955
-4.2643 257	-0.2928
-3.6622 3	-0.4764
-3.7871 30	-0.3901
-4.2643 3000	-0.3008
-4.2643 35	-0.3010
-3.9632 35000	-0.4769
-3.6622 4	-0.2999
-3.4192 5	-0.3750
-4.2643 500	-0.3008
-4.2643 6	-0.3006
-4.2643 69	-0.2991
-4.2643 7	-0.3006
-4.2643 70	-0.2955
-3.4861 8	-0.3269
-2.1639 a	-0.3738
-4.2643 aah	-0.2939
-3.9632 abandonné	-0.2975
-3.3100 abord	-0.3283
-3.9632 abordent	-0.2937
-3.9632 aborder	-0.2986
-4.2643 abordé	-0.2942
-4.2643 absente	-0.2939
-3.9632 absolument	-0.2902
-3.9632 abstraction	-0.4619
-3.9632 accepte	-0.3008
-4.2643 accepter	-0.2962
-3.4192 accepté	-0.4068
-3.4192 accessibilité	-0.2754
-3.5653 accessible	-0.2916
-4.2643 accessibles	-0.2991
-3.9632 accident	-0.3002
-4.2643 accompagnant	-0.2965
-4.2643 accompagnantes	-0.2980
-3.9632 accompagner	-0.2998
-3.9632 accompagné	-0.2941
-4.2643 accompagnée	-0.2991
-3.6622 accord	-0.2755
-4.2643 accoucha	-0.2961
-4.2643 accouchement	-0.2991
-4.2643 accueil	-0.2858
-4.2643 accès	-0.2987
-3.9632 accélérer	-0.4693
-4.2643 accéléré	-0.2983
-3.6622 achat	-0.2867
-4.2643 achats	-0.2999
-3.7871 acheter	-0.3818
-4.2643 achetez	-0.2942
-3.9632 acheté	-0.2940
-4.2643 achetée	-0.2991
-4.2643 achèterai	-0.2932
-4.2643 acides	-0.3010
-4.2643 action	-0.3008
-3.9632 actions	-0.2858
-3.7871 activités	-0.3008
-4.2643 actuellement	-0.2989
-4.2643 adaptation	-0.3009
-4.2643 adaptations	-0.3008
-3.1851 adapter	-0.3716
-4.2643 adaptée	-0.2965
-3.6622 adaptés	-0.2866
-4.2643 adar	-0.2951
-3.9632 admet	-0.4693
-4.2643 adoption	-0.2999
-3.6622 adore	-0.3656
-4.2643 adresser	-0.3002
-3.9632 adrénoleucodystrophie	-0.3010
-4.2643 adulte	-0.3009
-3.5653 adultes	-0.2914
-3.9632 affecter	-0.2928
-4.2643 affections	-0.3010
-4.2643 affiches	-0.3010
-4.2643 affichés	-0.2994
-4.2643 afflux	-0.3004
-4.2643 affronte	-0.2928
-3.9632 affronter	-0.2887
-3.0601 afin	-0.7761
-4.2643 agissent	-0.3007
-4.2643 agit	-0.2961
-3.3100 agréable	-0.3203
-3.9632 agréables	-0.2902
-2.0090 ai	-0.4450
-2.8329 aide	-0.3429
-4.2643 aident	-0.2965
-3.3100 aider	-0.3031
-3.0601 aides	-0.3822
-3.3100 aidé	-0.4278
-4.2643 aie	-0.2953
-4.2643 ailes	-0.2996
-3.7871 aime	-0.2942
-4.2643 aiment	-0.2999
-3.9632 aimer	-0.2963
-3.9632 aimerais	-0.2993
-4.2643 aimé	-0.2961
-3.7871 ainsi	-0.3913
-4.2643 aise	-0.2997
-3.9632 ajouter	-0.2913
-4.2643 alcool	-0.2955
-4.2643 alimentation	-0.2979
-4.2643 allaient	-0.3010
-3.9632 allais	-0.4762
-3.9632 allait	-0.2971
-2.9420 aller	-0.4116
-4.2643 allez	-0.2999
-4.2643 allocation	-0.2965
-4.2643 allons	-0.2960
-3.6622 alors	-0.2805
-3.6622 ami	-0.2807
-3.9632 amie	-0.2858
-3.9632 amies	-0.2925
-4.2643 aminés	-0.2997
-3.1181 amis	-0.3000
-3.9632 amortir	-0.2991
-3.7871 amour	-0.2912
-4.2643 ampleur	-0.2937
-4.2643 amplifié	-0.2974
-4.2643 amplifiés	-0.2974
-4.2643 amusant	-0.2994
-4.2643 amuse	-0.2858
-4.2643 amusement	-0.2969
-4.2643 amuser	-0.2939
-4.2643 amusé	-0.2969
-4.2643 améliorations	-0.2937
-4.2643 améliore	-0.2979
-3.9632 améliorer	-0.2897
-4.2643 amélioré	-0.2979
-4.2643 améliorés	-0.3007
-3.9632 aménagement	-0.2952
-4.2643 aménagements	-0.2934
-4.2643 aménager	-0.3005
-4.2643 américain	-0.3005
-3.6622 an	-0.2841
-3.7871 analyser	-0.2900
-4.2643 anatomopathologiques	-0.2955
-4.2643 animal	-0.2974
-3.9632 animaux	-0.2886
-4.2643 annoncer	-0.2928
-4.2643 annonces	-0.2982
-3.9632 annoncé	-0.2961
-3.3100 année	-0.3283
-3.4861 années	-0.3158
-3.6622 anomalies	-0.3659
-2.9632 ans	-0.2087
-4.2643 anti	-0.3010
-4.2643 antécédents	-0.3010
-4.2643 août	-0.3009
-4.2643 apaiser	-0.3007
-4.2643 apparaissent	-0.3006
-4.2643 apparaitra	-0.3009
-3.7871 appareil	-0.3798
-4.2643 appareillage	-0.2932
-4.2643 appareils	-0.3010
-3.9632 apparence	-0.4770
-4.2643 apparences	-0.3010
-4.2643 apparition	-0.2990
-4.2643 appartement	-0.2979
-4.2643 appartements	-0.3009
-4.2643 appartenant	-0.2934
-4.2643 appartient	-0.3007
-3.5653 appel	-0.7705
-3.6622 appelle	-0.2855
-4.2643 application	-0.2934
-4.2643 applications	-0.2969
-4.2643 appliqué	-0.2934
-4.2643 apport	-0.3002
-4.2643 apporte	-0.2951
-4.2643 apportent	-0.2990
-4.2643 apporter	-0.2951
-4.2643 apportera	-0.2953
-3.9632 apporté	-0.2915
-4.2643 apprenais	-0.2939
-3.9632 apprendre	-0.2985
-3.6622 apprends	-0.3612
-4.2643 apprennent	-0.2961
-3.3612 appris	-0.3569
-4.2643 approfondir	-0.2942
-4.2643 appropriées	-0.2858
-4.2643 appréhension	-0.2969
-2.8840 après	-0.3342
-4.2643 arbre	-0.3010
-4.2643 arcades	-0.2990
-4.2643 archaïques	-0.2951
-3.7871 argent	-0.2839
-4.2643 armure	-0.2939
-3.9632 arrivais	-0.2883
-3.9632 arrive	-0.2959
-3.9632 arrivent	-0.4695
-3.1851 arriver	-0.5848
-4.2643 arriverais	-0.3006
-3.4192 arrivé	-0.4227
-3.9632 arriération	-0.4771
-3.7871 arrêter	-0.2896
-4.2643 arrêterai	-0.3006
-3.6622 arrêté	-0.2881
-3.5653 article	-0.4072
-4.2643 articles	-0.3010
-3.2229 as	-0.3711
-3.5653 asphyxie	-0.4257
-4.2643 aspirais	-0.2934
-3.6622 assez	-0.3007
-4.2643 assis	-0.2987
-4.2643 assistait	-0.2934
-3.9632 assistance	-0.2928
-4.2643 assistant	-0.3010
-3.7871 assistante	-0.6018
-4.2643 assistées	-0.2991
-4.2643 associant	-0.2999
-3.0338 association	-0.3090
-3.7871 associations	-0.3913
-4.2643 associées	-0.2934
-3.9632 associés	-0.2931
-4.2643 assouvir	-0.2996
-4.2643 assouvis	-0.2937
-4.2643 assumer	-0.3003
-4.2643 assure	-0.2989
-4.2643 asthénie	-0.2951
-4.2643 astuce	-0.2956
-4.2643 astuces	-0.2937
-3.7871 ataxie	-0.2925
-4.2643 ataxique	-0.2939
-3.7871 ataxiques	-0.2985
-3.7871 atelier	-0.2806
-3.5653 athétose	-0.2957
-3.6622 athétosique	-0.2838
-3.9632 athétosiques	-0.4758
-4.2643 atout	-0.2969
-4.2643 atrophie	-0.3009
-3.5653 atteindre	-0.2776
-4.2643 atteindront	-0.3007
-3.4861 atteinte	-0.3346
-3.2643 atteints	-0.3355
-4.2643 attendant	-0.2951
-4.2643 attende	-0.2937
-4.2643 attendes	-0.2994
-4.2643 attendre	-0.2987
-3.4192 attends	-0.3503
-4.2643 attendu	-0.3007
-3.6622 attention	-0.4686
-4.2643 attentionnées	-0.2965
-4.2643 attire	-0.2942
-3.9632 attirer	-0.2930
-2.2730 au	-0.4667
-4.2643 auchant	-0.3010
-3.4192 aucun	-0.3791
-3.6622 aucune	-0.3006
-4.2643 audience	-0.2955
-4.2643 audiovisuel	-0.2956
-4.2643 augmentant	-0.2932
-3.9632 augmentation	-0.2800
-4.2643 augmente	-0.2997
-4.2643 augmentent	-0.2974
-3.9632 augmenté	-0.2962
-3.1181 aujourd	-1.1758
-3.6622 auparavant	-0.3556
-3.6622 auprès	-0.3449
-3.6622 aura	-0.4737
-4.2643 aurai	-0.2953
-4.2643 auraient	-0.3009
-3.4192 aurais	-0.3294
-3.4192 aurait	-0.3151
-3.7871 auras	-0.3855
-3.9632 aurez	-0.2946
-4.2643 auront	-0.2960
-3.1181 aussi	-0.2799
-4.2643 aussitôt	-0.2961
-3.9632 autant	-0.2854
-3.5653 autobiographie	-0.2969
-3.9632 automatique	-0.3004
-4.2643 automatiquement	-0.3010
-4.2643 automutilation	-0.2939
-3.6622 autonome	-0.2783
-3.2229 autonomie	-0.2919
-4.2643 autorisation	-0.2969
-4.2643 autorise	-0.2942
-4.2643 autorisé	-0.2934
-3.6622 autour	-0.4598
-3.0338 autre	-0.3137
-4.2643 autrement	-0.2961
-2.6308 autres	-0.3093
-3.6622 autrui	-0.2896
-2.7079 aux	-0.3806
-3.4192 avaient	-0.3171
-2.9855 avais	-0.3414
-3.1503 avait	-0.4446
-4.2643 avance	-0.2974
-3.7871 avancer	-0.2955
-3.0882 avant	-0.4506
-3.6622 avantages	-0.2714
-2.0853 avec	-0.5106
-3.5653 avenir	-0.2837
-4.2643 aventure	-0.2991
-4.2643 aveugle	-0.3010
-4.2643 avez	-0.3009
-3.6622 avion	-0.2857
-3.7871 avis	-0.2837
-2.6622 avoir	-0.3852
-3.7871 avons	-0.2976
-3.9632 avoue	-0.2905
-4.2643 avouer	-0.2961
-4.2643 avoué	-0.2980
-3.2643 avs	-0.4643
-4.2643 avèrent	-0.3009
-3.4861 ayant	-0.3811
-4.2643 ayez	-0.2953
-4.2643 azerty	-0.2994
-4.2643 aéroport	-0.3010
-4.2643 b	-0.2942
-3.1503 bac	-0.4360
-4.2643 bah	-0.3010
-4.2643 bailleur	-0.3008
-4.2643 bain	-0.2939
-4.2643 balle	-0.2965
-3.9632 ballon	-0.4699
-4.2643 bardot	-0.2934
-4.2643 barrière	-0.2980
-3.9632 bas	-0.2993
-4.2643 base	-0.2858
-4.2643 basique	-0.2918
-4.2643 bassel	-0.3010
-4.2643 bat	-0.3007
-4.2643 bats	-0.2998
-3.9632 battant	-0.4698
-4.2643 batterie	-0.2858
-3.6622 battre	-0.3555
-3.6622 beau	-0.3669
-2.7457 beaucoup	-0.5514
-3.9632 beaux	-0.4766
-3.5653 belgique	-0.2816
-3.2643 belle	-0.6362
-4.2643 belles	-0.3010
-3.3612 besoin	-0.6786
-3.3100 besoins	-0.3100
-2.9632 bien	-0.2678
-4.2643 bienvenu	-0.2965
-3.9632 bienvenus	-0.2872
-4.2643 bienêtre	-0.3006
-4.2643 biochimiques	-0.3010
-4.2643 bizarre	-0.3009
-3.9632 bizarrement	-0.4679
-4.2643 blanc	-0.3008
-4.2643 blancs	-0.3009
-4.2643 blessure	-0.2995
-3.9632 blessée	-0.2979
-4.2643 bleui	-0.2991
-3.7871 blog	-0.2908
-4.2643 bloquent	-0.2965
-4.2643 bloqué	-0.2965
-4.2643 boire	-0.3006
-4.2643 boissière	-0.2987
-4.2643 boisson	-0.3009
-4.2643 boite	-0.2858
-3.2229 bon	-0.3174
-3.7871 bonheur	-0.2849
-4.2643 bonjour	-0.2918
-3.7871 bonne	-0.3007
-3.9632 bonnes	-0.4751
-3.6622 bons	-0.3004
-4.2643 bord	-0.2980
-4.2643 borde	-0.2987
-3.5653 bouche	-0.2864
-4.2643 bouge	-0.2965
-4.2643 bourse	-0.2937
-4.2643 bout	-0.2961
-3.7871 bras	-0.2905
-4.2643 brigitte	-0.3010
-4.2643 brochures	-0.3010
-4.2643 bruler	-0.2955
-4.2643 brusques	-0.3007
-3.9632 bruxelles	-0.2875
-4.2643 brûler	-0.2969
-4.2643 buccaux	-0.3010
-3.9632 budget	-0.2976
-4.2643 bulle	-0.3010
-3.0601 but	-0.3724
-4.2643 bâtards	-0.2980
-4.2643 bâtiment	-0.3007
-4.2643 bébé	-0.3008
-3.9632 bénéfice	-0.2857
-4.2643 bénéfices	-0.2934
-4.2643 bénévole	-0.3008
-4.2643 bêtement	-0.3010
-3.7871 bêtises	-0.2849
-2.1924 c	-1.7709
-4.2643 cachaient	-0.3009
-4.2643 cachais	-0.2965
-4.2643 cachait	-0.2969
-4.2643 cacher	-0.3009
-4.2643 cachées	-0.2969
-4.2643 cadeaux	-0.2858
-4.2643 cadence	-0.2934
-3.7871 cadre	-0.2807
-4.2643 calme	-0.3008
-3.9632 calmement	-0.2919
-3.9632 cap	-0.4771
-3.3612 capable	-0.5479
-3.9632 capacité	-0.2787
-4.2643 capacités	-0.3010
-2.3666 car	-0.4221
-4.2643 caractère	-0.2858
-3.9632 caractères	-0.2979
-4.2643 caractérisent	-0.3006
-4.2643 caractéristiques	-0.3006
-4.2643 caractérisés	-0.2991
-4.2643 carapace	-0.2939
-4.2643 carte	-0.2858
-3.0601 cas	-0.2711
-3.9632 casser	-0.2919
-3.9632 catholique	-0.2928
-4.2643 catégories	-0.3008
-2.8840 cause	-0.4856
-4.2643 ccd	-0.2939
-4.2643 cdd	-0.3009
-4.2643 cdi	-0.2998
-2.1503 ce	-0.6187
-3.2229 ceci	-0.4336
-2.1998 cela	-0.3371
-3.7871 celle	-0.2798
-4.2643 celui	-0.2955
-4.2643 centraux	-0.2928
-3.7871 centre	-0.5868
-4.2643 centrée	-0.3009
-2.7591 cependant	-0.3746
-4.2643 cercle	-0.3006
-4.2643 cerebral	-0.3010
-4.2643 cerner	-0.2963
-4.2643 certain	-0.3009
-4.2643 certaine	-0.3010
-3.7871 certainement	-0.2780
-3.5653 certaines	-0.4235
-3.3612 certains	-0.3187
-4.2643 certes	-0.2932
-4.2643 certitude	-0.3007
-3.7871 cerveau	-0.3006
-4.2643 cervelet	-0.2997
-2.7202 ces	-0.3740
-4.2643 cesse	-0.3010
-4.2643 cesser	-0.2961
-3.1503 cet	-0.3873
-2.4317 cette	-0.3812
-3.0601 ceux	-0.6022
-4.2643 ch	-0.3010
-3.3612 chacun	-0.3544
-4.2643 chaines	-0.3010
-3.1851 chance	-0.4392
-3.9632 change	-0.2855
-4.2643 changeant	-0.2961
-3.7871 changement	-0.3780
-3.9632 changements	-0.2918
-4.2643 changent	-0.3006
-3.2643 changer	-0.3589
-4.2643 changera	-0.2960
-3.5653 changé	-0.2892
-4.2643 chanson	-0.3010
-3.0882 chaque	-0.3440
-3.7871 charge	-0.2873
-4.2643 charger	-0.2965
-4.2643 charnel	-0.2987
-4.2643 chauffeurs	-0.3010
-3.5653 chemin	-0.3361
-4.2643 chemins	-0.2858
-4.2643 cher	-0.3010
-3.7871 chercheur	-0.2943
-4.2643 chewbacca	-0.2937
-3.0338 chez	-0.3576
-4.2643 chirurgicales	-0.2997
-4.2643 chirurgie	-0.3010
-4.2643 chié	-0.2974
-3.9632 choisi	-0.2849
-3.6622 choisir	-0.2861
-3.7871 choix	-0.3892
-3.9632 choquant	-0.2910
-4.2643 choquer	-0.3005
-4.2643 choréiformes	-0.3005
-3.0882 chose	-0.2679
-3.2229 choses	-0.2865
-4.2643 choubaka	-0.3008
-4.2643 chroniques	-0.2928
-4.2643 chubaka	-0.3010
-3.9632 chère	-0.2901
-4.2643 chômage	-0.2980
-4.2643 ci	-0.3010
-4.2643 cigarette	-0.2928
-4.2643 cinq	-0.2858
-4.2643 cinquante	-0.2939
-3.9632 claire	-0.4619
-3.4861 classe	-0.3162
-3.9632 classique	-0.2956
-3.5653 clavier	-0.2829
-3.9632 claviers	-0.3010
-3.7871 clients	-0.2916
-4.2643 cliniques	-0.2997
-4.2643 clique	-0.2962
-4.2643 cloniques	-0.3010
-3.9632 clé	-0.2784
-3.5653 clés	-0.5212
-4.2643 cm2	-0.2942
-4.2643 cnrs	-0.2932
-4.2643 codes	-0.2996
-3.7871 collège	-0.2858
-4.2643 collègue	-0.2980
-4.2643 colonne	-0.3010
-3.6622 combat	-0.2763
-4.2643 combattante	-0.2961
-4.2643 comble	-0.2963
-4.2643 comitiales	-0.3010
-4.2643 commandant	-0.2858
-2.4861 comme	-0.3262
-3.9632 commence	-0.2848
-3.6622 commencé	-0.4647
-2.9025 comment	-0.4119
-4.2643 commençais	-0.2962
-3.7871 commerce	-0.2938
-3.9632 commercial	-0.3003
-3.7871 commerçant	-0.2965
-3.6622 commerçants	-0.2902
-3.9632 commun	-0.2869
-4.2643 communautés	-0.3010
-4.2643 commune	-0.2969
-3.1181 communication	-0.2937
-3.7871 communiquer	-0.2940
-4.2643 communs	-0.2918
-3.7871 compassion	-0.2956
-4.2643 compenser	-0.2953
-4.2643 compensé	-0.2974
-4.2643 complexe	-0.2937
-4.2643 complexité	-0.2858
-4.2643 complicité	-0.3010
-3.4192 compliqué	-0.3145
-4.2643 compliquée	-0.2934
-4.2643 complète	-0.2981
-3.4861 complètement	-0.3315
-3.9632 complémentaires	-0.2922
-3.9632 comporte	-0.3007
-3.7871 comportement	-0.2909
-3.1181 comprendre	-0.3291
-3.9632 comprendront	-0.4769
-3.1851 comprends	-0.3749
-4.2643 comprennent	-0.3009
-3.6622 compris	-0.2683
-3.6622 compte	-0.2855
-4.2643 compter	-0.2994
-3.7871 compétences	-0.2851
-3.5653 con	-0.2674
-3.9632 concentration	-0.3010
-4.2643 concernait	-0.2962
-3.3100 concernant	-0.3675
-4.2643 concerne	-0.2928
-4.2643 concernent	-0.2928
-4.2643 concerné	-0.2991
-3.9632 concernées	-0.2850
-4.2643 concernés	-0.2991
-3.9632 conclusion	-0.2904
-4.2643 concours	-0.2961
-4.2643 condition	-0.3009
-4.2643 conditionnée	-0.2991
-4.2643 conduire	-0.3008
-4.2643 conduit	-0.2969
-3.4861 confiance	-0.3199
-4.2643 confident	-0.2992
-4.2643 confidentialité	-0.2952
-4.2643 confirmé	-0.2994
-3.9632 confort	-0.3001
-4.2643 confronté	-0.2953
-3.7871 conférence	-0.3846
-4.2643 conférences	-0.2961
-4.2643 conjoint	-0.3010
-3.9632 connais	-0.2934
-3.9632 connaissait	-0.3005
-3.9632 connaissances	-0.2922
-4.2643 connait	-0.2960
-3.9632 connaitre	-0.2949
-4.2643 connard	-0.3007
-4.2643 connaît	-0.2960
-4.2643 connerie	-0.3009
-4.2643 conneries	-0.2932
-4.2643 connu	-0.3006
-4.2643 connues	-0.2990
-4.2643 cons	-0.2979
-3.6622 conscience	-0.4596
-3.9632 conscient	-0.2939
-4.2643 conscientes	-0.2858
-4.2643 conseil	-0.3002
-4.2643 conseille	-0.3009
-4.2643 conseiller	-0.2973
-4.2643 conseillé	-0.2992
-4.2643 conseils	-0.3010
-3.9632 considérer	-0.2995
-3.9632 considéré	-0.4757
-4.2643 consiste	-0.2934
-4.2643 consistent	-0.2934
-4.2643 console	-0.2982
-4.2643 constants	-0.2939
-3.7871 constatation	-0.2824
-3.9632 constater	-0.2936
-3.9632 constaté	-0.4722
-3.9632 constitue	-0.2870
-4.2643 constitué	-0.2953
-4.2643 constructif	-0.2858
-4.2643 construction	-0.2969
-4.2643 construire	-0.2953
-4.2643 conséquences	-0.3010
-2.9855 conséquent	-0.3500
-4.2643 conséquents	-0.2918
-3.6622 contact	-0.4721
-4.2643 conte	-0.3008
-3.5653 contexte	-0.3244
-4.2643 contextes	-0.3010
-3.9632 continuait	-0.4740
-4.2643 continue	-0.3010
-4.2643 continuent	-0.2934
-3.4861 continuer	-0.3892
-4.2643 contractures	-0.2951
-4.2643 contradictoire	-0.2918
-4.2643 contraignant	-0.2992
-3.7871 contraire	-0.2850
-3.5653 contre	-0.2847
-4.2643 contrepartie	-0.2991
-4.2643 contrôle	-0.2955
-3.5653 contrôler	-0.2829
-4.2643 conversation	-0.3010
-4.2643 convient	-0.3009
-4.2643 convulsions	-0.3010
-4.2643 convulsives	-0.3010
-4.2643 conçois	-0.2961
-4.2643 copine	-0.3010
-3.4192 corps	-0.3269
-3.9632 correct	-0.2834
-4.2643 correction	-0.2858
-4.2643 correspondaient	-0.2939
-3.9632 correspondait	-0.2932
-4.2643 corrigeait	-0.2963
-4.2643 corticobulbaire	-0.2955
-4.2643 cotée	-0.2858
-3.9632 coucher	-0.2981
-4.2643 couchés	-0.2928
-3.9632 couleur	-0.2851
-3.9632 couleurs	-0.2911
-4.2643 coupables	-0.2990
-3.7871 coups	-0.2827
-3.9632 cour	-0.4619
-3.4192 courage	-0.3575
-4.2643 couramment	-0.2951
-3.9632 courant	-0.2916
-4.2643 coureur	-0.3005
-2.9632 cours	-0.3102
-4.2643 courses	-0.2994
-4.2643 couvé	-0.3002
-3.5653 coût	-0.3287
-4.2643 coûte	-0.3010
-3.9632 cp	-0.2899
-4.2643 crainte	-0.3003
-3.9632 crises	-0.3010
-4.2643 crispé	-0.2979
-4.2643 critique	-0.2994
-4.2643 critères	-0.3010
-4.2643 croient	-0.3009
-4.2643 croire	-0.2999
-3.9632 crois	-0.2960
-4.2643 croyances	-0.3010
-3.9632 cru	-0.4730
-4.2643 créa	-0.2942
-4.2643 créaient	-0.2918
-4.2643 créait	-0.2955
-3.9632 création	-0.4619
-3.9632 créativité	-0.4679
-3.6622 créer	-0.3560
-4.2643 créeront	-0.3010
-3.9632 créé	-0.2798
-4.2643 crête	-0.2858
-4.2643 cul	-0.2937
-4.2643 curiosité	-0.2939
-4.2643 curseur	-0.3008
-4.2643 cutanées	-0.2997
-4.2643 cv	-0.2987
-4.2643 cérébelleuse	-0.3010
-4.2643 cérébral	-0.3010
-3.7871 cérébrale	-0.2952
-4.2643 cérébraux	-0.2981
-3.9632 côté	-0.3010
-4.2643 côtés	-0.2974
-1.9462 d	-0.4580
-4.2643 dame	-0.2980
-3.9632 danger	-0.2893
-3.9632 dangereux	-0.2918
-1.9878 dans	-0.8333
-1.4622 de	-0.4219
-4.2643 debout	-0.2974
-3.9632 degré	-0.2858
-3.9632 degrés	-0.2886
-4.2643 demandai	-0.2858
-4.2643 demandaient	-0.2989
-4.2643 demandait	-0.3010
-3.6622 demande	-0.2803
-4.2643 demandent	-0.2858
-3.4861 demander	-0.3742
-4.2643 demanderai	-0.2960
-3.6622 demandé	-0.2825
-3.7871 demeure	-0.2989
-3.0090 depuis	-0.3644
-3.5653 dernier	-0.2953
-3.9632 derniers	-0.2979
-3.6622 dernière	-0.2955
-4.2643 dernièrement	-0.2937
-3.6622 derrière	-0.3618
-1.8969 des	-0.4048
-4.2643 descriptif	-0.3010
-4.2643 description	-0.2961
-3.7871 dessous	-0.2813
-3.9632 dessus	-0.2896
-4.2643 destination	-0.2987
-3.7871 destinée	-0.3878
-2.9855 deux	-0.3847
-3.3100 deuxième	-0.2916
-3.9632 deuxièmement	-0.2966
-3.4861 devais	-0.3918
-3.9632 devait	-0.2994
-3.9632 devant	-0.2868
-3.9632 devenait	-0.3010
-3.6622 devenir	-0.2901
-3.7871 devenu	-0.2846
-3.9632 devenue	-0.4740
-4.2643 devenues	-0.2858
-3.7871 devez	-0.2980
-4.2643 devienne	-0.2953
-4.2643 devient	-0.3010
-4.2643 devise	-0.3003
-3.7871 devoirs	-0.3977
-4.2643 devrai	-0.2988
-4.2643 devrais	-0.3010
-4.2643 devrait	-0.2999
-4.2643 devrons	-0.2994
-3.9632 diagnostic	-0.2981
-4.2643 diagnostiquée	-0.2974
-4.2643 diagnostiquées	-0.2994
-3.9632 dialogue	-0.2958
-4.2643 dictateurs	-0.3010
-3.3100 difficile	-0.3176
-3.5653 difficiles	-0.7705
-3.5653 difficulté	-0.2631
-3.1181 difficultés	-0.3964
-4.2643 diffusés	-0.2996
-3.2643 différence	-0.3274
-3.7871 différences	-0.2821
-3.6622 différent	-0.2793
-3.7871 différente	-0.2751
-3.4861 différentes	-0.2971
-3.6622 différents	-0.3009
-4.2643 dignement	-0.2965
-4.2643 dimension	-0.3010
-4.2643 diminuant	-0.2962
-3.7871 diminuer	-0.3818
-4.2643 diminué	-0.3001
-4.2643 diminuée	-0.2939
-4.2643 diminuées	-0.2962
-4.2643 diminués	-0.3009
-4.2643 diplégie	-0.2928
-3.9632 diplôme	-0.4726
-3.9632 diplômes	-0.2986
-4.2643 dira	-0.3010
-3.4192 dirais	-0.5152
-3.0338 dire	-0.3059
-3.9632 direct	-0.2881
-4.2643 directe	-0.2974
-4.2643 directement	-0.2974
-3.7871 directeur	-0.2775
-4.2643 direction	-0.3008
-3.5653 dires	-0.2973
-4.2643 diront	-0.2960
-3.6622 dis	-0.2814
-3.9632 disaient	-0.2979
-3.7871 disait	-0.2915
-3.4861 disant	-0.3813
-4.2643 discours	-0.2994
-4.2643 discrimination	-0.3010
-4.2643 discussion	-0.3001
-4.2643 discussions	-0.2939
-4.2643 discutent	-0.2974
-4.2643 discuter	-0.2934
-3.2229 disent	-0.4989
-4.2643 disons	-0.2989
-3.9632 disparaissent	-0.4748
-3.9632 disparait	-0.2984
-4.2643 disparaît	-0.2982
-4.2643 disparition	-0.2955
-4.2643 disparu	-0.2996
-4.2643 disponibilités	-0.2939
-4.2643 dispositif	-0.3010
-4.2643 disposition	-0.2858
-3.9632 distance	-0.2997
-4.2643 distantes	-0.2939
-4.2643 distaux	-0.3010
-4.2643 distinguer	-0.2928
-4.2643 distraction	-0.2987
-3.0882 dit	-0.4007
-4.2643 dite	-0.3009
-4.2643 dites	-0.3010
-3.9632 divers	-0.3009
-3.9632 diverses	-0.3006
-4.2643 dix	-0.3009
-4.2643 docteur	-0.2952
-3.4861 doctorat	-0.3301
-4.2643 document	-0.3010
-3.3612 dois	-0.2923
-3.2229 doit	-0.3185
-3.2229 doivent	-0.4476
-3.0338 domaine	-0.3250
-3.7871 domaines	-0.2813
-3.5653 domicile	-0.2782
-4.2643 domination	-0.3009
-4.2643 dominent	-0.3006
-3.9632 dominer	-0.2925
-4.2643 dommages	-0.2934
-4.2643 don	-0.2858
-2.8493 donc	-0.3844
-3.9632 donnaient	-0.4758
-3.6622 donne	-0.2768
-3.1181 donner	-0.2994
-3.4192 donné	-0.3167
-4.2643 données	-0.3004
-4.2643 dons	-0.3003
-3.7871 dont	-0.2976
-4.2643 dopant	-0.2937
-4.2643 dorian	-0.3009
-3.9632 dos	-0.2849
-3.4192 dossier	-0.3071
-4.2643 dossiers	-0.2937
-3.9632 doucement	-0.2938
-4.2643 douche	-0.3010
-4.2643 douleur	-0.2955
-3.9632 douloureux	-0.2920
-4.2643 draguer	-0.2997
-4.2643 dresse	-0.2928
-4.2643 drive	-0.2991
-4.2643 drogués	-0.2858
-3.6622 droit	-0.3423
-3.7871 droits	-0.2834
-4.2643 drôle	-0.2952
-3.6622 ds	-0.3595
-4.2643 dsk	-0.2994
-2.3348 du	-0.3862
-3.9632 due	-0.4695
-4.2643 dur	-0.2961
-3.1503 durant	-0.3017
-4.2643 dus	-0.2934
-4.2643 dut	-0.2928
-3.9632 dysarthrie	-0.3004
-4.2643 dyskinétiques	-0.2994
-4.2643 dystonique	-0.3005
-4.2643 dystoniques	-0.2858
-4.2643 dystrophies	-0.3010
-4.2643 dès	-0.2961
-4.2643 débat	-0.3010
-4.2643 débordants	-0.2858
-3.9632 débrouiller	-0.2935
-4.2643 débrouillée	-0.2937
-3.3100 début	-0.4216
-4.2643 débute	-0.2986
-4.2643 décembre	-0.3010
-4.2643 décente	-0.3005
-4.2643 décevoir	-0.2991
-4.2643 décida	-0.2858
-3.4192 décidé	-0.4971
-4.2643 déclaré	-0.2989
-4.2643 décor	-0.2939
-4.2643 découpes	-0.3010
-3.9632 décourage	-0.3002
-3.5653 découvert	-0.3325
-4.2643 découvre	-0.2953
-3.4192 découvrir	-0.2493
-4.2643 décrire	-0.2963
-4.2643 décrit	-0.2953
-4.2643 défaut	-0.2982
-3.7871 défauts	-0.2988
-4.2643 déficit	-0.2969
-4.2643 défirent	-0.2983
-4.2643 défoncer	-0.3009
-3.9632 déformés	-0.2982
-4.2643 dégoutée	-0.2991
-4.2643 dégradée	-0.3010
-4.2643 dégénérative	-0.3010
-4.2643 dégénérescences	-0.3010
-3.6622 déjà	-0.2948
-4.2643 délires	-0.2999
-3.7871 démarche	-0.2928
-3.9632 démarches	-0.2843
-4.2643 démontaient	-0.2979
-4.2643 démontré	-0.2961
-4.2643 démunis	-0.2928
-3.7871 déménagement	-0.2826
-4.2643 dénoncer	-0.2994
-3.7871 départ	-0.2920
-4.2643 dépassaient	-0.3009
-3.6622 dépasser	-0.2852
-4.2643 dépend	-0.2990
-4.2643 dépendre	-0.2961
-4.2643 dépense	-0.2999
-3.5653 dépenses	-0.2758
-4.2643 dépensons	-0.3007
-3.7871 déplacer	-0.2918
-4.2643 déposent	-0.2953
-4.2643 dépourvu	-0.2858
-4.2643 dérangera	-0.3006
-4.2643 dérisoires	-0.2991
-4.2643 dérogations	-0.2937
-4.2643 déroulement	-0.2955
-4.2643 déshydratation	-0.3005
-4.2643 désire	-0.3004
-4.2643 désiré	-0.2937
-4.2643 détails	-0.2937
-4.2643 détend	-0.3010
-4.2643 détendre	-0.2979
-4.2643 détendu	-0.2991
-4.2643 déterminant	-0.2937
-4.2643 déterminer	-0.2994
-4.2643 dévastateur	-0.2994
-4.2643 développe	-0.2965
-3.9632 développement	-0.3009
-3.9632 développer	-0.2971
-4.2643 développé	-0.3009
-3.3100 dû	-0.3826
-3.9632 e	-0.2849
-3.6622 eau	-0.2839
-4.2643 ecrire	-0.2994
-4.2643 effacé	-0.2918
-4.2643 effectue	-0.2960
-3.9632 effectuer	-0.2855
-3.9632 effectué	-0.2934
-3.7871 effet	-0.2890
-3.6622 effort	-0.3474
-3.9632 efforts	-0.2928
-4.2643 eh	-0.3010
-2.5653 elle	-0.4097
-2.9855 elles	-0.3444
-4.2643 embarquement	-0.2991
-3.9632 embauche	-0.4699
-4.2643 embaucher	-0.3007
-4.2643 emmener	-0.3008
-4.2643 emplacement	-0.2955
-3.7871 emploi	-0.2830
-3.7871 emplois	-0.2968
-4.2643 employé	-0.2955
-4.2643 empêcher	-0.2961
-4.2643 empêché	-0.2961
-2.0212 en	-0.3773
-4.2643 encadre	-0.2939
-4.2643 enceins	-0.3010
-2.8329 encore	-0.3903
-4.2643 endommagé	-0.2963
-4.2643 endommagée	-0.2991
-3.7871 enfance	-0.2927
-3.1503 enfant	-0.2738
-2.9025 enfants	-0.3261
-3.9632 enfer	-0.3005
-4.2643 enfermé	-0.2994
-4.2643 enfin	-0.2963
-4.2643 engendre	-0.3009
-4.2643 ennemie	-0.2989
-4.2643 ennui	-0.3010
-3.9632 enseignant	-0.2970
-3.9632 enseignantes	-0.4758
-3.9632 enseignants	-0.2995
-3.9632 enseignement	-0.4770
-4.2643 enseigner	-0.2934
-3.6622 ensemble	-0.2786
-3.4861 ensuite	-0.3097
-4.2643 entendrais	-0.2987
-3.5653 entendre	-0.2913
-3.7871 entends	-0.2827
-4.2643 entendu	-0.2996
-4.2643 entière	-0.3010
-3.7871 entourage	-0.2972
-4.2643 entoure	-0.3010
-4.2643 entouré	-0.2858
-4.2643 entrait	-0.2965
-4.2643 entraînent	-0.2951
-3.9632 entraîner	-0.2892
-3.2643 entre	-0.3232
-3.9632 entreprise	-0.2938
-3.5653 entrer	-0.3406
-4.2643 entrouvertes	-0.2980
-4.2643 entré	-0.3010
-3.6622 entrée	-0.3460
-4.2643 envahissait	-0.2965
-3.1851 envers	-0.5107
-3.6622 envie	-0.6837
-4.2643 envier	-0.2951
-3.6622 envies	-0.3557
-3.4861 environ	-0.3422
-4.2643 envoie	-0.2928
-4.2643 envole	-0.2937
-4.2643 envolent	-0.2996
-3.9632 envoyer	-0.2895
-4.2643 ergologue	-0.2956
-4.2643 ergothérapeute	-0.3010
-4.2643 ergothérapie	-0.2962
-4.2643 erreur	-0.2952
-3.3612 es	-0.4018
-4.2643 escient	-0.2939
-4.2643 espoir	-0.2932
-3.7871 esprit	-0.2957
-3.6622 esprits	-0.4740
-3.4861 espère	-0.3823
-3.7871 espérant	-0.2935
-4.2643 espérer	-0.2961
-3.9632 essaient	-0.4721
-3.6622 essayer	-0.4595
-4.2643 essayez	-0.2858
-3.9632 essayé	-0.4619
-4.2643 essentiel	-0.2858
-1.9025 est	-0.3645
-4.2643 estelle	-0.2979
-1.7857 et	-0.3081
-2.6732 eu	-0.4338
-4.2643 eues	-0.2918
-3.2229 euros	-0.2874
-2.9855 eux	-0.3078
-4.2643 evidemment	-0.2987
-3.5653 ex	-0.2827
-3.9632 examens	-0.4771
-4.2643 examiner	-0.2963
-4.2643 excel	-0.2997
-4.2643 exclure	-0.3008
-4.2643 exclusif	-0.2980
-3.9632 exemplaire	-0.2945
-4.2643 exemplarité	-0.2990
-3.2643 exemple	-0.2708
-4.2643 exemples	-0.2858
-4.2643 exercice	-0.3009
-3.7871 exercices	-0.2931
-4.2643 existais	-0.3008
-3.7871 existe	-0.2835
-3.7871 existence	-0.2860
-4.2643 explications	-0.2939
-4.2643 expliquai	-0.2998
-4.2643 explique	-0.2965
-4.2643 expliquent	-0.2960
-3.4861 expliquer	-0.3805
-4.2643 expliqué	-0.3010
-4.2643 exploitent	-0.2928
-4.2643 exploits	-0.2965
-4.2643 explosion	-0.2961
-4.2643 exposés	-0.2934
-4.2643 expression	-0.2987
-3.2643 exprimer	-0.3278
-3.2229 expérience	-0.3327
-3.6622 expériences	-0.3502
-4.2643 extrême	-0.3010
-3.9632 extérieur	-0.2960
-4.2643 extérieure	-0.3009
-4.2643 exécution	-0.2955
-3.6622 face	-0.4686
-3.2643 facile	-0.4545
-3.4192 facilement	-0.2620
-4.2643 faciles	-0.2934
-4.2643 facilité	-0.2983
-4.2643 facteurs	-0.2858
-4.2643 facturé	-0.2934
-3.5653 faible	-0.4255
-2.3198 faire	-0.3367
-3.4861 fais	-0.2817
-4.2643 faisable	-0.2974
-4.2643 faisaient	-0.3009
-3.5653 faisais	-0.3374
-3.7871 faisait	-0.2953
-2.5161 fait	-0.2859
-3.6622 faites	-0.2822
-3.6622 faits	-0.3584
-3.9632 fallait	-0.2857
-4.2643 familiale	-0.2965
-4.2643 familiaux	-0.2986
-4.2643 familièrement	-0.2942
-2.9420 famille	-0.3159
-4.2643 familles	-0.2939
-3.9632 fardeau	-0.2991
-4.2643 farfelu	-0.2979
-4.2643 fassent	-0.2955
-4.2643 fauchant	-0.2939
-4.2643 faudrait	-0.3010
-2.7591 faut	-0.3953
-4.2643 faute	-0.2990
-3.1851 fauteuil	-0.3015
-4.2643 faux	-0.2918
-4.2643 favorable	-0.3002
-4.2643 favorisait	-0.2963
-4.2643 favorise	-0.2928
-3.4192 façon	-0.6355
-3.9632 femme	-0.2972
-3.9632 femmes	-0.2928
-3.9632 ferait	-0.2962
-4.2643 ferme	-0.2960
-4.2643 fermement	-0.2942
-4.2643 fermes	-0.3009
-4.2643 fermé	-0.2953
-4.2643 fessai	-0.2979
-4.2643 fessaient	-0.2955
-3.9632 fessait	-0.2955
-3.9632 fessant	-0.2838
-4.2643 fiancée	-0.2937
-3.9632 fierté	-0.2931
-3.9632 figure	-0.2927
-4.2643 fille	-0.2858
-4.2643 film	-0.2961
-4.2643 fils	-0.2858
-3.6622 fin	-0.3503
-3.6622 final	-0.2948
-3.5653 finalement	-0.2841
-3.9632 finance	-0.4712
-4.2643 financement	-0.3001
-3.6622 financements	-0.3507
-3.9632 financer	-0.2873
-4.2643 financiers	-0.2952
-4.2643 financièrement	-0.2987
-4.2643 financières	-0.3010
-4.2643 fini	-0.2979
-3.6622 finir	-0.2906
-4.2643 finirai	-0.3006
-4.2643 fins	-0.2928
-4.2643 fixe	-0.3010
-4.2643 fixés	-0.2939
-4.2643 flotteurs	-0.2952
-4.2643 flyers	-0.3010
-4.2643 foi	-0.2955
-3.1181 fois	-0.3388
-4.2643 folie	-0.2858
-3.9632 fonce	-0.2970
-4.2643 foncer	-0.3008
-3.7871 fonction	-0.2954
-4.2643 fonctionnelle	-0.2962
-4.2643 fonctionner	-0.3006
-3.3100 font	-0.3389
-3.7871 foot	-0.2927
-4.2643 football	-0.2952
-4.2643 footballer	-0.3010
-3.5653 force	-0.4030
-3.9632 forces	-0.2906
-3.6622 forcément	-0.2854
-3.9632 formation	-0.2965
-3.9632 formations	-0.2916
-4.2643 forme	-0.3009
-4.2643 forment	-0.2939
-4.2643 former	-0.3007
-3.6622 formes	-0.3678
-4.2643 formidable	-0.2969
-4.2643 formé	-0.2937
-3.9632 formées	-0.4698
-3.7871 fort	-0.3904
-4.2643 forte	-0.3010
-3.5653 fortement	-0.2859
-4.2643 forts	-0.2918
-4.2643 fou	-0.2952
-4.2643 fournir	-0.2953
-4.2643 fournisseur	-0.3006
-4.2643 foutent	-0.2992
-4.2643 foutre	-0.2918
-4.2643 frais	-0.2961
-3.5653 france	-0.3303
-3.7871 français	-0.2964
-3.9632 frappé	-0.2920
-4.2643 frontière	-0.2937
-3.5653 frère	-0.2769
-3.9632 frères	-0.2894
-4.2643 frédéric	-0.3010
-3.9632 fréquemment	-0.4712
-4.2643 fréquente	-0.3005
-3.9632 fréquenter	-0.2895
-3.9632 fréquentes	-0.2962
-4.2643 fur	-0.2934
-4.2643 fut	-0.3009
-3.6622 futur	-0.2814
-3.9632 future	-0.3010
-4.2643 futures	-0.2858
-4.2643 futurs	-0.3010
-4.2643 février	-0.3010
-4.2643 fête	-0.2991
-4.2643 gagnait	-0.3007
-3.5653 gagné	-0.3264
-3.9632 garage	-0.2938
-4.2643 garde	-0.2951
-3.9632 garder	-0.2976
-4.2643 gardé	-0.2963
-4.2643 garçons	-0.2942
-3.9632 gay	-0.2982
-4.2643 genres	-0.2939
-3.0090 gens	-0.4226
-4.2643 gentiment	-0.2961
-4.2643 gestes	-0.3010
-4.2643 gesticulant	-0.2965
-3.9632 gifle	-0.4698
-3.7871 gillard	-0.2856
-4.2643 global	-0.3010
-4.2643 gloire	-0.2961
-3.9632 gothiques	-0.2938
-3.7871 gouvernement	-0.2923
-3.2643 grand	-0.3231
-3.0601 grande	-0.4422
-3.6622 grandes	-0.3657
-4.2643 grandi	-0.2965
-3.9632 grandir	-0.2893
-3.6622 grands	-0.4763
-4.2643 gratuitement	-0.2994
-3.9632 grave	-0.2838
-3.9632 gravement	-0.2930
-4.2643 graves	-0.2928
-4.2643 gravité	-0.3004
-4.2643 gravure	-0.2939
-4.2643 gris	-0.3010
-3.9632 gros	-0.2961
-3.9632 groupe	-0.2797
-4.2643 groupés	-0.2969
-3.1503 grâce	-0.8650
-4.2643 guerrier	-0.3009
-4.2643 guerriers	-0.2858
-4.2643 guide	-0.2994
-4.2643 guider	-0.3006
-4.2643 guillaume	-0.3009
-4.2643 guérir	-0.3009
-3.5653 général	-0.3297
-4.2643 généreux	-0.2918
-3.9632 gérer	-0.2932
-4.2643 gênant	-0.2961
-3.9632 gêner	-0.2890
-4.2643 h	-0.3010
-4.2643 habillage	-0.2939
-4.2643 habille	-0.2987
-3.5653 habitude	-0.5237
-3.7871 habitudes	-0.2938
-3.9632 habituel	-0.2992
-4.2643 habituellement	-0.2963
-3.9632 habituelles	-0.2925
-3.7871 habituer	-0.2770
-4.2643 habitué	-0.2934
-4.2643 habituées	-0.2934
-4.2643 habitués	-0.2934
-4.2643 handball	-0.2962
-2.3247 handicap	-0.3160
-4.2643 handicapante	-0.2939
-3.7871 handicaps	-0.3004
-2.9632 handicapé	-0.2905
-3.1851 handicapée	-0.2690
-2.8840 handicapées	-0.2856
-3.1851 handicapés	-0.2634
-3.5653 handisport	-0.3438
-3.9632 hasard	-0.2938
-4.2643 haut	-0.3010
-4.2643 haute	-0.2969
-3.9632 hauteur	-0.2854
-4.2643 heure	-0.2969
-3.5653 heures	-0.2754
-3.9632 heureusement	-0.2956
-3.4192 heureux	-0.2683
-4.2643 heurtai	-0.3000
-4.2643 hippel	-0.3010
-3.3612 histoire	-0.3492
-3.9632 histoires	-0.4735
-4.2643 hiver	-0.2963
-4.2643 hommage	-0.3002
-3.2229 homme	-0.2738
-3.7871 hommes	-0.3007
-4.2643 honnêteté	-0.2918
-3.7871 honte	-0.3824
-4.2643 hop	-0.3006
-3.7871 horaire	-0.2970
-4.2643 horaires	-0.2937
-4.2643 horizon	-0.3008
-3.9632 horreur	-0.2948
-4.2643 horrible	-0.2937
-3.7871 hors	-0.3826
-4.2643 hublot	-0.3007
-3.1181 hui	-0.3898
-3.6622 humain	-0.2945
-3.6622 humaine	-0.3578
-3.9632 humains	-0.2933
-3.7871 humour	-0.2917
-4.2643 hyperactivité	-0.2994
-4.2643 hyperréflexie	-0.2939
-4.2643 hypertonicité	-0.3009
-4.2643 hypertonie	-0.3010
-4.2643 hyperuricémie	-0.3010
-4.2643 hypothèse	-0.2918
-4.2643 hypotonie	-0.2997
-3.9632 hypotrophiques	-0.2896
-4.2643 hé	-0.3010
-3.6622 hémiplégie	-0.3605
-4.2643 héréditaires	-0.3010
-3.9632 hésitation	-0.2928
-4.2643 ici	-0.2969
-3.6622 ictère	-0.3666
-3.9632 identifier	-0.2855
-4.2643 identifiés	-0.3007
-3.9632 identité	-0.2970
-3.7871 idéal	-0.3901
-3.7871 idée	-0.2948
-3.9632 idées	-0.2987
-4.2643 ignorent	-0.3009
-4.2643 ignoré	-0.2963
-2.2730 il	-0.6753
-4.2643 illusion	-0.2982
-4.2643 illustrations	-0.2965
-2.4861 ils	-0.4245
-3.9632 image	-0.2857
-4.2643 images	-0.2955
-4.2643 imaginai	-0.2994
-3.6622 imagination	-0.2785
-3.9632 imagine	-0.2891
-3.7871 imaginer	-0.3887
-3.6622 imaginez	-0.4738
-4.2643 imaginé	-0.2953
-3.2229 imc	-0.2826
-3.7871 immense	-0.2916
-3.9632 immeuble	-0.4742
-4.2643 imperturbable	-0.2963
-3.6622 importance	-0.3526
-3.1851 important	-0.3551
-3.9632 importante	-0.2907
-3.3100 impossible	-0.2550
-4.2643 impossibles	-0.2934
-4.2643 imposé	-0.2991
-3.7871 impression	-0.2888
-4.2643 improductifs	-0.2992
-4.2643 incidents	-0.3010
-4.2643 incompatibles	-0.3003
-3.7871 inconnu	-0.2886
-3.9632 inconnues	-0.2923
-4.2643 incontestablement	-0.2979
-3.7871 inconvénient	-0.2956
-4.2643 inconvénients	-0.2918
-4.2643 incoordination	-0.3009
-4.2643 indirectement	-0.2998
-3.9632 indispensables	-0.4755
-3.9632 individu	-0.2972
-4.2643 individus	-0.2987
-3.9632 indépendance	-0.2950
-3.9632 infantile	-0.2897
-4.2643 infection	-0.2951
-4.2643 infiniment	-0.2937
-4.2643 infirme	-0.3009
-4.2643 infirmité	-0.3009
-3.9632 infographie	-0.2908
-4.2643 infographiste	-0.2939
-4.2643 information	-0.2969
-3.9632 informations	-0.2928
-3.1181 informatique	-0.3202
-4.2643 informatisées	-0.2987
-4.2643 inhabituelles	-0.2939
-4.2643 injustice	-0.2987
-4.2643 injustices	-0.2939
-4.2643 innovation	-0.2996
-4.2643 inspiré	-0.3004
-4.2643 instabilité	-0.2951
-4.2643 installations	-0.3006
-3.9632 installe	-0.2896
-4.2643 installer	-0.2965
-4.2643 instant	-0.2969
-4.2643 institutrice	-0.2858
-3.7871 institutrices	-0.2945
-4.2643 insuffisante	-0.3008
-4.2643 insuffisantes	-0.3008
-4.2643 insuffisants	-0.3008
-4.2643 intellectuelle	-0.3008
-4.2643 intellectuels	-0.2979
-4.2643 intelligence	-0.3008
-3.9632 intelligentes	-0.4698
-3.9632 intense	-0.2977
-4.2643 intention	-0.2961
-4.2643 intentionnel	-0.3010
-4.2643 interdisant	-0.2942
-4.2643 interdit	-0.2979
-4.2643 interdits	-0.2992
-3.4861 internet	-0.2900
-4.2643 interrogations	-0.2987
-3.7871 intervenante	-0.2820
-3.4192 intervenantes	-0.3712
-4.2643 intervenants	-0.3008
-3.5653 interventions	-0.2865
-4.2643 interview	-0.2918
-3.9632 intégration	-0.2834
-3.9632 intéressant	-0.2784
-3.9632 intéressent	-0.2864
-3.6622 intéressé	-0.4686
-4.2643 intéressées	-0.3005
-4.2643 invalidante	-0.2951
-3.7871 invalides	-0.2945
-4.2643 invitations	-0.3010
-3.9632 inviter	-0.2897
-3.9632 invité	-0.2926
-3.7871 involontaires	-0.3949
-4.2643 inégalité	-0.2965
-4.2643 irm	-0.3010
-4.2643 irresponsable	-0.3007
-3.5653 iut	-0.4046
-1.8733 j	-0.9425
-2.9855 jamais	-0.2971
-3.9632 jambes	-0.2894
-3.9632 janvier	-0.3009
-1.6765 je	-0.6966
-3.6622 jeu	-0.2805
-3.9632 jeune	-0.3006
-3.4861 jeunes	-0.3781
-3.9632 jeux	-0.3007
-3.4861 joie	-0.3171
-4.2643 joies	-0.2987
-4.2643 joins	-0.2962
-3.9632 jouai	-0.2901
-4.2643 jouaient	-0.2987
-4.2643 jouait	-0.2934
-4.2643 jouent	-0.2953
-4.2643 jouer	-0.2937
-4.2643 jouera	-0.2987
-3.9632 joues	-0.4748
-4.2643 joueur	-0.2858
-4.2643 joueurs	-0.3003
-2.9632 jour	-0.2885
-4.2643 journalières	-0.2952
-3.9632 journée	-0.3005
-3.6622 journées	-0.2869
-3.0601 jours	-0.2944
-4.2643 joyeuse	-0.3003
-4.2643 joyeuses	-0.3001
-4.2643 joyeux	-0.2974
-3.9632 joystick	-0.2857
-4.2643 jugeaient	-0.2983
-4.2643 jugement	-0.2990
-4.2643 jugements	-0.2939
-4.2643 juger	-0.2999
-4.2643 jugez	-0.2962
-4.2643 juillet	-0.3010
-4.2643 juin	-0.3010
-3.3100 jusqu	-0.7303
-3.2643 juste	-0.3581
-4.2643 justifier	-0.2983
-3.9632 kaligrav	-0.2946
-3.7871 kiné	-0.2896
-1.9589 l	-0.4208
-1.7497 la	-0.4404
-4.2643 lacunes	-0.2969
-4.2643 laid	-0.2982
-3.7871 laisse	-0.2895
-3.6622 laisser	-0.2923
-4.2643 laquelle	-0.2989
-4.2643 large	-0.3010
-4.2643 laser	-0.3010
-4.2643 lave	-0.2939
-3.9632 laver	-0.2953
-1.8079 le	-0.4437
-4.2643 lelogiciel	-0.2979
-3.9632 lent	-0.4698
-4.2643 lente	-0.2939
-4.2643 lents	-0.3010
-3.7871 lequel	-0.3828
-1.7277 les	-0.4417
-4.2643 lesch	-0.3010
-3.9632 lesquels	-0.2928
-3.7871 lettre	-0.3009
-3.9632 lettres	-0.2987
-4.2643 leucodystrophie	-0.3010
-2.5084 leur	-0.3572
-3.1503 leurs	-0.2993
-4.2643 levé	-0.2953
-4.2643 levés	-0.2928
-3.5653 leçon	-0.5267
-4.2643 leçons	-0.2858
-3.7871 liberté	-0.2883
-4.2643 libre	-0.3007
-4.2643 librement	-0.2969
-4.2643 libres	-0.2952
-3.7871 lien	-0.2967
-3.6622 liens	-0.3648
-3.9632 lieu	-0.4619
-4.2643 lieux	-0.3010
-4.2643 lille	-0.2952
-4.2643 limite	-0.2955
-3.9632 limites	-0.3009
-4.2643 limité	-0.3007
-4.2643 limitée	-0.2934
-4.2643 limités	-0.2987
-4.2643 lindau	-0.2997
-4.2643 linguaux	-0.2939
-3.9632 lionne	-0.2936
-4.2643 liraient	-0.2963
-4.2643 lire	-0.3001
-4.2643 liront	-0.2963
-4.2643 lisant	-0.2983
-4.2643 lisent	-0.2979
-4.2643 lisez	-0.2979
-3.9632 lisible	-0.2917
-4.2643 lisibles	-0.2934
-4.2643 lit	-0.2939
-4.2643 live	-0.2918
-2.7328 livre	-0.3648
-3.9632 livres	-0.2990
-3.9632 liés	-0.2910
-4.2643 local	-0.2934
-3.9632 location	-0.2938
-4.2643 logement	-0.2937
-3.7871 logements	-0.3976
-4.2643 logicielle	-0.3010
-3.7871 logiciels	-0.2804
-3.9632 logique	-0.2965
-4.2643 logos	-0.2939
-3.4861 loin	-0.2670
-3.7871 long	-0.2832
-4.2643 longs	-0.3010
-4.2643 longtemps	-0.3010
-3.6622 longue	-0.2810
-3.6622 lorsqu	-0.3575
-3.1851 lorsque	-0.3956
-3.9632 louer	-0.4713
-3.5653 lourd	-0.3431
-4.2643 lourdement	-0.3005
-3.6622 lu	-0.3600
-3.0882 lui	-0.3175
-4.2643 lumineuse	-0.2937
-4.2643 lumière	-0.2980
-3.9632 lycée	-0.2948
-3.3612 là	-0.2700
-3.9632 légèrement	-0.2995
-4.2643 lésion	-0.3009
-2.2865 m	-0.4996
-2.1470 ma	-0.6123
-4.2643 macadam	-0.2939
-3.9632 magasin	-0.2996
-3.9632 magasins	-0.2936
-3.7871 magie	-0.2851
-4.2643 magique	-0.2965
-3.9632 magiques	-0.2951
-4.2643 magnifique	-0.2994
-4.2643 magnifiques	-0.3010
-3.6622 mai	-0.2937
-4.2643 main	-0.2962
-3.9632 mains	-0.2858
-4.2643 maintenance	-0.2934
-3.6622 maintenant	-0.2973
-4.2643 maintien	-0.2858
-2.4317 mais	-0.3058
-3.3100 maison	-0.2840
-4.2643 maisons	-0.3007
-3.5653 majorité	-0.4154
-3.4192 mal	-0.3672
-4.2643 malade	-0.2939
-3.9632 malades	-0.3007
-3.6622 maladie	-0.3527
-4.2643 malcom	-0.3010
-4.2643 maleki	-0.2939
-3.3612 malgré	-0.3506
-3.5653 malheureusement	-0.2734
-3.9632 malheureux	-0.2930
-3.9632 malheurs	-0.2970
-4.2643 manette	-0.2858
-4.2643 mange	-0.2960
-4.2643 manger	-0.3006
-4.2643 manipulations	-0.3009
-4.2643 manipule	-0.2934
-3.7871 manipuler	-0.2857
-4.2643 manipulées	-0.2965
-3.4861 manière	-0.3112
-4.2643 manquaient	-0.3006
-3.9632 manque	-0.2954
-4.2643 manuel	-0.2937
-4.2643 marche	-0.2994
-3.7871 marcher	-0.2902
-4.2643 marché	-0.2934
-4.2643 mardis	-0.2937
-3.7871 mariage	-0.3924
-3.6622 marie	-0.4763
-4.2643 mascotte	-0.2858
-4.2643 master	-0.2952
-4.2643 match	-0.2858
-4.2643 matchs	-0.2994
-4.2643 maternelle	-0.2982
-4.2643 maternels	-0.2937
-3.9632 mathématique	-0.2936
-4.2643 matin	-0.2969
-3.4861 matériel	-0.2865
-3.7871 maubeuge	-0.2974
-4.2643 mauvais	-0.3010
-3.9632 mauvaise	-0.3010
-4.2643 mauvaises	-0.3010
-3.9632 max	-0.2915
-3.9632 maximum	-0.2855
-3.9632 maîtres	-0.4771
-4.2643 maîtresses	-0.3010
-2.0629 me	-0.3735
-3.7871 meilleur	-0.3009
-3.6622 meilleure	-0.3600
-3.5653 membres	-0.2760
-4.2643 mener	-0.2951
-4.2643 mental	-0.2986
-3.9632 mentale	-0.3010
-4.2643 mentalité	-0.3003
-4.2643 mentaux	-0.2994
-4.2643 menu	-0.2858
-3.3612 merci	-0.6913
-2.3504 mes	-0.4451
-3.4192 message	-0.3242
-3.9632 mesure	-0.2841
-3.9632 mesures	-0.3010
-3.9632 met	-0.4748
-4.2643 mets	-0.2963
-4.2643 mettait	-0.2934
-3.3612 mettre	-0.3957
-4.2643 meuble	-0.2983
-4.2643 micro	-0.3010
-4.2643 midi	-0.3009
-3.9632 mien	-0.2845
-4.2643 mienne	-0.2982
-3.4861 miens	-0.2916
-3.2643 mieux	-0.2734
-4.2643 milieu	-0.2955
-4.2643 milles	-0.3008
-4.2643 milliards	-0.2961
-3.7871 millions	-0.2721
-4.2643 mince	-0.3004
-3.7871 minimum	-0.3007
-4.2643 ministres	-0.3007
-4.2643 ministère	-0.2937
-3.6622 minorité	-0.2898
-3.7871 minorités	-0.2956
-4.2643 minute	-0.3007
-3.7871 minutes	-0.2986
-4.2643 miracles	-0.2994
-3.9632 miroir	-0.2843
-3.3100 mis	-0.3047
-3.9632 mise	-0.4730
-4.2643 mixte	-0.2928
-3.9632 mixtes	-0.4755
-4.2643 mobilisé	-0.2937
-4.2643 mobilité	-0.3010
-3.9632 mode	-0.4619
-4.2643 modifier	-0.3010
-3.9632 modèle	-0.2931
-2.3298 moi	-0.3155
-3.1181 moins	-0.2778
-2.9855 mois	-0.3946
-3.4192 moment	-0.3122
-3.6622 moments	-0.3676
-1.9698 mon	-0.5146
-2.4934 monde	-0.3250
-4.2643 mondes	-0.2994
-3.9632 monsieur	-0.2988
-4.2643 monstres	-0.2994
-4.2643 montait	-0.2994
-3.9632 monter	-0.4726
-3.9632 montre	-0.2956
-4.2643 montrent	-0.2951
-3.1851 montrer	-0.3618
-3.9632 montré	-0.2930
-4.2643 montée	-0.2858
-4.2643 monétaire	-0.3009
-3.9632 moquent	-0.2800
-4.2643 moqueurs	-0.2952
-3.6622 moral	-0.2782
-3.9632 mort	-0.2834
-3.7871 mot	-0.2989
-3.5653 moteur	-0.2890
-3.6622 moteurs	-0.2929
-4.2643 motivait	-0.3002
-3.4861 motivation	-0.4615
-4.2643 motivations	-0.2937
-4.2643 motivés	-0.2951
-4.2643 motoneurone	-0.3010
-3.6622 motrice	-0.2868
-3.3100 mots	-0.2908
-4.2643 mourir	-0.3008
-4.2643 mourrai	-0.2969
-3.1181 mouvements	-0.2944
-3.4861 moyen	-0.3698
-4.2643 moyenne	-0.3007
-3.9632 moyens	-0.4698
-4.2643 moyenâgeuses	-0.2918
-4.2643 mucopolysaccharidoses	-0.2961
-3.9632 muet	-0.2935
-4.2643 multicontrol	-0.3008
-4.2643 multitude	-0.2858
-4.2643 municipale	-0.2987
-3.9632 murir	-0.4699
-3.9632 muscles	-0.2992
-3.6622 musculaire	-0.2877
-4.2643 musculaires	-0.2979
-3.7871 musique	-0.2811
-4.2643 musulmane	-0.2987
-4.2643 myopathie	-0.2983
-4.2643 mâture	-0.2937
-2.9632 mère	-0.2752
-3.9632 mères	-0.2937
-3.3100 médecin	-0.3378
-4.2643 médias	-0.3002
-3.9632 méfiance	-0.2951
-4.2643 mémoire	-0.2981
-4.2643 mémoriser	-0.2962
-3.9632 méningite	-0.2938
-4.2643 méprisent	-0.2928
-4.2643 mérite	-0.2858
-4.2643 métaboliques	-0.3008
-4.2643 métabolisme	-0.2955
-4.2643 métachromatique	-0.2939
-3.6622 méthode	-0.3606
-4.2643 méthodes	-0.2937
-2.6960 même	-0.3051
-3.4861 mêmes	-0.2979
-2.1743 n	-0.6654
-3.9632 nageurs	-0.2980
-3.4192 naissance	-0.2725
-4.2643 natale	-0.2990
-3.9632 nature	-0.3003
-3.9632 naturel	-0.2888
-4.2643 naturelle	-0.2974
-3.9632 naturellement	-0.2845
-4.2643 naturelles	-0.2937
-4.2643 nazisme	-0.2918
-4.2643 naître	-0.3008
-2.1503 ne	-0.4455
-3.9632 nettement	-0.3007
-4.2643 neurofibromatose	-0.2951
-4.2643 neurologique	-0.2928
-4.2643 neurologiques	-0.3010
-4.2643 neurones	-0.2934
-3.6622 neutre	-0.3589
-3.0338 ni	-0.2991
-4.2643 niqué	-0.2994
-3.2229 niveau	-0.3348
-3.7871 nom	-0.2679
-3.6622 nombre	-0.4568
-3.6622 nombreuses	-0.3586
-3.5653 nombreux	-0.3515
-4.2643 nomme	-0.3010
-3.1851 non	-0.3601
-4.2643 nordiques	-0.3007
-3.5653 normal	-0.3377
-3.3612 normale	-0.2647
-3.6622 normalement	-0.2767
-3.9632 normales	-0.2925
-3.6622 normalité	-0.2968
-4.2643 normalités	-0.2994
-3.7871 normes	-0.2950
-3.3612 nos	-0.3000
-4.2643 note	-0.3007
-3.7871 notes	-0.3838
-4.2643 notion	-0.2858
-2.9855 notre	-0.3286
-4.2643 nourrissent	-0.2991
-4.2643 nourrit	-0.2987
-4.2643 nourriture	-0.2939
-2.6515 nous	-0.3264
-3.4861 nouveau	-0.2827
-4.2643 nouveaux	-0.3008
-4.2643 nouvel	-0.3010
-3.5653 nouvelle	-0.3491
-3.2229 nouvelles	-0.5015
-4.2643 noyaux	-0.3010
-4.2643 noël	-0.3010
-3.9632 nucléaire	-0.2952
-4.2643 nuit	-0.2937
-4.2643 nuits	-0.2934
-4.2643 nul	-0.2965
-4.2643 nyhan	-0.2955
-3.6622 né	-0.2760
-4.2643 néant	-0.2955
-4.2643 nécessaire	-0.2962
-3.7871 nécessaires	-0.2921
-4.2643 nécessitent	-0.2953
-3.6622 négatif	-0.3573
-4.2643 négatifs	-0.2965
-3.6622 négatives	-0.2858
-4.2643 néonatal	-0.3010
-3.9632 néonatale	-0.4699
-4.2643 néonatals	-0.2858
-4.2643 nés	-0.3010
-4.2643 objectifs	-0.2961
-4.2643 objet	-0.2961
-4.2643 objets	-0.2934
-4.2643 obligation	-0.2858
-4.2643 obligations	-0.2932
-3.9632 obligé	-0.4619
-4.2643 obligée	-0.2858
-4.2643 observateur	-0.3008
-4.2643 observer	-0.2953
-3.9632 observés	-0.2906
-3.6622 obstacle	-0.3431
-3.6622 obstacles	-0.3577
-3.9632 obstétrical	-0.2950
-4.2643 obstétricaux	-0.2939
-3.7871 obtenir	-0.2863
-4.2643 obtention	-0.2955
-4.2643 occasion	-0.2961
-4.2643 occupaient	-0.2955
-4.2643 occupais	-0.3009
-4.2643 occupation	-0.3007
-3.9632 occupations	-0.2949
-3.5653 occuper	-0.3297
-4.2643 occupée	-0.2858
-4.2643 occupées	-0.2858
-3.9632 octobre	-0.3009
-4.2643 oculaires	-0.3005
-4.2643 offensé	-0.2991
-4.2643 offre	-0.2961
-4.2643 offrir	-0.2934
-2.2686 on	-0.5523
-3.7871 oncle	-0.2957
-2.5239 ont	-0.3567
-3.9632 onéreux	-0.2925
-3.5653 opinion	-0.2814
-4.2643 opinions	-0.3007
-4.2643 opérateur	-0.3010
-3.9632 or	-0.2906
-4.2643 ordinaire	-0.2962
-3.4192 ordinateur	-0.2735
-4.2643 ordinateurs	-0.3010
-4.2643 ordre	-0.3010
-3.6622 organisation	-0.3488
-3.7871 organiser	-0.2835
-3.7871 organisme	-0.3948
-3.6622 organismes	-0.3526
-3.7871 organisé	-0.5947
-4.2643 organisée	-0.2937
-3.9632 orientation	-0.2935
-4.2643 orienter	-0.2965
-3.9632 originalité	-0.2970
-4.2643 origine	-0.2961
-4.2643 origines	-0.2992
-3.6622 orthographe	-0.2748
-4.2643 orthophonie	-0.3005
-4.2643 orthopédique	-0.2939
-3.7871 osent	-0.3887
-4.2643 ostéotendineux	-0.2951
-2.5239 ou	-0.3254
-4.2643 oubliant	-0.2928
-3.9632 oublie	-0.2954
-3.6622 oublier	-0.2716
-4.2643 oublierai	-0.3006
-4.2643 oubliés	-0.2953
-3.9632 oui	-0.2886
-3.7871 outil	-0.6017
-3.7871 ouvert	-0.5944
-3.9632 ouvre	-0.2853
-4.2643 ouvrent	-0.2928
-3.7871 ouvrir	-0.2903
-3.6622 oxygène	-0.2842
-3.2229 où	-0.3748
-3.4861 p	-0.5948
-3.9632 page	-0.2995
-4.2643 palatins	-0.2974
-4.2643 palier	-0.2934
-4.2643 palsy	-0.3006
-3.9632 panne	-0.2984
-3.9632 papier	-0.2859
-4.2643 papiers	-0.2969
-2.3558 par	-0.5414
-4.2643 paradis	-0.2994
-3.9632 parallèle	-0.2893
-4.2643 paralysie	-0.2990
-4.2643 paralysé	-0.2974
-3.5653 paraplégie	-0.4185
-3.9632 paravent	-0.2877
-4.2643 paraît	-0.2994
-3.6622 parce	-0.4699
-3.1851 parcours	-0.3570
-4.2643 parcourue	-0.2991
-4.2643 pare	-0.3007
-3.9632 parent	-0.2986
-4.2643 parentaux	-0.3010
-2.9218 parents	-0.3231
-4.2643 parfait	-0.2969
-3.4861 parfaitement	-0.3739
-3.4192 parfois	-0.3298
-4.2643 paris	-0.2998
-4.2643 parité	-0.3010
-3.9632 parlait	-0.2992
-3.9632 parlant	-0.2905
-3.2229 parle	-0.3251
-3.9632 parlent	-0.2989
-3.3100 parler	-0.2923
-4.2643 parleur	-0.2994
-4.2643 parlé	-0.2858
-3.5653 parmi	-0.4153
-4.2643 parodique	-0.3006
-3.6622 parole	-0.2774
-3.2643 part	-0.3482
-4.2643 partageons	-0.2942
-3.3612 partager	-0.3174
-4.2643 partagé	-0.2963
-4.2643 parti	-0.2858
-4.2643 participants	-0.2951
-3.9632 participer	-0.2979
-3.9632 participé	-0.2861
-4.2643 particulière	-0.3009
-3.9632 particulièrement	-0.3009
-3.3100 partie	-0.3658
-4.2643 partiels	-0.2974
-4.2643 parties	-0.3010
-3.5653 partir	-0.5267
-4.2643 partis	-0.2961
-4.2643 partout	-0.2934
-4.2643 paru	-0.2969
-4.2643 parution	-0.2858
-4.2643 parvenu	-0.2934
-4.2643 parâtre	-0.2986
-1.9400 pas	-0.2508
-4.2643 passants	-0.2973
-3.7871 passe	-0.2929
-3.1851 passer	-0.3284
-4.2643 passif	-0.2983
-3.7871 passion	-0.2770
-3.1851 passé	-0.2423
-3.9632 passées	-0.2986
-4.2643 passés	-0.3009
-3.9632 patience	-0.2784
-4.2643 patient	-0.2939
-3.6622 patients	-0.3596
-4.2643 pause	-0.2937
-3.7871 payer	-0.2945
-3.4861 pays	-0.2800
-4.2643 paysage	-0.3010
-4.2643 payée	-0.2991
-4.2643 peau	-0.2997
-3.1851 pendant	-0.3310
-4.2643 pendent	-0.3006
-4.2643 pendre	-0.2942
-4.2643 pensant	-0.3006
-2.7328 pense	-0.6969
-3.5653 pensent	-0.3440
-3.5653 penser	-0.3348
-3.6622 pensé	-0.2838
-4.2643 pensée	-0.2990
-4.2643 pensées	-0.2952
-4.2643 perception	-0.2939
-4.2643 perdre	-0.3004
-4.2643 perdu	-0.3005
-4.2643 perfection	-0.3008
-4.2643 permanents	-0.2937
-3.4192 permet	-0.6328
-4.2643 permets	-0.2858
-3.9632 permettant	-0.4619
-4.2643 permettent	-0.2955
-3.9632 permettrait	-0.2807
-3.9632 permettre	-0.4619
-4.2643 permis	-0.2858
-3.9632 permission	-0.2933
-4.2643 persistance	-0.2955
-4.2643 perso	-0.2994
-4.2643 personnage	-0.3010
-4.2643 personnalisés	-0.2934
-3.3100 personnalité	-0.2532
-2.6208 personne	-0.4282
-3.5653 personnel	-0.2834
-3.6622 personnellement	-0.4619
-3.9632 personnelles	-0.2906
-2.3348 personnes	-0.3918
-4.2643 perturbation	-0.2990
-4.2643 perturber	-0.2939
-4.2643 pesant	-0.2952
-4.2643 peser	-0.2994
-3.5653 petit	-0.2856
-3.9632 petite	-0.3009
-3.6622 petites	-0.4768
-3.6622 petits	-0.2908
-3.2229 peu	-0.3589
-4.2643 peuple	-0.2937
-4.2643 peupleront	-0.2994
-4.2643 peuples	-0.2995
-3.3100 peur	-0.4110
-2.6732 peut	-0.4468
-2.8840 peuvent	-0.3994
-3.2229 peux	-0.4042
-4.2643 philippe	-0.3010
-3.9632 philosophie	-0.2931
-4.2643 phobie	-0.3006
-3.9632 photocopie	-0.4740
-4.2643 photocopier	-0.2942
-4.2643 photographie	-0.2969
-4.2643 photomontages	-0.2939
-3.9632 phrase	-0.2906
-4.2643 phrases	-0.2983
-3.4192 physique	-0.2833
-3.7871 physiques	-0.2862
-4.2643 pied	-0.2987
-3.5653 pieds	-0.2820
-3.9632 pions	-0.4703
-3.7871 pire	-0.3777
-3.7871 piscine	-0.2820
-4.2643 pitié	-0.3009
-4.2643 pitoyable	-0.2963
-4.2643 pièce	-0.2934
-3.2229 place	-0.2844
-4.2643 plage	-0.3010
-4.2643 plains	-0.2960
-4.2643 plaint	-0.2858
-3.2643 plaisir	-0.3204
-4.2643 planète	-0.2994
-4.2643 plaît	-0.2960
-4.2643 plein	-0.3003
-4.2643 pleine	-0.3010
-4.2643 pleurer	-0.2928
-4.2643 plonge	-0.3003
-4.2643 plongent	-0.2965
-4.2643 plongé	-0.2965
-3.6622 plupart	-0.4561
-2.2557 plus	-0.3132
-3.4861 plusieurs	-0.3416
-3.7871 plutôt	-0.2944
-3.9632 poids	-0.2859
-3.4192 point	-0.4208
-3.9632 pointe	-0.2800
-3.9632 points	-0.4730
-4.2643 pole	-0.3010
-4.2643 poliment	-0.2939
-4.2643 politiques	-0.2992
-4.2643 polyclinique	-0.3003
-4.2643 polyhandicapé	-0.3005
-3.7871 population	-0.2975
-4.2643 pornographique	-0.2979
-4.2643 portable	-0.2942
-4.2643 portables	-0.2982
-3.9632 portail	-0.2931
-3.3612 porte	-0.3443
-4.2643 portent	-0.3008
-3.9632 porter	-0.2933
-3.4861 portes	-0.2676
-4.2643 portée	-0.2934
-3.9632 pose	-0.2892
-4.2643 posent	-0.3002
-3.9632 positif	-0.2991
-3.7871 positive	-0.2954
-4.2643 positives	-0.2858
-4.2643 possibilités	-0.3010
-3.4861 possible	-0.2738
-3.9632 possède	-0.3004
-4.2643 possédant	-0.2951
-4.2643 post	-0.3010
-4.2643 potentiels	-0.3010
-1.7743 pour	-0.4268
-4.2643 pourcentage	-0.2858
-3.7871 pourquoi	-0.2949
-3.7871 pourra	-0.2994
-4.2643 pourrai	-0.3009
-3.9632 pourraient	-0.3007
-3.7871 pourrais	-0.2972
-3.4192 pourrait	-0.3276
-4.2643 pourront	-0.2995
-4.2643 pourtant	-0.2918
-3.9632 pousser	-0.2993
-3.9632 poussette	-0.4699
-3.9632 pouvaient	-0.2945
-3.5653 pouvais	-0.2932
-3.6622 pouvait	-0.3550
-4.2643 pouvant	-0.3010
-3.9632 pouvez	-0.3009
-3.4192 pouvoir	-0.3706
-4.2643 pouvons	-0.2960
-4.2643 pratiquant	-0.2987
-4.2643 pratique	-0.2942
-3.2643 premier	-0.2932
-2.9632 première	-0.4392
-3.7871 premièrement	-0.2915
-3.1851 prendre	-0.3103
-4.2643 prennent	-0.2937
-3.5653 prenons	-0.2783
-3.3612 presque	-0.2869
-3.9632 preuve	-0.3008
-3.7871 primaire	-0.2884
-4.2643 primaires	-0.2980
-3.9632 primordial	-0.4698
-3.9632 principe	-0.2987
-4.2643 principes	-0.2961
-3.2229 pris	-0.3430
-3.6622 prise	-0.6837
-4.2643 prive	-0.3010
-3.9632 privé	-0.2857
-4.2643 privée	-0.2965
-3.9632 privés	-0.2856
-3.5653 prix	-0.2924
-3.9632 probablement	-0.2963
-4.2643 probables	-0.3010
-2.9025 problème	-0.3552
-2.9025 problèmes	-0.2885
-4.2643 prochain	-0.2952
-4.2643 proche	-0.2858
-4.2643 proches	-0.2990
-4.2643 procure	-0.2951
-4.2643 produirai	-0.3002
-4.2643 produisant	-0.3007
-4.2643 produit	-0.3010
-3.9632 produits	-0.2997
-3.9632 prof	-0.2984
-4.2643 professeur	-0.2939
-3.7871 professeure	-0.2834
-3.9632 professeurs	-0.2937
-4.2643 professionnalisme	-0.3010
-4.2643 professionnel	-0.2918
-3.9632 professionnelle	-0.2927
-4.2643 professionnelles	-0.2974
-3.7871 professionnels	-0.3959
-4.2643 profit	-0.2858
-4.2643 profitent	-0.3007
-4.2643 profiter	-0.2858
-3.6622 profs	-0.4734
-4.2643 programmes	-0.2955
-4.2643 progressifs	-0.2997
-3.9632 progressive	-0.2902
-4.2643 progrès	-0.2934
-3.3612 projet	-0.2698
-3.9632 projets	-0.2894
-4.2643 promenades	-0.3006
-4.2643 promets	-0.2961
-3.6622 promène	-0.2820
-4.2643 prononce	-0.2952
-4.2643 prononcent	-0.2928
-3.9632 prononcer	-0.2897
-3.9632 prononcée	-0.2910
-4.2643 pronostic	-0.3010
-3.1181 propos	-0.6269
-4.2643 propose	-0.2951
-4.2643 proposer	-0.3006
-4.2643 propositions	-0.2858
-3.6622 proposé	-0.2762
-4.2643 proposés	-0.3006
-3.4861 propre	-0.2995
-3.9632 propres	-0.3009
-4.2643 prostitution	-0.2983
-4.2643 protège	-0.2991
-4.2643 protéger	-0.2997
-3.9632 prouver	-0.2883
-4.2643 prouverai	-0.2942
-4.2643 provoquait	-0.2953
-3.9632 provoque	-0.4716
-4.2643 provoquent	-0.2951
-4.2643 proximales	-0.2955
-3.7871 près	-0.3742
-4.2643 préciser	-0.2858
-4.2643 précision	-0.2965
-4.2643 préfère	-0.3009
-3.9632 préjugés	-0.2952
-4.2643 prématurée	-0.2932
-4.2643 prématurés	-0.2997
-4.2643 prénatal	-0.2997
-4.2643 prénatals	-0.2953
-3.9632 préparation	-0.2782
-3.7871 préparer	-0.2810
-3.1851 présent	-0.3459
-3.6622 présentant	-0.4653
-3.5653 présente	-0.3290
-3.7871 présentent	-0.2968
-3.5653 présenter	-0.2789
-3.9632 président	-0.4619
-3.9632 prêt	-0.2931
-4.2643 prêtées	-0.2991
-4.2643 ps	-0.2918
-3.9632 psychologiques	-0.4753
-3.3612 pu	-0.3250
-3.9632 publication	-0.2857
-3.7871 publics	-0.2768
-3.7871 publique	-0.2981
-4.2643 publiques	-0.2934
-2.8840 puis	-0.3742
-4.2643 puisqu	-0.2987
-3.4192 puisse	-0.3235
-3.7871 puissent	-0.3006
-4.2643 punitive	-0.2987
-3.9632 punks	-0.2905
-4.2643 pur	-0.3010
-4.2643 putain	-0.2982
-4.2643 pute	-0.3009
-3.9632 pyramide	-0.2952
-2.8019 père	-0.3458
-4.2643 pénible	-0.2858
-3.6622 périnatale	-0.3578
-3.9632 période	-0.2928
-4.2643 pôle	-0.3010
-2.3005 qu	-0.7221
-4.2643 qualités	-0.2858
-2.7729 quand	-0.4572
-4.2643 quant	-0.2934
-4.2643 quatre	-0.3010
-4.2643 quatrièmement	-0.3007
-1.9441 que	-0.6189
-3.5653 quel	-0.3447
-3.3100 quelle	-0.4395
-3.9632 quelles	-0.4755
-4.2643 quelqu	-0.2953
-3.4861 quelque	-0.6015
-2.9632 quelques	-0.3942
-3.6622 question	-0.2802
-3.7871 questions	-0.2994
-2.1604 qui	-0.4882
-4.2643 quitter	-0.2932
-3.6622 quoi	-0.2887
-4.2643 quotas	-0.2961
-3.5653 quotidien	-0.2854
-4.2643 quotidienne	-0.2982
-4.2643 quotidiennes	-0.2932
-4.2643 r	-0.2995
-4.2643 racial	-0.2969
-4.2643 racines	-0.2961
-4.2643 racontaient	-0.3007
-4.2643 racontant	-0.3006
-3.7871 raconte	-0.2970
-4.2643 racontent	-0.3007
-3.9632 raconter	-0.2928
-4.2643 radio	-0.2965
-3.4192 raison	-0.2730
-3.3612 raisons	-0.3995
-4.2643 ralentissement	-0.2990
-4.2643 ralentit	-0.3009
-3.9632 rancœur	-0.3007
-3.5653 rapidement	-0.3409
-4.2643 rapides	-0.2939
-3.7871 rapport	-0.5944
-4.2643 rapprocher	-0.2858
-3.9632 rare	-0.2911
-3.9632 rarement	-0.2994
-4.2643 rassure	-0.2965
-4.2643 recevoir	-0.2955
-4.2643 recherchai	-0.2953
-4.2643 recherche	-0.3007
-4.2643 recherches	-0.2858
-4.2643 recherchées	-0.3006
-4.2643 reconnus	-0.2991
-4.2643 redonné	-0.2962
-4.2643 referme	-0.3010
-4.2643 refusait	-0.3000
-3.9632 refusé	-0.2838
-2.9025 regard	-0.3508
-3.7871 regardant	-0.2829
-4.2643 regarde	-0.2953
-3.6622 regardent	-0.3607
-3.7871 regarder	-0.2897
-4.2643 regardez	-0.2999
-3.9632 regards	-0.2959
-4.2643 regrouper	-0.3007
-3.7871 relation	-0.3925
-4.2643 relationnel	-0.2987
-4.2643 relativement	-0.3010
-4.2643 relevant	-0.2858
-4.2643 religieuses	-0.3009
-4.2643 religion	-0.3010
-3.9632 remarque	-0.3005
-3.4192 remarques	-0.4339
-3.6622 remarqué	-0.6940
-4.2643 remboursé	-0.2961
-3.3612 remercie	-0.3348
-4.2643 remercier	-0.2979
-4.2643 remets	-0.3002
-4.2643 remis	-0.2969
-4.2643 remonté	-0.2991
-4.2643 remotiver	-0.2979
-4.2643 rempli	-0.2953
-3.9632 remplir	-0.2870
-4.2643 remuer	-0.2991
-4.2643 remédier	-0.2918
-4.2643 rencontre	-0.3009
-3.7871 rencontrer	-0.2837
-3.7871 rencontres	-0.2933
-3.9632 rencontrez	-0.2941
-3.4192 rencontré	-0.3116
-3.6622 rencontrées	-0.2893
-3.7871 rencontrés	-0.2973
-4.2643 rend	-0.2932
-4.2643 rendais	-0.2960
-3.9632 rendent	-0.3008
-4.2643 rendez	-0.2999
-3.5653 rendre	-0.3502
-4.2643 rends	-0.2934
-3.9632 rendu	-0.2968
-4.2643 renie	-0.2960
-4.2643 renouveler	-0.3006
-4.2643 rentabilité	-0.3009
-3.9632 rentrer	-0.2962
-4.2643 repas	-0.2939
-3.9632 reportage	-0.2938
-4.2643 repose	-0.2994
-4.2643 repoussent	-0.3000
-4.2643 reprenant	-0.2942
-4.2643 reprend	-0.2928
-4.2643 représentait	-0.2953
-4.2643 représentant	-0.3009
-3.9632 représentation	-0.2800
-4.2643 représente	-0.2951
-3.9632 représentent	-0.4714
-4.2643 représenter	-0.3004
-4.2643 représenté	-0.2934
-4.2643 représentée	-0.2918
-4.2643 reptatoires	-0.3010
-3.9632 respect	-0.4619
-4.2643 respectent	-0.2996
-4.2643 respecter	-0.2955
-4.2643 respiration	-0.2987
-3.7871 responsable	-0.3904
-4.2643 responsables	-0.2858
-4.2643 ressemblait	-0.2934
-3.9632 ressemble	-0.2910
-3.9632 ressemblent	-0.2931
-3.6622 ressens	-0.4572
-3.7871 ressenti	-0.2774
-3.9632 ressentir	-0.2833
-3.9632 ressource	-0.2936
-3.9632 ressources	-0.2906
-4.2643 restai	-0.2951
-4.2643 restais	-0.2953
-3.3100 reste	-0.3515
-4.2643 restent	-0.3009
-3.7871 rester	-0.3009
-3.9632 restera	-0.3000
-4.2643 restes	-0.3006
-4.2643 resté	-0.3010
-4.2643 retard	-0.2928
-4.2643 retouches	-0.2961
-3.6622 retour	-0.3502
-4.2643 retournent	-0.2994
-4.2643 revenait	-0.3007
-4.2643 revivre	-0.2963
-4.2643 revoir	-0.2963
-3.7871 reçu	-0.2738
-4.2643 riches	-0.2995
-3.6622 richesse	-0.3399
-3.2229 rien	-0.2894
-3.9632 rime	-0.2985
-3.6622 rire	-0.3412
-4.2643 risible	-0.2858
-4.2643 risque	-0.2996
-4.2643 robe	-0.2934
-4.2643 rond	-0.2979
-3.9632 ronde	-0.2942
-4.2643 rougir	-0.3009
-4.2643 roulant	-0.2974
-4.2643 roulement	-0.2974
-4.2643 roulette	-0.3010
-4.2643 route	-0.2918
-3.5653 rue	-0.2727
-4.2643 rupture	-0.3008
-4.2643 russe	-0.2992
-4.2643 règle	-0.2858
-4.2643 ré	-0.3010
-3.6622 réaction	-0.3525
-4.2643 réactions	-0.2955
-4.2643 réadaptation	-0.3010
-4.2643 réagissent	-0.2974
-4.2643 réalisation	-0.2955
-3.2643 réaliser	-0.2928
-4.2643 réalisons	-0.2955
-4.2643 réaliste	-0.2937
-3.9632 réalisé	-0.2902
-3.7871 réalité	-0.2854
-3.9632 réanimer	-0.2938
-3.4192 récemment	-0.4213
-4.2643 récréations	-0.3007
-4.2643 rédaction	-0.2858
-4.2643 rédige	-0.3004
-4.2643 rédiger	-0.2983
-4.2643 réduit	-0.2932
-4.2643 réduite	-0.3010
-4.2643 réelle	-0.2980
-3.7871 réflexes	-0.3007
-3.9632 réflexions	-0.2945
-4.2643 réfléchies	-0.3009
-3.9632 réfléchir	-0.4695
-4.2643 région	-0.2979
-4.2643 régulièrement	-0.2989
-4.2643 réparateur	-0.3009
-4.2643 réparé	-0.2983
-4.2643 répertoire	-0.3004
-4.2643 répond	-0.2961
-4.2643 répondant	-0.3009
-3.9632 répondre	-0.2910
-3.7871 répondu	-0.3874
-4.2643 réponse	-0.2934
-4.2643 réputation	-0.2955
-4.2643 répéter	-0.2928
-4.2643 répétés	-0.2991
-4.2643 réseaux	0.0000
-4.2643 réserver	-0.2934
-4.2643 réservée	-0.2937
-4.2643 résiste	-0.2996
-4.2643 résoudre	-0.3007
-4.2643 résultant	-0.2955
-4.2643 résultat	-0.2952
-4.2643 résultats	-0.2990
-4.2643 résultent	-0.3005
-4.2643 résume	-0.2934
-3.7871 résumé	-0.2790
-3.5653 réunion	-0.3401
-3.5653 réussi	-0.4096
-4.2643 réussir	-0.3008
-3.4861 réussite	-0.2713
-3.7871 réveiller	-0.3891
-3.9632 réviser	-0.2983
-4.2643 révolté	-0.2991
-4.2643 révolutionner	-0.2942
-4.2643 révéler	-0.2951
-3.9632 rééducation	-0.2936
-3.7871 rêve	-0.3833
-4.2643 rêver	-0.2961
-3.9632 rêves	-0.2918
-4.2643 rêveur	-0.3007
-3.9632 rôle	-0.3004
-2.7328 s	-0.3618
-3.1181 sa	-0.3534
-4.2643 sachant	-0.2989
-4.2643 sachs	-0.2932
-4.2643 sages	-0.3003
-3.1851 sais	-0.4103
-3.5653 saisie	-0.2921
-3.9632 saisir	-0.2895
-3.9632 sait	-0.2958
-4.2643 salis	-0.2991
-4.2643 salive	-0.3002
-4.2643 salle	-0.2858
-3.9632 samedi	-0.2916
-2.9420 sans	-0.3538
-4.2643 santé	-0.2991
-4.2643 saoulé	-0.2974
-4.2643 satisfaire	-0.2939
-4.2643 satisfait	-0.2858
-4.2643 savais	-0.2989
-4.2643 savait	-0.2960
-4.2643 savent	-0.2960
-3.4861 savoir	-0.3860
-4.2643 sciences	-0.2969
-4.2643 scientifique	-0.2974
-4.2643 scientifiques	-0.2934
-4.2643 sclérose	-0.3010
-3.2643 scolaire	-0.2663
-3.9632 scolaires	-0.2886
-3.9632 scolarisation	-0.2954
-3.3612 scolarité	-0.4616
-3.9632 sdf	-0.2923
-2.4649 se	-0.3847
-4.2643 secondaire	-0.2928
-4.2643 secondaires	-0.2934
-4.2643 seconde	-0.2987
-3.9632 sein	-0.2905
-3.1503 selon	-0.5510
-3.5653 semaine	-0.2841
-3.7871 semaines	-0.3906
-4.2643 semblables	-0.2982
-3.9632 semble	-0.3005
-4.2643 semblé	-0.3010
-3.1503 sens	-0.2935
-3.7871 sensation	-0.2823
-4.2643 sensations	-0.2994
-3.7871 sensibilisation	-0.2942
-3.4192 sensibiliser	-0.3150
-3.9632 sensible	-0.2931
-4.2643 sensuel	-0.2974
-3.7871 sent	-0.2939
-4.2643 sentais	-0.3006
-4.2643 sentait	-0.2960
-3.9632 sentent	-0.3010
-3.9632 sentiment	-0.2989
-3.9632 sentiments	-0.2979
-3.4192 sentir	-0.3339
-4.2643 sentirais	-0.2960
-3.5653 septembre	-0.2862
-3.5653 sera	-0.2898
-3.9632 serais	-0.3005
-3.0090 serait	-0.3760
-4.2643 serez	-0.3001
-4.2643 sert	-0.2934
-4.2643 servant	-0.2937
-3.9632 service	-0.3004
-3.1503 ses	-0.2994
-3.2229 seul	-0.2901
-3.5653 seule	-0.3306
-3.1181 seulement	-0.2963
-4.2643 seules	-0.3009
-3.7871 sexe	-0.2870
-3.7871 sexualité	-0.2854
-4.2643 sexuel	-0.2969
-4.2643 sexuelle	-0.2942
-2.6015 si	-0.5147
-4.2643 signalétiques	-0.3010
-4.2643 signer	-0.2942
-3.9632 signes	-0.2807
-3.9632 signifie	-0.2911
-4.2643 signifierait	-0.2961
-3.4861 simple	-0.2795
-2.9632 simplement	-0.2699
-4.2643 simples	-0.2934
-4.2643 simplifier	-0.2928
-4.2643 sims	-0.3009
-4.2643 simulez	-0.2953
-3.6622 sincèrement	-0.6940
-3.4861 sinon	-0.3798
-3.6622 site	-0.2930
-3.7871 sites	-0.2937
-3.4192 situation	-0.2570
-4.2643 situations	-0.2961
-3.9632 situe	-0.2888
-3.9632 sms	-0.2845
-3.9632 snc	-0.2982
-4.2643 social	-0.2979
-3.3100 sociale	-0.2609
-3.9632 sociaux	-0.2875
-3.0601 société	-0.2949
-4.2643 sociétés	-0.3010
-3.7871 soi	-0.2928
-3.9632 soient	-0.2928
-3.7871 soins	-0.3009
-4.2643 soir	-0.3002
-3.9632 sois	-0.2936
-3.1503 soit	-0.2918
-4.2643 soixante	-0.3007
-4.2643 solitude	-0.2956
-3.4192 solution	-0.3184
-4.2643 solutions	-0.3002
-4.2643 sombre	-0.3003
-3.7871 somme	-0.2942
-3.9632 sommeil	-0.2928
-3.6622 sommes	-0.2955
-2.8171 son	-0.3106
-3.9632 sons	-0.2980
-2.4192 sont	-0.3584
-4.2643 sortants	-0.2994
-4.2643 sortent	-0.2858
-4.2643 sortie	-0.2858
-3.6622 sorties	-0.2922
-3.4861 sortir	-0.3186
-4.2643 soucis	-0.3002
-4.2643 souffre	-0.2961
-3.5653 souhait	-0.3290
-3.7871 souhaitais	-0.2921
-3.4861 souhaite	-0.2849
-4.2643 souhaitent	-0.3010
-4.2643 souhaiterais	-0.3010
-4.2643 souhaites	-0.3001
-4.2643 souhaitons	-0.3008
-4.2643 souhaits	-0.2961
-3.9632 souplesse	-0.2811
-4.2643 sourd	-0.3010
-4.2643 souris	-0.2939
-3.9632 sous	-0.3009
-3.7871 soutien	-0.2918
-2.8329 souvent	-0.2674
-3.6622 spasticité	-0.2856
-3.3612 spastique	-0.3138
-4.2643 spastiques	-0.3010
-4.2643 spectateur	-0.2918
-4.2643 spectateurs	-0.3007
-4.2643 spinale	-0.3010
-4.2643 spinocérébelleuses	-0.2939
-4.2643 sport	-0.3007
-4.2643 sportifs	-0.3007
-4.2643 spécialement	-0.3010
-4.2643 spécialiste	-0.2934
-4.2643 spécialistes	-0.2965
-3.5653 spécialisé	-0.2668
-3.7871 spécialisée	-0.2873
-4.2643 spécialisées	-0.3002
-4.2643 spécialisés	-0.3001
-3.6622 spécifique	-0.2714
-3.9632 spécifiques	-0.2930
-4.2643 stage	-0.2969
-4.2643 strabisme	-0.2997
-3.6622 stress	-0.2883
-4.2643 stresser	-0.2918
-3.6622 structure	-0.4743
-4.2643 style	-0.3010
-4.2643 stylo	-0.3006
-4.2643 stürge	-0.3010
-3.7871 su	-0.3956
-4.2643 subi	-0.2955
-4.2643 subit	-0.2991
-4.2643 suffisamment	-0.3010
-4.2643 suffit	-0.2858
-4.2643 suicident	-0.2992
-2.4719 suis	-0.3706
-4.2643 suisse	-0.2987
-3.2229 suite	-0.3344
-3.7871 suivant	-0.2969
-3.5653 suivante	-0.4213
-3.6622 suivantes	-0.3551
-3.7871 suivants	-0.2830
-3.7871 suivre	-0.2865
-3.2643 sujet	-0.3926
-4.2643 sujets	-0.3004
-4.2643 supplier	-0.2928
-4.2643 supplémentaire	-0.2937
-4.2643 supporter	-0.3000
-4.2643 supposer	-0.2961
-4.2643 supérieur	-0.2939
-2.4192 sur	-0.5246
-4.2643 surdité	-0.2858
-4.2643 surement	-0.2963
-3.7871 surpris	-0.3941
-4.2643 surprise	-0.2858
-3.5653 surtout	-0.2779
-3.6622 surveillance	-0.2882
-3.9632 surveillant	-0.2935
-3.9632 survie	-0.2908
-4.2643 surviennent	-0.2965
-3.9632 suscite	-0.3009
-4.2643 sustentation	-0.2939
-3.9632 symboles	-0.2969
-3.9632 sympathisé	-0.2933
-4.2643 symétrique	-0.2942
-3.4861 syndrome	-0.3765
-3.4861 syndromes	-0.3422
-4.2643 synonyme	-0.2961
-3.5653 syrie	-0.4013
-3.5653 système	-0.3260
-4.2643 systémique	-0.3010
-3.9632 séance	-0.2986
-4.2643 sécurité	-0.3004
-4.2643 ségolène	-0.2939
-3.9632 séjour	-0.2992
-4.2643 sévère	-0.2990
-4.2643 sûr	-0.2918
-4.2643 sûre	-0.2961
-3.3612 sœur	-0.2951
-3.4861 t	-0.3346
-4.2643 t9	-0.2955
-3.6622 ta	-0.2986
-3.3612 tabou	-0.2839
-4.2643 talent	-0.2932
-4.2643 tant	-0.3006
-3.5653 tard	-0.2789
-4.2643 tas	-0.2983
-4.2643 taux	-0.2858
-4.2643 tay	-0.3010
-4.2643 tdm	-0.2997
-3.6622 te	-0.3008
-3.9632 technique	-0.2886
-4.2643 technologie	-0.2974
-3.9632 tel	-0.2939
-3.7871 tellement	-0.2960
-4.2643 tels	-0.2961
-2.7729 temps	-0.3901
-3.9632 tendance	-0.2925
-4.2643 tendent	-0.2991
-3.9632 tenir	-0.2952
-4.2643 tension	-0.3010
-3.9632 terme	-0.2858
-3.9632 terminal	-0.2974
-4.2643 terminale	-0.3002
-4.2643 terminales	-0.2939
-4.2643 termine	-0.2942
-3.9632 terminerai	-0.2960
-4.2643 terminé	-0.2979
-4.2643 terni	-0.2932
-4.2643 terrain	-0.3009
-3.7871 terre	-0.3891
-4.2643 terroristes	-0.3010
-3.6622 tests	-0.3574
-3.9632 texte	-0.2982
-3.7871 textes	-0.2948
-3.9632 thème	-0.4751
-4.2643 théorie	-0.2939
-3.9632 tiens	-0.4695
-4.2643 tient	-0.3010
-3.9632 tirer	-0.3009
-4.2643 todu	-0.2965
-3.9632 toi	-0.2845
-4.2643 toilette	-0.2962
-3.6622 toilettes	-0.2853
-3.6622 tomber	-0.2899
-4.2643 tombé	-0.2969
-2.9632 ton	-0.4393
-4.2643 tonus	-0.3009
-4.2643 tort	-0.2932
-4.2643 tortue	-0.3010
-3.6622 totalement	-0.2882
-4.2643 totalité	-0.3003
-4.2643 touchant	-0.3004
-3.7871 touche	-0.2838
-4.2643 touchée	-0.2974
-2.6308 toujours	-0.3096
-3.7871 tour	-0.3777
-3.9632 tourne	-0.3009
-4.2643 tourner	-0.2942
-4.2643 tourné	-0.3006
-2.5567 tous	-0.5881
-2.2643 tout	-0.4742
-3.4861 toute	-0.3792
-3.1503 toutes	-0.7160
-3.7871 train	-0.5868
-4.2643 transformer	-0.2928
-4.2643 transport	-0.2939
-4.2643 transposable	-0.2937
-3.7871 traumatisme	-0.3979
-4.2643 traumatismes	-0.3010
-3.2643 travail	-0.3193
-4.2643 travaillai	-0.2974
-4.2643 travaillant	-0.2960
-3.7871 travaille	-0.2929
-3.9632 travaillent	-0.4735
-3.9632 travailler	-0.2951
-4.2643 travaillé	-0.3009
-3.3100 travaux	-0.3409
-3.2229 travers	-0.6428
-4.2643 traînent	-0.2928
-4.2643 tremblement	-0.3010
-4.2643 trente	-0.3010
-4.2643 triste	-0.2934
-3.6622 tristesse	-0.3500
-3.1851 trois	-0.3935
-4.2643 troisièmement	-0.3007
-3.9632 trompe	-0.4721
-4.2643 tronc	-0.3010
-3.0882 trop	-0.2799
-3.4861 troubles	-0.3367
-4.2643 trouva	-0.3002
-4.2643 trouvai	-0.2932
-4.2643 trouvais	-0.3009
-3.9632 trouvant	-0.2986
-3.0338 trouve	-0.3320
-3.6622 trouvent	-0.2827
-3.1503 trouver	-0.2850
-4.2643 trouverai	-0.2962
-4.2643 trouverez	-0.2994
-3.6622 trouvé	-0.3576
-2.6015 très	-0.3868
-3.7871 tt	-0.2955
-2.6515 tu	-0.4037
-4.2643 tubéreuse	-0.2951
-4.2643 tunisie	-0.2969
-4.2643 tv	-0.3010
-3.9632 type	-0.2807
-3.9632 types	-0.4619
-4.2643 télangiectasie	-0.2951
-4.2643 télécommande	-0.2987
-4.2643 téléphonait	-0.2987
-3.6622 téléphone	-0.2974
-4.2643 téléphoner	-0.2989
-4.2643 téléphones	-0.3010
-4.2643 téléphonique	-0.3010
-3.7871 téléthon	-0.2761
-3.3612 télévision	-0.2674
-4.2643 témoignage	-0.2939
-3.5653 tétraplégie	-0.3486
-3.7871 tétraplégique	-0.3977
-3.4192 tête	-0.3204
-4.2643 tôt	-0.2937
-1.8804 un	-0.3897
-1.8663 une	-0.3756
-4.2643 union	-0.2987
-3.5653 uniquement	-0.2701
-4.2643 united	-0.3010
-4.2643 unité	-0.3010
-3.7871 univers	-0.2980
-4.2643 universitaire	-0.2858
-3.9632 usagés	-0.2962
-3.9632 utile	-0.2891
-3.7871 utiles	-0.2911
-4.2643 utilisais	-0.2969
-3.7871 utilisateur	-0.2851
-4.2643 utilisateurs	-0.3007
-4.2643 utilisation	-0.2928
-3.7871 utilise	-0.2896
-3.9632 utiliser	-0.4752
-4.2643 utilisée	-0.2991
-4.2643 utilisés	-0.2937
-4.2643 utopie	-0.2965
-3.9632 v	-0.2987
-3.6622 va	-0.2971
-4.2643 vagues	-0.2994
-3.2229 vais	-0.3106
-4.2643 valeur	-0.3010
-3.3100 valide	-0.2464
-3.4861 valides	-0.2738
-4.2643 variable	-0.2858
-4.2643 vas	-0.3010
-4.2643 vella	-0.2987
-3.6622 venait	-0.4714
-4.2643 vendant	-0.2955
-3.7871 vende	-0.3879
-3.5653 venir	-0.4164
-4.2643 ventre	-0.2858
-4.2643 venu	-0.3006
-4.2643 venue	-0.3006
-3.9632 verbale	-0.2992
-3.0090 vers	-0.4042
-4.2643 vert	-0.2974
-4.2643 vertical	-0.2928
-4.2643 vertébrale	-0.2939
-3.5653 veulent	-0.3362
-3.3612 veut	-0.3109
-3.6622 veux	-0.2994
-4.2643 viable	-0.2969
-4.2643 victimes	-0.2858
-3.9632 vide	-0.2958
-3.7871 vidéo	-0.2992
-2.3504 vie	-0.2647
-4.2643 vieil	-0.3009
-4.2643 viendra	-0.2858
-3.9632 viennent	-0.4767
-4.2643 viens	-0.2918
-3.9632 vient	-0.3003
-3.7871 village	-0.3865
-3.9632 virage	-0.4726
-4.2643 virtuel	-0.3008
-3.9632 virtuelle	-0.2988
-4.2643 virtuels	-0.3010
-3.3612 vis	-0.3418
-4.2643 visage	-0.3005
-3.5653 vision	-0.3213
-4.2643 visitai	-0.2955
-4.2643 visite	-0.3010
-4.2643 visité	-0.2955
-4.2643 visuels	-0.2928
-3.9632 vit	-0.2929
-3.6622 vite	-0.3007
-4.2643 vitesse	-0.2858
-3.9632 vivait	-0.4726
-4.2643 vivant	-0.3006
-3.7871 vivent	-0.2890
-3.1181 vivre	-0.3235
-4.2643 voici	-0.2928
-3.7871 voie	-0.2746
-3.7871 voient	-0.2829
-4.2643 voies	-0.2951
-3.3100 voir	-0.2635
-3.3612 voire	-0.3343
-3.4192 vois	-0.2671
-4.2643 voit	-0.3007
-4.2643 voiture	-0.2955
-4.2643 voitures	-0.2996
-4.2643 voiturette	-0.3009
-3.9632 volontaires	-0.2960
-3.4861 volonté	-0.3047
-4.2643 volontés	-0.2979
-4.2643 volume	-0.3010
-4.2643 von	-0.3010
-3.9632 vont	-0.3001
-3.6622 vos	-0.3007
-3.5653 votre	-0.2988
-3.4192 voulaient	-0.3693
-3.4192 voulais	-0.2840
-3.4861 voulait	-0.3868
-3.5653 voulu	-0.2888
-4.2643 voulue	-0.2992
-2.5741 vous	-0.2481
-3.9632 voyais	-0.2978
-3.9632 voyait	-0.2929
-4.2643 voyez	-0.2963
-3.9632 vrai	-0.2959
-3.9632 vraie	-0.3009
-2.9420 vraiment	-0.2651
-4.2643 vrais	-0.2953
-3.4192 vu	-0.3179
-3.9632 vue	-0.2841
-3.7871 vécu	-0.2956
-3.9632 vérifier	-0.4760
-3.9632 véritable	-0.3008
-3.9632 vérité	-0.4748
-4.2643 vôtre	-0.2991
-4.2643 wc	-0.3008
-3.7871 web	-0.2971
-4.2643 weber	-0.2962
-4.2643 x	-0.2987
-2.7328 y	-0.5747
-4.2643 yeux	-0.2969
-4.2643 yohan	-0.3010
-1.7577 à	-0.4421
-3.4861 âge	-0.5853
-3.7871 âgées	-0.2931
-3.3100 ça	-0.2946
-4.2643 écart	-0.3008
-4.2643 échanger	-0.2974
-4.2643 échanges	-0.2974
-4.2643 échec	-0.3010
-4.2643 échéance	-0.3006
-3.1851 école	-0.2975
-3.7871 écoles	-0.2936
-4.2643 économie	-0.2987
-4.2643 écoutai	-0.2952
-3.9632 écoute	-0.2989
-3.9632 écouter	-0.2784
-4.2643 écran	-0.2961
-4.2643 écraser	-0.2928
-4.2643 écrirais	-0.2960
-3.1503 écrire	-0.5318
-4.2643 écris	-0.2928
-3.9632 écrit	-0.2893
-4.2643 écrite	-0.2956
-3.9632 écrits	-0.2938
-3.9632 écriture	-0.2815
-3.9632 écrivant	-0.2970
-4.2643 écrive	-0.2992
-4.2643 égal	-0.2996
-4.2643 égale	-0.2991
-3.1503 également	-0.2790
-4.2643 égales	-0.2965
-4.2643 égalité	-0.2965
-4.2643 égaux	-0.2989
-4.2643 élargissement	-0.2858
-3.6622 électrique	-0.2717
-3.9632 élevé	-0.2782
-4.2643 élevées	-0.3008
-4.2643 éliminées	-0.2991
-4.2643 élite	-0.2998
-4.2643 élocution	-0.2928
-3.6622 élève	-0.4752
-3.4861 élèves	-0.2786
-4.2643 émission	-0.2982
-3.9632 émissions	-0.2965
-4.2643 émotion	-0.2998
-4.2643 émotionnelle	-0.2939
-3.7871 émotions	-0.2879
-4.2643 énervait	-0.2994
-4.2643 énerver	-0.2992
-3.7871 énorme	-0.3904
-3.2643 énormément	-0.3857
-3.9632 épanouis	-0.2891
-4.2643 épileptiques	-0.2994
-3.5653 époque	-0.4166
-3.6622 équilibre	-0.3404
-4.2643 équipe	-0.2858
-4.2643 équipé	-0.3009
-4.2643 équivalent	-0.2969
-4.2643 établir	-0.2953
-3.9632 établissement	-0.3009
-4.2643 établissements	-0.2858
-3.2643 étaient	-0.3381
-2.8840 étais	-0.3777
-2.4009 était	-0.2919
-3.7871 étant	-0.2944
-4.2643 étape	-0.2858
-4.2643 état	-0.2928
-4.2643 étau	-0.3010
-4.2643 étendu	-0.3007
-4.2643 étiologie	-0.2979
-4.2643 étouffer	-0.2939
-4.2643 étrangère	-0.2979
-4.2643 étroite	-0.3007
-3.7871 étroits	-0.2926
-4.2643 étude	-0.3010
-3.3612 études	-0.3045
-4.2643 étudie	-0.2928
-4.2643 étudier	-0.2963
-3.1851 été	-0.3108
-4.2643 évaluer	-0.2991
-4.2643 évanouit	-0.3009
-4.2643 éventuelle	-0.3010
-3.9632 éventuellement	-0.2808
-4.2643 éventuelles	-0.3010
-4.2643 éventuels	-0.3005
-2.9218 évidemment	-0.3349
-4.2643 évident	-0.2992
-4.2643 éviter	-0.2934
-4.2643 évitez	-0.2928
-4.2643 évolutifs	-0.2980
-4.2643 évolutives	-0.3009
-4.2643 événements	-0.2990
-4.2643 êtes	-0.2928
-2.4317 être	-0.2971
-3.9632 êtres	-0.2980

\2-grams:
-0.6021 0 1 -0.2218
-0.6021 0 2 -0.2762
-0.1249 000 euros -0.3310
-0.7782 1 an -0.2430
-0.7782 1 des -0.2999
-0.7782 1 à -0.3000
-0.6021 10 des -0.2975
-0.6021 10 mai -0.2430
-0.1761 100 euros -0.2576
-0.6021 11 2015 -0.2499
-0.6021 11 ans -0.2782
-0.3010 13 11 -0.1761
-0.3010 130 000 0.3010
-0.1761 14 ans -0.2782
-0.3010 15 des -0.2975
-0.3010 16 ans -0.2897
-0.3010 1992 en -0.2932
-0.9542 2 ans -0.2782
-1.2553 2 des -0.2952
-1.2553 2 gros -0.1761
-1.2553 2 minutes -0.2218
-0.9542 2 personnes -0.4629
-1.2553 2 suivantes -0.2341
-1.2553 2 suivants -0.2218
-1.2553 2 terminales 0.0000
-0.7782 20 000 0.3010
-0.7782 20 ans -0.2897
-0.7782 20 des -0.2987
-0.3010 2004 et -0.2958
-0.6021 2011 j 0.0884
-0.6021 2011 je -0.3001
-0.6021 2013 j 0.0884
-0.6021 2013 mon -0.2603
-0.3010 2014 puis -0.2775
-0.9542 2015 cependant -0.2923
-0.9542 2015 depuis -0.2863
-0.9542 2015 est -0.2997
-0.6532 2015 je -0.2614
-0.6021 2016 j 0.0884
-0.6021 2016 ça -0.2762
-0.3010 22 h 0.0000
-0.3010 25 des -0.2987
-0.3010 257 les -0.2909
-0.7782 3 ans -0.2897
-0.3010 3 avs -0.5051
-0.3979 30 ans -0.2782
-0.6990 30 pour -0.2874
-0.3010 3000 euros -0.2798
-0.3010 35 000 0.3010
-0.1761 35000 euros -0.2576
-0.9031 4 ans -0.2897
-0.9031 4 grandes -0.2341
-0.9031 4 membres -0.2553
-0.9031 4 mois -0.2863
-0.6021 5 ans -0.2663
-1.0792 5 en -0.2948
-1.0792 5 euros -0.2798
-1.0792 5 février 0.0000
-1.0792 5 ses -0.2840
-0.3010 500 euros -0.2798
-0.3010 6 ans -0.2897
-0.3010 69 par -0.2170
-0.3010 7 ans -0.2897
-0.3010 70 des -0.2975
-0.7404 8 ans -0.2663
-1.0414 8 certes 0.0000
-1.0414 8 et -0.2926
-1.0414 8 participants 0.0000
-1.0414 8 à -0.2921
-2.2967 a accepté -0.2139
-2.2967 a aidé -0.1091
-1.9956 a annoncé 0.0000
-1.9956 a apporté 0.0000
-2.2967 a appris -0.2688
-2.2967 a aucune -0.2430
-2.2967 a augmenté -0.1761
-2.2967 a autorisé 0.0000
-2.2967 a avoué 0.0000
-1.8195 a beaucoup -0.1524
-2.2967 a bien -0.2894
-1.9956 a changé -0.2041
-2.2967 a chié 0.0000
-2.2967 a cinq 0.0000
-2.2967 a confirmé 0.0000
-2.2967 a créé -0.1761
-2.2967 a d -0.2760
-1.8195 a demandé -0.0969
-1.5977 a des -0.2661
-1.6946 a dit -0.2182
-1.8195 a donné -0.1871
-2.2967 a du -0.2979
-1.9956 a décidé -0.2041
-2.2967 a décrit 0.0000
-2.2967 a dû -0.2711
-1.9956 a encore -0.4564
-1.8195 a eu -0.2527
-2.2967 a expliqué 0.0000
-1.8195 a fait -0.2869
-1.9956 a frappé 0.0000
-2.2967 a invité -0.1761
-2.2967 a jamais -0.2888
-2.2967 a l -0.2996
-1.8195 a le -0.2811
-2.2967 a lorsque -0.2775
-1.8195 a mis -0.1845
-2.2967 a montré -0.1761
-2.2967 a participé -0.1761
-1.2175 a pas -0.2759
-1.8195 a passé -0.2430
-2.2967 a permis 0.0000
-2.2967 a pire -0.2041
-2.2967 a plus -0.2929
-2.2967 a plusieurs -0.2139
-2.2967 a pris -0.2775
-1.9956 a proposé -0.1761
-1.9956 a pu -0.2389
-2.2967 a quelques -0.2739
-2.2967 a redonné 0.0000
-2.2967 a refusé -0.1761
-2.2967 a réparé 0.0000
-1.9956 a répondu 0.0969
-2.2967 a réussi -0.0969
-2.2967 a sa -0.2253
-2.2967 a semblé 0.0000
-2.2967 a seulement -0.2840
-2.2967 a son -0.2929
-2.2967 a souvent -0.2829
-2.2967 a sur -0.2144
-1.9956 a sympathisé 0.0000
-2.2967 a t -0.2596
-2.2967 a tendance -0.1761
-1.9956 a toujours -0.2890
-2.2967 a tout -0.2978
-2.2967 a travaillé 0.0000
-1.6946 a un -0.2882
-1.9956 a une -0.2989
-2.2967 a vraiment -0.2897
-1.8195 a également -0.2253
-2.2967 a énormément -0.2730
-2.2967 a étendu 0.0000
-1.6946 a été -0.2181
-0.3010 aah et -0.2989
-0.6021 abandonné cette -0.2972
-0.6021 abandonné mes -0.2941
-0.9031 abord c 1.4771
-1.2041 abord demander -0.2041
-1.2041 abord j 0.0884
-1.2041 abord l -0.2941
-1.2041 abord ma -0.2856
-1.2041 abord pour -0.3000
-0.9031 abord un -0.2964
-0.6021 abordent comment -0.1919
-0.6021 abordent le -0.2959
-0.6021 aborder ces -0.2937
-0.6021 aborder cette -0.2778
-0.3010 abordé le -0.2959
-0.3010 absente et -0.2989
-0.6021 absolument que -0.2105
-0.6021 absolument un -0.2999
-0.1761 abstraction de -0.2507
-0.6021 accepte jusqu 0.1383
-0.6021 accepte tel -0.1761
-0.3010 accepter l -0.2996
-0.7404 accepté de -0.2966
-0.7404 accepté en -0.2932
-1.0414 accepté je -0.2936
-0.7404 accepté ma -0.2642
-1.1461 accessibilité c 0.2218
-1.1461 accessibilité dans -0.2950
-1.1461 accessibilité en -0.2995
-1.1461 accessibilité est -0.2997
-1.1461 accessibilité sont -0.2898
-1.1461 accessibilité une -0.2968
-1.1461 accessibilité évidemment -0.2891
-1.0000 accessible doit -0.2798
-1.0000 accessible et -0.3000
-1.0000 accessible ferait -0.1761
-1.0000 accessible leur -0.2966
-1.0000 accessible évidemment -0.2643
-0.3010 accessibles par -0.2929
-0.6021 accident cependant -0.2923
-0.6021 accident ressemble -0.1761
-0.3010 accompagnant dans -0.2867
-0.3010 accompagnantes qui -0.2936
-0.6021 accompagner aux -0.2939
-0.6021 accompagner seulement -0.2840
-0.6021 accompagné d -0.2760
-0.6021 accompagné par -0.2846
-0.3010 accompagnée par -0.2929
-0.9031 accord d -0.2745
-0.9031 accord j -0.2915
-0.9031 accord je -0.2917
-0.9031 accord que -0.2783
-0.3010 accoucha d -0.2745
-0.3010 accouchement mes -0.2617
-0.3010 accueil de -0.2946
-0.3010 accès au -0.2951
-0.1761 accélérer la -0.4736
-0.3010 accéléré cela -0.2650
-0.9031 achat aux -0.2866
-0.9031 achat d -0.2760
-0.9031 achat donc -0.2903
-0.9031 achat la -0.2975
-0.3010 achats très -0.2896
-0.3979 acheter la -0.4736
-0.6990 acheter les -0.2977
-0.3010 achetez le -0.3000
-0.6021 acheté au -0.2890
-0.6021 acheté mon -0.2932
-0.3010 achetée par -0.2888
-0.3010 achèterai la -0.2975
-0.3010 acides aminés 0.0000
-0.3010 action exemple -0.2788
-0.6021 actions de -0.2966
-0.6021 actions naturelles 0.0000
-0.7782 activités journalières 0.0000
-0.7782 activités p 0.1249
-0.7782 activités quotidiennes 0.0000
-0.3010 actuellement qu -0.2242
-0.3010 adaptation auprès -0.2341
-0.3010 adaptations concernant -0.2041
-1.3010 adapter aussi -0.2846
-1.3010 adapter aux -0.2866
-1.3010 adapter cependant -0.2455
-1.3010 adapter la -0.2975
-1.3010 adapter pour -0.2990
-1.3010 adapter puis -0.2775
-1.3010 adapter simplement -0.2891
-0.6021 adapter à -0.3362
-0.3010 adaptée dans -0.2566
-0.9031 adaptés associés -0.1761
-0.9031 adaptés cela -0.2514
-0.9031 adaptés en -0.2995
-0.9031 adaptés pour -0.2990
-0.3010 adar une -0.3000
-0.1761 admet la -0.2966
-0.3010 adoption si -0.2941
-0.8451 adore quand -0.2913
-0.5441 adore ton -0.4007
-0.8451 adore vous -0.2963
-0.3010 adresser aux -0.2639
-0.6021 adrénoleucodystrophie débute 0.0000
-0.6021 adrénoleucodystrophie infantile -0.1761
-0.3010 adulte auparavant -0.2341
-1.0000 adultes car -0.2561
-1.0000 adultes handicapés -0.2825
-1.0000 adultes pour -0.2874
-1.0000 adultes pourront 0.0000
-1.0000 adultes présentant -0.2218
-0.6021 affecter les -0.2985
-0.6021 affecter légèrement -0.1761
-0.3010 affections évolutives 0.0000
-0.3010 affiches flyers 0.0000
-0.3010 affichés sur -0.2821
-0.3010 afflux encore -0.2908
-0.3010 affronte les -0.2977
-0.6021 affronter dans -0.2610
-0.6021 affronter la -0.2777
-0.6767 afin d -0.4596
-0.2788 afin de -0.2829
-0.9777 afin que -0.1755
-0.3010 agissent envers -0.1498
-0.3010 agit d -0.2760
-1.2041 agréable après -0.2903
-1.2041 agréable cette -0.2738
-1.2041 agréable d -0.2996
-0.9031 agréable de -0.2996
-0.9031 agréable et -0.2989
-1.2041 agréable pour -0.3000
-1.2041 agréable évidemment -0.2891
-0.6021 agréables avec -0.2988
-0.6021 agréables et -0.2926
-2.4133 ai 30 -0.0792
-2.4133 ai accepté -0.2139
-1.7143 ai appris -0.1091
-2.4133 ai attendu 0.0000
-2.4133 ai aucun -0.2218
-2.1123 ai aucune -0.1761
-2.4133 ai augmenté -0.1761
-2.4133 ai beaucoup -0.0726
-2.4133 ai besoin -0.1461
-2.4133 ai cet -0.2596
-1.8112 ai commencé 0.0000
-2.4133 ai compris -0.2430
-2.4133 ai connues 0.0000
-2.1123 ai conscience -0.3010
-2.1123 ai constaté 0.0000
-2.4133 ai constitué 0.0000
-2.4133 ai créé -0.1761
-1.9362 ai des -0.3921
-2.4133 ai deux -0.2872
-2.4133 ai difficultés -0.2374
-2.4133 ai droit -0.2341
-1.9362 ai décidé -0.3010
-1.7143 ai découvert 0.0000
-2.1123 ai déjà -0.1761
-2.4133 ai développé 0.0000
-2.4133 ai dû -0.2389
-2.1123 ai effectué 0.0000
-2.4133 ai envie 0.3979
-2.1123 ai essayé 0.0000
-1.0154 ai eu -0.2062
-2.4133 ai eues 0.0000
-1.5682 ai fait -0.3047
-1.9362 ai gagné -0.2218
-2.4133 ai grandi 0.0000
-2.4133 ai horreur -0.1761
-2.4133 ai imaginé 0.0000
-1.7143 ai jamais -0.2218
-2.4133 ai la -0.2940
-2.4133 ai le -0.3000
-2.4133 ai longtemps 0.0000
-2.4133 ai mal -0.2632
-2.4133 ai mis -0.2747
-2.4133 ai mon -0.2963
-2.4133 ai montré -0.1761
-2.4133 ai même -0.2943
-2.4133 ai parlé 0.0000
-2.4133 ai participé -0.1761
-1.5102 ai pas -0.2681
-2.1123 ai passé -0.2632
-2.4133 ai pensé -0.2430
-1.8112 ai pris -0.1362
-2.4133 ai proposé -0.2430
-2.1123 ai pu -0.2389
-2.4133 ai quand -0.2711
-1.9362 ai remarqué 0.0969
-2.4133 ai remercie -0.2688
-1.6351 ai rencontré -0.0736
-2.4133 ai rencontrées -0.2430
-2.4133 ai ressenti -0.2218
-1.9362 ai reçu 0.0000
-2.4133 ai réalisé -0.1761
-2.4133 ai répondu -0.0792
-2.1123 ai réussi 0.0000
-2.4133 ai souvent -0.2829
-1.9362 ai su 0.0000
-2.4133 ai subi 0.0000
-2.4133 ai terminé 0.0000
-2.4133 ai toujours -0.2950
-1.9362 ai tout -0.3817
-1.9362 ai trouvé 0.0669
-1.7143 ai un -0.3346
-1.6351 ai une -0.2903
-1.9362 ai vite -0.0969
-1.9362 ai voulu -0.1461
-2.4133 ai vraiment -0.2897
-2.1123 ai vécu -0.1249
-2.4133 ai à -0.3000
-2.4133 ai écrit -0.1761
-1.9362 ai été -0.2181
-1.6335 aide car -0.2932
-1.6335 aide d -0.2760
-1.0314 aide de -0.4642
-1.6335 aide et -0.2958
-1.1563 aide humaine -0.1549
-1.6335 aide j 0.0884
-1.6335 aide je -0.2955
-1.3324 aide la -0.4665
-1.6335 aide logicielle 0.0000
-1.6335 aide me -0.2909
-1.6335 aide mon -0.2979
-1.6335 aide n -0.2749
-1.3324 aide pour -0.2734
-1.3324 aide scolaire -0.2553
-1.0314 aide à -0.3530
-1.6335 aide énormément -0.2730
-0.3010 aident dans -0.2290
-1.2304 aider après -0.2680
-1.2304 aider cela -0.2986
-1.2304 aider cependant -0.2923
-0.9294 aider dans -0.2121
-1.2304 aider des -0.2809
-1.2304 aider financièrement 0.0000
-1.2304 aider par -0.2970
-1.2304 aider à -0.3000
-1.4150 aides afin -0.1984
-1.4150 aides avaient -0.2663
-1.4150 aides et -0.2947
-1.4150 aides financières 0.0000
-1.1139 aides habituelles 0.0000
-1.4150 aides les -0.2977
-1.1139 aides pour -0.2959
-1.4150 aides quelques -0.2449
-1.4150 aides seulement -0.2840
-0.7160 aides à -0.3760
-1.1461 aidé au -0.2860
-1.1461 aidé elle -0.2952
-1.1461 aidé et -0.2958
-1.1461 aidé quand -0.1793
-0.4472 aidé à -0.3422
-0.3010 aie un -0.2976
-0.3010 ailes comme -0.2963
-0.7782 aime cette -0.2896
-0.7782 aime pas -0.2944
-0.7782 aime récemment -0.2596
-0.3010 aiment si -0.2651
-0.6021 aimer ce -0.2576
-0.6021 aimer mais -0.2930
-0.6021 aimerais nous -0.2949
-0.6021 aimerais y -0.2915
-0.3010 aimé que -0.2889
-0.3979 ainsi que -0.2942
-0.6990 ainsi être -0.2974
-0.3010 aise ou -0.2913
-0.6021 ajouter du -0.2979
-0.6021 ajouter à -0.2981
-0.3010 alcool des -0.2987
-0.3010 alimentation ce -0.2879
-0.3010 allaient acheter -0.0792
-0.1761 allais avoir -0.2868
-0.6021 allait au -0.2951
-0.6021 allait être -0.2974
-1.0414 aller aux -0.5726
-1.5185 aller car -0.2892
-1.5185 aller dans -0.2676
-1.5185 aller du -0.2948
-1.2175 aller en -0.2979
-1.5185 aller loin -0.2632
-1.2175 aller plus -0.4662
-1.5185 aller si -0.2941
-1.5185 aller sur -0.2869
-1.0414 aller vers -0.2156
-1.0414 aller voire -0.1091
-1.2175 aller à -0.2500
-0.3010 allez vous -0.2963
-0.3010 allocation dans -0.2676
-0.3010 allons pas -0.2997
-0.9031 alors d -0.2760
-0.9031 alors je -0.3001
-0.9031 alors que -0.2505
-0.9031 alors si -0.2798
-0.9031 ami je -0.2654
-0.9031 ami l -0.2912
-0.9031 ami n -0.2596
-0.9031 ami qui -0.2758
-0.6021 amie de -0.2906
-0.6021 amie formidable 0.0000
-0.6021 amies les -0.3002
-0.6021 amies moins -0.2846
-0.3010 aminés ou -0.2606
-1.4150 amis afin -0.2527
-1.4150 amis après -0.2793
-1.4150 amis doivent -0.1845
-1.1139 amis donnaient 0.0000
-1.4150 amis elle -0.2833
-1.4150 amis et -0.2926
-1.4150 amis j 0.0884
-1.4150 amis jouaient 0.0000
-1.4150 amis me -0.2994
-1.1139 amis pour -0.2853
-1.4150 amis que -0.2993
-1.4150 amis qui -0.2758
-0.6021 amortir cette -0.2972
-0.6021 amortir leurs -0.2840
-0.7782 amour conjoint 0.0000
-0.7782 amour la -0.2993
-0.7782 amour mes -0.2941
-0.3010 ampleur pour -0.2874
-0.3010 amplifié avec -0.2809
-0.3010 amplifiés avec -0.2763
-0.3010 amusant sur -0.2869
-0.3010 amuse de -0.2717
-0.3010 amusement en -0.2979
-0.3010 amuser et -0.2883
-0.3010 amusé en -0.2964
-0.3010 améliorations pour -0.2701
-0.3010 améliore ma -0.2960
-0.6021 améliorer dans -0.2566
-0.6021 améliorer le -0.3000
-0.3010 amélioré ma -0.2473
-0.3010 améliorés grâce 0.2730
-0.6021 aménagement des -0.2999
-0.6021 aménagement durant -0.2825
-0.3010 aménagements à -0.2971
-0.3010 aménager puis -0.2775
-0.3010 américain sans -0.2891
-0.9031 an au -0.2951
-0.9031 an j -0.2963
-0.9031 an pour -0.2917
-0.9031 an vous -0.2963
-0.7782 analyser peut -0.1636
-0.7782 analyser tout -0.2679
-0.7782 analyser à -0.2850
-0.3010 anatomopathologiques des -0.2975
-0.3010 animal avec -0.2693
-0.6021 animaux en -0.2979
-0.6021 animaux les -0.3002
-0.3010 annoncer les -0.3002
-0.3010 annonces c 0.2218
-0.6021 annoncé cela -0.2961
-0.6021 annoncé qu -0.2851
-1.2041 année d -0.2996
-1.2041 année de -0.3005
-1.2041 année ma -0.2960
-0.9031 année mais -0.4609
-1.2041 année master 0.0000
-1.2041 année que -0.2993
-0.9031 année suivante -0.2730
-1.0414 années cinquante 0.0000
-1.0414 années de -0.3005
-1.0414 années j -0.2634
-1.0414 années ma -0.2856
-0.7404 années mes -0.4452
-0.8451 anomalies cutanées 0.0000
-0.5441 anomalies du -0.2917
-0.8451 anomalies métaboliques 0.0000
-1.5911 ans car -0.2561
-1.5911 ans d -0.2880
-1.5911 ans dans -0.2741
-1.5911 ans de -0.2941
-1.2900 ans en -0.2916
-1.5911 ans et -0.3000
-1.5911 ans forcément -0.2430
-1.5911 ans il -0.2791
-1.5911 ans j -0.2995
-1.5911 ans je -0.2644
-1.5911 ans le -0.3000
-1.5911 ans les -0.2909
-1.5911 ans mes -0.2941
-1.5911 ans mon -0.2995
-1.5911 ans on -0.2527
-1.5911 ans parlent -0.1761
-1.5911 ans pour -0.2917
-1.5911 ans que -0.2505
-1.5911 ans tous -0.2944
-0.3010 anti épileptiques 0.0000
-0.3010 antécédents néonatals 0.0000
-0.3010 août 2015 -0.2499
-0.3010 apaiser leurs -0.2840
-0.3010 apparaissent chez -0.2700
-0.3010 apparaitra négatif -0.1549
-0.6990 appareil cela -0.2936
-0.3979 appareil de -0.4742
-0.3010 appareillage la -0.3002
-0.3010 appareils appartenant 0.0000
-0.1761 apparence physique -0.2341
-0.3010 apparences physiques -0.2218
-0.3010 apparition du -0.2979
-0.3010 appartement ne -0.2988
-0.3010 appartements adaptés -0.2430
-0.3010 appartenant à -0.2911
-0.3010 appartient aussi -0.2846
-0.0792 appel à -0.3056
-0.9031 appelle bassel 0.0000
-0.9031 appelle et -0.2947
-0.9031 appelle les -0.2969
-0.9031 appelle yohan 0.0000
-0.3010 application à -0.2971
-0.3010 applications en -0.2995
-0.3010 appliqué à -0.2737
-0.3010 apport aux -0.2939
-0.3010 apporte une -0.2989
-0.3010 apportent du -0.2979
-0.3010 apporter une -0.2957
-0.3010 apportera un -0.2999
-0.6021 apporté d -0.2938
-0.6021 apporté dans -0.2990
-0.3010 apprenais et -0.2785
-0.6021 apprendre aux -0.2866
-0.6021 apprendre sur -0.2144
-0.8451 apprends ce -0.2906
-0.8451 apprends encore -0.2908
-0.5441 apprends qui -0.4722
-0.3010 apprennent que -0.2105
-1.1461 appris cependant -0.2833
-1.1461 appris défoncer 0.0000
-1.1461 appris qu -0.2099
-1.1461 appris rapidement -0.1919
-0.8451 appris à -0.2941
-0.8451 appris énormément -0.3144
-0.3010 approfondir le -0.2990
-0.3010 appropriées de -0.2986
-0.3010 appréhension en -0.2995
-1.3118 après asphyxie -0.2730
-1.6128 après avoir -0.2940
-1.6128 après elle -0.2952
-1.6128 après je -0.2704
-1.6128 après la -0.3002
-1.1357 après le -0.5969
-1.6128 après ma -0.2856
-1.6128 après midi 0.0000
-1.3118 après mon -0.2916
-1.6128 après on -0.2527
-1.0107 après plus -0.4662
-1.6128 après quelques -0.2449
-1.6128 après t -0.2596
-1.6128 après toutes -0.0512
-1.6128 après une -0.3000
-1.6128 après vende -0.2041
-1.6128 après ça -0.2762
-0.3010 arbre dépassaient 0.0000
-0.3010 arcades du -0.2979
-0.3010 archaïques une -0.3000
-0.7782 argent dont -0.2218
-0.7782 argent je -0.2936
-0.7782 argent à -0.3000
-0.3010 armure et -0.2785
-0.6021 arrivais pas -0.2917
-0.6021 arrivais à -0.3000
-0.6021 arrive pas -0.2917
-0.6021 arrive quelque 0.1249
-0.1761 arrivent à -0.2971
-1.2041 arriver je -0.2714
-1.2041 arriver là -0.2730
-1.2041 arriver rédiger 0.0000
-0.2499 arriver à -0.2598
-0.3010 arriverais jamais -0.2888
-1.0414 arrivé alors -0.2430
-1.0414 arrivé dans -0.2676
-1.0414 arrivé en -0.2964
-0.4393 arrivé à -0.2931
-0.1761 arriération mentale 0.0000
-0.7782 arrêter cette -0.2972
-0.7782 arrêter faire -0.2814
-0.7782 arrêter à -0.2991
-0.3010 arrêterai jamais -0.2888
-0.9031 arrêté au -0.2981
-0.9031 arrêté ce -0.2958
-0.9031 arrêté essayer 0.0000
-0.9031 arrêté pour -0.2701
-0.4260 article je -0.5927
-0.9031 article sur -0.2821
-0.9031 article à -0.2891
-0.3010 articles scientifiques 0.0000
-1.2788 as ces -0.2304
-0.9777 as donné -0.4046
-1.2788 as encore -0.2473
-1.2788 as gagné -0.2499
-1.2788 as rencontrées -0.2430
-1.2788 as sont -0.2973
-0.8016 as tu -0.3774
-1.2788 as voulu -0.2553
-0.9031 asphyxie ictère -0.2341
-0.9031 asphyxie néonatale 0.1761
-0.4260 asphyxie périnatale 0.0669
-0.3010 aspirais à -0.2931
-0.9031 assez difficile -0.2430
-0.9031 assez intelligentes 0.1761
-0.9031 assez longue -0.2430
-0.9031 assez mâture 0.0000
-0.3010 assis tout -0.2049
-0.3010 assistait à -0.2971
-0.6021 assistance et -0.2862
-0.6021 assistance si -0.2941
-0.3010 assistant e -0.1761
-0.1249 assistante sociale -0.2218
-0.3010 assistées par -0.2970
-0.3010 associant très -0.2896
-1.4771 association a -0.2988
-1.4771 association avec -0.2693
-1.4771 association c 0.2218
-1.4771 association d -0.2996
-1.4771 association de -0.2921
-1.4771 association entre -0.2762
-1.4771 association j 0.0884
-0.8751 association m -0.2766
-1.4771 association n -0.2982
-1.4771 association possède -0.1761
-1.4771 association pour -0.2969
-1.1761 association qui -0.2732
-1.4771 association voulait -0.2553
-0.3979 associations d -0.4728
-0.6990 associations sont -0.2973
-0.3010 associées à -0.2891
-0.6021 associés au -0.2981
-0.6021 associés des -0.2999
-0.3010 assouvir comme -0.2868
-0.3010 assouvis pour -0.2959
-0.3010 assumer cependant -0.2455
-0.3010 assure qu -0.2099
-0.3010 asthénie une -0.3000
-0.3010 astuce est -0.2932
-0.3010 astuces pour -0.2969
-0.7782 ataxie et -0.2989
-0.7782 ataxie ou -0.2813
-0.7782 ataxie télangiectasie 0.0000
-0.3010 ataxique et -0.3000
-0.7782 ataxiques s -0.2935
-0.7782 ataxiques sont -0.2973
-0.7782 ataxiques surviennent 0.0000
-0.7782 atelier d -0.2982
-0.7782 atelier de -0.3005
-0.7782 atelier veux -0.2430
-1.0000 athétose due 0.1761
-1.0000 athétose l -0.2996
-1.0000 athétose moins -0.2846
-1.0000 athétose provoque 0.1761
-1.0000 athétose troubles -0.2596
-0.9031 athétosique ataxique 0.0000
-0.9031 athétosique donc -0.2793
-0.9031 athétosique et -0.3000
-0.9031 athétosique je -0.2654
-0.1761 athétosiques ou -0.2913
-0.3010 atout en -0.2979
-0.3010 atrophie musculaire -0.2430
-1.0000 atteindre dans -0.2676
-1.0000 atteindre donc -0.2197
-1.0000 atteindre la -0.3002
-1.0000 atteindre les -0.3002
-1.0000 atteindre par -0.2929
-0.3010 atteindront leurs -0.2840
-1.0414 atteinte corticobulbaire 0.0000
-1.0414 atteinte cérébrale -0.2218
-1.0414 atteinte des -0.2999
-0.7404 atteinte du -0.2948
-1.0414 atteinte motrice -0.2430
-0.7533 atteints d -0.2909
-0.9294 atteints de -0.2996
-1.2304 atteints je -0.2714
-1.2304 atteints la -0.2975
-1.2304 atteints les -0.3002
-1.2304 atteints peuvent -0.2897
-1.2304 atteints sont -0.2973
-0.3010 attendant une -0.3000
-0.3010 attende pour -0.3000
-0.3010 attendes mais -0.2970
-0.3010 attendre au -0.2981
-1.0792 attends beaucoup -0.2910
-1.0792 attends comme -0.2963
-0.7782 attends de -0.2946
-1.0792 attends le -0.2969
-0.7782 attends pas -0.2903
-0.3010 attendu trois -0.2788
-0.7782 attention aux -0.2939
-0.3010 attention à -0.2981
-0.3010 attentionnées dans -0.2867
-0.3010 attire le -0.2927
-0.6021 attirer des -0.2809
-0.6021 attirer plus -0.2760
-1.8663 au ballon 0.0000
-2.1673 au bon -0.2798
-2.1673 au bout 0.0000
-2.1673 au changement -0.2041
-2.1673 au cnrs 0.0000
-1.6902 au collège 0.0000
-2.1673 au combat -0.2430
-2.1673 au concours 0.0000
-1.4683 au cours -0.4750
-1.8663 au cp 0.0000
-2.1673 au cul 0.0000
-2.1673 au côté -0.1761
-2.1673 au dessus -0.1761
-2.1673 au directeur -0.2218
-2.1673 au domaine -0.2536
-1.3892 au début -0.2341
-1.8663 au départ -0.1249
-1.8663 au fait -0.2724
-1.5653 au final 0.0000
-2.1673 au foot -0.2218
-2.1673 au football 0.0000
-2.1673 au grand -0.2775
-1.8663 au jour -0.2632
-1.8663 au lieu 0.0000
-2.1673 au lit 0.0000
-1.8663 au lycée 0.0000
-1.8663 au maximum 0.0000
-2.1673 au mieux -0.2775
-2.1673 au milieu 0.0000
-2.1673 au minimum -0.2218
-1.5653 au mois -0.6021
-1.8663 au monde -0.2681
-2.1673 au moral -0.2430
-1.6902 au même -0.3774
-1.3892 au niveau -0.1984
-2.1673 au nom -0.2218
-1.8663 au paravent 0.0000
-2.1673 au pare 0.0000
-1.8663 au plaisir -0.2499
-2.1673 au primaire -0.2218
-1.8663 au président 0.0000
-1.6902 au quotidien -0.1461
-1.8663 au sein 0.0000
-2.1673 au son -0.2929
-2.1673 au temps -0.2724
-2.1673 au transport 0.0000
-1.1259 au travers 0.0000
-2.1673 au téléphone -0.2430
-2.1673 au village -0.2041
-0.3010 auchant drive 0.0000
-1.0792 aucun appartement 0.0000
-1.0792 aucun cas -0.2711
-1.0792 aucun moyen -0.1461
-0.7782 aucun organisme -0.2553
-0.7782 aucun problème -0.4536
-0.9031 aucune expérience -0.2775
-0.9031 aucune formation -0.1761
-0.9031 aucune opinion -0.2553
-0.9031 aucune précision 0.0000
-0.3010 audience des -0.2809
-0.3010 audiovisuel est -0.2997
-0.3010 augmentant la -0.3002
-0.6021 augmentation de -0.2717
-0.6021 augmentation des -0.2975
-0.3010 augmente leur -0.2922
-0.3010 augmentent avec -0.2922
-0.6021 augmenté fortement -0.2553
-0.6021 augmenté mon -0.2963
-0.0300 aujourd hui 0.0000
-0.5441 auparavant c -0.3324
-0.8451 auparavant envers -0.1498
-0.8451 auparavant je -0.2664
-0.5441 auprès de -0.2748
-0.8451 auprès des -0.2999
-0.8451 auprès du -0.2979
-0.7782 aura plus -0.2760
-0.3010 aura toujours -0.2573
-0.3010 aurai un -0.2999
-0.3010 auraient gagné -0.2499
-1.1139 aurais aimé 0.0000
-1.1139 aurais cette -0.2972
-0.8129 aurais jamais -0.4523
-1.1139 aurais ma -0.2985
-1.1139 aurais mis -0.2747
-1.1139 aurais peut -0.1636
-1.1139 aurait fait -0.2964
-1.1139 aurait la -0.2984
-1.1139 aurait pas -0.2997
-0.8129 aurait pu -0.2041
-1.1139 aurait un -0.2999
-1.1139 aurait été -0.2817
-0.3979 auras des -0.4736
-0.6990 auras le -0.3000
-0.6021 aurez jamais -0.2888
-0.6021 aurez une -0.3000
-0.3010 auront pas -0.2821
-1.4314 aussi agréable -0.2730
-1.4314 aussi car -0.2932
-1.4314 aussi comment -0.2762
-1.4314 aussi des -0.2999
-1.4314 aussi dire -0.2868
-1.4314 aussi facilement -0.2688
-1.4314 aussi les -0.2994
-1.4314 aussi que -0.2105
-1.4314 aussi rapidement -0.2499
-1.1303 aussi une -0.2978
-1.4314 aussi volontaires -0.1761
-1.4314 aussi à -0.3000
-1.4314 aussi évidemment -0.2891
-0.3010 aussitôt que -0.2505
-0.6021 autant de -0.3005
-0.6021 autant fois -0.2632
-1.0000 autobiographie avant -0.2139
-1.0000 autobiographie comme -0.2963
-1.0000 autobiographie comprendront 0.1761
-1.0000 autobiographie m -0.2174
-1.0000 autobiographie pourraient -0.1761
-0.6021 automatique dès 0.0000
-0.6021 automatique puis -0.2775
-0.3010 automatiquement compenser 0.0000
-0.3010 automutilation et -0.2968
-0.9031 autonome c 0.2218
-0.9031 autonome dans -0.2762
-0.9031 autonome pour -0.3000
-0.9031 autonome à -0.3000
-1.3222 autonomie cependant -0.2833
-1.3222 autonomie envers -0.2467
-1.3222 autonomie et -0.2989
-1.0212 autonomie je -0.2624
-1.3222 autonomie l -0.2841
-1.3222 autonomie le -0.2990
-1.3222 autonomie malheureusement -0.2553
-1.3222 autonomie max -0.1761
-1.3222 autonomie sociale -0.2762
-1.3222 autonomie sous -0.1761
-0.3010 autorisation en -0.2979
-0.3010 autorise le -0.2979
-0.3010 autorisé à -0.2981
-0.4771 autour de -0.2946
-0.4771 autour du -0.4071
-1.4914 autre de -0.2971
-1.4914 autre expérience -0.2264
-1.4914 autre façon 0.0512
-1.4914 autre forme 0.0000
-1.4914 autre l -0.2969
-0.8893 autre livre -0.2419
-1.4914 autre orientation -0.1761
-1.4914 autre projet -0.2730
-1.4914 autre regard -0.2775
-1.4914 autre sans -0.2643
-1.4914 autre sens -0.2825
-1.4914 autre souhait -0.1919
-1.4914 autre vision -0.2499
-1.4914 autre à -0.2850
-0.3010 autrement que -0.2993
-1.8808 autres affections 0.0000
-1.4037 autres années -0.2596
-1.8808 autres anomalies -0.2341
-1.4037 autres c 1.3802
-1.8808 autres ce -0.2906
-1.8808 autres défauts -0.2218
-1.8808 autres enfant -0.2833
-1.8808 autres enfants -0.2793
-1.8808 autres enseignantes 0.1761
-1.8808 autres envers -0.2167
-1.8808 autres et -0.2862
-1.8808 autres formation -0.1761
-1.8808 autres intervenantes -0.2632
-1.8808 autres m -0.2507
-1.8808 autres mais -0.2889
-1.2788 autres me -0.6888
-1.8808 autres ne -0.2850
-1.8808 autres nous -0.2949
-1.8808 autres occupations -0.1761
-1.8808 autres par -0.2970
-1.8808 autres patients -0.1549
-1.8808 autres pensent -0.2499
-1.5798 autres personnes -0.2490
-1.5798 autres pour -0.2690
-1.5798 autres projets 0.0000
-1.8808 autres qu -0.2380
-1.8808 autres qui -0.2986
-1.8808 autres si -0.2093
-1.8808 autres sont -0.2973
-1.8808 autres souhaits 0.0000
-1.8808 autres sur -0.2821
-1.8808 autres tout -0.2814
-1.8808 autres viennent 0.1761
-0.9031 autrui d -0.2996
-0.9031 autrui mais -0.2970
-0.9031 autrui me -0.2994
-0.9031 autrui nous -0.2823
-1.7853 aux activités -0.2218
-1.7853 aux aides -0.2083
-1.7853 aux assistant 0.0000
-1.4843 aux autres -0.2894
-1.7853 aux compétences -0.2218
-1.7853 aux contractures 0.0000
-1.7853 aux cours -0.2881
-1.7853 aux diminués 0.0000
-1.7853 aux domaines -0.2218
-1.7853 aux esprits -0.2218
-1.7853 aux faites -0.2430
-1.3082 aux gens -0.1549
-1.4843 aux handicapés -0.2632
-1.7853 aux intervenantes -0.2632
-1.7853 aux jeux -0.1761
-1.7853 aux normes -0.2218
-1.7853 aux parents -0.2894
-1.0864 aux personnes -0.3193
-1.7853 aux problèmes -0.2798
-1.7853 aux profs -0.1249
-1.7853 aux rendez 0.0000
-1.1833 aux toilettes 0.0000
-1.7853 aux usagés -0.1761
-1.7853 aux victimes 0.0000
-1.7853 aux événements 0.0000
-1.1139 avaient beaucoup -0.2486
-1.1139 avaient d -0.2760
-1.1139 avaient pas -0.2997
-1.1139 avaient rien -0.2798
