#############################################################################
## Copyright (c) 1996, Carnegie Mellon University, Cambridge University,
## Ronald Rosenfeld and Philip Clarkson
#############################################################################
=============================================================================
===============  This file was produced by the CMU-Cambridge  ===============
===============     Statistical Language Modeling Toolkit     ===============
=============================================================================
This is a 3-gram language model, based on a vocabulary of 2965 words,
  which begins "0", "000", "1"...
This is an OPEN-vocabulary model (type 1)
  (OOVs were mapped to UNK, which is treated as any other vocabulary word)
Absolute discounting was applied.
1-gram discounting constant : 0.609832
2-gram discounting constant : 0.776388
3-gram discounting constant : 0.886
This file is in the ARPA-standard format introduced by Doug Paul.

p(wd3|wd1,wd2)= if(trigram exists)           p_3(wd1,wd2,wd3)
                else if(bigram w1,w2 exists) bo_wt_2(w1,w2)*p(wd3|wd2)
                else                         p(wd3|w2)

p(wd2|wd1)= if(bigram exists) p_2(wd1,wd2)
            else              bo_wt_1(wd1)*p_1(wd2)

All probs and back-off weights (bo_wt) are given in log10 form.

Data formats:

Beginning of data mark: \data\
ngram 1=nr            # number of 1-grams
ngram 2=nr            # number of 2-grams
ngram 3=nr            # number of 3-grams

\1-grams:
p_1     wd_1 bo_wt_1
\2-grams:
p_2     wd_1 wd_2 bo_wt_2
\3-grams:
p_3     wd_1 wd_2 wd_3 

end of data mark: \end\

\data\
ngram 1=2966
ngram 2=11468
ngram 3=16209

\1-grams:
-4.6280 <UNK>	0.0000
-4.0762 0	-0.1096
-3.8408 000	-0.5868
-3.8408 1	-0.0951
-4.0762 10	-0.1037
-4.0762 100	-0.4107
-4.0762 11	-0.1093
-4.6280 13	-0.1099
-4.6280 130	-0.1099
-4.0762 14	-0.4104
-4.6280 15	-0.1038
-4.6280 16	-0.1094
-4.6280 1992	-0.1053
-3.2466 2	-0.1977
-3.8408 20	-0.1032
-4.6280 2004	-0.1020
-4.0762 2011	-0.0930
-4.0762 2013	-0.0982
-4.6280 2014	-0.1093
-3.5768 2015	-0.1891
-4.0762 2016	-0.1032
-4.6280 22	-0.1099
-4.6280 25	-0.1038
-4.6280 257	-0.1008
-3.6890 3	-0.4102
-3.8408 30	-0.2773
-4.6280 3000	-0.1096
-4.6280 35	-0.1099
-4.0762 35000	-0.4107
-3.6890 4	-0.1087
-3.4137 5	-0.2503
-4.6280 500	-0.1096
-4.6280 6	-0.1094
-4.6280 69	-0.1078
-4.6280 7	-0.1094
-4.6280 70	-0.1038
-3.4876 8	-0.1720
-2.1210 a	-0.2810
-4.6280 aah	-0.1020
-4.0762 abandonné	-0.1060
-3.2955 abord	-0.1850
-4.0762 abordent	-0.1018
-4.0762 aborder	-0.1072
-4.6280 abordé	-0.1024
-4.6280 absente	-0.1020
-4.0762 absolument	-0.0980
-4.0762 abstraction	-0.3940
-4.0762 accepte	-0.1097
-4.6280 accepter	-0.1046
-3.4137 accepté	-0.3168
-3.4137 accessibilité	-0.0815
-3.5768 accessible	-0.0996
-4.6280 accessibles	-0.1078
-4.0762 accident	-0.1091
-4.6280 accompagnant	-0.1050
-4.6280 accompagnantes	-0.1066
-4.0762 accompagner	-0.1086
-4.0762 accompagné	-0.1023
-4.6280 accompagnée	-0.1078
-3.6890 accord	-0.0816
-4.6280 accoucha	-0.1045
-4.6280 accouchement	-0.1078
-4.6280 accueil	-0.0930
-4.6280 accès	-0.1074
-4.0762 accélérer	-0.4023
-4.6280 accéléré	-0.1069
-3.6890 achat	-0.0940
-4.6280 achats	-0.1087
-3.8408 acheter	-0.2681
-4.6280 achetez	-0.1024
-4.0762 acheté	-0.1022
-4.6280 achetée	-0.1078
-4.6280 achèterai	-0.1013
-4.6280 acides	-0.1099
-4.6280 action	-0.1097
-4.0762 actions	-0.0930
-3.8408 activités	-0.1098
-4.6280 actuellement	-0.1075
-4.6280 adaptation	-0.1098
-4.6280 adaptations	-0.1097
-3.1627 adapter	-0.2568
-4.6280 adaptée	-0.1050
-3.6890 adaptés	-0.0939
-4.6280 adar	-0.1033
-4.0762 admet	-0.4023
-4.6280 adoption	-0.1087
-3.6890 adore	-0.2323
-4.6280 adresser	-0.1090
-4.0762 adrénoleucodystrophie	-0.1099
-4.6280 adulte	-0.1098
-3.5768 adultes	-0.0993
-4.0762 affecter	-0.1008
-4.6280 affections	-0.1099
-4.6280 affiches	-0.1099
-4.6280 affichés	-0.1081
-4.6280 afflux	-0.1092
-4.6280 affronte	-0.1008
-4.0762 affronter	-0.0962
-3.0320 afin	-0.8085
-4.6280 agissent	-0.1096
-4.6280 agit	-0.1045
-3.2955 agréable	-0.1761
-4.0762 agréables	-0.0979
-1.9655 ai	-0.3899
-2.7978 aide	-0.2405
-4.6280 aident	-0.1050
-3.2955 aider	-0.1343
-3.0320 aides	-0.2777
-3.2955 aidé	-0.3438
-4.6280 aie	-0.1035
-4.6280 ailes	-0.1084
-3.8408 aime	-0.1024
-4.6280 aiment	-0.1087
-4.0762 aimer	-0.1047
-4.0762 aimerais	-0.1080
-4.6280 aimé	-0.1044
-3.8408 ainsi	-0.2787
-4.6280 aise	-0.1085
-4.0762 ajouter	-0.0992
-4.6280 alcool	-0.1038
-4.6280 alimentation	-0.1065
-4.6280 allaient	-0.1099
-4.0762 allais	-0.4099
-4.0762 allait	-0.1056
-2.9098 aller	-0.3223
-4.6280 allez	-0.1087
-4.6280 allocation	-0.1050
-4.6280 allons	-0.1044
-3.6890 alors	-0.0871
-3.6890 ami	-0.0874
-4.0762 amie	-0.0930
-4.0762 amies	-0.1005
-4.6280 aminés	-0.1085
-3.0925 amis	-0.1372
-4.0762 amortir	-0.1078
-3.8408 amour	-0.0991
-4.6280 ampleur	-0.1018
-4.6280 amplifié	-0.1060
-4.6280 amplifiés	-0.1060
-4.6280 amusant	-0.1081
-4.6280 amuse	-0.0930
-4.6280 amusement	-0.1053
-4.6280 amuser	-0.1020
-4.6280 amusé	-0.1053
-4.6280 améliorations	-0.1018
-4.6280 améliore	-0.1065
-4.0762 améliorer	-0.0973
-4.6280 amélioré	-0.1065
-4.6280 améliorés	-0.1096
-4.0762 aménagement	-0.1035
-4.6280 aménagements	-0.1014
-4.6280 aménager	-0.1093
-4.6280 américain	-0.1094
-3.6890 an	-0.0912
-3.8408 analyser	-0.0977
-4.6280 anatomopathologiques	-0.1038
-4.6280 animal	-0.1060
-4.0762 animaux	-0.0961
-4.6280 annoncer	-0.1008
-4.6280 annonces	-0.1068
-4.0762 annoncé	-0.1045
-3.2955 année	-0.1849
-3.4876 années	-0.1595
-3.6890 anomalies	-0.2326
-2.9317 ans	-0.0160
-4.6280 anti	-0.1099
-4.6280 antécédents	-0.1099
-4.6280 août	-0.1098
-4.6280 apaiser	-0.1096
-4.6280 apparaissent	-0.1095
-4.6280 apparaitra	-0.1098
-3.8408 appareil	-0.2659
-4.6280 appareillage	-0.1013
-4.6280 appareils	-0.1099
-4.0762 apparence	-0.4108
-4.6280 apparences	-0.1099
-4.6280 apparition	-0.1077
-4.6280 appartement	-0.1065
-4.6280 appartements	-0.1098
-4.6280 appartenant	-0.1014
-4.6280 appartient	-0.1096
-3.5768 appel	-0.8004
-3.6890 appelle	-0.0927
-4.6280 application	-0.1014
-4.6280 applications	-0.1053
-4.6280 appliqué	-0.1014
-4.6280 apport	-0.1090
-4.6280 apporte	-0.1033
-4.6280 apportent	-0.1077
-4.6280 apporter	-0.1033
-4.6280 apportera	-0.1035
-4.0762 apporté	-0.0994
-4.6280 apprenais	-0.1020
-4.0762 apprendre	-0.1072
-3.6890 apprends	-0.2274
-4.6280 apprennent	-0.1044
-3.3506 appris	-0.2227
-4.6280 approfondir	-0.1024
-4.6280 appropriées	-0.0930
-4.6280 appréhension	-0.1053
-2.8502 après	-0.2063
-4.6280 arbre	-0.1099
-4.6280 arcades	-0.1077
-4.6280 archaïques	-0.1033
-3.8408 argent	-0.0909
-4.6280 armure	-0.1020
-4.0762 arrivais	-0.0958
-4.0762 arrive	-0.1042
-4.0762 arrivent	-0.4025
-3.1627 arriver	-0.5679
-4.6280 arriverais	-0.1094
-3.4137 arrivé	-0.3346
-4.0762 arriération	-0.4109
-3.8408 arrêter	-0.0973
-4.6280 arrêterai	-0.1094
-3.6890 arrêté	-0.0956
-3.5768 article	-0.3109
-4.6280 articles	-0.1099
-3.2026 as	-0.2432
-3.5768 asphyxie	-0.3316
-4.6280 aspirais	-0.1014
-3.6890 assez	-0.1096
-4.6280 assis	-0.1073
-4.6280 assistait	-0.1014
-4.0762 assistance	-0.1008
-4.6280 assistant	-0.1099
-3.8408 assistante	-0.5868
-4.6280 assistées	-0.1078
-4.6280 associant	-0.1087
-3.0047 association	-0.1661
-3.8408 associations	-0.2787
-4.6280 associées	-0.1014
-4.0762 associés	-0.1012
-4.6280 assouvir	-0.1084
-4.6280 assouvis	-0.1018
-4.6280 assumer	-0.1091
-4.6280 assure	-0.1075
-4.6280 asthénie	-0.1033
-4.6280 astuce	-0.1039
-4.6280 astuces	-0.1018
-3.8408 ataxie	-0.1005
-4.6280 ataxique	-0.1020
-3.8408 ataxiques	-0.1072
-3.8408 atelier	-0.0872
-3.5768 athétose	-0.1040
-3.6890 athétosique	-0.0908
-4.0762 athétosiques	-0.4095
-4.6280 atout	-0.1053
-4.6280 atrophie	-0.1098
-3.5768 atteindre	-0.0839
-4.6280 atteindront	-0.1096
-3.4876 atteinte	-0.1806
-3.2466 atteints	-0.2093
-4.6280 attendant	-0.1033
-4.6280 attende	-0.1018
-4.6280 attendes	-0.1082
-4.6280 attendre	-0.1074
-3.4137 attends	-0.2228
-4.6280 attendu	-0.1096
-3.6890 attention	-0.4015
-4.6280 attentionnées	-0.1050
-4.6280 attire	-0.1024
-4.0762 attirer	-0.1011
-2.2307 au	-0.4002
-4.6280 auchant	-0.1099
-3.4137 aucun	-0.2548
-3.6890 aucune	-0.1095
-4.6280 audience	-0.1038
-4.6280 audiovisuel	-0.1039
-4.6280 augmentant	-0.1013
-4.0762 augmentation	-0.0866
-4.6280 augmente	-0.1084
-4.6280 augmentent	-0.1060
-4.0762 augmenté	-0.1046
-3.0925 aujourd	-1.2557
-3.6890 auparavant	-0.2211
-3.6890 auprès	-0.2092
-3.6890 aura	-0.4072
-4.6280 aurai	-0.1035
-4.6280 auraient	-0.1098
-3.4137 aurais	-0.1699
-3.4137 aurait	-0.1539
-3.8408 auras	-0.2722
-4.0762 aurez	-0.1028
-4.6280 auront	-0.1044
-3.0925 aussi	-0.1005
-4.6280 aussitôt	-0.1044
-4.0762 autant	-0.0926
-3.5768 autobiographie	-0.1054
-4.0762 automatique	-0.1093
-4.6280 automatiquement	-0.1099
-4.6280 automutilation	-0.1020
-3.6890 autonome	-0.0847
-3.2026 autonomie	-0.1178
-4.6280 autorisation	-0.1053
-4.6280 autorise	-0.1024
-4.6280 autorisé	-0.1014
-3.6890 autour	-0.3917
-3.0047 autre	-0.1594
-4.6280 autrement	-0.1044
-2.5920 autres	-0.1663
-3.6890 autrui	-0.0973
-2.6704 aux	-0.2612
-3.4137 avaient	-0.1562
-2.9547 avais	-0.2083
-3.1262 avait	-0.3663
-4.6280 avance	-0.1060
-3.8408 avancer	-0.1038
-3.0612 avant	-0.3888
-3.6890 avantages	-0.0770
-2.0420 avec	-0.4882
-3.5768 avenir	-0.0908
-4.6280 aventure	-0.1078
-4.6280 aveugle	-0.1099
-4.6280 avez	-0.1098
-3.6890 avion	-0.0929
-3.8408 avis	-0.0908
-2.6239 avoir	-0.2975
-3.8408 avons	-0.1061
-4.0762 avoue	-0.0982
-4.6280 avouer	-0.1044
-4.6280 avoué	-0.1066
-3.2466 avs	-0.3968
-4.6280 avèrent	-0.1098
-3.4876 ayant	-0.2673
-4.6280 ayez	-0.1035
-4.6280 azerty	-0.1082
-4.6280 aéroport	-0.1099
-4.6280 b	-0.1024
-3.1262 bac	-0.3567
-4.6280 bah	-0.1099
-4.6280 bailleur	-0.1097
-4.6280 bain	-0.1020
-4.6280 balle	-0.1050
-4.0762 ballon	-0.4030
-4.6280 bardot	-0.1014
-4.6280 barrière	-0.1066
-4.0762 bas	-0.1080
-4.6280 base	-0.0930
-4.6280 basique	-0.0997
-4.6280 bassel	-0.1099
-4.6280 bat	-0.1095
-4.6280 bats	-0.1086
-4.0762 battant	-0.4028
-4.6280 batterie	-0.0930
-3.6890 battre	-0.2211
-3.6890 beau	-0.2337
-2.7088 beaucoup	-0.5307
-4.0762 beaux	-0.4104
-3.5768 belgique	-0.0884
-3.2466 belle	-0.6322
-4.6280 belles	-0.1099
-3.3506 besoin	-0.6894
-3.2955 besoins	-0.1420
-2.9317 bien	-0.0926
-4.6280 bienvenu	-0.1050
-4.0762 bienvenus	-0.0946
-4.6280 bienêtre	-0.1095
-4.6280 biochimiques	-0.1099
-4.6280 bizarre	-0.1098
-4.0762 bizarrement	-0.4007
-4.6280 blanc	-0.1097
-4.6280 blancs	-0.1098
-4.6280 blessure	-0.1083
-4.0762 blessée	-0.1065
-4.6280 bleui	-0.1078
-3.8408 blog	-0.0986
-4.6280 bloquent	-0.1050
-4.6280 bloqué	-0.1050
-4.6280 boire	-0.1095
-4.6280 boissière	-0.1074
-4.6280 boisson	-0.1098
-4.6280 boite	-0.0930
-3.2026 bon	-0.1461
-3.8408 bonheur	-0.0920
-4.6280 bonjour	-0.0997
-3.8408 bonne	-0.1096
-4.0762 bonnes	-0.4087
-3.6890 bons	-0.1093
-4.6280 bord	-0.1066
-4.6280 borde	-0.1073
-3.5768 bouche	-0.0937
-4.6280 bouge	-0.1050
-4.6280 bourse	-0.1018
-4.6280 bout	-0.1045
-3.8408 bras	-0.0983
-4.6280 brigitte	-0.1099
-4.6280 brochures	-0.1099
-4.6280 bruler	-0.1038
-4.6280 brusques	-0.1096
-4.0762 bruxelles	-0.0950
-4.6280 brûler	-0.1053
-4.6280 buccaux	-0.1099
-4.0762 budget	-0.1062
-4.6280 bulle	-0.1099
-3.0320 but	-0.2667
-4.6280 bâtards	-0.1066
-4.6280 bâtiment	-0.1096
-4.6280 bébé	-0.1097
-4.0762 bénéfice	-0.0930
-4.6280 bénéfices	-0.1014
-4.6280 bénévole	-0.1097
-4.6280 bêtement	-0.1099
-3.8408 bêtises	-0.0920
-2.1496 c	-1.8728
-4.6280 cachaient	-0.1098
-4.6280 cachais	-0.1050
-4.6280 cachait	-0.1053
-4.6280 cacher	-0.1098
-4.6280 cachées	-0.1053
-4.6280 cadeaux	-0.0930
-4.6280 cadence	-0.1014
-3.8408 cadre	-0.0873
-4.6280 calme	-0.1096
-4.0762 calmement	-0.0998
-4.0762 cap	-0.4109
-3.3506 capable	-0.5177
-4.0762 capacité	-0.0851
-4.6280 capacités	-0.1099
-2.3250 car	-0.3674
-4.6280 caractère	-0.0930
-4.0762 caractères	-0.1065
-4.6280 caractérisent	-0.1095
-4.6280 caractéristiques	-0.1095
-4.6280 caractérisés	-0.1078
-4.6280 carapace	-0.1020
-4.6280 carte	-0.0930
-3.0320 cas	-0.1012
-4.0762 casser	-0.0998
-4.0762 catholique	-0.1008
-4.6280 catégories	-0.1097
-2.8502 cause	-0.4391
-4.6280 ccd	-0.1020
-4.6280 cdd	-0.1098
-4.6280 cdi	-0.1086
-2.1073 ce	-0.6149
-3.2026 ceci	-0.3525
-2.1571 cela	-0.2504
-3.8408 celle	-0.0864
-4.6280 celui	-0.1038
-4.6280 centraux	-0.1008
-3.8408 centre	-0.5701
-4.6280 centrée	-0.1098
-2.7225 cependant	-0.2828
-4.6280 cercle	-0.1095
-4.6280 cerebral	-0.1099
-4.6280 cerner	-0.1047
-4.6280 certain	-0.1098
-4.6280 certaine	-0.1099
-3.8408 certainement	-0.0844
-3.5768 certaines	-0.3291
-3.3506 certains	-0.1544
-4.6280 certes	-0.1013
-4.6280 certitude	-0.1096
-3.8408 cerveau	-0.1094
-4.6280 cervelet	-0.1085
-2.6828 ces	-0.2495
-4.6280 cesse	-0.1099
-4.6280 cesser	-0.1045
-3.1262 cet	-0.2688
-2.3907 cette	-0.2629
-3.0320 ceux	-0.5917
-4.6280 ch	-0.1099
-3.3506 chacun	-0.2198
-4.6280 chaines	-0.1099
-3.1627 chance	-0.3688
-4.0762 change	-0.0927
-4.6280 changeant	-0.1045
-3.8408 changement	-0.2639
-4.0762 changements	-0.0997
-4.6280 changent	-0.1094
-3.2466 changer	-0.2356
-4.6280 changera	-0.1044
-3.5768 changé	-0.0969
-4.6280 chanson	-0.1099
-3.0612 chaque	-0.1980
-3.8408 charge	-0.0948
-4.6280 charger	-0.1050
-4.6280 charnel	-0.1073
-4.6280 chauffeurs	-0.1099
-3.5768 chemin	-0.1890
-4.6280 chemins	-0.0930
-4.6280 cher	-0.1099
-3.8408 chercheur	-0.1025
-4.6280 chewbacca	-0.1018
-3.0047 chez	-0.2328
-4.6280 chirurgicales	-0.1085
-4.6280 chirurgie	-0.1099
-4.6280 chié	-0.1060
-4.0762 choisi	-0.0920
-3.6890 choisir	-0.0935
-3.8408 choix	-0.2763
-4.0762 choquant	-0.0988
-4.6280 choquer	-0.1093
-4.6280 choréiformes	-0.1093
-3.0612 chose	-0.0862
-3.2026 choses	-0.1117
-4.6280 choubaka	-0.1097
-4.6280 chroniques	-0.1008
-4.6280 chubaka	-0.1099
-4.0762 chère	-0.0979
-4.6280 chômage	-0.1066
-4.6280 ci	-0.1099
-4.6280 cigarette	-0.1008
-4.6280 cinq	-0.0930
-4.6280 cinquante	-0.1020
-4.0762 claire	-0.3940
-3.4876 classe	-0.1601
-4.0762 classique	-0.1039
-3.5768 clavier	-0.0898
-4.0762 claviers	-0.1099
-3.8408 clients	-0.0995
-4.6280 cliniques	-0.1085
-4.6280 clique	-0.1046
-4.6280 cloniques	-0.1099
-4.0762 clé	-0.0847
-3.5768 clés	-0.4824
-4.6280 cm2	-0.1024
-4.6280 cnrs	-0.1013
-4.6280 codes	-0.1084
-3.8408 collège	-0.0930
-4.6280 collègue	-0.1066
-4.6280 colonne	-0.1099
-3.6890 combat	-0.0824
-4.6280 combattante	-0.1044
-4.6280 comble	-0.1047
-4.6280 comitiales	-0.1099
-4.6280 commandant	-0.0930
-2.4455 comme	-0.2306
-4.0762 commence	-0.0919
-3.6890 commencé	-0.3972
-2.8692 comment	-0.3240
-4.6280 commençais	-0.1046
-3.8408 commerce	-0.1019
-4.0762 commercial	-0.1092
-3.8408 commerçant	-0.1050
-3.6890 commerçants	-0.0979
-4.0762 commun	-0.0942
-4.6280 communautés	-0.1099
-4.6280 commune	-0.1053
-3.0925 communication	-0.1159
-3.8408 communiquer	-0.1021
-4.6280 communs	-0.0997
-3.8408 compassion	-0.1040
-4.6280 compenser	-0.1035
-4.6280 compensé	-0.1060
-4.6280 complexe	-0.1018
-4.6280 complexité	-0.0930
-4.6280 complicité	-0.1099
-3.4137 compliqué	-0.1532
-4.6280 compliquée	-0.1014
-4.6280 complète	-0.1067
-3.4876 complètement	-0.1770
-4.0762 complémentaires	-0.1001
-4.0762 comporte	-0.1095
-3.8408 comportement	-0.0987
-3.0925 comprendre	-0.1843
-4.0762 comprendront	-0.4107
-3.1627 comprends	-0.2605
-4.6280 comprennent	-0.1098
-3.6890 compris	-0.0736
-3.6890 compte	-0.0927
-4.6280 compter	-0.1081
-3.8408 compétences	-0.0923
-3.5768 con	-0.0726
-4.0762 concentration	-0.1099
-4.6280 concernait	-0.1046
-3.2955 concernant	-0.2523
-4.6280 concerne	-0.1008
-4.6280 concernent	-0.1008
-4.6280 concerné	-0.1078
-4.0762 concernées	-0.0922
-4.6280 concernés	-0.1078
-4.0762 conclusion	-0.0982
-4.6280 concours	-0.1045
-4.6280 condition	-0.1098
-4.6280 conditionnée	-0.1078
-4.6280 conduire	-0.1096
-4.6280 conduit	-0.1053
-3.4876 confiance	-0.1641
-4.6280 confident	-0.1079
-4.6280 confidentialité	-0.1034
-4.6280 confirmé	-0.1082
-4.0762 confort	-0.1089
-4.6280 confronté	-0.1035
-3.8408 conférence	-0.2712
-4.6280 conférences	-0.1044
-4.6280 conjoint	-0.1099
-4.0762 connais	-0.1015
-4.0762 connaissait	-0.1093
-4.0762 connaissances	-0.1001
-4.6280 connait	-0.1044
-4.0762 connaitre	-0.1031
-4.6280 connard	-0.1096
-4.6280 connaît	-0.1044
-4.6280 connerie	-0.1098
-4.6280 conneries	-0.1013
-4.6280 connu	-0.1095
-4.6280 connues	-0.1077
-4.6280 cons	-0.1065
-3.6890 conscience	-0.3915
-4.0762 conscient	-0.1020
-4.6280 conscientes	-0.0930
-4.6280 conseil	-0.1090
-4.6280 conseille	-0.1098
-4.6280 conseiller	-0.1057
-4.6280 conseillé	-0.1079
-4.6280 conseils	-0.1099
-4.0762 considérer	-0.1082
-4.0762 considéré	-0.4094
-4.6280 consiste	-0.1014
-4.6280 consistent	-0.1014
-4.6280 console	-0.1068
-4.6280 constants	-0.1020
-3.8408 constatation	-0.0893
-4.0762 constater	-0.1017
-4.0762 constaté	-0.4055
-4.0762 constitue	-0.0943
-4.6280 constitué	-0.1035
-4.6280 constructif	-0.0930
-4.6280 construction	-0.1053
-4.6280 construire	-0.1035
-4.6280 conséquences	-0.1099
-2.9547 conséquent	-0.2290
-4.6280 conséquents	-0.0997
-3.6890 contact	-0.4054
-4.6280 conte	-0.1097
-3.5768 contexte	-0.1760
-4.6280 contextes	-0.1099
-4.0762 continuait	-0.4075
-4.6280 continue	-0.1099
-4.6280 continuent	-0.1014
-3.4876 continuer	-0.2763
-4.6280 contractures	-0.1033
-4.6280 contradictoire	-0.0997
-4.6280 contraignant	-0.1079
-3.8408 contraire	-0.0922
-3.5768 contre	-0.0919
-4.6280 contrepartie	-0.1078
-4.6280 contrôle	-0.1038
-3.5768 contrôler	-0.0898
-4.6280 conversation	-0.1099
-4.6280 convient	-0.1098
-4.6280 convulsions	-0.1099
-4.6280 convulsives	-0.1099
-4.6280 conçois	-0.1044
-4.6280 copine	-0.1099
-3.4137 corps	-0.1671
-4.0762 correct	-0.0904
-4.6280 correction	-0.0930
-4.6280 correspondaient	-0.1020
-4.0762 correspondait	-0.1013
-4.6280 corrigeait	-0.1047
-4.6280 corticobulbaire	-0.1038
-4.6280 cotée	-0.0930
-4.0762 coucher	-0.1067
-4.6280 couchés	-0.1008
-4.0762 couleur	-0.0923
-4.0762 couleurs	-0.0990
-4.6280 coupables	-0.1077
-3.8408 coups	-0.0896
-4.0762 cour	-0.3940
-3.4137 courage	-0.2308
-4.6280 couramment	-0.1033
-4.0762 courant	-0.0995
-4.6280 coureur	-0.1094
-2.9317 cours	-0.1809
-4.6280 courses	-0.1081
-4.6280 couvé	-0.1090
-3.5768 coût	-0.1808
-4.6280 coûte	-0.1099
-4.0762 cp	-0.0976
-4.6280 crainte	-0.1091
-4.0762 crises	-0.1099
-4.6280 crispé	-0.1065
-4.6280 critique	-0.1081
-4.6280 critères	-0.1099
-4.6280 croient	-0.1098
-4.6280 croire	-0.1087
-4.0762 crois	-0.1043
-4.6280 croyances	-0.1099
-4.0762 cru	-0.4064
-4.6280 créa	-0.1024
-4.6280 créaient	-0.0997
-4.6280 créait	-0.1038
-4.0762 création	-0.3940
-4.0762 créativité	-0.4007
-3.6890 créer	-0.2216
-4.6280 créeront	-0.1099
-4.0762 créé	-0.0864
-4.6280 crête	-0.0930
-4.6280 cul	-0.1018
-4.6280 curiosité	-0.1020
-4.6280 curseur	-0.1097
-4.6280 cutanées	-0.1085
-4.6280 cv	-0.1074
-4.6280 cérébelleuse	-0.1099
-4.6280 cérébral	-0.1099
-3.8408 cérébrale	-0.1035
-4.6280 cérébraux	-0.1067
-4.0762 côté	-0.1099
-4.6280 côtés	-0.1060
-1.9025 d	-0.3999
-4.6280 dame	-0.1066
-4.0762 danger	-0.0969
-4.0762 dangereux	-0.0997
-1.9442 dans	-0.8774
-1.4176 de	-0.3757
-4.6280 debout	-0.1060
-4.0762 degré	-0.0930
-4.0762 degrés	-0.0962
-4.6280 demandai	-0.0930
-4.6280 demandaient	-0.1075
-4.6280 demandait	-0.1099
-3.6890 demande	-0.0870
-4.6280 demandent	-0.0930
-3.4876 demander	-0.2596
-4.6280 demanderai	-0.1044
-3.6890 demandé	-0.0894
-3.8408 demeure	-0.1077
-2.9789 depuis	-0.2489
-3.5768 dernier	-0.1037
-4.0762 derniers	-0.1064
-3.6890 dernière	-0.1038
-4.6280 dernièrement	-0.1018
-3.6890 derrière	-0.2280
-1.8530 des	-0.3085
-4.6280 descriptif	-0.1099
-4.6280 description	-0.1045
-3.8408 dessous	-0.0880
-4.0762 dessus	-0.0972
-4.6280 destination	-0.1073
-3.8408 destinée	-0.2748
-2.9547 deux	-0.2677
-3.2955 deuxième	-0.0996
-4.0762 deuxièmement	-0.1050
-3.4876 devais	-0.2793
-4.0762 devait	-0.1081
-4.0762 devant	-0.0941
-4.0762 devenait	-0.1099
-3.6890 devenir	-0.0979
-3.8408 devenu	-0.0917
-4.0762 devenue	-0.4075
-4.6280 devenues	-0.0930
-3.8408 devez	-0.1066
-4.6280 devienne	-0.1035
-4.6280 devient	-0.1099
-4.6280 devise	-0.1091
-3.8408 devoirs	-0.2858
-4.6280 devrai	-0.1074
-4.6280 devrais	-0.1099
-4.6280 devrait	-0.1087
-4.6280 devrons	-0.1082
-4.0762 diagnostic	-0.1067
-4.6280 diagnostiquée	-0.1060
-4.6280 diagnostiquées	-0.1081
-4.0762 dialogue	-0.1042
-4.6280 dictateurs	-0.1099
-3.2955 difficile	-0.1730
-3.5768 difficiles	-0.8004
-3.5768 difficulté	-0.0678
-3.0925 difficultés	-0.3052
-4.6280 diffusés	-0.1084
-3.2466 différence	-0.1794
-3.8408 différences	-0.0889
-3.6890 différent	-0.0859
-3.8408 différente	-0.0811
-3.4876 différentes	-0.1057
-3.6890 différents	-0.1099
-4.6280 dignement	-0.1050
-4.6280 dimension	-0.1099
-4.6280 diminuant	-0.1046
-3.8408 diminuer	-0.2681
-4.6280 diminué	-0.1089
-4.6280 diminuée	-0.1020
-4.6280 diminuées	-0.1046
-4.6280 diminués	-0.1098
-4.6280 diplégie	-0.1008
-4.0762 diplôme	-0.4060
-4.0762 diplômes	-0.1073
-4.6280 dira	-0.1099
-3.4137 dirais	-0.4694
-3.0047 dire	-0.1506
-4.0762 direct	-0.0956
-4.6280 directe	-0.1060
-4.6280 directement	-0.1060
-3.8408 directeur	-0.0838
-4.6280 direction	-0.1097
-3.5768 dires	-0.1058
-4.6280 diront	-0.1044
-3.6890 dis	-0.0882
-4.0762 disaient	-0.1064
-3.8408 disait	-0.0994
-3.4876 disant	-0.2676
-4.6280 discours	-0.1081
-4.6280 discrimination	-0.1099
-4.6280 discussion	-0.1089
-4.6280 discussions	-0.1020
-4.6280 discutent	-0.1060
-4.6280 discuter	-0.1014
-3.2026 disent	-0.4455
-4.6280 disons	-0.1075
-4.0762 disparaissent	-0.4084
-4.0762 disparait	-0.1071
-4.6280 disparaît	-0.1068
-4.6280 disparition	-0.1038
-4.6280 disparu	-0.1084
-4.6280 disponibilités	-0.1020
-4.6280 dispositif	-0.1099
-4.6280 disposition	-0.0930
-4.0762 distance	-0.1085
-4.6280 distantes	-0.1020
-4.6280 distaux	-0.1099
-4.6280 distinguer	-0.1008
-4.6280 distraction	-0.1074
-3.0612 dit	-0.3038
-4.6280 dite	-0.1098
-4.6280 dites	-0.1099
-4.0762 divers	-0.1098
-4.0762 diverses	-0.1095
-4.6280 dix	-0.1098
-4.6280 docteur	-0.1034
-3.4876 doctorat	-0.1754
-4.6280 document	-0.1099
-3.3506 dois	-0.1003
-3.2026 doit	-0.1473
-3.2026 doivent	-0.3681
-3.0047 domaine	-0.1963
-3.8408 domaines	-0.0880
-3.5768 domicile	-0.0846
-4.6280 domination	-0.1098
-4.6280 dominent	-0.1094
-4.0762 dominer	-0.1005
-4.6280 dommages	-0.1014
-4.6280 don	-0.0930
-2.8146 donc	-0.2907
-4.0762 donnaient	-0.4095
-3.6890 donne	-0.0830
-3.0925 donner	-0.1510
-3.4137 donné	-0.1558
-4.6280 données	-0.1093
-4.6280 dons	-0.1091
-3.8408 dont	-0.1062
-4.6280 dopant	-0.1018
-4.6280 dorian	-0.1098
-4.0762 dos	-0.0921
-3.4137 dossier	-0.1450
-4.6280 dossiers	-0.1018
-4.0762 doucement	-0.1019
-4.6280 douche	-0.1099
-4.6280 douleur	-0.1038
-4.0762 douloureux	-0.1000
-4.6280 draguer	-0.1085
-4.6280 dresse	-0.1008
-4.6280 drive	-0.1078
-4.6280 drogués	-0.0930
-3.6890 droit	-0.2064
-3.8408 droits	-0.0903
-4.6280 drôle	-0.1034
-3.6890 ds	-0.2255
-4.6280 dsk	-0.1081
-2.2930 du	-0.2756
-4.0762 due	-0.4025
-4.6280 dur	-0.1045
-3.1262 durant	-0.1413
-4.6280 dus	-0.1014
-4.6280 dut	-0.1008
-4.0762 dysarthrie	-0.1092
-4.6280 dyskinétiques	-0.1081
-4.6280 dystonique	-0.1093
-4.6280 dystoniques	-0.0930
-4.6280 dystrophies	-0.1099
-4.6280 dès	-0.1044
-4.6280 débat	-0.1099
-4.6280 débordants	-0.0930
-4.0762 débrouiller	-0.1016
-4.6280 débrouillée	-0.1018
-3.2955 début	-0.3369
-4.6280 débute	-0.1073
-4.6280 décembre	-0.1099
-4.6280 décente	-0.1093
-4.6280 décevoir	-0.1078
-4.6280 décida	-0.0930
-3.4137 décidé	-0.4493
-4.6280 déclaré	-0.1075
-4.6280 décor	-0.1020
-4.6280 découpes	-0.1099
-4.0762 décourage	-0.1090
-3.5768 découvert	-0.1850
-4.6280 découvre	-0.1035
-3.4137 découvrir	-0.0523
-4.6280 décrire	-0.1047
-4.6280 décrit	-0.1035
-4.6280 défaut	-0.1068
-3.8408 défauts	-0.1075
-4.6280 déficit	-0.1053
-4.6280 défirent	-0.1069
-4.6280 défoncer	-0.1098
-4.0762 déformés	-0.1068
-4.6280 dégoutée	-0.1078
-4.6280 dégradée	-0.1099
-4.6280 dégénérative	-0.1099
-4.6280 dégénérescences	-0.1099
-3.6890 déjà	-0.1031
-4.6280 délires	-0.1087
-3.8408 démarche	-0.1009
-4.0762 démarches	-0.0913
-4.6280 démontaient	-0.1065
-4.6280 démontré	-0.1044
-4.6280 démunis	-0.1008
-3.8408 déménagement	-0.0895
-4.6280 dénoncer	-0.1082
-3.8408 départ	-0.0999
-4.6280 dépassaient	-0.1098
-3.6890 dépasser	-0.0924
-4.6280 dépend	-0.1077
-4.6280 dépendre	-0.1045
-4.6280 dépense	-0.1087
-3.5768 dépenses	-0.0819
-4.6280 dépensons	-0.1096
-3.8408 déplacer	-0.0998
-4.6280 déposent	-0.1035
-4.6280 dépourvu	-0.0930
-4.6280 dérangera	-0.1094
-4.6280 dérisoires	-0.1078
-4.6280 dérogations	-0.1018
-4.6280 déroulement	-0.1038
-4.6280 déshydratation	-0.1093
-4.6280 désire	-0.1092
-4.6280 désiré	-0.1018
-4.6280 détails	-0.1018
-4.6280 détend	-0.1099
-4.6280 détendre	-0.1065
-4.6280 détendu	-0.1078
-4.6280 déterminant	-0.1018
-4.6280 déterminer	-0.1082
-4.6280 dévastateur	-0.1081
-4.6280 développe	-0.1050
-4.0762 développement	-0.1098
-4.0762 développer	-0.1056
-4.6280 développé	-0.1098
-3.2955 dû	-0.2691
-4.0762 e	-0.0921
-3.6890 eau	-0.0909
-4.6280 ecrire	-0.1082
-4.6280 effacé	-0.0997
-4.6280 effectue	-0.1044
-4.0762 effectuer	-0.0927
-4.0762 effectué	-0.1015
-3.8408 effet	-0.0966
-3.6890 effort	-0.2120
-4.0762 efforts	-0.1008
-4.6280 eh	-0.1099
-2.5256 elle	-0.3360
-2.9547 elles	-0.2227
-4.6280 embarquement	-0.1078
-4.0762 embauche	-0.4030
-4.6280 embaucher	-0.1096
-4.6280 emmener	-0.1096
-4.6280 emplacement	-0.1038
-3.8408 emploi	-0.0899
-3.8408 emplois	-0.1052
-4.6280 employé	-0.1038
-4.6280 empêcher	-0.1045
-4.6280 empêché	-0.1045
-1.9777 en	-0.2794
-4.6280 encadre	-0.1020
-4.6280 enceins	-0.1099
-2.7978 encore	-0.2939
-4.6280 endommagé	-0.1047
-4.6280 endommagée	-0.1078
-3.8408 enfance	-0.1007
-3.1262 enfant	-0.0947
-2.8692 enfants	-0.1817
-4.0762 enfer	-0.1094
-4.6280 enfermé	-0.1081
-4.6280 enfin	-0.1047
-4.6280 engendre	-0.1098
-4.6280 ennemie	-0.1075
-4.6280 ennui	-0.1099
-4.0762 enseignant	-0.1055
-4.0762 enseignantes	-0.4095
-4.0762 enseignants	-0.1082
-4.0762 enseignement	-0.4108
-4.6280 enseigner	-0.1014
-3.6890 ensemble	-0.0850
-3.4876 ensuite	-0.1527
-4.6280 entendrais	-0.1074
-3.5768 entendre	-0.0992
-3.8408 entends	-0.0896
-4.6280 entendu	-0.1084
-4.6280 entière	-0.1099
-3.8408 entourage	-0.1058
-4.6280 entoure	-0.1099
-4.6280 entouré	-0.0930
-4.6280 entrait	-0.1050
-4.6280 entraînent	-0.1033
-4.0762 entraîner	-0.0969
-3.2466 entre	-0.1747
-4.0762 entreprise	-0.1019
-3.5768 entrer	-0.1940
-4.6280 entrouvertes	-0.1066
-4.6280 entré	-0.1099
-3.6890 entrée	-0.2105
-4.6280 envahissait	-0.1050
-3.1627 envers	-0.4671
-3.6890 envie	-0.6951
-4.6280 envier	-0.1033
-3.6890 envies	-0.2213
-3.4876 environ	-0.1890
-4.6280 envoie	-0.1008
-4.6280 envole	-0.1018
-4.6280 envolent	-0.1084
-4.0762 envoyer	-0.0971
-4.6280 ergologue	-0.1039
-4.6280 ergothérapeute	-0.1099
-4.6280 ergothérapie	-0.1046
-4.6280 erreur	-0.1034
-3.3506 es	-0.2995
-4.6280 escient	-0.1020
-4.6280 espoir	-0.1013
-3.8408 esprit	-0.1040
-3.6890 esprits	-0.4076
-3.4876 espère	-0.2688
-3.8408 espérant	-0.1016
-4.6280 espérer	-0.1044
-4.0762 essaient	-0.4054
-3.6890 essayer	-0.3914
-4.6280 essayez	-0.0930
-4.0762 essayé	-0.3940
-4.6280 essentiel	-0.0930
-1.8587 est	-0.2943
-4.6280 estelle	-0.1065
-1.7416 et	-0.2424
-2.6350 eu	-0.3713
-4.6280 eues	-0.0997
-3.2026 euros	-0.1127
-2.9547 eux	-0.1705
-4.6280 evidemment	-0.1073
-3.5768 ex	-0.0897
-4.0762 examens	-0.4109
-4.6280 examiner	-0.1047
-4.6280 excel	-0.1085
-4.6280 exclure	-0.1097
-4.6280 exclusif	-0.1066
-4.0762 exemplaire	-0.1027
-4.6280 exemplarité	-0.1077
-3.2466 exemple	-0.0765
-4.6280 exemples	-0.0930
-4.6280 exercice	-0.1098
-3.8408 exercices	-0.1011
-4.6280 existais	-0.1097
-3.8408 existe	-0.0905
-3.8408 existence	-0.0933
-4.6280 explications	-0.1020
-4.6280 expliquai	-0.1086
-4.6280 explique	-0.1050
-4.6280 expliquent	-0.1044
-3.4876 expliquer	-0.2667
-4.6280 expliqué	-0.1099
-4.6280 exploitent	-0.1008
-4.6280 exploits	-0.1050
-4.6280 explosion	-0.1045
-4.6280 exposés	-0.1014
-4.6280 expression	-0.1073
-3.2466 exprimer	-0.1798
-3.2026 expérience	-0.2005
-3.6890 expériences	-0.2152
-4.6280 extrême	-0.1099
-4.0762 extérieur	-0.1044
-4.6280 extérieure	-0.1098
-4.6280 exécution	-0.1038
-3.6890 face	-0.4015
-3.2466 facile	-0.3859
-3.4137 facilement	-0.0665
-4.6280 faciles	-0.1014
-4.6280 facilité	-0.1069
-4.6280 facteurs	-0.0930
-4.6280 facturé	-0.1014
-3.5768 faible	-0.3313
-2.2778 faire	-0.2439
-3.4876 fais	-0.0886
-4.6280 faisable	-0.1060
-4.6280 faisaient	-0.1098
-3.5768 faisais	-0.1905
-3.8408 faisait	-0.1036
-2.4758 fait	-0.1582
-3.6890 faites	-0.0891
-3.6890 faits	-0.2243
-4.0762 fallait	-0.0930
-4.6280 familiale	-0.1050
-4.6280 familiaux	-0.1073
-4.6280 familièrement	-0.1024
-2.9098 famille	-0.1648
-4.6280 familles	-0.1020
-4.0762 fardeau	-0.1078
-4.6280 farfelu	-0.1065
-4.6280 fassent	-0.1038
-4.6280 fauchant	-0.1020
-4.6280 faudrait	-0.1099
-2.7225 faut	-0.2993
-4.6280 faute	-0.1077
-3.1627 fauteuil	-0.1269
-4.6280 faux	-0.0997
-4.6280 favorable	-0.1090
-4.6280 favorisait	-0.1047
-4.6280 favorise	-0.1008
-3.4137 façon	-0.6343
-4.0762 femme	-0.1057
-4.0762 femmes	-0.1008
-4.0762 ferait	-0.1046
-4.6280 ferme	-0.1044
-4.6280 fermement	-0.1024
-4.6280 fermes	-0.1098
-4.6280 fermé	-0.1035
-4.6280 fessai	-0.1065
-4.6280 fessaient	-0.1038
-4.0762 fessait	-0.1038
-4.0762 fessant	-0.0908
-4.6280 fiancée	-0.1018
-4.0762 fierté	-0.1011
-4.0762 figure	-0.1007
-4.6280 fille	-0.0930
-4.6280 film	-0.1045
-4.6280 fils	-0.0930
-3.6890 fin	-0.2152
-3.6890 final	-0.1031
-3.5768 finalement	-0.0912
-4.0762 finance	-0.4044
-4.6280 financement	-0.1089
-3.6890 financements	-0.2157
-4.0762 financer	-0.0947
-4.6280 financiers	-0.1034
-4.6280 financièrement	-0.1074
-4.6280 financières	-0.1099
-4.6280 fini	-0.1065
-3.6890 finir	-0.0984
-4.6280 finirai	-0.1094
-4.6280 fins	-0.1008
-4.6280 fixe	-0.1099
-4.6280 fixés	-0.1020
-4.6280 flotteurs	-0.1034
-4.6280 flyers	-0.1099
-4.6280 foi	-0.1038
-3.0925 fois	-0.2101
-4.6280 folie	-0.0930
-4.0762 fonce	-0.1055
-4.6280 foncer	-0.1096
-3.8408 fonction	-0.1037
-4.6280 fonctionnelle	-0.1046
-4.6280 fonctionner	-0.1094
-3.2955 font	-0.1969
-3.8408 foot	-0.1007
-4.6280 football	-0.1034
-4.6280 footballer	-0.1099
-3.5768 force	-0.3063
-4.0762 forces	-0.0984
-3.6890 forcément	-0.0927
-4.0762 formation	-0.1049
-4.0762 formations	-0.0995
-4.6280 forme	-0.1098
-4.6280 forment	-0.1020
-4.6280 former	-0.1096
-3.6890 formes	-0.2347
-4.6280 formidable	-0.1053
-4.6280 formé	-0.1018
-4.0762 formées	-0.4028
-3.8408 fort	-0.2777
-4.6280 forte	-0.1099
-3.5768 fortement	-0.0932
-4.6280 forts	-0.0997
-4.6280 fou	-0.1034
-4.6280 fournir	-0.1035
-4.6280 fournisseur	-0.1095
-4.6280 foutent	-0.1079
-4.6280 foutre	-0.0997
-4.6280 frais	-0.1045
-3.5768 france	-0.1826
-3.8408 français	-0.1049
-4.0762 frappé	-0.0999
-4.6280 frontière	-0.1018
-3.5768 frère	-0.0832
-4.0762 frères	-0.0971
-4.6280 frédéric	-0.1099
-4.0762 fréquemment	-0.4044
-4.6280 fréquente	-0.1093
-4.0762 fréquenter	-0.0971
-4.0762 fréquentes	-0.1046
-4.6280 fur	-0.1014
-4.6280 fut	-0.1098
-3.6890 futur	-0.0882
-4.0762 future	-0.1099
-4.6280 futures	-0.0930
-4.6280 futurs	-0.1099
-4.6280 février	-0.1099
-4.6280 fête	-0.1078
-4.6280 gagnait	-0.1096
-3.5768 gagné	-0.1782
-4.0762 garage	-0.1020
-4.6280 garde	-0.1033
-4.0762 garder	-0.1062
-4.6280 gardé	-0.1047
-4.6280 garçons	-0.1024
-4.0762 gay	-0.1068
-4.6280 genres	-0.1020
-2.9789 gens	-0.3380
-4.6280 gentiment	-0.1044
-4.6280 gestes	-0.1099
-4.6280 gesticulant	-0.1050
-4.0762 gifle	-0.4028
-3.8408 gillard	-0.0929
-4.6280 global	-0.1099
-4.6280 gloire	-0.1045
-4.0762 gothiques	-0.1020
-3.8408 gouvernement	-0.1003
-3.2466 grand	-0.1542
-3.0320 grande	-0.3583
-3.6890 grandes	-0.2324
-4.6280 grandi	-0.1050
-4.0762 grandir	-0.0969
-3.6890 grands	-0.4100
-4.6280 gratuitement	-0.1082
-4.0762 grave	-0.0908
-4.0762 gravement	-0.1010
-4.6280 graves	-0.1008
-4.6280 gravité	-0.1093
-4.6280 gravure	-0.1020
-4.6280 gris	-0.1099
-4.0762 gros	-0.1044
-4.0762 groupe	-0.0863
-4.6280 groupés	-0.1053
-3.1262 grâce	-0.9117
-4.6280 guerrier	-0.1098
-4.6280 guerriers	-0.0930
-4.6280 guide	-0.1081
-4.6280 guider	-0.1094
-4.6280 guillaume	-0.1098
-4.6280 guérir	-0.1098
-3.5768 général	-0.1819
-4.6280 généreux	-0.0997
-4.0762 gérer	-0.1013
-4.6280 gênant	-0.1045
-4.0762 gêner	-0.0966
-4.6280 h	-0.1099
-4.6280 habillage	-0.1020
-4.6280 habille	-0.1073
-3.5768 habitude	-0.4852
-3.8408 habitudes	-0.1020
-4.0762 habituel	-0.1079
-4.6280 habituellement	-0.1047
-4.0762 habituelles	-0.1005
-3.8408 habituer	-0.0832
-4.6280 habitué	-0.1014
-4.6280 habituées	-0.1014
-4.6280 habitués	-0.1014
-4.6280 handball	-0.1046
-2.2828 handicap	-0.2165
-4.6280 handicapante	-0.1020
-3.8408 handicaps	-0.1092
-2.9317 handicapé	-0.1382
-3.1627 handicapée	-0.0745
-2.8502 handicapées	-0.1344
-3.1627 handicapés	-0.0682
-3.5768 handisport	-0.1975
-4.0762 hasard	-0.1019
-4.6280 haut	-0.1099
-4.6280 haute	-0.1053
-4.0762 hauteur	-0.0926
-4.6280 heure	-0.1053
-3.5768 heures	-0.0815
-4.0762 heureusement	-0.1039
-3.4137 heureux	-0.0736
-4.6280 heurtai	-0.1088
-4.6280 hippel	-0.1099
-3.3506 histoire	-0.2141
-4.0762 histoires	-0.4070
-4.6280 hiver	-0.1047
-4.6280 hommage	-0.1090
-3.2026 homme	-0.0798
-3.8408 hommes	-0.1096
-4.6280 honnêteté	-0.0997
-3.8408 honte	-0.2688
-4.6280 hop	-0.1094
-3.8408 horaire	-0.1055
-4.6280 horaires	-0.1018
-4.6280 horizon	-0.1096
-4.0762 horreur	-0.1030
-4.6280 horrible	-0.1018
-3.8408 hors	-0.2690
-4.6280 hublot	-0.1096
-3.0925 hui	-0.2979
-3.6890 humain	-0.1028
-3.6890 humaine	-0.2236
-4.0762 humains	-0.1013
-3.8408 humour	-0.0996
-4.6280 hyperactivité	-0.1081
-4.6280 hyperréflexie	-0.1020
-4.6280 hypertonicité	-0.1098
-4.6280 hypertonie	-0.1099
-4.6280 hyperuricémie	-0.1099
-4.6280 hypothèse	-0.0997
-4.6280 hypotonie	-0.1085
-4.0762 hypotrophiques	-0.0973
-4.6280 hé	-0.1099
-3.6890 hémiplégie	-0.2266
-4.6280 héréditaires	-0.1099
-4.0762 hésitation	-0.1008
-4.6280 ici	-0.1053
-3.6890 ictère	-0.2334
-4.0762 identifier	-0.0927
-4.6280 identifiés	-0.1095
-4.0762 identité	-0.1055
-3.8408 idéal	-0.2774
-3.8408 idée	-0.1030
-4.0762 idées	-0.1073
-4.6280 ignorent	-0.1098
-4.6280 ignoré	-0.1047
-2.2307 il	-0.6870
-4.6280 illusion	-0.1068
-4.6280 illustrations	-0.1050
-2.4455 ils	-0.3418
-4.0762 image	-0.0930
-4.6280 images	-0.1038
-4.6280 imaginai	-0.1081
-3.6890 imagination	-0.0849
-4.0762 imagine	-0.0968
-3.8408 imaginer	-0.2758
-3.6890 imaginez	-0.4073
-4.6280 imaginé	-0.1035
-3.2026 imc	-0.0896
-3.8408 immense	-0.0995
-4.0762 immeuble	-0.4077
-4.6280 imperturbable	-0.1047
-3.6890 importance	-0.2178
-3.1627 important	-0.2383
-4.0762 importante	-0.0985
-3.2955 impossible	-0.0587
-4.6280 impossibles	-0.1014
-4.6280 imposé	-0.1078
-3.8408 impression	-0.0964
-4.6280 improductifs	-0.1079
-4.6280 incidents	-0.1099
-4.6280 incompatibles	-0.1091
-3.8408 inconnu	-0.0961
-4.0762 inconnues	-0.1003
-4.6280 incontestablement	-0.1065
-3.8408 inconvénient	-0.1039
-4.6280 inconvénients	-0.0997
-4.6280 incoordination	-0.1098
-4.6280 indirectement	-0.1086
-4.0762 indispensables	-0.4092
-4.0762 individu	-0.1057
-4.6280 individus	-0.1074
-4.0762 indépendance	-0.1032
-4.0762 infantile	-0.0973
-4.6280 infection	-0.1033
-4.6280 infiniment	-0.1018
-4.6280 infirme	-0.1098
-4.6280 infirmité	-0.1098
-4.0762 infographie	-0.0986
-4.6280 infographiste	-0.1020
-4.6280 information	-0.1053
-4.0762 informations	-0.1008
-3.0925 informatique	-0.1744
-4.6280 informatisées	-0.1073
-4.6280 inhabituelles	-0.1020
-4.6280 injustice	-0.1074
-4.6280 injustices	-0.1020
-4.6280 innovation	-0.1084
-4.6280 inspiré	-0.1093
-4.6280 instabilité	-0.1033
-4.6280 installations	-0.1095
-4.0762 installe	-0.0973
-4.6280 installer	-0.1050
-4.6280 instant	-0.1053
-4.6280 institutrice	-0.0930
-3.8408 institutrices	-0.1027
-4.6280 insuffisante	-0.1096
-4.6280 insuffisantes	-0.1096
-4.6280 insuffisants	-0.1096
-4.6280 intellectuelle	-0.1097
-4.6280 intellectuels	-0.1065
-4.6280 intelligence	-0.1097
-4.0762 intelligentes	-0.4028
-4.0762 intense	-0.1063
-4.6280 intention	-0.1045
-4.6280 intentionnel	-0.1099
-4.6280 interdisant	-0.1024
-4.6280 interdit	-0.1065
-4.6280 interdits	-0.1079
-3.4876 internet	-0.0977
-4.6280 interrogations	-0.1074
-3.8408 intervenante	-0.0888
-3.4137 intervenantes	-0.2461
-4.6280 intervenants	-0.1097
-3.5768 interventions	-0.0938
-4.6280 interview	-0.0997
-4.0762 intégration	-0.0903
-4.0762 intéressant	-0.0847
-4.0762 intéressent	-0.0937
-3.6890 intéressé	-0.4015
-4.6280 intéressées	-0.1093
-4.6280 invalidante	-0.1033
-3.8408 invalides	-0.1027
-4.6280 invitations	-0.1099
-4.0762 inviter	-0.0973
-4.0762 invité	-0.1006
-3.8408 involontaires	-0.2826
-4.6280 inégalité	-0.1050
-4.6280 irm	-0.1099
-4.6280 irresponsable	-0.1096
-3.5768 iut	-0.3081
-1.8294 j	-1.0004
-2.9547 jamais	-0.1265
-4.0762 jambes	-0.0970
-4.0762 janvier	-0.1098
-1.6322 je	-0.7170
-3.6890 jeu	-0.0871
-4.0762 jeune	-0.1095
-3.4876 jeunes	-0.2640
-4.0762 jeux	-0.1096
-3.4876 joie	-0.1611
-4.6280 joies	-0.1073
-4.6280 joins	-0.1046
-4.0762 jouai	-0.0979
-4.6280 jouaient	-0.1074
-4.6280 jouait	-0.1014
-4.6280 jouent	-0.1035
-4.6280 jouer	-0.1018
-4.6280 jouera	-0.1074
-4.0762 joues	-0.4084
-4.6280 joueur	-0.0930
-4.6280 joueurs	-0.1091
-2.9317 jour	-0.1359
-4.6280 journalières	-0.1034
-4.0762 journée	-0.1094
-3.6890 journées	-0.0943
-3.0320 jours	-0.1400
-4.6280 joyeuse	-0.1091
-4.6280 joyeuses	-0.1089
-4.6280 joyeux	-0.1060
-4.0762 joystick	-0.0929
-4.6280 jugeaient	-0.1069
-4.6280 jugement	-0.1077
-4.6280 jugements	-0.1020
-4.6280 juger	-0.1087
-4.6280 jugez	-0.1046
-4.6280 juillet	-0.1099
-4.6280 juin	-0.1099
-3.2955 jusqu	-0.7520
-3.2466 juste	-0.2346
-4.6280 justifier	-0.1069
-4.0762 kaligrav	-0.1028
-3.8408 kiné	-0.0973
-1.9152 l	-0.3380
-1.7055 la	-0.3679
-4.6280 lacunes	-0.1053
-4.6280 laid	-0.1068
-3.8408 laisse	-0.0972
-3.6890 laisser	-0.1003
-4.6280 laquelle	-0.1075
-4.6280 large	-0.1099
-4.6280 laser	-0.1099
-4.6280 lave	-0.1020
-4.0762 laver	-0.1036
-1.7638 le	-0.3808
-4.6280 lelogiciel	-0.1065
-4.0762 lent	-0.4028
-4.6280 lente	-0.1020
-4.6280 lents	-0.1099
-3.8408 lequel	-0.2692
-1.6835 les	-0.3700
-4.6280 lesch	-0.1099
-4.0762 lesquels	-0.1008
-3.8408 lettre	-0.1098
-4.0762 lettres	-0.1074
-4.6280 leucodystrophie	-0.1099
-2.4680 leur	-0.2264
-3.1262 leurs	-0.1082
-4.6280 levé	-0.1035
-4.6280 levés	-0.1008
-3.5768 leçon	-0.4886
-4.6280 leçons	-0.0930
-3.8408 liberté	-0.0959
-4.6280 libre	-0.1096
-4.6280 librement	-0.1053
-4.6280 libres	-0.1034
-3.8408 lien	-0.1052
-3.6890 liens	-0.2314
-4.0762 lieu	-0.3940
-4.6280 lieux	-0.1099
-4.6280 lille	-0.1034
-4.6280 limite	-0.1038
-4.0762 limites	-0.1098
-4.6280 limité	-0.1096
-4.6280 limitée	-0.1014
-4.6280 limités	-0.1074
-4.6280 lindau	-0.1085
-4.6280 linguaux	-0.1020
-4.0762 lionne	-0.1017
-4.6280 liraient	-0.1047
-4.6280 lire	-0.1089
-4.6280 liront	-0.1047
-4.6280 lisant	-0.1069
-4.6280 lisent	-0.1065
-4.6280 lisez	-0.1065
-4.0762 lisible	-0.0996
-4.6280 lisibles	-0.1014
-4.6280 lit	-0.1020
-4.6280 live	-0.0997
-2.6956 livre	-0.2600
-4.0762 livres	-0.1077
-4.0762 liés	-0.0988
-4.6280 local	-0.1014
-4.0762 location	-0.1020
-4.6280 logement	-0.1018
-3.8408 logements	-0.2857
-4.6280 logicielle	-0.1099
-3.8408 logiciels	-0.0870
-4.0762 logique	-0.1049
-4.6280 logos	-0.1020
-3.4876 loin	-0.0721
-3.8408 long	-0.0902
-4.6280 longs	-0.1099
-4.6280 longtemps	-0.1099
-3.6890 longue	-0.0877
-3.6890 lorsqu	-0.2232
-3.1627 lorsque	-0.3017
-4.0762 louer	-0.4045
-3.5768 lourd	-0.1968
-4.6280 lourdement	-0.1093
-3.6890 lu	-0.2260
-3.0612 lui	-0.1548
-4.6280 lumineuse	-0.1018
-4.6280 lumière	-0.1066
-4.0762 lycée	-0.1031
-3.3506 là	-0.0755
-4.0762 légèrement	-0.1082
-4.6280 lésion	-0.1098
-2.2443 m	-0.4497
-2.1040 ma	-0.6035
-4.6280 macadam	-0.1020
-4.0762 magasin	-0.1084
-4.0762 magasins	-0.1018
-3.8408 magie	-0.0923
-4.6280 magique	-0.1050
-4.0762 magiques	-0.1033
-4.6280 magnifique	-0.1082
-4.6280 magnifiques	-0.1099
-3.6890 mai	-0.1018
-4.6280 main	-0.1046
-4.0762 mains	-0.0930
-4.6280 maintenance	-0.1014
-3.6890 maintenant	-0.1058
-4.6280 maintien	-0.0930
-2.3907 mais	-0.1965
-3.2955 maison	-0.0911
-4.6280 maisons	-0.1095
-3.5768 majorité	-0.3201
-3.4137 mal	-0.2416
-4.6280 malade	-0.1020
-4.0762 malades	-0.1096
-3.6890 maladie	-0.2179
-4.6280 malcom	-0.1099
-4.6280 maleki	-0.1020
-3.3506 malgré	-0.2157
-3.5768 malheureusement	-0.0792
-4.0762 malheureux	-0.1010
-4.0762 malheurs	-0.1055
-4.6280 manette	-0.0930
-4.6280 mange	-0.1044
-4.6280 manger	-0.1095
-4.6280 manipulations	-0.1098
-4.6280 manipule	-0.1014
-3.8408 manipuler	-0.0930
-4.6280 manipulées	-0.1050
-3.4876 manière	-0.1544
-4.6280 manquaient	-0.1094
-4.0762 manque	-0.1037
-4.6280 manuel	-0.1018
-4.6280 marche	-0.1081
-3.8408 marcher	-0.0979
-4.6280 marché	-0.1014
-4.6280 mardis	-0.1018
-3.8408 mariage	-0.2798
-3.6890 marie	-0.4101
-4.6280 mascotte	-0.0930
-4.6280 master	-0.1034
-4.6280 match	-0.0930
-4.6280 matchs	-0.1081
-4.6280 maternelle	-0.1068
-4.6280 maternels	-0.1018
-4.0762 mathématique	-0.1017
-4.6280 matin	-0.1053
-3.4876 matériel	-0.0938
-3.8408 maubeuge	-0.1059
-4.6280 mauvais	-0.1099
-4.0762 mauvaise	-0.1099
-4.6280 mauvaises	-0.1099
-4.0762 max	-0.0994
-4.0762 maximum	-0.0927
-4.0762 maîtres	-0.4109
-4.6280 maîtresses	-0.1099
-2.0195 me	-0.2673
-3.8408 meilleur	-0.1098
-3.6890 meilleure	-0.2260
-3.5768 membres	-0.0822
-4.6280 mener	-0.1033
-4.6280 mental	-0.1073
-4.0762 mentale	-0.1099
-4.6280 mentalité	-0.1091
-4.6280 mentaux	-0.1082
-4.6280 menu	-0.0930
-3.3506 merci	-0.7035
-2.3087 mes	-0.3651
-3.4137 message	-0.1641
-4.0762 mesure	-0.0912
-4.0762 mesures	-0.1099
-4.0762 met	-0.4084
-4.6280 mets	-0.1047
-4.6280 mettait	-0.1014
-3.3506 mettre	-0.2927
-4.6280 meuble	-0.1069
-4.6280 micro	-0.1099
-4.6280 midi	-0.1098
-4.0762 mien	-0.0915
-4.6280 mienne	-0.1068
-3.4876 miens	-0.0996
-3.2466 mieux	-0.0988
-4.6280 milieu	-0.1038
-4.6280 milles	-0.1097
-4.6280 milliards	-0.1045
-3.8408 millions	-0.0777
-4.6280 mince	-0.1092
-3.8408 minimum	-0.1095
-4.6280 ministres	-0.1096
-4.6280 ministère	-0.1018
-3.6890 minorité	-0.0975
-3.8408 minorités	-0.1040
-4.6280 minute	-0.1095
-3.8408 minutes	-0.1073
-4.6280 miracles	-0.1082
-4.0762 miroir	-0.0913
-3.2955 mis	-0.1360
-4.0762 mise	-0.4064
-4.6280 mixte	-0.1008
-4.0762 mixtes	-0.4091
-4.6280 mobilisé	-0.1018
-4.6280 mobilité	-0.1099
-4.0762 mode	-0.3940
-4.6280 modifier	-0.1099
-4.0762 modèle	-0.1012
-2.2878 moi	-0.2284
-3.0925 moins	-0.0982
-2.9547 mois	-0.3016
-3.4137 moment	-0.1507
-3.6890 moments	-0.2345
-1.9261 mon	-0.4728
-2.4529 monde	-0.2133
-4.6280 mondes	-0.1082
-4.0762 monsieur	-0.1074
-4.6280 monstres	-0.1082
-4.6280 montait	-0.1081
-4.0762 monter	-0.4060
-4.0762 montre	-0.1039
-4.6280 montrent	-0.1033
-3.1627 montrer	-0.2458
-4.0762 montré	-0.1011
-4.6280 montée	-0.0930
-4.6280 monétaire	-0.1098
-4.0762 moquent	-0.0866
-4.6280 moqueurs	-0.1034
-3.6890 moral	-0.0845
-4.0762 mort	-0.0903
-3.8408 mot	-0.1076
-3.5768 moteur	-0.0967
-3.6890 moteurs	-0.1009
-4.6280 motivait	-0.1091
-3.4876 motivation	-0.3937
-4.6280 motivations	-0.1018
-4.6280 motivés	-0.1033
-4.6280 motoneurone	-0.1099
-3.6890 motrice	-0.0942
-3.2955 mots	-0.0987
-4.6280 mourir	-0.1096
-4.6280 mourrai	-0.1053
-3.0925 mouvements	-0.1167
-3.4876 moyen	-0.2547
-4.6280 moyenne	-0.1096
-4.0762 moyens	-0.4028
-4.6280 moyenâgeuses	-0.0997
-4.6280 mucopolysaccharidoses	-0.1045
-4.0762 muet	-0.1016
-4.6280 multicontrol	-0.1097
-4.6280 multitude	-0.0930
-4.6280 municipale	-0.1074
-4.0762 murir	-0.4030
-4.0762 muscles	-0.1080
-3.6890 musculaire	-0.0952
-4.6280 musculaires	-0.1065
-3.8408 musique	-0.0878
-4.6280 musulmane	-0.1073
-4.6280 myopathie	-0.1069
-4.6280 mâture	-0.1018
-2.9317 mère	-0.1208
-4.0762 mères	-0.1018
-3.2955 médecin	-0.1956
-4.6280 médias	-0.1090
-4.0762 méfiance	-0.1034
-4.6280 mémoire	-0.1067
-4.6280 mémoriser	-0.1046
-4.0762 méningite	-0.1019
-4.6280 méprisent	-0.1008
-4.6280 mérite	-0.0930
-4.6280 métaboliques	-0.1096
-4.6280 métabolisme	-0.1038
-4.6280 métachromatique	-0.1020
-3.6890 méthode	-0.2267
-4.6280 méthodes	-0.1018
-2.6583 même	-0.1637
-3.4876 mêmes	-0.1065
-2.1315 n	-0.6748
-4.0762 nageurs	-0.1066
-3.4137 naissance	-0.0783
-4.6280 natale	-0.1077
-4.0762 nature	-0.1092
-4.0762 naturel	-0.0963
-4.6280 naturelle	-0.1060
-4.0762 naturellement	-0.0915
-4.6280 naturelles	-0.1018
-4.6280 nazisme	-0.0997
-4.6280 naître	-0.1096
-2.1073 ne	-0.3803
-4.0762 nettement	-0.1096
-4.6280 neurofibromatose	-0.1033
-4.6280 neurologique	-0.1008
-4.6280 neurologiques	-0.1099
-4.6280 neurones	-0.1014
-3.6890 neutre	-0.2248
-3.0047 ni	-0.1430
-4.6280 niqué	-0.1082
-3.2026 niveau	-0.2027
-3.8408 nom	-0.0731
-3.6890 nombre	-0.3883
-3.6890 nombreuses	-0.2245
-3.5768 nombreux	-0.2061
-4.6280 nomme	-0.1099
-3.1627 non	-0.2262
-4.6280 nordiques	-0.1095
-3.5768 normal	-0.1908
-3.3506 normale	-0.0696
-3.6890 normalement	-0.0829
-4.0762 normales	-0.1005
-3.6890 normalité	-0.1052
-4.6280 normalités	-0.1081
-3.8408 normes	-0.1033
-3.3506 nos	-0.1089
-4.6280 note	-0.1096
-3.8408 notes	-0.2703
-4.6280 notion	-0.0930
-2.9547 notre	-0.1722
-4.6280 nourrissent	-0.1078
-4.6280 nourrit	-0.1074
-4.6280 nourriture	-0.1020
-2.6130 nous	-0.1929
-3.4876 nouveau	-0.0896
-4.6280 nouveaux	-0.1097
-4.6280 nouvel	-0.1099
-3.5768 nouvelle	-0.2035
-3.2026 nouvelles	-0.4483
-4.6280 noyaux	-0.1099
-4.6280 noël	-0.1099
-4.0762 nucléaire	-0.1035
-4.6280 nuit	-0.1018
-4.6280 nuits	-0.1014
-4.6280 nul	-0.1050
-4.6280 nyhan	-0.1038
-3.6890 né	-0.0822
-4.6280 néant	-0.1038
-4.6280 nécessaire	-0.1046
-3.8408 nécessaires	-0.1001
-4.6280 nécessitent	-0.1035
-3.6890 négatif	-0.2230
-4.6280 négatifs	-0.1050
-3.6890 négatives	-0.0931
-4.6280 néonatal	-0.1099
-4.0762 néonatale	-0.4030
-4.6280 néonatals	-0.0930
-4.6280 nés	-0.1099
-4.6280 objectifs	-0.1044
-4.6280 objet	-0.1045
-4.6280 objets	-0.1014
-4.6280 obligation	-0.0930
-4.6280 obligations	-0.1013
-4.0762 obligé	-0.3940
-4.6280 obligée	-0.0930
-4.6280 observateur	-0.1097
-4.6280 observer	-0.1035
-4.0762 observés	-0.0984
-3.6890 obstacle	-0.2072
-3.6890 obstacles	-0.2235
-4.0762 obstétrical	-0.1032
-4.6280 obstétricaux	-0.1020
-3.8408 obtenir	-0.0936
-4.6280 obtention	-0.1038
-4.6280 occasion	-0.1045
-4.6280 occupaient	-0.1038
-4.6280 occupais	-0.1098
-4.6280 occupation	-0.1096
-4.0762 occupations	-0.1032
-3.5768 occuper	-0.1819
-4.6280 occupée	-0.0930
-4.6280 occupées	-0.0930
-4.0762 octobre	-0.1098
-4.6280 oculaires	-0.1093
-4.6280 offensé	-0.1078
-4.6280 offre	-0.1045
-4.6280 offrir	-0.1014
-2.2263 on	-0.5300
-3.8408 oncle	-0.1040
-2.4837 ont	-0.2432
-4.0762 onéreux	-0.1005
-3.5768 opinion	-0.0882
-4.6280 opinions	-0.1096
-4.6280 opérateur	-0.1099
-4.0762 or	-0.0983
-4.6280 ordinaire	-0.1046
-3.4137 ordinateur	-0.0794
-4.6280 ordinateurs	-0.1099
-4.6280 ordre	-0.1099
-3.6890 organisation	-0.2136
-3.8408 organiser	-0.0905
-3.8408 organisme	-0.2826
-3.6890 organismes	-0.2178
-3.8408 organisé	-0.5789
-4.6280 organisée	-0.1018
-4.0762 orientation	-0.1016
-4.6280 orienter	-0.1050
-4.0762 originalité	-0.1055
-4.6280 origine	-0.1045
-4.6280 origines	-0.1079
-3.6890 orthographe	-0.0808
-4.6280 orthophonie	-0.1093
-4.6280 orthopédique	-0.1020
-3.8408 osent	-0.2758
-4.6280 ostéotendineux	-0.1033
-2.4837 ou	-0.2118
-4.6280 oubliant	-0.1008
-4.0762 oublie	-0.1037
-3.6890 oublier	-0.0772
-4.6280 oublierai	-0.1094
-4.6280 oubliés	-0.1035
-4.0762 oui	-0.0962
-3.8408 outil	-0.5867
-3.8408 ouvert	-0.5786
-4.0762 ouvre	-0.0925
-4.6280 ouvrent	-0.1008
-3.8408 ouvrir	-0.0981
-3.6890 oxygène	-0.0913
-3.2026 où	-0.2670
-3.4876 p	-0.5790
-4.0762 page	-0.1083
-4.6280 palatins	-0.1060
-4.6280 palier	-0.1014
-4.6280 palsy	-0.1095
-4.0762 panne	-0.1070
-4.0762 papier	-0.0931
-4.6280 papiers	-0.1053
-2.3140 par	-0.5197
-4.6280 paradis	-0.1082
-4.0762 parallèle	-0.0969
-4.6280 paralysie	-0.1077
-4.6280 paralysé	-0.1060
-3.5768 paraplégie	-0.3235
-4.0762 paravent	-0.0952
-4.6280 paraît	-0.1082
-3.6890 parce	-0.4030
-3.1627 parcours	-0.2404
-4.6280 parcourue	-0.1078
-4.6280 pare	-0.1095
-4.0762 parent	-0.1072
-4.6280 parentaux	-0.1099
-2.8890 parents	-0.1899
-4.6280 parfait	-0.1053
-3.4876 parfaitement	-0.2594
-3.4137 parfois	-0.1703
-4.6280 paris	-0.1086
-4.6280 parité	-0.1099
-4.0762 parlait	-0.1079
-4.0762 parlant	-0.0982
-3.2026 parle	-0.1730
-4.0762 parlent	-0.1075
-3.2955 parler	-0.1222
-4.6280 parleur	-0.1082
-4.6280 parlé	-0.0930
-3.5768 parmi	-0.3200
-4.6280 parodique	-0.1095
-3.6890 parole	-0.0837
-3.2466 part	-0.2235
-4.6280 partageons	-0.1024
-3.3506 partager	-0.1529
-4.6280 partagé	-0.1047
-4.6280 parti	-0.0930
-4.6280 participants	-0.1033
-4.0762 participer	-0.1064
-4.0762 participé	-0.0933
-4.6280 particulière	-0.1098
-4.0762 particulièrement	-0.1098
-3.2955 partie	-0.2503
-4.6280 partiels	-0.1060
-4.6280 parties	-0.1099
-3.5768 partir	-0.4886
-4.6280 partis	-0.1045
-4.6280 partout	-0.1014
-4.6280 paru	-0.1053
-4.6280 parution	-0.0930
-4.6280 parvenu	-0.1014
-4.6280 parâtre	-0.1073
-1.8962 pas	-0.1433
-4.6280 passants	-0.1057
-3.8408 passe	-0.1010
-3.1627 passer	-0.1909
-4.6280 passif	-0.1069
-3.8408 passion	-0.0832
-3.1627 passé	-0.0445
-4.0762 passées	-0.1072
-4.6280 passés	-0.1098
-4.0762 patience	-0.0847
-4.6280 patient	-0.1020
-3.6890 patients	-0.2256
-4.6280 pause	-0.1018
-3.8408 payer	-0.1028
-3.4876 pays	-0.0867
-4.6280 paysage	-0.1099
-4.6280 payée	-0.1078
-4.6280 peau	-0.1084
-3.1627 pendant	-0.1938
-4.6280 pendent	-0.1094
-4.6280 pendre	-0.1024
-4.6280 pensant	-0.1094
-2.6956 pense	-0.7125
-3.5768 pensent	-0.1978
-3.5768 penser	-0.1875
-3.6890 pensé	-0.0909
-4.6280 pensée	-0.1077
-4.6280 pensées	-0.1034
-4.6280 perception	-0.1020
-4.6280 perdre	-0.1092
-4.6280 perdu	-0.1093
-4.6280 perfection	-0.1096
-4.6280 permanents	-0.1018
-3.4137 permet	-0.6314
-4.6280 permets	-0.0930
-4.0762 permettant	-0.3940
-4.6280 permettent	-0.1038
-4.0762 permettrait	-0.0873
-4.0762 permettre	-0.3940
-4.6280 permis	-0.0930
-4.0762 permission	-0.1013
-4.6280 persistance	-0.1038
-4.6280 perso	-0.1082
-4.6280 personnage	-0.1099
-4.6280 personnalisés	-0.1014
-3.2955 personnalité	-0.0567
-2.5819 personne	-0.3617
-3.5768 personnel	-0.0904
-3.6890 personnellement	-0.3941
-4.0762 personnelles	-0.0984
-2.2930 personnes	-0.3246
-4.6280 perturbation	-0.1077
-4.6280 perturber	-0.1020
-4.6280 pesant	-0.1034
-4.6280 peser	-0.1081
-3.5768 petit	-0.0928
-4.0762 petite	-0.1098
-3.6890 petites	-0.4106
-3.6890 petits	-0.0986
-3.2026 peu	-0.2298
-4.6280 peuple	-0.1018
-4.6280 peupleront	-0.1082
-4.6280 peuples	-0.1083
-3.2955 peur	-0.3250
-2.6350 peut	-0.3746
-2.8502 peuvent	-0.2969
-3.2026 peux	-0.2997
-4.6280 philippe	-0.1099
-4.0762 philosophie	-0.1012
-4.6280 phobie	-0.1095
-4.0762 photocopie	-0.4075
-4.6280 photocopier	-0.1024
-4.6280 photographie	-0.1053
-4.6280 photomontages	-0.1020
-4.0762 phrase	-0.0984
-4.6280 phrases	-0.1069
-3.4137 physique	-0.0903
-3.8408 physiques	-0.0935
-4.6280 pied	-0.1074
-3.5768 pieds	-0.0888
-4.0762 pions	-0.4034
-3.8408 pire	-0.2636
-3.8408 piscine	-0.0889
-4.6280 pitié	-0.1098
-4.6280 pitoyable	-0.1047
-4.6280 pièce	-0.1014
-3.2026 place	-0.1094
-4.6280 plage	-0.1099
-4.6280 plains	-0.1044
-4.6280 plaint	-0.0930
-3.2466 plaisir	-0.1716
-4.6280 planète	-0.1082
-4.6280 plaît	-0.1044
-4.6280 plein	-0.1091
-4.6280 pleine	-0.1099
-4.6280 pleurer	-0.1008
-4.6280 plonge	-0.1091
-4.6280 plongent	-0.1050
-4.6280 plongé	-0.1050
-3.6890 plupart	-0.3876
-2.2133 plus	-0.2104
-3.4876 plusieurs	-0.1883
-3.8408 plutôt	-0.1026
-4.0762 poids	-0.0931
-3.4137 point	-0.3324
-4.0762 pointe	-0.0866
-4.0762 points	-0.4064
-4.6280 pole	-0.1099
-4.6280 poliment	-0.1020
-4.6280 politiques	-0.1079
-4.6280 polyclinique	-0.1091
-4.6280 polyhandicapé	-0.1093
-3.8408 population	-0.1060
-4.6280 pornographique	-0.1065
-4.6280 portable	-0.1024
-4.6280 portables	-0.1068
-4.0762 portail	-0.1011
-3.3506 porte	-0.2086
-4.6280 portent	-0.1096
-4.0762 porter	-0.1014
-3.4876 portes	-0.0727
-4.6280 portée	-0.1014
-4.0762 pose	-0.0969
-4.6280 posent	-0.1091
-4.0762 positif	-0.1078
-3.8408 positive	-0.1038
-4.6280 positives	-0.0930
-4.6280 possibilités	-0.1099
-3.4876 possible	-0.0797
-4.0762 possède	-0.1092
-4.6280 possédant	-0.1033
-4.6280 post	-0.1099
-4.6280 potentiels	-0.1099
-1.7301 pour	-0.3848
-4.6280 pourcentage	-0.0930
-3.8408 pourquoi	-0.1032
-3.8408 pourra	-0.1082
-4.6280 pourrai	-0.1098
-4.0762 pourraient	-0.1096
-3.8408 pourrais	-0.1057
-3.4137 pourrait	-0.1679
-4.6280 pourront	-0.1083
-4.6280 pourtant	-0.0997
-4.0762 pousser	-0.1081
-4.0762 poussette	-0.4030
-4.0762 pouvaient	-0.1027
-3.5768 pouvais	-0.1013
-3.6890 pouvait	-0.2204
-4.6280 pouvant	-0.1099
-4.0762 pouvez	-0.1098
-3.4137 pouvoir	-0.2454
-4.6280 pouvons	-0.1044
-4.6280 pratiquant	-0.1073
-4.6280 pratique	-0.1024
-3.2466 premier	-0.1013
-2.9317 première	-0.3577
-3.8408 premièrement	-0.0994
-3.1627 prendre	-0.1534
-4.6280 prennent	-0.1018
-3.5768 prenons	-0.0847
-3.3506 presque	-0.0944
-4.0762 preuve	-0.1097
-3.8408 primaire	-0.0960
-4.6280 primaires	-0.1066
-4.0762 primordial	-0.4028
-4.0762 principe	-0.1074
-4.6280 principes	-0.1045
-3.2026 pris	-0.2120
-3.6890 prise	-0.6951
-4.6280 prive	-0.1099
-4.0762 privé	-0.0930
-4.6280 privée	-0.1050
-4.0762 privés	-0.0928
-3.5768 prix	-0.1004
-4.0762 probablement	-0.1047
-4.6280 probables	-0.1099
-2.8692 problème	-0.2417
-2.8692 problèmes	-0.1307
-4.6280 prochain	-0.1034
-4.6280 proche	-0.0930
-4.6280 proches	-0.1077
-4.6280 procure	-0.1033
-4.6280 produirai	-0.1091
-4.6280 produisant	-0.1095
-4.6280 produit	-0.1099
-4.0762 produits	-0.1084
-4.0762 prof	-0.1070
-4.6280 professeur	-0.1020
-3.8408 professeure	-0.0903
-4.0762 professeurs	-0.1018
-4.6280 professionnalisme	-0.1099
-4.6280 professionnel	-0.0997
-4.0762 professionnelle	-0.1007
-4.6280 professionnelles	-0.1060
-3.8408 professionnels	-0.2838
-4.6280 profit	-0.0930
-4.6280 profitent	-0.1095
-4.6280 profiter	-0.0930
-3.6890 profs	-0.4068
-4.6280 programmes	-0.1038
-4.6280 progressifs	-0.1085
-4.0762 progressive	-0.0979
-4.6280 progrès	-0.1014
-3.3506 projet	-0.0753
-4.0762 projets	-0.0971
-4.6280 promenades	-0.1094
-4.6280 promets	-0.1044
-3.6890 promène	-0.0888
-4.6280 prononce	-0.1034
-4.6280 prononcent	-0.1008
-4.0762 prononcer	-0.0973
-4.0762 prononcée	-0.0988
-4.6280 pronostic	-0.1099
-3.0925 propos	-0.6248
-4.6280 propose	-0.1033
-4.6280 proposer	-0.1094
-4.6280 propositions	-0.0930
-3.6890 proposé	-0.0824
-4.6280 proposés	-0.1095
-3.4876 propre	-0.1083
-4.0762 propres	-0.1098
-4.6280 prostitution	-0.1069
-4.6280 protège	-0.1078
-4.6280 protéger	-0.1084
-4.0762 prouver	-0.0958
-4.6280 prouverai	-0.1024
-4.6280 provoquait	-0.1035
-4.0762 provoque	-0.4048
-4.6280 provoquent	-0.1033
-4.6280 proximales	-0.1038
-3.8408 près	-0.2596
-4.6280 préciser	-0.0930
-4.6280 précision	-0.1050
-4.6280 préfère	-0.1098
-4.0762 préjugés	-0.1034
-4.6280 prématurée	-0.1013
-4.6280 prématurés	-0.1085
-4.6280 prénatal	-0.1085
-4.6280 prénatals	-0.1035
-4.0762 préparation	-0.0845
-3.8408 préparer	-0.0877
-3.1627 présent	-0.2280
-3.6890 présentant	-0.3979
-3.5768 présente	-0.1811
-3.8408 présentent	-0.1053
-3.5768 présenter	-0.0854
-4.0762 président	-0.3940
-4.0762 prêt	-0.1011
-4.6280 prêtées	-0.1078
-4.6280 ps	-0.0997
-4.0762 psychologiques	-0.4089
-3.3506 pu	-0.1613
-4.0762 publication	-0.0929
-3.8408 publics	-0.0830
-3.8408 publique	-0.1068
-4.6280 publiques	-0.1014
-2.8502 puis	-0.2778
-4.6280 puisqu	-0.1074
-3.4137 puisse	-0.1633
-3.8408 puissent	-0.1095
-4.6280 punitive	-0.1073
-4.0762 punks	-0.0982
-4.6280 pur	-0.1099
-4.6280 putain	-0.1068
-4.6280 pute	-0.1098
-4.0762 pyramide	-0.1035
-2.7661 père	-0.2306
-4.6280 pénible	-0.0930
-3.6890 périnatale	-0.2236
-4.0762 période	-0.1008
-4.6280 pôle	-0.1099
-2.2584 qu	-0.7456
-4.6280 qualités	-0.0930
-2.7365 quand	-0.3997
-4.6280 quant	-0.1014
-4.6280 quatre	-0.1099
-4.6280 quatrièmement	-0.1096
-1.9004 que	-0.6274
-3.5768 quel	-0.1986
-3.2955 quelle	-0.3568
-4.0762 quelles	-0.4091
-4.6280 quelqu	-0.1035
-3.4876 quelque	-0.5864
-2.9317 quelques	-0.2857
-3.6890 question	-0.0868
-3.8408 questions	-0.1082
-2.1175 qui	-0.4478
-4.6280 quitter	-0.1013
-3.6890 quoi	-0.0963
-4.6280 quotas	-0.1044
-3.5768 quotidien	-0.0926
-4.6280 quotidienne	-0.1068
-4.6280 quotidiennes	-0.1013
-4.6280 r	-0.1083
-4.6280 racial	-0.1053
-4.6280 racines	-0.1045
-4.6280 racontaient	-0.1096
-4.6280 racontant	-0.1094
-3.8408 raconte	-0.1055
-4.6280 racontent	-0.1096
-4.0762 raconter	-0.1009
-4.6280 radio	-0.1050
-3.4137 raison	-0.0788
-3.3506 raisons	-0.2969
-4.6280 ralentissement	-0.1077
-4.6280 ralentit	-0.1098
-4.0762 rancœur	-0.1096
-3.5768 rapidement	-0.1943
-4.6280 rapides	-0.1020
-3.8408 rapport	-0.5786
-4.6280 rapprocher	-0.0930
-4.0762 rare	-0.0990
-4.0762 rarement	-0.1081
-4.6280 rassure	-0.1050
-4.6280 recevoir	-0.1038
-4.6280 recherchai	-0.1035
-4.6280 recherche	-0.1095
-4.6280 recherches	-0.0930
-4.6280 recherchées	-0.1095
-4.6280 reconnus	-0.1078
-4.6280 redonné	-0.1046
-4.6280 referme	-0.1099
-4.6280 refusait	-0.1088
-4.0762 refusé	-0.0908
-2.8692 regard	-0.2368
-3.8408 regardant	-0.0898
-4.6280 regarde	-0.1035
-3.6890 regardent	-0.2269
-3.8408 regarder	-0.0974
-4.6280 regardez	-0.1087
-4.0762 regards	-0.1043
-4.6280 regrouper	-0.1096
-3.8408 relation	-0.2800
-4.6280 relationnel	-0.1073
-4.6280 relativement	-0.1099
-4.6280 relevant	-0.0930
-4.6280 religieuses	-0.1098
-4.6280 religion	-0.1099
-4.0762 remarque	-0.1093
-3.4137 remarques	-0.3470
-3.6890 remarqué	-0.7065
-4.6280 remboursé	-0.1045
-3.3506 remercie	-0.1980
-4.6280 remercier	-0.1065
-4.6280 remets	-0.1090
-4.6280 remis	-0.1053
-4.6280 remonté	-0.1078
-4.6280 remotiver	-0.1065
-4.6280 rempli	-0.1035
-4.0762 remplir	-0.0943
-4.6280 remuer	-0.1078
-4.6280 remédier	-0.0997
-4.6280 rencontre	-0.1098
-3.8408 rencontrer	-0.0908
-3.8408 rencontres	-0.1014
-4.0762 rencontrez	-0.1023
-3.4137 rencontré	-0.1500
-3.6890 rencontrées	-0.0970
-3.8408 rencontrés	-0.1058
-4.6280 rend	-0.1013
-4.6280 rendais	-0.1044
-4.0762 rendent	-0.1097
-4.6280 rendez	-0.1087
-3.5768 rendre	-0.2047
-4.6280 rends	-0.1014
-4.0762 rendu	-0.1052
-4.6280 renie	-0.1044
-4.6280 renouveler	-0.1094
-4.6280 rentabilité	-0.1098
-4.0762 rentrer	-0.1046
-4.6280 repas	-0.1020
-4.0762 reportage	-0.1020
-4.6280 repose	-0.1081
-4.6280 repoussent	-0.1088
-4.6280 reprenant	-0.1024
-4.6280 reprend	-0.1008
-4.6280 représentait	-0.1035
-4.6280 représentant	-0.1098
-4.0762 représentation	-0.0866
-4.6280 représente	-0.1033
-4.0762 représentent	-0.4046
-4.6280 représenter	-0.1092
-4.6280 représenté	-0.1014
-4.6280 représentée	-0.0997
-4.6280 reptatoires	-0.1099
-4.0762 respect	-0.3940
-4.6280 respectent	-0.1084
-4.6280 respecter	-0.1038
-4.6280 respiration	-0.1073
-3.8408 responsable	-0.2776
-4.6280 responsables	-0.0930
-4.6280 ressemblait	-0.1014
-4.0762 ressemble	-0.0988
-4.0762 ressemblent	-0.1012
-3.6890 ressens	-0.3889
-3.8408 ressenti	-0.0837
-4.0762 ressentir	-0.0903
-4.0762 ressource	-0.1018
-4.0762 ressources	-0.0984
-4.6280 restai	-0.1033
-4.6280 restais	-0.1035
-3.2955 reste	-0.2108
-4.6280 restent	-0.1098
-3.8408 rester	-0.1098
-4.0762 restera	-0.1088
-4.6280 restes	-0.1095
-4.6280 resté	-0.1099
-4.6280 retard	-0.1008
-4.6280 retouches	-0.1045
-3.6890 retour	-0.2152
-4.6280 retournent	-0.1081
-4.6280 revenait	-0.1095
-4.6280 revivre	-0.1047
-4.6280 revoir	-0.1047
-3.8408 reçu	-0.0797
-4.6280 riches	-0.1083
-3.6890 richesse	-0.2036
-3.2026 rien	-0.1149
-4.0762 rime	-0.1071
-3.6890 rire	-0.2051
-4.6280 risible	-0.0930
-4.6280 risque	-0.1084
-4.6280 robe	-0.1014
-4.6280 rond	-0.1065
-4.0762 ronde	-0.1023
-4.6280 rougir	-0.1098
-4.6280 roulant	-0.1060
-4.6280 roulement	-0.1060
-4.6280 roulette	-0.1099
-4.6280 route	-0.0997
-3.5768 rue	-0.0784
-4.6280 rupture	-0.1097
-4.6280 russe	-0.1079
-4.6280 règle	-0.0930
-4.6280 ré	-0.1099
-3.6890 réaction	-0.2177
-4.6280 réactions	-0.1038
-4.6280 réadaptation	-0.1099
-4.6280 réagissent	-0.1060
-4.6280 réalisation	-0.1038
-3.2466 réaliser	-0.1205
-4.6280 réalisons	-0.1038
-4.6280 réaliste	-0.1018
-4.0762 réalisé	-0.0980
-3.8408 réalité	-0.0926
-4.0762 réanimer	-0.1020
-3.4137 récemment	-0.3329
-4.6280 récréations	-0.1096
-4.6280 rédaction	-0.0930
-4.6280 rédige	-0.1092
-4.6280 rédiger	-0.1069
-4.6280 réduit	-0.1013
-4.6280 réduite	-0.1099
-4.6280 réelle	-0.1066
-3.8408 réflexes	-0.1096
-4.0762 réflexions	-0.1027
-4.6280 réfléchies	-0.1098
-4.0762 réfléchir	-0.4025
-4.6280 région	-0.1065
-4.6280 régulièrement	-0.1075
-4.6280 réparateur	-0.1098
-4.6280 réparé	-0.1069
-4.6280 répertoire	-0.1092
-4.6280 répond	-0.1044
-4.6280 répondant	-0.1098
-4.0762 répondre	-0.0988
-3.8408 répondu	-0.2744
-4.6280 réponse	-0.1014
-4.6280 réputation	-0.1038
-4.6280 répéter	-0.1008
-4.6280 répétés	-0.1078
-4.6280 réseaux	0.0000
-4.6280 réserver	-0.1014
-4.6280 réservée	-0.1018
-4.6280 résiste	-0.1084
-4.6280 résoudre	-0.1096
-4.6280 résultant	-0.1038
-4.6280 résultat	-0.1034
-4.6280 résultats	-0.1077
-4.6280 résultent	-0.1093
-4.6280 résume	-0.1014
-3.8408 résumé	-0.0854
-3.5768 réunion	-0.1935
-3.5768 réussi	-0.3137
-4.6280 réussir	-0.1097
-3.4876 réussite	-0.0769
-3.8408 réveiller	-0.2762
-4.0762 réviser	-0.1069
-4.6280 révolté	-0.1078
-4.6280 révolutionner	-0.1024
-4.6280 révéler	-0.1033
-4.0762 rééducation	-0.1018
-3.8408 rêve	-0.2698
-4.6280 rêver	-0.1045
-4.0762 rêves	-0.0997
-4.6280 rêveur	-0.1096
-4.0762 rôle	-0.1092
-2.6956 s	-0.2378
-3.0925 sa	-0.2113
-4.6280 sachant	-0.1075
-4.6280 sachs	-0.1013
-4.6280 sages	-0.1091
-3.1627 sais	-0.3182
-3.5768 saisie	-0.1001
-4.0762 saisir	-0.0971
-4.0762 sait	-0.1041
-4.6280 salis	-0.1078
-4.6280 salive	-0.1091
-4.6280 salle	-0.0930
-4.0762 samedi	-0.0995
-2.9098 sans	-0.2168
-4.6280 santé	-0.1078
-4.6280 saoulé	-0.1060
-4.6280 satisfaire	-0.1020
-4.6280 satisfait	-0.0930
-4.6280 savais	-0.1076
-4.6280 savait	-0.1044
-4.6280 savent	-0.1044
-3.4876 savoir	-0.2728
-4.6280 sciences	-0.1053
-4.6280 scientifique	-0.1060
-4.6280 scientifiques	-0.1014
-4.6280 sclérose	-0.1099
-3.2466 scolaire	-0.0714
-4.0762 scolaires	-0.0962
-4.0762 scolarisation	-0.1037
-3.3506 scolarité	-0.3937
-4.0762 sdf	-0.1003
-2.4241 se	-0.2686
-4.6280 secondaire	-0.1008
-4.6280 secondaires	-0.1014
-4.6280 seconde	-0.1073
-4.0762 sein	-0.0982
-3.1262 selon	-0.5191
-3.5768 semaine	-0.0912
-3.8408 semaines	-0.2779
-4.6280 semblables	-0.1068
-4.0762 semble	-0.1093
-4.6280 semblé	-0.1099
-3.1262 sens	-0.1321
-3.8408 sensation	-0.0892
-4.6280 sensations	-0.1082
-3.8408 sensibilisation	-0.1024
-3.4137 sensibiliser	-0.1538
-4.0762 sensible	-0.1011
-4.6280 sensuel	-0.1060
-3.8408 sent	-0.1020
-4.6280 sentais	-0.1094
-4.6280 sentait	-0.1044
-4.0762 sentent	-0.1099
-4.0762 sentiment	-0.1076
-4.0762 sentiments	-0.1065
-3.4137 sentir	-0.1748
-4.6280 sentirais	-0.1044
-3.5768 septembre	-0.0935
-3.5768 sera	-0.0975
-4.0762 serais	-0.1094
-2.9789 serait	-0.2738
-4.6280 serez	-0.1089
-4.6280 sert	-0.1014
-4.6280 servant	-0.1018
-4.0762 service	-0.1092
-3.1262 ses	-0.1083
-3.2026 seul	-0.1157
-3.5768 seule	-0.1829
-3.0925 seulement	-0.1330
-4.6280 seules	-0.1098
-3.8408 sexe	-0.0943
-3.8408 sexualité	-0.0926
-4.6280 sexuel	-0.1053
-4.6280 sexuelle	-0.1024
-2.5623 si	-0.4820
-4.6280 signalétiques	-0.1099
-4.6280 signer	-0.1024
-4.0762 signes	-0.0873
-4.0762 signifie	-0.0989
-4.6280 signifierait	-0.1044
-3.4876 simple	-0.0860
-2.9317 simplement	-0.1049
-4.6280 simples	-0.1014
-4.6280 simplifier	-0.1008
-4.6280 sims	-0.1098
-4.6280 simulez	-0.1035
-3.6890 sincèrement	-0.7065
-3.4876 sinon	-0.2659
-3.6890 site	-0.1011
-3.8408 sites	-0.1019
-3.4137 situation	-0.0609
-4.6280 situations	-0.1044
-4.0762 situe	-0.0964
-4.0762 sms	-0.0915
-4.0762 snc	-0.1068
-4.6280 social	-0.1065
-3.2955 sociale	-0.0654
-4.0762 sociaux	-0.0950
-3.0320 société	-0.1279
-4.6280 sociétés	-0.1099
-3.8408 soi	-0.1009
-4.0762 soient	-0.1008
-3.8408 soins	-0.1098
-4.6280 soir	-0.1090
-4.0762 sois	-0.1017
-3.1262 soit	-0.1149
-4.6280 soixante	-0.1096
-4.6280 solitude	-0.1039
-3.4137 solution	-0.1576
-4.6280 solutions	-0.1090
-4.6280 sombre	-0.1091
-3.8408 somme	-0.1024
-4.0762 sommeil	-0.1008
-3.6890 sommes	-0.1039
-2.7817 son	-0.1350
-4.0762 sons	-0.1066
-2.3780 sont	-0.2387
-4.6280 sortants	-0.1081
-4.6280 sortent	-0.0930
-4.6280 sortie	-0.0930
-3.6890 sorties	-0.1002
-3.4876 sortir	-0.1627
-4.6280 soucis	-0.1090
-4.6280 souffre	-0.1045
-3.5768 souhait	-0.1811
-3.8408 souhaitais	-0.1001
-3.4876 souhaite	-0.0921
-4.6280 souhaitent	-0.1099
-4.6280 souhaiterais	-0.1099
-4.6280 souhaites	-0.1089
-4.6280 souhaitons	-0.1097
-4.6280 souhaits	-0.1044
-4.0762 souplesse	-0.0878
-4.6280 sourd	-0.1099
-4.6280 souris	-0.1020
-4.0762 sous	-0.1098
-3.8408 soutien	-0.0997
-2.7978 souvent	-0.1091
-3.6890 spasticité	-0.0928
-3.3506 spastique	-0.1489
-4.6280 spastiques	-0.1099
-4.6280 spectateur	-0.0997
-4.6280 spectateurs	-0.1095
-4.6280 spinale	-0.1099
-4.6280 spinocérébelleuses	-0.1020
-4.6280 sport	-0.1095
-4.6280 sportifs	-0.1096
-4.6280 spécialement	-0.1099
-4.6280 spécialiste	-0.1014
-4.6280 spécialistes	-0.1050
-3.5768 spécialisé	-0.0719
-3.8408 spécialisée	-0.0947
-4.6280 spécialisées	-0.1090
-4.6280 spécialisés	-0.1089
-3.6890 spécifique	-0.0770
-4.0762 spécifiques	-0.1010
-4.6280 stage	-0.1053
-4.6280 strabisme	-0.1085
-3.6890 stress	-0.0958
-4.6280 stresser	-0.0997
-3.6890 structure	-0.4078
-4.6280 style	-0.1099
-4.6280 stylo	-0.1095
-4.6280 stürge	-0.1099
-3.8408 su	-0.2835
-4.6280 subi	-0.1038
-4.6280 subit	-0.1078
-4.6280 suffisamment	-0.1099
-4.6280 suffit	-0.0930
-4.6280 suicident	-0.1079
-2.4312 suis	-0.2609
-4.6280 suisse	-0.1073
-3.2026 suite	-0.2023
-3.8408 suivant	-0.1054
-3.5768 suivante	-0.3266
-3.6890 suivantes	-0.2206
-3.8408 suivants	-0.0899
-3.8408 suivre	-0.0938
-3.2466 sujet	-0.2947
-4.6280 sujets	-0.1093
-4.6280 supplier	-0.1008
-4.6280 supplémentaire	-0.1018
-4.6280 supporter	-0.1088
-4.6280 supposer	-0.1044
-4.6280 supérieur	-0.1020
-2.3780 sur	-0.4988
-4.6280 surdité	-0.0930
-4.6280 surement	-0.1047
-3.8408 surpris	-0.2818
-4.6280 surprise	-0.0930
-3.5768 surtout	-0.0842
-3.6890 surveillance	-0.0958
-4.0762 surveillant	-0.1016
-4.0762 survie	-0.0986
-4.6280 surviennent	-0.1050
-4.0762 suscite	-0.1098
-4.6280 sustentation	-0.1020
-4.0762 symboles	-0.1053
-4.0762 sympathisé	-0.1013
-4.6280 symétrique	-0.1024
-3.4876 syndrome	-0.2622
-3.4876 syndromes	-0.1889
-4.6280 synonyme	-0.1045
-3.5768 syrie	-0.3044
-3.5768 système	-0.1778
-4.6280 systémique	-0.1099
-4.0762 séance	-0.1073
-4.6280 sécurité	-0.1093
-4.6280 ségolène	-0.1020
-4.0762 séjour	-0.1079
-4.6280 sévère	-0.1077
-4.6280 sûr	-0.0997
-4.6280 sûre	-0.1044
-3.3506 sœur	-0.1280
-3.4876 t	-0.1804
-4.6280 t9	-0.1038
-3.6890 ta	-0.1073
-3.3506 tabou	-0.0910
-4.6280 talent	-0.1013
-4.6280 tant	-0.1095
-3.5768 tard	-0.0854
-4.6280 tas	-0.1069
-4.6280 taux	-0.0930
-4.6280 tay	-0.1099
-4.6280 tdm	-0.1085
-3.6890 te	-0.1097
-4.0762 technique	-0.0962
-4.6280 technologie	-0.1060
-4.0762 tel	-0.1020
-3.8408 tellement	-0.1043
-4.6280 tels	-0.1044
-2.7365 temps	-0.3102
-4.0762 tendance	-0.1005
-4.6280 tendent	-0.1078
-4.0762 tenir	-0.1035
-4.6280 tension	-0.1099
-4.0762 terme	-0.0930
-4.0762 terminal	-0.1060
-4.6280 terminale	-0.1090
-4.6280 terminales	-0.1020
-4.6280 termine	-0.1024
-4.0762 terminerai	-0.1044
-4.6280 terminé	-0.1065
-4.6280 terni	-0.1013
-4.6280 terrain	-0.1098
-3.8408 terre	-0.2763
-4.6280 terroristes	-0.1099
-3.6890 tests	-0.2231
-4.0762 texte	-0.1068
-3.8408 textes	-0.1031
-4.0762 thème	-0.4087
-4.6280 théorie	-0.1020
-4.0762 tiens	-0.4025
-4.6280 tient	-0.1099
-4.0762 tirer	-0.1098
-4.6280 todu	-0.1050
-4.0762 toi	-0.0915
-4.6280 toilette	-0.1046
-3.6890 toilettes	-0.0925
-3.6890 tomber	-0.0977
-4.6280 tombé	-0.1053
-2.9317 ton	-0.3579
-4.6280 tonus	-0.1098
-4.6280 tort	-0.1013
-4.6280 tortue	-0.1099
-3.6890 totalement	-0.0958
-4.6280 totalité	-0.1091
-4.6280 touchant	-0.1093
-3.8408 touche	-0.0908
-4.6280 touchée	-0.1060
-2.5920 toujours	-0.1810
-3.8408 tour	-0.2636
-4.0762 tourne	-0.1098
-4.6280 tourner	-0.1024
-4.6280 tourné	-0.1095
-2.5169 tous	-0.5798
-2.2219 tout	-0.4385
-3.4876 toute	-0.2653
-3.1262 toutes	-0.7345
-3.8408 train	-0.5701
-4.6280 transformer	-0.1008
-4.6280 transport	-0.1020
-4.6280 transposable	-0.1018
-3.8408 traumatisme	-0.2860
-4.6280 traumatismes	-0.1099
-3.2466 travail	-0.1703
-4.6280 travaillai	-0.1060
-4.6280 travaillant	-0.1044
-3.8408 travaille	-0.1009
-4.0762 travaillent	-0.4070
-4.0762 travailler	-0.1034
-4.6280 travaillé	-0.1098
-3.2955 travaux	-0.1991
-3.2026 travers	-0.6451
-4.6280 traînent	-0.1008
-4.6280 tremblement	-0.1099
-4.6280 trente	-0.1099
-4.6280 triste	-0.1014
-3.6890 tristesse	-0.2149
-3.1627 trois	-0.2812
-4.6280 troisièmement	-0.1096
-4.0762 trompe	-0.4054
-4.6280 tronc	-0.1099
-3.0612 trop	-0.0866
-3.4876 troubles	-0.1828
-4.6280 trouva	-0.1090
-4.6280 trouvai	-0.1013
-4.6280 trouvais	-0.1098
-4.0762 trouvant	-0.1073
-3.0047 trouve	-0.2042
-3.6890 trouvent	-0.0896
-3.1262 trouver	-0.1226
-4.6280 trouverai	-0.1046
-4.6280 trouverez	-0.1081
-3.6890 trouvé	-0.2234
-2.5623 très	-0.2726
-3.8408 tt	-0.1038
-2.6130 tu	-0.3106
-4.6280 tubéreuse	-0.1033
-4.6280 tunisie	-0.1053
-4.6280 tv	-0.1099
-4.0762 type	-0.0873
-4.0762 types	-0.3940
-4.6280 télangiectasie	-0.1033
-4.6280 télécommande	-0.1074
-4.6280 téléphonait	-0.1073
-3.6890 téléphone	-0.1060
-4.6280 téléphoner	-0.1076
-4.6280 téléphones	-0.1099
-4.6280 téléphonique	-0.1099
-3.8408 téléthon	-0.0822
-3.3506 télévision	-0.0726
-4.6280 témoignage	-0.1020
-3.5768 tétraplégie	-0.2029
-3.8408 tétraplégique	-0.2857
-3.4137 tête	-0.1599
-4.6280 tôt	-0.1018
-1.8365 un	-0.3012
-1.8224 une	-0.2697
-4.6280 union	-0.1073
-3.5768 uniquement	-0.0755
-4.6280 united	-0.1099
-4.6280 unité	-0.1099
-3.8408 univers	-0.1066
-4.6280 universitaire	-0.0930
-4.0762 usagés	-0.1046
-4.0762 utile	-0.0967
-3.8408 utiles	-0.0989
-4.6280 utilisais	-0.1053
-3.8408 utilisateur	-0.0923
-4.6280 utilisateurs	-0.1096
-4.6280 utilisation	-0.1008
-3.8408 utilise	-0.0973
-4.0762 utiliser	-0.4088
-4.6280 utilisée	-0.1078
-4.6280 utilisés	-0.1018
-4.6280 utopie	-0.1050
-4.0762 v	-0.1074
-3.6890 va	-0.1056
-4.6280 vagues	-0.1082
-3.2026 vais	-0.1385
-4.6280 valeur	-0.1099
-3.2955 valide	-0.0491
-3.4876 valides	-0.0797
-4.6280 variable	-0.0930
-4.6280 vas	-0.1099
-4.6280 vella	-0.1074
-3.6890 venait	-0.4046
-4.6280 vendant	-0.1038
-3.8408 vende	-0.2749
-3.5768 venir	-0.3212
-4.6280 ventre	-0.0930
-4.6280 venu	-0.1095
-4.6280 venue	-0.1095
-4.0762 verbale	-0.1079
-2.9789 vers	-0.3174
-4.6280 vert	-0.1060
-4.6280 vertical	-0.1008
-4.6280 vertébrale	-0.1020
-3.5768 veulent	-0.1892
-3.3506 veut	-0.1457
-3.6890 veux	-0.1082
-4.6280 viable	-0.1053
-4.6280 victimes	-0.0930
-4.0762 vide	-0.1042
-3.8408 vidéo	-0.1080
-2.3087 vie	-0.1431
-4.6280 vieil	-0.1098
-4.6280 viendra	-0.0930
-4.0762 viennent	-0.4105
-4.6280 viens	-0.0997
-4.0762 vient	-0.1092
-3.8408 village	-0.2734
-4.0762 virage	-0.4060
-4.6280 virtuel	-0.1096
-4.0762 virtuelle	-0.1075
-4.6280 virtuels	-0.1099
-3.3506 vis	-0.2058
-4.6280 visage	-0.1094
-3.5768 vision	-0.1725
-4.6280 visitai	-0.1038
-4.6280 visite	-0.1099
-4.6280 visité	-0.1038
-4.6280 visuels	-0.1008
-4.0762 vit	-0.1009
-3.6890 vite	-0.1097
-4.6280 vitesse	-0.0930
-4.0762 vivait	-0.4060
-4.6280 vivant	-0.1095
-3.8408 vivent	-0.0966
-3.0925 vivre	-0.1780
-4.6280 voici	-0.1008
-3.8408 voie	-0.0805
-3.8408 voient	-0.0898
-4.6280 voies	-0.1033
-3.2955 voir	-0.0683
-3.3506 voire	-0.1975
-3.4137 vois	-0.0722
-4.6280 voit	-0.1095
-4.6280 voiture	-0.1038
-4.6280 voitures	-0.1084
-4.6280 voiturette	-0.1098
-4.0762 volontaires	-0.1044
-3.4876 volonté	-0.1472
-4.6280 volontés	-0.1065
-4.6280 volume	-0.1099
-4.6280 von	-0.1099
-4.0762 vont	-0.1089
-3.6890 vos	-0.1096
-3.5768 votre	-0.1075
-3.4137 voulaient	-0.2440
-3.4137 voulais	-0.0911
-3.4876 voulait	-0.2737
-3.5768 voulu	-0.0965
-4.6280 voulue	-0.1079
-2.5345 vous	-0.0713
-4.0762 voyais	-0.1064
-4.0762 voyait	-0.1009
-4.6280 voyez	-0.1047
-4.0762 vrai	-0.1043
-4.0762 vraie	-0.1098
-2.9098 vraiment	-0.0981
-4.6280 vrais	-0.1035
-3.4137 vu	-0.1571
-4.0762 vue	-0.0911
-3.8408 vécu	-0.1039
-4.0762 vérifier	-0.4098
-4.0762 véritable	-0.1097
-4.0762 vérité	-0.4084
-4.6280 vôtre	-0.1078
-4.6280 wc	-0.1097
-3.8408 web	-0.1056
-4.6280 weber	-0.1046
-4.6280 x	-0.1074
-2.6956 y	-0.5526
-4.6280 yeux	-0.1053
-4.6280 yohan	-0.1099
-1.7136 à	-0.4003
-3.4876 âge	-0.5685
-3.8408 âgées	-0.1012
-3.2955 ça	-0.1029
-4.6280 écart	-0.1097
-4.6280 échanger	-0.1060
-4.6280 échanges	-0.1060
-4.6280 échec	-0.1099
-4.6280 échéance	-0.1095
-3.1627 école	-0.1392
-3.8408 écoles	-0.1017
-4.6280 économie	-0.1073
-4.6280 écoutai	-0.1034
-4.0762 écoute	-0.1076
-4.0762 écouter	-0.0847
-4.6280 écran	-0.1045
-4.6280 écraser	-0.1008
-4.6280 écrirais	-0.1044
-3.1262 écrire	-0.4977
-4.6280 écris	-0.1008
-4.0762 écrit	-0.0970
-4.6280 écrite	-0.1039
-4.0762 écrits	-0.1019
-4.0762 écriture	-0.0882
-4.0762 écrivant	-0.1054
-4.6280 écrive	-0.1079
-4.6280 égal	-0.1084
-4.6280 égale	-0.1078
-3.1262 également	-0.1006
-4.6280 égales	-0.1050
-4.6280 égalité	-0.1050
-4.6280 égaux	-0.1075
-4.6280 élargissement	-0.0930
-3.6890 électrique	-0.0773
-4.0762 élevé	-0.0845
-4.6280 élevées	-0.1096
-4.6280 éliminées	-0.1078
-4.6280 élite	-0.1086
-4.6280 élocution	-0.1008
-3.6890 élève	-0.4088
-3.4876 élèves	-0.0851
-4.6280 émission	-0.1068
-4.0762 émissions	-0.1049
-4.6280 émotion	-0.1086
-4.6280 émotionnelle	-0.1020
-3.8408 émotions	-0.0954
-4.6280 énervait	-0.1082
-4.6280 énerver	-0.1079
-3.8408 énorme	-0.2777
-3.2466 énormément	-0.2869
-4.0762 épanouis	-0.0967
-4.6280 épileptiques	-0.1081
-3.5768 époque	-0.3214
-3.6890 équilibre	-0.2042
-4.6280 équipe	-0.0930
-4.6280 équipé	-0.1098
-4.6280 équivalent	-0.1053
-4.6280 établir	-0.1035
-4.0762 établissement	-0.1098
-4.6280 établissements	-0.0930
-3.2466 étaient	-0.1913
-2.8502 étais	-0.2638
-2.3596 était	-0.1807
-3.8408 étant	-0.1026
-4.6280 étape	-0.0930
-4.6280 état	-0.1008
-4.6280 étau	-0.1099
-4.6280 étendu	-0.1096
-4.6280 étiologie	-0.1065
-4.6280 étouffer	-0.1020
-4.6280 étrangère	-0.1065
-4.6280 étroite	-0.1095
-3.8408 étroits	-0.1006
-4.6280 étude	-0.1099
-3.3506 études	-0.1386
-4.6280 étudie	-0.1008
-4.6280 étudier	-0.1047
-3.1627 été	-0.1373
-4.6280 évaluer	-0.1078
-4.6280 évanouit	-0.1098
-4.6280 éventuelle	-0.1099
-4.0762 éventuellement	-0.0875
-4.6280 éventuelles	-0.1099
-4.6280 éventuels	-0.1093
-2.8890 évidemment	-0.2126
-4.6280 évident	-0.1079
-4.6280 éviter	-0.1014
-4.6280 évitez	-0.1008
-4.6280 évolutifs	-0.1066
-4.6280 évolutives	-0.1098
-4.6280 événements	-0.1077
-4.6280 êtes	-0.1008
-2.3907 être	-0.1535
-4.0762 êtres	-0.1066

\2-grams:
-0.9515 0 1 -0.0189
-0.9515 0 2 -0.0427
-0.1301 000 euros -0.1674
-1.1276 1 an -0.0276
-1.1276 1 des -0.0521
-1.1276 1 à -0.0523
-0.9515 10 des -0.0484
-0.9515 10 mai -0.0276
-0.2134 100 euros -0.0345
-0.9515 11 2015 -0.0327
-0.9515 11 ans -0.0251
-0.6505 13 11 -0.0011
-0.6505 130 000 0.5345
-0.2134 14 ans -0.0427
-0.6505 15 des -0.0484
-0.6505 16 ans -0.0477
-0.6505 1992 en -0.0420
-0.9124 2 ans -0.0427
-1.6505 2 des -0.0446
-1.6505 2 gros -0.0011
-1.6505 2 minutes -0.0189
-0.9124 2 personnes -0.3368
-1.6505 2 suivantes -0.0276
-1.6505 2 suivants -0.0189
-1.6505 2 terminales 0.0574
-1.1276 20 000 0.5345
-1.1276 20 ans -0.0477
-1.1276 20 des -0.0503
-0.6505 2004 et -0.0464
-0.9515 2011 j 0.4205
-0.9515 2011 je -0.0523
-0.9515 2013 j 0.4205
-0.9515 2013 mon 0.0044
-0.6505 2014 puis -0.0298
-1.3495 2015 cependant -0.0495
-1.3495 2015 depuis -0.0471
-1.3495 2015 est -0.0521
-0.6113 2015 je -0.0059
-0.9515 2016 j 0.4205
-0.9515 2016 ça -0.0416
-0.6505 22 h 0.0574
-0.6505 25 des -0.0503
-0.6505 257 les -0.0382
-1.2526 3 ans -0.0477
-0.2550 3 avs -0.4205
-0.3895 30 ans -0.0427
-1.1276 30 pour -0.0350
-0.6505 3000 euros -0.0436
-0.6505 35 000 0.5345
-0.2134 35000 euros -0.0345
-1.2526 4 ans -0.0477
-1.2526 4 grandes -0.0276
-1.2526 4 membres -0.0327
-1.2526 4 mois -0.0474
-0.4980 5 ans -0.0377
-1.4956 5 en -0.0445
-1.4956 5 euros -0.0436
-1.4956 5 février 0.0574
-1.4956 5 ses -0.0450
-0.6505 500 euros -0.0436
-0.6505 6 ans -0.0477
-0.6505 69 par 0.0581
-0.6505 7 ans -0.0477
-0.6505 70 des -0.0484
-0.6905 8 ans -0.0199
-1.4287 8 certes 0.0574
-1.4287 8 et -0.0420
-1.4287 8 participants 0.0574
-1.4287 8 à -0.0413
-2.7509 a accepté 0.0309
-2.7509 a aidé 0.2226
-2.0127 a annoncé 0.0574
-2.0127 a apporté 0.0574
-2.7509 a appris -0.0403
-2.7509 a aucune -0.0276
-2.7509 a augmenté -0.0011
-2.7509 a autorisé 0.0574
-2.7509 a avoué 0.0574
-1.7533 a beaucoup 0.0980
-2.7509 a bien -0.0477
-2.0127 a changé -0.0119
-2.7509 a chié 0.0574
-2.7509 a cinq 0.0574
-2.7509 a confirmé 0.0574
-2.7509 a créé -0.0011
-2.7509 a d -0.0173
-1.7533 a demandé 0.0272
-1.4747 a des -0.0030
-1.5920 a dit -0.0155
-1.7533 a donné -0.0088
-2.7509 a du -0.0514
-2.0127 a décidé -0.0239
-2.7509 a décrit 0.0574
-2.7509 a dû -0.0416
-2.0127 a encore -0.3335
-1.7533 a eu -0.0096
-2.7509 a expliqué 0.0574
-1.7533 a fait -0.0473
-2.0127 a frappé 0.0574
-2.7509 a invité -0.0011
-2.7509 a jamais -0.0474
-2.7509 a l -0.0521
-1.7533 a le -0.0265
-2.7509 a lorsque -0.0444
-1.7533 a mis 0.0366
-2.7509 a montré -0.0011
-2.7509 a participé -0.0011
-1.0502 a pas -0.0392
-1.7533 a passé -0.0276
-2.7509 a permis 0.0574
-2.7509 a pire -0.0189
-2.7509 a plus -0.0430
-2.7509 a plusieurs 0.0465
-2.7509 a pris -0.0436
-2.0127 a proposé -0.0011
-2.0127 a pu -0.0276
-2.7509 a quelques -0.0251
-2.7509 a redonné 0.0574
-2.7509 a refusé -0.0011
-2.7509 a réparé 0.0574
-2.0127 a répondu 0.2334
-2.7509 a réussi 0.2029
-2.7509 a sa 0.0611
-2.7509 a semblé 0.0574
-2.7509 a seulement -0.0456
-2.7509 a son -0.0491
-2.7509 a souvent -0.0324
-2.7509 a sur 0.0619
-2.0127 a sympathisé 0.0574
-2.7509 a t -0.0361
-2.7509 a tendance -0.0011
-2.0127 a toujours -0.0480
-2.7509 a tout -0.0516
-2.7509 a travaillé 0.0574
-1.5920 a un -0.0382
-2.0127 a une -0.0518
-2.7509 a vraiment -0.0479
-1.7533 a également 0.0072
-2.7509 a énormément -0.0427
-2.7509 a étendu 0.0574
-1.5920 a été -0.0189
-0.6505 aah et -0.0508
-0.9515 abandonné cette -0.0511
-0.9515 abandonné mes -0.0460
-0.8666 abord c 1.8282
-1.6047 abord demander 0.0465
-1.6047 abord j 0.4205
-1.6047 abord l -0.0434
-1.6047 abord ma -0.0349
-1.6047 abord pour -0.0523
-0.8666 abord un -0.0482
-0.9515 abordent comment 0.1112
-0.9515 abordent le -0.0461
-0.9515 aborder ces -0.0498
-0.9515 aborder cette -0.0179
-0.6505 abordé le -0.0461
-0.6505 absente et -0.0508
-0.9515 absolument que 0.0587
-0.9515 absolument un -0.0522
-0.2134 abstraction de 0.0183
-0.9515 accepte jusqu 0.4582
-0.9515 accepte tel -0.0011
-0.6505 accepter l -0.0521
-0.7575 accepté de -0.0474
-0.7575 accepté en -0.0439
-1.4956 accepté je -0.0444
-0.7575 accepté ma -0.0092
-1.4956 accessibilité c 0.4780
-1.4956 accessibilité dans -0.0474
-1.4956 accessibilité en -0.0520
-1.4956 accessibilité est -0.0521
-1.4956 accessibilité sont -0.0385
-1.4956 accessibilité une -0.0469
-1.4956 accessibilité évidemment -0.0481
-1.3495 accessible doit -0.0436
-1.3495 accessible et -0.0522
-1.3495 accessible ferait -0.0011
-1.3495 accessible leur -0.0509
-1.3495 accessible évidemment -0.0063
-0.6505 accessibles par -0.0460
-0.9515 accident cependant -0.0495
-0.9515 accident ressemble -0.0011
-0.6505 accompagnant dans -0.0380
-0.6505 accompagnantes qui -0.0449
-0.9515 accompagner aux -0.0499
-0.9515 accompagner seulement -0.0456
-0.9515 accompagné d -0.0173
-0.9515 accompagné par -0.0349
-0.6505 accompagnée par -0.0460
-1.2526 accord d -0.0150
-1.2526 accord j -0.0432
-1.2526 accord je -0.0421
-1.2526 accord que -0.0264
-0.6505 accoucha d -0.0150
-0.6505 accouchement mes 0.0053
-0.6505 accueil de -0.0441
-0.6505 accès au -0.0471
-0.2134 accélérer la -0.3493
-0.6505 accéléré cela -0.0000
-1.2526 achat aux -0.0375
-1.2526 achat d -0.0173
-1.2526 achat donc -0.0488
-1.2526 achat la -0.0483
-0.6505 achats très -0.0409
-0.3895 acheter la -0.3493
-1.1276 acheter les -0.0485
-0.6505 achetez le -0.0522
-0.9515 acheté au -0.0380
-0.9515 acheté mon -0.0432
-0.6505 achetée par -0.0405
-0.6505 achèterai la -0.0483
-0.6505 acides aminés 0.0574
-0.6505 action exemple -0.0427
-0.9515 actions de -0.0469
-0.9515 actions naturelles 0.0574
-1.1276 activités journalières 0.0574
-1.1276 activités p 0.4760
-1.1276 activités quotidiennes 0.0574
-0.6505 actuellement qu 0.0375
-0.6505 adaptation auprès -0.0276
-0.6505 adaptations concernant 0.0707
-1.7297 adapter aussi -0.0456
-1.7297 adapter aux -0.0375
-1.7297 adapter cependant 0.0248
-1.7297 adapter la -0.0483
-1.7297 adapter pour -0.0508
-1.7297 adapter puis -0.0298
-1.7297 adapter simplement -0.0477
-0.4535 adapter à -0.1317
-0.6505 adaptée dans -0.0034
-1.2526 adaptés associés -0.0011
-1.2526 adaptés cela 0.0217
-1.2526 adaptés en -0.0520
-1.2526 adaptés pour -0.0508
-0.6505 adar une -0.0522
-0.2134 admet la -0.0480
-0.6505 adoption si -0.0505
-1.2526 adore quand -0.0494
-0.5144 adore ton -0.2506
-1.2526 adore vous -0.0506
-0.6505 adresser aux 0.0016
-0.9515 adrénoleucodystrophie débute 0.0574
-0.9515 adrénoleucodystrophie infantile -0.0011
-0.6505 adulte auparavant -0.0276
-1.3495 adultes car 0.0076
-1.3495 adultes handicapés -0.0444
-1.3495 adultes pour -0.0350
-1.3495 adultes pourront 0.0574
-1.3495 adultes présentant -0.0276
-0.9515 affecter les -0.0497
-0.9515 affecter légèrement -0.0011
-0.6505 affections évolutives 0.0574
-0.6505 affiches flyers 0.0574
-0.6505 affichés sur -0.0321
-0.6505 afflux encore -0.0490
-0.6505 affronte les -0.0485
-0.9515 affronter dans -0.0085
-0.9515 affronter la -0.0177
-0.6958 afin d -0.3312
-0.2392 afin de -0.0444
-1.1165 afin que 0.1016
-0.6505 agissent envers 0.1358
-0.6505 agit d -0.0173
-1.6047 agréable après -0.0485
-1.6047 agréable cette -0.0109
-1.6047 agréable d -0.0521
-0.8666 agréable de -0.0516
-0.8666 agréable et -0.0519
-1.6047 agréable pour -0.0523
-1.6047 agréable évidemment -0.0481
-0.9515 agréables avec -0.0519
-0.9515 agréables et -0.0420
-2.9058 ai 30 0.1750
-2.9058 ai accepté 0.0309
-1.6296 ai appris 0.0456
-2.9058 ai attendu 0.0574
-2.9058 ai aucun 0.0309
-2.1676 ai aucune -0.0011
-2.9058 ai augmenté -0.0011
-2.9058 ai beaucoup 0.2679
-2.9058 ai besoin 0.0889
-2.9058 ai cet -0.0096
-1.7469 ai commencé 0.0574
-2.9058 ai compris -0.0276
-2.9058 ai connues 0.0574
-2.1676 ai conscience -0.1950
-2.1676 ai constaté 0.0574
-2.9058 ai constitué 0.0574
-2.9058 ai créé -0.0011
-1.9082 ai des -0.2222
-2.9058 ai deux -0.0474
-2.9058 ai difficultés 0.0225
-2.9058 ai droit -0.0276
-1.9082 ai décidé -0.1281
-1.6296 ai découvert 0.0574
-2.1676 ai déjà -0.0011
-2.9058 ai développé 0.0574
-2.9058 ai dû 0.0109
-2.1676 ai effectué 0.0574
-2.9058 ai envie 0.6594
-2.1676 ai essayé 0.0574
-0.8710 ai eu -0.0862
-2.9058 ai eues 0.0574
-1.4612 ai fait -0.1026
-1.9082 ai gagné -0.0803
-2.9058 ai grandi 0.0574
-2.9058 ai horreur -0.0011
-2.9058 ai imaginé 0.0574
-1.6296 ai jamais -0.0012
-2.9058 ai la -0.0429
-2.9058 ai le -0.0522
-2.9058 ai longtemps 0.0574
-2.9058 ai mal -0.0385
-2.9058 ai mis -0.0416
-2.9058 ai mon -0.0476
-2.9058 ai montré -0.0011
-2.9058 ai même -0.0499
-2.9058 ai parlé 0.0574
-2.9058 ai participé -0.0011
-1.3965 ai pas -0.0143
-2.1676 ai passé -0.0361
-2.9058 ai pensé -0.0276
-1.7469 ai pris 0.0800
-2.9058 ai proposé -0.0276
-2.1676 ai pu -0.0276
-2.9058 ai quand -0.0202
-1.9082 ai remarqué 0.1823
-2.9058 ai remercie -0.0403
-1.5373 ai rencontré 0.0248
-2.9058 ai rencontrées -0.0276
-2.9058 ai ressenti -0.0189
-1.9082 ai reçu 0.0574
-2.9058 ai réalisé -0.0011
-2.9058 ai répondu 0.1750
-2.1676 ai réussi 0.2394
-2.9058 ai souvent -0.0324
-1.9082 ai su 0.0574
-2.9058 ai subi 0.0574
-2.9058 ai terminé 0.0574
-2.9058 ai toujours -0.0503
-1.9082 ai tout -0.2134
-1.9082 ai trouvé 0.1823
-1.6296 ai un -0.1276
-1.5373 ai une -0.0432
-1.9082 ai vite 0.0272
-1.9082 ai voulu 0.0100
-2.9058 ai vraiment -0.0479
-2.1676 ai vécu 0.0175
-2.9058 ai à -0.0523
-2.9058 ai écrit -0.0011
-1.9082 ai été 0.0125
-2.0819 aide car -0.0458
-2.0819 aide d -0.0173
-0.9230 aide de -0.3365
-2.0819 aide et -0.0464
-1.0843 aide humaine -0.0336
-2.0819 aide j 0.4205
-2.0819 aide je -0.0467
-1.3437 aide la -0.3384
-2.0819 aide logicielle 0.0574
-2.0819 aide me -0.0381
-2.0819 aide mon -0.0499
-2.0819 aide n -0.0225
-1.3437 aide pour -0.0168
-1.3437 aide scolaire -0.0327
-0.9230 aide à -0.1600
-2.0819 aide énormément -0.0427
-0.6505 aident dans 0.0286
-1.6047 aider après -0.0103
-1.6047 aider cela -0.0517
-1.6047 aider cependant -0.0495
-0.8666 aider dans 0.0462
-1.6047 aider des -0.0212
-1.6047 aider financièrement 0.0574
-1.6047 aider par -0.0514
-1.6047 aider à -0.0523
-1.8546 aides afin 0.0451
-1.8546 aides avaient -0.0385
-1.8546 aides et -0.0450
-1.8546 aides financières 0.0574
-1.1165 aides habituelles 0.0574
-1.8546 aides les -0.0485
-1.1165 aides pour -0.0477
-1.8546 aides quelques 0.0238
-1.8546 aides seulement -0.0456
-0.5784 aides à -0.2078
-1.6047 aidé au -0.0334
-1.6047 aidé elle -0.0506
-1.6047 aidé et -0.0464
-1.6047 aidé quand 0.1212
-0.3286 aidé à -0.1400
-0.6505 aie un -0.0486
-0.6505 ailes comme -0.0509
-1.1276 aime cette -0.0381
-1.1276 aime pas -0.0438
-1.1276 aime récemment -0.0385
-0.6505 aiment si -0.0107
-0.9515 aimer ce 0.0015
-0.9515 aimer mais -0.0447
-0.9515 aimerais nous -0.0502
-0.9515 aimerais y -0.0497
-0.6505 aimé que -0.0394
-0.3895 ainsi que -0.0475
-1.1276 ainsi être -0.0511
-0.6505 aise ou -0.0428
-0.9515 ajouter du -0.0514
-0.9515 ajouter à -0.0495
-0.6505 alcool des -0.0503
-0.6505 alimentation ce -0.0382
-0.6505 allaient acheter 0.1750
-0.2134 allais avoir -0.0477
-0.9515 allait au -0.0471
-0.9515 allait être -0.0511
-0.9752 aller aux -0.4889
-1.9727 aller car -0.0402
-1.9727 aller dans -0.0161
-1.9727 aller du -0.0463
-1.2346 aller en -0.0515
-1.9727 aller loin -0.0361
-1.2346 aller plus -0.3396
-1.9727 aller si -0.0505
-1.9727 aller sur -0.0385
-0.9752 aller vers 0.0172
-0.9752 aller voire 0.1239
-1.2346 aller à 0.0169
-0.6505 allez vous -0.0506
-0.6505 allocation dans -0.0161
-0.6505 allons pas -0.0521
-1.2526 alors d -0.0173
-1.2526 alors je -0.0523
-1.2526 alors que 0.0080
-1.2526 alors si -0.0310
-1.2526 ami je -0.0099
-1.2526 ami l -0.0390
-1.2526 ami n -0.0032
-1.2526 ami qui -0.0198
-0.9515 amie de -0.0385
-0.9515 amie formidable 0.0574
-0.9515 amies les -0.0523
-0.9515 amies moins -0.0456
-0.6505 aminés ou 0.0086
-1.7966 amis afin -0.0180
-1.7966 amis après -0.0298
-1.7966 amis doivent 0.0980
-1.0585 amis donnaient 0.0574
-1.7966 amis elle -0.0328
-1.7966 amis et -0.0420
-1.7966 amis j 0.4205
-1.7966 amis jouaient 0.0574
-1.7966 amis me -0.0520
-1.0585 amis pour -0.0332
-1.7966 amis que -0.0521
-1.7966 amis qui -0.0198
-0.9515 amortir cette -0.0511
-0.9515 amortir leurs -0.0450
-1.1276 amour conjoint 0.0574
-1.1276 amour la -0.0509
-1.1276 amour mes -0.0460
-0.6505 ampleur pour -0.0350
-0.6505 amplifié avec -0.0282
-0.6505 amplifiés avec -0.0221
-0.6505 amusant sur -0.0385
-0.6505 amuse de -0.0115
-0.6505 amusement en -0.0495
-0.6505 amuser et -0.0361
-0.6505 amusé en -0.0470
-0.6505 améliorations pour -0.0110
-0.6505 améliore ma -0.0485
-0.9515 améliorer dans -0.0034
-0.9515 améliorer le -0.0522
-0.6505 amélioré ma 0.0164
-0.6505 améliorés grâce 0.6179
-0.9515 aménagement des -0.0521
-0.9515 aménagement durant -0.0450
-0.6505 aménagements à -0.0482
-0.6505 aménager puis -0.0298
-0.6505 américain sans -0.0479
-1.2526 an au -0.0471
-1.2526 an j -0.0486
-1.2526 an pour -0.0409
-1.2526 an vous -0.0506
-1.1276 analyser peut 0.1624
-1.1276 analyser tout -0.0105
-1.1276 analyser à -0.0315
-0.6505 anatomopathologiques des -0.0484
-0.6505 animal avec -0.0128
-0.9515 animaux en -0.0495
-0.9515 animaux les -0.0523
-0.6505 annoncer les -0.0523
-0.6505 annonces c 0.4780
-0.9515 annoncé cela -0.0480
-0.9515 annoncé qu -0.0371
-1.6047 année d -0.0521
-1.6047 année de -0.0524
-1.6047 année ma -0.0485
-0.8666 année mais -0.3325
-1.6047 année master 0.0574
-1.6047 année que -0.0521
-0.8666 année suivante -0.0981
-1.4287 années cinquante 0.0574
-1.4287 années de -0.0524
-1.4287 années j -0.0114
-1.4287 années ma -0.0349
-0.6905 années mes -0.3077
-1.2526 anomalies cutanées 0.0574
-0.5144 anomalies du -0.0451
-1.2526 anomalies métaboliques 0.0574
-1.9515 ans car 0.0076
-1.9515 ans d -0.0350
-1.9515 ans dans -0.0235
-1.9515 ans de -0.0434
-1.2134 ans en -0.0414
-1.9515 ans et -0.0522
-1.9515 ans forcément -0.0276
-1.9515 ans il -0.0288
-1.9515 ans j -0.0522
-1.9515 ans je -0.0086
-1.9515 ans le -0.0522
-1.9515 ans les -0.0382
-1.9515 ans mes -0.0460
-1.9515 ans mon -0.0521
-1.9515 ans on 0.0097
-1.9515 ans parlent -0.0011
-1.9515 ans pour -0.0409
-1.9515 ans que 0.0080
-1.9515 ans tous -0.0507
-0.6505 anti épileptiques 0.0574
-0.6505 antécédents néonatals 0.0574
-0.6505 août 2015 -0.0327
-0.6505 apaiser leurs -0.0450
-0.6505 apparaissent chez -0.0201
-0.6505 apparaitra négatif 0.1060
-1.1276 appareil cela -0.0442
-0.3895 appareil de -0.3500
-0.6505 appareillage la -0.0523
-0.6505 appareils appartenant 0.0574
-0.2134 apparence physique -0.0239
-0.6505 apparences physiques -0.0189
-0.6505 apparition du -0.0514
-0.6505 appartement ne -0.0518
-0.6505 appartements adaptés -0.0276
-0.6505 appartenant à -0.0399
-0.6505 appartient aussi -0.0456
-0.0733 appel à -0.0887
-1.2526 appelle bassel 0.0574
-1.2526 appelle et -0.0450
-1.2526 appelle les -0.0472
-1.2526 appelle yohan 0.0574
-0.6505 application à -0.0482
-0.6505 applications en -0.0520
-0.6505 appliqué à -0.0156
-0.6505 apport aux -0.0499
-0.6505 apporte une -0.0504
-0.6505 apportent du -0.0514
-0.6505 apporter une -0.0452
-0.6505 apportera un -0.0522
-0.9515 apporté d -0.0437
-0.9515 apporté dans -0.0521
-0.6505 apprenais et -0.0224
-0.9515 apprendre aux -0.0375
-0.9515 apprendre sur 0.0619
-1.2526 apprends ce -0.0417
-1.2526 apprends encore -0.0490
-0.5144 apprends qui -0.3494
-0.6505 apprennent que 0.0587
-1.5536 appris cependant -0.0356
-1.5536 appris défoncer 0.0574
-1.5536 appris qu 0.0552
-1.5536 appris rapidement 0.0693
-0.8154 appris à -0.0451
-0.8154 appris énormément -0.1153
-0.6505 approfondir le -0.0507
-0.6505 appropriées de -0.0497
-0.6505 appréhension en -0.0520
-1.2926 après asphyxie -0.0981
-2.0307 après avoir -0.0501
-2.0307 après elle -0.0506
-2.0307 après je -0.0160
-2.0307 après la -0.0523
-1.0332 après le -0.5232
-2.0307 après ma -0.0349
-2.0307 après midi 0.0574
-1.2926 après mon -0.0426
-2.0307 après on 0.0097
-0.8719 après plus -0.3430
-2.0307 après quelques 0.0238
-2.0307 après t -0.0361
-2.0307 après toutes 0.2304
-2.0307 après une -0.0522
-2.0307 après vende -0.0189
-2.0307 après ça -0.0416
-0.6505 arbre dépassaient 0.0574
-0.6505 arcades du -0.0514
-0.6505 archaïques une -0.0522
-1.1276 argent dont -0.0189
-1.1276 argent je -0.0444
-1.1276 argent à -0.0523
-0.6505 armure et -0.0224
-0.9515 arrivais pas -0.0396
-0.9515 arrivais à -0.0523
-0.9515 arrive pas -0.0396
-0.9515 arrive quelque 0.4760
-0.2134 arrivent à -0.0492
-1.7297 arriver je -0.0173
-1.7297 arriver là -0.0403
-1.7297 arriver rédiger 0.0574
-0.1641 arriver à -0.0054
-0.6505 arriverais jamais -0.0474
-1.4956 arrivé alors -0.0276
-1.4956 arrivé dans -0.0161
-1.4956 arrivé en -0.0470
-0.3368 arrivé à -0.0459
-0.2134 arriération mentale 0.0574
-1.1276 arrêter cette -0.0511
-1.1276 arrêter faire -0.0260
-1.1276 arrêter à -0.0509
-0.6505 arrêterai jamais -0.0474
-1.2526 arrêté au -0.0516
-1.2526 arrêté ce -0.0485
-1.2526 arrêté essayer 0.3000
-1.2526 arrêté pour -0.0110
-0.3519 article je -0.5192
-1.3495 article sur -0.0321
-1.3495 article à -0.0371
-0.6505 articles scientifiques 0.0574
-1.6919 as ces 0.0637
-0.9537 as donné -0.2702
-1.6919 as encore 0.0213
-1.6919 as gagné -0.0327
-1.6919 as rencontrées -0.0276
-1.6919 as sont -0.0512
-0.6943 as tu -0.2131
-1.6919 as voulu -0.0327
-1.3495 asphyxie ictère -0.0276
-1.3495 asphyxie néonatale 0.3584
-0.3519 asphyxie périnatale 0.1823
-0.6505 aspirais à -0.0427
-1.2526 assez difficile 0.0109
-1.2526 assez intelligentes 0.3584
-1.2526 assez longue -0.0276
-1.2526 assez mâture 0.0574
-0.6505 assis tout 0.0795
-0.6505 assistait à -0.0482
-0.9515 assistance et -0.0331
-0.9515 assistance si -0.0505
-0.6505 assistant e -0.0011
-0.1301 assistante sociale -0.0189
-0.6505 assistées par -0.0514
-0.6505 associant très -0.0409
-1.8810 association a -0.0518
-1.8810 association avec -0.0128
-1.8810 association c 0.4780
-1.8810 association d -0.0521
-1.8810 association de -0.0406
-1.8810 association entre -0.0427
-1.8810 association j 0.4205
-0.7221 association m -0.0530
-1.8810 association n -0.0518
-1.8810 association possède -0.0011
-1.8810 association pour -0.0480
-1.1428 association qui -0.0190
-1.8810 association voulait -0.0361
-0.3895 associations d -0.3489
-1.1276 associations sont -0.0512
-0.6505 associées à -0.0371
-0.9515 associés au -0.0516
-0.9515 associés des -0.0521
-0.6505 assouvir comme -0.0362
-0.6505 assouvis pour -0.0466
-0.6505 assumer cependant 0.0248
-0.6505 assure qu 0.0552
-0.6505 asthénie une -0.0522
-0.6505 astuce est -0.0426
-0.6505 astuces pour -0.0480
-1.1276 ataxie et -0.0508
-1.1276 ataxie ou -0.0263
-1.1276 ataxie télangiectasie 0.0574
-0.6505 ataxique et -0.0522
-1.1276 ataxiques s -0.0497
-1.1276 ataxiques sont -0.0512
-1.1276 ataxiques surviennent 0.0574
-1.1276 atelier d -0.0500
-1.1276 atelier de -0.0524
-1.1276 atelier veux -0.0276
-1.3495 athétose due 0.3584
-1.3495 athétose l -0.0521
-1.3495 athétose moins -0.0456
-1.3495 athétose provoque 0.3584
-1.3495 athétose troubles -0.0361
-1.2526 athétosique ataxique 0.0574
-1.2526 athétosique donc -0.0316
-1.2526 athétosique et -0.0522
-1.2526 athétosique je -0.0099
-0.2134 athétosiques ou -0.0490
-0.6505 atout en -0.0495
-0.6505 atrophie musculaire -0.0276
-1.3495 atteindre dans -0.0161
-1.3495 atteindre donc 0.0663
-1.3495 atteindre la -0.0523
-1.3495 atteindre les -0.0523
-1.3495 atteindre par -0.0460
-0.6505 atteindront leurs -0.0450
-1.4287 atteinte corticobulbaire 0.0574
-1.4287 atteinte cérébrale -0.0189
-1.4287 atteinte des -0.0521
-0.6905 atteinte du -0.0503
-1.4287 atteinte motrice -0.0276
-0.6529 atteints d -0.0427
-0.9124 atteints de -0.0516
-1.6505 atteints je -0.0173
-1.6505 atteints la -0.0483
-1.6505 atteints les -0.0523
-1.6505 atteints peuvent -0.0485
-1.6505 atteints sont -0.0512
-0.6505 attendant une -0.0522
-0.6505 attende pour -0.0523
-0.6505 attendes mais -0.0511
-0.6505 attendre au -0.0516
-1.4956 attends beaucoup -0.0496
-1.4956 attends comme -0.0509
-0.7575 attends de -0.0447
-1.4956 attends le -0.0476
-0.7575 attends pas -0.0391
-0.6505 attendu trois -0.0444
-1.2526 attention aux -0.0499
-0.2550 attention à -0.0517
-0.6505 attentionnées dans -0.0380
-0.6505 attire le -0.0415
-0.9515 attirer des -0.0212
-0.9515 attirer plus -0.0161
-1.9036 au ballon 0.0574
-2.6417 au bon -0.0436
-2.6417 au bout 0.0574
-2.6417 au changement -0.0189
-2.6417 au cnrs 0.0574
-1.6442 au collège 0.0574
-2.6417 au combat -0.0276
-2.6417 au concours 0.0574
-1.3655 au cours -0.3683
-1.9036 au cp 0.0574
-2.6417 au cul 0.0574
-2.6417 au côté -0.0011
-2.6417 au dessus -0.0011
-2.6417 au directeur -0.0189
-2.6417 au domaine 0.0083
-1.2733 au début -0.1260
-1.9036 au départ 0.0175
-1.9036 au fait -0.0166
-1.4829 au final 0.0574
-2.6417 au foot -0.0189
-2.6417 au football 0.0574
-2.6417 au grand -0.0427
-1.9036 au jour -0.0199
-1.9036 au lieu 0.0574
-2.6417 au lit 0.0574
-1.9036 au lycée 0.0574
-1.9036 au maximum 0.0574
-2.6417 au mieux -0.0427
-2.6417 au milieu 0.0574
-2.6417 au minimum -0.0189
-1.4829 au mois -0.5150
-1.9036 au monde -0.0105
-2.6417 au moral -0.0276
-1.6442 au même -0.2113
-1.2733 au niveau -0.0389
-2.6417 au nom -0.0189
-1.9036 au paravent 0.0574
-2.6417 au pare 0.0574
-1.9036 au plaisir -0.0327
-2.6417 au primaire -0.0189
-1.9036 au président 0.0574
-1.6442 au quotidien 0.0100
-1.9036 au sein 0.0574
-2.6417 au son -0.0491
-2.6417 au temps -0.0202
-2.6417 au transport 0.0574
-0.9816 au travers 0.0574
-2.6417 au téléphone -0.0276
-2.6417 au village -0.0189
-0.6505 auchant drive 0.0574
-1.4956 aucun appartement 0.0574
-1.4956 aucun cas -0.0180
-1.4956 aucun moyen 0.1485
-0.7575 aucun organisme -0.1260
-0.7575 aucun problème -0.3299
-1.2526 aucune expérience -0.0436
-1.2526 aucune formation -0.0011
-1.2526 aucune opinion -0.0327
-1.2526 aucune précision 0.0574
-0.6505 audience des -0.0212
-0.6505 audiovisuel est -0.0521
-0.6505 augmentant la -0.0523
-0.9515 augmentation de -0.0115
-0.9515 augmentation des -0.0484
-0.6505 augmente leur -0.0431
-0.6505 augmentent avec -0.0432
-0.9515 augmenté fortement -0.0327
-0.9515 augmenté mon -0.0476
-0.0248 aujourd hui 0.0574
-0.5144 auparavant c -0.2100
-1.2526 auparavant envers 0.1358
-1.2526 auparavant je -0.0111
-0.5144 auprès de -0.0166
-1.2526 auprès des -0.0521
-1.2526 auprès du -0.0514
-1.2526 aura plus -0.0161
-0.2550 aura toujours -0.0026
-0.6505 aurai un -0.0522
-0.6505 auraient gagné -0.0327
-1.4956 aurais aimé 0.0574
-1.4956 aurais cette -0.0511
-0.7575 aurais jamais -0.3247
-1.4956 aurais ma -0.0518
-1.4956 aurais mis -0.0416
-1.4956 aurais peut 0.1624
-1.4956 aurait fait -0.0508
-1.4956 aurait la -0.0496
-1.4956 aurait pas -0.0521
-0.7575 aurait pu 0.0341
-1.4956 aurait un -0.0522
-1.4956 aurait été -0.0444
-0.3895 auras des -0.3494
-1.1276 auras le -0.0522
-0.9515 aurez jamais -0.0474
-0.9515 aurez une -0.0522
-0.6505 auront pas -0.0245
-1.7966 aussi agréable -0.0416
-1.7966 aussi car -0.0458
-1.7966 aussi comment -0.0288
-1.7966 aussi des -0.0521
-1.7966 aussi dire -0.0468
-1.7966 aussi facilement -0.0385
-1.7966 aussi les -0.0510
-1.7966 aussi que 0.0587
-1.7966 aussi rapidement -0.0327
-1.0585 aussi une -0.0500
-1.7966 aussi volontaires -0.0011
-1.7966 aussi à -0.0523
-1.7966 aussi évidemment -0.0481
-0.6505 aussitôt que 0.0080
-0.9515 autant de -0.0524
-0.9515 autant fois -0.0128
-1.3495 autobiographie avant 0.0525
-1.3495 autobiographie comme -0.0509
-1.3495 autobiographie comprendront 0.3584
-1.3495 autobiographie m 0.0692
-1.3495 autobiographie pourraient -0.0011
-0.9515 automatique dès 0.0574
-0.9515 automatique puis -0.0298
-0.6505 automatiquement compenser 0.0574
-0.6505 automutilation et -0.0479
-1.2526 autonome c 0.4780
-1.2526 autonome dans -0.0260
-1.2526 autonome pour -0.0523
-1.2526 autonome à -0.0523
-1.6919 autonomie cependant -0.0356
-1.6919 autonomie envers -0.0059
-1.6919 autonomie et -0.0508
-0.9537 autonomie je -0.0071
-1.6919 autonomie l -0.0277
-1.6919 autonomie le -0.0507
-1.6919 autonomie malheureusement -0.0327
-1.6919 autonomie max -0.0011
-1.6919 autonomie sociale -0.0416
-1.6919 autonomie sous -0.0011
-0.6505 autorisation en -0.0495
-0.6505 autorise le -0.0492
-0.6505 autorisé à -0.0495
-0.5144 autour de -0.0447
-0.5144 autour du -0.2356
-1.8810 autre de -0.0476
-1.8810 autre expérience 0.0455
-1.8810 autre façon 0.3491
-1.8810 autre forme 0.0574
-1.8810 autre l -0.0478
-0.7221 autre livre 0.0003
-1.8810 autre orientation -0.0011
-1.8810 autre projet -0.0403
-1.8810 autre regard -0.0288
-1.8810 autre sans -0.0040
-1.8810 autre sens -0.0450
-1.8810 autre souhait 0.0693
-1.8810 autre vision -0.0327
-1.8810 autre à -0.0315
-0.6505 autrement que -0.0521
-2.2840 autres affections 0.0574
-1.2864 autres années -0.1088
-2.2840 autres anomalies -0.0276
-1.2864 autres c 1.6521
-2.2840 autres ce -0.0417
-2.2840 autres défauts -0.0189
-2.2840 autres enfant -0.0450
-2.2840 autres enfants -0.0288
-2.2840 autres enseignantes 0.3584
-2.2840 autres envers 0.0364
-2.2840 autres et -0.0331
-2.2840 autres formation -0.0011
-2.2840 autres intervenantes -0.0385
-2.2840 autres m 0.0179
-2.2840 autres mais -0.0381
-1.1251 autres me -0.6401
-2.2840 autres ne -0.0313
-2.2840 autres nous -0.0502
-2.2840 autres occupations -0.0011
-2.2840 autres par -0.0514
-2.2840 autres patients 0.1060
-2.2840 autres pensent -0.0327
-1.5458 autres personnes 0.0162
-1.5458 autres pour -0.0106
-1.5458 autres projets 0.0574
-2.2840 autres qu 0.0204
-2.2840 autres qui -0.0518
-2.2840 autres si 0.0689
-2.2840 autres sont -0.0512
-2.2840 autres souhaits 0.0574
-2.2840 autres sur -0.0321
-2.2840 autres tout -0.0293
-2.2840 autres viennent 0.3584
-1.2526 autrui d -0.0521
-1.2526 autrui mais -0.0511
-1.2526 autrui me -0.0520
-1.2526 autrui nous -0.0283
-2.2068 aux activités -0.0189
-2.2068 aux aides 0.0805
-2.2068 aux assistant 0.0574
-1.4687 aux autres -0.0480
-2.2068 aux compétences -0.0189
-2.2068 aux contractures 0.0574
-2.2068 aux cours -0.0477
-2.2068 aux diminués 0.0574
-2.2068 aux domaines -0.0189
-2.2068 aux esprits -0.0276
-2.2068 aux faites -0.0276
-1.2092 aux gens 0.1118
-1.4687 aux handicapés -0.0361
-2.2068 aux intervenantes -0.0385
-2.2068 aux jeux -0.0011
-2.2068 aux normes -0.0189
-2.2068 aux parents -0.0481
-0.9306 aux personnes -0.1255
-2.2068 aux problèmes -0.0288
-2.2068 aux profs 0.1060
-2.2068 aux rendez 0.0574
-1.0480 aux toilettes 0.0574
-2.2068 aux usagés -0.0011
-2.2068 aux victimes 0.0574
-2.2068 aux événements 0.0574
-1.4956 avaient beaucoup 0.0069
-1.4956 avaient d -0.0173
-1.4956 avaient pas -0.0521
-1.4956 avaient rien -0.0436
